x1,x2,x3,x4,x5,x6,x7,x8,x9,x10,x11,x12,x13,x14,x15,x16,x17,x18,x19,x20,x21,x22,x23,x24,x25,x26,x27,x28,x29,x30,x31,x32,x33,x34,x35,x36,x37,x38,x39,x40,x41,x42,x43,x44,x45,x46,x47,x48,x49,x50,x51,x52,x53,x54,x55,x56,x57,x58,x59,x60,x61,x62,x63,x64,x65,x66,x67,x68,x69,x70,x71,x72,x73,x74,x75,x76,x77,x78,x79,x80,x81,x82,x83,x84,x85,x86,x87,x88,x89,x90,x91,x92,x93,x94,x95,x96,x97,x98,x99,x100,x101,x102,x103,x104,x105,x106,x107,x108,x109,x110,x111,x112,x113,x114,x115,x116,x117,x118,x119,x120,x121,x122,x123,x124,x125,x126,x127,x128,x129,x130,x131,x132,x133,x134,x135,x136,x137,x138,x139,x140,x141,x142,x143,x144,x145,x146,x147,x148,x149,x150,x151,x152,x153,x154,x155,x156,x157,x158,x159,x160,x161,x162,x163,x164,x165,x166,x167,x168,x169,x170,x171,x172,x173,x174,x175,x176,x177,x178,x179,x180,x181,x182,x183,x184,x185,x186,x187,x188,x189,x190,x191,x192,x193,x194,x195,x196,x197,x198,x199,x200,x201,x202,x203,x204,x205,x206,x207,x208,x209,x210,x211,x212,x213,x214,x215,x216,x217,x218,x219,x220,x221,x222,x223,x224,x225,x226,x227,x228,x229,x230,x231,x232,x233,x234,x235,x236,x237,x238,x239,x240,x241,x242,x243,x244,x245,x246,x247,x248,x249,x250,x251,x252,x253,x254,x255,x256,x257,x258,x259,x260,x261,x262,x263,x264,x265,x266,x267,x268,x269,x270,x271,x272,x273,x274,x275,x276,x277,x278,x279,x280,x281,x282,x283,x284,x285,x286,x287,x288,x289,x290,x291,x292,x293,x294,x295,x296,x297,x298,x299,x300,x301,x302,x303,x304,x305,x306,x307,x308,x309,x310,x311,x312,x313,x314,x315,x316,x317,x318,x319,x320,x321,x322,x323,x324,x325,x326,x327,x328,x329,x330,x331,x332,x333,x334,x335,x336,x337,x338,x339,x340,x341,x342,x343,x344,x345,x346,x347,x348,x349,x350,x351,x352,x353,x354,x355,x356,x357,x358,x359,x360,x361,x362,x363,x364,x365,x366,x367,x368,x369,x370,x371,x372,x373,x374,x375,x376,x377,x378,x379,x380,x381,x382,x383,x384,x385,x386,x387,x388,x389,x390,x391,x392,x393,x394,x395,x396,x397,x398,x399,x400,x401,x402,x403,x404,x405,x406,x407,x408,x409,x410,x411,x412,x413,x414,x415,x416,x417,x418,x419,x420,x421,x422,x423,x424,x425,x426,x427,x428,x429,x430,x431,x432,x433,x434,x435,x436,x437,x438,x439,x440,x441,x442,x443,x444,x445,x446,x447,x448,x449,x450,x451,x452,x453,x454,x455,x456,x457,x458,x459,x460,x461,x462,x463,x464,x465,x466,x467,x468,x469,x470,x471,x472,x473,x474,x475,x476,x477,x478,x479,x480,x481,x482,x483,x484,x485,x486,x487,x488,x489,x490,x491,x492,x493,x494,x495,x496,x497,x498,x499,x500,x501,x502,x503,x504,x505,x506,x507,x508,x509,x510,x511,x512,x513,x514,x515,x516,x517,x518,x519,x520,x521,x522,x523,x524,x525,x526,x527,x528,x529,x530,x531,x532,x533,x534,x535,x536,x537,x538,x539,x540,x541,x542,x543,x544,x545,x546,x547,x548,x549,x550,x551,x552,x553,x554,x555,x556,x557,x558,x559,x560,x561,x562,x563,x564,x565,x566,x567,x568,x569,x570,x571,x572,x573,x574,x575,x576,x577,x578,x579,x580,x581,x582,x583,x584,x585,x586,x587,x588,x589,x590,x591,x592,x593,x594,x595,x596,x597,x598,x599,x600,x601,x602,x603,x604,x605,x606,x607,x608,x609,x610,x611,x612,x613,x614,x615,x616,x617,x618,x619,x620,x621,x622,x623,x624,x625,x626,x627,x628,x629,x630,x631,x632,x633,x634,x635,x636,x637,x638,x639,x640,x641,x642,x643,x644,x645,x646,x647,x648,x649,x650,x651,x652,x653,x654,x655,x656,x657,x658,x659,x660,x661,x662,x663,x664,x665,x666,x667,x668,x669,x670,x671,x672,x673,x674,x675,x676,x677,x678,x679,x680,x681,x682,x683,x684,x685,x686,x687,x688,x689,x690,x691,x692,x693,x694,x695,x696,x697,x698,x699,x700,x701,x702,x703,x704,x705,x706,x707,x708,x709,x710,x711,x712,x713,x714,x715,x716,x717,x718,x719,x720,x721,x722,x723,x724,x725,x726,x727,x728,x729,x730,x731,x732,x733,x734,x735,x736,x737,x738,x739,x740,x741,x742,x743,x744,x745,x746,x747,x748,x749,x750,x751,x752,x753,x754,x755,x756,x757,x758,x759,x760,x761,x762,x763,x764,x765,x766,x767,x768,x769,x770,x771,x772,x773,x774,x775,x776,x777,x778,x779,x780,x781,x782,x783,x784,x785,x786,x787,x788,x789,x790,x791,x792,x793,x794,x795,x796,x797,x798,x799,x800,x801,x802,x803,x804,x805,x806,x807,x808,x809,x810,x811,x812,x813,x814,x815,x816,x817,x818,x819,x820,x821,x822,x823,x824,x825,x826,x827,x828,x829,x830,x831,x832,x833,x834,x835,x836,x837,x838,x839,x840,x841,x842,x843,x844,x845,x846,x847,x848,x849,x850,x851,x852,x853,x854,x855,x856,x857,x858,x859,x860,x861,x862,x863,x864,x865,x866,x867,x868,x869,x870,x871,x872,x873,x874,x875,x876,x877,x878,x879,x880,x881,x882,x883,x884,x885,x886,x887,x888,x889,x890,x891,x892,x893,x894,x895,x896,x897,x898,x899,x900,x901,x902,x903,x904,x905,x906,x907,x908,x909,x910,x911,x912,x913,x914,x915,x916,x917,x918,x919,x920,x921,x922,x923,x924,x925,x926,x927,x928,x929,x930,x931,x932,x933,x934,x935,x936,x937,x938,x939,x940,x941,x942,x943,x944,x945,x946,x947,x948,x949,x950,x951,x952,x953,x954,x955,x956,x957,x958,x959,x960,x961,x962,x963,x964,x965,x966,x967,x968,x969,x970,x971,x972,x973,x974,x975,x976,x977,x978,x979,x980,x981,x982,x983,x984,x985,x986,x987,x988,x989,x990,x991,x992,x993,x994,x995,x996,x997,x998,x999,x1000
-0.06544001667019717,0.031741244356475073,0.1975118536355691,-0.1243429678653577,-0.09001054425869703,-0.13843110624647248,0.25502853360165734,0.1666587817722489,-0.07815895084410074,0.012295147102076243,0.12600020428160064,0.07788930749599543,-0.07796052380666108,0.11505187819202622,0.6111764444320205,0.09020956005800906,0.22519106579929682,-0.024404283765061097,-0.009401630715248355,0.007252503369133079,-0.19904160819399241,0.32673450064362575,0.05083460682765506,0.2609401650244143,0.20915590906411374,0.11806866776946179,0.5220377322191052,0.6403817707519823,-0.1732094353458995,0.0005072814322717445,0.09690449546342861,-0.12616577174711852,0.17879839867870273,0.008372553752571177,0.3434841571006497,0.5732283834157412,0.26760339050186355,0.06997818279389123,-0.18605566522223504,-0.08634786273989947,-0.04690483137392665,-0.1434302781107497,-0.03329811846675734,0.3104608881362383,0.0853648280773136,0.02497686733885418,0.058698662243997335,-0.02044905435195965,0.13516119917082636,-0.04039325099496294,0.17690405686129362,0.29270553248157705,0.11553566700848528,-0.011953726720291047,0.46596299566594923,0.2760965936262847,-0.09620208395254115,-0.26390472647456686,0.21428539349181364,-0.14343937852935496,0.3309962226827996,0.16202038666750562,0.07013451992141051,-0.11797496976730482,0.08576501357744304,-0.009474325510059,0.014769145216454893,0.08433287319032656,0.4533269152298238,-0.09456070802403482,-0.001156586688093153,0.06215998648018317,-0.06943663974255232,-0.1477717068947484,-4.45167463999363e-5,0.32442116592672066,0.7506754110663891,-0.11020196240067182,-0.06639333732467334,-0.1539362248919416,0.031128549116527404,0.23718390474732987,0.046355298178245574,-0.06483603587385955,0.1580115709353973,-0.0356846865186079,-0.19796105070188297,-0.10358456139855676,-0.06142724607263439,-0.044229041510550626,-0.02511143134979177,-0.1887827402753901,0.05678695518171106,0.10810748932764236,0.3326649922589928,0.11951771509660758,0.26255494958073866,0.04100961303869188,0.09216071642970358,0.12100817762210725,0.18065778292086643,0.03232245087019803,-0.09431914585196621,-0.05989133882275699,0.06881608359934943,0.003837121928901732,0.15825572402866706,-0.07434633834860604,0.08149965394251146,-0.21933587265885768,-0.18276049884643686,-0.15480315039744663,0.3424631068812318,0.07144796103899087,-0.0029586401939905027,-0.030960674612979355,-0.014972622262590773,-0.13547819925962135,-0.06986890993969175,0.19195997609656779,0.24002350579722198,0.04682291583386489,0.0624037354082323,0.09242803972305946,0.05689939984065728,0.05441056972334479,0.04428214425506849,-0.042879202911607184,0.26850897565675647,-0.027897697318270964,-0.10062265964848138,0.07904494184751898,0.02366136996524415,-0.077218982324466,-0.16243146192483215,0.08963471057751993,0.3838040794366009,-0.08516925676035358,0.4174252083734935,0.33784743939445483,-0.07210603065746168,0.3323264456125159,0.05194061511841763,-0.07407942261960432,-0.04838558078713495,-0.2623782229573116,0.1609930021063184,0.08658114232189207,0.04699238517266591,-0.18467671393878848,-0.02587241572162391,0.2329083241121057,-0.0717728280708132,-0.16545269010874009,-0.08526194578919533,0.04404769370640804,0.15346257487801518,0.3555999739600011,0.08817618628575863,0.33190787889510776,0.09426592727922034,-0.005103752703755626,-0.04780158483744401,-0.06935852716998181,-0.04839906538554972,-0.055745176611616154,-0.061457487687348045,-0.03266924935925586,0.34074748861256654,-0.18684215538058135,-0.09372788924539333,-0.010658351730590598,-0.1399827785410881,0.10636690863237552,0.03377124390770825,0.35274917328225186,-0.18231883384479164,-0.1431879281338022,0.10803882302445622,0.001531855017294248,0.01174351726191869,-0.19061781824781432,-0.0549289208867223,0.21887247821629052,-0.07108503287637713,-0.11770352736782719,0.8644780015362543,-0.14875515894192193,0.020673117230620486,-0.18398484347882493,-0.1681906637189038,-0.002605539255270517,0.03573048397093781,0.01926011691930074,-0.1694453757335208,0.021688857316586097,-0.06350815286880185,-0.11449407744262319,0.059059827671253284,-0.06616362339285231,-0.05188196104289633,-0.08578231423075278,0.24665489569510068,-0.07739472381314239,0.45184434381620475,0.1659067624573236,0.04355777445072251,0.10690989523335515,0.015736335534815238,1.0965250461205303,-0.04109868731937971,-0.07208319765967186,-0.13139306469701384,-0.01044011557956459,-0.05270400940260367,0.0023388395655583594,0.10088358844607681,0.4416669289661168,0.24751832390718387,0.07934815384919713,-0.012902314085477484,-0.1535467755850467,-0.12304594505230415,0.11656807727981655,-0.2173523475157214,0.07041372483487796,0.032249270163724475,-0.08487498069000055,0.1403959134559063,0.02478219313161456,-0.18095632156025798,0.3910949638513308,0.07613235444670585,-0.08629101469522182,0.19736730386158974,-0.009048585898055461,0.44223357204082236,0.08294394170713715,0.043608922988211285,-0.23035356495547143,-0.1296791115051179,0.06778362357847123,-0.07153313658760796,0.12771827336695818,-0.06996632754883492,-0.06563427548940581,0.06393133089644532,-0.057356258273334015,-0.011924139672422118,-0.14466931318155996,-0.10010063022425209,0.1572009510887018,0.061235051780146765,-0.1320281246259628,0.028420180846214782,-0.14448341664839826,-0.24313553517993602,0.145332787670176,0.07698996423625748,-0.06460146896467756,0.13022129730815935,0.30705491169114896,-0.16078997392265504,-0.055428627062023894,0.11979209757958698,-0.1191018794132902,0.04824176785397971,-0.09170765683623983,0.06535383706845699,-0.07713233057406932,-0.10355413016465487,-0.03842332507783075,0.0958143410759742,0.1814569636596859,0.4642248340020585,0.12631781043425883,0.05336244720659633,0.19908157577214647,0.0739824285884696,0.12048677142032815,0.17953109313619486,-0.08912415472179802,0.014837568483186514,-0.11729402148036605,0.2713395712957154,-0.09932203925544147,-0.07362924987631214,0.4648852985676004,0.08255485708005206,-0.07099805360438571,0.09231738479131835,0.040771234892244435,0.01766091291787819,-0.13663365582245446,0.6449760355778513,-0.1161518345391086,0.09645954817530522,0.2592017970884293,0.3220085808458799,-0.05052420200903407,0.043494547136044615,-0.008372288927502192,0.1339726121361322,-0.059062698506530564,0.17225481074524418,0.13518234604508872,-0.030796731704731184,0.027304308190921445,-0.18853880614627683,-0.11928881731896257,-0.03142386178864198,-0.10206632920425318,0.14887497783761527,0.9501014889300834,-0.04452632827667602,0.07448533678844704,-0.00255284631542696,0.048745790506228515,0.19075265768924354,-0.10710439139473371,-0.13651921040274395,0.13781383176393303,-0.06004044406574327,-0.09157487237427342,-0.051585670754545454,-0.06762767377804502,0.05654153183716537,-0.09601845418923538,-0.1510737675316728,0.23596837395520964,-0.06180051223830896,-0.18826926090007123,0.20416554669950226,0.3294862926476221,0.024307485384874816,0.13252853617323734,-0.1271831024524197,-0.04297943530375414,0.11984414067202209,0.19128644156324648,-0.07777344623939242,-0.01702014955481279,-0.14831274456216803,0.12926599453397092,-0.05315878436872745,0.036512593720681163,-0.12872778701131482,0.08023469704297059,0.09713535180867505,-0.08349451376754735,0.05677848981735689,0.0432518369939916,0.5128253125997759,-0.225959462580672,-0.1396462119236116,0.02787647699381801,-0.1928882488260849,0.0397084154559304,-0.03402205837359262,-0.18131037495158409,0.008537651413628167,0.176291182476898,-0.21104895584719374,-0.0335063017146644,-0.045574802586465846,-0.009938220001873277,-0.05986943248630494,0.01962543066255651,0.12182880582178579,-0.1366473823285964,0.41037799715589807,0.02445717196709296,-0.08579203842504757,0.19251585006789518,0.3359956127559136,0.06743245304566248,-0.011755654824945894,0.5261936736850248,-0.06673201430929498,0.3347720499487128,-0.008106258774262187,-0.15873553841336874,0.23526858807743856,-0.17440606391658642,0.37348959481665367,-0.1015261263246846,0.06110156247842258,-0.12202389563707972,0.13924195702624198,0.005539346422709368,0.32121643152565493,-0.05928283926959921,-0.08726327765497832,0.28116565262659265,-0.058265627246325336,-0.11220457913489157,-0.013834126109639855,-0.20313168800314996,0.25334700831887336,0.2433277384269379,0.2079694276095998,0.6277739391198491,0.0019435042387505597,0.0738060160168903,-0.13952281581508974,-0.0200244684813613,-0.08326873123445588,-0.10973211116122983,-0.08653147251807569,0.3268635079243605,-0.10581645553390273,0.28137587322704594,-0.19032539691823958,0.025201225753151757,0.12577561864469944,-0.017811088683020615,-0.01289836350045892,-0.07872338190698014,-0.21223104710313911,-0.0798935840495888,0.08017930396225115,0.2663692753937563,0.036973505184527244,0.16358981792772176,0.6942084137500693,0.11771627668689422,-0.20598674793471972,0.11776238352881996,-0.00464951942437275,0.13882143303271977,0.16236654267601613,0.4971107143090192,-0.08556118256456213,0.2782015732566889,0.046712354686276214,-0.09210932830578045,0.08338918513713334,-0.015937775651333586,-0.05771002048472662,0.07883642692823578,-0.16560921170906728,0.4180092537816096,0.15871568915026213,0.3434162933664988,-0.04200412350732974,-0.04740115714165494,-0.014867215807180756,-0.01107873218635047,0.006548206383678812,0.12877459049574624,0.02339258467022387,0.03663067476118553,0.05875194573669851,-0.11728000230436741,0.38559589143551865,0.17764198608735016,-0.06375954388186589,-0.17968521126140857,-0.08325963163558892,0.19624429058579662,0.11560304201831006,0.2575390237103723,-0.023219063209854673,-0.2149604784915783,0.03576516740133817,-0.13883722263260134,-0.08681997818678955,0.026823741442408844,-0.18227601638561253,-0.12915426474149838,0.030343648971340897,0.10689574701320059,-0.18830515516117263,-0.0470271848696614,-0.014760244014648816,0.27675997871282587,0.22960780177418827,0.030611549989650433,-0.12232531633733279,0.08573425044153415,0.7466942930118765,0.12669817393658,0.26885692125897775,-0.13447383145564207,-0.016813489945293303,0.3588752433155684,-0.15654889674095884,0.007408907921022445,-0.06549353112158185,-0.028613220431760067,-0.022568770571821162,-0.09216793524962585,-0.14422469175290364,-0.06782980584050913,-0.17948085473118947,-0.052962711322438016,0.02345924302855762,-0.08284441611337445,-0.08175467576844919,-0.07400813722896549,0.13026925583741367,0.16912244741657756,0.10572210308928698,0.16871482846494312,0.2342828477711707,0.3449092504531037,-0.20963759519331793,0.2011074216629012,0.24610511092089893,-0.1564842264395162,0.07213412129538876,-0.06393968719164844,-0.1929732349977159,0.31765668612406994,0.19424166985606273,-0.02991824529596343,0.03230654174163439,-0.07673339067962304,-0.13400195487502453,0.6637878455422959,-0.04106530175389356,-0.1006634041130775,0.05109508640179805,0.10268869424184301,0.2840716691962575,0.6404805462363963,-0.049379760503441505,-0.03046336156722773,0.007842547764792762,0.06847608766173519,0.2044368914496617,0.26111164737789405,-0.18143184450516203,0.1544062202016685,0.07197933200228546,0.313620711352117,0.15716346166211448,0.22762840955795993,-0.05201934973008315,0.08445444146890524,-0.07706469706536923,0.08742577146776354,0.18147583729002936,0.4718854983547771,0.09411167384772301,0.16093866005049295,0.021406181648263578,0.20836784647368667,3.5324626724843906,-0.18649158025337342,0.07007113130786613,-0.2398882740175845,0.03384834537287085,0.25296212283291797,0.13017267961326873,-0.11059558873793496,0.29284061759847546,0.01672968471076075,0.16928763539148206,0.14130072349276057,0.0034753791330432993,0.08408790074592676,-0.10257163463966001,0.08056141634650626,0.04012856064819825,-0.04267079638849358,-0.08107412113030732,-0.12650936597226958,-0.03096780144443001,0.05301974967841572,0.12467460336068692,-0.1275104682740994,0.1881346494944791,0.02488576734607184,-0.03141533706881772,-0.07672515288790449,0.13034939941424062,-0.14048545146675884,0.025820874524638215,-0.10153173398278148,-0.040834013690875026,0.001372218311690876,0.028736352006955235,0.0990068743473016,0.06502066840501608,-0.029765604995601103,0.312143852727484,0.0363098998082918,0.1634561072096259,-0.048987933494646585,0.2635201641305194,-0.048069239296109734,0.13101816673922784,0.14313275385857938,0.15400286510438455,-0.07345529833370334,0.05774094287805309,-0.01590455892817011,0.001992583131590564,-0.033712484217976346,-0.12978074294245345,-0.05447757212780435,1.2114837547702608,-0.15818115079080908,-0.15118979456271342,1.4754279544864333,0.08380901560597698,-0.03227560157134868,0.1624372874510842,-0.2157608549170822,-0.20322442308452926,0.20496085456224455,0.011010611683143656,-0.19334776187548874,0.009709690415908856,0.10439608631912134,-0.08562439531109256,-0.14206118208627405,-0.12826146450517584,0.08388312435646483,0.06900958590952366,0.016152338992999393,0.03304622743415031,0.04356765339664892,-0.11904515323905729,0.21154090952066817,0.01768690376903259,0.3007639933813868,-0.02354262438400001,0.08924943261956031,0.034472516917683826,-0.040988332474229505,-0.07020223975585671,-0.0043818042201151375,-0.13427452082905178,-0.04957419986689071,0.05432401567274536,0.048360614937258184,0.08293128408310291,0.03593640794360442,-0.10623825858311853,-0.10100955578771187,-0.2261672667580884,-0.15008698349663774,-0.09077942002356343,0.08137424105732238,0.21853127727690236,-0.07305231256984412,0.12938288496747585,0.14542892690501463,0.23408510491293177,0.19959411849602016,-0.05510286959303967,0.07491769474811827,-0.18874795567076885,0.33932098456652104,-0.04704916548645144,-0.018166836202032077,-0.011932630440500303,-0.291441776692021,0.024652484303497424,-0.010844629950977014,-0.01066953517868785,0.16631215226735785,0.0066603720550419965,0.12174106448089494,0.19047320954953695,-0.01778793061997863,0.049787007891819224,-0.05046883522543466,0.044794504214201725,0.21218851141344985,-0.0018338054526543246,0.1071536996968172,-0.1909249143737617,0.1385009687829275,-0.035854472620203914,0.2996326003782943,-0.09177089505907754,0.13693286413855366,-0.12890856499318115,-0.08463767126642485,0.13186214721417477,0.005665380889392946,0.22014574156979694,0.3322425448981794,0.07206717421827813,0.15460803505644094,0.15568723174347232,-0.06367632439614934,0.13014524655745396,0.158853576159113,-0.09636333322785784,0.177533688463414,-0.020155943576525615,0.03091311384002604,0.3633610575595698,0.1865762208952153,0.27409934830792637,-0.039226559368108815,0.13787396127544915,0.0547708502041675,-0.07215483412459334,0.15562675787820135,0.32228415889440476,0.06870773861580015,-0.14843991182236105,0.16851378512999715,-0.09324292571668535,-0.015539505902519624,0.43449473585751686,-0.11303615349653573,-0.13417492567819211,0.29524505329608774,-0.04023260462318057,0.24349659844388283,-0.08186707862974563,-0.0852117561631075,0.026356449050402242,-0.026442124207018858,-0.08992111020882809,0.06622992931568672,-0.10715340203164703,0.032970201004925315,0.07202429393165799,-0.12564091649446318,0.06865735274505447,0.0829891052478855,-0.00858076555937326,0.07591442681550586,-0.04339986287920106,0.04096413468851967,-0.15153624531493393,0.10422651655141446,0.14646116820693722,0.09673500471518559,-0.12952012024068882,-0.194780863450423,0.058511252199876074,0.8890992114182352,0.10270662360681859,0.023232246320518124,-0.14435367134557586,0.3167197329657383,-0.00013173113350506416,-0.05822869266088315,0.01875099559317106,0.03024319595783953,0.1884413791242503,-0.10259446235448977,-0.16251182553920052,0.06872109539417792,0.06823128130740419,0.24506436648144403,-0.1832016127098255,0.16995707581829889,-0.1492208027498677,-0.15754658798644494,0.262381791253145,0.008165402013877943,0.1540468476707415,0.1391954685372967,0.10722523318030586,0.06464724809364308,0.35501229099114107,0.10263946409927183,-0.1556637127882512,0.09533117340248731,-0.08356034734719608,-0.1608156902063388,0.38259868784905104,-0.1038613712564046,-0.007650678007083522,-0.010517365603983975,-0.11610370267573988,0.22449296410715736,-0.1216384855173529,0.0979548906979848,-0.11080294489569553,0.3573773388507797,0.22083154639553015,0.05126471715913006,-0.09449512388954429,0.017010700691492353,-0.020062483373699314,0.07347835756735277,-0.002968371280765103,0.38471800696241054,-0.1576041413272714,0.13362039756624244,-0.008367143614420924,0.059432056998611316,0.43072071695034797,0.2591578965082886,0.07384998653674146,0.03835891829668325,0.006425520545449981,-0.08834980295831862,0.011495534406794627,0.08836478865349773,-0.11072605064961027,0.1891518074284093,-0.06921253246682912,0.052110420460881324,0.12113516503304345,0.22826047232525082,0.03626207745420418,-0.056389210846760296,-0.21997758988488125,0.17723952729336823,0.15038665307116683,-0.18186324809753607,-0.06679281280914562,-0.1812687029512351,0.3077465993879487,0.08826467683909489,-0.26396059009279293,0.4418727698568006,0.018641633868632823,-0.07854065488095097,0.024199757114025555,0.19802969596162567,-0.09931484967324633,-0.014753655945250577,0.1306422011973749,0.06529912925301318,-0.0454740015483337,-0.15684139720337875,-0.14485754830073816,-0.11734950177810433,0.1668753826676126,-0.19957828865803795,-0.10430390046388982,-0.05700750129401799,-0.1683345915527471,-0.04893610638008461,-0.029105046064837103,0.07382047030858918,0.29646131923300834,0.3424486227926149,-0.2023564272541044,0.13392860944807894,-0.12299510319279139,0.35710151381725397,0.021567275678432196,0.01244881445321,-0.034567814010369124,-0.04200614803280733,0.11212902033817973,0.036250708456096126,-0.008721862110225409,0.023307767833915305,0.24691668846698245,-0.13071111973180471,-0.07795311315107178,0.11160771295191974,0.06572606865564534,0.07296408859423154,0.02461803268332674,0.1676055195646875,-0.06614627595082556,0.218193085352135,-0.1660790284562541,-0.03640673417708129,0.004069384586942393,-0.014498934896611915,-0.2013680966784629,0.25805732153943417,-0.0060890262111663596,0.006790832717951112,-0.03925815729855586,0.18607479132267857,-0.04925614908056808,0.23215937979267776,0.014952388427697416,-0.06719132230221136,0.06690272532170871,0.27185202008486264,-0.04440796054993268,-0.03791719647668734,0.00260310401704289,-0.03231201812673756,0.08310792110767018,-0.1366591252527245,-0.12549060326024175,-0.06491705824639404,-0.18146202747078988,-0.16402347759939184,-0.01770992955637596,0.2801231638177566,0.032897116515343994,-0.026754882729442486,-0.02134669316975879,-0.08698923464705322,0.2666413881949543,-0.12777042345749712,-0.16165300820745532,0.23336639643470192,0.13288590566626723,-0.12534364593900893,-0.06284692407869386,0.036432870064738054,-0.14959613860847087,0.044221398971939996,0.06547460845485853,0.06612513693204014,-0.08593309355102607,0.4102219051420588,0.033935487519764385,-0.01378809667003733,0.12778391441226922,-0.10074341134326237,0.10764696331507628,-0.06344301350020032,-0.029810849081714164,-0.0753800504376495,0.012251260177057244,0.6458996307715545,0.1495494560772881,-0.13487112022165337,-0.22704547155067845,-0.1480799982809201,-0.010622416854958794,-0.08558801398095972,-0.08345792649055606,-0.20755812290750997,-0.05690576456163576,0.612901224922163,-0.11089480806487095,0.18160249466621847,0.2915778939581355,0.24497183485007223,-0.0839919071546682,-0.15329279864982637,0.01231472173453807,0.07767448312619529,0.26070754046470257,0.15102674347526723,0.15644545280872646,-0.05594915829591718,-0.11353465094613013,-0.06137222975115253,0.3992898677086807,-0.13968420890092736,0.08782845614658119,0.06717923982095542,-0.04181296438241111,0.058542706949269885,0.02193345712258199,0.15070087989297454,0.18188563836594485,0.10269268213006755,0.14430695702675478,0.1064798479372322,0.39065173119514496,-0.041364900927925885,0.08353006889619596,0.15908128188010906,-0.009280619440837468,0.07029972993423028,0.04142441976765676,0.12101013824041651,0.09540988333291867,0.3217770060412264,0.03641790062394734,-0.24152577600940828,-0.1767513270377007,0.045995838542211676,-0.00020707688935095447,0.39815298948954925,-0.1211852738069017,-0.11835605409210459,0.11646937877753394,-0.06250268485916122,-0.06790035183679677,0.14989871737031923,-0.14453414476823156,-0.08690280772662295,-0.18930726270672404,0.13010904223040076,-0.10657884544408625,-0.032631527083400114,0.05051951679186906,-0.10896651962777992,0.011457883573240402,-0.14362959648261542,0.08329099417174768,0.3690764780824094,-0.05427034981519219,-0.08184680118299137,-0.08415658078514798,0.0285532989975672,0.3296663485911162,-0.0935609791715395,-0.11389476936881304,-0.029558688262875776,2.1300294687603474,0.07867662690243749,0.25335764838087016,-0.0007007043778811672
