x1,x2,x3,x4,x5,x6,x7,x8,x9,x10,x11,x12,x13,x14,x15,x16,x17,x18,x19,x20,x21,x22,x23,x24,x25,x26,x27,x28,x29,x30,x31,x32,x33,x34,x35,x36,x37,x38,x39,x40,x41,x42,x43,x44,x45,x46,x47,x48,x49,x50,x51,x52,x53,x54,x55,x56,x57,x58,x59,x60,x61,x62,x63,x64,x65,x66,x67,x68,x69,x70,x71,x72,x73,x74,x75,x76,x77,x78,x79,x80,x81,x82,x83,x84,x85,x86,x87,x88,x89,x90,x91,x92,x93,x94,x95,x96,x97,x98,x99,x100,x101,x102,x103,x104,x105,x106,x107,x108,x109,x110,x111,x112,x113,x114,x115,x116,x117,x118,x119,x120,x121,x122,x123,x124,x125,x126,x127,x128,x129,x130,x131,x132,x133,x134,x135,x136,x137,x138,x139,x140,x141,x142,x143,x144,x145,x146,x147,x148,x149,x150,x151,x152,x153,x154,x155,x156,x157,x158,x159,x160,x161,x162,x163,x164,x165,x166,x167,x168,x169,x170,x171,x172,x173,x174,x175,x176,x177,x178,x179,x180,x181,x182,x183,x184,x185,x186,x187,x188,x189,x190,x191,x192,x193,x194,x195,x196,x197,x198,x199,x200,x201,x202,x203,x204,x205,x206,x207,x208,x209,x210,x211,x212,x213,x214,x215,x216,x217,x218,x219,x220,x221,x222,x223,x224,x225,x226,x227,x228,x229,x230,x231,x232,x233,x234,x235,x236,x237,x238,x239,x240,x241,x242,x243,x244,x245,x246,x247,x248,x249,x250,x251,x252,x253,x254,x255,x256,x257,x258,x259,x260,x261,x262,x263,x264,x265,x266,x267,x268,x269,x270,x271,x272,x273,x274,x275,x276,x277,x278,x279,x280,x281,x282,x283,x284,x285,x286,x287,x288,x289,x290,x291,x292,x293,x294,x295,x296,x297,x298,x299,x300,x301,x302,x303,x304,x305,x306,x307,x308,x309,x310,x311,x312,x313,x314,x315,x316,x317,x318,x319,x320,x321,x322,x323,x324,x325,x326,x327,x328,x329,x330,x331,x332,x333,x334,x335,x336,x337,x338,x339,x340,x341,x342,x343,x344,x345,x346,x347,x348,x349,x350,x351,x352,x353,x354,x355,x356,x357,x358,x359,x360,x361,x362,x363,x364,x365,x366,x367,x368,x369,x370,x371,x372,x373,x374,x375,x376,x377,x378,x379,x380,x381,x382,x383,x384,x385,x386,x387,x388,x389,x390,x391,x392,x393,x394,x395,x396,x397,x398,x399,x400,x401,x402,x403,x404,x405,x406,x407,x408,x409,x410,x411,x412,x413,x414,x415,x416,x417,x418,x419,x420,x421,x422,x423,x424,x425,x426,x427,x428,x429,x430,x431,x432,x433,x434,x435,x436,x437,x438,x439,x440,x441,x442,x443,x444,x445,x446,x447,x448,x449,x450,x451,x452,x453,x454,x455,x456,x457,x458,x459,x460,x461,x462,x463,x464,x465,x466,x467,x468,x469,x470,x471,x472,x473,x474,x475,x476,x477,x478,x479,x480,x481,x482,x483,x484,x485,x486,x487,x488,x489,x490,x491,x492,x493,x494,x495,x496,x497,x498,x499,x500,x501,x502,x503,x504,x505,x506,x507,x508,x509,x510,x511,x512,x513,x514,x515,x516,x517,x518,x519,x520,x521,x522,x523,x524,x525,x526,x527,x528,x529,x530,x531,x532,x533,x534,x535,x536,x537,x538,x539,x540,x541,x542,x543,x544,x545,x546,x547,x548,x549,x550,x551,x552,x553,x554,x555,x556,x557,x558,x559,x560,x561,x562,x563,x564,x565,x566,x567,x568,x569,x570,x571,x572,x573,x574,x575,x576,x577,x578,x579,x580,x581,x582,x583,x584,x585,x586,x587,x588,x589,x590,x591,x592,x593,x594,x595,x596,x597,x598,x599,x600,x601,x602,x603,x604,x605,x606,x607,x608,x609,x610,x611,x612,x613,x614,x615,x616,x617,x618,x619,x620,x621,x622,x623,x624,x625,x626,x627,x628,x629,x630,x631,x632,x633,x634,x635,x636,x637,x638,x639,x640,x641,x642,x643,x644,x645,x646,x647,x648,x649,x650,x651,x652,x653,x654,x655,x656,x657,x658,x659,x660,x661,x662,x663,x664,x665,x666,x667,x668,x669,x670,x671,x672,x673,x674,x675,x676,x677,x678,x679,x680,x681,x682,x683,x684,x685,x686,x687,x688,x689,x690,x691,x692,x693,x694,x695,x696,x697,x698,x699,x700,x701,x702,x703,x704,x705,x706,x707,x708,x709,x710,x711,x712,x713,x714,x715,x716,x717,x718,x719,x720,x721,x722,x723,x724,x725,x726,x727,x728,x729,x730,x731,x732,x733,x734,x735,x736,x737,x738,x739,x740,x741,x742,x743,x744,x745,x746,x747,x748,x749,x750,x751,x752,x753,x754,x755,x756,x757,x758,x759,x760,x761,x762,x763,x764,x765,x766,x767,x768,x769,x770,x771,x772,x773,x774,x775,x776,x777,x778,x779,x780,x781,x782,x783,x784,x785,x786,x787,x788,x789,x790,x791,x792,x793,x794,x795,x796,x797,x798,x799,x800,x801,x802,x803,x804,x805,x806,x807,x808,x809,x810,x811,x812,x813,x814,x815,x816,x817,x818,x819,x820,x821,x822,x823,x824,x825,x826,x827,x828,x829,x830,x831,x832,x833,x834,x835,x836,x837,x838,x839,x840,x841,x842,x843,x844,x845,x846,x847,x848,x849,x850,x851,x852,x853,x854,x855,x856,x857,x858,x859,x860,x861,x862,x863,x864,x865,x866,x867,x868,x869,x870,x871,x872,x873,x874,x875,x876,x877,x878,x879,x880,x881,x882,x883,x884,x885,x886,x887,x888,x889,x890,x891,x892,x893,x894,x895,x896,x897,x898,x899,x900,x901,x902,x903,x904,x905,x906,x907,x908,x909,x910,x911,x912,x913,x914,x915,x916,x917,x918,x919,x920,x921,x922,x923,x924,x925,x926,x927,x928,x929,x930,x931,x932,x933,x934,x935,x936,x937,x938,x939,x940,x941,x942,x943,x944,x945,x946,x947,x948,x949,x950,x951,x952,x953,x954,x955,x956,x957,x958,x959,x960,x961,x962,x963,x964,x965,x966,x967,x968,x969,x970,x971,x972,x973,x974,x975,x976,x977,x978,x979,x980,x981,x982,x983,x984,x985,x986,x987,x988,x989,x990,x991,x992,x993,x994,x995,x996,x997,x998,x999,x1000
-0.08349876689748348,-0.0405065791322331,0.21770581835724645,0.7258804082799308,-0.17648801828240912,-0.18058016670441113,-0.02163407974728926,0.21571584436842417,-0.03890820389037608,0.06498798855093435,0.08716712226595069,0.12131872071257255,-0.03917956365009967,0.02404377345994968,0.12291608585323721,-0.17264287458377303,0.10892577127142267,-0.006670415491896287,0.16720380000723778,0.14921983038482112,-0.15033189598264918,0.28670845988373816,-0.005671220340543126,0.049502002352379115,0.19283690438663892,0.005176977343127387,0.2183477914593197,0.08962720470122187,-0.1580865730435248,0.03638736014306887,0.008370521334095216,-0.11367413973739182,0.05073042987802823,-0.011219007602700004,0.12315503746146983,0.559628896891651,1.00728809450416,0.16976766782529973,-0.13146015980378956,0.002793201356388275,-0.11666050072297751,-0.02533139639174542,-0.03336952926600234,0.14993303393124524,0.17728287042442337,-0.06155470818988762,0.04070838923294762,0.6528671541090567,-0.16846988598417278,0.13860703533353314,0.3506270032533543,-0.13700627481911165,0.15042524960752068,0.15910038946155436,-0.12086529277628533,0.12353332457219324,-0.18065752146252945,-0.16431069153962474,-0.19102165477439748,-0.08007350129433755,0.3198605858341672,0.06718138139179519,0.008092877375845076,0.04641463698460613,0.24873049353429488,0.07429236982753129,0.07359185934993251,-0.13556123232771045,0.24796003738486605,-0.21656509517869738,0.002591061446796772,0.049496281305880574,-0.03931204283759371,-0.06403701777999071,-0.1361180703685807,0.1878455082661039,0.726612369356026,-0.13929451685888672,-0.024172378270456707,-0.1485222245297967,0.09361305547626508,0.2732591299535796,-0.019544640926015155,-0.27088740527523936,1.1994694738699083,-0.027126460885642745,-0.25621396514449235,-0.03696677943632798,0.005407208108381578,0.00658367707241303,0.16105063903078087,-0.2634099156357148,0.177792572587669,-0.06742641570442187,0.24534632090570585,0.15759142745651666,0.19667694643918732,0.03378599764448054,-0.07065652692926949,0.632590163072297,0.35737881053251175,-0.07977272514675915,-0.13858943771117305,-0.08703321503678696,0.29039918266083475,-0.06514252187888825,0.05363881897962908,0.15400355302752633,0.14997166191252576,-0.1795635277222769,-0.16579432000604122,-0.16694085413298043,0.18296511096714885,0.16460598509505409,0.06558477604074509,0.06425346336035309,-0.05887846390168838,0.10878982786138702,0.01109136075502648,0.09098092827358872,-0.14499404814156447,0.006934918357452302,0.08184537558732008,0.35866299546924707,0.03303560525073257,0.05321472793749571,-0.03486110415928767,0.0643356206127661,0.40448066629802737,0.0805158246736759,-0.048494729861303765,0.3573544489906022,0.005411393422132038,-0.0707670370138399,0.1659277675025015,-0.03284778092723495,0.346245036206855,-0.11364476623042363,0.5708112575047282,0.0764501564566551,0.03505962104066551,0.004878832697127855,0.006460753487977033,0.22449372575756232,-0.037666800107925225,-0.1397358718957632,-0.043818061923749596,0.16999573936697843,0.14551570233943045,0.23137271060090359,-0.15949938485704285,0.029956346529413258,-0.10830421128159717,0.02922321583843579,0.1324253736917036,-0.017486745728093722,0.393024013989983,-0.05239732162910826,-0.07805795746037092,0.08225454543910393,0.005666129879522419,0.05317808991699069,-0.15988691755690965,-0.09670335224546522,-0.024890986272285698,-0.12541014207457968,-0.03739867448561074,0.2898849219236357,0.20648756224171727,-0.006123761053409282,-0.22257992667461268,0.22257292828687625,-0.05595427842753575,-0.12994667168514018,-0.04544923366191067,-0.1103289330406716,-0.06866914345842035,-0.21773199426732448,-0.1573715253190313,0.15348973182433734,0.16738285388578422,0.08299509186673482,0.06584968204052766,-0.08869048216201492,0.07632040078679503,-0.09893592691938957,0.32733193800569826,-0.12431143557576207,0.010760132267648492,0.012211796494179028,-0.048020228750473515,0.2087780279639606,0.12989317858401783,0.006512266987666493,0.061231553711569076,0.23563999066841768,-0.009035426583487882,0.10298845450414085,0.31545972834627545,-0.012459490950744279,-0.06462106267292633,0.028397928142289253,0.33755013590694527,-0.20636283697651747,0.09616506580713469,0.20466699082565443,0.08075438755735886,0.07934776597970084,-0.08161499330695932,1.2189377922728353,-0.22439738770664142,0.08064672281993035,0.10272984023091847,0.22883505833740436,0.024612503269408004,0.07988884477083347,0.0008444402699820941,0.16844734279621987,0.1817711955509329,0.1472664900119367,-0.11586001980399185,-0.062415722175304555,-0.27119771135546256,0.2739514862175234,-0.11122919921381158,0.18015027093774183,-0.038028304266898294,-0.1711317118756972,-0.117645267191133,-0.014308478839197392,0.15910842750261778,0.38069442360501027,-0.0989644648536343,0.08471350943208855,-0.0023818948669989126,-0.0008627697531868872,0.21090661683203038,0.11361295640764624,-0.12323449578842371,-0.31304168999336424,-0.0883005007340546,-0.14340363915334464,0.012371144237547371,0.28568842209786816,-0.22640150791927982,-0.17906156976593346,-0.0471570826894101,-0.024935055711818532,-0.012934667578225367,-0.09640913318704747,0.026088455754928352,0.0017621837468440038,-0.07749847272137422,0.30470985594197275,0.26456817756706164,-0.03181354331342434,-0.274757679119887,-0.08385093522514009,0.25124518304365373,0.15489268328351669,0.006714299429894766,0.21792601367622355,-0.2518957505268935,0.11418365607366221,-0.10734222626698064,0.026164209776872394,-0.15702701332951563,-0.149322610459951,0.1529351820015381,0.17086564008906713,-0.019528656657534338,-0.09361132441698194,0.09505171763390385,0.18424296492899428,-0.0613270131293332,0.4283736993628857,-0.037779816555079004,0.35460718520634416,0.018897717934640346,0.03694686465145347,0.09211351027160464,-0.06368645736383494,-0.11998295151601057,-0.08701714904861257,0.11362362165193352,-0.04666543438362902,-0.08321589516496486,0.4078389981099515,0.2794715631781659,0.01112479129996058,-0.002228487089703579,-0.10656154413450836,-0.05302323095519634,-0.12376517591336311,0.49316072886684403,-0.18237026416750124,-0.038477566210134206,-0.0310421403204163,0.2321308447389676,0.03215324288958832,-0.17171572317982864,-0.08755670220749179,0.1819221748155777,0.22729565112262717,0.1457185538503829,0.18435055496149477,-0.029130610206785534,0.42290758891404345,0.06752237191680144,-0.10236591667550343,0.2372111310078644,0.356053248212973,0.005114992882979674,0.30287443719977625,-0.1275852446559469,-0.26560116897392394,0.18968999654188834,-0.09874827621266935,0.001575363225077675,-0.09725712823940713,-0.1754666346325109,0.2534636805968251,0.03515530207596518,-0.19930799544601185,-0.21410212634647385,-0.12968846605564632,-0.09812917090527717,-0.14237832822693375,-0.18758738155211618,0.16756399035424763,-0.1380618135851911,-0.10955255395437469,-0.033605294617293,0.8328783445007275,0.07401914157929479,0.7280920142718912,-0.04225711898934281,0.03394117963054355,1.0926606089868538,0.11110326185779185,-0.15707496388167297,0.2532062445067169,-0.04771874560856393,-0.15055733657387715,0.13608492463826805,0.14733627346091605,-0.15574193517188084,-0.09707976473562208,0.18205276331036946,-0.0037776340889701387,-0.12836251867408421,0.0396686651336029,1.312363303594502,-0.19007915412092513,-0.15275921002369475,-0.08288973548154466,-0.05703269978595771,-0.0042081571275437435,-0.14733530293937824,0.056722458331083914,0.033275332243873024,-0.0068351331226921275,-0.01994450142274795,-0.15102012145959032,-0.06796353431333857,0.06960477751715843,0.39665190689449403,0.26978314674475246,0.015085058918127947,-0.13322750670635675,0.22679491997823198,0.10001716423074103,0.0362201898950365,-0.16247784043356484,0.32793045380203445,0.04574734853717333,0.024640623552741214,-0.03860249447221853,0.1352524785471647,0.39539552134568123,0.04335427387566426,-0.0822952098462777,0.23516086288509452,-0.09293387397444586,0.5176186309639841,0.06849750476022298,0.04981722268303157,-0.10670048874629301,-0.15869015070299453,-0.006831783235239475,0.41837310740133526,-0.0603748901809662,-0.10404350034447507,-0.0745707367505496,-0.023031013561941482,-0.13668926397591574,-0.1777847866850515,-0.045069337873156146,-0.009250525418439737,0.019227717123265764,0.036142958009249604,-0.10158873751733177,-0.004796253045144749,0.16148976606051368,-0.14227594005060884,-0.07884648334703026,-0.1364184976025793,-0.05734475551093032,-0.033967975577704146,0.09657165312894245,-0.0837274736992184,0.01773170871920593,-0.1882143686297878,-0.15480164671425622,-0.09806089420604558,0.12391930285938635,-0.030905354206796076,-0.1513041392632788,0.05094429095177788,-0.1311798635134337,0.13397869814559815,0.10148005279975236,-0.02672255044945382,-0.11216997465998446,-0.07842061292650715,-0.00707888985620031,-0.08697686794260484,-0.07753201454705605,0.21660178476378533,-0.06488315371538333,0.29290527747787176,0.42343824660253615,-0.13773520483296886,0.1369218969451671,-0.062331936171197366,-0.005370983240980287,0.22926262452023116,0.14816665437034526,-0.0026021987711404293,-0.17649537980138064,-0.1002358365738788,-0.028266095577545003,0.004640177304006121,0.21897173865106057,0.02156828458140514,0.15068059760173003,0.00036046790704458154,0.8554768637126804,-0.0818347268252857,-0.013883735431718947,-0.07018143088787421,0.1485608781422123,-0.1610053227858358,0.11566606240971589,0.001609719972721635,0.18883935104729344,-0.1358910965015,-0.017676179261469138,-0.03297870319127938,0.05432196023903835,0.04740319057261222,-0.07497178285061168,-0.05835206062194909,-0.06004496467920917,-0.03375684875400853,-0.019952783640481808,0.24262191630293728,0.06748930029159017,0.011868409641129674,-0.078338907088086,0.1130423343636684,0.10519010596345768,-0.13722253295803089,-0.012986549364783273,-0.2061800464307978,0.19418021143966246,0.09464567385808031,-0.027304206050502988,-0.015125433762341323,0.027583068898267005,11971.302994833233,0.23981400496053373,0.613751990927762,-0.06655506836411063,-0.2375032448205684,0.112216253333006,-0.13803039548280338,-0.1024123536625563,0.19772613768769132,0.18985752891324825,0.023752863576953276,0.1378726578019247,-0.08987640463564017,0.16087346840112038,-0.21057084344260235,0.08164925666037459,-0.021688209910282197,-0.11783773966644373,-0.0793419669324581,-0.11010609400290305,0.21146652089135265,0.37155110020645177,0.08254059134630443,0.03003391037844927,0.2191707117563615,0.24320082911723384,-0.11419042751956254,-0.017445913763801113,0.05089011166889512,-0.12063028836747103,0.1045766446843166,0.05126631300261697,-0.1799857916688572,0.17266733582870075,0.05719833906135108,-0.07150742154872336,0.3409621309074047,-0.19112915675985898,-0.10563748579704879,0.2003347595765652,-0.0025905394184230213,-0.029903809739007636,0.024221965844231974,0.31785983194411216,0.26136323269386796,0.47606346059953797,-0.21870228150958304,-0.2090150242024691,0.028992600615934894,0.10049327370188776,0.07364023759071148,0.7173233713293738,0.07398900986344281,-0.005757592713728665,0.10875742720419712,0.4164994867239311,-0.040502821877177686,0.10477553446182797,0.18520376659760918,-0.19026660757977853,-0.1304955506293476,0.015242486990888926,0.3350462658408584,0.03280196014655612,0.2927396798235815,0.20452778997605114,0.1205462843160181,0.20000160039763681,0.6398276600858264,-0.21263359571417295,0.13783654461218986,-0.020730917847347485,0.3844296471705746,0.022791185516491286,0.0023571357813669813,-0.10958991873612856,0.1722316872047922,-0.039420003558203964,0.1182805752783842,-0.06994979422453373,-0.08707455374819062,0.01898643284332513,-0.12319714439967511,-0.08542897683689987,-0.048059566664161,0.09046653492465362,0.23457909551636313,0.009872843071353055,0.3763463768518105,0.20941585640476768,0.2167635530647969,-0.03231445816247325,0.14760422021944786,-0.09459817264144088,0.05372538144928063,-0.0019178156504677801,0.1483782918637353,-0.07887686163511254,0.19246314995611935,-0.1483258827796392,-0.10421660787058018,0.03667057289758646,0.030558539658175343,-0.021285590022771417,0.10378531030768912,-0.09668646454759522,0.16383986906237347,0.08731374454669316,0.1484683721121678,-0.011122102134477063,0.008002500163500459,0.09134566990727255,-0.027259242437745912,0.05610186793741234,0.37893040802656763,-0.1679404430953294,0.01891287127998731,0.08775404721191338,-0.035342729695655994,-0.22457223443156638,-0.04142834067111323,-0.1184815856478284,0.3948944087494446,0.1370790073871544,-0.1319951740468246,0.47132297492847,0.0017136879874337652,0.05122715837562475,0.03869067973633111,-0.0816200011572985,-0.034530282055140527,-0.06156360701620256,0.16364346418537368,-0.12604413158179062,0.01632731698532064,-0.19886404356577692,-0.0592912009887957,-0.13453023321551905,0.0681892187839157,-0.002622734884748401,0.2510504943344667,-0.038727102452989604,0.05454706463084569,0.3167219323481725,0.0788402774170629,0.16064370824227026,0.2945194216987377,0.03074758088851892,-0.16588764468996653,0.18525735088578688,-0.050942353368185866,0.19560221694133473,-0.19528997664464431,0.009508060978707267,-0.15840215660377954,-0.013283198295792498,-0.007040721728255983,0.002028649047971509,0.10078474901759105,-0.007698572104738788,-0.18314113426391654,0.07183989693914117,0.1562755110499614,0.730485571773051,0.029605708434849554,0.20772719568616527,0.3147967373001068,-0.02810170747542251,0.27807292680702345,0.18495052787308253,0.24941698398578094,0.09566045785892707,-0.22427004223922387,0.1845506798296097,-0.14093724516072104,0.6471665409040415,-0.13490229549992483,0.1261259998728912,-0.05055029913164488,-0.237277973708797,0.10270229379910667,-0.06806722395070752,-0.11164982041413263,-0.11957672143606579,0.08918543679817392,0.11638091382050542,0.21599885665198193,0.07036623601387748,0.13908690402880364,0.2744976560806254,0.010603257292537194,0.05073139777358682,0.039833601506513716,0.05499858064880225,-0.25946257327531186,-0.013277806464726982,-0.028741919030625618,0.17466713376015464,-0.05358726491572208,0.2671369967624504,-0.20230797939354617,-0.13049833158219637,0.023744008614832612,-0.07996781138761677,0.05895094972608783,0.17307559909957604,0.00241591377653827,0.10441013490074047,0.2334635811701229,-0.0033009650047350902,0.27578356907126444,-0.024290218049226264,-0.2038664784930595,0.10062030882713224,-0.13143255072216498,0.05458149445733396,0.8509807816123078,0.05294160612590093,0.41579899844011337,-0.1708342053557107,-0.17843538055704122,0.025724628953339268,0.014324699331566881,0.06072447114740309,0.23304279082437063,-0.19059899858517282,-0.1542798726899265,0.37821237106699424,-0.08867538255769858,-0.07760014694795958,0.034520544962405975,-0.06348415948459962,-0.024676144771113906,0.1519821030789026,-0.011741132210229432,0.15123500086247876,-0.16365196897569667,-0.06607235579151305,-0.19675167233721635,-0.09129733934951734,-0.11970532053487493,0.3800439714093715,-0.14387273233997322,0.18963475778382133,0.14893104694025316,-0.07290397814845462,-0.08384715163376388,-0.1552330873221106,0.05331908114364792,0.12598104683126587,-0.06222723119814766,-0.11319775064548487,-0.19591647818994984,0.24621329651942703,0.16380984484245453,-0.06742705187760867,-0.1536940440638057,-0.21096143344241602,-0.03356216150828939,-0.014835176805823913,0.12568538273199503,0.11323975468337544,0.02360350081857132,0.12023112552178983,-0.09194589457782443,-0.11969945715735975,0.14695617488500012,-0.2247733287841971,0.18970180967713435,0.12940842923838436,0.24197753834433744,-0.07045127311868615,0.12336482228585921,0.1252636159376055,-0.16322373524018519,0.18983630254826478,-0.11066147281816663,0.2546421627751996,-0.039417694689570126,0.05436002612376356,0.28859883404695696,0.2649456956998506,0.04227617184373722,0.16281324162934374,0.20114140182686935,0.16241074662925836,-0.049810742609568415,-0.009007744269758589,0.07532446820986416,-0.0011400982292810724,0.3827324796385967,-0.08087173082291299,0.19878758014849107,0.7445598731061236,0.1788942151677384,0.08860618423562006,-0.24843844278070715,-0.004378170552033489,-0.11840035033071172,0.447515408568985,0.35247711233267376,-0.025587991284620526,0.196787490730586,0.22224666455209507,0.06649194048145035,0.37610995905933975,0.1256909136374269,-0.08706093771315437,-0.11185452232727655,0.15319179339995292,0.21946109770628208,-0.1410626661330443,0.399768043211405,-0.09341070907373317,-0.07955282841330868,0.15485631348948314,0.10426297552951636,-0.16288515695426087,-0.14238669245134228,-0.04369092454457357,0.024910694559002078,0.16096462461320682,-0.04912602400950117,0.03025570578602088,-0.0007809684100137382,-0.02946217387346839,0.055664782526378964,-0.151856368340341,-0.16408157087996955,0.27600571604374924,0.10639661928664368,0.007249298496048828,-0.0004951942677592358,-0.20448524094025589,0.3579555004335897,0.12587370848283053,-0.08511036004917671,0.0804463191601903,0.043425080501803937,-0.06457773393341826,0.08544774863751048,0.23439028589617572,-0.07165708349777422,0.40805810701990364,-0.1569012433112843,0.0031407322570100593,0.0326785971480823,-0.03988638280378376,-0.08670020648036403,-0.10459175008818633,0.11966039740109413,-0.13818055747169722,0.09706050163957625,-0.0026651317620031145,-0.19615952450265117,-0.10806746575855186,0.0769425667249315,-0.013304390028664459,0.17517916788182353,0.3784116008012992,-0.08109765443456152,-0.0028659830647925766,0.0010468197215629527,0.5046180766000792,0.30551080628689053,-0.0721663821884635,-0.0866886174927004,-0.012875469912011384,0.06007547793542023,-0.004971847107257177,0.20520629671175983,0.04258214366655011,0.15476551026444074,-0.0957764755861098,-0.058833463956959875,0.1688802824328708,0.049935339277595414,0.07327989903227361,0.10465047998863053,0.16249904321944553,-0.1261219465171205,0.6411270486875715,0.10557528224136115,-0.09998200575086513,-0.08081997808833219,-0.035998518542425084,-0.03667316949844723,0.24074472839198457,-0.09211965777630449,0.2868382064445616,-0.08854369710059229,-0.02331785738859482,-0.06268389246004213,0.18950372008639738,0.13718189144187498,-0.178334220121809,0.1801770442586912,0.4944457469752892,-0.022160025795299965,-0.009404545671607978,-0.0726359866230406,-0.08127039815207904,0.04562780103958852,-0.21440385921854788,0.11946698515672938,-0.170468777810164,-0.02144006362535844,0.09851248120532174,0.1893231923704397,0.06109350297118188,0.02421560289742941,-0.0025087157526293424,-0.08029793696176157,-0.0862398032283419,0.24538829320146727,0.1325891953401659,-0.16425258869933268,-0.02799878328875438,0.1652011438823271,0.029153696215081126,0.062063695121075124,-0.12624509895227765,-0.1054252134934961,0.14871356715656314,-0.07041703225174412,0.042189238744235746,-0.027758705692122354,0.137789973719868,-0.15870594077597222,0.32447379114031705,-0.06094259754123299,-0.06535578611131487,0.19236923652951,-0.024213279092468176,0.006193477709499184,-0.004382442782739471,-0.11744202343099353,0.10333096032458244,0.22831362315510062,-0.08121483560297282,-0.3000707605157473,-0.08975019063030976,-0.055339099873579656,-0.0570528653900797,-0.05008922893380785,-0.1592302978332253,-0.07301328940719143,0.17572474468514843,0.12129502252755042,0.11115612598329294,0.09568504405298839,-0.09132963082254153,-0.1634193144767575,-0.16859064923381595,0.08177229098865935,0.032007147123528146,-0.02713606537452007,0.30605305640073266,-0.16256123779894027,0.006194408306339216,-0.18708359260083252,-0.020537611108263243,0.012373126393324885,-0.07741561229761584,-0.11464793830142161,0.07029744310892871,-0.03945423133301473,0.1732365169850283,-0.07138278764607275,0.08618661457715349,0.24146140429622642,-0.12571937126850075,0.2550692580801235,0.24151137836800207,0.2054078830066275,-0.01566609301812527,0.01271719869016641,-0.0321302949162412,-0.17481433689596282,0.07693787322706136,-0.03269584011270066,-0.07409007904882237,0.1265856825038596,0.06754089586165857,-0.12829081049573454,-0.19309621625494,0.09526279904836366,0.11814693798853448,-0.038161521825114564,0.2176785122604239,-0.09089278173651982,-0.13030908558569787,0.029377028427362006,1.5792823832978051,0.029509753341683043,0.24080730171531317,0.02805654313064232,-0.10064662187218121,-0.07707974304040988,0.08223275423629772,0.040121237050462666,0.15198572201004912,0.04328767201207562,0.3148211539771466,0.08968012825955074,0.008829029254900034,0.028464319893416024,0.3285242425115844,-0.03288428498186624,0.037407633902232895,-0.17933026557989074,-0.09474957333195311,0.07177869035161333,0.019387053152816636,-0.23634587682410024,-0.04066033636521449,-0.00973517029704396,0.19314940989117035,0.0832096991783362,-0.05409419115784475
