x1,x2,x3,x4,x5,x6,x7,x8,x9,x10,x11,x12,x13,x14,x15,x16,x17,x18,x19,x20,x21,x22,x23,x24,x25,x26,x27,x28,x29,x30,x31,x32,x33,x34,x35,x36,x37,x38,x39,x40,x41,x42,x43,x44,x45,x46,x47,x48,x49,x50,x51,x52,x53,x54,x55,x56,x57,x58,x59,x60,x61,x62,x63,x64,x65,x66,x67,x68,x69,x70,x71,x72,x73,x74,x75,x76,x77,x78,x79,x80,x81,x82,x83,x84,x85,x86,x87,x88,x89,x90,x91,x92,x93,x94,x95,x96,x97,x98,x99,x100,x101,x102,x103,x104,x105,x106,x107,x108,x109,x110,x111,x112,x113,x114,x115,x116,x117,x118,x119,x120,x121,x122,x123,x124,x125,x126,x127,x128,x129,x130,x131,x132,x133,x134,x135,x136,x137,x138,x139,x140,x141,x142,x143,x144,x145,x146,x147,x148,x149,x150,x151,x152,x153,x154,x155,x156,x157,x158,x159,x160,x161,x162,x163,x164,x165,x166,x167,x168,x169,x170,x171,x172,x173,x174,x175,x176,x177,x178,x179,x180,x181,x182,x183,x184,x185,x186,x187,x188,x189,x190,x191,x192,x193,x194,x195,x196,x197,x198,x199,x200,x201,x202,x203,x204,x205,x206,x207,x208,x209,x210,x211,x212,x213,x214,x215,x216,x217,x218,x219,x220,x221,x222,x223,x224,x225,x226,x227,x228,x229,x230,x231,x232,x233,x234,x235,x236,x237,x238,x239,x240,x241,x242,x243,x244,x245,x246,x247,x248,x249,x250,x251,x252,x253,x254,x255,x256,x257,x258,x259,x260,x261,x262,x263,x264,x265,x266,x267,x268,x269,x270,x271,x272,x273,x274,x275,x276,x277,x278,x279,x280,x281,x282,x283,x284,x285,x286,x287,x288,x289,x290,x291,x292,x293,x294,x295,x296,x297,x298,x299,x300,x301,x302,x303,x304,x305,x306,x307,x308,x309,x310,x311,x312,x313,x314,x315,x316,x317,x318,x319,x320,x321,x322,x323,x324,x325,x326,x327,x328,x329,x330,x331,x332,x333,x334,x335,x336,x337,x338,x339,x340,x341,x342,x343,x344,x345,x346,x347,x348,x349,x350,x351,x352,x353,x354,x355,x356,x357,x358,x359,x360,x361,x362,x363,x364,x365,x366,x367,x368,x369,x370,x371,x372,x373,x374,x375,x376,x377,x378,x379,x380,x381,x382,x383,x384,x385,x386,x387,x388,x389,x390,x391,x392,x393,x394,x395,x396,x397,x398,x399,x400,x401,x402,x403,x404,x405,x406,x407,x408,x409,x410,x411,x412,x413,x414,x415,x416,x417,x418,x419,x420,x421,x422,x423,x424,x425,x426,x427,x428,x429,x430,x431,x432,x433,x434,x435,x436,x437,x438,x439,x440,x441,x442,x443,x444,x445,x446,x447,x448,x449,x450,x451,x452,x453,x454,x455,x456,x457,x458,x459,x460,x461,x462,x463,x464,x465,x466,x467,x468,x469,x470,x471,x472,x473,x474,x475,x476,x477,x478,x479,x480,x481,x482,x483,x484,x485,x486,x487,x488,x489,x490,x491,x492,x493,x494,x495,x496,x497,x498,x499,x500,x501,x502,x503,x504,x505,x506,x507,x508,x509,x510,x511,x512,x513,x514,x515,x516,x517,x518,x519,x520,x521,x522,x523,x524,x525,x526,x527,x528,x529,x530,x531,x532,x533,x534,x535,x536,x537,x538,x539,x540,x541,x542,x543,x544,x545,x546,x547,x548,x549,x550,x551,x552,x553,x554,x555,x556,x557,x558,x559,x560,x561,x562,x563,x564,x565,x566,x567,x568,x569,x570,x571,x572,x573,x574,x575,x576,x577,x578,x579,x580,x581,x582,x583,x584,x585,x586,x587,x588,x589,x590,x591,x592,x593,x594,x595,x596,x597,x598,x599,x600,x601,x602,x603,x604,x605,x606,x607,x608,x609,x610,x611,x612,x613,x614,x615,x616,x617,x618,x619,x620,x621,x622,x623,x624,x625,x626,x627,x628,x629,x630,x631,x632,x633,x634,x635,x636,x637,x638,x639,x640,x641,x642,x643,x644,x645,x646,x647,x648,x649,x650,x651,x652,x653,x654,x655,x656,x657,x658,x659,x660,x661,x662,x663,x664,x665,x666,x667,x668,x669,x670,x671,x672,x673,x674,x675,x676,x677,x678,x679,x680,x681,x682,x683,x684,x685,x686,x687,x688,x689,x690,x691,x692,x693,x694,x695,x696,x697,x698,x699,x700,x701,x702,x703,x704,x705,x706,x707,x708,x709,x710,x711,x712,x713,x714,x715,x716,x717,x718,x719,x720,x721,x722,x723,x724,x725,x726,x727,x728,x729,x730,x731,x732,x733,x734,x735,x736,x737,x738,x739,x740,x741,x742,x743,x744,x745,x746,x747,x748,x749,x750,x751,x752,x753,x754,x755,x756,x757,x758,x759,x760,x761,x762,x763,x764,x765,x766,x767,x768,x769,x770,x771,x772,x773,x774,x775,x776,x777,x778,x779,x780,x781,x782,x783,x784,x785,x786,x787,x788,x789,x790,x791,x792,x793,x794,x795,x796,x797,x798,x799,x800,x801,x802,x803,x804,x805,x806,x807,x808,x809,x810,x811,x812,x813,x814,x815,x816,x817,x818,x819,x820,x821,x822,x823,x824,x825,x826,x827,x828,x829,x830,x831,x832,x833,x834,x835,x836,x837,x838,x839,x840,x841,x842,x843,x844,x845,x846,x847,x848,x849,x850,x851,x852,x853,x854,x855,x856,x857,x858,x859,x860,x861,x862,x863,x864,x865,x866,x867,x868,x869,x870,x871,x872,x873,x874,x875,x876,x877,x878,x879,x880,x881,x882,x883,x884,x885,x886,x887,x888,x889,x890,x891,x892,x893,x894,x895,x896,x897,x898,x899,x900,x901,x902,x903,x904,x905,x906,x907,x908,x909,x910,x911,x912,x913,x914,x915,x916,x917,x918,x919,x920,x921,x922,x923,x924,x925,x926,x927,x928,x929,x930,x931,x932,x933,x934,x935,x936,x937,x938,x939,x940,x941,x942,x943,x944,x945,x946,x947,x948,x949,x950,x951,x952,x953,x954,x955,x956,x957,x958,x959,x960,x961,x962,x963,x964,x965,x966,x967,x968,x969,x970,x971,x972,x973,x974,x975,x976,x977,x978,x979,x980,x981,x982,x983,x984,x985,x986,x987,x988,x989,x990,x991,x992,x993,x994,x995,x996,x997,x998,x999,x1000
-0.1261073333192574,-0.12474889171460368,-0.12922910869321336,0.05737166871316424,0.11922041050816734,-0.14825527672715721,-0.06678696652813376,0.27050409887431304,-0.14082585764898992,0.009662190756321687,0.11387663744361687,0.09218258390034273,-0.05591673652680884,-0.11164555833758938,-0.05849728611748284,0.010390862904341436,0.08018105308501267,-0.02377060829149702,-0.05578236618800847,-0.22580430152907116,0.2677803080300014,0.4027966807140153,0.3333768747596204,0.2408287214384639,1.4151152692200366,0.23587277566641207,0.45327890343566724,-0.11618278147730798,-0.09270934510743611,0.5357597260760483,0.15322552893418462,0.012136055589087702,-0.25703040743862626,0.08916435089685537,0.2633283882900066,0.20192644087798928,0.4384402546570032,0.42504284393690517,-0.10390182122502811,0.3883214496818015,-0.3092418761322415,-0.21699150595504346,0.21712968559515056,0.34575240601445945,0.5057641787687741,-0.17540267802045018,-0.014973924441679887,-0.03392636434461216,-0.2163858107488119,0.08715904715142608,-0.07868740014666697,0.08077838066093102,-0.13965214958026062,0.034702827348942034,0.5889099801828859,0.249568627506211,0.20435937425828476,-0.11791039927048241,-0.10198338952018571,-0.2670850708545083,0.20392846493082084,0.6484191796192043,-0.1907408875325617,-0.1268131227099656,0.3187356951394922,0.1547108571019129,-0.21657457204351316,-0.1663817846104848,0.40441180031930846,-0.14774877448970214,0.1407327461099579,-0.061467708926809195,-0.12791081855151498,-0.11015523444682573,-0.32672781334525414,0.20058955159074077,0.3422949928582224,0.49405908464005543,0.2532849687891998,-0.24561989493521996,-0.1995570590051705,0.4839966128806894,0.32074315011188004,0.2969172174804704,0.15196267677260122,-0.18209084133532272,-0.2380853503065301,-0.22912395607822678,-0.10548641674240156,0.09063990585283177,-0.07376633942686828,-0.03774936973682086,0.1114887422731965,0.04754047428832475,0.7865067374050712,0.4502613423865973,0.2147212744453284,0.028054217621038546,-0.018968864194396806,0.015291001211017452,0.2209002841482437,-0.13698754703215832,-0.2227389465677111,-0.05196986911383095,-0.159592808975623,-0.09056096347385723,0.916854856374496,0.25434746192938373,0.014331535152787511,-0.2446892448190242,-0.03398956704193079,0.14684332713574078,0.44109980925057846,-0.04897196539565629,0.1442784961331094,0.34577908533792856,-0.20889820570985762,-0.009216873652246549,-0.2331397452653129,0.02220523712568867,0.02628584151719271,0.10371240218059286,-0.021364791941485772,1.8072431812016863,0.01107240195501924,0.06401308357720592,-0.16718289260047925,0.4461048072241487,0.43880176924446146,0.07901219640672164,0.5570396317283564,0.1024740846429415,-0.31918780838012395,-0.26540944843471204,-0.009643071427273164,-0.01765959700824915,0.5051311126506959,-0.05983192115700886,0.1653530858826624,0.15396268917553835,-0.03290438302824994,0.04340991567086605,-0.21449726342451847,-0.02893298050668558,-0.1030861565434752,-0.41594099931460915,0.18714959672546905,0.07109428663385886,-0.056091378483851595,0.09824743218562215,-0.2102426989716094,-0.24139573996166808,-0.14738436847700476,0.1756911102966663,0.49966453670953537,1.1979967290696765,0.027378889440762055,0.39032582227239754,-0.1814556274603768,0.17096173108488788,0.12199780964966855,-0.06435166667969994,-0.22903837866657595,-0.16456620591074667,-0.10807272246845279,-0.017979128253960308,1.8923414238411667,0.03317734150163032,0.47128578322106174,0.04001407982542626,-0.2531220915744816,-0.009234678423692744,-0.03144093642970214,-0.061771826911268035,0.2056668573197289,0.7421830406075065,-0.07050829590405372,-0.19173608065856051,-0.17591687582090088,-0.19888521282046334,-0.1356880642274818,-0.1489429062432921,-0.21541414833440486,-0.040783417503043706,-0.03221483313632156,-0.10032669909118552,0.10816299360043402,-0.1295131944801593,0.05849839228653786,0.005799962274280812,-0.03171884332854458,0.27264367492898045,-0.028916772546891734,0.4650656941301681,-0.1010439588693316,-0.140156959436877,-0.20568824190840196,0.29745304951252693,0.1664609040362286,-0.07007735587700925,0.03171501261128551,0.06895490708403917,-0.03167170397923069,0.5823150521951692,0.08883357335278053,-0.06853108461355795,0.11182021491245253,-0.1168721665554544,0.00864182454072182,2.8612689300338974,-0.05583713992989936,0.022571972637303928,-0.11791377394108904,0.4970691381804828,-0.0230925500743675,0.03223117300342104,0.0322017357926625,12276.374316448968,-0.04004200389932244,-0.06812254312681132,-0.15238569748240693,-0.20488294501814797,-0.017663736242568673,2.023896464046496,-0.18824359877863306,0.19823942388288573,0.3221467615343392,-0.014018791181660717,0.38758215726521983,-0.25980702246285725,-0.11026853512655999,-0.1004382095726617,0.08902812327522502,-0.17878083902605257,0.01944731225590468,-0.10973687237314678,0.25190179843538196,0.00862889082789775,-0.2219266702342646,-0.1712076643391931,-0.27610664363607385,-0.17903974729902195,-0.09945199840206398,-0.2762553662459918,-0.15763192492149136,-0.23890168519928745,0.21178792997763618,0.05815406699615844,0.04137924118837022,-0.029805152304881344,-0.2646066040733236,0.09349403502390974,-0.003467800683986777,0.25566423811286554,-0.15532153764944046,0.15913883561529563,-0.2325236221132727,0.6144689628353559,-0.03245723144588797,-0.2969025046708682,-0.10598450967487028,1.0258522058475985,-0.057358421555510075,-0.006584242198179102,-0.24288515788136733,0.20623579845012974,-0.008760860566054296,-0.23057293029971426,-0.001445173130127153,0.24821357250979026,-0.12253379447615664,-0.1358297648889405,0.32554002692555417,0.3085324370767992,-0.03194138793868184,0.11180366582471568,-0.1412733204378015,-0.0005282239923466436,-0.09833924902176261,-0.2269706345348932,0.04978123986487071,-0.02933981801337948,-0.1881134377588427,-0.07216692068800501,0.11782278558092751,-0.03290994773250444,-0.034904718534589096,1.914932844472648,-0.04671600051460045,0.09143708575149767,-0.15349421542736885,-0.0883919845152179,0.03045585900764336,-0.15671129740250112,0.21201600735788717,0.034467166944801564,-0.20940247949830992,-0.054229354627934434,-0.10088290503093411,-0.2326667638700668,0.06005356485844526,0.48995093276436763,0.6935609204821254,-0.007557958028048484,0.02156595581422116,-0.09600078513729926,0.0072792420902609845,0.046055221283751946,-0.2114552502831868,-0.20414908718147773,0.25733690384919927,-0.06155612735909888,0.003552165954043174,0.6137292473633149,-0.12224785947940164,-0.1680575936576475,-0.18778136451044947,-0.25236055506857524,-0.08135472490807394,-0.05980818496694518,-0.058717625444756116,-0.0036150228196560885,0.09124702969396226,-0.22947072636014698,0.03926191987592986,-0.0746511259972571,-0.2934017016520819,0.2769802373349255,-0.20663562350438214,0.1559671444720041,-0.11893444619751603,-0.18574715888218396,-0.19616878003873883,0.016024382879299415,-0.10358244239398162,4.164627507526548,-0.01928090162944973,-0.2432692201731782,0.3388990343889138,0.13148298998548658,-0.08671880283440025,0.1518855948362141,0.053593643594943785,-0.1485455351753716,0.02230370002265203,-0.19289702759289185,-0.07428497513056509,0.0008195439795695147,-0.05614880898210706,0.09728287766575838,0.25089631402997115,0.05588083329884208,0.005681580822046506,-0.2649996481903747,-0.1883320676814011,-0.22487452739522562,-0.11072365755680569,0.5944066613076806,-0.2312083724062346,0.10822483702565,-0.07424163176012755,-0.14132214589002323,-0.2615908084929488,-0.11068785091004196,-0.13682654842549535,0.18569238317713666,0.07836476240874801,0.33246524036673986,0.05996521117984388,-0.1369202324821286,0.21363684882603518,-0.060111435321307916,-0.15340863808591831,0.3052806966319559,0.18759527263758202,0.09839861899454272,-0.27632997272295656,0.08686297074431648,0.0021870569675439544,0.15376578863016044,-0.20775260472293056,0.3826407937345486,0.20586765027392495,-0.26089839787486757,0.2980866620576095,-0.1717469162740738,-0.17994085607910937,-0.07401871091195988,-0.1955063053018119,0.03640483855348653,10941.713521026233,-0.2799825701330627,0.014796687349090565,1.2743603815193234,-0.009480794954628169,-0.24103339616196162,-0.171863921841382,-0.08936777508801785,0.34593185846817676,0.18929172468589872,-0.010964411708623834,0.061118070181862105,-0.05701689205871585,-0.07335681925972537,-0.062133166771255466,-0.1763091005530979,-0.12206583458894715,0.404926504494733,-0.04848371569179655,0.049918838754195116,0.23648414786519245,-0.13893755064101054,-0.25633808549417614,0.09155250026181472,-0.017532123506439734,0.4909872718854651,-0.23160536528356135,-0.11527501644653704,0.043157440782726875,-0.08989082936796111,-0.07383557302175969,0.4682800760495296,-0.07364807011114205,0.10546705203218143,0.03024216439987737,-0.14307871797975646,0.038181381981870155,-0.14202004752400554,-0.11926733427446212,-0.15133047541636613,0.03448358553430175,0.04166863088341288,-0.1539159628691319,-0.14790304134290322,-0.16783221067517473,0.25190829966471817,-0.16696113337031326,0.03647169012819429,0.28114297000850663,-0.11334719473960542,-0.13868071282521022,-0.13941925754352447,-0.12758251547053734,-0.03914068012666849,0.18481239423481877,-0.03914437159339379,-0.09760313912423291,0.013867574071512623,-0.2779553389604069,0.0897252213453692,-0.10426303257064917,-0.062231962634822224,-0.058547280209456654,-0.07140432896661209,0.13313254105172923,0.37616277458769254,0.3998863090636722,-0.06870060722313998,-0.05264364132757149,0.08234228752751482,0.13876818320511242,-0.2283921087334435,-0.1671751914740578,-0.17578281527598572,0.6522145274109146,-0.10790693955350494,0.04716014725009865,-0.11968657990355569,-0.21614661469009488,-0.06255768704564224,0.8886347863553192,-0.2593338174167411,-0.1419013394469687,-0.06039414627224349,-0.13200027760381616,-0.0863836104024518,-0.04475665229744619,0.33379251224965145,-0.20402765466904815,0.05716549239130986,1451.9836039876961,0.033587239118635814,0.3277330500003084,0.4241921495736978,-0.21625930620263967,0.10203657793034537,0.09127225821362095,-0.12166419501077408,0.396672377548553,0.5682353045423025,-0.07583491305343915,-0.2695321366738237,-0.2559056712860891,0.3215619357141499,-0.23159904555308997,-0.16460999159223977,-0.0964801086212772,-0.13346710963578257,0.08663281616849683,-0.1018114684699647,0.2622921286424382,0.09788550418734832,0.032222934333783426,0.3557093683949164,0.5051049813688315,0.0910365462664462,-0.3110523178512339,-0.010917038426643155,-0.05089344242545868,-0.10161693355094725,0.4922202333673813,-0.04288283516689417,-0.17599321241403343,0.052896249496956704,0.34494276330739715,0.005916511573521799,0.48430064151865815,-0.021171305787421213,0.005370592847152134,0.39018035332265355,-0.26098354632485343,0.1430805994715041,0.14372395824566753,-0.07455085885447243,0.09494976033243518,-0.04256460859422051,0.0903081663894707,-0.14669318513490792,-0.06340147798318341,0.09404983336059125,-0.05622237076981995,0.9300571155285742,0.10568509567875495,-0.11925934968907115,-0.05759857573016369,0.8700223751469451,0.04054385565891461,0.09043429568823447,0.18729205303716046,0.426229387492038,0.1723045015103295,1.106194305596596,-0.01606095828841747,0.6087405459741331,-0.03610036520651283,0.08646800359403994,-0.17083526805968208,0.18576941210672948,0.6607742011730773,-0.213923400150847,0.05692976439047359,-0.24499263526781756,-0.10251183156465049,0.08544066941749895,0.04190720000271653,-0.1861750346440717,0.08717387199419657,0.04448113128369546,0.008324074961670647,-0.107179635655823,-0.1341441959899604,-0.2028722294993024,0.10760235383920813,-0.09750540803604302,0.07385077326206058,0.4220730157437542,0.12880141068607887,0.034387533270352044,0.14820823461663513,0.43893427589249145,-0.04840818101229116,-0.09779772110330354,0.04065049186509784,-0.12069647790007587,0.05330533674934457,-0.10316035958926428,0.1222577837332548,0.08754983651555026,0.07401334770654633,-0.06192127762717203,0.30369313463903636,-0.06522279399573994,0.782138939513515,-0.08825984549424815,-0.08992342124768149,0.01732679420993244,0.3533038062171139,0.07842889479379744,3.0137775622768928,0.17329188104604865,0.7501886775279305,0.043526959234628126,-0.1519762825279356,-0.13048714003907902,0.28262499519465445,-0.25566289502723594,-0.11352674806589702,-0.12654493662548227,1.1174411992572524,0.046728137872001474,-0.17484827605069675,-0.32442340344954324,0.32814612540526356,-0.0916355229925977,-0.0699086616008191,-0.10906764898630383,-0.04925668882168588,-0.07877371720705684,0.6094612608380616,-0.17958697514228883,-0.02544082268066239,0.055448123805693195,0.2983275120876472,-0.1438698988438929,-0.10368085655377257,-0.1741245275900386,0.18962041383855976,0.04236013202615063,-0.1351999325903559,-0.18009433501695826,0.12403859841883036,0.09906241794251858,-0.16821454317478235,-0.024066423748437926,-0.12273551989419673,0.27720240720683065,-0.02341458783432404,-0.12366860914365763,-0.25462275359878395,0.004458625138871852,0.09699801937956098,-0.04695470184159822,-0.3210348408744996,-0.04959212689289538,-0.030769439727414527,-0.08611470808178301,0.03886206319756891,0.08840795283459202,-0.004793535660721715,0.4926568858016729,0.14691948318138004,0.09488519630209202,0.4076762883793892,-0.1477096056711774,-0.19930814480798742,0.049515718633898365,-0.13304812191769289,-0.1828451881732941,0.09403721532019893,0.20820220259358768,-0.1156786773188,-0.10133755542159806,-0.09976809173616419,0.1992964852022232,-0.17728560231236945,0.08729741560262383,-0.09019906835546498,0.02227176803399389,-0.3988671871398144,-0.2184304748560334,-0.06909670846755922,0.5805354159486835,0.07759834453570535,-0.2595665303152609,-0.04372412407208337,0.0036150193228901006,0.1799189507298251,-0.2638898311487621,-0.15045064189250645,0.23608501812385296,0.11267401521520348,0.08399276578875536,0.11731262280989241,-0.11152901325379794,-0.35473003734139485,0.3880502663142993,-0.17172767457078397,0.6031136412525968,-0.20828476097074478,0.07875569397711857,-0.2537931618125442,-0.1487912791610586,-0.005909029141650257,-0.19682581596992565,0.007083519337998778,-0.07097994700011012,-0.10125761608454897,0.20306863075770343,0.30038185387375793,0.007605607745499121,-0.01615644371580638,0.0433578850668177,0.06055371748384131,1.1794904006490992,-0.03924517445380549,0.23646180898821867,0.02081281209506125,0.3044472849265232,0.4011453210275002,0.39353096588232206,-0.04070795699746521,0.05145084383962817,0.0551838793385242,-0.11302406658533282,2.114593420629915,-0.044609103670266714,-0.23194452081333994,-0.03838006499089974,0.0356702101658668,-0.05302386033386364,-0.044183663913714644,-0.013593561149862654,-0.125600436047151,0.07313276595692564,-0.1543971526014497,0.1778996736271281,-0.1586030141631417,-0.28762315426947715,0.07802776317570892,0.0046718678557347015,0.05374722057071035,0.42438087071003716,0.08385270902358277,0.7372120345766882,-0.04132429917703029,-0.07058009513065167,0.48388714967657886,-0.044703891868737244,0.05957321862949305,0.13851001787537975,0.28189450333644817,0.17616292682435875,1.123131156783428,0.14356558618875526,0.1221286736988152,-0.06256577117339446,-0.24813174886353861,-0.21807691963945286,-0.17106676682207989,0.16520041246757677,0.046290101241416304,0.07358237248895128,-0.008934156909725544,-0.036290054983862285,0.7780333574868152,-0.14429113181711195,0.1827175261956091,-0.03831164383277874,0.040904757740626074,0.7932426058997488,-0.21998048723875585,-0.17452970701541803,-0.06267710420157857,0.10708973790168108,-0.15527922323890386,0.13286511726035521,-0.11046001221626067,0.1513490899606902,0.3493444804290702,0.03253102117787021,1.9583068431528763,0.08911808760719198,-0.11991670486735673,0.38681708833924633,0.009300430918872449,-0.06353684550086358,-0.0702590174387755,0.16769795392406994,0.014916738155600129,-0.031064513504451496,0.23036601262828027,-0.06818600654326701,0.3638729900472948,0.17084241657735877,0.11404757274589916,0.580678422688282,-0.13198264837661122,0.9795515529489369,-0.07556903070127696,0.3361970650766406,0.39526681952811415,-0.13866046446234903,0.6815855991986028,306.4734373773507,0.33732412768957687,-0.042002857296534746,0.32908027918152194,0.8505932594590384,0.19480384069799905,-0.0294202027296816,0.07913677440035927,-0.21026270311095152,0.3177143169027854,-0.10492986774587287,-0.05291765768938517,-0.023959419824337136,-0.05374996663165077,0.028777276388205264,-0.17673647419041694,-0.030191077677781397,-0.05513071750610765,-0.08353645117734987,-0.021512821806223048,-0.007586997719644439,-0.09929896943202476,0.3721512293843072,-0.11432750770133415,-0.2617785829232635,-0.1074179132733607,-0.048072930005394365,0.15833239569957258,0.0006618149994035427,-0.17518557769894838,-0.3395671744039518,0.3242635725034799,-0.0025843233928354303,-0.11027331903246618,0.33202311081985636,0.4253022571595755,-0.08074771220903798,0.0023829305920979316,-0.07956008278157578,-0.09376119193202903,-0.2370123228069666,-0.1604623787503956,-0.11883917062778993,-0.23041490515019758,-0.12713426334642397,0.12746448658950427,-0.15365046569119034,-0.09721433204923069,-0.2564847023114377,-0.026505108082665485,-0.07122485100307485,-0.23436855774338639,0.1278589243331607,-0.07407490796610627,0.023597998581443846,0.077036423934018,0.006838621979759596,-0.02740230031620927,0.036679801505708376,-0.09672448533344091,0.17095378824729446,0.869998440487622,0.035331819340160164,-0.14616324829974026,-0.2798677673673914,0.025485923005412525,0.040317228901058266,0.004981082004954951,0.03825428053461688,0.24879893031869038,-0.3126946667497691,-0.060214729647689036,0.16008584294542394,-0.12185192150777713,0.5149089820151174,-0.3040555227131073,0.3776858335518347,0.2521079442291321,0.4720367291108776,-0.015636317416932277,-0.09668295259895354,0.160230078172948,0.04124836780397967,0.10568918359250556,0.8809261933952415,-0.18187588480154648,-0.1642214417841228,0.14326093699753906,-0.13005564240801226,-0.17826383002193147,0.8909244940953989,-0.07062055134721001,0.12687247263037316,0.25367225148385963,0.8526466169187892,1.6583583651192568,0.2325365478369552,-0.3332180306008351,0.018161502592123124,0.28237335224484417,-0.31049598477553586,-0.12974279499277364,-0.22442763273757182,0.012831640687597012,0.18486068790525545,0.34737447969095725,0.2949450011927346,-0.1610851037374369,-0.006887504972227232,-0.06233099667222508,0.05961473231542369,0.34607259392838263,-0.23457632938390216,-0.07391803615637627,-0.1627432898971598,-0.12478402095883034,0.782092511635121,-0.30535366907495387,0.04285423612912842,0.3525395600208465,-0.0367417371371046,0.2119723022879385,-0.07240638458816384,-0.4038982328991112,-0.09691512139565273,0.1236984857919734,-0.12540945636673795,0.6097528608096234,-0.16321743467418426,0.21423080933216743,0.22553781552174335,-0.1385417043294247,-0.016996523754134962,-0.1555972350774374,0.23423720444553986,-0.13575191446250523,0.26887869256477104,-0.12968685849723638,-0.19626254513308217,-0.11982355943224521,0.11115775051692767,0.0458367853226318,-0.20807258410743767,-0.17490757659281087,0.802350975350766,-0.02317875611291087,0.36424180482527246,0.5029487241702801,0.03830629318110379,-0.061032101813015216,-0.1992094695154395,0.03543885335435504,0.7428521781040562,0.17947797634811358,0.22346190870655058,0.09816491246808234,-0.04253334365662387,-0.19940601956899706,0.10029578784513471,0.413439052543346,-0.003145923657575045,0.1045913692759528,-0.19047740551373593,-0.22828356618940282,2.546931138186388,-0.06454347721496745,0.36846563170910396,0.16043997426881607,0.3419679897669381,0.18641440619466043,0.13076887689692596,2.041847467684968,-0.29243051223217154,-0.012087188285874961,0.07081620314269643,-0.16022711564198155,0.5329311720744412,0.12071863597930599,-0.031026812271817916,0.13166988173097427,0.19385295066131336,-0.21022556789921076,-0.19245736650796796,-0.0001241583029297777,-0.10868756503018762,0.08236891610400399,0.28090606360059267,0.1560377190072879,0.0736035015045029,0.6636662562032234,1.5601446346421457,-0.24320442525745078,0.002053495158287122,-0.06956857078737566,0.345964734220668,-0.2844688292445541,-0.14653394096826944,-0.11930068645137204,-0.1058564588644515,0.4484301670413584,0.1316230305656143,-0.14687438858466095,-0.08781249358788257,-0.00951281276587057,0.11207406882226612,-0.021843901768263785,-0.011993234218860449,-0.3067535881999237,0.07383391251792104,0.04674547844577859,-0.2604073601362309,-0.21844180874473496,-0.03169239140922475,0.45457275439267364,0.22131275151915197,0.2859683688457344,-0.22699112141224498
