x1,x2,x3,x4,x5,x6,x7,x8,x9,x10,x11,x12,x13,x14,x15,x16,x17,x18,x19,x20,x21,x22,x23,x24,x25,x26,x27,x28,x29,x30,x31,x32,x33,x34,x35,x36,x37,x38,x39,x40,x41,x42,x43,x44,x45,x46,x47,x48,x49,x50,x51,x52,x53,x54,x55,x56,x57,x58,x59,x60,x61,x62,x63,x64,x65,x66,x67,x68,x69,x70,x71,x72,x73,x74,x75,x76,x77,x78,x79,x80,x81,x82,x83,x84,x85,x86,x87,x88,x89,x90,x91,x92,x93,x94,x95,x96,x97,x98,x99,x100,x101,x102,x103,x104,x105,x106,x107,x108,x109,x110,x111,x112,x113,x114,x115,x116,x117,x118,x119,x120,x121,x122,x123,x124,x125,x126,x127,x128,x129,x130,x131,x132,x133,x134,x135,x136,x137,x138,x139,x140,x141,x142,x143,x144,x145,x146,x147,x148,x149,x150,x151,x152,x153,x154,x155,x156,x157,x158,x159,x160,x161,x162,x163,x164,x165,x166,x167,x168,x169,x170,x171,x172,x173,x174,x175,x176,x177,x178,x179,x180,x181,x182,x183,x184,x185,x186,x187,x188,x189,x190,x191,x192,x193,x194,x195,x196,x197,x198,x199,x200,x201,x202,x203,x204,x205,x206,x207,x208,x209,x210,x211,x212,x213,x214,x215,x216,x217,x218,x219,x220,x221,x222,x223,x224,x225,x226,x227,x228,x229,x230,x231,x232,x233,x234,x235,x236,x237,x238,x239,x240,x241,x242,x243,x244,x245,x246,x247,x248,x249,x250,x251,x252,x253,x254,x255,x256,x257,x258,x259,x260,x261,x262,x263,x264,x265,x266,x267,x268,x269,x270,x271,x272,x273,x274,x275,x276,x277,x278,x279,x280,x281,x282,x283,x284,x285,x286,x287,x288,x289,x290,x291,x292,x293,x294,x295,x296,x297,x298,x299,x300,x301,x302,x303,x304,x305,x306,x307,x308,x309,x310,x311,x312,x313,x314,x315,x316,x317,x318,x319,x320,x321,x322,x323,x324,x325,x326,x327,x328,x329,x330,x331,x332,x333,x334,x335,x336,x337,x338,x339,x340,x341,x342,x343,x344,x345,x346,x347,x348,x349,x350,x351,x352,x353,x354,x355,x356,x357,x358,x359,x360,x361,x362,x363,x364,x365,x366,x367,x368,x369,x370,x371,x372,x373,x374,x375,x376,x377,x378,x379,x380,x381,x382,x383,x384,x385,x386,x387,x388,x389,x390,x391,x392,x393,x394,x395,x396,x397,x398,x399,x400,x401,x402,x403,x404,x405,x406,x407,x408,x409,x410,x411,x412,x413,x414,x415,x416,x417,x418,x419,x420,x421,x422,x423,x424,x425,x426,x427,x428,x429,x430,x431,x432,x433,x434,x435,x436,x437,x438,x439,x440,x441,x442,x443,x444,x445,x446,x447,x448,x449,x450,x451,x452,x453,x454,x455,x456,x457,x458,x459,x460,x461,x462,x463,x464,x465,x466,x467,x468,x469,x470,x471,x472,x473,x474,x475,x476,x477,x478,x479,x480,x481,x482,x483,x484,x485,x486,x487,x488,x489,x490,x491,x492,x493,x494,x495,x496,x497,x498,x499,x500,x501,x502,x503,x504,x505,x506,x507,x508,x509,x510,x511,x512,x513,x514,x515,x516,x517,x518,x519,x520,x521,x522,x523,x524,x525,x526,x527,x528,x529,x530,x531,x532,x533,x534,x535,x536,x537,x538,x539,x540,x541,x542,x543,x544,x545,x546,x547,x548,x549,x550,x551,x552,x553,x554,x555,x556,x557,x558,x559,x560,x561,x562,x563,x564,x565,x566,x567,x568,x569,x570,x571,x572,x573,x574,x575,x576,x577,x578,x579,x580,x581,x582,x583,x584,x585,x586,x587,x588,x589,x590,x591,x592,x593,x594,x595,x596,x597,x598,x599,x600,x601,x602,x603,x604,x605,x606,x607,x608,x609,x610,x611,x612,x613,x614,x615,x616,x617,x618,x619,x620,x621,x622,x623,x624,x625,x626,x627,x628,x629,x630,x631,x632,x633,x634,x635,x636,x637,x638,x639,x640,x641,x642,x643,x644,x645,x646,x647,x648,x649,x650,x651,x652,x653,x654,x655,x656,x657,x658,x659,x660,x661,x662,x663,x664,x665,x666,x667,x668,x669,x670,x671,x672,x673,x674,x675,x676,x677,x678,x679,x680,x681,x682,x683,x684,x685,x686,x687,x688,x689,x690,x691,x692,x693,x694,x695,x696,x697,x698,x699,x700,x701,x702,x703,x704,x705,x706,x707,x708,x709,x710,x711,x712,x713,x714,x715,x716,x717,x718,x719,x720,x721,x722,x723,x724,x725,x726,x727,x728,x729,x730,x731,x732,x733,x734,x735,x736,x737,x738,x739,x740,x741,x742,x743,x744,x745,x746,x747,x748,x749,x750,x751,x752,x753,x754,x755,x756,x757,x758,x759,x760,x761,x762,x763,x764,x765,x766,x767,x768,x769,x770,x771,x772,x773,x774,x775,x776,x777,x778,x779,x780,x781,x782,x783,x784,x785,x786,x787,x788,x789,x790,x791,x792,x793,x794,x795,x796,x797,x798,x799,x800,x801,x802,x803,x804,x805,x806,x807,x808,x809,x810,x811,x812,x813,x814,x815,x816,x817,x818,x819,x820,x821,x822,x823,x824,x825,x826,x827,x828,x829,x830,x831,x832,x833,x834,x835,x836,x837,x838,x839,x840,x841,x842,x843,x844,x845,x846,x847,x848,x849,x850,x851,x852,x853,x854,x855,x856,x857,x858,x859,x860,x861,x862,x863,x864,x865,x866,x867,x868,x869,x870,x871,x872,x873,x874,x875,x876,x877,x878,x879,x880,x881,x882,x883,x884,x885,x886,x887,x888,x889,x890,x891,x892,x893,x894,x895,x896,x897,x898,x899,x900,x901,x902,x903,x904,x905,x906,x907,x908,x909,x910,x911,x912,x913,x914,x915,x916,x917,x918,x919,x920,x921,x922,x923,x924,x925,x926,x927,x928,x929,x930,x931,x932,x933,x934,x935,x936,x937,x938,x939,x940,x941,x942,x943,x944,x945,x946,x947,x948,x949,x950,x951,x952,x953,x954,x955,x956,x957,x958,x959,x960,x961,x962,x963,x964,x965,x966,x967,x968,x969,x970,x971,x972,x973,x974,x975,x976,x977,x978,x979,x980,x981,x982,x983,x984,x985,x986,x987,x988,x989,x990,x991,x992,x993,x994,x995,x996,x997,x998,x999,x1000
-0.14258127519344221,-0.044914110836427046,-0.03720458413390115,-0.006873500002011368,-0.06173866789729676,-0.16345035768940397,0.10141383524281711,0.04800661822853658,-0.04714860506025509,-0.149653908910805,-0.009770792345391133,0.06643040054021276,-0.13768116952840348,-0.10770418768342793,0.1638445019083843,-0.0054374639345965425,0.22649310283559632,-0.16796678230684725,0.10073390979936625,-0.02063992070244114,0.062023038654646756,0.09211350403170693,0.028894885414934013,0.14344864819893144,-0.09707848663628116,-0.044949162901326334,0.08594877199330586,-0.05813213067840994,-0.13169860188747062,-0.06212235375750952,0.08054890992779984,0.0476162062259049,-0.057581495492085355,-0.11627256030128785,0.040379302556198926,0.01036116728108638,0.3445076144039254,-0.13973716812712833,0.14268536443914526,-0.01702422348490762,-0.10220132550531169,0.009983013276706254,0.12615372886839338,-0.07946522467658568,-0.037701923061576714,0.059482784189460514,-0.08932843832824688,-0.12106362096998136,0.09997127831931785,0.13100101566720412,0.014278343958242345,-0.1297394497194605,-0.018906543113254792,-0.09687680473812788,-0.12018830061811292,0.06834827918102016,0.04168157359328273,0.001710075730303684,0.036292897679510716,0.1912564828644936,0.06336897000626296,-0.07698743280185849,0.015211932662458683,-0.007216480042355755,-0.04379224382246405,-0.017456048115681244,0.10477371497231736,0.06565920499461608,0.21033261994009833,-0.031135897367927323,0.019567012662975003,-0.0033244828124396886,0.047073241125594745,-0.005588724227479136,0.0017686358453834483,-0.10196387057707157,0.03284559971075707,-0.01702074289538935,0.01794666925226407,0.08069799087904705,0.015057974391234241,-0.005486377505769857,0.008921383670316807,-0.006029385725522585,0.013413385114178222,0.09441651932771689,0.01289093574305622,-0.1009222673159369,-0.0642656196445327,-0.13157554910460534,-0.09699472107418661,-0.004856537078041234,-0.11707489367384982,-0.06867149486852042,0.13108955867841332,0.11721963881164554,-0.11356147228135849,-0.049961085696205054,0.11731574265932054,-0.005356978421588221,-0.11717843269946915,-0.02343158906505971,-0.13143849976284316,0.04244947992238979,-0.13960150446431696,-0.11946996981740099,0.03424416691635179,-0.04726837243277737,0.09581942681333877,-0.05417465720971204,-0.007989232787951162,-0.03840935375751442,0.07597348618053967,-0.021661708114664613,0.11276987498054769,-0.018835655536538876,0.25600364346012894,-0.055990801376655464,-0.13510790038571185,0.020829312922023835,0.003898353752465722,0.004474062133102308,-0.1100319388776071,0.03010304189209778,-0.11927431173005743,-0.022583046315492128,-0.08623601569895789,-0.10491644736727168,0.005274695426692677,0.022932654723866186,-0.018774698092030362,0.12496559508685978,-0.005771527610205607,0.13668324154456046,0.15080122773551263,0.07236679925314693,-0.10108888070564193,0.06590013047077159,0.039156280253164866,-0.06356013066447996,0.013591535892614637,0.2584754973973258,-0.0773441727623515,-0.09031707877960671,0.06356989337002772,-0.061275960019343656,0.019292007186026305,-0.015324161922375623,-0.05488139223433397,-0.06496677579190946,0.07786384671255808,0.10239580677544269,-0.05124418751967996,-0.10990604828557649,0.009465130257165777,-0.04567825790594593,-0.018255081634858672,-0.007080341516168431,-0.017255678561355237,-0.039653727827648755,0.00566971795762905,-0.046751982782722745,-0.012377935400040174,-0.00013336800739316423,-0.03353993754399931,-0.03305101784391218,-0.06131218217321954,-0.09392312853506168,-0.07064329569107008,-0.1232067785969535,-0.09868708384604352,0.028045769073010263,0.006306497764691388,-0.12452888406515839,-0.13205945835143207,0.159926919252948,0.037176912083235925,-0.09338250154356631,0.09811827167292764,0.018416858473833342,0.032575348309798136,-0.038931239099977644,0.02895609916559372,0.013871195954808568,0.10511084354331102,-0.07810594805182747,-0.07210862299773957,-0.05593816352478331,-0.16572382946257502,-0.07659877073476895,0.050826497128802384,-0.0760159271052071,0.0545959847666726,-0.035500445673355085,-0.11603009215569382,0.0050243661502031856,0.05444678983197071,-0.09556325583099112,0.1493791492044363,0.05603742571683923,0.04758460834115619,0.09767469778635074,0.12216827972053834,-0.005678713275018454,-0.151178920425596,-0.16893321679591222,-0.05230336221570031,0.05527104813691097,-0.09406365410400674,-0.011256617153880377,0.004245078325975538,0.037811984780399044,-0.04004794711141735,0.10798920518847521,-0.1152005869911058,-0.12742338096341976,-0.006290490618405475,-0.11316629750090546,0.0654770540595826,0.11517272375682364,-0.05671245166853467,0.006877817041001544,0.13880849145688656,-0.17437364216366413,-0.028254679046394338,-0.06330274476152764,-0.07590013979552845,-0.030005804433988148,-0.04509793895965408,0.040952655005583205,0.11911314111428117,0.07269836939481866,-0.01635213751710418,-0.10729104377659016,0.012733757969451975,-0.0026665624552884015,-0.09959538213774766,-0.10140289595522456,0.14066308573908048,0.012961233206844947,-0.0930816887768059,0.18095926981183452,0.013630363341805785,-0.04106107939186665,-0.07075297376203171,-0.07948496840744823,0.07377968540775526,0.006043784817836295,0.03279730468421782,0.025869808359016533,0.08599533963144212,-0.0012579516600913498,-0.07686619158429242,-0.14387021842303427,-0.002132533429202943,-0.09216824533248558,0.0034877866407563296,-0.06390756155692623,0.006165016291207248,-0.11283275238765444,0.02136938954950085,0.23325365288783284,-0.04691138390399208,0.14407172014830527,-0.02144106868611828,0.4187888131891371,-0.05407491176740353,-0.12181264520718005,0.05507494238386301,-0.13243460874303348,0.068792178354242,-0.0842755685151031,-0.10088927915216694,-0.05252320007888123,0.12962878152084278,-0.10436872765830685,-0.004304348850909245,0.0017962987217654547,0.036456319377848656,-0.05179205492478878,-0.010807936778016947,-0.0005194491892744901,-0.01574183759746628,-0.07834548800744812,-0.14726717978010628,-0.04451822978611086,0.08388335380984335,-0.13530320855415245,-0.06186243509176559,0.033289009590277585,-0.027920547245100624,-0.07817977871415438,-0.07085985108334947,0.025509806522704404,-0.020231585766380955,-0.0018951925442456385,0.02844388396084252,-0.07622165859735475,0.01458444488770927,-0.017164321948028305,0.07680790807674787,-0.050202481667526944,-0.04780299245171549,0.014630890995268597,0.011963368724127177,-0.013918549449179918,0.015679210537355548,-0.0275925602832624,0.18652997648070735,-0.06313603255018718,-0.03513565259255513,-0.03576870897175988,0.09471987326497122,0.17347153029488793,-0.06575047630989106,-0.026125409763041008,-0.004167839961054187,-0.004653117336398616,-0.017808976691458422,0.0076883594487020535,0.06412109816363087,-0.027709975840281453,-0.06672225908893181,-0.12867884937926577,-0.024449232102775942,0.06956171625678809,-0.08787835310782388,-0.13786399952151485,0.07282919592704751,-0.03717495011696503,-0.04837373992337468,-0.08626382448288272,-0.05214722950784456,-0.01824034260092222,-0.12824113090562783,-0.11708450991719432,0.03503804840635105,-0.05780695213725118,-0.09543360864596517,-0.010522146411478528,0.031441901013916196,0.2481086706120439,0.00947033357110283,0.016837063489930637,-0.04819862996836477,-0.1423660744693075,-0.10187519121625366,-0.013857557581147262,0.008315255078110928,0.19259140010189402,0.049607932328774584,-0.08392033433793344,0.07458770776854307,0.06776274215140643,0.005518315031278531,-0.13397165219729634,-0.12469836534725642,-0.13792783841287937,0.009511614485460562,-0.15948746754114607,-0.04160514480783273,-0.1055558170999844,-0.00725277141695202,0.23063125307594867,-0.1008103673527232,0.04329607775280642,-0.09043663582738848,0.14869348813048733,-0.12434838659007208,-0.01618434339498087,0.0675289015945495,-0.06083666600289128,-0.13184129910790465,-0.06589393650879471,-0.0696807629934183,-0.06125260557617884,0.2163412836131211,-0.0763905679276684,-0.07334174287546003,0.1890777680982234,0.11068456831446771,-0.09785768206495538,0.09676254685199703,-0.17386145700451716,0.010960940434647792,0.027807568423138918,-0.02856040081928435,-0.0918936534900382,-0.06805183641187096,-0.014760320139318162,0.02974866596095005,0.0106315657292535,-0.03619217511906081,-0.018630608018852968,0.1124930114391458,0.011681799509678736,-0.14233126444302746,-0.10148027446452323,-0.014030551305480587,-0.036072703611623846,-0.024615898462271968,-0.12406878827261703,0.25896082435686507,0.2319990194864674,-0.07987601937339883,-0.08109681210731634,-0.010574112966697413,0.19208171793727535,-0.022342274764712067,-0.04873354635800231,-0.057379605330166394,-0.09850733206816709,0.0945269018819701,0.038687699254009944,0.0029176199219405063,-0.10183085481231713,-0.0535056541001091,0.027292604634868045,-0.06937033997940723,-0.07761042362451898,0.1716665205547736,0.05922564843621858,-0.031315117598678444,-0.035337668806176614,0.005908429747502497,0.08609074990781562,0.13802216702686532,-0.10624502199275898,-0.041525452345617,-0.03775068661153069,-0.12441954411936829,-0.11644508669588849,-0.037637833277327615,-0.10308729943481376,-0.13837796893411236,0.10804152206293582,-0.0782900218818251,0.0703255921527397,0.044221131771820854,-0.1411809949203232,-0.09091561362805178,0.004678422068659538,-0.09276193752914941,-0.05823311703918743,-0.09238741012842389,0.06288890727267216,-0.11267692724148615,0.020786635787393593,0.050900417221502625,-0.07231399332272859,0.19888452238357868,-0.0007070342524233553,-0.09994045591722767,-0.003285142463613222,-0.05085467818173006,0.0379459833735698,0.11738080333192236,0.1144934098382775,0.0823140920843799,0.07718932241609311,-0.04237595755306656,-0.011422876611252852,0.015446063230307505,0.07505272291435383,-0.03536711346817045,0.0009739007780975584,-0.01546423303970379,0.004745443903630742,0.17866188792129978,0.07214483037784913,0.1139424928416326,-0.056046553281683176,-0.06468314467255898,0.09070078412563531,-0.050849211741467615,-0.039222814676544315,-0.10001950900565637,0.12128368525109834,0.011418116623955976,0.0201096919188819,-0.04924887221248986,-0.09902615195778575,0.007160892456406387,0.025024700118057464,0.00619146542211646,0.06125914688304901,0.0522496406668298,0.2115715214757239,-0.11269978444880924,-0.08689586972786867,0.02575504627881786,-0.06544473555079433,-0.04521009832748624,-0.06067871049854845,-0.166405361540242,-0.07564402555916427,0.008780024647679907,-0.03717388460478066,0.05000697085270467,-0.05138958752642797,-0.01850744350720479,-0.015952962737120546,0.0649010642118204,0.06038466643246032,-0.023031862238850564,-0.0355262290402234,-0.0374995280807906,-0.07361120744762362,-0.002754954836210799,0.06810120715141865,0.006343467584893014,-0.09856153635333997,-0.016217111703152987,-0.04564029423551941,-0.06059021084709826,-0.11796350850040371,0.010978340718668322,0.20309629218953007,-0.14647255650810787,0.21801771254947155,0.11549966321706151,-0.1357785556674399,-0.026351924960856588,-0.07695214330300426,-0.0537926107899398,0.049277573947230424,0.14086225228502536,-0.06909275826681693,-0.11878829684725023,0.0946748031761051,0.05297866469553392,-0.019122919523006376,0.17497833108586347,-0.08117824467354773,0.05560678194031987,-0.026539441160810417,0.09610905104474665,0.010901227709592565,-0.005052180930766759,-0.0070801502945285755,-0.08735687652768498,-0.012241879504855335,-0.0781297143171017,0.01420543835456467,0.03415231896760185,0.03619103567140525,-0.015296040639516173,-0.06868412620677689,-0.13844958461990042,-0.11066019157115015,-0.05949921121551216,-0.021270638292766764,-0.14424818462340494,0.0058407272746627825,0.12618900569044045,-0.09426545426334754,-0.07236123789265991,0.10686766871588649,0.0007967207666987886,-0.10237880214835715,0.01000842023006654,-0.03174312245898114,0.25880970163606865,-0.033432187423678816,-0.06537920302712363,-0.002404953500010465,-0.03471914853128599,0.08202872221815904,0.13021159502292545,0.3393404972156866,0.05015327528946956,-0.025037787359644792,-0.06891189306553425,0.029721947585418684,-0.023588807931192446,0.026431747788251636,-0.09777491195154464,-0.07555783381305292,-0.018187745907387143,0.05739151526271513,0.14146589352402694,-0.10115650395818132,0.1619685009111529,-0.10422269247918159,-0.08092860723881157,0.017027278869602203,0.030964020110418877,0.08506922816986995,0.06362594483465589,0.049076569125022784,-0.11342924318221048,0.032445478283473106,-0.11604619722433218,-0.18655454666155447,0.1392897731930538,-0.026881170954833444,-0.030796001188994393,-0.1086834510255793,-0.009323188133533722,-0.13126931328755442,0.021424337375943736,0.0040450126274831355,0.21567938274917964,-0.05896157614408337,-0.07845719148910657,-0.11058225970261837,0.11936781499187776,-0.07141168214301252,-0.10078128690109955,0.08195591778891909,0.08115419098169663,-0.01035229996088638,-0.16323294126810506,0.016619387351531234,-0.10934709520862107,-0.08107628897854025,-0.029939411488942524,0.022122033052188073,-0.055802828288412876,-0.08429667440717559,-0.018469918725622536,0.018279796979661977,0.037716902843206945,0.01461080844260998,-0.10892365594335496,0.03993838939551808,-0.12265993975421086,-0.000784654293289333,-0.029930441262232654,0.012687840961769892,-0.034711468970155424,-0.08348372661409087,0.029313113371018273,-0.05140767827550119,-0.07730194408834223,-0.1353470426676605,0.16553746457917695,-0.0008193185529872249,0.14448421591377314,-0.037887607539610846,-0.011546818146690008,0.06416577343468388,0.045838154397753295,0.12476900329161911,-0.023351580315769338,-0.18259688878998215,0.010171814576843241,0.0063439640924036755,-0.026227576981286083,0.03284918915257973,0.06973988145406684,0.12482357619242235,0.0019286143490671037,-0.015574305185309667,-0.20691768373649244,-0.07618421526616626,0.20063263786074792,-0.022626705592129537,-0.0034008398259726125,-0.04192444142359231,0.09722381265176194,-0.10159951882387563,0.07357910099688936,-0.043711349886714435,-0.09477584768675185,0.001058521132378587,-0.09083003617328156,-0.14091037383732963,-0.013799407561059907,0.09221637900322066,-0.09553744280312926,0.038114693957460366,0.06902512029677443,-0.019376681359891457,-0.04287073223510263,0.043836351160883025,0.09410433394829965,-0.029133668406236435,-0.12205003999695863,-0.059868302391617556,-0.01876349911274866,-0.029434653174223335,0.04005727955718319,-0.04700800728287824,-0.01715310649042201,-0.025450637082850336,0.05526771219377569,0.15378517385717516,-0.054827559365638545,0.04282543162677399,-0.06536055141702413,0.15204220829972281,0.05554883993319071,-0.11764481615412958,0.0026190774349943435,-0.0017640806809335885,-0.07959403337166415,-0.03442493434790683,0.005332935694569274,0.0687421532936312,-0.06614503024641338,0.07103549752528848,-0.08467285602048269,-0.050247506004896914,-0.059192010873135636,0.007380923931165517,-0.14594045996215466,-0.11412810645317073,-0.11194404338993891,-0.008214112517798133,0.13489225608854505,0.14608192899692574,-0.10383140912445288,-0.06822165442424377,0.06192185373967307,-0.09688879947277851,0.01448866754262701,0.004644517036261231,-0.008261345570578449,0.07754949439286918,0.008875421128004213,-0.06857970988333029,0.014896889704469007,-0.0025362271684987725,0.03387106676962426,-0.07173527756617981,-0.10056012678235582,0.031011004016723298,-0.13056074352950187,0.13746130930334655,-0.0062846750884929525,-0.083506465951935,-0.07165600478702194,-0.05346408949554893,0.005003161725396277,0.17225824365605535,0.017283742921979206,-0.08760062478987984,-0.05330843007499997,0.05507129126706478,0.08900056231168962,-0.08791657942383779,-0.03402093271445572,0.06708553122476002,0.11854497024084631,-0.04132173215999968,0.04337181318724048,-0.1379251657820434,-0.06072807671771263,0.1572417817977585,0.0219515414808511,0.051067536626031806,-0.019366556441695604,-0.10763832365947035,-0.024455739322586045,-0.07214047682984481,-0.05682011203587056,-0.04393466119901035,-0.025865038446632238,-0.033092971970066665,-0.045749888349292944,0.13247875374799478,-0.007707841727999543,0.00025894194257092273,0.023232193025020997,-0.07705255289282842,0.17407185073189613,0.04029204070955683,-0.0172145456857149,-0.1311540074607741,-0.10051393394190289,-0.10954407153217216,0.028260067341977058,0.060927751328821556,-0.00862466788266969,-0.031010441436433278,-0.07850736190651741,-0.10155650684689255,-0.09066133271902954,-0.001743595348164817,0.07929345251744291,0.03864623194655903,-0.002445762412564112,-0.025901743251104947,-0.11792686975028344,0.23260947380736963,0.012799099843187944,-0.03287609741444597,-0.04470048238220903,-0.13981627949694475,0.06639158310623827,-0.019122869372212525,0.11233525109978504,0.02392188184036881,0.07261453298007159,0.23202541298095403,-0.054481673063855984,-0.03461972595261642,-0.10583159909628015,-0.037750939441932085,-0.03335119988104651,0.04124803022814105,0.007061557531756746,0.008986499581622676,-0.06921200011597772,-0.10732833958468269,0.05994364338928615,0.09378058823903901,-0.10268271362554915,0.26334936137779175,-0.01808231386104764,0.03394899857670519,-0.07838894824564857,-0.1115014345638099,-0.04831395312982134,0.039952494108196124,-0.014659906715388638,0.020679672779779112,-0.0324732451462314,-0.02475873624966618,0.12682128233284784,0.021925429936399787,0.19908198861410886,0.003542566207092479,0.10568596853062218,0.07024060375922514,0.020503043532088983,0.18045962243815983,0.06136787297430146,-0.11294494501059604,-0.029328213881360976,-0.06765617841248972,0.07157960506145811,-0.006631096524856828,0.09743127711573107,-0.06769916072431825,0.1276393721075897,0.03166327602802688,0.10627826402480411,0.15115101225445038,-0.01011029424105192,-0.1168056231920197,-0.04124706702985359,-0.048122609509357206,0.021151447969890436,-0.09838104211232923,0.06592221413076094,-0.081703366868632,-0.15590781638639672,0.0949112237555143,-0.030777406324803636,-0.10000841293323304,0.41936074729138806,-0.03669124049849026,-0.05438988370596043,-0.19576511101408378,-0.011536024706823578,-0.10428272117523196,-0.06964953816471153,0.024356295523068283,0.028580545996904183,-0.02915515666797175,-0.014766036163804341,0.2929739263760289,0.04807223837854635,0.07473128801495976,0.14080476034422462,-0.04344147806071863,0.10472540137342001,-0.12981190387086905,-0.016989812150070116,0.019775008981027575,0.03275705728530576,-0.21315646152807366,-0.19929516455842256,-0.07966710715486314,-0.005119447701981694,0.05518995110065972,0.07723730497595027,-0.053715723165076334,0.03275629858041529,0.1103517592301988,0.03452714135223478,-0.07031723522575184,-0.023828952516571245,0.07787670824219939,0.111580151760311,0.04560385534878475,-0.10676372538278722,0.06595043611154261,0.07793051670116458,0.008056195951875456,-0.09633584883515567,0.023798030889305766,0.014017161265473588,-0.03982788613734334,0.028465773737972988,-0.16292068733443266,-0.16912464035668706,-0.07465960474903632,0.1033207816129198,-0.09783460272436206,0.09347825230696905,0.04998063279755938,0.043825886615614706,-0.09751679840869865,0.22445918393810094,0.08164115644633396,-0.22384520728936674,-0.050721598441190285,-0.05779558827682141,0.14853773358996802,-0.034027469791632736,0.11000013213278415,-0.021192377404570695,-0.053194766349342504,0.017778622550146173,-0.0601501411886437,-0.08348028618460201,-0.021254593800453025,-0.06683834557054269,-0.13161956009930986,0.03468580403752797,-0.1362013399983406,0.12465530600972796,-0.12544879770784223,-0.07775742158043486,-0.04647937998852425,0.1877611176459284,0.05718381383962057,-0.010849621759259409,0.011367814063927506,-0.030626440505373664,-0.06946898205890217,0.15281004326080505,-0.09279639714240173,-0.0791859863944564,-0.10563696187505933,0.05463236662628823,-0.12011035130530634,-0.05262323951228298,-0.014278717281293374,-0.025981948980702718,-0.01867768207337317,0.03045516096345846,-0.1599215344140812,-0.08055992535321921,-0.050040413841167974,-0.12366600886244494,-0.03657082674206347,0.05138574825266007,-0.1067883207693534,-0.014366763095464474,-0.026833947043023887,-0.0363362414579802,-0.0661008857221419,0.06360109370193379,-0.07459638550274916,-0.028423707854411395,-0.14359299089632283,-0.08535829774302384,-0.048331158533747365,0.041183675742473946,0.03678529332345293,0.2109748990187712,0.12717299617481048,0.05776686432611178,-0.05266393227954824,-0.04343515357194028,0.11065259865272781,-0.0690761916413245,-0.0009241882825217207,-0.025107262741059566,0.14542757837422915,-0.05365271539507188,0.09018897353578326,-0.03970305829261256,-0.005665610057990489,0.04417613871283077,-0.029805021091899864,-0.13283486218000973,0.007910178411776325,-0.033709866390520205,-0.09322709866351708,-0.1508745826217618,0.06288254173289864,0.006205257990925972,0.04464561910637821,0.0011989507711112068,0.19945463478812564,0.018154045137929398,-0.11007905506387128,0.03905259717045606,-0.041215969852369305,-0.010702569491636504,0.16132770000970598,-0.06931373576132205,0.03474143928697404,0.17410436325425516,-0.014302333627649544
