x1,x2,x3,x4,x5,x6,x7,x8,x9,x10,x11,x12,x13,x14,x15,x16,x17,x18,x19,x20,x21,x22,x23,x24,x25,x26,x27,x28,x29,x30,x31,x32,x33,x34,x35,x36,x37,x38,x39,x40,x41,x42,x43,x44,x45,x46,x47,x48,x49,x50,x51,x52,x53,x54,x55,x56,x57,x58,x59,x60,x61,x62,x63,x64,x65,x66,x67,x68,x69,x70,x71,x72,x73,x74,x75,x76,x77,x78,x79,x80,x81,x82,x83,x84,x85,x86,x87,x88,x89,x90,x91,x92,x93,x94,x95,x96,x97,x98,x99,x100,x101,x102,x103,x104,x105,x106,x107,x108,x109,x110,x111,x112,x113,x114,x115,x116,x117,x118,x119,x120,x121,x122,x123,x124,x125,x126,x127,x128,x129,x130,x131,x132,x133,x134,x135,x136,x137,x138,x139,x140,x141,x142,x143,x144,x145,x146,x147,x148,x149,x150,x151,x152,x153,x154,x155,x156,x157,x158,x159,x160,x161,x162,x163,x164,x165,x166,x167,x168,x169,x170,x171,x172,x173,x174,x175,x176,x177,x178,x179,x180,x181,x182,x183,x184,x185,x186,x187,x188,x189,x190,x191,x192,x193,x194,x195,x196,x197,x198,x199,x200,x201,x202,x203,x204,x205,x206,x207,x208,x209,x210,x211,x212,x213,x214,x215,x216,x217,x218,x219,x220,x221,x222,x223,x224,x225,x226,x227,x228,x229,x230,x231,x232,x233,x234,x235,x236,x237,x238,x239,x240,x241,x242,x243,x244,x245,x246,x247,x248,x249,x250,x251,x252,x253,x254,x255,x256,x257,x258,x259,x260,x261,x262,x263,x264,x265,x266,x267,x268,x269,x270,x271,x272,x273,x274,x275,x276,x277,x278,x279,x280,x281,x282,x283,x284,x285,x286,x287,x288,x289,x290,x291,x292,x293,x294,x295,x296,x297,x298,x299,x300,x301,x302,x303,x304,x305,x306,x307,x308,x309,x310,x311,x312,x313,x314,x315,x316,x317,x318,x319,x320,x321,x322,x323,x324,x325,x326,x327,x328,x329,x330,x331,x332,x333,x334,x335,x336,x337,x338,x339,x340,x341,x342,x343,x344,x345,x346,x347,x348,x349,x350,x351,x352,x353,x354,x355,x356,x357,x358,x359,x360,x361,x362,x363,x364,x365,x366,x367,x368,x369,x370,x371,x372,x373,x374,x375,x376,x377,x378,x379,x380,x381,x382,x383,x384,x385,x386,x387,x388,x389,x390,x391,x392,x393,x394,x395,x396,x397,x398,x399,x400,x401,x402,x403,x404,x405,x406,x407,x408,x409,x410,x411,x412,x413,x414,x415,x416,x417,x418,x419,x420,x421,x422,x423,x424,x425,x426,x427,x428,x429,x430,x431,x432,x433,x434,x435,x436,x437,x438,x439,x440,x441,x442,x443,x444,x445,x446,x447,x448,x449,x450,x451,x452,x453,x454,x455,x456,x457,x458,x459,x460,x461,x462,x463,x464,x465,x466,x467,x468,x469,x470,x471,x472,x473,x474,x475,x476,x477,x478,x479,x480,x481,x482,x483,x484,x485,x486,x487,x488,x489,x490,x491,x492,x493,x494,x495,x496,x497,x498,x499,x500,x501,x502,x503,x504,x505,x506,x507,x508,x509,x510,x511,x512,x513,x514,x515,x516,x517,x518,x519,x520,x521,x522,x523,x524,x525,x526,x527,x528,x529,x530,x531,x532,x533,x534,x535,x536,x537,x538,x539,x540,x541,x542,x543,x544,x545,x546,x547,x548,x549,x550,x551,x552,x553,x554,x555,x556,x557,x558,x559,x560,x561,x562,x563,x564,x565,x566,x567,x568,x569,x570,x571,x572,x573,x574,x575,x576,x577,x578,x579,x580,x581,x582,x583,x584,x585,x586,x587,x588,x589,x590,x591,x592,x593,x594,x595,x596,x597,x598,x599,x600,x601,x602,x603,x604,x605,x606,x607,x608,x609,x610,x611,x612,x613,x614,x615,x616,x617,x618,x619,x620,x621,x622,x623,x624,x625,x626,x627,x628,x629,x630,x631,x632,x633,x634,x635,x636,x637,x638,x639,x640,x641,x642,x643,x644,x645,x646,x647,x648,x649,x650,x651,x652,x653,x654,x655,x656,x657,x658,x659,x660,x661,x662,x663,x664,x665,x666,x667,x668,x669,x670,x671,x672,x673,x674,x675,x676,x677,x678,x679,x680,x681,x682,x683,x684,x685,x686,x687,x688,x689,x690,x691,x692,x693,x694,x695,x696,x697,x698,x699,x700,x701,x702,x703,x704,x705,x706,x707,x708,x709,x710,x711,x712,x713,x714,x715,x716,x717,x718,x719,x720,x721,x722,x723,x724,x725,x726,x727,x728,x729,x730,x731,x732,x733,x734,x735,x736,x737,x738,x739,x740,x741,x742,x743,x744,x745,x746,x747,x748,x749,x750,x751,x752,x753,x754,x755,x756,x757,x758,x759,x760,x761,x762,x763,x764,x765,x766,x767,x768,x769,x770,x771,x772,x773,x774,x775,x776,x777,x778,x779,x780,x781,x782,x783,x784,x785,x786,x787,x788,x789,x790,x791,x792,x793,x794,x795,x796,x797,x798,x799,x800,x801,x802,x803,x804,x805,x806,x807,x808,x809,x810,x811,x812,x813,x814,x815,x816,x817,x818,x819,x820,x821,x822,x823,x824,x825,x826,x827,x828,x829,x830,x831,x832,x833,x834,x835,x836,x837,x838,x839,x840,x841,x842,x843,x844,x845,x846,x847,x848,x849,x850,x851,x852,x853,x854,x855,x856,x857,x858,x859,x860,x861,x862,x863,x864,x865,x866,x867,x868,x869,x870,x871,x872,x873,x874,x875,x876,x877,x878,x879,x880,x881,x882,x883,x884,x885,x886,x887,x888,x889,x890,x891,x892,x893,x894,x895,x896,x897,x898,x899,x900,x901,x902,x903,x904,x905,x906,x907,x908,x909,x910,x911,x912,x913,x914,x915,x916,x917,x918,x919,x920,x921,x922,x923,x924,x925,x926,x927,x928,x929,x930,x931,x932,x933,x934,x935,x936,x937,x938,x939,x940,x941,x942,x943,x944,x945,x946,x947,x948,x949,x950,x951,x952,x953,x954,x955,x956,x957,x958,x959,x960,x961,x962,x963,x964,x965,x966,x967,x968,x969,x970,x971,x972,x973,x974,x975,x976,x977,x978,x979,x980,x981,x982,x983,x984,x985,x986,x987,x988,x989,x990,x991,x992,x993,x994,x995,x996,x997,x998,x999,x1000
-0.02727336649810841,0.03242934863357094,0.020831734875228936,0.0029384280711748367,0.002980847286946142,0.006878927092214715,0.187185992752968,0.0013898963646075124,0.045579189553443644,-0.017004857174189758,0.0027057424417493703,0.07447371331650143,0.011898530497708393,0.032017498265703104,-0.09617701630587505,0.09643747435822037,0.0614240848820069,0.017156262976582903,0.004628906554815293,0.030899131983127992,0.06735434187744693,-0.01726267834171924,-0.0017677573839922633,0.04845305993122784,0.029575312975179457,-0.07431681576497651,-0.027338883033531713,-0.03141370765258955,-0.10995450284340647,0.1278511294323088,0.1408792864211268,0.019812951180159022,0.0676364275067447,0.010647479350302858,0.0027712797292340774,0.010564494584540007,0.061539414512733925,0.02709149804141653,-0.029147718728030347,0.09755540745357294,-0.014120119632699213,-0.02416677722229088,-0.02490876910060602,0.024243693540048517,-0.053476813684239066,-0.06576078047484168,0.17400178394401777,0.07141095197575686,0.09296090634592491,0.06456991935841483,0.005416904503564579,-0.07955704108052308,0.08398456608640581,0.05425129043046617,0.08363724741273582,0.021465911825324868,0.11124308480353395,-0.09995450312039644,-0.05341388394655089,0.1774402092741112,-0.013135917632009941,0.04577732639429355,0.03384579544033972,0.06458844315691614,0.10614184832564177,0.03974543903493344,0.08071133906193739,0.023138586042860787,0.13569169271385673,0.109462553974923,0.06384102571531813,-0.15196977869418993,0.09324628031069859,-0.10714096582395427,-0.007766085626827457,0.06526582707252637,-0.06217143923634749,0.06794248926724822,0.09232068580028585,0.03779219207044249,-0.04471345655711245,0.012158090080452988,0.056503660511102005,0.014828273580886675,-0.06132395485571451,0.07219112758027646,-0.002616958239856304,-0.015529331264066082,0.10838731441931526,-0.004345232801055365,-0.0175964993633001,-0.0004683580176721991,-0.029348128314852118,0.09335914155067937,0.10177205974585024,0.022574349634649105,-0.006203742684925739,0.01617597599338705,0.049947004554097285,0.09267853173380347,-0.0073644987076912916,-0.03458033067826716,-0.11403648130509747,0.1421013567911451,0.08919432185126297,0.009122769815087972,-0.06179881145419952,-0.06341784345083734,0.01254039373302529,0.006088668321894142,-0.0030732058081232028,0.11998453274388798,0.06449059447242678,-0.10865954039071202,-0.06698980569850232,-0.017519596431616602,-0.052425421943608996,-0.016604152099295333,0.09453246734515619,0.030692093017884226,-0.05706233876541289,-0.05498471377686853,-0.04335199108087706,0.02486049207606955,0.016413927941421047,-0.009180455490683581,-0.014857989888830136,0.04115083183871837,-0.03714266932159238,0.03992695172858096,0.019214684325375098,0.004525229918252327,-0.04663768664563528,-0.06533088797468889,0.04469413161465119,0.025239352546537086,-0.060976701999987726,-0.029972441032294128,-0.00864002707153666,-0.02635150860123059,0.08771312529422515,0.06115995880256442,-0.04859851562876549,0.02634320573058968,0.01908308482147736,-0.03952281587118367,0.12028985963749661,0.06738539382255104,0.21749498642895593,0.1634081767377067,-0.030626689001271523,0.0330061159699111,0.243106027019365,-0.08476345498632898,0.06599088877274961,0.0395785415972012,-0.04412822889180534,-0.0574138426563956,0.11643178084943107,0.041687778342352155,-0.07135917092212474,-0.0005482287482964088,-0.0499021459202591,0.06490576071860388,0.0027749090257378484,-0.008691389741862898,0.026380509211502368,0.06763885461470154,0.00044821345871959295,0.06076171145458842,-0.09692538729492972,0.12390418931324976,-0.02087099225394684,0.010776453947928255,-0.10494570591715124,-0.0425094375556303,0.047386327650296156,-0.06577210877577933,0.005834564485855953,0.026167619842609513,-0.06287367043992831,0.024955785202166902,0.09357087502394923,0.04936111789809705,0.16925111530296966,-0.05402451690891685,-0.012893533636150978,0.012777413427638828,0.0288795305393188,0.13444900346269795,-0.08883578602427966,-0.02283635141836926,0.11235321389077813,-0.06596858597460586,-0.020901365938312044,0.13813376687740053,-0.056090038330345204,0.07956968122435937,0.005077038493694008,0.11833303536942807,0.02944794353656288,-0.016634866175123553,0.03466340961683034,-0.011640265523926052,0.09127957035002154,0.033799308997289446,0.05823166336337926,0.17446461317879125,-0.076929438473196,-0.05365768528118908,-0.00692261351111112,0.12350740719477549,0.05895172255639736,0.07979036125966821,0.10034610700144708,0.004856776435577581,0.1369038571943355,0.09635767644860382,-0.03824682374625721,-0.0050160184321430545,-0.11457497355497315,-0.032002500377490084,0.03670702648287927,-0.06957468741017914,-0.01947349771289275,-0.008040857686546388,0.04315280471851057,0.10707830456685752,0.05173524516763295,-0.07775713960211894,0.010717218775954551,0.06639288183545666,0.13907775853807047,-0.01990840568266028,-0.07836884103599406,0.01455405524024056,0.017473947380954424,-0.07332246109120477,0.09062275680544918,-0.024760559772301072,0.006625180298233779,-0.005000248123217754,-0.054429216402360425,0.13886793636297523,-0.0673352756712533,0.011341557226997923,-0.032303135750702094,0.08244878241248599,-0.028788784160796776,-0.025567725994817603,0.02648758652980754,0.03751910750328924,-0.1052053490606697,0.07547798988735455,-0.04047606526544689,-0.0038249576988381717,-0.04753008627365796,0.1591878452357649,-0.09893758978834233,-0.010578107035728701,-0.016337266294878194,0.09924851184173322,0.04693036399377548,-0.042032024630286324,0.008557503050509396,0.0037579368049074358,0.06602471198244819,0.07675027876594553,-0.027980947811549806,0.042375992879536195,0.012155317087252593,0.10468089934535607,0.1382589479499612,0.11275335274167975,0.05657721731220411,-0.009888177853193847,-0.1021752019704415,-0.004177625012833253,0.09471915520261942,-0.000498155384967558,-0.06110701075210834,0.13397261673397876,0.052156666543884844,0.00549035889609395,-0.05095094670788114,-0.03271617465130017,0.0766296066149752,0.20646768687119343,0.032406845109695714,0.07808074317853064,0.069033772052157,0.013523647336797229,0.0628246439776825,-0.07774821201653359,0.08472552245469633,-0.07462151091330627,0.04627352196016776,0.014595284601141012,-0.05666886292189932,0.09992009419309889,-0.03564309922385023,0.02059556135917151,0.013421618615785835,0.09706855535566428,0.0592634920890065,-0.0604992555346382,0.07001616522381826,0.0765291800122212,0.21211077823267455,0.04390904851310351,0.230154106907555,0.023467460871350765,0.165696255507211,-0.012293281968696168,-0.09073532988683641,0.13300999181251894,-0.05402538251275146,0.12811429583204204,-0.15213881250718742,0.0696138869924654,0.15935186538869117,0.006452459639867403,0.12399885602513483,0.018223636580265934,0.05662210406445367,-0.09376355979641449,0.006632294808167849,-0.018599090745392566,-0.04550655847590268,-0.020718697596628588,0.00654439041520849,-0.05611134656292871,-0.003513037502461347,0.01772932930465143,0.12079037322322161,-0.06917150995878507,0.18746514743266052,0.04310543983635795,-0.04931778051907243,0.01804219181581934,-0.01577245911596803,0.06743626902384103,-0.019699856735501897,0.014977117319385114,-0.03600275191670754,-0.0648084354192896,-0.06566231614068196,-0.10591628359155636,-0.06857866693521886,-0.005335911603575716,0.005727414409061327,-0.0718831755554925,-0.027598146482091468,0.03639282272731181,0.03609043776382559,-0.014694807409224908,-0.0349914235054849,0.19536855360742167,0.04540349812851496,0.1271960263509695,-0.034497495877455764,-0.06263011304338384,0.04474196416555909,-0.028899416282284207,0.1291528182152415,-0.037928143954772064,0.10886162501755425,0.010222077799935336,0.08661377580853435,-0.026832755093775362,-0.022725587966084704,0.02431971974060332,0.04218259181865891,0.18497143913330816,0.03111926497569306,0.10287447278416528,0.11148232249617096,0.003925520347192624,-0.04354508476705132,0.027176249884318437,-0.024557878464767535,0.015444035254923216,-0.019383057077289045,0.004898717299402389,-0.03869734737060582,0.004580196952728821,0.001107117526009116,0.05286917009844494,0.008760116931932904,-0.0870382076722529,0.016411673801553395,-0.049229510734553394,-0.06918727331815644,-0.04180954420688954,-0.020069132958909885,0.13767733888313982,-0.034840241513284353,0.13212527457300327,-0.1487635904924347,-0.0028396862721781213,-0.10970276127197831,0.02908216855283663,-0.010957302042223449,0.04392738846677102,-0.09273914490667079,0.07352323117426196,0.03932538305914446,-0.039615028090913995,0.0002713025932212787,0.04807564044985302,-0.012793888205027582,-0.03297285541955208,0.004602978682687331,-0.05262948031853276,0.10188318956695785,0.006363784023911245,-0.017612225884709343,0.06489010020982433,0.03695020583565345,0.03454743831307017,-0.016872676715975143,-0.00534702290572886,0.002494417397638893,0.006153415147176933,-0.08329132388551219,0.000579650740613058,0.006086351682826452,-0.09576730096480202,0.021526894694485987,0.08501886140223602,0.06602001462053919,0.0402313507296117,0.06375221510210705,0.07004594172792489,0.06534054472234319,0.14311897313079314,0.10398501942966076,0.047521852652472996,0.04928843310743458,0.004181579576694849,0.019853171817776127,-0.07737027549445219,0.14626521467018838,-0.03802979467935996,0.05602938398003876,-0.09179881969977388,-0.0466093398669728,-0.025114558945962484,0.14052100828151803,0.11280323527911129,0.14834101647472608,0.083861120056685,-0.007221585084865145,0.02974927718364695,0.10649606456204253,-0.03916560880061304,0.004343072478360854,0.07180151784621147,0.060902623957372004,0.13756480169708518,0.03007232263849291,-0.017556884511312987,0.0942564264087622,0.060299924849227526,0.15784446984367073,0.07265428925094408,0.032798042325693944,0.08730214528496671,-0.06741894427974016,-0.1001445935839016,-0.04359426572340985,0.004769399996502832,-0.11014013852294624,0.07123443723273426,0.06689771010860435,0.022002830456209654,0.0005948840514762299,0.030230120325258403,0.0939917948483675,-0.03564089867203302,0.08397730352945798,-0.09718619363375991,0.028359429009499504,-0.031962559609380325,0.04588140991234857,0.11916525199715511,-0.0262560060475302,0.02356891561387231,-0.018420835626587473,0.05760182452371776,0.08429031944232945,0.09271820553557486,0.13995327721202,0.08552572337452724,-0.01423409325841396,0.0962582307768185,-0.02168990685645178,0.03162521233801452,-0.00586957765891627,0.03964166875352326,-0.05307922287811018,0.13873061933187758,0.10324308595813791,-0.016781441866285718,-0.057990459904092795,0.046688584677079925,0.08944128824361974,0.010438991726858582,-0.08065290226075328,-0.015894244741030406,0.00811355671807723,0.04451390111802089,0.08949491922107455,0.020073143994893128,-0.03488574280775303,0.006873132906829449,0.0035890582576525443,0.032771805446915714,-0.009006093734976961,0.07248690186727447,0.08919115854940562,-0.004150593371149092,0.11715478099636956,0.04163097440411723,-0.03731297905768172,-0.0009049204935070998,-0.026805474901661408,0.026850166335055325,0.037806821136157964,-0.018481673436388624,0.015943172756197166,-0.00026063313505853003,0.007870895478159223,-0.02236493616125823,-0.06094900038190332,0.045153004449630885,-0.08449124508986394,0.12646437296631352,-0.0753690083414128,0.05809698956442211,0.05610779214027439,-0.07255205001703302,-0.061736485294437315,-0.0002970261462672541,-0.024670202938068653,0.11958603853111938,0.00025346080954857797,0.08937570092255798,0.01001515087526128,-0.02549905298596178,0.07128603131962286,0.05224450480038101,0.028663982298801738,0.06993681157335074,0.0780606053927142,0.008115195882711701,-0.04505266654667828,0.045102044969035804,0.0382021804712378,0.08341879999928836,0.12645139759656931,0.07771525828936587,0.06627337356259244,0.0926274492770709,0.08265162600433462,-0.05258831947873588,-0.06296658251611409,0.06716723193556007,-0.0875784861220883,0.02413471342187501,-0.020908347741390387,-0.04231932273202621,-0.029989626565110616,-0.01483851281160542,-0.03562259557473224,-0.023804071603412136,-0.07503288309027345,0.04823428881219316,0.02119487170313561,0.07576052042705772,0.03985138186943549,0.05126594356460945,0.08473789704758738,0.02669881878183733,0.05330356547351811,-0.013247890605754153,0.04008145676443253,-0.029763852235677013,0.10669327471020784,-0.045022558285710335,0.03817870368561671,0.13407138753419412,0.02789959989156543,0.020305662015590364,0.028464928092152286,-0.03441621282975815,0.09423858023910303,0.03607953060334346,-0.003325929909910763,-0.030820876701726396,-0.05698668655088668,0.05578009523471361,-0.05049878790536344,-0.005216039741298362,0.11471369352393035,-0.026759711836695788,0.010102590612050655,-0.06690707183921019,0.04298146496658117,-0.006383039317070294,0.18403009152068206,0.09015365218653026,0.010148745609693588,0.12352394047727588,0.11142903042878483,0.03990622372502273,0.049389520967901834,-0.13014756722512877,-0.010863211116715066,-0.03627870277741174,0.36415907063362063,-0.0651027656796187,-0.04112674775117919,-0.02016289006222105,0.03630426548014487,-0.012184079155946548,-0.07915238144127101,0.03623094716623765,0.14177060161282484,-0.059589235964143006,0.0211592672425005,0.05590599746171976,0.028629276406686,-0.035800609340313705,-0.011808173098448393,-0.009057260928580835,-0.01924295374829621,0.04845349700606749,-0.0290324169933297,0.18025731083317598,0.006365972236579642,0.07178772119102628,0.017829416789662877,0.019075561628794313,0.0945138556638141,0.07456312471628568,0.06261707903907543,0.0011957691475863452,0.022993050531560533,-0.02036161163283512,-0.032300845615180984,0.0630014661338496,-0.0014039428992645986,-0.06949701930359986,-0.018147628572874663,0.05515601500161549,0.10984147868709693,0.020751510357864156,-0.02944222573591493,-0.028674208524840927,-0.03971934588859005,0.044985957410625055,0.01485710494491177,0.2878818231809359,0.055544728534060006,0.13130992458564172,-0.132570374837244,0.01742158812944794,-0.0769657432268186,0.08304169941302941,0.07246460825954082,0.0852009724511178,0.09913123530933299,0.10696781150228807,0.087161681234317,-0.010690079020915677,0.05153317874142682,0.12859411830242728,-0.037159676097750616,-0.0007645246232351743,0.055504010226297806,0.02985878401961095,-0.01669032684496785,-0.021720449465966185,0.04963925809659231,-0.0008334315477870335,0.025283926867344597,0.2655906043016858,0.03652332277686887,0.03232241691951243,0.13003969172726748,-0.012352980452038143,0.078026837357416,0.05192331407001771,0.0827824944459512,0.0020989903081920502,0.11094375921963517,0.07272439529505714,0.15084900729272044,0.031376742192203544,-0.05296621282266534,0.10169621481730795,-0.09996675248857823,-0.0255657726173788,-0.12331031127637904,-0.09631332295859807,-0.06767368169832311,-0.0021024127170741203,0.0797105560109117,0.10747671461994313,-0.024477705807521843,0.013426887904901319,0.01272979288170295,0.057525241661048776,0.033099349942348644,-0.06009787610163342,0.1239817774205354,0.1215658461079887,-0.05367037110342965,-0.0423983058440669,-0.11899874446252934,-0.0466785221279683,-0.06289178811473772,0.03443655735047502,0.13604234583850916,0.12565089761727188,-0.04805118896403893,0.07167537006305458,-0.007044347529865047,0.06210071261797645,0.10843266258750983,0.08300979985355617,0.10818338217209433,0.10245109434067157,-0.05780816009999634,0.04781048332716775,0.08056878436659742,-0.011647960254702716,-0.04493108624368314,0.1268708614810583,0.0542466010295064,0.07298135030122888,0.002082126319234767,-0.10533394756515735,0.13240264775294386,-0.1355276530955114,0.01955805117877052,-0.11706739386649967,0.08670343519292789,0.17963161958941787,0.12074417055976805,0.014424971360978311,-0.0166983908353755,0.0003658289979167062,0.02780737911319897,0.07711169470073598,0.171349014862336,0.07775255955854088,-0.021754770825551994,0.0049204031757013045,0.025822327246839638,0.16018168197363258,-0.030484013082323402,-0.006980624333054686,0.021616494048956714,0.03422674269291881,0.09088517121399065,0.014163964221984626,0.03579778244359488,0.010348452965063482,-0.09890687309591462,0.021246327505892948,0.07257991945599707,0.10461324617291945,0.017039316388544057,0.0982673250293622,-0.04166003928029438,-0.02931391240210013,0.09511779518768226,0.011339024814941867,0.10231778351696219,0.09290055504524086,-0.013885441748220706,0.05404105377851853,0.1251467264410422,-0.05349946627483815,-0.03172977267768007,-0.06082770216133604,0.11276014117398603,0.00030709187413435757,0.018971333476547114,0.06042452688825217,0.010657154527371704,-0.04927651071010564,0.15581526919267152,-0.007067265555735225,0.005938616063458246,-0.08462030489588457,-0.04750632413845124,0.08966534722987607,-0.033760116315836974,0.06383028061593388,0.01827721072078825,0.04634573309132639,0.017050558483003853,0.17200137898761292,0.17190591077433237,-0.011212774955402072,0.019350053287488178,0.06455629597040491,-0.028979678771518635,0.024765607239528142,0.013114365118768179,-0.02474468739865976,0.10277650186408671,0.07700513879144766,-0.020739279323690907,-0.05942192690321957,0.05189894209435453,0.05387180953944215,0.011274883343485254,0.08079453432819639,0.003460221499367311,-0.06310418762978076,0.0988832368963608,0.06277565496290816,0.05912598056032614,-0.05522998754248365,0.02859652743912644,0.03304806516764858,-0.04346969662501787,-0.0001541393037455263,0.18731674084239702,-0.00048753514066002257,-0.0009094776236072688,0.08461227406555394,0.10271832366185207,0.05827336558102658,0.015408584187079244,-0.018210825151273924,0.025267697176158732,-0.013890467590417344,0.01887760977964459,0.014024222539695153,-0.05270386924969128,0.06263057479373968,0.011445950490160062,0.1713794110661251,0.0429478223490698,-0.013565496760796103,-0.042447206594466325,0.09696008981053827,0.13251272555267124,0.06344842282624152,0.03425917000808765,0.02232568754491404,0.07257305352705168,0.15724619439993148,-0.05238382176070966,-0.021586935886122594,0.015010067444502395,0.07709277889675237,0.078162017060601,0.13454529238681,0.11547595283055534,0.07186254021849847,-0.07972880770146196,0.052904405651358566,0.0006216769863951477,0.01868456369223681,0.02011859952477857,-0.008925796987272139,-0.020312173576365056,0.04431093645647288,0.09314780027204672,-0.023371483917198455,0.10804175773081703,-0.012177250077492485,0.022926122147926442,-0.06707748631744159,0.09566752018507496,0.006904043746274624,0.06154098067933189,0.10052181999791698,0.005667001555753393,0.016403584325209275,-0.056455604713999574,0.04422817891499142,0.10387958583877777,0.008454720778877212,0.04718177699339776,0.07287681376197974,-0.04323304458115018,0.059212228065407047,0.10739421473333133,0.05161147104214958,0.009204728304603726,-0.07745383193648758,0.07849661558520205,0.13593970564040414,0.08198241728959665,0.10501018690998243,0.07149403334894666,0.023489518210724425,0.04739802889101252,-0.00508989425489359,-0.05441862488619231,0.10206605212533515,0.06552615904768211,0.04143933066460681,0.02092349694182638,0.03131758514672556,-0.03732569665166774,0.08471893451638479,0.21601255880073955,0.406941943110112,-0.0642257275875413,-0.0327205122605132,0.04703507093295767,0.06215419930141031,-0.002116065586177829,-0.009661711061507816,-0.059816694029154904,0.08887887560358942,0.09894576280661083,-0.0009226550227781072,0.09252723972103127,0.19414945123119565,0.04505003181446843,0.07601509584482136,0.04304148858490975,0.1310703302247116,0.06698131323092849,0.04036287185784704,0.05608512155712675,0.09324060729063133,0.07039160743871609,0.04974125718131339,0.02075925009634183,-0.03100226414315599,0.04166236986338134,0.0928912603028984,0.03952744697793942,-0.017450219873701323,-0.01869026668473195,-0.05125491776369773,-0.0029164634648224386,-0.0371514152673017,-0.017650695387413595,-0.042214582697758574,-0.04323979631807928,0.09348057517655062,-0.07979133219785195,0.02678888199027374,0.03353476446328951,0.06059918260561914,-0.057388082991838174,0.0357278910240062,-0.035157194461137964,0.0931363196234627,0.12761317182210852,-0.030717959544793394,-0.023182459658062426,0.021846047797425383,-0.0917596369877266,-0.030448421384071778,-0.018858784617660884,-0.056526877798538044,0.15901200708137742,0.0031315687896269484,0.1946466644308087,0.14040775275937367,0.005709344638974212,-0.002729395825046166,0.0497226945230711,-0.08544988298952227,-0.03446780837317753,-0.0049934589657019135,-0.09854123865715692,0.01302700419538172,-0.1303959858899042,0.015326458106083019,0.3206824214774455,0.14884073091256456,-0.033889371704475146,-0.076248145841887,0.031083694529919104,-0.01188688988232356,-0.07067330322203647,0.021553929331294075,0.057942018877790824,-0.016238670588109905,0.031508764541708034,-0.0813993141896765,-0.02906623062016145,-0.0033655857410679335,0.0138360859051061,-0.039649334299439065,-0.11792646822844477,0.0822953540758129
