x1,x2,x3,x4,x5,x6,x7,x8,x9,x10,x11,x12,x13,x14,x15,x16,x17,x18,x19,x20,x21,x22,x23,x24,x25,x26,x27,x28,x29,x30,x31,x32,x33,x34,x35,x36,x37,x38,x39,x40,x41,x42,x43,x44,x45,x46,x47,x48,x49,x50,x51,x52,x53,x54,x55,x56,x57,x58,x59,x60,x61,x62,x63,x64,x65,x66,x67,x68,x69,x70,x71,x72,x73,x74,x75,x76,x77,x78,x79,x80,x81,x82,x83,x84,x85,x86,x87,x88,x89,x90,x91,x92,x93,x94,x95,x96,x97,x98,x99,x100,x101,x102,x103,x104,x105,x106,x107,x108,x109,x110,x111,x112,x113,x114,x115,x116,x117,x118,x119,x120,x121,x122,x123,x124,x125,x126,x127,x128,x129,x130,x131,x132,x133,x134,x135,x136,x137,x138,x139,x140,x141,x142,x143,x144,x145,x146,x147,x148,x149,x150,x151,x152,x153,x154,x155,x156,x157,x158,x159,x160,x161,x162,x163,x164,x165,x166,x167,x168,x169,x170,x171,x172,x173,x174,x175,x176,x177,x178,x179,x180,x181,x182,x183,x184,x185,x186,x187,x188,x189,x190,x191,x192,x193,x194,x195,x196,x197,x198,x199,x200,x201,x202,x203,x204,x205,x206,x207,x208,x209,x210,x211,x212,x213,x214,x215,x216,x217,x218,x219,x220,x221,x222,x223,x224,x225,x226,x227,x228,x229,x230,x231,x232,x233,x234,x235,x236,x237,x238,x239,x240,x241,x242,x243,x244,x245,x246,x247,x248,x249,x250,x251,x252,x253,x254,x255,x256,x257,x258,x259,x260,x261,x262,x263,x264,x265,x266,x267,x268,x269,x270,x271,x272,x273,x274,x275,x276,x277,x278,x279,x280,x281,x282,x283,x284,x285,x286,x287,x288,x289,x290,x291,x292,x293,x294,x295,x296,x297,x298,x299,x300,x301,x302,x303,x304,x305,x306,x307,x308,x309,x310,x311,x312,x313,x314,x315,x316,x317,x318,x319,x320,x321,x322,x323,x324,x325,x326,x327,x328,x329,x330,x331,x332,x333,x334,x335,x336,x337,x338,x339,x340,x341,x342,x343,x344,x345,x346,x347,x348,x349,x350,x351,x352,x353,x354,x355,x356,x357,x358,x359,x360,x361,x362,x363,x364,x365,x366,x367,x368,x369,x370,x371,x372,x373,x374,x375,x376,x377,x378,x379,x380,x381,x382,x383,x384,x385,x386,x387,x388,x389,x390,x391,x392,x393,x394,x395,x396,x397,x398,x399,x400,x401,x402,x403,x404,x405,x406,x407,x408,x409,x410,x411,x412,x413,x414,x415,x416,x417,x418,x419,x420,x421,x422,x423,x424,x425,x426,x427,x428,x429,x430,x431,x432,x433,x434,x435,x436,x437,x438,x439,x440,x441,x442,x443,x444,x445,x446,x447,x448,x449,x450,x451,x452,x453,x454,x455,x456,x457,x458,x459,x460,x461,x462,x463,x464,x465,x466,x467,x468,x469,x470,x471,x472,x473,x474,x475,x476,x477,x478,x479,x480,x481,x482,x483,x484,x485,x486,x487,x488,x489,x490,x491,x492,x493,x494,x495,x496,x497,x498,x499,x500,x501,x502,x503,x504,x505,x506,x507,x508,x509,x510,x511,x512,x513,x514,x515,x516,x517,x518,x519,x520,x521,x522,x523,x524,x525,x526,x527,x528,x529,x530,x531,x532,x533,x534,x535,x536,x537,x538,x539,x540,x541,x542,x543,x544,x545,x546,x547,x548,x549,x550,x551,x552,x553,x554,x555,x556,x557,x558,x559,x560,x561,x562,x563,x564,x565,x566,x567,x568,x569,x570,x571,x572,x573,x574,x575,x576,x577,x578,x579,x580,x581,x582,x583,x584,x585,x586,x587,x588,x589,x590,x591,x592,x593,x594,x595,x596,x597,x598,x599,x600,x601,x602,x603,x604,x605,x606,x607,x608,x609,x610,x611,x612,x613,x614,x615,x616,x617,x618,x619,x620,x621,x622,x623,x624,x625,x626,x627,x628,x629,x630,x631,x632,x633,x634,x635,x636,x637,x638,x639,x640,x641,x642,x643,x644,x645,x646,x647,x648,x649,x650,x651,x652,x653,x654,x655,x656,x657,x658,x659,x660,x661,x662,x663,x664,x665,x666,x667,x668,x669,x670,x671,x672,x673,x674,x675,x676,x677,x678,x679,x680,x681,x682,x683,x684,x685,x686,x687,x688,x689,x690,x691,x692,x693,x694,x695,x696,x697,x698,x699,x700,x701,x702,x703,x704,x705,x706,x707,x708,x709,x710,x711,x712,x713,x714,x715,x716,x717,x718,x719,x720,x721,x722,x723,x724,x725,x726,x727,x728,x729,x730,x731,x732,x733,x734,x735,x736,x737,x738,x739,x740,x741,x742,x743,x744,x745,x746,x747,x748,x749,x750,x751,x752,x753,x754,x755,x756,x757,x758,x759,x760,x761,x762,x763,x764,x765,x766,x767,x768,x769,x770,x771,x772,x773,x774,x775,x776,x777,x778,x779,x780,x781,x782,x783,x784,x785,x786,x787,x788,x789,x790,x791,x792,x793,x794,x795,x796,x797,x798,x799,x800,x801,x802,x803,x804,x805,x806,x807,x808,x809,x810,x811,x812,x813,x814,x815,x816,x817,x818,x819,x820,x821,x822,x823,x824,x825,x826,x827,x828,x829,x830,x831,x832,x833,x834,x835,x836,x837,x838,x839,x840,x841,x842,x843,x844,x845,x846,x847,x848,x849,x850,x851,x852,x853,x854,x855,x856,x857,x858,x859,x860,x861,x862,x863,x864,x865,x866,x867,x868,x869,x870,x871,x872,x873,x874,x875,x876,x877,x878,x879,x880,x881,x882,x883,x884,x885,x886,x887,x888,x889,x890,x891,x892,x893,x894,x895,x896,x897,x898,x899,x900,x901,x902,x903,x904,x905,x906,x907,x908,x909,x910,x911,x912,x913,x914,x915,x916,x917,x918,x919,x920,x921,x922,x923,x924,x925,x926,x927,x928,x929,x930,x931,x932,x933,x934,x935,x936,x937,x938,x939,x940,x941,x942,x943,x944,x945,x946,x947,x948,x949,x950,x951,x952,x953,x954,x955,x956,x957,x958,x959,x960,x961,x962,x963,x964,x965,x966,x967,x968,x969,x970,x971,x972,x973,x974,x975,x976,x977,x978,x979,x980,x981,x982,x983,x984,x985,x986,x987,x988,x989,x990,x991,x992,x993,x994,x995,x996,x997,x998,x999,x1000
-0.12610733039896893,-0.12474889170650205,-0.12922910869412751,0.05737166900909041,0.11922041114037052,-0.1482552767286347,-0.06678773443480734,0.27050410378694845,-0.14082585761625033,0.009662190847138152,0.11387663772669754,0.09218258399603174,-0.05591673428018762,-0.11164555756713868,-0.05849728619103156,0.010390999829077208,0.08018105351075744,-0.023770607883571437,-0.055782366187497545,-0.2258043869379437,0.26778099524588583,0.40279668075926867,0.33337687520031367,0.2408287280189938,1.415115269355566,0.2358727763600581,0.4532789034361533,-0.11618278523538605,-0.09270934502294648,0.5357597260506848,0.15322553132522265,0.012136055693644954,-0.2570304074477584,0.08916435322168792,0.26332838906082867,0.2019264465631787,0.43844123980808214,0.4250428452609625,-0.10390182124013914,0.388321533378281,-0.30924187615630583,-0.21699150578743254,0.2171296888618739,0.34575283814105884,0.505764183897035,-0.17540268353233324,-0.014973924441581632,-0.03392636430454321,-0.21638581074056895,0.0871591207154856,-0.07868741379173139,0.08077932275470912,-0.13965214960581607,0.03470282739028274,0.5889099801836237,0.24956862755609377,0.20435937474855725,-0.11791039922476676,-0.10198335942073222,-0.26708507085442135,0.20392847666910785,0.6484191796189593,-0.190740887658998,-0.12681312277992718,0.31873569721046,0.15471085717036126,-0.2165742975217796,-0.16638177992851888,0.4044118009288309,-0.14774877290978383,0.14073274611039532,-0.06146770872463414,-0.1279108171829172,-0.11015523444668307,-0.3267278156906378,0.20058955182219407,0.3422949928707326,0.4940591825774412,0.2532861066823804,-0.24561989386521266,-0.19955705900642395,0.48399661316151765,0.3207431501107014,0.2969172175169841,0.1519627275725275,-0.18209083687414984,-0.23808534874082155,-0.22912395515807993,-0.10548641666329495,0.09063990585591797,-0.07376633940189314,-0.03774931463349618,0.11148874242172124,0.047540475247217495,0.7865067548871065,0.45026134377196003,0.2147212772869327,0.028054218428359867,-0.01896886416022514,0.015291005986024064,0.2209003042306994,-0.13698754714504024,-0.2227389465710149,-0.051969864977307934,-0.15959292602069652,-0.090560949773416,0.9168549317040482,0.2543474619106827,0.014331554682408099,-0.2446892314287582,-0.03398956557516153,0.146843329791148,0.44109980958699624,-0.04897196539564819,0.14427849611796906,0.3457790881673364,-0.20889819942869714,-0.00921690836431377,-0.23313974527384085,0.022205235889501296,0.026285841535103716,0.10371240085905797,-0.021364791941498318,1.8072436056166752,0.011072431703958552,0.06401308538403683,-0.16718289287511334,0.44610493608721935,0.4388017698131055,0.07901219706128826,0.5570396312744814,0.10247408689383586,-0.31918780838561134,-0.26540945820819684,-0.009643071041946283,-0.017659581859423068,0.5051311126758644,-0.059831921157053936,0.16535354715463657,0.1539626891786019,-0.03290438156410824,0.04340991477945688,-0.21449726270024727,-0.028932978126804176,-0.1030861565324328,-0.4159409993141985,0.1871496026506143,0.07109428963641551,-0.05609125579053331,0.09824748967315133,-0.2102427016500078,-0.24139573994949337,-0.14738436599778226,0.17569111408861215,0.49966503673792695,1.1979967857053615,0.02737883004626207,0.3903260690618233,-0.1814556274734498,0.17096173106472756,0.12199780976300323,-0.06435165694362543,-0.229038379241014,-0.16456620590175886,-0.1080727212326611,-0.01797912825259873,1.8923414727923378,0.033177342579904234,0.4712857843208089,0.04001408533032014,-0.25312209590546675,-0.009234678431922938,-0.031440936429858124,-0.061771826593722934,0.20566781552064883,0.7421830532538802,-0.07050822628592512,-0.19173563410633754,-0.17591671413151844,-0.19888520986529046,-0.13568806419759027,-0.14894290626558426,-0.21541414844178264,-0.04078342295591331,-0.032214709077489245,-0.10032669794965954,0.10816299498882853,-0.12951319276189466,0.058498392314981995,0.0057999745661261315,-0.0317188307222831,0.27264367704828474,-0.028916770035936512,0.46506569413044807,-0.10104318294724546,-0.14015695925705796,-0.20568824597743174,0.29745305277406797,0.16646090684975223,-0.07007733414843398,0.031715012974219414,0.06895490693556883,-0.031671194399281455,0.58231505865399,0.0888335893260066,-0.06853108458538348,0.11182021527120134,-0.11687216655672406,0.008641852957084417,2.8613299362635547,-0.05583713995878559,0.022572785464779477,-0.11791377406024361,0.4970694687299424,-0.023092549869136447,0.0322311730058098,0.03220173619893285,1852.6490851861058,-0.0400420035554625,-0.06812254307081034,-0.15238551221567098,-0.2048829446056274,-0.017663736242528594,2.0238968656594793,-0.18824359877928443,0.1982394238777816,0.32214699301525807,-0.014018739398682478,0.3875822988529194,-0.25980702867760663,-0.11026851959137107,-0.10043820883537813,0.08902812388611547,-0.17878083901876762,0.01944722859438497,-0.10973687273455146,0.2519018614898765,0.0086288908323231,-0.22192667512706954,-0.1712076643342253,-0.27610670770723145,-0.1790397476560074,-0.09945199840396124,-0.2762553665166787,-0.15763191661098885,-0.23890168520096078,0.2117879490565857,0.05815406791198208,0.04137926138903647,-0.029805572394938862,-0.26460661581242206,0.09349404813584039,-0.0034678006385258087,0.255664266687901,-0.15532153764968315,0.159138874272984,-0.23252362208874222,0.614468963034912,-0.03245722814355845,-0.2969025046735596,-0.10598432387478862,1.0258522059730977,-0.057358404332651935,-0.0065842421918344,-0.2428852880910245,0.2062357984519827,-0.008760860517553981,-0.2305729359641443,-0.0014451735434305446,0.24821606698221554,-0.12253379234818784,-0.13582976488919996,0.3255400269255435,0.308532450094676,-0.031941388159802186,0.11180366740372372,-0.14127326177570243,-0.0005282236992486533,-0.0983392480256915,-0.2269706349686782,0.049781233882157716,-0.029339817914538435,-0.18811343643059386,-0.07216692065636499,0.11782278949244729,-0.032909947260346795,-0.03490471853428112,1.9149329407435332,-0.046716000514599676,0.0914370857957234,-0.15349421553518894,-0.08839198451513686,0.030455859992853718,-0.1567112974031608,0.21201606354273306,0.034467167541437416,-0.20940247975212234,-0.05422935459060485,-0.1008829052930289,-0.23266676389630592,0.06005356593224431,0.489950932764446,0.6935609267080132,-0.007557829909381142,0.021566309786788418,-0.09600044275855757,0.007279272806703485,0.04605523273826084,-0.21145525029079337,-0.20414665271628796,0.25733690385100916,-0.06155611014500795,0.003552165960683862,0.6137292521614277,-0.12224785947968309,-0.16805759743429627,-0.18778136516527089,-0.25236055527348655,-0.08135472134165678,-0.05980818496694307,-0.05871762243256684,-0.003615012663294115,0.09124703085834862,-0.2294707263838054,0.039261925943814946,-0.07465112544148345,-0.29340171206225996,0.27698023733498767,-0.20663562350374298,0.15596714388054367,-0.11893362241290173,-0.18574714987394014,-0.1961687801238412,0.016024382879170185,-0.10358244992688326,4.164477522300987,-0.019280860798415733,-0.24326922027305964,0.33889907720841705,0.13148299012717857,-0.08671877585467025,0.15188560046585153,0.053593643597205975,-0.1485455352189261,0.02230370124770875,-0.1928970276254276,-0.07428497513097787,0.0008195439702549656,-0.05614881179787301,0.09728287770999855,0.2508963383947522,0.055880878113989674,0.005681580818213794,-0.26499832808597035,-0.1883320208695266,-0.2248745291558607,-0.1107235787637183,0.594406717751405,-0.23120838183772807,0.10822483704449937,-0.07424161968162879,-0.141322145939746,-0.261590812863036,-0.11068785064350839,-0.13682654828936025,0.18569238318578285,0.07836476240530321,0.3324677628718935,0.05996521143874767,-0.13692023248247742,0.213637213079219,-0.06011143532111396,-0.1534086124863362,0.3052806967422841,0.1875954733074081,0.09839863467789356,-0.27632996578330926,0.08686329654686942,0.002187072603003104,0.15376690267810278,-0.20775253201865818,0.3826410975775574,0.20586765036698207,-0.2608976449272974,0.29808690651378966,-0.1717469169689394,-0.17994085608518628,-0.07401875061776098,-0.19550619261634994,0.036404970604299924,1960.4435435174796,-0.27998257064237453,0.014797280074226427,1.2743607117273394,-0.009480794943194537,-0.2410333933610599,-0.17186392340557421,-0.08936506074521589,0.34593186056529146,0.18929172468090516,-0.010964411236362936,0.061118096008794254,-0.05701689121531128,-0.07335681294798568,-0.06213299093998936,-0.17630908300308545,-0.12206583463511844,0.4049265139773617,-0.04848343927193688,0.0499188387958569,0.2364841479313673,-0.13893755062927216,-0.2563380887368514,0.09155250068645704,-0.017532121983747873,0.4909873170832031,-0.23160523395506816,-0.11527501642010174,0.04315744079471173,-0.08989082763099343,-0.07383558521273081,0.4682800751758367,-0.07364806907712129,0.1054670520336467,0.030242174416175605,-0.1430787172864303,0.038181382154229615,-0.14202004752782182,-0.119267334307534,-0.1513304755179009,0.03448355078660015,0.04166863088584205,-0.15391596284574283,-0.14790304171852808,-0.1678322091649117,0.25190829968138684,-0.16696113322215944,0.03647169037099873,0.28114298789012193,-0.1133471947395237,-0.1386806203995219,-0.1394192573028351,-0.12758244686166587,-0.0391406763479033,0.18481239450165843,-0.03914437058105624,-0.09760314149762084,0.013867574165885799,-0.27795533897212255,0.08972522136126093,-0.10426303244134971,-0.062231880793210625,-0.05854725500157931,-0.07140432922732243,0.13313255247938294,0.3761627745918654,0.39988630906380207,-0.06870060696431213,-0.052643641177915756,0.08234228224777729,0.1387681960811562,-0.22839210697066303,-0.1671751922535717,-0.1757828172183753,0.6522146768530537,-0.10790692635528198,0.047160125459961844,-0.11968657970934926,-0.21614661074570507,-0.06255769903337638,0.8886354822084095,-0.25933381993285065,-0.14190133969747687,-0.06039414605216897,-0.13200027562060723,-0.08638356856467155,-0.04475665230021331,0.33379259240410675,-0.20402765619981367,0.0571654924030256,2514.5337057235924,0.033587239819382164,0.32773305055372015,0.42419219679271625,-0.21625932961772198,0.10203657793006649,0.09127225895318847,-0.12166419496848335,0.3966724405737374,0.568235304102265,-0.07583491293981481,-0.2695321366726626,-0.25590568201236086,0.3215630546143253,-0.2315990455447402,-0.16460999157264045,-0.0964798662820181,-0.13346711059275707,0.08663281617187524,-0.10181141784648529,0.26229212877189,0.09788550410977415,0.0322229352953749,0.35570936853378243,0.5051049823595195,0.09103654600259703,-0.31105222302074986,-0.010917038058389616,-0.05089341687476634,-0.10161693088569013,0.49222023412994176,-0.04288283279715299,-0.17599321241033328,0.05289625182912072,0.3449427665479998,0.005916696121244458,0.48430075016932306,-0.021171305741913837,0.005370592879612834,0.39018035350638125,-0.26098354670703794,0.1430812188332935,0.1437243429894839,-0.07455085885458013,0.09494977725320375,-0.04256460858477218,0.09030849444203515,-0.14669392288181093,-0.06340147810435182,0.09404983373252285,-0.056222370712840974,0.9300573233324487,0.10568509644992385,-0.11925934926953308,-0.05759835771530264,0.8700227008073695,0.04054385568255836,0.09043429572770201,0.18729199082697856,0.42622949462055737,0.17230450476205528,1.1061963429273995,-0.016060888406401186,0.6087405459414783,-0.036100365206486074,0.08646809212840756,-0.1708352641521116,0.18576941253995782,0.6607743034166769,-0.2139233573814474,0.05692980161314032,-0.24499262935666377,-0.10251183156623567,0.08544067233646446,0.041907385776950745,-0.1861750460380872,0.087173898908252,0.044481234578219286,0.008324075037159595,-0.10717963567961275,-0.13414419468390815,-0.2028722295282075,0.10760250717945685,-0.09750540825917653,0.07385077342472401,0.4220730970851867,0.1288013819359981,0.03438753327062227,0.14820823539669314,0.43893427629329373,-0.04840818097574384,-0.09779755420817249,0.0406504941322392,-0.12069647792631732,0.05330533793290515,-0.10316035737867058,0.1222577839995429,0.08754986743245485,0.0740133477670657,-0.061921277536824415,0.30369313468376236,-0.06522262350380925,0.7821423416285262,-0.088259843205158,-0.08992341278043581,0.017326794210253293,0.35330380621751867,0.07842889542307163,3.0138487237175777,0.17329188147063346,0.750188685811793,0.04352693376794958,-0.1519762823945111,-0.130487152153685,0.2826249953669735,-0.2556628951318316,-0.11352674806646212,-0.12654488690614796,1.1174444634776175,0.04672813793077002,-0.17484827546937742,-0.3244234034527853,0.32814612879536065,-0.09163552319701596,-0.06990866302186505,-0.1090676488799116,-0.04925664704686494,-0.07877371678274026,0.6094612608375991,-0.1795869751717436,-0.025440803372871357,0.05544813474394328,0.2983289163762657,-0.14386986524922096,-0.10368085654920356,-0.17412452752729024,0.18962042072655438,0.04236014286260459,-0.13519998158691815,-0.1800943407147313,0.12403860044626325,0.0990624187074236,-0.16821454400681546,-0.024066423701820217,-0.12273551990055731,0.2772051337189403,-0.023414579784466816,-0.1236686091192486,-0.2546227189597061,0.004458691753880917,0.09699814980386945,-0.046954701841742996,-0.3210348346789387,-0.049592126865678154,-0.03076940446777221,-0.08611470524977638,0.03886206582608476,0.08840817577665216,-0.0047926394878961,0.4926568858893605,0.14691949172470675,0.09488520795390376,0.40767699514798217,-0.14770960567115188,-0.19930814490151283,0.049515724517054105,-0.13304812191768856,-0.1828454653280086,0.09403721505179274,0.2082022026020982,-0.11567867732422743,-0.10133755541504286,-0.09976809136649734,0.19929724044215535,-0.17728560245532388,0.08729741406675573,-0.0901990682761612,0.022271754398339283,-0.39886718713886216,-0.21843047504585955,-0.06909670599605422,0.580535416137347,0.07759834453440995,-0.25956653031585497,-0.04372412097061518,0.0036150719365473094,0.17991894592748592,-0.2638898659277995,-0.15045057100585735,0.2360850552292848,0.11267425055493185,0.08399278913926533,0.11731262289967592,-0.1115290132484047,-0.35473003804959,0.38805026609868265,-0.17172767458765192,0.6031136533069879,-0.20828476091446513,0.07875598585006194,-0.25379316181254363,-0.14879070534865568,-0.005909043332305797,-0.19682581662377185,0.007083518119387788,-0.07097985361737924,-0.10125751203308364,0.20306863525256058,0.3003820194376057,0.0076055729587316545,-0.016156444579832563,0.043358619502959383,0.06055397094661963,1.1794913679457641,-0.03924517445461484,0.23646198333294488,0.020814405769965072,0.3044473151871985,0.40114588848474186,0.39353096547876354,-0.040707845451170344,0.05145084632357122,0.055183880245867734,-0.11302406642683205,2.114594451739467,-0.04460910359641623,-0.23194452090109197,-0.038380063539015574,0.03567030627003254,-0.05302386023418948,-0.044183182705611834,-0.013593560365550261,-0.12560043207806115,0.07313276683791736,-0.15439715137288412,0.17789967368884718,-0.1586030201249119,-0.2876231542807457,0.07802778546288769,0.004671867987813494,0.05374722048416336,0.4243808708504464,0.08385270902395847,0.7372120345762319,-0.0413242990119328,-0.0705800951168708,0.4838871523983357,-0.0447038770644147,0.059573218639905834,0.13851003773819026,0.2818948201039342,0.17616292983619886,1.1231311776233217,0.14356559816700676,0.12212867371892622,-0.06256577118716533,-0.24813176202992304,-0.21807691967511023,-0.17106676584871838,0.165200412817198,0.04629066425061845,0.07358237251904298,-0.008934118139797609,-0.036289984095000394,0.7780333605023044,-0.14429113175626773,0.18271761893781657,-0.038311643826687725,0.04090475791406645,0.7932428129797684,-0.21998048741589282,-0.1745297110523122,-0.06267710417665295,0.10708973790167842,-0.15527922300876018,0.1328651377785357,-0.11045999839177745,0.15134909873558544,0.349344524257984,0.03253102138215769,1.958307364537034,0.08911809373964674,-0.1199167043240229,0.3868170885254911,0.009300431007817744,-0.06353684483438793,-0.07025900911149896,0.1676980676991071,0.014916738865623058,-0.031064513501398827,0.2303660126708893,-0.06818600937974051,0.36387299906267345,0.1708424168030762,0.11404764643745047,0.5806793386140718,-0.13198264837549512,0.9795552307537261,-0.07556891816750355,0.3361970495018045,0.3952668244908739,-0.1386604910024526,0.6815855998206284,324.19498534771384,0.33732412739877615,-0.04200284122562248,0.32908046566971727,0.8505932641724365,0.19480384644345183,-0.029420207929789388,0.07913677440052824,-0.21026271242412253,0.3177143169083707,-0.10492986743930544,-0.052917668348899216,-0.023959305778568085,-0.053749966612070765,0.02877727638674976,-0.17673675219260376,-0.030190205397029768,-0.05513072056605173,-0.08353644754451162,-0.021512524437705127,-0.007586997867797929,-0.0992989391617265,0.3721512621708183,-0.11432750786351731,-0.2617785829258277,-0.10741790856903621,-0.048072929862434166,0.15833240477990373,0.0006618137836356119,-0.17518557769339393,-0.3395671744026678,0.3242637271354558,-0.0025843232838572705,-0.11027242781171032,0.33202371451962875,0.42530225674883404,-0.08074768767232365,0.0023829306703533337,-0.07956008278162441,-0.09375885904375247,-0.23701225431392547,-0.16046237877343383,-0.11883917074365147,-0.23041490518003627,-0.12713426314442466,0.12746448834572033,-0.15365046481527322,-0.09721419170567602,-0.2564847053778906,-0.02650504197397463,-0.07122483669156443,-0.23436851897627697,0.12785892399330212,-0.0740748496555188,0.02359800805670309,0.07703691394659584,0.00683862234576238,-0.027402300300278126,0.0366798089133098,-0.09672447728251343,0.17095400826046525,0.8700029030232197,0.03533182146729752,-0.14616316749111036,-0.27986776416796444,0.025485923005448274,0.04031724164839878,0.004981264149353182,0.03825428053592339,0.2487989323880948,-0.3126946670418316,-0.06021468245498185,0.16008584294543526,-0.12185146517265055,0.514909293184244,-0.30405499084976473,0.37768584039727005,0.25210832634047287,0.47203675623335695,-0.015636317408176614,-0.09668295259802906,0.16023070104073334,0.0412486792776805,0.10568930943893973,0.8809262024755784,-0.18187587061655586,-0.1642214417848098,0.1432609380698524,-0.13005564216703025,-0.17826383117764044,0.8909245574593039,-0.0706205492734634,0.1268724728242714,0.25367252902629,0.8526466169206686,1.6583583807531794,0.2325365498243548,-0.33321798747253817,0.018161546251010963,0.28237329804841615,-0.3104959846734836,-0.12974279494520324,-0.2244276327451603,0.012831779223727358,0.1848606944540232,0.3473745458237918,0.29494500127350953,-0.16108510131859421,-0.0068872819915914985,-0.0623309011190073,0.05961473231221981,0.3460725976644645,-0.23457632938463413,-0.07391803613950798,-0.16274328984850706,-0.12478401339322587,0.7820938459865427,-0.3053539326528093,0.04285423611903161,0.3525396696596006,-0.036740612188238764,0.21197230232812125,-0.07240638162795088,-0.40389823327969065,-0.09691502149543374,0.12369864728998081,-0.12540945634150702,0.6097528618425625,-0.16321743467419936,0.21423080933394179,0.22553806929598008,-0.1385417042190844,-0.01699640557544524,-0.15559722158768918,0.23423720639983858,-0.1357511244272186,0.2688787618830353,-0.1296868585690878,-0.19626254496009,-0.11982355669420275,0.11115774282948832,0.04583680525600431,-0.20807257268397417,-0.17490757657102718,0.8023509756569107,-0.02317875611290454,0.36424285501014353,0.5029558907879801,0.038306293196168184,-0.06103176873097571,-0.19920946951543728,0.03543885560273363,0.7428523523178145,0.1794779777821669,0.22346216057272472,0.09816491250524217,-0.04253334410633225,-0.19940602005828545,0.10029578800789052,0.4134390528347147,-0.00314482153630935,0.1045914023267911,-0.19047737256168784,-0.22828356623220236,2.5469320506435382,-0.06454350195407821,0.36846564402570503,0.16043997435170532,0.3419679899247199,0.1864144061946753,0.13076887682987204,2.041847470735981,-0.29243051225053185,-0.012087188302841723,0.0708162053340391,-0.16022711616420393,0.5329311986290168,0.12071863597945054,-0.031026771185367563,0.13166988173812255,0.1938529271847591,-0.21022555625431505,-0.19245736650677547,-0.0001240706423157878,-0.10868756559927228,0.08236891643946032,0.2809061252626637,0.15603772091040957,0.07360350151923623,0.6636662707901186,1.5601446698277006,-0.2432043578166796,0.002055159168048437,-0.06956836704311264,0.34596473477837764,-0.2844688296306651,-0.14653394853177293,-0.1193006864514452,-0.10585645885903017,0.44843016736285923,0.13162303046207202,-0.1468744447990461,-0.08781246056742509,-0.00951281276589988,0.11207406894104488,-0.021843901310812708,-0.011993234218857785,-0.30675358829311006,0.07383557677365182,0.04674549066892619,-0.26040736026084754,-0.21844199648439933,-0.03169238716892886,0.45457276654851375,0.22131275153700836,0.2859683829000319,-0.22699112141291533
