x1,x2,x3,x4,x5,x6,x7,x8,x9,x10,x11,x12,x13,x14,x15,x16,x17,x18,x19,x20,x21,x22,x23,x24,x25,x26,x27,x28,x29,x30,x31,x32,x33,x34,x35,x36,x37,x38,x39,x40,x41,x42,x43,x44,x45,x46,x47,x48,x49,x50,x51,x52,x53,x54,x55,x56,x57,x58,x59,x60,x61,x62,x63,x64,x65,x66,x67,x68,x69,x70,x71,x72,x73,x74,x75,x76,x77,x78,x79,x80,x81,x82,x83,x84,x85,x86,x87,x88,x89,x90,x91,x92,x93,x94,x95,x96,x97,x98,x99,x100,x101,x102,x103,x104,x105,x106,x107,x108,x109,x110,x111,x112,x113,x114,x115,x116,x117,x118,x119,x120,x121,x122,x123,x124,x125,x126,x127,x128,x129,x130,x131,x132,x133,x134,x135,x136,x137,x138,x139,x140,x141,x142,x143,x144,x145,x146,x147,x148,x149,x150,x151,x152,x153,x154,x155,x156,x157,x158,x159,x160,x161,x162,x163,x164,x165,x166,x167,x168,x169,x170,x171,x172,x173,x174,x175,x176,x177,x178,x179,x180,x181,x182,x183,x184,x185,x186,x187,x188,x189,x190,x191,x192,x193,x194,x195,x196,x197,x198,x199,x200,x201,x202,x203,x204,x205,x206,x207,x208,x209,x210,x211,x212,x213,x214,x215,x216,x217,x218,x219,x220,x221,x222,x223,x224,x225,x226,x227,x228,x229,x230,x231,x232,x233,x234,x235,x236,x237,x238,x239,x240,x241,x242,x243,x244,x245,x246,x247,x248,x249,x250,x251,x252,x253,x254,x255,x256,x257,x258,x259,x260,x261,x262,x263,x264,x265,x266,x267,x268,x269,x270,x271,x272,x273,x274,x275,x276,x277,x278,x279,x280,x281,x282,x283,x284,x285,x286,x287,x288,x289,x290,x291,x292,x293,x294,x295,x296,x297,x298,x299,x300,x301,x302,x303,x304,x305,x306,x307,x308,x309,x310,x311,x312,x313,x314,x315,x316,x317,x318,x319,x320,x321,x322,x323,x324,x325,x326,x327,x328,x329,x330,x331,x332,x333,x334,x335,x336,x337,x338,x339,x340,x341,x342,x343,x344,x345,x346,x347,x348,x349,x350,x351,x352,x353,x354,x355,x356,x357,x358,x359,x360,x361,x362,x363,x364,x365,x366,x367,x368,x369,x370,x371,x372,x373,x374,x375,x376,x377,x378,x379,x380,x381,x382,x383,x384,x385,x386,x387,x388,x389,x390,x391,x392,x393,x394,x395,x396,x397,x398,x399,x400,x401,x402,x403,x404,x405,x406,x407,x408,x409,x410,x411,x412,x413,x414,x415,x416,x417,x418,x419,x420,x421,x422,x423,x424,x425,x426,x427,x428,x429,x430,x431,x432,x433,x434,x435,x436,x437,x438,x439,x440,x441,x442,x443,x444,x445,x446,x447,x448,x449,x450,x451,x452,x453,x454,x455,x456,x457,x458,x459,x460,x461,x462,x463,x464,x465,x466,x467,x468,x469,x470,x471,x472,x473,x474,x475,x476,x477,x478,x479,x480,x481,x482,x483,x484,x485,x486,x487,x488,x489,x490,x491,x492,x493,x494,x495,x496,x497,x498,x499,x500,x501,x502,x503,x504,x505,x506,x507,x508,x509,x510,x511,x512,x513,x514,x515,x516,x517,x518,x519,x520,x521,x522,x523,x524,x525,x526,x527,x528,x529,x530,x531,x532,x533,x534,x535,x536,x537,x538,x539,x540,x541,x542,x543,x544,x545,x546,x547,x548,x549,x550,x551,x552,x553,x554,x555,x556,x557,x558,x559,x560,x561,x562,x563,x564,x565,x566,x567,x568,x569,x570,x571,x572,x573,x574,x575,x576,x577,x578,x579,x580,x581,x582,x583,x584,x585,x586,x587,x588,x589,x590,x591,x592,x593,x594,x595,x596,x597,x598,x599,x600,x601,x602,x603,x604,x605,x606,x607,x608,x609,x610,x611,x612,x613,x614,x615,x616,x617,x618,x619,x620,x621,x622,x623,x624,x625,x626,x627,x628,x629,x630,x631,x632,x633,x634,x635,x636,x637,x638,x639,x640,x641,x642,x643,x644,x645,x646,x647,x648,x649,x650,x651,x652,x653,x654,x655,x656,x657,x658,x659,x660,x661,x662,x663,x664,x665,x666,x667,x668,x669,x670,x671,x672,x673,x674,x675,x676,x677,x678,x679,x680,x681,x682,x683,x684,x685,x686,x687,x688,x689,x690,x691,x692,x693,x694,x695,x696,x697,x698,x699,x700,x701,x702,x703,x704,x705,x706,x707,x708,x709,x710,x711,x712,x713,x714,x715,x716,x717,x718,x719,x720,x721,x722,x723,x724,x725,x726,x727,x728,x729,x730,x731,x732,x733,x734,x735,x736,x737,x738,x739,x740,x741,x742,x743,x744,x745,x746,x747,x748,x749,x750,x751,x752,x753,x754,x755,x756,x757,x758,x759,x760,x761,x762,x763,x764,x765,x766,x767,x768,x769,x770,x771,x772,x773,x774,x775,x776,x777,x778,x779,x780,x781,x782,x783,x784,x785,x786,x787,x788,x789,x790,x791,x792,x793,x794,x795,x796,x797,x798,x799,x800,x801,x802,x803,x804,x805,x806,x807,x808,x809,x810,x811,x812,x813,x814,x815,x816,x817,x818,x819,x820,x821,x822,x823,x824,x825,x826,x827,x828,x829,x830,x831,x832,x833,x834,x835,x836,x837,x838,x839,x840,x841,x842,x843,x844,x845,x846,x847,x848,x849,x850,x851,x852,x853,x854,x855,x856,x857,x858,x859,x860,x861,x862,x863,x864,x865,x866,x867,x868,x869,x870,x871,x872,x873,x874,x875,x876,x877,x878,x879,x880,x881,x882,x883,x884,x885,x886,x887,x888,x889,x890,x891,x892,x893,x894,x895,x896,x897,x898,x899,x900,x901,x902,x903,x904,x905,x906,x907,x908,x909,x910,x911,x912,x913,x914,x915,x916,x917,x918,x919,x920,x921,x922,x923,x924,x925,x926,x927,x928,x929,x930,x931,x932,x933,x934,x935,x936,x937,x938,x939,x940,x941,x942,x943,x944,x945,x946,x947,x948,x949,x950,x951,x952,x953,x954,x955,x956,x957,x958,x959,x960,x961,x962,x963,x964,x965,x966,x967,x968,x969,x970,x971,x972,x973,x974,x975,x976,x977,x978,x979,x980,x981,x982,x983,x984,x985,x986,x987,x988,x989,x990,x991,x992,x993,x994,x995,x996,x997,x998,x999,x1000
-0.06504514573287434,0.016435986540949354,-0.012713081846753904,0.0248436762119284,0.028937412104515614,-0.052338265866639255,0.04670674535646535,0.2227909360572642,-0.03234888571484096,-0.05611062764060637,-0.07891733133801704,0.1109189090764966,-0.07589396398438275,-0.07367231418773701,0.0944807324755037,-0.04955979133345778,0.013805610218184716,-0.0816064010825781,0.06453680336435363,0.013755801619098396,0.002958361405566823,0.13477201025096308,0.10350913609728774,-0.05323841383891714,-0.017196742944559196,0.05811880647689982,0.11424856936545402,0.0587050475295956,0.0529775793617735,0.11567713068942775,-0.039867736770382356,0.030319385856586667,0.0070273299324792315,0.004369770019718278,0.012101382997937282,0.01376460502850585,0.26756414350605273,0.04146131241495321,-0.0042369795874490634,-0.025551790833090227,-0.07392500716636452,0.057393913265190166,0.09208713962942006,0.01402256288932957,0.17100267276705527,-0.006580125252783842,-0.00855261557880238,-0.03513727552234214,-0.06197584864865313,-0.01134678403119127,0.02487701714443835,-0.10257190168319885,0.0787642751560067,0.0006704703084150498,-0.04898682590402326,0.09904751190738015,0.060656102924472766,-0.10226043919395211,0.10358489435761142,-0.02874824895894501,0.03736682809036185,-0.0534821003885908,-0.058518676205221,-0.02587779859086059,0.06558809654406739,-0.004877700321283762,-0.037802643083513776,0.04441197186652723,0.09924985868324643,-0.019589112562017563,0.11931810230380013,0.035753356422689064,0.06288495470343825,-0.002040819048314213,0.017310168471845744,-0.05201935362074395,0.062373631218868075,-0.11600305342526196,0.13421237207174652,0.02008756631050712,-0.016323142067198648,-0.026665793404460514,0.04311732340811347,-0.05431808823039197,-0.014413223719632384,-0.03027817205986061,-0.016085969627606778,-0.10794067596729384,-0.06304852428146934,0.03874087490995448,0.003161321170235931,0.036435830421877924,-0.042895227125752666,0.0011963829337056087,0.03542082503417765,0.038997831728906585,-0.04493696870939534,-0.02917521537860801,-0.05447775733477811,0.06906122317507202,0.04999894066080102,-0.050718263870721314,-0.05726195956696856,-0.08746672745115802,-0.09413967116426525,-0.05821007939760636,-0.052592243439101294,0.007148517758480466,0.09387112258651364,-0.010672829223634661,-0.05688685801635551,-0.06862223805784062,0.047149241482773,-0.0010166083549232319,0.10352328630766205,0.08924013010556608,0.06143035717345979,0.08946275328543862,-0.03686437447829882,-0.009846152927409313,-0.013836178321879555,-0.03778041704992863,-0.021390127108855572,0.018754950391442815,-0.011296624183907422,0.05087889075659158,0.054937142478642675,-0.028626993807957635,0.014091819195343636,0.036056251335845335,0.002124170370959799,0.11028111775595306,-0.0122739303663143,-0.03785675920710352,0.025602947135307863,0.049864909509999444,-0.024851693138838837,-0.09589503414159828,-0.0033610859565673668,-0.019000199931460515,0.00481319493410548,0.1683434429249986,-0.044863641376930885,0.05228709500754625,0.18121936285866203,-0.05049272825116213,0.029886482861623875,-0.045708333322297734,-0.07968647172581733,0.1286567973928645,0.04162181807224008,-0.03322979705364937,0.012898494529129056,-0.1127760560628519,0.028672088631829906,-0.0176944419227546,0.10927245032395394,0.049823222753465846,0.037229014245832914,-0.13342321907227594,0.0418105155468691,0.11166967497070535,0.004580609958896975,0.10609180835153831,-0.08017071041510249,-0.07594611355605174,-0.017605973973033873,-0.03944445107701067,-0.1099175529883748,-0.030077854978512453,-0.10069168475309542,0.03354074426745113,0.03086579882285645,0.08468359854797858,-0.1247255622819885,0.025574004921232296,-0.031210779933773414,0.006456619701023847,-0.0936149032551068,-0.002970648914551677,0.029696659175159512,-0.016435844728409088,0.057134030659406365,0.018353377756203493,0.0927718277057561,0.08248209602355483,-0.09118170662328051,0.012807476810882346,-0.08094684424047582,0.002092333776982258,0.07963685136128418,0.019265091330928685,0.010444843214593824,-0.027004970520055238,-0.12084597445052181,-0.05516233688690164,0.08703137372973613,-0.06065812790820657,0.016518880579671658,-0.05004150882110525,-0.03473942017184861,-0.06307937031603439,0.06414095233461947,0.005246614974157904,-0.0889804982897342,-0.0539163065104038,-0.03202947275372048,0.006959967412762058,-0.11182718861195273,-0.023429871645613498,-0.10349705827880751,0.08667344533265564,-0.02974305070162553,0.034100022064673,-0.15598135855730788,-0.10383202119088919,-0.05880147938413094,0.015470587140439918,0.11232446492175252,-0.0038746090766544894,-0.03142259224207866,0.01748738741410616,-0.03492993307501968,-0.02200934091588791,0.004783235832470867,-0.0467037441463477,-0.010478735886619406,0.0022397676796284127,0.020920956516624623,0.01980636480164888,-0.04715144564956564,0.07759101490077369,0.07106260408151477,-0.054197065593021954,0.010318064350905543,0.005681413509273314,0.09215756683138054,0.04549048681561452,0.04940425843462526,0.20334019924583346,-0.05283192994093189,0.10367864158471862,0.1072172981163706,0.044827937711805266,0.0940594606442613,-0.06412205852434338,-0.048902172976023284,-0.05600580391289256,0.07058703762412288,-0.019843501148114173,0.24252049790686958,0.03867256997201496,-0.005744259555721887,-0.01062685555514542,0.0047014031938446,-0.042381590921659384,-0.013813893609659122,-0.0164303939978121,-0.003943523379493885,-0.15247318872006643,0.007998047082499182,0.04693865928442009,-0.04570512922805392,0.11533125778097264,-0.026996620999957366,0.15755640640631663,-0.0846845736975308,-0.004761283691391727,0.012896876002991275,-0.07377979086057684,0.08255724044901469,-0.1103385306927901,-0.013869811044613156,0.0068545438576386175,-0.009064115719772725,0.0035097300998436776,-0.10058908401893074,0.0539805111932119,-0.007295178457299989,-0.07043223027730638,0.06413635247815797,-0.007942565803937707,-0.10081264700998083,-0.007066836644861518,-0.051792846992935626,-0.014574376474026485,-0.04133633500902534,-0.10349328255624402,-0.055243314883474004,0.14060335874124252,-0.0502178239447274,0.1346717157181887,0.00795694159888738,-0.04036770168353465,0.14780103638835018,0.06727312343459246,-0.029065349703843557,0.0625298528322702,-0.055195240649376975,-0.009045306873916359,-0.031028459031583577,-0.0449891951915492,-0.10431853407602543,-0.01915075221029916,0.11233589190699589,-0.05780390544457803,-0.10777423506714112,-0.07539517271753848,-0.07247757870261362,0.044762075749475105,0.04868971527363697,0.03488375247139386,0.04390155531292472,0.06297624691788006,-0.00014087538137030897,-0.077923244274554,0.11107165125376284,-0.017588982057596514,0.12319587881870908,0.04843142742814588,-0.00039150277399646605,0.007952789404028104,-0.01776156540576901,-0.1020188977208134,-0.0439177757554029,0.06944689806113913,0.12355346840909842,0.03560397700302498,0.03385806631851129,0.06274082286305105,-0.09963384340908132,0.04267021336774879,-0.005068140425737333,0.01777935776593087,0.00018604397419186292,-0.097695327226065,0.024956218862542734,0.04030024068493265,-0.037525758279039145,-0.01692141580191897,-0.014467014425949776,0.1504051336625456,-0.07234515598709945,-0.07599399712949573,0.023563941690025958,0.09031027030078209,0.02325368252155502,0.11593968655377895,-0.08414072329885125,0.0372522151865442,-0.0016350268422313796,-0.11232368134901838,0.023729370034827557,-0.006531587725293386,-0.08384047297192332,-0.09725655696214197,-0.03565293988313567,-0.0892449931813587,-0.06768445392687883,-0.03169709100503759,-0.08501423591728052,-0.08285219310119585,-0.010576537420920906,0.08626454938737438,-0.041808547284845066,-0.00012025269922688597,0.0137424138776443,0.08862826935252777,-0.036637512663699745,-0.08081553097440253,0.1580040359551469,-0.036881637606776096,-0.010018431982040998,0.02704312540089515,0.04576904558381045,-0.11457224739952909,0.07068076639818233,0.01408677299278005,0.016324665139534122,0.0617021156629316,-0.038340486717091116,-0.01119527304991863,-0.06549730093297346,-0.1405958795477359,-0.04052099401868381,-0.0408521600009677,0.04191830523005913,-0.04474446212507499,-0.04428646106985035,0.040948184923498054,0.10502972497724827,0.02222422617724895,-0.023628210786801107,0.042499740585734136,0.0098448787990697,0.122876018954585,-0.05331512295470264,-0.06808228902131797,0.03560069943397304,0.025250419983105843,-0.016718673531636807,-0.01715676475857375,0.19163972383348504,0.1379040415906505,0.021853953495065248,0.003991593635225721,-0.0014989204782620558,0.08553571823490524,0.08124900442646665,-0.042718624894330315,-0.05809453061809433,-0.014136001077568738,-0.024519082953258442,0.042589859825703735,0.04553276355199243,-0.1106518309474348,-0.09607034928785807,-0.03420054934891237,-0.013319540875812996,-0.001438351974646368,0.06506158274964102,-0.07876382779192892,0.17720352693837094,-0.012276013587180556,0.048309008815903054,0.03973695788165732,0.007211222212019752,0.04823887937358107,-0.01704314691397546,-0.05130898361637115,-0.037115644680008386,-0.08232427062466408,-0.035134806556262776,-0.08749981569685583,-0.069027771808569,0.08597864653162413,0.10736670053397601,0.07665657735082698,-0.030504031888273886,0.04872175121140154,-0.09129908900034844,0.07222239356651028,0.05721618451286825,0.018397695108017365,-0.11460745380198945,0.03846519618835664,-0.061924600749984626,0.00349999725621708,-0.018476251742606475,0.11753513359712642,0.14753452555182323,-0.04351245938084647,-0.07740835409053748,-0.03485391806547611,0.052126779962228476,0.0901636890085078,0.05312122325533708,0.18003098762455383,0.07911666079847057,0.0084225966866176,-0.05649297141883658,-0.09185513800392364,0.025307617519664705,0.1264768782044574,0.16446950909149582,0.07413575112097859,0.12599008061664185,-0.058185040702737556,0.03210561425780023,-0.061706794443306845,0.0510389315686679,-0.037932114315924026,-0.029108849992573127,0.024098751246333094,0.10823548506591418,-0.08661278862682342,0.016843627027964603,0.005862222901872771,0.17027559720210128,-0.11641878471984723,-0.024319914568490697,-0.1015717109613089,0.016047800997296857,0.03983908960516436,-0.010544228919632803,0.020302181215928528,-0.036384398241128824,0.22493064883705727,0.08949730806308032,-0.08659187596464102,0.05522912396581736,-0.05213915217115628,0.023521946808652272,0.1041982415682372,-0.051940857133053076,0.041156017210431495,-0.06816708139186067,-0.0825728255764886,-0.004302987156080795,-0.03104991918753741,0.04889418717244842,0.0239926372303767,0.009992458775537338,-0.019183556670380186,0.023457784765961387,-0.05826107680195458,0.008672624516445238,-0.04894870753456493,-0.01724639677159323,0.0032331919320058855,-0.08945627430476488,-0.07108488167040072,0.11283319119932478,-0.0526877080045971,-0.012788418477868158,-0.026063985336044926,0.018409765570956305,0.022137381572909343,-0.06604705309515346,0.0011565270031452801,0.06626823026614304,0.013795430339877957,-0.10174207390710333,-0.04135575865054997,-0.002829668544625852,0.012122508254364561,0.05329366494756349,0.05230602948884111,-0.07036993707532757,0.04078990904205693,-0.0006648146548254852,-0.035878259303244175,0.030752953117725745,-0.039863780405814286,0.05339871931407014,-0.0015355110393646676,0.05095459122342483,0.1160534671633815,0.03649053895665255,-0.008773576933556515,0.024691779556416327,-0.07939808896707679,0.10417476276204107,0.036826869993794364,-0.03349336564829475,0.08210813967947916,0.16202880202985015,0.06073709527199744,-0.12243967855240856,0.03469548118202814,0.08290206798655353,0.003462469799373036,-0.11393829773247677,-0.03802630685870212,0.02831006495417876,-0.08851413652384899,0.04335335753676528,0.06441452439553386,0.2339632022391569,-0.1113486443857542,0.06667773637592789,0.010777579939843296,0.15847550784490894,-0.016311840745577122,-0.0758169472557565,0.0440493575122507,0.10464672512700446,0.11947747169900169,-0.04322330535555341,-0.006120511771228632,0.021261999368496376,0.029631145086975508,-0.03980792465719185,0.008003229998565065,-0.08513222987817848,0.07585509637257681,0.034436947987701805,-0.02159843914599613,0.08448375966910437,0.08976171256440235,-0.026542590728707016,-0.05106216979017253,0.0184015569835998,-0.08815074862685712,-0.07464117445152829,-0.07934921857304722,-0.03589021989470109,0.17465178314260132,0.04483919293931793,-0.06012459579900853,0.07416254177333448,0.024679537696170817,-0.01675728949541644,-0.051361001423347985,0.029359921321144622,-0.10421661166981366,-0.08001584303663123,-0.06659528144633864,0.006591257375420767,-0.05559986233119285,0.0996953077081637,0.06728447057603293,0.12475270479594669,-0.012276258351195057,-0.05142913049432474,0.0584228267502922,0.003098554731765013,0.0053536909184659365,-0.04851752359883976,0.10278749704582113,0.04169871675347658,0.042523204281984306,-0.11776499959680531,0.04642507304502619,0.024991798272373078,-0.011384058348750559,0.007842032331019322,-0.010908467428771607,-0.05925564051576082,0.07331210245110742,0.04668216588738727,0.05200524382930638,0.013555081376819933,-0.026747036661755375,-0.004421018765640494,0.12255463605274874,-0.1779820673251229,0.07537396467067725,0.01981346905822945,-0.13063097292714254,-0.004739107599589842,-0.025571167864763766,0.02753249044153283,-0.03606094155670814,-0.03044097564432169,-0.05311969920822768,-0.01979385820810764,-0.013169244601029972,0.10329194626681537,0.056902402349135794,0.11977880023289877,0.012565095656658087,0.08102227474705614,0.01487751750693267,-0.025169740811723962,-0.09328472555076173,0.02105141148843437,-0.0004700144980773757,0.10970707069144159,0.10459221822790488,-0.013412811032933014,0.18403265146136527,0.031223963158538037,0.027680616090798305,-0.10458718444143211,-0.07109654314215585,0.042091865547876584,0.033729659683067625,-0.10508280971994244,-0.00777697432319413,0.10297027538349601,-0.0815094558259919,0.08067395034122149,-0.14627973239142278,-0.010359375318000574,-0.13490989641906181,-0.022987673621474025,-0.025561716830339587,-0.038843996129326874,-0.08582380171764481,0.0808056301421749,-0.09411382581855376,-0.0017883392547831667,-0.05600934531338653,-0.08737582780139319,0.11858255881619884,0.20840286458780066,-0.05774257457243137,-0.05860387129210276,-0.06726594648551043,0.012318142528642495,0.06665880083291054,-0.02801872720883314,0.03770981671803231,0.08056813280357833,-0.029240610649125753,0.01694017795203595,0.03533191235005262,0.13667977686514732,-0.0081532859198441,0.03957356251769584,-0.04984486310804137,-0.0019532156669874734,-0.017395796677971087,0.09914359964401709,-0.04648044682994068,-0.057208104220424105,-0.09708040851592015,0.06840140062183786,0.05222004247146095,0.013393818452646311,0.004806368434818076,-0.06362554542908161,0.047036806202062964,-0.10273924384824884,0.09194319417319363,-0.14469285340441684,-0.059717569066222054,0.09990128733151171,0.03836214775246649,0.2761551546791601,0.04981846807543855,-0.03284817382064642,-0.03383555303184782,0.013931393678517479,-0.029759182844088405,-0.052104602328447935,0.1033547520614233,-0.06067747394184042,-0.0944405605006644,-0.033018894532858,0.0034650781668772446,0.030190389115096083,0.07812289042573073,0.03346386552232561,-0.0409722680978275,0.022340497219549116,-0.02736726734691819,-0.13708040644151542,0.06781348705024604,-0.035589801630804496,0.03286280329746405,0.2062869687965101,-0.06939476655394738,-0.0343150914729764,0.23073812154109818,-0.08840251123594234,0.03024343121507833,-0.038620706915381664,0.1487290392116576,0.23480889041872333,-0.08713628442778054,-0.05191467263859406,-0.028894444778949646,0.029587696097095106,-0.08333076185436594,-0.09176171095246521,-0.1080412951836609,0.020670158127762184,-0.03178663368863066,-0.07899411996318706,0.043665850234214654,-0.011773915016073722,-0.0008242112300481663,0.013622672485505527,0.03488156564006406,-0.058362602471903946,0.02407327415742455,0.01606051664116359,-0.06797398035079516,0.03648011718948552,0.0829808557141749,0.07671247158880701,0.05838672806781475,0.1015723848992931,-0.011190991206806333,0.02859760735641914,-0.062370815457949313,-0.04033820028699309,-0.06221232443749525,-0.004342454540039342,0.03968341220261795,0.1487110929453075,0.01378119463594163,-0.036328721582536194,-0.04776119884413865,0.03478593242480943,0.03366796902670566,-0.0506344287100875,0.05726988236137687,0.09172202672681906,-0.09361510398990869,0.07187454269861981,0.0007125125200211357,-0.06768548989914025,0.03153393743911814,0.10670669858830939,-0.1143990290115825,0.11762404328293075,-0.11226038184275244,0.09475104227525355,-0.025070981215223553,0.22356770239673285,0.017069970531429446,-0.03921331672155737,0.013373155639987422,-0.003008966258947976,0.005084664744836598,-0.0017365902447996628,0.008481903703745797,0.0347323904825243,-0.09012034888536002,-0.0025697664626124217,-0.010916796884944624,-0.03886154094590011,0.038219936751652694,0.07363274884859794,0.025948761386469288,0.22488005579796555,-0.035660489288053765,0.015090805259427631,-0.047754017677815175,-0.08075186046024829,0.03575235787298903,-0.09814930815173739,0.01949788972741784,0.19932462168430076,-0.046784474533429155,-0.07926086722437231,0.09947202461072746,0.014315863218363312,-0.00687345684223617,0.1089969458056399,0.12673809228968858,-0.021901958444549896,-0.12715760507969853,0.02522115440040995,0.11323778437684973,0.22805666226191357,-0.010415821562148264,-0.000530086288473286,0.01583069908096113,0.0692061531259931,0.016292369249559346,0.05581136125009167,-0.08134713829295603,0.026722726912923545,0.01665796610862258,0.12829669314790082,0.12189883384905431,0.026200537146322533,0.060719653143798125,0.003679365262850398,0.02546046574910865,-0.0031327988195586354,-0.09871647730483724,0.02362273629339895,-0.07069955547323936,-0.09035229359652752,0.09418015160331183,-0.04175174351721689,-0.10499951114129946,0.014106043910297128,-0.011233978295023483,-0.05849797307369298,-0.09375512987219603,-0.06797232559944255,0.08756818910855091,-0.0185063967378456,0.0026022197247257406,0.09107621675065358,0.058533683467416386,-0.0017073712140983632,0.013046617910442926,0.029709463505764422,-0.05133160539081172,-0.06032747776636982,-0.04126193030233394,0.08623685414236304,-0.007474321572761955,0.009968395737529168,-0.02288017365764894,0.0500377391446416,-0.08801186386548354,-0.051432981871734174,0.010358509531275928,-0.01729443249013829,0.09556639112829646,0.03188101335662363,0.06023808334703462,0.04776647541295831,-0.0004264083666410956,0.02808850190277501,0.06140440877219078,0.008312517958022125,0.03225139013316669,0.012167397427547355,0.026594715545649183,0.13074841780281865,0.09149818664924392,0.08178336863934854,0.10836957053354146,-0.03374066402092046,-0.05641558384402434,-0.04651991718001447,-0.09076808017389404,-0.019291438130347394,-0.1130214509379226,0.04888003304776789,-0.03454772501214076,-0.017332135010631466,-0.046449868003393124,-0.14726112343599973,-0.016439128612581233,0.07798534313768957,-0.054944140982857825,0.03475611383971189,0.0265959309414443,-0.008080890834545329,-0.018294583097582917,0.0694826446226684,0.1049414672298965,0.07802830050512277,0.07679462351345467,0.04297929843465176,-0.09432759002689439,0.043296237970607665,-0.0017981503155842793,-0.05297927076683895,-0.05720273464687098,-0.06277552656927954,-0.06051480384849206,0.041508038461600893,-0.008279272206836774,0.020533885523184026,-0.06235967132721765,0.017841552798231408,-0.012952103340600929,0.12536062614716648,-0.042880293327191565,-0.016274390757426427,-0.055983578200098694,0.167656798173345,0.03491514280142671,0.04213626907595702,-0.03862435770551831,-0.012690080208760723,0.0195015138562864,-0.010721667162598814,-0.10797103443945,-0.008575850186777423,-0.026644654413305102,0.02233753186214349,-0.012667618044791995,-0.03690842156065555,-0.14987355841620986,-0.003364523434485789,0.06364098676159102,-0.12722667738954152,0.0531116290875413,0.13038326583817517,-0.09143315344907965,-0.05554952452385409,0.012890485021525011,-0.042849331874186936,0.08852299902624994,0.012843798380760552,0.06940821093669336,-0.021246967263902516,-0.12359483761759316,0.018984298664583843,0.00614071538124783,0.0343736752795305,-0.05100079552027614,0.09868308608879195,-0.10403067456515314,-0.03484794434251104,0.18481932722065553,-0.0624571247075304,-0.0036582343040926224,0.016368370605717386,0.09289446833953541,0.016375237619141947,0.05113755577220136,-0.033813506095739965,-0.004918596424674959,0.007001430012419485,0.004479921692083222,0.02169427167896587,-0.010254212642779037,-0.15445620788854109,-0.011801430747222619,-0.027670217821342047,0.022836441941350705,-0.006298662479881645,0.04800815460538144,0.10088356695961109,-0.04678636006089476,0.11747964679518019,0.1542871833088033,-0.03103124814742264,0.05692171673084445,-0.032362003197151434,-0.0423644961236227,0.02923063315236374,0.14569087272902137,-0.16078846353868592,-0.024249212821338295,0.08540329135928504,0.04084847063716435
