x1,x2,x3,x4,x5,x6,x7,x8,x9,x10,x11,x12,x13,x14,x15,x16,x17,x18,x19,x20,x21,x22,x23,x24,x25,x26,x27,x28,x29,x30,x31,x32,x33,x34,x35,x36,x37,x38,x39,x40,x41,x42,x43,x44,x45,x46,x47,x48,x49,x50,x51,x52,x53,x54,x55,x56,x57,x58,x59,x60,x61,x62,x63,x64,x65,x66,x67,x68,x69,x70,x71,x72,x73,x74,x75,x76,x77,x78,x79,x80,x81,x82,x83,x84,x85,x86,x87,x88,x89,x90,x91,x92,x93,x94,x95,x96,x97,x98,x99,x100,x101,x102,x103,x104,x105,x106,x107,x108,x109,x110,x111,x112,x113,x114,x115,x116,x117,x118,x119,x120,x121,x122,x123,x124,x125,x126,x127,x128,x129,x130,x131,x132,x133,x134,x135,x136,x137,x138,x139,x140,x141,x142,x143,x144,x145,x146,x147,x148,x149,x150,x151,x152,x153,x154,x155,x156,x157,x158,x159,x160,x161,x162,x163,x164,x165,x166,x167,x168,x169,x170,x171,x172,x173,x174,x175,x176,x177,x178,x179,x180,x181,x182,x183,x184,x185,x186,x187,x188,x189,x190,x191,x192,x193,x194,x195,x196,x197,x198,x199,x200,x201,x202,x203,x204,x205,x206,x207,x208,x209,x210,x211,x212,x213,x214,x215,x216,x217,x218,x219,x220,x221,x222,x223,x224,x225,x226,x227,x228,x229,x230,x231,x232,x233,x234,x235,x236,x237,x238,x239,x240,x241,x242,x243,x244,x245,x246,x247,x248,x249,x250,x251,x252,x253,x254,x255,x256,x257,x258,x259,x260,x261,x262,x263,x264,x265,x266,x267,x268,x269,x270,x271,x272,x273,x274,x275,x276,x277,x278,x279,x280,x281,x282,x283,x284,x285,x286,x287,x288,x289,x290,x291,x292,x293,x294,x295,x296,x297,x298,x299,x300,x301,x302,x303,x304,x305,x306,x307,x308,x309,x310,x311,x312,x313,x314,x315,x316,x317,x318,x319,x320,x321,x322,x323,x324,x325,x326,x327,x328,x329,x330,x331,x332,x333,x334,x335,x336,x337,x338,x339,x340,x341,x342,x343,x344,x345,x346,x347,x348,x349,x350,x351,x352,x353,x354,x355,x356,x357,x358,x359,x360,x361,x362,x363,x364,x365,x366,x367,x368,x369,x370,x371,x372,x373,x374,x375,x376,x377,x378,x379,x380,x381,x382,x383,x384,x385,x386,x387,x388,x389,x390,x391,x392,x393,x394,x395,x396,x397,x398,x399,x400,x401,x402,x403,x404,x405,x406,x407,x408,x409,x410,x411,x412,x413,x414,x415,x416,x417,x418,x419,x420,x421,x422,x423,x424,x425,x426,x427,x428,x429,x430,x431,x432,x433,x434,x435,x436,x437,x438,x439,x440,x441,x442,x443,x444,x445,x446,x447,x448,x449,x450,x451,x452,x453,x454,x455,x456,x457,x458,x459,x460,x461,x462,x463,x464,x465,x466,x467,x468,x469,x470,x471,x472,x473,x474,x475,x476,x477,x478,x479,x480,x481,x482,x483,x484,x485,x486,x487,x488,x489,x490,x491,x492,x493,x494,x495,x496,x497,x498,x499,x500,x501,x502,x503,x504,x505,x506,x507,x508,x509,x510,x511,x512,x513,x514,x515,x516,x517,x518,x519,x520,x521,x522,x523,x524,x525,x526,x527,x528,x529,x530,x531,x532,x533,x534,x535,x536,x537,x538,x539,x540,x541,x542,x543,x544,x545,x546,x547,x548,x549,x550,x551,x552,x553,x554,x555,x556,x557,x558,x559,x560,x561,x562,x563,x564,x565,x566,x567,x568,x569,x570,x571,x572,x573,x574,x575,x576,x577,x578,x579,x580,x581,x582,x583,x584,x585,x586,x587,x588,x589,x590,x591,x592,x593,x594,x595,x596,x597,x598,x599,x600,x601,x602,x603,x604,x605,x606,x607,x608,x609,x610,x611,x612,x613,x614,x615,x616,x617,x618,x619,x620,x621,x622,x623,x624,x625,x626,x627,x628,x629,x630,x631,x632,x633,x634,x635,x636,x637,x638,x639,x640,x641,x642,x643,x644,x645,x646,x647,x648,x649,x650,x651,x652,x653,x654,x655,x656,x657,x658,x659,x660,x661,x662,x663,x664,x665,x666,x667,x668,x669,x670,x671,x672,x673,x674,x675,x676,x677,x678,x679,x680,x681,x682,x683,x684,x685,x686,x687,x688,x689,x690,x691,x692,x693,x694,x695,x696,x697,x698,x699,x700,x701,x702,x703,x704,x705,x706,x707,x708,x709,x710,x711,x712,x713,x714,x715,x716,x717,x718,x719,x720,x721,x722,x723,x724,x725,x726,x727,x728,x729,x730,x731,x732,x733,x734,x735,x736,x737,x738,x739,x740,x741,x742,x743,x744,x745,x746,x747,x748,x749,x750,x751,x752,x753,x754,x755,x756,x757,x758,x759,x760,x761,x762,x763,x764,x765,x766,x767,x768,x769,x770,x771,x772,x773,x774,x775,x776,x777,x778,x779,x780,x781,x782,x783,x784,x785,x786,x787,x788,x789,x790,x791,x792,x793,x794,x795,x796,x797,x798,x799,x800,x801,x802,x803,x804,x805,x806,x807,x808,x809,x810,x811,x812,x813,x814,x815,x816,x817,x818,x819,x820,x821,x822,x823,x824,x825,x826,x827,x828,x829,x830,x831,x832,x833,x834,x835,x836,x837,x838,x839,x840,x841,x842,x843,x844,x845,x846,x847,x848,x849,x850,x851,x852,x853,x854,x855,x856,x857,x858,x859,x860,x861,x862,x863,x864,x865,x866,x867,x868,x869,x870,x871,x872,x873,x874,x875,x876,x877,x878,x879,x880,x881,x882,x883,x884,x885,x886,x887,x888,x889,x890,x891,x892,x893,x894,x895,x896,x897,x898,x899,x900,x901,x902,x903,x904,x905,x906,x907,x908,x909,x910,x911,x912,x913,x914,x915,x916,x917,x918,x919,x920,x921,x922,x923,x924,x925,x926,x927,x928,x929,x930,x931,x932,x933,x934,x935,x936,x937,x938,x939,x940,x941,x942,x943,x944,x945,x946,x947,x948,x949,x950,x951,x952,x953,x954,x955,x956,x957,x958,x959,x960,x961,x962,x963,x964,x965,x966,x967,x968,x969,x970,x971,x972,x973,x974,x975,x976,x977,x978,x979,x980,x981,x982,x983,x984,x985,x986,x987,x988,x989,x990,x991,x992,x993,x994,x995,x996,x997,x998,x999,x1000
-0.06504514653488169,0.01643598654243017,-0.012713081847157026,0.024843676077803023,0.028937412104410365,-0.05233826590329438,0.04670657595680083,0.22279093605950262,-0.03234888571519423,-0.056110627640495125,-0.07891733117761934,0.11091905155738124,-0.07589396431115303,-0.07367231416579834,0.09448073248679867,-0.049559791353591454,0.013805610099250742,-0.081606401082568,0.06453680354020364,0.013755801743884355,0.0029583614045745055,0.13477215557297906,0.10350913616769586,-0.053238413814369556,-0.01719674020421491,0.05811880646264611,0.11424856936551331,0.05870508872857405,0.05297757936223979,0.11567713070282681,-0.03986773678705513,0.03031938585609595,0.007027334511132022,0.004369770045331345,0.012101376504663142,0.013764605069092273,0.26756414350109803,0.04146131239458506,-0.00423697958816549,-0.025551790833093557,-0.07392500771617416,0.05739391326515597,0.09208713963255644,0.014022543078771932,0.1710026727735452,-0.006580126246576445,-0.008552615593232171,-0.035137276006500295,-0.06197584866137329,-0.0113467966162063,0.024877017144002034,-0.10257190168689334,0.07876427712620226,0.0006704837507784944,-0.04898682590404735,0.09904751193092975,0.06065610317226522,-0.10226043945633811,0.10358489903332879,-0.02874824940788956,0.03736682809894365,-0.053482100397967525,-0.05851867660483945,-0.025877798590843826,0.06558809661044562,-0.004877700330717438,-0.03780264835120417,0.044411971865634836,0.0992498586663062,-0.019589112563001332,0.11931810181059754,0.035753354353284195,0.06288495470412903,-0.0020408190488033773,0.017310146872868915,-0.05201935306127714,0.062373631191935175,-0.11600305342520811,0.13421237206737424,0.020087566308185645,-0.016323142408616542,-0.0266657934042851,0.04311732340275243,-0.05431808885658762,-0.014413223725122215,-0.030278172059922115,-0.016085969629310415,-0.1079406759558974,-0.06304852427990659,0.03874087490975775,0.003161321147634677,0.03643582969878212,-0.042895227137138,0.001196382354154757,0.03542081616962878,0.03899783172735649,-0.04493696463968855,-0.029175215378481223,-0.05447775733813043,0.06906122341435172,0.049998940610809006,-0.05071826385949896,-0.05726195956862823,-0.08746672745335704,-0.09413967116990307,-0.05821007939897771,-0.052592243441200615,0.007148517631859308,0.09387112257969288,-0.010672820723252818,-0.05688685801662752,-0.06862223937172829,0.047149241439112144,-0.0010166083549311145,0.10352328269862454,0.08924013463613933,0.06143035717870249,0.0894627532063903,-0.036864363638566156,-0.009846152931490826,-0.01383617832224815,-0.037780417050363946,-0.021390127116128532,0.01875495003846761,-0.011296658032186269,0.050878931942236694,0.05493713932703592,-0.028626994260263494,0.014091825877797781,0.03605624934077034,0.00212417036877266,0.11028111878836877,-0.012273930657406784,-0.03785675927461052,0.02560294713532807,0.04986490990037318,-0.024851693312390122,-0.09589503545552847,-0.003361085956579579,-0.01900020149625503,0.004813204369239488,0.1683434429256352,-0.04486364135932086,0.05228709502319506,0.1812193629229717,-0.05049272823080042,0.029886485109935412,-0.04570833329012114,-0.07968647178889421,0.12865679739546,0.04162181909019802,-0.0332297973899911,0.01289852226518362,-0.11277607038448711,0.02867208873022986,-0.01769444212787552,0.10927245040407207,0.049823222753578866,0.0372290147171237,-0.13342321907092503,0.04181051554520643,0.11166967462194655,0.004580609498039623,0.10609180834958498,-0.08017071041516555,-0.07594611360561532,-0.017605973973333855,-0.03944445113665773,-0.10991755298860983,-0.03007785501582838,-0.10069168475344725,0.03354074424953435,0.030865854939527093,0.08468359854701246,-0.12472556349524067,0.02557397473572043,-0.031210788693059266,0.006456592815383466,-0.09361490278343565,-0.002970651055373863,0.029696657043200902,-0.016435851051144534,0.05713403066328393,0.018353377755304434,0.09277182770383097,0.08248209615412416,-0.09118170668959069,0.01280745086145374,-0.08094684424026855,0.002092333776723798,0.07963685134633658,0.019265091328716455,0.01044472043618061,-0.027004974833296225,-0.12084597446112655,-0.05516233725552799,0.08703138357210771,-0.06065812790793279,0.01651888059361184,-0.05004156058414744,-0.034739420175240454,-0.06307937031616595,0.06414095237280781,0.005246615026800683,-0.08898056364935303,-0.05391631671760877,-0.032029474671108504,0.006959967410252954,-0.1118271886119725,-0.02342987164636323,-0.10349707194189672,0.08667344533268517,-0.029743082630162454,0.034100099934489814,-0.15598135885246767,-0.10383202132617653,-0.05880147976975203,0.015470587140146819,0.11232446494525283,-0.0038746090849341996,-0.03142259893820454,0.01748738229672364,-0.03492993552616863,-0.022009341317703934,0.004783235829972199,-0.04670375290128215,-0.010478735886696344,0.0022397675916299153,0.020920956522539225,0.01980636492061616,-0.04715144565246543,0.07759101509457489,0.07106260408140552,-0.05419706559318149,0.010318064346765965,0.00568141602091532,0.09215759776251176,0.04549049849552711,0.04940425843446428,0.20334019968166595,-0.05283192733556563,0.10367864158470175,0.10721730140494712,0.04482793771181237,0.09405946087532335,-0.06412206142183074,-0.04890219968857712,-0.05600581600395238,0.07058703776031172,-0.019843500721976715,0.24252049790697194,0.03867187881345013,-0.005744260090522424,-0.010626855546183145,0.004701403021628803,-0.042381590921800494,-0.013813893137920474,-0.016430393997960202,-0.003943544192410164,-0.1524731900302787,0.007998047090089777,0.046938789901346256,-0.04570517012270703,0.11533125687456836,-0.026996614252591256,0.15755640640735136,-0.08468457635472659,-0.004761285463780074,0.012896876002471913,-0.07377979990668526,0.08255724045755941,-0.11033860023716835,-0.01386981104639784,0.00685454385989126,-0.009064115899758418,0.0035097300995454717,-0.10058908840533443,0.05398049748735789,-0.007295178456157236,-0.0704322211914078,0.06413635539053097,-0.007942570861146359,-0.10081266047218418,-0.007066836570447155,-0.05179284699313935,-0.014574376480676055,-0.04133633521189439,-0.10349330433040804,-0.055243314893195894,0.14060343537551434,-0.050217823927636185,0.13467171949431966,0.007956941598679768,-0.0403677028581112,0.1478010391565403,0.06727312344264713,-0.029065349842795962,0.06252995475795231,-0.055195240654071887,-0.009045312512388715,-0.031028459031605116,-0.0449891952051058,-0.10431853855850859,-0.019150752212294897,0.11233589190715287,-0.05780390597262297,-0.10777423506896255,-0.07539516559983617,-0.07247758150729544,0.04476207523920239,0.0486897152730279,0.03488374838505459,0.04390146454553712,0.06297628073997963,-0.0001408801440379026,-0.07792324427523856,0.11107165826754772,-0.01758898205977799,0.12319587881872662,0.048431427427674256,-0.00039149893153545,0.007952789477796651,-0.01776157749521512,-0.10201889772086747,-0.043917778307322686,0.06944687587177767,0.12355346836513448,0.03560397556937711,0.033858066318554814,0.06274082286272864,-0.09963385859798157,0.0426702088845079,-0.005068220763870257,0.017779359270372552,0.0001860439753731402,-0.09769532778384593,0.024956218152571763,0.04030024065451876,-0.037525762224214,-0.016921415802624296,-0.014467014451507554,0.1504051282281249,-0.0723451560117091,-0.07599399111073502,0.02356394169080378,0.09031027041408701,0.023253682524492447,0.11593971332396014,-0.08414072335115075,0.037252181098435644,-0.001634948313479545,-0.1123236813493288,0.02372937241124129,-0.00653158448012181,-0.08384047150649054,-0.09725658896867428,-0.03565304962295268,-0.0892449966975245,-0.06768445392685585,-0.03169709100719387,-0.08501423658827367,-0.08285219310128411,-0.010576527527979218,0.08626454943668405,-0.04180855577392628,-0.00012025304831986272,0.013742413886735028,0.08862826935435253,-0.036637529194946006,-0.08081553097471272,0.1580040538443217,-0.036881637609016305,-0.01001843379202505,0.027043125403332757,0.045769045529926666,-0.11457224740048477,0.07068076647168975,0.014086773056941171,0.016324665140987404,0.0617021165335816,-0.03834050401002265,-0.01119528705021311,-0.06549730095738704,-0.1405958802301407,-0.040520990638665655,-0.04085215995877245,0.04191830519065398,-0.04474446213257244,-0.04428646109222423,0.04094818492191843,0.10502972505489172,0.0222242261789658,-0.023628210787327353,0.04249974057228334,0.009844878797261591,0.12287602499067352,-0.05331512979875752,-0.0680822890035554,0.035600690506358834,0.025250431056180078,-0.016718673568895115,-0.01715676475909189,0.19163972436477095,0.13790404128788403,0.02185395318725125,0.0039915396183789476,-0.0014989204783253385,0.08553571824456752,0.08124900504820509,-0.042718624932906235,-0.05809453061647696,-0.014136001078347782,-0.024519162507739778,0.04258985980414698,0.04553275217401209,-0.11065183037747828,-0.0960703487754675,-0.03420054934886907,-0.013319540867769653,-0.0014383519720443383,0.06506158305462395,-0.07876382778375568,0.1772035986853262,-0.012276013584328616,0.04830900881789346,0.03973698550752758,0.007211207429514754,0.04823887931112436,-0.017043154037268193,-0.05130898442410392,-0.03711564506773912,-0.08232427040299928,-0.03513480654665613,-0.08749982013954616,-0.06902777180897579,0.0859786466157586,0.10736669590669812,0.07665657735076459,-0.03050403191897233,0.04872175120777156,-0.09129910455850665,0.07222239358312477,0.05721618451287913,0.01839769510796896,-0.11460745401715533,0.03846519618045208,-0.0619246008327663,0.0034999972561697845,-0.01847625174328804,0.11753513359705425,0.14753453203687084,-0.04351245942341331,-0.07740835407643198,-0.0348539180917955,0.052126780602774314,0.09016370532814721,0.05312122326095503,0.18003098762591652,0.0791166606612761,0.008422596687251538,-0.05649297145372589,-0.09185513800406164,0.025307617497764445,0.12647687952814812,0.16446950909036917,0.07413575112754489,0.12599008061408412,-0.0581850410073218,0.03210560625869463,-0.06170679406069701,0.05103893156887307,-0.037932138699953155,-0.029108849887518495,0.02409880572867129,0.10823548502912383,-0.08661278862680954,0.016843627015375784,0.005862222910772541,0.17027559720243346,-0.11641880091603274,-0.024319913897064005,-0.10157171216505922,0.01604779934131506,0.039839089604114086,-0.010544230240256858,0.020302181340061454,-0.03638439827358697,0.224930648837127,0.08949730798467814,-0.08659187636704846,0.05522912469784713,-0.05213915216477383,0.023521946808999772,0.10419823667540307,-0.05194085703429274,0.04115601721109119,-0.0681670813930294,-0.08257282560982515,-0.0043029871562861866,-0.031049919151604155,0.048894187119257415,0.02399263736042445,0.009992459989551339,-0.019183556663640577,0.023457783025394807,-0.058261076802180956,0.00867262461021312,-0.04894870888799996,-0.017246555674497066,0.0032331935681191304,-0.0894562805096677,-0.07108488175966954,0.11283319381585621,-0.052687722448547025,-0.012788418278112723,-0.02606398712702085,0.01840976556973528,0.02213738157285161,-0.06604705309516334,0.0011565270332885014,0.06626821315029296,0.013795427716100761,-0.10174207399092539,-0.041355792927695645,-0.002829668491313053,0.012122508151969136,0.053293656127073596,0.05230601750641717,-0.07036993739981945,0.04078991048029157,-0.0006647871992387921,-0.035878259303298576,0.030752953123587057,-0.03986378040641181,0.05339871931406637,-0.001535511039993387,0.05095458670955977,0.11605346716341236,0.03649053904725985,-0.008773576886783485,0.024691779534122382,-0.07939808898561529,0.10417476276231286,0.036826869928270556,-0.0334933656499381,0.08210813982307874,0.16202880226663874,0.060737100960396306,-0.1224396785524624,0.03469548118209853,0.0829020704820751,0.003462469731349227,-0.1139382816196376,-0.038026306950077804,0.028310054467730827,-0.08851413652388274,0.04335335753860714,0.06441446881409885,0.2339632165843606,-0.11134864438626757,0.0666777363565405,0.010777580014205812,0.15847550784801112,-0.016311841042013886,-0.07581694726858101,0.04404935751214434,0.10464672504597972,0.11947747219539506,-0.043223304903205584,-0.006120512256900135,0.021262012145796927,0.029631146634439,-0.03980792473003847,0.008003229998427841,-0.08513222988096658,0.07585509680058156,0.03443694798474217,-0.021598438813027365,0.08448376017314163,0.08976171054798643,-0.026542592058545145,-0.05106216980128164,0.018401556975805367,-0.08815076740059624,-0.0746411744530312,-0.07934921809758366,-0.035890219957754654,0.17465178429884598,0.04483919293378569,-0.060124593863498776,0.07416259272470804,0.02467951853447725,-0.01675728525773701,-0.051361001523020255,0.029359916445786505,-0.10421661171120344,-0.08001584434561115,-0.06659528145957094,0.006591257375410997,-0.05559986288375185,0.09969530881885125,0.06728447061177611,0.12475270480730272,-0.012276258892907399,-0.051429130493304,0.058422826751253654,0.0030985547318722606,0.005353690918664666,-0.048517523598822,0.10278755085343194,0.04169871675252268,0.04252320428669454,-0.1177649996158916,0.046425073044944476,0.02499174193554321,-0.01138405884830529,0.007842021723039494,-0.010908467495283403,-0.05925564274621198,0.07331210245017794,0.046682165887683036,0.0520052429906146,0.013555081376818823,-0.026747033569201717,-0.004421802484114057,0.12255463605364936,-0.17798206941488603,0.07537396108911842,0.01981346066873879,-0.130630991231235,-0.004739131011271214,-0.025571167864541056,0.02753249044152528,-0.036060941590016604,-0.030440975637374468,-0.05311970153826728,-0.01979376949887568,-0.013169244609151809,0.10329194626691196,0.05690240099561872,0.11977879979231654,0.012565095653903846,0.08102227475144641,0.014877517504692683,-0.025169740812828634,-0.09328472861440051,0.021051411475446313,-0.00047001449808947715,0.10970707217557463,0.10459222275739344,-0.013412810855169877,0.1840326707282418,0.03122396313726039,0.027680616113491707,-0.10458719638059921,-0.07109654302881507,0.04209186600414827,0.03372965967854502,-0.10508280972037143,-0.007776988547795183,0.10297023097637803,-0.08150945582724645,0.08067395072211214,-0.1462797394658435,-0.010359389954698206,-0.13490991065410884,-0.022987673621944427,-0.025561729182762782,-0.038844004645758434,-0.08582380171769122,0.08080563014214293,-0.09411382584041517,-0.0017883692054462275,-0.056009346110373115,-0.08737582949811318,0.1185825651144139,0.20840287203982943,-0.05774257457011778,-0.05860387105925813,-0.06726594648655959,0.012318142505856056,0.06665880083269538,-0.028018727208971028,0.03770981286680675,0.08056814983714711,-0.029240610726794736,0.016940177894684716,0.03533191235035349,0.13667978590884355,-0.008153320774280881,0.03957356251335842,-0.049844863111067284,-0.0019532156670888368,-0.01739618080429739,0.09914360003280276,-0.04648044847035937,-0.05720810437389223,-0.09708040853494548,0.06840140067597988,0.05222008507555298,0.013393818452660522,0.0048063056165477125,-0.06362553669830628,0.04703675541637997,-0.10273924448447125,0.09194316241819989,-0.144692899898197,-0.059717596388707994,0.09990129278366222,0.03836214776140667,0.27615515493114784,0.04981846809157098,-0.03284817351205793,-0.033835652994441245,0.013931390743555871,-0.029759182846423093,-0.052104602328516436,0.10335475207827227,-0.060677474989440094,-0.09444056789788069,-0.033018894532956256,0.003465079253413217,0.030190388634572685,0.07812289441864162,0.033463865522440184,-0.04097226858598424,0.022340497219641264,-0.027367266707870486,-0.13708040644164432,0.06781348988782576,-0.03558980163081804,0.03286282780836913,0.20628704735242853,-0.0693947678437059,-0.0343150914735324,0.23073813695389744,-0.08840251123673759,0.03024343119875139,-0.03862070765417469,0.14872903919650016,0.234808890489133,-0.08713628485892055,-0.05191467263861982,-0.028894454497615185,0.029587695594479158,-0.08333076185440447,-0.09176171095389907,-0.10804129523655026,0.020670158093653468,-0.031786633691163635,-0.07899411996601613,0.04366585035908632,-0.011773915039794192,-0.0008242112136228608,0.013622672488981191,0.03488156563859435,-0.05836260247043579,0.024073274179582604,0.016060516255632873,-0.06797398292453849,0.036480117189682026,0.08298085750473949,0.07671247172756113,0.058386727300818286,0.10157238492876108,-0.011190995571257911,0.028597607262670577,-0.062370815557028836,-0.04033820003312527,-0.06221236604102287,-0.004342470942662824,0.03968341126858177,0.14871109436285845,0.01378119463575711,-0.0363287216072784,-0.04776120132558548,0.034785932421416144,0.03366796904466951,-0.05063442998249934,0.05726988236505015,0.09172202671810203,-0.09361510824530983,0.07187454266023141,0.0007125125305975644,-0.06768548943447916,0.0315339374365835,0.10670669243665754,-0.11439914417398245,0.11762404362628276,-0.1122603941705087,0.09475104229401965,-0.025070981232150236,0.223567736172122,0.01706997053129866,-0.039213316723964775,0.013373155647300683,-0.0030089658719625323,0.005084664744905654,-0.0017365902548901468,0.008481903479984343,0.03473239048103394,-0.09012034892218679,-0.0025697690916739457,-0.010916796620420666,-0.038861541199256555,0.03821993675173885,0.07363276086375303,0.02594876137670865,0.22488005582518666,-0.03566048926526144,0.015090799553987289,-0.047754017677714033,-0.08075186046120408,0.03575235641420993,-0.09814930815179579,0.019497880602280748,0.19932462168762588,-0.04678447459207469,-0.07926086262824728,0.09947212639704217,0.014315863248135274,-0.006873456655182242,0.10899694580235053,0.12673809318185225,-0.02190195844438647,-0.12715760508591845,0.0252211544207237,0.11323778440519905,0.22805666294400506,-0.010415902337048366,-0.0005301735882374814,0.015830699082625355,0.06920614524699631,0.01629236923706534,0.05581136113626095,-0.08134713833523277,0.0267227269438306,0.01665796610771575,0.1282966578477469,0.12189883384896727,0.02620053703302183,0.060719653144606145,0.0036793652616533556,0.025460460998364187,-0.0031327988196026,-0.09871647701399666,0.02362273652291047,-0.07069954998354333,-0.09035229399346478,0.09418020479472089,-0.04175174287465777,-0.10499951114544104,0.014106041628370924,-0.011233978265933975,-0.05849797307503668,-0.09375513080142428,-0.06797232558703092,0.08756820223124118,-0.0185063966922544,0.002602205885906317,0.09107621829625812,0.058533683468694475,-0.00170737121410669,0.013046617900158264,0.02970951436667102,-0.0513316057507236,-0.06032747777167535,-0.04126196876235633,0.0862368538420335,-0.007474321505944959,0.009968395698753296,-0.022880173761990696,0.05003773056025662,-0.08801186406757155,-0.05143298187172274,0.010358509531146476,-0.0172944324089368,0.09556638358741298,0.031881015402895674,0.06023808358647775,0.047766475413054676,-0.00042640938492044533,0.028088501902742813,0.06140440879384834,0.0083125179577761,0.03225138940859229,0.0121673900151118,0.026594717571338577,0.1307484125080023,0.09149822923548934,0.08178336863829849,0.10836957070415432,-0.033740664084351835,-0.05641558384618728,-0.046519917180114057,-0.09076807223215622,-0.01929143813700751,-0.11302145088115412,0.04888003322846601,-0.03454772501220915,-0.017332135010821093,-0.046449867961071756,-0.14726112346257214,-0.01643912861259922,0.07798533572265054,-0.054944140989120704,0.034756114641413705,0.026595930424660352,-0.008080883393011606,-0.018294583098871664,0.06948291065171186,0.10494148688296323,0.07802830050606469,0.0767946235463659,0.042979298459959514,-0.0943275904684826,0.04329623838774799,-0.001798150375821872,-0.0529792613870238,-0.05720273464697212,-0.06277552657037988,-0.06051480388653663,0.04150811027123669,-0.008279272208948196,0.02053388552417834,-0.062359671327054,0.017841546943288655,-0.012952103433787054,0.12536062697368267,-0.042880293320878504,-0.016274404634800677,-0.055983578229365616,0.1676569058466426,0.03491514280080743,0.042136266912171205,-0.03862435770727546,-0.01269008020915341,0.019501508819435687,-0.010721667259917522,-0.10797103443874867,-0.008575857139059284,-0.026644654430366232,0.02233755205030552,-0.012667618663374847,-0.03690842155987273,-0.14987356693959553,-0.003364523505856698,0.06364100598414635,-0.1272266867410844,0.05311162574527728,0.13038326613777995,-0.09143315345028913,-0.05554956769946384,0.01289048504011836,-0.042849331953217606,0.08852296187753605,0.012843797984112504,0.06940821101793104,-0.02124696726822939,-0.12359484578253321,0.018984298792205978,0.006140713853676205,0.034373675263640546,-0.051000796699373296,0.09868308508904655,-0.1040306745650873,-0.034847944484055704,0.1848193352041514,-0.06245712711677642,-0.003658284732270922,0.01636837183346307,0.0928944683418933,0.016375237616698346,0.05113755577507062,-0.03381351206709271,-0.004918597832837324,0.0070014300112521966,0.004479921691700195,0.021694270728320086,-0.010254215451206972,-0.1544562104091184,-0.011801445323683102,-0.027670141996200992,0.022836441877055247,-0.006298692433810427,0.04800815469599984,0.10088356694407619,-0.04678636007225512,0.11747972507347937,0.15428718330857527,-0.031031242584601992,0.056921716893021834,-0.03236200406097389,-0.04236449612364379,0.02923063315571417,0.1456908727294357,-0.1607884658973261,-0.024249268226143705,0.08540329135892621,0.040848470956115435
