x1,x2,x3,x4
8.036414781986645,-0.7585754230896107,3.388152729479682,-0.45864146728135646
12.381555796615945,-0.45221673431936427,8.090750682284991,0.8100254147227304
1.7026223355640147,-0.41065983292405217,2.477540783654545,-0.0030134322975838845
4.568662331153755,-0.65570929071868,-0.03966700671030898,-0.6217665096390547
7.3024682639896294,-0.08824002489483018,0.5527068229689582,-0.3166841228598277
1.753553388274157,-0.24241668572773833,0.3980346703189763,-0.7423098741087807
3.3869806326393634,-0.7197800561663678,0.5883336194333071,-0.8266406938376509
0.5806407216894416,-0.5115742468233038,1.8804270478273026,-0.002264771336984883
2.428588885855171,-0.8697962521912985,0.2683498709941423,1.6534304305737426
6.4765741005174,0.02088754706135454,8.716219500031706,0.19413588907153945
1.3648981253566141,-0.581071852864488,0.09587035253020715,1.0739746229860136
2.6050186391639154,-0.2223522445037036,0.2019916796670682,-0.057480637845247484
2.219798414864212,-0.23487921300820291,8.08951245491068,0.07244307530647065
2.846966353444486,-0.8588107180690663,9.281483538730093,-0.43058337749379183
0.8155616163019348,-0.2152666130884512,0.19217168924560712,-0.24769366301027462
7.264200489080766,0.0646690020738605,1.5609816501418456,-0.5334727158716596
1.6399655201738073,-0.40151755272716316,-0.3998368661952826,2.9911299798858826
3.0983719223814656,-0.33959973602140936,6.483083914875298,-0.5997296015671647
0.4546524528772109,0.570311394323832,0.3563735971494706,0.5227790626431026
0.3787735555564422,-0.6006312723692045,1.7521899902150437,-0.3426060129370957
0.6832876094800464,0.6246805685502572,-0.20550118428053732,0.628084459833933
3.411528235005469,-0.04872662841556619,0.5115150056255138,0.04448727725675017
1.5275904353076721,0.8850395281295333,0.8824635899486839,-0.1864428983146611
2.0987998625517346,0.36335152707067553,0.44777462254860145,1.1949958977942159
1.6164330822646997,-0.4373909166201587,2.828597208415837,-0.4807003088517072
52.06756377237056,-0.39996091079399254,1.9509332114586684,1.0487658490467662
0.4777834628853288,0.8026726593620304,1.5653268200383943,1.6673618870197218
1.1314838734092758,-0.5678931158775451,5.86575094231872,1.9147931869223611
1.3637989157439763,-0.8922319431153465,0.6709835299276796,-0.28847465256249516
2.251608995916759,-0.1368867391204872,1.111718510285995,-0.8408964957515208
0.5480648191616719,0.3469682208866023,-0.5755145744088177,0.2535243213688154
4.508716413686172,-0.01592296723135056,3.555656852453512,1.7729160324154742
4.840830061286275,2.101304274988346,-0.19439478948654054,0.19488141901810851
0.18433215810850445,-0.23159999197965708,9.68448490319744,0.5174644207072288
2.1284236155448326,-0.49374072980052897,0.8335863106244368,5.6715941123225155
3.7541046091836945,-0.7294041179624159,6.390961846576607,0.04379217042311612
3.9541899166244043,-0.34872674791978153,3.3967769845182323,-0.5370517017148871
0.3127876758402257,-0.015161263912124912,0.25395517394073486,2.762059500234673
0.11673607568743916,-0.6352047476314553,-0.0035764351233148473,0.8845842086748221
0.7373613456461592,-0.8831385125205612,0.39680757629378727,-0.8046635053921167
1.2227578891434172,0.07346636878124047,1.1833813011088674,-0.8450660954531681
1.4720530000293066,-0.7121169137062849,0.09782640022187272,-0.3950295167314234
0.36788747436554403,-0.27662766712869546,-0.1620441553722648,0.5095439085977855
1.8814111386561398,-0.4538027759632306,0.8891116724200061,14.142164177123885
0.09281449508332029,-0.19325135616701605,4.095784918357002,-0.24533805720556578
0.11990555137933256,-0.7876731066836336,0.49518475946758467,-0.39951096138943776
0.33223034344370883,-0.3592003613125426,0.5636267874113285,5.857048701389823
0.0319805471942074,-0.8562494186783807,-0.10523960028340917,0.6351622880521615
0.36270824095118126,-0.23521298690705172,0.2687039405722249,3.7195222784700777
0.8862133609289662,-0.556782805165203,14.120404137248304,-0.2087602385220234
3.3025567758909187,2.848824727389047,1.0007012204849701,-0.8516338715237579
1.248395028934592,-0.9517844235035298,0.03321411340417235,-0.2825340032440229
0.556092114643822,-0.35792895817841097,0.3585543932933639,-0.48512052774570735
3.2225373267329624,-0.528793487283068,0.2750692804948909,-0.16955577059758065
1.4877273244140858,-0.3228589618510259,0.535882576390633,0.11880484596873475
0.4821210569958232,-0.6497322861683872,3.630333652311851,-0.004003386367389616
2.0525523584254732,0.004070679281414247,-0.7876726025720577,0.358154190286343
3.6203722357174986,0.0711511644612659,0.9938039480317291,0.05845584300188311
6.91395311712824,-0.47346683412480717,0.7156153257033688,-0.7648254490395004
1.357976113452108,0.3353017130456719,-0.07383770178937599,-0.3695979271335542
10.230845716601753,-0.04287068125038196,0.22544117019390275,0.21369863547165524
1.3478439520812118,0.009229637625965736,1.523282260562297,1.4557895250351098
2.6546550163694542,-0.8971074559687767,-0.1599010972304855,3.0050206877265584
1.5295833396622789,-0.6657131558170545,0.08610349899193981,0.6073499324550398
2.7311533969381343,-0.45559974059399266,0.5594375381910524,0.5221304615086071
1.066569126877961,-0.6729773080798774,0.4302289572873095,-0.7376116107872079
3.775120185304014,-0.630295469607757,-0.3329517305905827,-0.7386894708041727
2.542213217441208,-0.21786536222235353,-0.720230873457703,0.6683825978437399
1.5138034592184706,0.35829051729565387,1.2971288727020007,-0.19067679256762737
1.4932397928334522,-0.21754498821476165,0.6766250763429285,-0.3810920575532508
2.6618855630334792,-0.2571351666767172,0.3051893520846458,-0.49917334761210275
1.0704560454950256,-0.327378552866746,0.3146000585763029,-0.6725993886776424
8.577553557147969,-0.20094262900112314,0.8635908121738323,-0.3319907963197305
1.149877140636475,-0.6515477618674268,0.7755192805965614,0.3385510062550199
0.17744162516499373,-0.5793772211028538,1.291400981903299,-0.8368030820127972
2.923869055547525,3.1318241220213183,0.05117612608066491,0.23979864901109682
2.0401695514634373,-0.21473879639198068,0.41612544000357565,-0.18703344557917279
8.16628878511854,-0.669261026095066,3.365004272970503,-0.7021409575476714
1.9337953423839314,-0.4865342101882114,1.915863338870309,-0.41512446899608757
6.359627705167861,0.08442753275709447,4.109067674562871,0.5779477837220932
2.8904071196063224,0.2009825498952904,0.7049967456909545,1.0880131145476284
1.7755573447831754,-0.7282180630761408,0.5157546176211762,-0.16889327429888357
2.0837092720995916,-0.6235756771350466,0.6431232417766364,0.12209695883172311
1.8128965888740747,-0.8118445616910177,0.20974072991509884,1.4656207590060983
0.5566757789523022,-0.41799920363502896,0.40993109993663346,0.396192906132119
0.41214088323822495,-0.4543903580453982,1.0088064358940012,0.16792277460624017
0.639696463982165,0.37900648600522735,1.3857055261325542,0.13281127896580314
1.2331065340403269,1.5546105720905556,0.6757159206963577,0.12535322625699719
4.107293919048735,-0.23396892782733214,1.642075607815992,0.10915955616465967
2.6635025402172214,-0.6630139720346058,-0.4963424946902746,-0.6048328818374316
0.300854034908437,-0.6446015448664294,1.7578982908346723,1.2095401489234696
5.216790884303801,3.252773086949585,1.234806030483468,0.4066009715024401
2.3203560665757874,-0.41177485836434435,3.866490622094444,1.2296789687173426
1.4807072991885062,-0.4862073358510658,0.9052565757539324,0.3886490567954217
0.45283643937224705,-0.3955067442057426,0.6660883567447293,0.8490268368453162
14.918365781836684,-0.4922727112936123,1.4272827535413195,-0.33968484574730995
1.1744360732985597,-0.4629900659575671,0.9961729651742437,-0.1460245512952153
1.393897892078896,-0.7069070126791902,-0.4042031916284232,-0.16333752324044848
1.7100715265007698,-0.5232040474625395,1.610624472088014,0.77215911201726
1.3454545687214758,0.40847434564586194,0.9793334223009473,0.33131898021481576
0.44047461988476955,-0.5177586479728385,-0.15023042951646481,0.377975687832939
1.8963606732921074,-0.4369889112178852,6.9567389609299655,-0.14109410247552567
1.7879745487487364,-0.29301668209495224,1.7988982834262326,-0.27298120695099015
3.0915925192071416,-0.8101308214719074,-0.053627918308034817,-0.18161871181826017
0.9917718033736906,-0.15738349391322248,0.5998054626289406,0.5188584425806944
2.4028795114396257,-0.747937552467298,0.5203184216624583,0.37616713563694315
0.9840132211766202,10.138201607364875,0.21761459090824298,0.017961532332697372
5.556959981805697,0.8354860577760166,0.8886143964354443,-0.21461170162302878
3.476003220714989,-0.4654973677860609,-0.06676802677369176,-0.8705749926352041
1.2862463558815223,0.02274747945840927,0.264893021572159,-0.39020296643908636
1.8015393778718658,-0.3471711546194214,-0.07562300992730486,0.05242472014590538
1.932224464321287,-0.30675678696655384,1.4703283628627175,0.6259323286098242
2.0922106288980973,-0.13438016590662827,2.1742974324535846,-0.31327392616258676
0.8994958577440648,-0.05851147943763191,1.1018385226421055,0.8796305244492684
0.18617425211568217,-0.7662919355193503,1.9936110740162643,-0.2835322535587893
0.6787115379420312,-0.34081196503493627,1.9534155120238,0.40312399220785466
1.2274765498912568,-0.6292825971986636,1.5805329106735502,-0.395368026120672
2.6743787037211937,-0.46476474454847405,0.43513862469577647,-0.20112710085257424
2.3445136469526155,-0.7120344580718496,10.012973215637512,2.247475811805375
0.7180463820102112,-0.05185833438993859,0.30276616878996454,0.29210615912591353
0.9310423776211911,0.00499349473027122,-0.7728089618350599,-0.889836957151692
1.846446971326694,0.8682423920457103,0.10798177618100846,0.16892890453066967
2.822616910774421,0.7469889265068783,-0.6084909417322457,1.8095418367809724
1.0576431193325337,-0.14538953235919316,0.3530885648165132,-0.878453950882186
2.452439000561723,-0.5038674458782764,6.160312212026166,-0.4212016658654918
0.5215635925073654,-0.4488640220024537,-0.03472595758582808,0.34505715276008364
0.5423354269615959,-0.26929819975204317,-0.703959901528169,3.186356737537846
3.293162125308439,-0.11488328553053384,0.5618236918957442,0.3586541202328615
2.491367309130081,-0.3932227494558135,0.0786066245912751,-0.12277149969409507
1.9452895169326498,-0.2912813746167694,0.1348469875816285,-0.28114107124606313
2.043660058765811,-0.6031214776822007,-0.15498419323300905,-0.5330964688607938
2.271620542911569,-0.18432746785350784,0.1541425158285452,-0.16159066970279823
1.4824067709388649,-0.6887926923576606,2.0941617918477373,1.6414919884512629
1.6729898924975384,-0.5328940582069155,0.3134139239619158,0.8236445532570773
0.21352638293992388,-0.5883572990957144,0.1834549709897686,-0.31960135263893485
4.3028918139732575,0.4183786208178022,-0.706022252045709,-0.6315217688902857
3.456895552586939,-0.7876647119841743,1.2743328433646566,-0.8396656405798165
1.6809343798918572,-0.884317969861935,2.115723962764001,0.31808313360848306
3.600126432220626,-0.4078580262327568,-0.2455847602069665,-0.1980037256513968
0.6644467037527853,-0.6997796089055048,0.3367327780472693,-0.08264043335139615
1.7906024762680928,1.2895561689700616,0.17658696196509505,-0.6352621263943183
1.255220382222424,-0.46630965634939625,1.5238177954724588,1.1463991268649871
1.2104680992737764,5.3798228838327535,0.07361692616753523,0.878671706138171
0.6518714825878147,-0.28881294035246174,2.0813768139474385,13.67168032348331
0.30521627067228096,-0.5321335745147204,0.3288542136453958,0.05343265243160267
2.0409513420527126,0.2647142043242572,10.951301137067784,-0.6111750070928041
1.3795526932387197,-0.22172454644403472,0.16433342967292108,0.028544467043702948
7.964369061177214,-0.6909522560008343,0.3382185620907574,0.5024601803635844
1.1651241518570998,-0.5691933054814068,0.3440926910929625,0.09157728930110376
2.8998373078006123,-0.7040638677339558,3.70597598010235,-0.3083536044961013
1.8611034205949775,-0.3605671068859648,-0.20110283403374918,0.1716094162083266
10.337861943893182,-0.29919781828841185,-0.2701859782439564,-0.15305115117088808
3.7005203407985343,0.0971318033242905,1.5095883730247759,-0.5219804929203922
2.677275992776023,-0.49492438396858396,5.476659381169598,-0.516842975657382
2.2552172888127084,-0.8199909363900272,0.09733724578234071,0.47577772104675087
1.4654252516919666,-0.35800343053178396,0.02855463256502211,-0.5328498856398216
1.2890390022965583,-0.6284779577500197,1.7120068943725064,-0.6516317278095796
0.5052809838164056,-0.5847441123650018,-0.11360139375851142,3.5635631557402627
4.839358197256992,-0.6796180167481876,2.52906278258553,0.45449674964991416
0.7138159881612347,-0.3928391162318745,0.04266438619178614,2.3048837387195587
1.1998489257026081,-0.3913229299572435,1.709055497512785,-0.41495404611196485
1.570237943306675,0.5220807485598282,2.975677540972906,-0.3600905587408475
2.152838425469006,-0.5638825815351508,-0.5802316755139305,-0.2787698691185577
0.930048010221173,-0.8279724377750115,1.6555433672782534,-0.3189177669059522
1.8305935065942185,-0.4452974276975402,0.22966103221856526,0.0720919964235236
3.6103427709307807,-0.17684044077572014,3.0961266747627487,-0.13353474442518043
0.7918967913205046,-0.6053355369785246,6.471408766659539,0.41206107178395635
3.6260183699806596,-0.2676400967723148,0.040915612372159016,1.4895219095505552
3.714203039519256,0.5752282841380001,1.9975619810324723,-0.2905260596504067
1.027660944129131,-0.403060072345078,0.25358385135480743,1.962018817127996
6.61892435249237,-0.5501904165326499,0.33319883155250984,0.11204672440801589
0.8058410466964574,-0.8670983181138661,1.2288033777814067,0.21280854854205944
1.928607194152863,-0.33318483202666993,0.2150543950252155,-0.8483920514369867
2.1122918255910634,4.222537277484487,-0.3845249209337318,0.10093339788786415
1.2334479133115352,0.6487051121858689,0.8269100144095591,-0.8403567479696495
2.939929258257246,-0.8530855760810496,0.11981334847517888,-0.24738614229993505
1.9508548834679567,-0.6893969084337541,0.5354554418854998,1.8923829814510693
2.1182911378961027,-0.3895111134653323,0.44267417312993795,-0.18015802730703756
1.5554116948689,-0.6060012530989973,1.5746377297646892,0.3580122444760443
1.0912248116212284,-0.5898798983970093,1.4495227923541147,-0.2873829383439569
0.7198089417946847,-0.4966195865471347,1.1455177688330087,-0.6892320568899376
1.2896377022736654,0.3320877163136373,1.8688581644180382,0.03640109300755068
1.727153108058359,-0.3865450251752167,0.5675672457488923,0.7221211388744595
0.3668832066408598,-0.6207135117110043,0.8208006703750481,0.30662708218511137
1.9812287262947579,-0.5359372363273188,1.1968515641782536,1.170828098155349
0.4374739687011302,-0.7297206975418917,0.3543681733245172,0.04528331175893019
0.49072227484108777,-0.5470556310577265,0.8256107305014415,1.2216689628453095
0.6189014305300222,-0.24035848279699645,0.36602510156277823,-0.5864210964220542
4.142679653170896,0.07146801051736884,0.6980605264786706,-0.08582524126385227
1.7819252208079717,-0.8858230126511514,0.6744113722454872,1.3395743177705928
1.6948742869900166,-0.12934480218297073,1.2310065676981452,-0.1571339491737752
3.657156578414483,-0.4839186127584095,0.1792448712346415,-0.20789024068045014
1.140305949440528,0.752111625035498,0.4667499572158347,-0.44358529748839326
0.20740387699588503,-0.7070141411553421,0.1604985129557226,-0.4414255710679087
2.588988565963216,-0.8590023586960478,-0.04281351134487288,1.0587781733538342
1.0472918134671407,-0.16272741968162363,0.21348043796536675,0.30925097403816193
1.858478926909965,0.49397606422056684,-0.03398965430579248,3.288098075352198
5.105567940704919,-0.30145233002645666,0.892979913506394,1.149646315894394
1.1408093552896101,-0.6824525373417453,0.07630215081244707,0.1389303883914812
1.220911338328445,1.3655365741630061,0.719796968150096,0.934781815599353
1.3318381028821165,0.13391773515904326,2.6798728259026414,-0.7170990468790166
2.1441986659431223,1.2194230871027716,4.216363621708892,-0.15069282071763546
46.141197432703954,0.027805047236362235,0.06531038775416009,0.18261516754347573
0.8050040579672861,-0.546578789496523,5.671810409786912,-0.4113770213687836
1.9401561859386973,-0.3788393518312634,1.9047536754575982,1.2991963946847322
3.8265815932267095,1.2451645508143612,-0.5534018659932141,1.6769395787462886
1.167484638592382,-0.49332632847274804,4.078059263826028,-0.21959599594356793
1.3152041529364955,-0.8466733358007057,1.279061861875633,0.8603396298600519
3.3467878658031402,0.9356265890978113,-0.4310177081193116,-0.6468916315179184
2.290718487287723,-0.14482584128590859,0.22110817024510077,0.0235724321919899
4.781244040622683,-0.6111886637752566,-0.23203150645534,-0.3176858710329472
0.8490854553944567,-0.8680525315978257,-0.21033480000492988,-0.08510846968843278
3.7594529384374855,-0.873188278872506,0.33040269306653913,0.5632563733284013
1.0275621175002194,-0.43549001241216645,-0.5930092130022526,0.026691528185426305
1.6511745182093809,0.31516845818114514,-0.38260445265857945,0.08492302328903634
11.079476304703912,-0.22643349869448115,-0.13373142185864928,0.9649993833957429
5.619681479746659,-0.5213619517519802,-0.6804845025200053,0.1564887939974935
0.30124710766083074,-0.6956106387043854,0.6754289675916467,1.2884124254555473
1.189382490063498,-0.5211642436379875,-0.44171712945677344,-0.34180647714036305
2.4626880539570375,0.25168592261270817,1.4433236230890887,-0.6478995589003602
3.2807629335136257,-0.05488641645754844,-0.7102146081546263,-0.4744164530826199
0.29515827546658246,-0.6138153046030403,3.4799846119015827,-0.08636942410464699
1.4435972857420727,-0.6194520609367311,0.9874447512107016,-0.12857091779465246
3.5680576366312318,-0.8072840256173305,0.4300108998277612,0.027767585516143223
9.629807017581502,0.6737294471000042,1.0505048100499428,-0.41044496147669607
0.125307428613338,-0.9076191103672077,1.2034594920083115,-0.09251700199506496
1.3537167704841018,-0.2823760574539328,-0.3224390594155787,-0.4073499063031276
1.8627945196596083,-0.623976170023647,4.1569209845209665,-0.30914761001712665
1.202158073387614,-0.18426704121424742,1.4555838415351197,0.8124493718699617
0.7058072703185907,-0.7215450519047291,-0.5753806699456572,-0.6024160255204449
4.91426066409267,-0.41191322623849325,0.3228621582972535,-0.18430461897467942
4.776455376323211,-0.7034931004902711,-0.33562430926043574,-0.2143137416964659
0.28477227515665016,-0.362869002200772,0.6095018056530876,0.02890166986732523
0.9990389117570013,0.09888310190079475,0.6476546496489033,1.3592309863492886
20.44296573463514,-0.1412432282776953,1.7719918349356107,1.002150002409599
0.362721332184891,0.885586492735515,0.9251938545460425,2.0447840951583705
0.6132754924325321,11.703204756073747,0.34250131329159816,-0.010571511140658019
1.8893466505226066,0.5054500486971181,7.127402160388623,2.9466295921253485
0.8306532889818792,-0.8134804187127227,0.06742877503034594,0.6449970384542509
2.249047698489974,-0.4209956684843764,1.1639087350818418,2.2707178594310937
0.8708740928764924,-0.001106753930889326,1.4415359318978451,0.05958813280831765
1.2802713828521508,0.035612532741736924,-0.45094821487961934,-0.3387938562271492
1.5421455674037756,-0.500020121626642,0.40787784004729866,-0.2117417410151783
0.03558766377848155,-0.0031758353984230325,1.411682400233948,0.10052792300274915
1.1586753469286135,-0.8388152237611866,-0.2851816314063529,0.5374928626928073
1.5453206858443735,-0.3861282599732243,-0.30127094275212796,-0.6549361166514767
1.8357570425015814,-0.6336607601249251,2.207908334462024,1.4813421383332028
0.5935391237982575,-0.38662895902449146,0.2181377726871323,0.17738773610652037
3.0319815706221434,-0.6487425418990888,10.519282838368275,0.6245039806728285
7.9689791488093835,-0.18121273093617407,-0.04240993058677911,-0.5157779670176645
1.2768753150215546,-0.38391429651218967,0.7988799171362282,0.6807466953944019
7.984840143291132,-0.38974876827780414,0.836600684201301,-0.8983017416947779
0.6281438986510801,-0.3884326414776299,0.2395082989370505,-0.5534732693968655
2.0422459033395537,-0.8093150875900832,0.5347757973137606,-0.1350433632591107
2.1168951039324972,-0.2057801847521331,0.6383519292183271,-0.5752320361692131
1.2594632062937343,1.9662805608680283,-0.16931488827674657,-0.1889720956328964
0.6024805346848043,-0.643846065278099,2.4101109203052995,-0.08717611066375963
1.8477722964100547,-0.8979821604909244,0.8243922451712833,-0.665461980411893
2.3260408143984175,-0.897881798142059,4.64964032146533,-0.19359388848478332
0.5985890842874908,-0.2103392073262288,3.046699786768161,-0.5428740215540043
2.3936610904710114,-0.14680714473751122,-0.3586527030221123,-0.2216190354722255
0.4780320354915071,-0.9368850184217035,0.4690326047466913,1.0627712944980274
2.0045493810144905,-0.3599600153357242,-0.4258061529280651,0.00029246578236419296
4.8486733929355905,0.9262876592405396,0.9771604064094035,0.5072098466122901
0.7268944047657817,-0.59797249982725,0.4401252353298226,-0.3881131827512264
0.05405937711859754,-0.5315873408655237,2.414246482432577,-0.39356680032348634
1.8978087997951993,-0.38629828880343686,0.9444052744409765,-0.41695433980967256
0.6242478914439877,-0.7356292803571582,0.2798087991907827,-0.07574750325053115
1.418139870973195,-0.526144313304644,3.9284859028091166,1.7279371306096754
3.48150627217297,-0.5887759137476316,-0.46104452813479657,-0.672336102190856
1.8690550348345973,-0.8505136153311077,0.025824098003712548,0.0006127208404091977
9.509847523710421,-0.02489169189972762,0.2952349747953458,0.051825961837231205
2.5309013577222887,-0.7483420022480571,-0.3119960161896711,1.5721050681928306
2.7726095140483267,-0.17183273676599486,-0.7010948989889374,-0.45435957068959
7.563950509323648,-0.6327199355129194,1.8815249721833247,0.05861730863785186
1.3141928065438915,-0.859775227137636,1.0575543065511672,-0.7021252706818144
1.3513299652723352,-0.6593300442358929,0.7415267230523928,1.32553035627426
0.9634224039147745,-0.5695938800593844,0.3176470272608425,0.33686022045588393
1.15678878267925,-0.7433765507067658,0.006808403040035493,0.7991922864515302
7.065235802802537,0.11013197347906023,4.3443230469771965,0.021816563341316098
1.2000132780508865,-0.42450458112449796,0.08967666653046957,-0.2693977697357163
1.0944945018386067,-0.6661483062603987,-0.036615115372702456,0.7822301208001599
0.4173296587435156,-0.5359764085373571,-0.049241875478772235,-0.3698996944762447
0.22979122791914386,-0.5974154256526086,0.12889442783525773,0.35301916038879666
1.071260793606685,-0.6359237182574593,-0.06752154224559959,0.39291093324018855
1.8725178189714087,-0.43514333011286266,-0.12279995492296503,-0.4560219483860465
0.666387711642116,-0.3354107189861235,0.6519700026907769,0.9415602041851066
7.418761236057554,-0.3453039657958533,0.4238046363654311,0.49702318482412666
1.5273148885230743,2.272851805700167,0.3708121600287104,-0.32215142254891116
3.5765057462852745,0.30192266651859057,1.1221009509354851,-0.3305764496228075
4.297698214967131,-0.5807554493951765,0.24278789146235447,-0.6416857663066972
0.5956058973236491,-0.9034785824903668,0.5878935695683383,0.5435194244821604
3.3664147610702244,-0.4169871774960766,0.10888030136558813,-0.23154668939711265
26.85658749686887,6.1464551028214895,-0.29637442351269117,25.751330169366476
1.601340460323247,-0.8326548775927989,-0.040441579079876444,-0.04324566876069713
0.12666352502320954,-0.16484071687674606,0.15199760801977114,-0.7209916951080158
5.7444131617052685,-0.8019077992245652,-0.46550153664683314,0.3956027800909574
2.399361701217405,-0.5138701617943678,0.2672135050658233,-0.5347772581914191
2.5274867316703937,-0.2828642665731499,2.482058609309443,0.0004977585513072924
2.3460192038618293,-0.8858667112436981,0.6754887353011638,2.9233116172982196
3.510936048309601,0.45712771716740774,1.704382416011713,-0.27342547401136164
0.03403637878352894,-0.571024234248819,2.744227430019908,-0.6106563492373669
4.533569820791947,0.023653099005024325,0.3518935379957604,-0.5169390514257497
1.562975169002943,-0.7243690688218472,3.78752641732098,-0.8079956591022538
1.0435723085025383,-0.3334105452557744,0.6747523564732683,0.3400619990190812
3.691236111623147,-0.21738669107659458,1.5984217791757906,-0.09398625967190566
0.6628253527554737,-0.9143690927139964,-0.7187188985155673,-0.18243465270075732
2.9279715617107467,-0.6800482829381957,0.5307467571887998,0.6489515707672135
0.7091223281774466,-0.031248699055602347,-0.3743160487469933,1.0538672377481508
2.1141782882616296,-0.4780262231521323,2.250418383828248,4.097966470132712
1.2969580495829502,-0.12477812836488089,-0.39287031234252945,-0.7022260213429581
1.9841274418338921,-0.601759116881739,0.507885872903385,-0.4469245522688656
1.970512224660811,0.5185764946819853,0.06792829307299231,4.137680527358002
1.0515222623869964,-0.5204926209763311,3.66661509234892,0.04474938287899266
12.468046676204615,0.3342190228865576,0.7241868705057923,-0.1359043116168761
1.149456523771863,-0.847244293120192,-0.28869809418740666,1.7181036871474626
1.0557340022904511,-0.8457584831901254,1.0514716270200801,-0.18757915223684118
0.8805772293721104,-0.8056687939972353,1.3975289165213676,1.0217217124045077
0.7973030071190221,-0.6433428490539861,1.027558062932807,-0.00704460029492282
1.5363523295598243,0.12854068364366822,-0.7383637666165409,-0.9134873152141472
8.725471778747,-0.6095141207692225,-0.2268593459115651,0.7447875579293541
1.9345843579167,-0.15965008484640808,0.10492937522676349,0.4299410974995459
4.395803417769273,-0.5529918921694362,0.7807999962561307,-0.07786134008571033
5.772896719754992,0.44296282527539255,1.179073187882668,-0.08156970044440781
2.076484176993028,-0.275785124800325,1.5717204165588186,-0.6801355621612541
1.1605538991739026,-0.0801792406080899,0.02536969049982063,-0.43834611033672943
1.488213546441933,-0.733255688914612,2.6807932803331607,-0.33960797518218055
1.1783615151101774,-0.5480859639213905,-0.43548393619773185,4.302700588207309
0.4991568251874481,-0.3878890147208852,0.23378120129393687,3.2290211691327677
2.117634032961478,0.1727225034968869,0.5408078995803096,2.2914819178360673
4.947827971204628,-0.7036566132392374,4.416667738001155,-0.5802574846645134
0.511631281980502,-0.647962269296789,0.3377715071561378,1.3172523347410197
1.0259700897976547,-0.5048815129023854,2.1144410897797963,0.8947950790569803
0.5401134100316931,-0.5447384279609189,2.775365452417665,-0.21973298895768045
0.9224543516492314,0.11445174133252634,1.286152971632684,2.7552970764343456
0.9072932617612373,-0.23383924452191862,-0.3720185328941582,-0.12666298751781813
2.827148781540808,-0.03482141035099928,2.4425561507171003,-0.9385539141683258
2.206542807502621,-0.3900256853092545,1.240719467781529,2.475210140196746
1.285465617772347,-0.5319590652003521,0.6648819835516042,0.1898411756872569
2.0296556799790397,0.002669652867558936,-0.7709951206578638,0.10476927706517758
0.4397489645192316,-0.9009256136560315,0.9663009466295973,2.8719114312614122
1.6869659784706337,0.6198687748686078,3.6181058994346653,-0.413368140049308
1.45323498131135,-0.09832674865349045,6.349792368521361,1.8102047734953168
0.08918012148405818,-0.45144977090589833,1.2213656831351791,-0.20938622092665948
8.272670204577288,-0.008205897120473038,0.02871413599496453,-0.052876013971654645
3.5160544096936244,-0.7795715075545495,-0.0015711491239472908,-0.22399085901861604
2.3142846075950367,-0.5526635556741978,4.27243583246485,9.665721364818275
8.05312654290852,-0.25922724482745685,-0.3612280675063715,0.017773882050684753
1.354159763327945,0.1737054531147677,3.7146632321983546,-0.2715557944542698
0.38105295470985,-0.8010396384161312,1.3557804280990324,0.6122763706659795
1.1380942655002975,-0.13344981275620804,2.153972296846017,-0.26336216412884195
3.824369536459116,-0.6166666216461957,0.2894595967382343,0.37314515658601977
6.657532059202589,-0.7769302485591967,0.031476235600972347,0.02915139476434825
2.038952570972152,-0.5569683780540906,0.17357997330705688,1.2335115699539037
1.7374009889372921,-0.1743242233755098,-0.0021706766136768696,0.17041574646221114
0.7954493739353059,1.2312335258217533,0.8969673537447065,2.0508652351591423
1.6298555497698133,-0.780421299025517,0.26186480194770834,-0.5589777477630702
27.108303877661402,-0.07249136483069218,0.03869835185776216,-0.5507249396808244
3.3974246809838275,-0.0341657669675377,-0.30863016953930333,0.6875613941137142
0.9782461876333093,-0.2298393247628171,-0.02554344088416083,-0.5214710100552228
0.9608831672274285,-0.11956251364258108,0.1269553516309092,0.8671152308259071
6.216074069697002,-0.12391621460407376,4.239653532438145,-0.33396351001719393
1.1232729184100743,-0.8173317264241461,-0.08103439356094466,1.2911446984163848
0.8830631807744578,-0.6131286303942742,-0.5950901618994238,0.8478104143704048
0.5004463506039389,0.03505740035782412,-0.9497357368022666,0.02038107018292501
3.7635990460403583,-0.856526439055997,3.0017545813339375,0.8774209961117503
2.527713711930524,-0.28905011092601074,0.052167443503519095,0.18288212700491147
1.2048274728164472,-0.4245315782916943,1.4849898181657597,-0.3243636423289442
2.523241450866955,-0.31687750791667013,-0.5166652697251217,-0.5189049214776447
3.977359530830028,-0.6874186430830629,0.35445909697347666,-0.1615796292714492
1.0959452261728608,-0.46179678775480815,0.8374585807205956,0.1275726196526934
0.8032594330915974,-0.48452163539706516,-0.3476210513843331,2.7486910701236855
2.696065547207443,-0.6066453537050864,0.4595897778962901,0.5111973329270949
1.220870283821164,-0.7475360961073572,0.4657700267777065,-0.16427323846099118
0.6957616003362586,-0.47435830915337607,1.123022261830179,-0.4796701915488285
0.1513455892639426,-0.5685143531087433,-0.0705924553199545,0.8428885172937892
1.7368560166500253,-0.2709878804820831,1.1718033221421034,-0.19861969261718282
2.600722052098017,-0.5893566900766278,-0.6780563955318568,-0.628181917209053
0.5322875968351577,-0.95912862635425,0.5967662856860108,1.3372228575474523
0.7396143027588444,0.2765673161162123,1.386000756570759,0.005988900900634864
0.6012773987257234,-0.4623886028378347,1.4283693801271586,-0.07240432099798177
8.447562951081109,1.5785404541257764,0.26938827967586176,0.8877954734438707
0.9116907777087291,0.012164561858311052,0.034003644331567884,-0.42049512960220403
1.208265078363377,-0.7396137706273354,0.4169265328184686,-0.6246564260397584
0.8402745774399727,-0.8978428901935656,-0.0066360255125088585,-0.2454587030735088
1.5677981332494006,2.4645821983443925,1.7115408249884734,0.21226022370722575
1.0844652949244034,-0.8400547549298967,-0.10376672533231757,-0.36879693557488735
1.9451640402550354,-0.8221683934027233,1.4862247011772491,0.06028629612059233
1.8142151507328208,-0.31062206352287725,0.33655120079720424,-0.19039251541205093
6.223982714984843,-0.5047380472170648,0.5101041042030035,-0.4521839005124374
1.179304935266047,-0.4512819817398185,0.25939875116024713,0.5142503872402082
1.5929120681659024,-0.6871807261145877,0.8237574648026444,-0.6669434177873571
4.758564322358193,0.17541566307394318,0.4434929981130107,0.5011322476576157
1.3509989673922864,-0.7483901471373227,-0.2655150106691164,-0.12355728030906354
1.240655075010637,-0.5771197262335306,1.0544832196858427,1.3262261296137017
0.4658180502790299,-0.5497186627262627,-0.798472729985539,0.8273611863190493
0.9554784992487879,1.206116705623264,1.5167412987017581,0.6521887289475203
0.5111232041530256,0.03193142879227984,4.375145398366023,-0.49725435258950657
1.2403354255314247,-0.6382260610511301,1.4315010192008248,0.4918720403538639
1.4226745051351508,-0.5937305712420601,-0.6502985191146807,-0.2172556305452512
5.167358289029553,-0.5688806365333836,1.718696604291884,0.1541295958493898
1.0034344059788403,0.15429799687811996,6.950415936131658,-0.328345136529522
5.603675800839952,0.2961236343357472,0.7180558484956758,0.1524224209010272
1.5396706846611727,-0.3635896169732976,4.542409832708493,-0.26855789244037986
3.708231027527267,-0.6634989261652604,1.670047249286402,0.2581317547296058
9.558914078808508,-0.33243603942958,-0.619192980595362,0.2409695411154309
5.215735580935477,-0.017775680528357873,0.5863483421694111,-0.6063412583493047
3.262114026108396,-0.1782749232198345,0.21780022133187438,-0.16831632702269894
2.388024454892094,3.4749285902955913,0.18299586382155453,-0.3908863158428588
2.323502560990906,-0.7484082300167176,-0.5504709345152172,0.24015600836616025
2.6313690785646418,-0.4844397964459759,-0.7015311807695507,0.3927184628635765
1.0339068524428328,-0.3496004973125857,1.3955778474208453,-0.7314473825489706
0.8211674088040724,0.8782596758070953,0.39621871575213485,3.8745214343635226
3.021735698095429,-0.10892918432132914,2.9126540498212297,-0.7390416797323605
1.8662319998716344,-0.8239446582246508,0.8309988222254419,0.3172134176596193
3.609818113461981,-0.5219648079836673,3.401792135151637,-0.26335824733000956
-0.040924752247780805,-0.5067379434279546,0.7378241359793594,0.6565294598244469
2.385182867173189,-0.5097349822113448,-0.40256400831623507,0.0012864652554347433
10.283315123804863,-0.2096847896729207,-0.22561770132118875,-0.5472992326478956
0.7144000772014067,-0.8316724454849626,-0.8567951587898843,-0.35573818225663334
3.8816556402756737,-0.03405452887335281,1.4184954875214775,0.3442966311097626
2.919227422032325,-0.2801200012927043,-0.08565797177967704,0.18506082238878951
0.8632151155570169,-0.07610962059881277,0.9412257563236479,-0.5159530026059589
1.1855150292235574,-0.6627984401587977,-0.4107887250117431,-0.3223078967144133
2.695722584887815,-0.632167480533919,0.1624519961189359,-0.31729992801172824
5.840284497298627,-0.6065331867423362,0.11268147121084993,0.12394194273043624
1.4572951362600968,0.1421790244690464,0.776551984905753,0.6785750657648364
-0.05837261739584376,-0.685260787886006,0.5397506926099938,-0.14064703341984297
2.5184628496041257,-0.1975657863008855,1.0534812414762342,1.5456174140171202
0.9547274086942252,-0.30299559532531395,0.415925644900619,-0.3839281036195179
3.256984812917442,3.1951176493100046,0.2066654095622189,0.8087788996871488
2.0193467700676067,2.048573892542971,1.7967535225242308,-0.06753975012288282
0.6632541138075716,-0.49294136110643216,1.048735220127539,-0.37442659687076363
1.5691246957772518,-0.05100696102433244,-0.7528783212764568,1.7422301515578975
7.209969918171613,-0.44111638421095334,5.740317832450899,0.3052048603371784
90.4029739467078,0.023991518874845186,0.7980087515813696,0.30719523760475953
5.411605863931646,-0.694037981521286,0.7571515257857591,-0.032729976131294136
2.6848546266369593,-0.10615761786429223,1.1041974258066274,0.892293730756847
4.312092940917642,-0.4479590411755954,-0.11769798205812465,3.362470520184049
1.1506832246461238,0.3816993128722661,0.898952335410869,0.07487211891075662
0.5232718837238599,-0.07019808533527205,1.7988243164478024,-0.5722300727377967
0.4086517232179985,-0.23149349531757524,1.0318297572304953,-0.7147411451049521
1.7637739750799128,-0.34938533268414995,1.2430550821659119,1.154165800630257
0.9669311818832869,-0.7060269217375463,-0.5538842336773531,0.4578074365043123
0.8613618268852306,-0.7994718344872385,-0.4862967060376302,-0.6457613193251648
4.503809428091979,-0.33710694992751244,2.032707712350293,0.4851437758579997
0.5054183539252659,-0.5760187888319447,2.0996601449860597,-0.33053568622473195
1.1466679241226263,-0.4787512723416526,-0.6815188324681957,2.509335943410181
1.0266568840660195,0.40946251754924057,4.285757800298559,-0.25742862517091003
2.189041782826527,-0.21766912360587054,-0.18861600122504263,-0.22080710868965914
4.767304614818,-0.4525856154047482,3.4586231599092194,-0.8411993576856781
2.040063499651568,-0.07898455976434404,12.165928885953724,-0.0001936551828037869
1.2848701257271888,-0.7782609064851468,2.3689212164546487,-0.06214996749391832
5.84012538331425,-0.31012128641982273,2.706318648087928,0.14348028971240123
3.9897851607664574,-0.8221366647796172,0.21033208790553526,-0.21677254153714076
5.72755037205669,-0.23435823898948605,-0.5690763370004154,-0.5138369730398196
6.948844138790936,-0.20073239117771724,2.2946194916870186,0.01650104565751076
1.836841460364956,-0.27825566379117816,-0.4508593198381964,0.5936278316449524
-0.07180582923250967,-0.821284030545515,0.5796622729631618,0.2831560396747541
10.893148972058253,-0.81102655554696,0.22416518947109698,0.3990807569544681
1.4185227350549474,-0.7131956471393486,-0.20155409493614362,-0.5989501001655388
3.958401134636092,-0.19899657057527664,2.7597819608408094,0.025708619832701674
2.4988560246953955,-0.33331917324922455,0.47546828349182024,-0.30272704754182855
0.9339920483922362,-0.6595286701223132,0.12951453082828523,-0.44399579798689826
3.7959885938945463,-0.2922960907608342,0.493780252672976,-0.2941429939438426
0.4429324723826209,-0.7918759035244967,0.5458338571656467,-0.29717839999636697
6.535698263637939,-0.7620313638907457,0.9192564316600698,3.7522116868816093
2.61485385726129,-0.6365678030775292,0.8170088467100265,-0.5703263986566418
3.5972963921651324,0.0517491095834548,3.007446197037643,0.7366059429947847
0.7675308345137422,0.8054709873512467,0.2600618002442572,1.3999642545207216
4.983825938593879,-0.5659048913541815,1.7019057418088668,-0.6079458568840772
8.722166501996073,-0.9337689891062022,4.481605204161908,-0.15557380291032896
2.1000144877659426,-0.0029594473416363343,-0.47872252526548953,2.5528248669530598
2.148939313054854,-0.5025178226485962,0.40170491084132,1.2897636752201351
2.161371697484929,-0.5547071683912781,1.0828771800784085,-0.36227658279178443
1.8047457082381233,-0.3189390352491531,-0.5228760986690386,-0.5947931395546493
1.722768741824432,-0.43242628419635565,1.0343915022894894,3.104616128317061
2.5846413289657835,0.7406900375943304,0.3059586481883154,0.001423994604305534
3.1840427766831514,-0.17097715762720156,0.5503970849325024,0.9255040930960488
0.58107766258676,-0.4796036727921319,0.03679528352587158,0.061543735668737165
4.535335879505421,-0.055527971197307346,3.3412234930046587,-0.18252249443583912
2.193711204946604,0.4798897694304334,0.2729519036878467,-0.014769772678093429
2.5689150735520347,0.04391630784241407,0.5518181644826783,2.0593902869767358
1.6995696178864366,-0.0676795852600518,0.7467789810631338,-0.832146939976268
0.9421569370646556,-0.6936904877151125,-0.5746080922567238,0.40147483962587716
7.114145383429424,-0.8521737733430577,0.8971785647084243,-0.36682430710335856
3.922383011060309,-0.8555344910808476,0.5272225751132702,0.16204601304818222
2.7019717395094736,-0.14374624437928674,-0.1272451629947935,1.1512625706494304
3.037570054713246,-0.2796506751787866,0.8143343800382967,0.6853256859096593
5.446677069073288,-0.11243688481549252,0.2999402397040376,0.41470780866216317
1.019330510045119,-0.425898705116335,1.9176059088427668,-0.831967781903463
1.3729494372918878,-0.885165703219557,-0.7613640451276875,-0.1797136480376592
2.429392971317897,-0.01685677855924661,-0.5005863364405785,0.369140814491995
1.5960188389401582,-0.5935560022201198,0.669762729621949,1.4832462051554072
1.4293777930830975,-0.5305996725225512,-0.062435198011893234,5.3004678303090875
2.3755962445483187,-0.7230343583453525,0.2999775349857474,-0.3858034897217878
1.109201423039048,-0.7188297381842814,0.34878426983339716,0.05132984845736255
0.36311386405163093,-0.18152125128750796,1.0988163899296648,-0.7742658914975873
2.3252578973717686,-0.11523205529678726,0.9500794817800984,1.0288904562407657
0.2679022607084449,-0.6664342204026694,0.2790320310250889,-0.0761887596652725
2.6734445981400037,-0.6872573690237922,-0.22517143976371323,1.3724165894098435
1.4650846735244785,-0.4614065220326785,1.1029653301512807,-0.37750160890384477
2.261379029618939,0.751356708259959,0.46941649134637653,-0.08411941294049063
1.647196363373844,-0.49322383651357427,2.3554893009349684,-0.4964625750302363
1.1359206615034516,-0.7609721161405512,1.5120808135230144,0.1413384878828019
4.743453220829077,-0.8007083088532407,0.6194383321576391,2.3357387786685777
1.2137206487045837,0.570547709365574,0.4894879029861825,2.621446875906119
2.2166019886321546,-0.5637799694310168,-0.9278651382044185,-0.5769504528884788
1.1791828826858515,-0.5553751509474223,4.0729930449151714,1.4178652514411252
3.514462185017532,-0.5693464886632904,1.1526559365429967,-0.2391765640402902
2.019909299633965,-0.2930673646387757,-0.29320423796472617,-0.7643251477822159
2.6645200416194816,0.12817435170020008,0.2536158443566592,0.8483154370030612
1.1484769561566108,-0.5181615416059466,-0.5844224537485745,-0.49256127964974705
3.210926038129667,0.33398158110828136,2.2399651323645777,-0.3955987434896209
-0.05080833680686214,-0.6380929194276731,3.6328650579312507,-0.21269747835210429
1.342856188358725,-0.692853847990663,0.668728084379699,-0.3521699111831912
2.7958451090435594,-0.5978814133123398,1.3620041868220691,0.191637678619607
0.4902893146236269,-0.45409657511869794,-0.5687692760732938,-0.6530048974337084
1.3332616553866043,-0.3403594970920647,-0.8285485169558531,-0.6491664138636571
0.5861222117119622,-0.2901080918108878,-0.3610582334141659,0.28250287056626644
1.047680497715735,-0.5878632443661036,1.4644092886109692,0.10457186801827412
6.343795081096521,-0.2889058075766249,0.5436583263574724,-0.6458814786237878
2.869507217138249,0.13555515259309425,0.06969435350318376,-0.15673103721976078
7.656826594808422,-0.612380288366593,0.9313061037660992,-0.015467729793825269
2.19991982482086,-0.8439173117001253,1.6174311940875876,0.9862487860923734
0.05312420589608946,-0.81914801358376,-0.23577334243604864,0.4290726829095477
5.49059576261367,0.5545511228536761,0.7088315726531582,0.01941414544293374
3.958688991418385,-0.2647473163866759,-0.8649200103823893,0.7213053495398878
2.8346366685614233,-0.2634358856167899,2.398836628326535,0.3188285024039499
1.256680888399388,-0.08475231476838219,0.4993521533645553,-0.16229194974072902
0.5220594448031166,-0.7492640173765843,0.6779894773507296,-0.11186672455172186
0.2774963569909945,-0.5268615996561443,1.185761334967986,-0.76176452246256
0.9696057796425144,-0.3286642326946242,-0.14870950648256676,0.0940838039488816
1.0097251246292362,-0.7068307664999032,-0.42205536447428105,-0.744241466629278
0.4807305577584471,-0.11092722618050388,0.8179898234240213,0.3959551317942336
1.6564760882776715,4.3373707930706775,7.077620801696906,-0.8047258977053016
2.3323373685820985,-0.6218580164555138,1.532255813912264,0.6478933769967417
1.1414554036168605,4.793557340174946,1.5313874859183665,0.28252995067807984
2.9111555897498085,-0.6087508643133048,0.2975664170208301,0.9088456595941334
5.338146539474684,-0.44163122714178227,-0.3504938075219004,-0.3998677218184128
1.1966095638519239,-0.4112786253392233,0.606959135159364,0.8321512935929554
1.7412855886244993,-0.8659876245289423,0.7733315380342947,0.0007138456033712881
5.1614355911541185,-0.4942816068706445,-0.012480048030370061,0.1848672989949509
0.06565884516119902,-0.8254240061904475,0.1809675491410807,0.5494587757666691
1.0861189740734774,-0.09259482699029864,0.37434857338059024,-0.34370336633070386
1.6249625975714976,-0.8678874421074765,3.423298904164965,1.525644731230953
15.919193758613119,-0.3086707248260091,0.8038434360384177,-0.7701242038145899
0.5735710053527541,0.012561462215708419,5.27352296294678,-0.025081207346640988
2.8453791845837464,-0.5215389655225918,6.3008745975567875,0.17414945113801172
1.9659288823767596,-0.5257482942842211,-0.5932663444183138,1.5557048075243878
0.8616571438222709,-0.5873189607484646,0.2067666170931033,3.0476716096748673
0.31570044899113237,-0.4505251975032598,-0.34528273515051366,0.5166659924569417
1.9624825183052819,-0.5685456279397403,-0.38013606123623633,-0.06625168675481041
1.4964308163234046,-0.43739119296670315,0.711262691098554,-0.4761826405155931
0.8278249953236689,0.9135939547950134,-0.30777058367837395,-0.05734021738668482
0.3194400168983422,-0.6062569629826522,0.7722927108890019,-0.19210537908029646
2.9185097275326672,-0.6261533175449848,0.11940099211563271,-0.8661180257823907
0.8227923335379326,-0.2814941383706878,0.051089085424750325,-0.10778414983176643
0.5761685867091939,-0.38298378197096894,0.20025808333779205,-0.7139422705393439
1.431006148964567,0.1351708239362428,1.4760875549512202,-0.4267531778864738
0.6400533179717758,0.3354517607519114,0.10559485425592685,-0.5983733762823233
0.7885317101013714,-0.6882487305111855,0.6035542655775359,1.6084099116507455
2.1763843244444607,-0.5751517928120657,0.3842282084175972,0.04415690688297591
1.9087389051096726,-0.6469269405258011,3.178706989581718,-0.16186256144719924
1.0634337325513057,-0.13982852713351845,-0.8511294257643215,2.188052169377016
4.151557892890979,-0.011286254784731109,0.7654282628609776,0.6588803881592262
2.939084565478328,-0.20071036246569063,0.6041190241454728,-0.6013199248141845
1.2416040546989664,-0.8158511209883277,0.9149459320071556,-0.055072327379798725
2.001249323110397,-0.490124938562317,0.2125163193558557,-0.22688900465637019
5.109562432102325,-0.3897780527036284,0.9038676480759378,-0.3715662196823739
1.995391039181598,-0.7273662765583326,6.421555547855535,-0.3551983264633053
1.7048256743819499,-0.4993505203183046,0.472082097017434,2.060870015459636
0.05930491405845317,-0.6877604124848355,0.9523198829509436,0.16692999631300087
2.9515848630651815,0.35362285048501185,0.20594566251567725,0.822464602340417
1.0275135403160514,-0.6162424001498168,0.032883525429150184,3.809464714404209
1.6467669135741647,-0.3203157546748556,0.7088273852071469,0.29537220965357935
1.21944142213844,-0.0649629339758403,-0.48868274602147,-0.7006462968173377
3.6087620849123097,-0.48267000718344366,0.6810790251608099,1.55948940278699
2.9991134616803143,-0.4393965635513578,1.5228708756107836,0.03135901205887737
0.07168578414331472,0.027164065880625365,3.025952345304135,-0.48279527662683996
2.403718235941461,-0.3278657090193262,0.028182751724553867,6.907633015946001
0.9259856520616878,-0.5035296518594339,0.7074489766526599,-0.29582973510359467
0.16477687434152188,-0.7377615838558365,1.0310607631390956,5.04629103793719
1.028543646089247,-0.039275256561184135,0.35504684864423774,-0.18915999642894177
3.1755502281083707,-0.3723352701603099,0.5904771942544016,-0.7340665823288289
1.7923778525069447,-0.4918335695230651,8.983635443727254,-0.6140465706684028
11.957750745143652,-0.43400322855715145,0.5668542132658729,-0.5963068816338768
1.5470203207789703,0.8702386063350258,1.9617184406058512,-0.2551376993741905
2.153370605533267,-0.3717404497870901,1.6220884581505604,0.7933798777773551
1.8128996638895645,11.481480636070904,-0.19908441126854193,0.810943871442108
4.398848424933506,-0.8036061290914132,1.3464182226653785,0.6382398637953841
3.7646436654154387,0.23013815839621055,0.5551979029699285,2.6561140105309193
1.9680979749358491,-0.20248580076214762,0.6385406825555779,0.45017409108042106
1.1331561394578906,-0.4095299173208007,0.5935644384796472,-0.49884051806626994
1.0824853643506809,0.3435696763733813,0.44888618699189786,-0.072275797609749
2.0892901026655255,1.537170709710359,0.7725789933539782,0.019108007231614543
2.206022229542678,-0.6428091721132516,-0.12692131860139844,-0.1957079766034462
1.5894711930295053,-0.3459622669499438,0.9084827454334692,0.7029359434949651
2.192701661549771,0.26007505280368903,1.251419378515255,-0.7152809876498248
3.520552586393732,-0.6045201522022521,0.04046158744101369,1.3853299415137648
1.58541254358085,0.18787279331800866,0.9858770258220981,-0.6819912042384211
1.396137459662456,0.4199037366327756,2.581602591477324,-0.6414680044504022
2.790536572439485,-0.45692375363204385,-0.7623607715512994,0.35820102915013385
1.2540647134465304,-0.5519211356467036,0.7094629523188405,-0.33652721918600637
1.8461440303530487,0.0895996910938055,2.5568424388485593,-0.4810669821772591
1.1968563157952752,-0.6891153435334936,1.089360870558873,2.6328392663630673
1.425016109581359,-0.2869756993261353,1.23178154334944,0.07982455746223249
3.3988809646715854,2.254470514302832,0.16809014479544127,-0.3977231653257134
2.2127038308176665,-0.7594274848350155,0.5367864506497337,0.23291683869088664
3.183065378519065,-0.6255902104352167,-0.19913023299537413,-0.29064400890591824
1.3583520048635696,0.40617576344587425,3.395697481860191,0.5596932862018433
1.3628280912902673,-0.6176017253660356,1.2791571067429302,-0.1681684951360456
1.7023727490523592,0.08150512782954178,0.2465634823206897,-0.20753970018274104
1.1292744765778293,-0.09172476275330965,7.583170784871509,-0.4799212213994316
0.6647580392926937,-0.4445044721558301,0.8563659301351849,-0.6491594718959287
8.743574823345588,-0.29617252914029324,-0.32719748552592864,-0.06807546457410485
1.469743955370816,-0.49038683048335563,0.5485702832375456,-0.47434771131337905
0.9186655833733415,-0.7764804960565101,0.4965801740789655,-0.5414809798033906
0.5243492265929677,0.5912602711506516,2.2338657983388437,-0.49362508728810595
1.173569992144007,0.03356619505258607,0.4890085944912448,1.7108450687791668
0.6427413532324486,-0.7591055692477422,1.9843640824444906,3.0099257767296255
1.7660567943476404,0.2405852298189759,0.36037211368872835,0.5518399173415613
6.661586213167118,-0.31966694651629113,0.06504243215590977,-0.2132359324876173
0.9715833854211704,-0.5192432663287494,2.1209073351866805,0.0993192891621717
0.41744703954506135,0.8561742462162389,-0.5093621635683335,-0.5856353547717115
1.1491698980574703,-0.4040760600072262,-0.19938456376156155,-0.46609905715149813
3.0083571675025986,0.0822665835432137,-0.2226343807037544,0.8193129126797998
1.7791976418735245,0.3541070913396296,2.835918609294166,-0.4277429067225452
0.4624191432016804,1.0604494812568088,0.22291567070916063,0.2226867707081528
1.923426527785285,-0.8905513799006907,0.27693637256364245,-0.10016226903741388
2.733052341461618,1.174603904100123,0.6273237879121514,-0.10667256688889726
1.1650230050863728,-0.4958282721006523,-0.705664272505174,-0.24386646223293207
1.1996640478236777,0.3983475841446742,0.06264891525705041,-0.7940395235708659
1.3302384081729124,0.4527234307591761,0.04393876918098383,2.0769822532631648
0.9882330547310998,0.6982911341411269,0.38169766495642454,0.565394730674091
0.38550044327372035,-0.7615496200174149,0.4380911737989197,1.4224779186840268
9.07019367094321,1.446416868257773,0.41715125631029504,0.9751331181507412
4.600588335972928,-0.19019212104138306,-0.039124111084699376,-0.5437241149203278
2.4053937115956443,-0.43020033865687723,-0.2525624401920794,0.616415694763923
2.2522055047363136,-0.6261723276126343,-0.027935993010794635,-0.4446481083962217
1.6141814831233412,-0.6795981412790004,1.2913334606027203,-0.42060554064254563
1.3354788982595678,-0.8754214255110763,-0.17517040115658822,1.8863735106704014
3.141041893169139,-0.8920438657325817,4.17746199099717,-0.2567451684712082
2.081257973070481,-0.4260077889471563,0.7562720751186816,0.3812328363323807
2.8488458690707863,-0.4412633016561026,0.3069542267709997,-0.7679030633517887
1.6029889199842566,-0.267966411572075,-0.408829458539953,0.47399072528757946
5.861658489786176,-0.8152197423563897,2.096483113084189,1.1446393023196446
2.373273937375268,-0.9649881602973069,-0.26120208538218737,1.334351281775544
4.271888551781641,-0.7396291332698047,-0.02812927073213356,0.18680864058611135
0.22563444218021522,-0.6085644377617375,0.04972274942857946,0.6300506432605728
1.2395250829188686,0.6060306483824434,1.1056483798978927,1.0809192837075638
1.5108782088442707,-0.3094854756040889,0.3502832513286249,-0.9001815270179735
2.4184616824939202,-0.3957882369954906,2.854091266121096,0.03182019814616588
0.17489812140562777,-0.5366949894818909,4.452116609630737,-0.14556850652651265
2.275924423956934,0.5498687570394929,1.117381090944943,-0.06264643034302142
1.6957729528232912,0.4030647891523098,0.6636940843785859,2.2486590031385845
1.6035287174983233,-0.6980220791115954,7.180070290227468,1.7283286306547403
2.7256856478332394,0.49454399227736134,0.008548344595410429,0.11246321504516432
7.011517087058053,-0.7714628937706247,0.3089914473788855,-0.20847186343623236
-0.02455244532506995,-0.6984580894177115,-0.34576247760937384,0.004980296660126005
2.2782719552749007,-0.4988624950852496,1.8240772249759623,-0.5826350923063268
1.2886678795802782,-0.46483614152352437,2.294927737654026,-0.5058614734082135
0.9049127724508861,-0.5081538380269055,-0.05889559730226113,-0.06621597732084472
4.987470731155503,-0.06975607638237646,-0.4284396681324496,-0.4348208268394784
0.8970811576820432,-0.6975087143051125,-0.08879473825480655,0.11280852616072168
1.857060614475583,-0.5683863406866376,0.9144940967797621,-0.6057701757535587
3.501854031503397,-0.5932752296445977,-0.4533124141852468,-0.11883036898834887
2.446131436175333,-0.2683880284186956,-0.395187972994132,-0.0872051828739887
1.9670014658611685,-0.20853425041640927,-0.3422608663736322,-0.47300006967602226
0.09399265863414663,-0.4835867790164414,0.16503717745710111,0.05031746996665376
1.6882488528405974,-0.35264758827116627,0.0014598257962927796,0.38978754825886464
1.4799867306868717,1.3112246734028332,-0.5218362707732735,1.0815935728194188
3.7516643217495202,-0.5365820538272932,0.867250525758978,0.31731278344751934
1.6297084468702185,-0.7067025781349305,1.8729648224739894,-0.16472543682319274
1.790906652068784,0.0672700187671822,0.43301491935801995,0.47105372129258694
0.7802605150000708,1.1414852175969412,0.5283658706927614,-0.31102688564647285
1.283470665232319,-0.6149810919930867,1.0545232005358334,0.31942169367718876
3.512405936875867,-0.16647344308287793,1.00649859379687,-0.0162049409696573
0.5420842814543758,-0.5037729728403748,0.37823322699813744,-0.06174030053909074
1.3587583894980497,-0.6593586625687817,-0.26479025392760214,0.5420014616736752
1.4796062189726649,-0.4555644615561748,1.0563944562970438,-0.8153702706385176
2.3052830307571894,0.8762792770812009,0.17416703125688104,-0.34365623826072345
10.818221187325964,-0.24365849290390296,0.4726653012445443,-0.08416543114477282
0.21899068047043446,-0.6241420049714876,0.33869708485132666,-0.7083540630746322
1.575172365580416,-0.6172501514889795,3.3109889677782087,0.1978677194632541
2.1844851852894824,0.18703127038723277,0.9651503771931902,-0.23803186061092452
0.8053172836229319,0.01173529214243918,0.22433776097036806,-0.3547226330729958
0.5837467331413875,-0.4691471456620079,0.24887031556278028,-0.27034129044096744
1.4370746593955093,1.5364931201769814,0.22390185065994817,-0.5979365409792043
11.964903916631918,0.11084637163024413,6.157689397047913,0.6132964635759541
1.0241099045410955,-0.5873949853864449,0.6663862373328373,5.969899761495345
3.5244496834052335,-0.3581183253386713,7.013492974923269,-0.3498473636887355
0.6957356087158697,-0.30057233486011825,1.005318405757639,-0.7400407663899776
2.730676581601248,0.41546290783807605,1.133688919738832,0.3006184997650658
1.369641648031093,-0.12192871885525303,1.02418493059937,-0.06443173596014806
1.7625669272599698,-0.7904912057971546,2.7497123786080206,-0.7261547948646397
1.7489909921280269,-0.8309558047338912,2.8188298857758523,-0.23018239904968174
1.3823280923865906,-0.12433251151507174,0.5758714137104379,-0.3850609832682187
1.745610727299575,-0.04216044170440936,2.224035744158349,-0.38658072835073976
1.9295306093185438,0.4604211530953981,4.097547552213273,0.4806403715025387
3.741511481168935,0.05590719671232991,0.4627230113613072,-0.7594899307906301
0.9642321588360983,-0.782519050644506,-0.3710523882129897,-0.48596327679929785
2.6576244083631395,-0.46006522692453256,0.08428424278101598,-0.5744392983899109
0.30336604342638673,-0.18828903890897508,0.23924599033576954,0.4566394885015723
1.7204071709381887,-0.647984829427432,0.22927361873729857,0.19054822187324816
1.256943093779146,4.00231898108909,0.6736736069510243,0.7842579340340055
0.1013495642229536,-0.6716796612985649,2.055745098985329,0.19387254504915097
1.3949643863579508,-0.2177259489379344,1.1479704845170748,-0.34371852474076947
2.744731168054342,-0.7509041807751301,-0.3398319739410166,-0.2698489971280752
1.682326539764047,-0.001916685501255344,1.1484673665199043,-0.6319782098749391
2.8550225737885495,-0.5654481615039324,0.9688377980010872,-0.8965532551034414
1.0339687717676185,3.894848875535506,1.9543047048506055,-0.36916008586430893
8.821968546727831,-0.6293100346771299,-0.6728917103004264,-0.6228923220620164
1.9276315687050012,0.2542359523430764,1.0580831234459254,0.030146649724899
1.27847340939587,-0.47989793521746027,1.1783535790060973,-0.4205659341313257
0.529878379810957,-0.46128916922610774,6.469368425004652,-0.6510908287249055
4.289252906216928,-0.3198430445144259,0.05666463224299578,-0.2622142255038137
1.0061439933619383,0.46840330104784256,-0.0857138326749336,-0.7265120591834644
1.8090899287124045,0.5687788665959517,55.10758959258418,-0.13830162999880857
1.4525351159055577,-0.7246639912630685,0.47090364567521314,-0.3221451360869062
1.0423073599923445,-0.4917256649069254,0.5454907223804413,-0.32420437105579236
0.7179482842772693,-0.867423686080247,0.9895763901186534,1.7507831779065817
0.4706338649012263,-0.39511873845477896,-0.17840543597806624,0.8082227583403416
2.4262286745261483,-0.8775122239137791,0.7780829103273228,0.5348835364405737
1.7720413024968988,0.0628426228589467,1.7869833322771242,0.09924691738611657
1.4560579350974385,-0.03735240942833018,1.0013128989171238,1.164225944817343
1.3623523757343978,-0.6454425176829492,0.9746317312579977,-0.43805814384867625
0.7246905222964142,0.46818282766319164,7.0547186402488276,-0.09897622885404678
2.0568152630240575,-0.8212649548834621,-0.16386404361963802,0.6375467449722056
0.27736369538985217,-0.516280124501977,-0.1766363886600707,2.706634399549197
2.4728099792441216,-0.16606322371158821,-0.07451384703609021,-0.22860255147336694
0.9502892571563657,-0.9709022160508397,4.967616836973968,-0.7181600721500364
4.190743718495872,-0.34691868111403956,3.6991784913017884,4.54471567064535
2.666520335768557,-0.5631422938498176,1.550510515246129,0.027283405606548072
4.687138192738887,-0.8047812048782134,0.6701631801225618,0.9444085551730736
3.2008805264720452,-0.7512985842581748,0.5439957483443223,-0.3355816541907325
0.671038499352707,-0.6808604130031394,0.5325353417708611,1.0187668953335098
0.5671337767054252,-0.5567121240787687,-0.16825069164017292,-0.21967723941101924
0.737770995334966,0.06670269265103257,-0.6113182020226162,1.0407358887336304
0.9656812600589213,4.075007898154651,32.42610434398988,-0.4654959537652952
1.0094081333825464,0.9790684027697214,2.067759656697558,2.5066152307153526
7.223128475622927,-0.40995329136079517,0.5424218447488716,-0.2957148821674832
4.676746795914827,-0.6711415430749872,0.5433822325868474,1.1995475373509232
1.9304897297431687,1.067334776744549,1.5217312198061594,2.802399801030448
0.9901760161062787,-0.7424944866118681,0.9102745602323659,-0.6735207099489595
1.2763783992980646,-0.3639263770133333,0.2965742436571348,-0.29560317678793446
2.0613212209407905,-0.33007556463658216,1.891620306049469,-0.41499071949719013
7.344841169849559,-0.1457541659905116,0.2401785426698766,0.03823246933346014
0.48273833238065067,-0.8887341280427854,1.5917864445924126,0.3768723885010705
1.8753227591550745,-0.290570366358184,2.4867440169913833,-0.28987023213319296
0.8629414430522544,-0.8356976774498283,0.08238955149958382,2.0866713073286802
-0.0788969156883571,-0.5088301373541316,1.6490794592061246,1.050942843110457
1.210400958521161,-0.39294233112601906,1.7497305204613487,2.4790094772670104
0.5144476296995202,-0.6418261549892358,1.5766525818731547,0.7322777868947781
2.373451234123997,-0.1284001360400957,0.5133160771228085,2.391473129793613
2.0688947700826765,-0.08060382631725294,1.7610496572354721,-0.6624849181120659
0.31965687289203837,-0.6768739441716329,0.5386393449435627,-0.5415506321655965
4.0169197342441,-0.5076945546220779,-0.6117974543998426,8.682507586407885
0.8558374016729344,-0.42664679845804276,-0.6566728884411707,-0.6082325361280658
3.1343304390727713,0.35106061170661795,0.04576801219927895,1.1843972270789305
0.9042603167156287,0.012791585456576549,-0.4478127626867475,0.4089188800110355
1.0158545150188165,-0.15385323564125475,1.633103363966955,-0.2909657561426162
0.7141327280744012,-0.4709809542176596,-0.5823758358327374,1.413419788129572
2.023315092724285,-0.10496225878408694,0.5268845508187949,0.7742133721998257
3.8602763565619727,0.14677595262235288,0.8320785467316432,0.443603174395101
3.130130580861513,-0.919840948031092,0.03696900351261223,-0.4738660544132628
1.493981994063435,-0.23029938143229012,0.36031031226158183,-0.44335937819556215
1.8499988842139312,-0.7252320273233623,-0.8419075023007963,1.8038854000742361
1.2721121202710601,-0.4341504956228629,-0.4909512243402099,-0.012059508649733264
2.233902495656191,-0.7773570275081537,-0.032624695680665616,-0.5375744554232709
5.059285893596464,2.068189850265236,0.29177390675363135,-0.7104182141122107
3.425259265287874,0.0323706394770884,0.8824559216399772,-0.35554375349510314
1.6401895969929003,0.0485134094633104,0.09579460693855513,-0.7971806328889625
1.0718089557938555,1.95088450233493,3.266161660612519,2.7093515907889123
0.3039242580501469,0.0652473592611782,2.9376783656998744,-0.24176453353291427
2.481574783090702,-0.5851281548802201,1.4165243171279078,-0.014678049955789585
0.964966601722721,-0.7378984776763655,-0.24289346349848706,0.2834814548207989
1.2881489179378929,-0.2768245757395308,-0.23682187765171825,-0.11856798262223045
1.1204610432453452,0.11078068042280398,1.5148751190666343,0.8192874043163698
0.5378285535096643,-0.6619477497733157,3.0179564861771215,-0.4619483200452279
1.8888891217249437,1.408471466142653,1.2366660141009924,-0.5360111385993017
0.7422703425704897,0.1554885400930084,1.3172311123969727,-0.43191077814853973
2.4097775296487534,-0.6611622837995086,-0.42078977249637195,-0.3727503407422459
1.3790309738708202,-0.6746001468050256,7.148998407050639,-0.6693882497384486
2.141350931408135,-0.25183515048848915,-0.12458853219238675,0.269440407471897
12.296648966108563,-0.7231758572516993,-0.2504664759204497,-0.47977201937037073
0.12324722303765023,-0.5771854095043087,2.4920184191557935,0.31327148808433614
2.7970417362759883,-0.6029845563041238,-0.39668231126676823,0.07325716437345542
5.210726646612309,2.2867636909362647,0.4039442365313364,-0.5043919632182658
1.5617250588043272,0.2831634000523462,1.2279736858918815,-0.198692120853328
0.8271513235623686,-0.8868567887032154,-0.3519492992098594,0.951358695208852
0.5144922037043893,-0.6565032168942403,0.49057750701197267,5.774215554874905
1.0880068720442142,-0.8443409109424087,0.8346449414103971,0.4154757490184362
3.710706598451816,-0.5887753573438343,2.2744184638373937,-0.7357278483305776
2.705222842798886,-0.7352653548741972,-0.3571902047378781,-0.6260578813401472
2.228067077438151,-0.3669471213177886,0.9298746348904241,0.2698639647996923
5.390617146883887,-0.43850825763648305,0.8551666761821943,-0.8015978320376385
3.418919978329404,-0.3007942505136869,4.116840118248753,-0.7815480039019449
6.466077442314258,-0.4326272218033812,0.32079522967700136,-0.09560403647516624
2.315273708324123,-0.7912748349132953,1.125145536038335,0.585546888273748
1.816697429042529,-0.07983648573963653,0.14595811037056117,-0.6359784285319183
1.1084213819842432,-0.05354402099469169,-0.004088998592485682,-0.7284637934328159
3.1645451355114806,-0.20779542457467837,0.4568403115802784,1.0310225371025221
2.401672185472253,-0.15313335445777465,-0.29371725887390143,-0.4651859156055431
7.240022358481147,2.189834361395537,13.288540607780867,-0.44672244606448064
1.0327935853105386,-0.3689474235787995,2.0807463798063353,-0.14517638036721126
8.199674510638989,3.1307225026110785,0.18336195150032464,0.5184937429128686
1.442618137487004,-0.7104914363730354,0.5595001377726516,0.7895582202146396
1.4782370000400813,1.3033599414848447,0.895519376944264,-0.5558682846437788
0.8918540522852947,-0.7854600813859226,0.5714781396371769,-0.2588011657887753
0.8601845330945486,-0.6396921936717774,1.625568173816624,0.6636410604989671
0.080120818875552,0.36030288043737,0.28012464574312235,0.07055702245426265
1.0459770213175807,-0.09703372566502466,-0.760176223892515,-0.05200056261999575
11.293056464445208,-0.7002123837711849,5.540063732095364,-0.6803659421720722
3.223194395854229,-0.6798745751421462,2.7511269614453875,0.2164010560755767
0.888594237362041,-0.40619008943063173,1.1062019139566117,-0.42874449474193443
2.0653903892465,-0.5672087889470985,1.3808652774955146,-0.0966183695038545
1.4022669598000017,0.9228024870244969,5.121922561347616,-0.19682729751488437
2.9636766067071894,0.2556421764185062,1.706536943454521,-0.12396883641323952
2.905753361439972,-0.04138979602207382,-0.24810377277353246,-0.5761461840488893
1.9884016682714876,-0.4636091769508782,6.1220225888384885,-0.7744590820764178
1.7351234631579855,-0.7227950020620884,1.2552322249371128,0.21788310141184097
1.1510199265389334,-0.4804643404990644,0.04115190373391675,-0.48056650923075883
1.640754784376354,0.4097023254279939,9.300539531809676,0.21260576962086875
0.11348923456061133,-0.40644260344297034,-0.11594510775323563,-0.5773032784023333
1.004673487363318,-0.35076754625176954,1.2996526192105025,0.9947200271347896
0.7715319634491593,-0.8138111653220589,1.7209987725524738,4.439943666854567
0.8016311144859669,-0.6936028377357858,-0.06228952478136296,-0.050642753997339085
0.3671090461857811,-0.7268598982472807,0.30810302979446647,-0.459366213032803
3.1772769107194545,-0.6757682982839982,0.10146369048479897,-0.46951551295460536
1.419992925387033,0.34048449664410607,5.911368598791166,-0.1467384526911516
0.8126731848781028,0.5602050549585531,0.6432557068206832,0.12417411084036778
1.3176081667059836,-0.4405228925125353,-0.10367745444957566,-0.867135902076167
1.814064914512548,-0.11262491366994176,-0.12558392773884064,-0.6342409052851399
2.349308867902365,0.48384880866954894,2.9032722485401656,-0.3358880023294142
8.835529592785905,0.2918228525357318,0.7067555397326273,-0.37437176996411414
0.22754358517811513,-0.6858777253381685,0.09324805178732354,-0.19437436014853926
2.686706260709842,0.6896006292362884,3.0554251043857708,3.479615938952418
3.1228748886659528,0.1713245912471757,-0.44873987191738174,0.09028562826061237
0.2942645329813198,-0.8632216677816614,-0.5014653799444048,1.5075767912197184
7.63163668471241,-0.006591450742187366,-0.21001769848358853,0.9861118940979154
2.2604760605178806,-0.5975007877340456,1.668007869554279,-0.4174296004254112
4.154813062525461,-0.43463819659652614,0.04226456022553782,5.564574547526987
1.2190284234507098,0.27263626478191183,0.4104681907993877,0.43579883842109934
1.5194772602562843,-0.5953420975152339,0.19812272644067264,0.18616083735138456
1.0795928898675502,-0.47844146815966404,0.9238735289546742,-0.4928077819456005
0.6982064220640294,2.745168905271282,-0.731739475317932,-0.536672043976764
2.582470840811539,0.6763164460601876,0.604311985510827,0.6303751849075636
2.8812072243615896,-0.07041793714943545,3.359540328121297,-0.31627427186752155
1.9837366385978226,1.0577091944813142,1.154380144268723,-0.2709716725857265
1.0225094248102318,-0.8068505644963719,-0.8191136489098763,-0.33164569546066724
2.555539664770579,0.6375911454835754,1.9276819180073863,-0.5740721078537858
1.5873365464781868,-0.817159595464704,0.5571850643746403,0.004957557473071361
1.8913732164847636,-0.19452990229488631,-0.24445298504040702,1.594030646403541
2.7622806111114877,-0.47810604575997084,0.1578820877235012,0.28620668902757007
2.1126991932612547,-0.34500909923310297,0.32459189131204336,5.119756654455084
2.3310516736214546,-0.25911747899899373,-0.662391522487458,-0.82750775444002
0.6107497500894545,-0.7140824328446125,1.3272396503244202,-0.6602100800816235
2.872626391040943,0.09743637971398655,0.49948108814190806,-0.2541960173709358
127.53843838667098,0.48402393785101916,1.1035785891305339,0.7913473756359215
10.58736618323111,0.20471265839176178,-0.6861052758560036,-0.0594516920294631
1.5608099960294513,-0.865881308995986,2.5724741622460834,1.7060215247613995
12.193283137706771,-0.7968829981995611,2.1589727606601063,0.0028247318135372623
1.8887664305408798,-0.51223004414529,2.493421361158227,0.341003914206627
2.2810582350774196,-0.18699700003547637,-0.188600203226025,-0.3584079204409102
0.3269367037590747,-0.6923397220719555,-0.42825656513314914,-0.6184454041231844
8.65585712408379,0.7360975310766109,0.7881384533243865,0.5160672032641009
1.045618365521006,-0.42051512078294717,4.556787588686393,0.44412516264282753
5.431940373218498,-0.22660590230653288,1.1431351583519342,-0.3491258071229486
1.5687952267711824,-0.40478513952515993,0.04327364645851617,4.491804891831142
-0.06835559414094994,-0.9471947726078114,0.20348141072263037,0.7418205188236522
5.222184293258028,-0.32119432266084935,0.8256192278090031,1.4621255993220417
0.162322031858241,-0.5462376000473266,0.8084277964516238,-0.05169301341785837
1.5815796671197253,-0.48117839698576137,0.45623784447022775,0.8756343680105998
3.4896862422114214,-0.5337118382189064,0.43040719080339196,0.5217482704482443
75.55152187375107,-0.3828045650221348,1.7605415923440932,0.3670817151669079
0.7852379903209943,-0.4780744401265833,0.8166612582959094,0.3755422984894954
4.175990036214139,-0.028951595835787547,1.0657374673930256,-0.334701518933346
2.162654468941544,-0.23139748920444358,-0.019053969186499042,-0.16317694958267048
0.6072473528555229,-0.5490802886762911,0.9042268016599448,-0.2514789488904162
2.41868772726528,2.8308857831207024,-0.0914247607137203,-0.1918383065009358
1.6090500278151256,-0.7064019939150599,0.7103613145620642,-0.03706964477397667
1.0858144641092196,0.09586195866288905,0.9687402091104251,0.29261480249803906
1.5942175438278556,-0.5667630631297442,1.1473525324633056,-0.21589246896664493
2.4642047724454827,0.19778290388063557,1.0541415559251717,-0.3034698643415601
-0.22954124525448516,-0.6803555164998983,14.562300281027143,0.07111807605019083
1.1117027255799004,-0.44243577366422737,1.0189357983459444,-0.5081283978230782
6.4001280856287055,-0.20977647614339734,3.240185897400134,0.6270143427736752
2.2273525708176383,-0.592373736406852,1.6272794079169874,0.14569237620150388
0.9211776113173586,-0.831459553773988,0.2370420825931836,0.06499183519919316
1.688098908107388,0.9741148735010037,9.111338778452838,-0.2591789924575044
0.6556503083629333,-0.19957060435815988,0.6287769967672994,-0.4528942689666168
0.35073898724536456,-0.418556048966224,0.3778268627086234,-0.27627248505976465
0.6008116385726454,-0.2405068663842107,-0.5820199749522897,0.8792422465442085
8.609246471456203,-0.7649476857008809,1.8954808000372783,-0.14938373704878616
0.6340401402563478,-0.31965375732783874,1.3909400050730216,-0.14162484043452173
1.1530373897920607,-0.8831620046170549,0.9745302617235743,0.6307775104984372
4.096456205251114,0.1699628110871263,-0.6108090568554558,0.21564046652191515
0.8981019416308171,-0.7333178644497735,-0.5888649830349713,-0.24384999842626254
0.3697107096793839,-0.2000761662617747,0.2749135142098065,-0.08880334593092654
2.2526235753393893,7.832825205016663,3.880288297500882,-0.22212817335168
0.7438531397820312,-0.6248030285826678,0.44208387947653005,2.269641755422716
1.1397758136490412,1.4774960714765362,0.7745684144436575,1.4226800053231146
0.6467861073838261,-0.43007200009056923,4.779082829309548,5.133922364810106
2.2940509506573887,0.0524138629472104,0.4372266297027918,-0.6883077829991682
1.8949010247497067,-0.34763764667564934,1.1522179364746759,0.8413200348979484
3.30641245891818,0.42205279792262385,-0.4726218475578846,-0.2612640744758409
5.436160225325252,1.1132798015064522,1.0364416257154212,-0.38553311443422
2.584775663994186,2.3435025538821406,0.6694938535551722,-0.06851090942426674
2.6087706531299513,-0.7279323214431566,1.0493876984991513,0.40905361711589716
1.1355705673400989,-0.37560542148711373,0.901543516627316,0.7146534405091807
0.6288456408962635,0.6482887458102682,0.26214162059386426,-0.1479789216622721
3.001294734096155,-0.030661384777947776,-0.6592618033265181,-0.044899157867315354
1.27949177163805,-0.5340407692128507,0.034362525365909,1.212517513713276
2.5910324407989394,0.8055719085114299,0.6586891789531713,0.29549995921017413
0.5000396185393354,-0.31844542048571123,-0.7302113334531505,-0.9290132923969585
2.606186227724762,-0.675265302851654,0.24992125385582775,-0.02079521222743741
1.6800265914310946,-0.8880798645678352,0.8423094407040252,-0.4794063750296871
2.0858075799353943,0.4629993422054337,0.5008637793102999,-0.3003243219499797
0.6686683063898355,-0.6465398448229833,-0.27224836955704,0.4953518805880708
-0.08195837866699085,-0.44118699738692224,0.1626057495847455,0.3735521257616292
3.0072293986150207,-0.44574875553032256,0.7101605698410411,-0.5102532969658772
0.3790731026870091,-0.6874475335213239,0.8276554637870386,-0.1931129042262052
4.534696924738926,-0.5618246036264058,-0.4837801202838128,1.0473180085928155
1.7739245996985642,-0.2678766190864883,3.5891297419534727,-0.4421600965382242
2.269793862929519,-0.5243814432617514,1.196804511748045,-0.7791103256007764
4.03000366602886,7.960882105563162,3.2193993241796326,-0.6444350884383909
0.6442217939320987,-0.24483059540656438,0.1441416308211072,-0.1730250177248691
0.074888484800262,-0.8234096910413773,-0.1916871337589634,0.8158386432830966
1.2887878091688125,-0.30935522873069954,1.1017390931859392,0.9795563723099732
1.8013887196584446,-0.28809829884705807,1.0396541783360123,0.4786991871228583
2.3832267519702772,0.09407324988975385,1.7455584039454202,-0.21290856379019218
2.072310003799065,-0.031182807024360715,1.1777635208484427,-0.43194970752694506
8.138539237127732,-0.8200340390781391,1.326207721778602,-0.3700463264084072
0.905023029762982,-0.8739103927371745,0.09348751763665208,0.3096560769225507
1.0344861339198452,-0.35121517628575993,0.8155739107918931,-0.5058413647572487
3.14451274645557,2.4292398613501023,0.678868175098855,0.08034843867187091
2.563921914495763,-0.4438578257367708,1.0580715709667579,1.1637660258184868
2.8325963611314307,-0.7057774464840105,-0.2802472917324973,0.36195939577574143
0.5729940311419772,-0.6644878918580323,4.279311067500019,-0.8983636988682795
5.266604518099607,-0.8017470844173473,2.517975621282432,1.1771813144660728
1.6286574484837915,-0.6297198043161283,-0.5985300738408788,4.830245875058245
17.27464947282086,-0.9881360269350933,-0.16423344991115008,0.14458030536470834
0.6672823246877935,-0.8659849045568482,-0.3074919375711518,-0.09099667064602524
14.308913343714428,-0.7009371404255434,-0.4611098214556991,-0.3890498243355479
7.053858527718962,-0.5845863573259036,0.07135530432915416,-0.32579870718868686
0.6566763178151593,0.8980495121347252,-0.002454927655012873,-0.4651782785550853
1.6111778078254386,-0.28863126631361213,1.593551442057421,-0.03868995212478965
2.450811135612429,-0.6623765859394459,1.101546961228013,0.08860868238296038
0.9727249541484131,-0.21761032161222194,0.15837964246746816,-0.4953218872464489
5.390755159991673,-0.1671900064287748,-0.8829029199060409,-0.9473197832775909
1.8303133779551617,-0.563173231508338,2.2619976515064986,6.391890452163763
0.6799919904279528,-0.5614059098416668,4.036946660792639,0.4949136286446132
5.26224571822095,0.7551311424471518,0.0075058610252694,-0.153958579321257
2.522182655774807,-0.14521385057954328,0.8061462221420215,-0.42455747614639305
1.1574226534157677,-0.5951570154869472,0.9832677615559375,0.2616538036569478
4.946800174196077,-0.7888037007212045,2.3723787303940633,-0.01522054366534542
5.9424301052739725,-0.5553214719599033,1.5780162853929194,1.543252041013354
1.696399362692806,-0.03598298019621782,0.7892748806492935,-0.7690382894768046
2.275744032603325,-0.054286802652368626,1.1012767802867685,-0.38918110318521904
1.305200478387445,-0.3308538858476121,0.7640686260837624,0.23311716498501056
2.4238142304033294,-0.5359553225676099,0.23144337116602975,-0.7042559687826903
1.1910330882318272,-0.061983321549900716,0.03291399078332935,-0.5060308294773113
0.6088597356890255,0.18802066378797355,1.5745816370406547,0.2843864442332942
0.34912097013426324,-0.4233840394200299,1.7332392678760615,0.1954865953521221
1.5732452696601102,0.42428572165685896,0.05681132621379281,-0.2434653346097878
0.4443512869015833,-0.2999551754501457,1.3840345209988416,3.6888998599174894
3.819410363041981,-0.13950748694434878,-0.43800854762030184,-0.7860599789698586
0.7999649542605936,-0.6744560872968947,0.3472728542710015,2.5473653931786235
0.9104856210952263,-0.6254834256940025,1.3197897460274395,0.5441931345919206
2.038748088654582,-0.770423944789422,0.7986712632982789,1.222340644850088
0.6569758466790245,0.3221964838913618,2.454205879864051,0.9919599455250909
0.13098280728327305,-0.5821866070918909,-0.050316047683547804,0.9901866017157215
1.813131130897926,0.18176751008783754,-0.601680735480127,0.9176738710576906
1.4219678240453968,2.6325983451127235,-0.23810288929896994,-0.1502033559173901
0.8498388498374767,-0.4920348422124715,0.5224905117125727,0.9185495693794214
6.4283001968757585,-0.43239866023576445,0.23702712121156555,-0.4145643086708075
1.315332090725895,-0.29430934034355827,2.962001224706311,12.669099762200341
1.2554480673582766,-0.24329894723131318,0.33344828216606404,-0.24956790917293326
0.7884724887257535,-0.4937040593292328,-0.23807628564404193,-0.6453374743080527
6.492670599467568,-0.28752256309987534,0.5882733143991168,-0.5453022229106412
8.610194325027193,-0.7733364939910854,4.423678210027722,-0.003733758353266281
2.066803576968439,-0.4279853560400001,0.9679743628337485,-0.7466292014132259
2.9820422437297296,-0.32643936414956154,-0.3830194032354116,1.527157298615188
4.563971774467102,-0.6691794255822081,3.2212399786099946,0.009121400337470664
0.3254175734116962,-0.4854584882605425,1.0002279794959326,1.1576131431989825
1.6683683394059599,-0.41374903614570124,0.10151043595569553,-0.5027077724386738
1.4730304091969826,-0.01919542238597305,0.9932757486484767,-0.3463757488023448
1.6978954613129154,-0.5877790323706693,0.08206471563386009,-0.40846426396739455
2.177496649160813,0.9741412595890178,6.571381393041323,-0.45860378604892393
3.351364035190727,-0.4543039256296314,-0.039107606524132366,1.0617176331660723
1.9802219738013203,-0.07567626238394787,-0.11175404914972908,-0.22557732972368894
1.336092317023153,-0.22400217149354895,2.4194982135648893,-0.29947224555293495
2.2036151860697575,0.20975966541709457,0.34351357491490697,-0.8658638629538081
0.37205703094527776,-0.92908655657771,0.22951675101997004,-0.6996995948109404
0.8685890908713363,-0.4028554098028768,0.2879827113432245,-0.7441276861217913
3.72058452130233,-0.5849013183666971,2.586901822044572,0.06352439455355308
1.102071787913164,-0.7235194656838344,0.01703299715114448,-0.7120132886384324
2.5714563821908687,-0.8210789720225906,1.4820223291207228,-0.6034726377275518
2.0120907971905355,-0.4849367858241682,-0.32032894424265324,-0.08788303984040613
