x1,x2,x3,x4
2.231395773948926,-0.26640484635992656,0.03220482099253075,-0.30057908795954913
0.8623997437676649,-0.32156310786367037,0.3154843918137835,-0.42288757856033043
0.9232842622381379,-0.3395250058178638,-0.7644101730901312,0.10874588052604728
1.3260277487293815,-0.5009411312948301,1.475431250541133,0.6714520416117133
7.281658919647432,1.0139770188370276,1.1069987289378251,-0.36123025693628774
1.0087974708907597,-0.39778845063509005,-0.05944364996546114,-0.6523080519730702
0.5342149813955388,-0.5254600037747086,0.4309652908706867,-0.04147195048160013
2.575941106785024,0.37758990355174205,0.5622462395360739,1.4843719336151429
2.0507464883525026,-0.40173729690699356,0.12629487403533357,0.5805050583552172
0.48250539159292316,-0.5319341675137241,2.3919486717199017,-0.44289285339768936
0.5736895167272629,-0.38028416974920576,-0.16028213281600112,4.8609024748108425
1.0713722622046138,-0.3543699408125004,0.6837746266877311,0.6440215896338575
1.46812045117196,-0.10583139145442422,1.0968743677584754,-0.031932186842954624
1.36473372166183,-0.3885107282486129,0.6116788436349141,-0.05069652798512847
1.6215477815289994,-0.32272322581276247,0.4887559768278136,0.5193738648069872
1.7711774352446037,-0.19109679980608762,3.2412656838984804,-0.4588871519118135
3.381316444213903,0.5545970881785236,-0.2548123530515165,-0.2222490954406926
1.0401217087923622,-0.9110683830842451,2.269290336251974,-0.0917252919654642
4.109380039665429,0.21332850409140636,-0.18357485263560602,-0.08447946029053943
0.8036345420193183,0.550964216274741,-0.5464253529380392,-0.14760944936560305
2.1553172697438874,-0.19519056900198462,0.43815362090656373,0.0032859963119489244
0.47499496294452914,0.1761053614551069,0.08455505026540644,0.025599147301052172
1.3837778608535474,0.3000135570796225,0.48726400474402487,0.4465025334990693
1.1366393727628594,-0.42586411744095076,0.09416566860277453,-0.4251768987423219
0.4859465412200872,-0.5524470978061293,-0.34392384114176056,-0.43350585521335117
4.5995802298924815,-0.2582956051985281,0.1157913644572639,-0.4228729865230808
-0.06608952127934964,-0.6046643343052797,-0.7546187940965525,-0.4030419418066098
2.6306427075070307,-0.40986014996273323,-0.47257793108585944,-0.24714512284017942
1.002152145542841,-0.2226740499226073,-0.8051141384761931,0.2691722254632214
1.34748360717278,2.611979740673454,1.2245888890031056,-0.13110629137202523
3.005596956141922,-0.02825252708427739,-0.6021114384651793,0.8303867493164514
2.5152288269917613,0.2815414396606808,0.44387313576980447,-0.5281076643444422
3.2398293486342524,-0.09441339719512687,-0.2587575456497412,-0.6030909153310481
0.5510968700406265,-0.8088917347530586,0.46337548068577883,4.102928951911691
1.7327320277502154,-0.5178907837951872,-0.28238797139296967,0.3722241707173428
0.805431096400842,0.8410883518453927,0.16621965540760786,-0.3604896014145016
1.3402415158095122,1.4102480668062176,-0.11472426797006963,0.15864984424357398
7.708935513914138,-0.6998643936684487,-0.5625419403292857,-0.8193716276168572
0.4771724453895416,-0.5506280415880834,0.24257832275322522,-0.17598441868643444
0.31633976457091606,-0.6959486687241504,1.372240788333639,-0.002315664366192016
1.2138671688888105,-0.35716408947556355,-0.8363343978169866,0.148798394253991
0.610127622624975,-0.201174133819508,0.46792942301514184,-0.29192616824785544
4.061543212744543,-0.18920957047922016,-0.48502421459679246,-0.28915744626404294
1.3788001231977955,-0.1714622042524142,3.3891675419264287,2.680538293860523
1.8381375983067443,0.7436771336845815,1.1201855445103686,1.4714283278503015
0.3804807376213275,-0.20450965247110364,1.2779284949435241,0.10912252533696343
1.031328209289812,-0.2021389372689978,0.14820589117947147,0.27872031404135944
1.4253768658859234,-0.7849664174461584,1.25677097649253,0.22264144580818357
4.321190939067071,-0.752278670316994,-0.06293982004760146,-0.3380732559582741
2.6036909168399336,1.4950598685560719,0.06763608549907585,-0.47356650074613993
15.681811725356603,-0.06661741636506346,-0.08666374300741231,-0.03834753437385041
2.4336269706703937,-0.4646685164517653,-0.20021965686748122,-0.14612516190060942
1.910286912239334,-0.7910667242573229,-0.14388061483825032,0.03358710226666228
1.4466103201152953,-0.4423589971373253,-0.051553893858370836,-0.28512071827207475
2.6942211922591377,0.22167479252062772,0.6058267901047669,-0.19180891881977447
1.95666529255849,-0.01781882701297688,14.424468419855872,-0.20639759448726536
0.612286560989064,-0.9427922897878522,0.21047012687147437,-0.8584907629386748
2.249051654896332,0.7186687770558009,-0.18801909350065182,-0.26465986840926614
0.663753915721323,-0.20697049455353722,1.120097657655728,0.27724268809591157
0.9274396609639255,-0.6355161976378694,-0.2545607677934989,-0.2864339623485218
0.1512644111751209,-0.02157435119892359,-0.3474342940467192,-0.5177060994057222
1.133292450859472,-0.4944569182580194,-0.6484755054582216,0.2292734987926146
1.4812412603104588,0.40860641558758926,-0.13171668409731607,0.8907094818104335
3.8947192363881467,0.3665979968914763,0.7017317114317774,-0.24222715364573455
0.8661992471025082,-0.9787846582804274,1.1782060707648228,-0.665643034888654
1.6146334335573234,0.5680683594884963,0.4026944773402461,1.5077129759091528
0.31209980096904055,-0.49923128947844886,0.9044908811568744,-0.07011177012216141
1.7712373495584588,0.4527960052485325,0.1743680568190764,0.45989881558575685
0.4884769582508506,0.13392240130318944,0.9097316810822453,-0.053602173611692616
1.4894261673687015,-0.41764862063495345,-0.1555797667617641,0.05098513770825641
1.7439534721439562,0.11898447076696517,0.16818055382551744,0.3593570074646548
0.3158968265037134,-0.2657887999890586,1.2095266595127487,-0.4407566785192325
4.294820994733954,-0.8227392367909736,0.16136200448780547,-0.270316050072402
1.4262588284203086,-0.3050658114665228,0.08131350703676832,-0.05082919992320756
0.8360308680778099,-0.5984495799732359,0.23008106915920745,1.1240482091205224
2.198285686174125,0.6035403775799106,0.35862158153527046,-0.9192720908057223
0.6235974024336157,-0.6007322012767174,-0.2476667353347104,-0.29183441238269514
5.57165078356683,-0.7583278582219887,0.39291221066951865,0.2239172531244069
4.191167057569802,-0.1768207150938308,0.9954702325828011,-0.9181784822712044
3.9417535227860574,-0.9525718830411539,0.2877676690299287,-0.857216326523051
0.7277742876660893,-0.27039370781791416,-0.43381459507618825,-0.3808165880571722
1.7996387011555672,-0.44915400710615905,0.5268301920431524,-0.6506685290986111
3.3575758251081504,-0.045973987522372806,1.0487026329635176,-0.41977026116921434
1.6507661761840287,1.3640024923155414,2.0939155182040614,-0.3969133246311013
0.5934990195019871,-0.12018237575498691,-0.555063648956944,-0.7094099642495256
1.5206193669521402,0.28171112766939754,0.8993702496444989,-0.3375148580478483
1.4475429443308712,-0.5983786932248365,-0.198374368521827,-0.033905339560528214
0.5888552075483875,-0.6538236686099158,0.7665441321999273,4.894098691878701
0.8497139437807442,-0.44406306576075605,-0.20713307657963564,-0.6683319758530969
3.956585192530392,-0.6868394632177847,0.018104117828426913,0.3083752472292345
1.2870536172817788,-0.3074737818216885,1.4324261636172904,0.09286658218760735
2.701357845088731,-0.189286466147483,-0.5765440532439863,-0.02560923851824748
1.6886725983969693,-0.5900324307535643,-0.5548484383949892,-0.4288449608017525
1.3343573278789478,-0.19171727834158447,-0.18375673931835812,-0.38569939010257615
3.3546403607061617,-0.8356373399271337,-0.8688168182325628,0.31641515601828174
0.3523440331247256,-0.33081134066429907,1.7214346667411684,0.3305344336053557
1.836396836593487,-0.621561850126824,-0.2976686237151748,-0.4561963017248706
0.5707040745406453,-0.6242985887536106,-0.13649293912838723,0.5575943846461107
7.758236846629622,-0.5526291479629164,-0.2919706422681443,0.8886501389920576
1.4038440422838248,-0.6399035083984272,0.5408880744736655,-0.3951424361835497
2.271151151793388,-0.7132981446498691,1.0280531824016919,0.39054670440548134
0.2264594491397649,0.5621971812974551,0.10809897574973193,-0.17416500971384286
1.9291151995636548,-0.0883488660637829,-0.4741801667676341,-0.05342097526189227
1.2988191147250965,-0.41866645946820236,1.68413486637083,-0.670707536049045
0.9130511352427244,-0.2476920371465373,0.43936524185285664,0.020098363712748757
1.051254855963042,-0.5540733603337573,-0.44853749868718595,-0.6243296054189037
0.9509172254950011,-0.9092745767895051,-0.2268681636171075,-0.5307851340369493
2.785642474529523,-0.5565527186449498,-0.10012233678621252,1.4338496595905053
1.8776231149420872,7.062653369765355,0.6600720023458937,-0.37968880248714076
0.3009163496482268,-0.24744287115887453,0.7021495615593549,-0.1773649732867435
2.2890214618053264,14.756791639224856,2.130179562524022,-0.6667637164996492
1.8904046434555988,-0.4707326238563646,1.5693637054545255,-0.5992360845417481
1.072661632400714,-0.373516040223685,-0.05565295127888836,0.4692345049607609
1.5363143438056777,-0.7748358577599173,-0.09366386256047066,-0.7673237527036774
0.25028431044747124,-0.5837751077191862,2.610943847902515,0.4485500725385052
0.24489834594288218,-0.4158598517536287,2.743976440014741,1.6947993459003436
3.4133443079197274,-0.1341715400176049,0.055201060867118956,-0.6094187009320019
3.1171675373072594,-0.7448693710905181,-0.13220025491556897,-0.49982572351326093
3.227151156574953,-0.8051044371028099,1.5859672129023283,-0.5507390345450924
4.872829123370996,1.3930152954697457,1.4267211703555955,1.8252094085603847
5.672977075832844,0.19392655097436462,-0.0604317632050454,-0.042572152380289885
3.03680908158327,0.41298418925401315,1.1060566326894987,0.8430658737069765
0.6655635333426184,-0.32812760057294954,-0.028969830341211145,-0.3283331210817635
2.6414915446836766,-0.33303932996472274,2.702753584432354,0.261632454351137
1.3481048859048563,-0.5335769556970742,2.80453073534778,-0.6264043118963855
0.09264851697439691,-0.7148058685227533,0.13995416804009597,-0.06098433879724152
-0.19573979601551683,-0.8743950720334392,0.7387310084286585,-0.5089647727959095
4.650862431561871,0.6765351634744761,0.4433150546427993,-0.29358092240574674
1.3129328110153247,1.6448078991744892,1.433508681613163,-0.4109359817337791
1.6092580387732158,-0.46717294562102785,-0.6146683746295087,-0.14418866982182532
4.901246845546903,0.251803606210258,-0.37924503451918024,0.1980946613490473
1.4310295964768711,-0.2642412200396249,0.8432838767768267,1.891341532552174
1.9093275593121386,0.10532692324533466,0.11600089315853168,-0.754898895522715
1.111620994510865,-0.7938084075260705,0.36005714792462884,-0.040907624786613805
0.03712887506690765,-0.16444495393406489,0.5329287671935947,3.0820887293463812
34.47358715056466,-0.11094716057592402,0.9880440919073947,-0.18101423479021295
3.093855150805039,-0.24265565859623128,1.8228761992818971,0.34177382586220806
0.4648212289660094,-0.5283358850341879,1.3504580112516038,2.6394715558439192
1.8076507934758514,2.4719473373990852,2.0394217188125396,5.094527501439117
1.4503693046782207,6.578019233615836,1.0466444630856024,-0.6095760832559627
0.04276333986162406,-0.6219041360273083,4.949321644319983,-0.25747334278509015
0.6085152223031995,-0.056242032888484506,-0.45476135783634597,-0.6177891008611325
1.39932280230857,-0.4971176013390106,1.8521927515440337,0.47680834940605865
-0.0683413542139234,-0.4716946886141913,0.34821122385554926,-0.04447663380309097
5.9873475820522435,0.3754936740748587,4.927438683523265,-0.4636882101295019
4.575420094204819,0.0021015455558350826,3.4331401110211424,0.5351150423657562
1.8904207819158723,-0.46378038343196504,-0.14442301120965384,-0.3489980852402036
0.32043480855294626,0.13202839358293605,-0.5433019859842507,-0.6873709917210107
3.6557317065962147,-0.5525372319377438,3.015308195655714,0.7478121109317797
1.4365992792507138,-0.48151356946116786,1.1886247153597362,2.859793688369828
0.814197186250103,-0.3764401635007243,-0.8417440797542076,-0.07906961631986031
1.3913199238168836,-0.4999251315577179,3.4946154395200812,0.08401960643401507
1.4787295583167377,-0.4580696734807035,4.520541368573939,-0.3285856789619557
2.479470492782165,-0.8239902209520029,1.9484564768924,-0.4284341076850362
1.0017940075116032,-0.5371296413681734,0.07377272307939053,-0.07952322301334303
1.1990286486571446,0.2187025987285276,0.08131852481393742,1.50505917513766
1.911422973751542,-0.45576296681833317,2.273162435427571,-0.7592583213254684
4.3429268575287185,0.15998507220337865,1.7679714209840829,0.5173143249868482
3.014611583741309,0.6954227692724999,0.29978102462730805,-0.21156677592933537
0.6566955614247894,-0.3122195544996812,-0.353836951327796,-0.06643285316853831
2.152325436798459,-0.74517377799406,-0.0974428660262906,-0.5184462634486738
3.310483469777071,-0.33327166870639,2.063745249191171,1.2635869486671054
1.0756743589203213,-0.6640088071438568,0.6202241700234117,-0.45275543694037057
1.6720094049746024,-0.5662469762412861,0.4559788356586627,-0.7584365228212663
6.070388918738888,-0.38856019666590924,-0.16158237998750746,0.3474245337593149
1.2091424558088368,-0.5202082970813364,0.8024632621942027,-0.013348259230112292
1.5052718264903793,-0.6609502193401244,1.861070544406895,-0.8629163624218116
8.075708345756503,0.8291856530358006,1.1681061089147926,3.8720058692829875
0.2671885147457138,-0.721779009398785,0.5481923199717371,0.6526173424161328
0.806692334869519,-0.47807057159337396,-0.5912233647246707,-0.15781335390468965
1.2619934255199152,-0.41950801145520333,-0.0014444833982141247,1.4836820916778182
0.7307763647041092,-0.34659249319968144,1.4292363145255345,-0.31954191577198554
0.09310224850103643,-0.6314866717215768,7.533153039930253,-0.009538941920498645
0.9608964363851258,1.7878845253770392,-0.39775127474283556,-0.7460559851543664
1.3871778622096427,0.9368158318379505,0.9022147517974648,0.47297515932730705
0.8294060490645838,0.6551617720986711,-0.14854259437963768,0.7740160280317445
4.368125085236701,0.37576965649353156,8.629958612054446,-0.8179670399973572
1.5024873764592113,-0.44930240011578804,0.15847383999551545,-0.19357298558447422
1.8314384531276708,-0.6584752186623164,-0.526790530803148,-0.33019391641650087
6.938055168515306,-0.37346019273491793,0.962259718386707,0.30745517918141396
0.47432414431475434,-0.5136305447084928,-0.0637495141440041,0.13630471153822055
1.2963120580789464,-0.15411990000958287,-0.48196379658450483,-0.5797227797347784
-0.063646784374077,-0.9383950241598434,0.1566369934004146,0.11495693867417778
3.1100874506150724,-0.6637719984665644,-0.5895670413885394,0.027084984394715184
4.580856821672531,-0.49161386222307246,0.4501991862768495,-0.4146797361351754
3.074558191603616,0.4162369536041115,-0.008704497922312648,-0.4225398029110691
-0.18251298797262583,-0.5325059051128767,0.5773306403521636,-0.30625020445708784
0.619021746052782,-0.46796921733890695,0.4414515068238227,-0.01352770577323359
0.9305714293176637,-0.7813757559069607,-0.18461392780406738,22.550365482854613
1.6813691578642462,1.9261999039475075,1.70323651627089,-0.1115062187246898
3.058120807169918,0.15848812640636867,-0.0297130922341019,-0.16420025579992537
0.8162997099891278,-0.773540301422035,-0.5291684141531277,-0.3992759890949612
1.013868578732691,-0.6746797761650668,0.3925683901293022,-0.18035818733043796
0.6621285245979156,0.19504248296719262,1.7366773592800313,-0.22227622955441173
1.887291220786281,-0.17507683280626807,-0.026510478278960914,-0.7109471751848793
1.3288299292546615,0.6524471867677046,0.10248386425306477,-0.3049359233312904
0.8325647879576707,-0.6081869769699539,2.0707614737986106,-0.27827924397884185
1.465483527701167,-0.007687125336807155,0.24061300218321313,-0.04515537713066331
0.3410070565531711,-0.6545251031036943,0.019289665195225236,1.5291200199936554
3.6983443825792897,-0.33270762453555913,7.0506289259663095,2.050318621270016
0.3232959132399933,-0.8801915306549815,0.23580268079168887,0.586452124494919
2.6914746953220234,-0.5409371267135954,-0.228106201748569,2.8850662279440846
1.2444342927751784,-0.22370400512155586,-0.31787769924921006,0.545455107985193
4.514976953067761,0.06499458501890176,0.3044395480181932,2.333603527312887
1.2593609084195796,-0.40205565896614337,0.3946142109116024,-0.6443469917830733
2.5597978891272657,-0.6017754325327086,2.46244306651222,-0.5042168148285586
0.6661085872894692,-0.5945696674635527,0.1879982111362304,7.446376409992258
2.1858426574527927,0.5364686958591041,6.097078079269239,-0.6596810018873265
1.214325134858742,-0.5571799777817477,3.436680623825688,-0.18521271587256394
2.645320452526541,-0.6589260715371626,1.1023840908901885,-0.3232632082392224
0.5300727728063444,-0.23066532117747585,3.1633737789140124,-0.22919632671697265
1.7379128492324871,0.07255366920472239,0.9051491462452836,-0.5063027490388029
1.912064751656676,-0.3944642481640499,0.05725882424476181,-0.3526150366348133
1.5062654013651633,-0.17073267448190954,4.439281455301167,-0.1032559294208526
4.327611512642615,0.8769701800200365,0.2648102944757036,0.3732627058603155
10.83902269650096,-0.7800076853642226,0.24515382714173928,-0.21007625185546352
1.2822869826755277,0.24909280865046335,-0.3345367770590587,0.30018170716835924
1.4438914993635885,-0.3059909325510223,0.2359288421803698,1.0257762776084798
0.9436642322696558,0.6249394603775753,-0.6587813699930914,-0.5144572956512292
12.473508537367984,-0.5176531812683736,-0.04177049776861996,-0.2804494199565183
0.5396422549460567,-0.3273208589908341,1.0027381593453555,-0.39140329879426405
1.7998808662165038,5.139584484229086,0.2910210101145929,1.5421725063079559
0.5694414172521747,-0.2728414472735389,-0.26898126214020224,0.14885871132680273
1.1680318292952463,-0.35067976738757267,-0.03462121672072638,0.19429038157319511
0.7542568187535605,0.4770610233477961,-0.4559075681591619,0.22825876339221174
1.3731549214719672,-0.7186372465133299,0.9151738147030093,-0.6652589442352955
1.2147992419688132,0.5431879296291775,1.5828435436790191,-0.49561777851741173
0.6089007958455268,0.4203222173989536,0.7169913635444771,0.262582433903928
0.7396714540443112,-0.42308309019223733,0.6683088004984599,0.10310891632473962
-0.000163367485756849,-0.5688604766503502,1.0786231539246631,-0.7357826250276986
-0.09165978746779735,-0.6165973180553208,-0.1543404501175939,-0.05862960122524452
2.7872860099967705,-0.02892245914506797,-0.7099493105193451,-0.630315940335362
2.2452359368569232,-0.43633099483503224,0.46072137446447337,0.11139119388950802
1.4503035168739133,-0.643629873322108,2.2927241043765525,-0.11458960998225087
2.4224444940496603,-0.6100607120564784,0.28265250046855384,0.5854920057188044
1.4023748404148257,-0.09987635833350639,-0.10940910085290712,0.6650086741940566
8.45280338370794,-0.5687868615942573,-0.20098494917176857,-0.6091337869406767
2.5800625918861244,0.18410760206201537,-0.37777730297919065,0.8939772614245827
0.9737301225615611,0.08536993563724038,3.623555953089018,-0.24326191083622428
1.5159886153022688,-0.48975834742343716,0.4430757807244594,0.1504676317053797
0.9083303511006497,-0.3370497999307803,0.4391176050529191,9.128200475240542
1.257136409329631,-0.7350325091924053,0.5720760931909517,-0.037438164421853215
4.994811111164953,-0.6943070910062517,0.014464452200435352,0.9012805701712889
7.0464783587416076,-0.6269592127167586,1.550556569405932,-0.8963541145267226
1.1908363302555913,0.44519610169255786,0.2042893666770711,0.2894831705770111
1.1041286033929305,-0.451102650983513,-0.09873944871156815,0.037248213643079175
1.4243682153904724,0.3852486890569182,-0.09970818027731077,0.07100106791941951
0.49741651539181375,-0.15595676798061542,-0.23811573354834403,0.4591150209628483
2.2535381003069723,-0.5142879237900275,2.4179710221542767,-0.6813329702704979
1.8538250746972835,-0.2894895276217444,-0.4791590798366263,-0.7944176482865405
1.5065687583856713,-0.49713712441256475,0.511991242688691,0.36488476513175394
5.043333032551891,-0.5989208378081825,1.362602388138538,1.2873051602838852
0.8937614064856665,-0.09657793642541512,0.8143846496434102,-0.4420762666208098
10.366250177826322,-0.42013000883076823,0.33963382341768855,-0.2323591226481525
1.2896359565000428,0.5894696447340291,0.07692849411654334,0.9758757595306427
0.9035925188106595,-0.5092104357838728,0.6591860285922619,1.2451376260012652
8.570896330328482,0.4693045070585653,2.222242271786618,-0.23826118291873133
3.387225215933757,-0.4899945713210384,-0.42560484259831177,1.3599785978303136
8.164155334090847,-0.8329504226856741,0.9737892395458454,0.939615819393649
0.2746178703072617,0.7782586249171495,0.16854392297858434,-0.21105176016198524
2.5396436751747644,-0.7912814180649796,0.18052890500450047,-0.2975512119127748
0.9877469824770289,-0.40429520354106874,2.551509784107347,0.40301403994093055
0.8627753001482747,-0.6319832733165491,0.2992941759649803,-0.15572831499893391
2.5858088545838207,-0.5661205264943359,0.3257546996356564,-0.6697070332001476
1.378546287219283,-0.5685513627759147,1.5287086265501517,-0.21908776386735462
-0.04979418101866473,-0.5038137353287289,-0.8582473432239535,0.40284751923404594
0.910523694441723,0.011516924052402455,-0.30101490809093534,0.34735018132694884
2.4222591210455344,-0.7851223428006652,1.6183445503148977,0.3353694195023378
7.195122250897498,-0.36802233724295164,-0.696593257436537,-0.5057542323318719
1.2729849747774473,-0.8109085088244818,0.12920792581276763,2.7672295739663477
0.29155453095995365,-0.821172714988698,0.023453206083161815,2.186258231555723
2.803311274281826,-0.7652856091521474,0.9852279660480991,0.3666164983475304
0.6302768152374449,-0.7830255606530427,1.156548038513288,-0.07822855935766637
3.2221666191682736,-0.4250588357356726,-0.5054869155890678,-0.33264122913664007
1.7886959374251794,0.16881160036069742,1.5886751687913456,-0.6503648288488117
1.9721454995013343,-0.06455971363108637,0.6618090464989381,0.10730771382058046
4.216956812789343,0.19104484341060068,0.6188388118019801,-0.16147387342769837
8.919600901062168,0.41887053049843637,-0.37912501995239156,1.1642478445028255
1.8999980160858891,-0.08265044165229374,0.2968188406064203,-0.38357365088790085
0.46100242089081656,-0.29361604900489213,0.17204822592615532,3.6850597117782575
1.4600275339165485,-0.34967605361618637,0.786711430159917,1.7535299641418418
0.9297565145995967,0.09838173622978985,0.1348608892451404,-0.7617020681975448
1.617720022655718,-0.08682531885987466,-0.8867220973327945,-0.47757307211723743
4.0620958579295285,-0.4119528246396055,0.6269967632769433,-0.4968864248550561
1.0450610974619807,-0.46780786044438805,2.393109319206829,-0.547082225505919
1.3513923830728838,-0.3214819756398809,-0.4419897702946277,-0.6662039842016085
0.8517915987833262,-0.18182502532826295,-0.023214196440127233,1.1762200796968179
1.179931786673524,-0.6911576612086477,0.49021854929689845,-0.29840499869920556
0.8970842319494348,-0.48696841053590667,-0.8370269345475857,0.2397499720943299
2.3665982443698295,-0.9184072232584067,-0.4097050608917414,-0.11504259857444155
1.3322798404735572,-0.2608519220110812,0.42780372468506833,0.061678552364134775
1.0342856997847099,-0.1816316432551125,-0.329793090588239,0.8712279782496741
1.572374450099972,-0.8304730722376905,0.42916646941200853,1.8024621422392366
0.986047739229249,-0.0928324839987229,-0.6344405895132741,-0.6709246835793249
0.7803739031226475,-0.7798292945365558,0.6972806403765228,0.8049792448362945
5.724207161719208,-0.6977737878275649,0.5637853718676948,-0.12646560590913292
2.0549842211196405,-0.67564073441087,0.31259313450838855,-0.1869441231742267
2.9049623641913733,2.3118411220012067,-0.5250960766072466,-0.5201684767159995
0.5386543770687033,0.6767266492343915,-0.349089760303982,-0.07299602353102463
1.4746699309130666,-0.8372643017663094,0.16092365030924705,0.3882239643900043
0.5472676626603028,1.1634995900573726,0.4695694348210371,-0.42074481857170953
-0.11118417423994753,-0.31093664512216346,-0.4689244615596211,-0.7602841864184744
0.9397256191183643,0.17280669750187094,0.44016992637882724,-0.22797436051827868
1.3993594509612826,-0.2638425448059033,1.6656156709555314,0.4434205574918426
0.9393620846495161,-0.7573663770867138,-0.2440286578912153,-0.5541014870902238
0.9230668121710577,0.8004619152321333,0.18501170985945836,9.750526230633266
6.092437570900031,-0.2378247212973018,1.7687077519575385,-0.11800496479427725
0.09413178487983909,-0.21146637215795283,1.1201343491977385,0.7399941807883688
3.0548375024506864,0.533973186500972,-0.32819354316033267,-0.5227303883006889
0.9482751015974704,0.648073710255898,3.0357098450291664,0.9041817826512593
0.5363530352748669,-0.7818039904268165,-0.1862107958101672,-0.3756295342084077
1.0556056386589532,1.3929577059880076,-0.6252731310197283,0.5759809238126896
0.8436002940396317,-0.4226679379098006,0.04885181687568774,1.3431817664939274
2.447622263770772,-0.4029843590546628,0.08053960321596643,0.05160650385020893
1.3466996091409031,-0.40988904585359576,0.47542410993312156,1.5814127909638462
2.6472329340195313,-0.858454288999803,1.3174493374401681,-0.37878925216034387
1.0213047745608694,-0.736337126260338,0.6632348236052725,-0.09675853457332506
0.723212961303523,-0.450776766847916,-0.3862435100964431,-0.2817398985128259
0.6662947695124677,-0.654190980769913,0.5168713654906938,-0.7208932050728724
0.8712806285915915,-0.739990132954631,-0.426598143023203,10.61359061278665
1.6700223545556874,-0.6300870941278246,0.415059900528427,1.1008513783849496
1.0631059925409865,-0.8332827456887335,0.9097832501473315,-0.5425181304840838
1.7624073108746279,-0.7818836108501668,0.7571461205583452,-0.5710262040330403
1.1248684539379536,-0.16847104100399313,0.2786364057819688,-0.5252883042754182
6.1278131413596215,-0.8050362327006162,-0.05110606565508735,-0.5201678402877048
0.7031936805223542,-0.43176866747698506,0.3376994887865652,-0.03447742749010274
1.1018956757681493,-0.6219374582897252,1.3666086136203122,-0.6717411650518997
1.7174330383867176,-0.3224273852953464,0.13811812991661276,0.7352584776886479
-0.08783948544918618,-0.3726405158562135,0.9967822986340278,-0.6580993030718111
1.3678675975249845,-0.49900604461459985,-0.2438546939420866,1.826627395115901
10.554736070663449,-0.49737537260923537,2.3713414160746282,-0.3159194352178448
1.8686701321064199,-0.15562387565789215,0.006640530020922464,-0.30695205747813903
0.39075776864433975,-0.28884692023768466,0.7869876672163163,0.1729027862994028
1.530555013389686,-0.7302695122883289,-0.45546591354515287,1.9993799641933752
1.2587451474986517,-0.7143487998497757,1.1778324804031701,0.04980486854685662
4.649608338055136,-0.10275323947469728,1.3381637802146704,-0.020059091403960116
2.334039601445582,0.04832670355568669,0.2975274071432268,1.3776752738880722
0.6354743799846467,-0.8648152739454309,0.6834829003576157,0.3366014317349497
0.6079758849549306,-0.182136606078539,-0.12027041076368672,-0.3453719200680686
12.54026894834592,-0.13561975448278052,0.3202311205339825,-0.4450337465463673
7.963653729538592,-0.2404444967819459,-0.5790091719096965,0.2294158160784463
0.7536226279873877,-0.722893545851803,-0.011113977776267214,-0.4519976769198151
0.39413466726943125,-0.8584582245781627,0.6380073703199396,-0.487749842372603
1.6773811005995474,0.0625292985510395,-0.6681586501577136,0.43554227851934835
0.9471954989315345,-0.6439262694933028,3.0491020241285556,-0.5190769140375897
0.6288179166617367,-0.7883253127022122,2.798009474000333,-0.25953785162236254
2.095184000611024,0.08866248784476083,0.23092605879653738,1.764075570997663
0.906697055215488,-0.610762541011746,-0.05726494503881929,-0.6181008334868305
0.5783653157042874,-0.8105467387866935,-0.5253250131581826,0.09820939731391531
1.1101862001813463,0.5140446161170193,-0.04980122498912909,-0.6403318825952072
1.6337118102862362,-0.8162943474642524,-0.2766206055771119,-0.6466047482915509
0.9328157004217392,-0.19494449395327873,0.6345777503297287,0.2992931595392019
2.2041875549354337,0.12541636596365646,-0.1416622738396831,-0.3278957619246873
1.9400580891977355,-0.5237726627317831,-0.3625564284003453,-0.35119894811900376
1.7721430273718122,-0.6881819355597867,-0.6854514024244256,0.06511911430264594
1.226067636317786,-0.6653671967590797,0.04355406902859471,-0.042248158317562234
1.5743197726027214,0.7485319465264659,4.340319933613071,0.6414292051521642
0.6262133756856547,0.2892608878160232,-0.22964846188154409,1.3895599977351876
1.3319080900151614,0.050817889877103006,-0.5761660464403908,-0.1951682753282703
0.7352968166914189,-0.06187186933507183,-0.5483286090902229,-0.04823805168435247
10.689576531376447,-0.1252983635558561,-0.31429141066613675,-0.4223376400497697
0.6923756800459906,-0.6396805843961899,-0.5242587477880363,-0.07944204068840377
0.7489148559849874,0.5094349326896102,0.3870571448520277,0.1868578653033106
0.9152931634707937,-0.28232687100441256,-0.30392748502504974,-0.7287194792427739
4.374649541767479,1.4399662182726667,-0.22738915845703378,0.5718967715715182
4.657564257957816,0.025302802459421292,0.29734025324680524,-0.16742449206189725
6.889957355804275,0.5895484122260768,0.8042650754017808,-0.06025043222807691
2.9965561788954145,0.1935700486982186,-0.03431002139282491,1.6367777417857727
0.8626567506406952,-0.6177513804471564,1.112911915628902,-0.22309249342821302
3.9475167728171057,0.396268907339431,0.38869241145831745,-0.5403076346576443
0.8745296359129424,-0.484377986073957,-0.16665075121482797,0.0755709183793345
1.4305321307296084,-0.6991962225584956,0.5931354366465966,0.7442817769718661
3.3986630066139085,0.6033832481737575,1.2348048906522409,0.38824228846425
1.3715466705634252,0.29053542142628963,1.744858268750884,0.3503344373231101
1.01873960366816,-0.24587709986484818,9.730446370963268,0.8022076354092513
0.31722552136691484,-0.5152426382199822,-0.6160818606781542,2.145044259410915
6.024090790822652,-0.8703213887887365,-0.08935655537799148,-0.251637812295434
0.9014296241331845,-0.237745324148932,0.15066430564582256,0.1152342886119464
0.8158888219445715,0.45576398777455496,1.024008728774104,-0.23556814773196966
1.9878243027478648,-0.9161872439869998,0.2199589455348956,-0.28404952405178596
1.718719884775754,-0.10649004570023868,2.006989901359849,0.016319254745760237
0.3902007634414415,2.8593606439532784,0.44621230749465024,7.2893150329496965
0.9478684491929645,-0.29974271961623267,-0.14292667487687527,-0.1281079202840414
3.855469374406356,-0.28179798403286893,0.6166210342371734,-0.45542071055756084
0.03239855333946462,1.3395582848400989,3.584982430244164,-0.48295492037353926
0.8634230773215574,-0.8398617258018126,-0.04351846369854262,-0.45951257099200005
1.2956017534864426,-0.8674354003652494,0.7604172447055038,-0.3149270895412901
1.5931031808248393,-0.5292067043877375,-0.7278090044279559,0.2642771299977258
1.3424564817958018,0.6769794054273293,0.5519536597912649,-0.6163333021552793
0.6150636108656051,-0.5338261223338572,1.5339448517651508,0.17261130100840427
0.5574253367015432,-0.4761790077659971,2.1648663664322365,0.39647569846327135
3.3944906026851402,-0.7562409565456287,-0.6476137126569583,-0.5437245899066707
2.0315314518145082,-0.32487529942730053,-0.010588404890133463,1.13519949808965
2.514857266612099,-0.017988095580117047,0.4876490055451861,-0.1954898233824618
1.2572633973322414,1.1200987057912055,-0.19951232904509364,-0.5407492323153537
-0.03188212601906337,-0.7760781579608033,0.7418358904760056,-0.08618345569623553
2.377193561207949,-0.3439091117837565,0.5722357438251062,-0.7515849490894501
1.5775567856779809,2.0105273587936425,0.12010188370288355,-0.6302868686647334
2.705741132141411,-0.8792193400799345,0.37775401444110623,-0.5290167110972025
0.860211559847252,-0.28344311919403753,-0.04380560813440004,0.4392586654013746
0.8581890324199131,0.715067973405465,0.37913702881398303,-0.9006157736619198
7.297780118685939,-0.31668533688134093,-0.12184304521945455,-0.18143174403594486
1.5523519953814455,-0.025111313896484244,3.6044509218745455,-0.7445248962864583
1.087567295394055,-0.3542379456833602,0.5901001953381291,-0.34823609962320046
0.8715692264608208,-0.4319728121544001,-0.08929604368020783,-0.3551641328713835
1.0931521935518136,-0.2383836715049532,-0.10890531861886321,0.9852158880935722
2.867871283265345,-0.36011502887944247,1.0712521068932226,-0.32124240414332084
3.1132347066543913,1.3743199510607815,0.712854504481023,-0.2545895420380119
0.4633394313675083,-0.5948540178067485,0.6569849700935237,-0.28720920696212304
0.3188380060201401,0.605608117880658,-0.5544304592003322,-0.4299055108641996
1.2205962806532775,1.9844820973648556,-0.8748266379078576,-0.13551054525291584
7.143050104352911,-0.4898895705777171,-0.43199944014716773,-0.8243630177400671
3.7951160930155217,-0.30995379145241087,1.6274530822379636,-0.2583633228195362
0.18654863143036882,-0.8257627356433979,0.39499984744747296,-0.15157614619124093
5.56819405160526,-0.14629017353617524,-0.3817177986993684,-0.10471467188551598
1.2046618260869217,-0.2597854442110983,0.4438191105513625,-0.11459063955793036
0.4458019246836289,-0.4620843799599478,0.2626091038893985,-0.6850301894286166
3.0631827558771825,-0.19841978378086333,0.8295338028996959,0.2661734669315241
1.6961529254267265,1.6767192777026088,0.3845300085735561,-0.6765617108209896
2.342736791194049,-0.4243288135935198,2.776571356833737,-0.3626712870832165
0.23943194295810977,-0.5264624228732804,0.7580203509696699,1.1099466107161176
0.7466011871745628,-0.5675214940854736,0.2922084916261254,-0.7624260377338898
0.87428120658198,-0.6323571527938783,0.14388346569524324,0.1181630957253621
2.459577854658816,0.0334115185703272,-0.7338322312746385,-0.2267638226286096
2.3203598432047454,0.09995053079995331,0.6604362549316574,0.1712143453904431
0.25000104444529736,0.6048523371319299,-0.8764245835535956,-0.42788193187714174
0.7243537347519093,-0.6237688479065381,-0.24205515037491254,-0.36532593911743916
-0.05028626227125299,-0.5557285472710451,-0.462639225729198,-0.4058495512888637
2.340827005226817,2.8930178359142613,0.3908380362303474,-0.27048407711789846
1.2520981544967924,-0.018790303748426274,-0.741004663033407,-0.22617323499369335
1.3583074439352676,-0.2645711047257058,0.5656015202918463,0.09340437017385206
2.044602273343261,-0.6178970278369792,1.89460072029742,1.077414397203822
1.2845673141753786,-0.3863235040007622,1.926287982463621,-0.04392057157887719
2.1453030340231827,0.12059545582895304,2.2418028138655064,0.20323491062110355
1.6182715989381826,-0.32995749560010645,-0.5288999927629048,-0.415565705739945
1.8672474249766275,-0.7551964103977127,0.9013276954082676,0.3157680371131004
1.444559255400947,-0.23479563413528937,0.22966733617154,0.022649525849462115
1.4307481711805736,0.7849172344992656,0.7288996609346277,0.009436676469550376
0.84523600975443,-0.8222987266998385,-0.4180286789632731,0.027864823950416007
0.29279630236710963,0.1860647326046101,-0.08049541169116814,0.6080947408695838
0.9368115313621346,0.25027411498415364,-0.2288159481385984,-0.2991221693937409
0.9209135906391659,-0.4361202804426878,0.7887237474609925,-0.3912491356523127
1.1547555362910766,-0.38508894834501606,-0.7781752051870062,0.740657370462291
0.6102987382976592,-0.6755167929132867,-0.5530218796063928,-0.7482783016258567
3.180494470912544,-0.19330591333254366,0.35083001578063167,-0.4453210186816313
3.2926239158978543,-0.5779437188658023,1.002044808630549,-0.7851760074697054
2.9766518706534946,-0.5258873107045577,0.30106785177425954,0.6359542105187297
1.1750729413426568,2.9337544150690746,0.6525490599947814,0.47676551278814205
2.402643827658473,0.7743627846498566,-0.5477458046596914,0.16739887468558012
0.9306248276648674,-0.6287553602998176,-0.1457853521180218,-0.5686402901876724
0.6417377754164026,-0.5217211082402171,-0.5903675593823736,-0.19637897142669314
8.957567278085724,-0.3883793689134164,-0.4479946751054562,-0.02133344221618305
1.3001527041791987,-0.5317483725794881,1.2372398510770264,-0.29257189600172795
1.0148373847093608,-0.6006886890984993,1.4825670170478524,1.428648301571183
1.8419002546873422,-0.16319854665604405,0.1564214567247546,0.13632487770966595
0.2681607365216707,-0.5270531868010937,1.5386249331452033,-0.5195739465781057
1.2315661315646662,0.5216407861734884,-0.4032799230519257,-0.30547998444677893
1.5253859399592287,-0.11370218330914006,0.18537655972101463,-0.2084387775809753
1.4535924906161712,-0.47216321958005214,1.5681665044461224,-0.6894197344663573
2.4577191173287654,-0.409943118198711,-0.36887764190544203,-0.42022877597616004
0.5900639318866621,0.2325083655420701,0.07771831059865875,-0.6670411722085663
1.2422456825332833,-0.6241388949166724,0.1402464779752759,0.5590311163901893
2.229082640229245,-0.5865810919819026,2.1125232044092064,-0.38853235339654724
0.993516697118469,-0.37395802464405925,2.9518537089765307,2.395319934339263
0.7149970128847531,0.1480592260398832,2.776755000199506,0.13502662964666778
7.5242582218435885,-0.31141116642577094,0.012915404169620004,-0.29322214433601757
2.334191773604766,-0.023830806356615386,0.41469162510292845,-0.10361664264460368
0.9750374614728974,0.6814883107499115,1.5223870420664731,0.8532388144411913
0.6857230306872586,-0.7677742292019729,-0.08745889029670728,0.061627769565604895
1.3005294162899856,-0.5680396256933484,15.145430357318393,0.14587262552788838
3.5478907981480123,1.2504078808950996,11.544981617378912,1.061506808190471
1.3670657749176303,-0.6670894510943931,0.05556041324903682,1.3869368933682193
1.2535307636316255,-0.6268252725204997,1.8864485423410469,-0.02878101491726104
1.6277656614940925,-0.27630965561431575,-0.13556685791717327,-0.5761713164471309
10.84702154587558,0.022067517865424158,1.2714219476741402,1.8056781308903536
0.6368082828053472,-0.21694743747733536,1.7584080022203006,-0.0027508274386888187
1.1305385118716762,3.993841094976493,0.2233738718398286,-0.38248963333443275
1.0341608125224662,-0.21996188213573753,0.6649591875993586,-0.40401168944326915
1.9548946773896323,-0.21755831941157966,1.0355543242310117,-0.09927287164944854
2.600673255014915,-0.0905846918773473,0.26398528392134857,0.5495346038227522
1.5388263404064029,0.13609414756673277,1.1859740174170783,-0.6877319031426313
0.11072365941677265,0.06597854217398602,-0.10637398555104771,-0.3893518610579697
0.6603045478709249,-0.7775935098577633,1.0863359509336274,1.1899146168748649
0.9849137750049093,-0.725008618000941,1.1169776961147782,0.029380864999453804
0.7700050429397847,0.2074997365868907,0.6705354135983472,2.3196044702375516
0.2898537621784012,-0.42561507758001904,-0.3699823901375098,-0.34932355713446717
0.20787237387596513,-0.5864471897628142,-0.08721969158315512,5.288206687751751
0.33914562818224625,0.06683219854958788,-0.5862827978454275,-0.6272115820021651
1.8219070393471566,0.036022945069326795,-0.18877433191392812,-0.5615116612142161
0.7262044808895978,-0.5139104165266459,0.3586945181325054,0.015472679707862147
1.7351963300951767,0.061786326960032056,-0.40409324645020583,-0.3891735628578452
2.4728012588702466,-0.753792508964304,-0.5027116100762374,-0.4611062194548503
0.30713839624860095,1.8521315543127672,0.5688488345121847,0.29136123913785705
3.3351596394091114,-0.27020329857408376,-0.49315174739621004,0.10268827375926204
0.868083239080943,-0.7227874043310916,-0.026153330552010412,-0.7792614564228652
0.7921850368765107,-0.8210568857390053,0.22418931897314276,0.1617318120769613
10.818259568746525,-0.5225835076756492,0.037711799816254166,-0.3525931063497416
7.73997151229559,-0.33629465078769316,-0.1084289413508317,-0.06961239766230887
1.9952156166686414,-0.08580383902925226,1.0603750806079044,0.022627963957707165
0.7139214574441977,-0.6573754938617246,-0.7685767896359981,-0.11316378432794394
26.337258636132464,0.6784046255476974,1.5478584447459975,0.07384205010544864
0.6852319717105335,0.025589623223754687,-0.2818373064729732,-0.2462923895740563
1.5352597537850619,0.15163761571977208,0.16331221487624337,-0.5054220981397881
4.845172674140793,0.3424480541348751,1.3014646866450041,-0.6321963658572668
0.5599242925824783,0.1496697500567179,0.45939183829982366,0.26177461472213825
0.5847818052257003,0.3571567523560657,-0.6946826815340255,-0.7482040049095784
5.390637556700126,-0.40456697274468134,-0.07864891631210025,-0.40879155410261314
0.7190490375295804,-0.8887249612868565,0.0456795546216231,-0.9573110084387431
1.6155017230458912,-0.7232665276223814,0.3783806135078047,-0.22701163593465035
4.833600611336971,-0.23119913218915644,1.2620940931925486,-0.8859908887821732
0.5280409559450709,-0.2643581291728798,-0.844640399870976,-0.3765662318344549
1.5564675628763887,-0.41549046210196927,-0.6775892432972475,-0.7169190581336435
1.7991461838569123,-0.8498726755511458,-0.4243713230274784,-0.10721368597316971
1.1425445025541654,-0.6286802481401785,-0.2715235293265139,-0.5870226501528297
0.9070623014762746,-0.3940721384424162,-0.19635259986275588,-0.5094943695267442
0.6133888146635447,2.9007609918264388,-0.7573781942263046,-0.12813556098840262
2.5520393122926612,-0.7543920769367436,-0.10841619082488951,-0.8916255900543708
5.219236080457663,-0.645867186548045,-0.3365102434862325,-0.4885745959202763
2.7636561173673573,-0.5901190638900011,0.15916543975653297,0.13353817291283399
0.008893360906255365,-0.6831673394174822,-0.637184588751052,-0.5780058656576955
0.9042143438447596,-0.48937106818919673,0.8677311068277023,-0.8579801350048489
1.1095426087957767,-0.0394468279049508,1.0899551950290425,-0.28883127317941204
0.9564810521965195,-0.22850201609149978,0.20494725895234978,-0.12950006308860385
1.6657801286323575,-0.25461733480589155,0.27591369141563793,-0.2870373579717984
1.117669373169755,-0.15766765023565288,-0.23986101351070965,-0.23524994372025143
1.2902469734972906,-0.3419085858885267,0.17659881895415142,-0.38599718213751166
0.797299937048018,-0.03595059292361924,1.416025028511382,10.14109982170066
1.9830623309387279,0.3734194674873168,-0.3437817848730248,-0.3784373312650592
-0.03259834423442609,-0.6843128954365902,0.8508847630467262,-0.4056757300094176
0.8776080723861854,-0.3342822366644892,1.3197960692281496,0.040053412621814166
2.036417935865983,-0.3726271302444426,0.10324146138945722,0.5940863637276497
6.846762637858268,-0.46912824476788206,0.14627592061246264,-0.42485013916219616
0.5608607724567554,0.018931624806760583,0.011890044889977691,0.038735528350639425
1.5231690682709682,0.721474607400211,0.49548366903999974,-0.3085763009232242
0.6247247639546862,-0.287465705750496,0.20889764468433847,-0.04852267892907747
6.131729960527193,-0.5064058967934935,-0.40719725690545727,0.46047188543276296
0.36140253530185107,-0.7912226864788972,0.4718205828391375,-0.4292424103445358
1.987078309238528,-0.4007513233636867,-0.527389525179155,5.030265137178374
1.394870526686038,-0.6273450271532715,0.3789303797183572,-0.4874500997139759
0.9843479938404962,1.1939161468161075,-0.014338153131921771,0.41743379219953525
9.107801198325758,-0.29956174795515045,0.2957741855884848,-0.28309779940339763
0.8926834527510599,-0.43864646337558444,-0.23391107053491933,-0.2740436626080025
0.751338783003008,-0.3335807073742222,0.21050911231149683,-0.6232280270164581
1.047993596975643,0.6840346423570383,0.26693475781423204,0.7483167360590279
0.44483171721789194,-0.912811509051637,4.022265095910856,0.9433506823024103
0.6693395613047501,-0.6336239405982547,-0.35118802720339626,0.6364172936046997
0.8979455230855711,0.1739699267679624,0.41591074881091017,0.07511761956253649
0.8216599378283893,-0.3719278467126599,-0.6801458877783171,-0.5317977254682773
4.090564650856221,-0.8735374368161243,0.4149881272142222,-0.8455784917783088
2.7377846288110605,-0.41211189588336417,-0.02282796895421213,-0.13755618564417815
0.9223205133208483,0.9129256791715694,0.41658536513409317,0.6012901328661926
0.8463201559296292,0.2517652881798964,0.4142509940646333,-0.4719757371923782
0.6807596624030159,-0.6543096262245311,3.5323099550605663,0.4208648145122038
2.964353616419251,-0.44753409109912645,-0.03629511669224228,-0.6637939452286985
1.505610066201644,0.37417380155080204,-0.3294560492045132,-0.4519641213296921
3.8528366459230616,0.00308758255636965,0.3564997218321886,-0.2375289796918757
6.271811528065386,-0.45203277662790775,-0.030754963229626564,0.3623878221832797
1.233841521177216,-0.3334863281223682,1.1655350433947032,-0.024133880106481098
0.9338446578354023,-0.5832497374667014,1.7530888323858105,0.5795989485854984
0.40029285716071983,1.6314203930047575,0.9660697398272708,-0.10299785427727126
1.5538020570082485,0.6321827793440096,-0.5930749374355095,0.22435752307765333
1.3210247840123057,-0.39769694675349754,4.915556207541162,2.910039832232202
2.446584509038385,-0.303851381176634,-0.19717691278752825,1.0380849671661148
0.2941826992470369,-0.6798275004330622,0.28996301189591644,0.2934531204852999
1.8859485000009961,2.0578431874381695,4.016669523727951,-0.6747702164748556
2.7155191000568335,-0.8057254325838599,0.468250551079499,-0.38127442763185526
1.6204213503523852,-0.21679230116058923,-0.4687378216826329,0.37625915064871074
0.7902778279057354,-0.5958349150909683,-0.17494776505071064,202.32063621251675
0.19724880207444384,-0.4819510282220524,-0.2090619045990031,-0.44144551364030415
0.601335826890699,-0.5176152216333223,-0.3607330598559262,-0.4535280056977611
6.389223911692145,-0.828320287079299,-0.031593822066909416,-0.7449811436987532
0.7514160572734221,0.0777621070604364,0.8272696004028339,0.03389384139172713
0.7486565403039604,-0.6643697012393205,-0.4520291716785435,1.9601155746586287
1.1491261219783424,-0.05935763671162553,0.5067738184677986,1.3943742569072124
4.468490319547951,-0.5810206532614727,1.2097987748834016,0.23274774999310388
1.3704542415945955,1.73866355768173,-0.8515914017564894,-0.6747509881896718
0.6827557822037842,-0.06495135802816576,0.6345563163294623,-0.27769880660784396
0.9717428945289746,0.31005975510672323,-0.5005787055894422,-0.3913621733537065
1.2993021301909597,1.3432552866123202,-0.8098609493226018,0.1466979383722149
6.378080085690175,-0.11999446280851467,-0.4441522041241587,0.2572955987761891
2.166183926535423,-0.22995306868336574,7.6412070486610855,-0.28448815539675576
1.0687469975868606,-0.27533931719746074,-0.052675627958464255,-0.4569290966127413
2.759105636502191,-0.6482715771269015,-0.5245179265128281,0.498425628790522
2.4171722613868165,0.5677333541196448,2.133317309264922,-0.7224956470866406
1.6465190351379277,1.9166573141514314,0.35321954953788093,-0.7077443266114805
0.629885537303321,-0.19290375552288874,0.39853460280442654,-0.3559593480079004
3.1517408129509406,0.1273292925436822,0.14389109288402646,0.4349759746691326
1.080517018869065,-0.026360500409434717,-0.2766012718267217,0.9992197756169221
2.786720311210018,0.18452098803205796,-0.43143688530513047,-0.5950921959062465
1.7644407928244976,-0.8894993324263849,2.6054941782270986,-0.24563887763661874
3.794722784722377,-0.29384647781208806,1.007234879974455,0.0015213815399042208
2.0295329389616117,-0.09265845253310456,-0.4467752063909515,0.24247381224770082
0.93092640594104,-0.6311084832562794,0.5192279850095098,-0.23144748540206506
1.2890948103022941,-0.2901789348352315,-0.424708067561672,0.07851081425483031
0.6429763218759112,-0.544601127354454,1.3555373574837453,-0.47446587894468095
0.7115809834595734,-0.5137387798883047,-0.5964097591717961,-0.1768696693497278
0.8660573557413851,0.7148560304012246,-0.010279987718028294,-0.3822110623019037
1.838037366486819,-0.6929788667204286,-0.3919759580486981,-0.3768612124385361
0.0017714967208690702,-0.6857151417914871,-0.21371673251917966,-0.5351570078438324
2.1217062130463313,-0.46539088318784494,-0.028722299417060615,-0.658636033836669
0.8504177949831122,-0.35679587904522025,2.2942671896363427,-0.32653116110380354
1.4635837309481667,-0.30796176313344226,-0.3608793615792083,0.9236592216038972
0.022642490290579964,-0.2769650252308238,1.9966428270856968,0.2078869533753569
0.34242592375914316,-0.567510963002924,1.2407478905795735,-0.6466823790885932
0.8986981318737033,-0.44084199778608424,0.6489849304195592,0.14849985897847162
2.6329374288246035,0.8081688012141313,0.2881405299412363,1.4861915684916034
1.5657636826171726,0.2827187832892053,1.2363122026126976,-0.2104527281338795
1.2776524712587767,-0.6343206310641507,0.6439397902752515,1.181678367894306
0.8569620554527699,-0.32740303241058544,0.8869480283036231,-0.9189224573497372
1.4392612533723832,-0.35246488352161065,-0.2833680007665933,-0.6228185939616826
8.009921390594794,-0.13588095678123502,0.45597290154704107,0.5860197997116288
1.3619099961383077,2.1981662232412105,0.27401762929960083,0.583286797695109
2.1107453355895855,0.0540261587349975,0.33648824276328826,0.3083841455685199
2.7031177809396354,-0.40508956450254263,-0.07899483325978851,-0.21647482872016854
1.7169038765056572,0.3168476499693418,5.144787908720625,-0.46324223312813073
3.877450239015011,-0.6171345279474183,-0.6575843998705647,0.6511269937215682
1.3851380918951417,0.12515948646520236,0.479196573947837,-0.6615634677262596
1.4021793720764824,0.5708641487553485,1.6865948351391031,-0.8863450484916734
-0.20109647231334182,-0.8576466818396962,2.107555044619223,-0.36186021808996804
0.5074343198341822,-0.368925737591007,-0.3687562863530115,-0.463848051170736
1.4294122316556797,-0.4900855637834518,-0.41392927801772517,0.042467716515983245
0.6922439536264748,0.058089805939851136,2.4902282000328846,-0.49194654510742986
8.779996614088697,0.10138814195012413,-0.318708560462138,1.2524261866701396
0.20566533645092844,-0.2872384532837794,1.3279824623339627,0.02140421550427707
1.7307254214627958,-0.22545091535663686,0.11268287218197703,-0.16313080906433075
1.1440712369957766,-0.5407358901043513,-0.9466121569743033,-0.6158033792082165
0.6623424589702462,-0.6839004745459374,0.7955087319056209,-0.05168798417720222
1.3687050720933582,-0.44715343182651435,-0.7430273720613738,-0.3637727843997387
0.7456174952988832,0.22609911279995254,0.40944719133383467,4.0125463008804445
4.0038437524322665,-0.4135791847327235,0.23681370440191762,-0.4375167580755128
2.363497662430835,-0.47668162253131596,0.148209098420788,2.852788329298802
0.6753319556716904,-0.562960246664906,0.06049452573872305,0.1107383407728435
1.3471753096547334,0.8020675104085233,-0.7131877533535593,0.27587727082606217
0.6182384966536008,0.014489590378721884,-0.3093652426523813,-0.7320669222803137
1.846030628155051,0.7625090701370434,0.5603828445971104,-0.25524534297518775
1.2053416041218794,-0.839130497562285,0.8517202961339791,-0.029063287643630087
1.0035518125453944,-0.36945784048590946,0.7638201057630649,-0.7613134153820205
1.423363016797551,-0.3749622258249844,-0.39960585064712684,-0.004534073568861485
0.7894785879935968,-0.06346620809980308,-0.08818292602340161,-0.6020682714770875
2.282208693110515,-0.1713669816949398,-0.4273145688733221,0.7221873212869276
0.796277692210889,-0.5340087743887586,-0.7290805336299067,-0.09798079447722663
4.702580857855098,0.6949827807237101,1.2483043874927322,0.10507699437137585
8.106406666132202,-0.444668660696774,-0.025486532068262457,-0.38545837175718656
0.2595247120706654,-0.6057399576680136,0.7516299523696759,0.8316318839065842
1.339123055458419,-0.09459262271086943,1.3194431383384053,-0.3151641277217788
0.8348157707671591,-0.6481410105748162,1.0318517154539726,1.081517168722396
3.7028102337677318,-0.06079836005307193,1.1039284134861038,-0.31862783548399864
6.192500112151711,0.8075744076910916,-0.18749930128920278,-0.6799482722727423
1.775226533160351,-0.025898798331710826,0.7437906503892253,1.1339918859865414
0.05230536890544024,0.2427844076943786,1.240545392783873,-0.6605714690615292
0.07256050362375288,-0.1409369856924244,-0.1414579750531073,-0.5398939805885754
3.1909180010142792,0.3418650630458888,-0.5019846205717289,0.37193996669786156
0.7575571636662279,-0.5514401170439391,2.2553753270874295,-0.16744571744628445
0.7313603591738824,-0.6619983612573299,1.1368609410835835,1.9576789050328087
0.588584518611633,-0.18213484086117093,0.6405940487427613,-0.3011416916201938
4.8865301852526875,-0.5879311109179288,2.171576278874996,-0.09886915863654477
1.1708143032486822,-0.8356926228391808,2.6452460558514654,-0.12800866176738235
2.1432090388421257,-0.4425160175342979,-0.7234241134837098,1.4115057209710522
4.446303082449659,-0.5031493168661794,-0.18562951162532781,1.0129700960661792
2.476194775288054,-0.853956249948461,0.4315757141005565,-0.3809581629425035
2.647527166259993,0.28969237955987803,-0.7371548737756862,-0.6847489494442072
1.0586885099980754,-0.0035000665188897884,0.9690779269693413,-0.005425727595395058
6.6589801495072605,-0.7034049021354539,-0.266969433268728,-0.4721844697363714
1.1638916459183752,1.4344499719985055,-0.21173552719901234,1.5426641311625353
1.246314988601973,-0.7446290297462606,-0.12744348223034285,1.682624881661503
3.2950229804985183,-0.8081093191098512,-0.30074963902942253,-0.6794339706593948
0.25316861570931115,-0.48387896144074705,0.6170012325776992,2.6466949077949855
0.7312935702491847,0.46399704579653167,1.5357203990767063,0.022434779423040174
1.808394180042363,-0.6041631536239753,-0.5281996226919081,-0.7924624919058156
0.3631939080408102,-0.49613019322104934,0.3368878621031137,-0.00861525332534585
1.8700468413974853,-0.17944049800399586,1.891657942889803,-0.8271118456415245
0.37381824855159684,-0.5932603568363886,-0.0966972773701098,0.08445020450926344
1.2594348165839633,0.180700828527945,0.26003014816202086,-0.41118937212442963
1.1195126312953998,-0.552906905239378,-0.7085253944123555,-0.4923021488462136
0.4884090925683151,1.3512286248826468,0.5279283772980279,-0.2739779671824727
0.6789082294787183,0.3190728438131172,1.1097182984366074,-0.3326549815361003
12.784019364258523,-0.5904438818394132,0.2578329481550172,0.23439342098202975
1.1604989631182696,0.18581687063441343,-0.31028933507119993,-0.1663057295321151
-0.05527298562446392,-0.8109757476069483,0.7007962876511669,0.1858496143433792
0.7907396559923856,0.7760127314258867,0.8520761908443604,-0.33209762443972535
1.5917091971261375,-0.5248127806773951,0.0057447412884263915,1.2020146539100596
0.44072347974667747,-0.7835180068684148,0.9263326715942448,-0.1618304818796079
2.7748487765344154,0.11267523501590371,0.141529853269043,-0.5379234115595941
0.2543546755925219,-0.2730949906853395,-0.710862207453334,0.0068128428014468945
-0.0564593918756956,-0.6635285236369581,0.13091198845505225,-0.18153416676269385
1.041437749160742,-0.548595178424613,0.1305246688307773,-0.7151117395842477
2.2921515124799168,-0.30818461924915186,0.13880036763295234,0.4853048374938733
3.77446774304617,-0.029993330323518697,0.3396968541355636,-0.04291177226125331
1.4257833094614578,0.16261311622689534,-0.24333848865844943,-0.6861900410777899
3.341702951741186,-0.7604714685692505,1.129893329988846,0.3858324206818491
4.716342424011494,-0.5897573972261576,0.2090786693545592,-0.10662921828885108
8.525959843781811,-0.6913036357044573,-0.566561910648363,-0.17487266042975702
1.235757917286032,-0.7721389535767579,-0.4211196882326166,0.6596224131205044
1.382768319158536,0.3896816755351262,2.3291960726807703,2.5120229632886386
1.0976481002069294,2.2043966010856026,0.539581064453386,-0.5604814081899502
0.72599989575523,-0.6120202066667972,0.6711442925639644,-0.20054940878861838
3.658129700544639,-0.2588263701007235,0.9140329479163769,-0.8910044398049837
0.6021259437882782,0.152147142583414,0.22200913514222909,-0.2823824567376494
2.566404337368716,-0.9296610253156774,0.43756075692059393,-0.17659914945657507
42.02000472539791,0.21214138449236142,0.8106918700551564,-0.39399833254915584
2.5972348214818686,0.3356593908182559,0.019111981240185205,-0.271000389917456
4.718404029612405,0.4527467289705924,3.6619047690785687,-0.07913701157527286
1.2016941887630033,-0.45617725298923617,-0.3526347950390851,-0.33487818397525304
3.630662006662429,-0.1839322353603985,-0.30689697533011795,-0.2474815903455303
0.9801497291640247,1.4794695893154475,0.6312597398888609,-0.25124094973309075
-0.03521371959345021,-0.06437879134695734,-0.03226205910136504,0.644252970155331
1.7333695083073808,-0.3482920324080233,0.5617644984115107,-0.02145437390480487
3.0109851082577928,1.1124829451270464,-0.211398898674938,-0.4255255787714487
6.212553055484704,-0.8467277471097527,0.3839065744637815,0.08405521162530682
0.21692687904866692,-0.6152856621642602,0.39334082523916303,-0.4292017198443927
1.6619790010581834,-0.6385009158226523,-0.02374785540254254,-0.4250006384890246
1.6158054722921054,1.1974601253270265,0.2076418017345043,0.03685113391480699
9.16332362849592,0.0735362049279118,2.9412100307731643,0.004003784933313659
1.1020122604268447,-0.6555720350141321,0.39593880828341765,2.379272855397474
0.4347293056883459,-0.6543519852182409,0.26390335264445475,0.05647443092449378
2.5704051060440865,-0.4175263944608899,-0.4405996138050359,1.3639377138674718
0.6812521865630576,0.5874493729617891,-0.5915891831860498,-0.3614641565855603
0.5124646334901994,0.9471859694366189,0.7430947426295955,0.014188208807852432
6.253450269328573,0.15488287406854417,-0.44721120252196833,1.4478646673761078
0.9133996130707711,0.7418435232788398,-0.3559682471033496,0.6834914507849266
1.5822986296108894,-0.334592248677016,0.37171918096306045,-0.2163347638132017
1.0728733166226965,-0.08896451559753915,0.6605900913326448,-0.5581457407773456
0.241133855474704,-0.716970289762628,0.2750943105639234,-0.1225662236554057
0.055091838047911734,-0.4630218210223286,0.39316831861657886,1.6519748882023735
1.5288869906159803,-0.15246859324093742,-0.6875162823193492,-0.3194139663463901
2.541663969266388,-0.7127955705364637,0.26382877595476795,0.1100126693353376
0.4178933990312894,-0.039683500555749096,0.7647227432489467,0.6831140239325335
6.756043040142435,-0.956767749262631,0.4105201942978418,-0.2399262206347158
1.578512445847338,-0.07434904095995265,-0.19427391129974092,-0.17515068764011377
1.9489327167207238,0.3846874273930163,0.011613961026579078,-0.4979084329895107
1.516059487286347,-0.8421724336122834,0.06165043889136679,-0.4067325193492206
1.372270158593834,0.12302971187149336,0.713373148530327,0.3101543079939031
1.51530273005856,-0.33295066989726996,-0.7002471546000673,-0.17131238214213673
0.43206745673342883,0.08828279875694856,8.66793663076416,0.054997997755081185
3.8609080401029168,-0.49369154143174554,0.46116348278368013,0.0025343127823636014
1.8932032714956208,-0.7175733462551819,-0.8240010048181169,-0.8780201432255965
1.2065818131126864,0.14781524496069443,-0.09702307488006678,-0.5847412557351681
3.3565195296044816,-0.6422897593567878,0.00793721413980597,-0.2601997236594418
0.29359170588270644,-0.3626384168522364,0.3926812072354864,-0.30606504712256366
1.2681956092729036,1.1612154974773983,0.15897580366433872,-0.29520439727590075
0.752030345859197,-0.17782110199120627,-0.2547646662658759,-0.40741854581260406
1.8885006346289472,-0.725356420755537,0.16245000507791985,-0.5591992466930771
3.4777089730687205,-0.3722428058070265,-0.5444096760352175,-0.4224155144013738
1.5332940319387278,0.7614273239510294,0.06149399214496398,-0.32091794270568996
0.3769837490691328,-0.7331539402755822,-0.27187797053820306,-0.5994014524259165
2.194411004317109,0.4354580074304273,-0.06656357734861529,-0.7859413916596529
0.9369215161233424,-0.37476623415540034,3.0081431065775295,-0.581719658266487
2.0649615413099984,-0.7460597939653837,-0.2703491941579186,-0.3513608447828839
1.1315871640379505,0.1435563778041158,3.7451058390742302,-0.5408677269301332
3.253395099368044,-0.17039424447081286,-0.5476416449962063,-0.6188379230093483
0.5471610828070934,-0.6679498256007315,0.009602908096417284,-0.32846247118330174
0.19845308798645322,-0.0497406628247703,-0.19505376756197856,-0.23396401891877883
0.5968970307864259,-0.7238063974201236,3.497090377521193,-0.3791530230947189
3.8500298219808657,0.2538147996252227,1.2488849552058503,0.6501984994581933
3.6500453638096424,-0.616115625055877,0.46624135527466315,-0.36167004026708216
3.3139335359829216,-0.7595739975088991,3.667670288740764,1.824634502500564
2.521423556943444,-0.2893608052362743,0.935148390937568,0.8685838992030583
3.492460368084375,-0.23507707144403667,-0.11223065607046079,-0.12143815648250955
1.08985187158485,-0.04591452256171791,0.35411746492635254,-0.10141413673263322
0.9122107058363893,-0.08368612937688891,0.6043836199497088,1.472499967447289
1.3667363124625957,0.02433146729845803,7.543815567722675,0.2336449140190764
3.4763529853910944,-0.46036648422268023,0.38117080045443497,-0.5794403398853234
3.2787551888411635,1.8015433092948792,-0.48291059559306226,-0.5533024050419011
3.576854968177222,-0.8338006887904593,1.8057402212708795,0.619643639868527
1.0533888743618887,-0.2021425990163047,0.8220440461844405,-0.13165985251307877
0.346460785326107,-0.8056753300349634,0.11025720418661278,-0.016224313734026663
18.881277673244494,0.2018409553056315,1.0650957817472415,-0.31011712795471624
1.0490574642379689,1.082798100617277,0.2962337959989454,0.4329338906074318
5.8575265733954875,-0.5625751005159565,0.48180473171728466,-0.7696775265008747
0.7029219386159178,-0.348727465996411,-0.3624032900006755,1.395204671206851
3.3468993301412633,0.39780259221170544,3.29885574586337,-0.7357601015701433
0.6878627839245635,0.44967028332207026,3.1357951844574927,0.7151055036308882
4.057603575215943,-0.5288707506601062,0.22881634677766294,-0.9567798161006696
0.8059063211536448,-0.6860692044050576,1.3144827553273806,0.8756193310848817
5.224355298717953,-0.13797212439248785,-0.5193245615216107,-0.7116699136687021
0.08936289294502564,-0.1815392367796368,-0.4753064124581762,1.4391971061037836
9.277347762349974,0.5918922453588664,-0.34135371806682113,0.4842900504679448
2.6584043649256563,-0.8209363570530577,0.1945635335199789,-0.538531910849345
0.9735040729276794,-0.02230822907346308,-0.042690007778399486,-0.2507379047797589
1.1644374125590669,1.4995123046261356,-0.06639614070149658,-0.16810750844426303
4.254108703016417,-0.3965956539392256,0.5519290557036116,-0.5854829782170954
1.4551932261416836,-0.3565459392418687,-0.22149584635095154,0.4408431335391645
0.9326687257627131,-0.03265968937510899,0.9485860554170136,0.044683146722127365
1.1164428062976013,0.02360112728924335,0.16573856282438815,-0.0863717406772142
0.42353631767525113,-0.767101690308722,-0.025296642889246268,-0.33807654114521124
4.4591021286616135,-0.31230944638489244,5.032844104768975,-0.15631724018103732
3.6228148525528345,-0.5935320749462213,1.1749347850205636,0.48297984939617944
1.4054750224760055,-0.5763522285802463,2.2368008996750173,1.7491091833054901
1.6440878007911595,-0.7268700371760902,0.48392039690548794,-0.37846774690878515
0.9940657457198987,-0.5467938169685882,-0.4045127052928792,0.2389051673277629
0.575517467487594,-0.5561021664377976,1.3321817344868392,-0.7562221412744121
2.476503305681368,-0.06284278292767431,-0.38100170611491824,-0.31126320972997823
25.24564603537063,1.5781917264870216,-0.007633712124987646,0.22244450414896777
1.9372624253289015,-0.6021274294600594,0.7359128998354436,-0.028916018730070103
1.1668077303381748,0.2052339428586909,0.6220698259956476,1.7358628757564634
0.475092372576448,0.10172355466801442,-0.15487137903297465,0.07873164743418704
0.7699370519105142,-0.5121862206626001,-0.014589761768697862,0.415696185605982
4.773868826590641,-0.7533241607646242,0.23132528300355837,0.5675175324468591
0.9810184795678434,0.32065960254870784,0.6900790815173339,-0.7489455503071297
0.8815823553012818,-0.8148857176227979,4.499136153832298,-0.8175510513272
0.3175733029466399,0.05704423281211768,1.527898452268548,0.0003345533553211766
0.8098731488688331,-0.4068961552299074,0.7530318635034821,0.5910583258591047
24.12856405648352,-0.5105742120148418,3.0248242972622696,-0.18681239981459818
1.2256418966738951,2.4945102620953388,0.49072235885022586,0.7593077630856355
1.173926384398602,-0.5909331495587901,2.2442944327176177,-0.3292839444320709
1.2887826345899969,2.94513011142776,0.6289596428044988,-0.6508131427362642
0.6990138966475656,-0.6309284746808399,0.5318039262952521,-0.23300337496527923
0.3625315520175796,-0.48571802165550504,1.6464881757040866,0.18413016269491056
0.6127220590132907,-0.6740867892225642,0.1819273159505943,0.38399203444372243
0.8905644192332625,-0.2553323700286838,0.6707980906627793,-0.13268932429159574
0.8365171004015535,-0.6061141315829812,1.6282117320699587,0.1970481316903463
0.7956931919537473,0.5969816063149711,0.14797242797499321,-0.15038947087502275
12.038433413019819,0.7462272965014094,0.40287200962493763,-0.73552379715049
4.403766062957598,-0.5595054217042044,0.45274960021898125,-0.21998546422430343
1.3182546781946627,0.7972407906896346,-0.28423061978605035,-0.37378531432355755
13.91853394587567,-0.6984040106967474,-0.44487103015895313,3.494347125367133
4.908832859325624,-0.6820129758435223,-0.0038221920896553963,0.014006181378782623
3.670520317319201,-0.5886684487720331,0.9250008807326999,-0.20167879637561614
1.3620191528286538,0.9299223844165405,-0.21653846656203168,-0.04330487075765155
1.571042589327666,0.7867281910783164,-0.7269088294628623,0.4171435385194229
2.144057378817446,1.2881938071646357,0.2812220143008428,-0.8715489512808041
0.630599700405672,-0.6603145764523264,1.1695006334617277,-0.010245489611951597
2.335158328766424,-0.3494737634507362,-0.023002095441104653,0.2676444507371425
0.777563570856465,-0.42491388425048404,1.1745606804650794,3.6081857523750376
1.711706730206723,0.5037808117653741,0.3098624133140233,-0.5169588601985782
1.1426438206697682,-0.5180163804360299,3.3004060572749596,0.11219165949517773
0.19994483044773625,1.6700473475663418,-0.7450632323585169,1.260018302413449
5.156552015410049,0.03869529330831445,-0.8236294064518281,0.05899658690844167
0.5021155074676182,-0.493669387327793,0.14968874916495434,-0.3229744497207251
5.400200770268653,0.04729037656131774,0.46725629260755386,0.06725968764320234
0.8269232221993714,0.42166811542459404,0.7180784157062348,0.31587130559053733
0.37532185234639437,-0.6416678592619599,0.3134097613755815,-0.47092167342117475
3.0004387286859853,1.5051785275619527,-0.024146771349532914,0.11064880642720243
8.448759240884057,2.843311692992051,-0.4971390206702948,0.697717924882203
0.8545642077480669,-0.17337822941207326,0.8956357058534652,0.6053088442212422
3.0468856754158447,-0.300701301272828,0.011353318891646369,0.9879813997406193
1.2547741003839659,0.21287582176534192,2.015743045722861,0.07391894665253451
0.9918659389583198,-0.3161911322188583,-0.9058884625879882,-0.2640612283548287
9.739225784170044,-0.5736376871958643,1.0492391161880894,-0.618812690473773
2.7290512087817373,-0.3256359417700947,-0.33472433562332327,-0.04359226110128589
3.0089914078329594,-0.5472819131529889,-0.4153266280802387,-0.7732645814749021
6.686465330039421,0.11202984585797382,1.4248884417886765,0.15056586682439232
1.4089872915336579,-0.6820688137142246,0.1565042968930792,-0.18299387703383818
0.35373319736019826,-0.8887399927591325,-0.4429424825082606,0.07909076534856618
1.986654726963606,0.29815127384658924,-0.2028408046996245,-0.22726690851172926
1.199294371515455,-0.4446502552139915,0.515352444380744,0.6714236189755827
1.334819865736518,-0.7734944546912952,-0.041811877485344984,-0.5126789795494564
0.0504909158298279,-0.6069763924367058,1.2473646780807015,-0.0205000899715978
1.013345025260004,-0.8748098090554601,2.0728386791251454,-0.1669349657189232
0.8976420875753603,-0.08392126522091314,0.21347675065126226,0.28710739736504487
1.9173080618831215,0.39270210957873886,1.1485925160098658,-0.4490898194146504
0.6004085687160696,0.24053643849102868,0.5572298991116231,0.03710482819534611
3.8249873832013366,-0.10119651529243712,4.16151558481902,-0.6284016539673118
2.9888002883001485,4.098539838748811,0.3558818330503306,0.7124987930254207
1.7678718535182831,-0.6864458287864659,1.1047671013369071,0.447881340302845
1.083396539401729,-0.5898349095510516,0.7692897371521703,0.1255506994459874
0.8456397657165926,0.40371687963343494,3.6249133321450184,-0.44846900828140246
2.3677834439680696,-0.7262231976798944,0.22855703434167052,0.4899395682642631
0.37031364222022045,-0.791461719448636,0.830642161799074,-0.5008362859775758
0.22412777836164866,-0.43552425349815216,-0.07180858148908098,0.009842564126845366
2.067542803416303,1.8074395419184408,14.319057312816172,0.10128154537611711
0.49657761115527066,-0.7514667242567066,0.5356523793257058,0.9076298005879808
10.168603347339133,-0.03624069691611931,2.123995543856288,-0.8362190358714574
3.1406046466636504,-0.5850367546925839,-0.09571933766551921,-0.22820691591018205
1.094604540495291,-0.7677214832777306,-0.16613907903135094,-0.07696385847704457
0.7209575527382972,0.35495423903854495,-0.23142994117923155,-0.7312749980653259
11.380663802862005,0.12032934645434401,0.04638122276536505,-0.006210947406285028
2.253158166060809,-0.6003407935907503,2.726654084118219,-0.11557109015841249
1.6140249278330772,-0.4783169856093715,0.17908507037431565,-0.3307008842933473
1.0275956331990237,0.21901502495179392,0.6137160424808172,-0.4107341808283036
0.7407503543492144,0.6822099812121045,0.5032010048134339,-0.4955388918221606
1.4431551372190454,-0.4285673258267316,0.7726542629382405,0.36028452950008205
2.4795307484274947,0.29107077996677067,-0.20662038830148954,2.6782768612640684
1.4998624448956446,-0.3878923496808946,-0.13316931984829905,-0.587743389517438
2.623569514112255,0.09281795812935534,-0.8354268794620153,0.3215780151646572
0.7507216787340907,-0.2465923809732148,0.01246490577187731,-0.3900447216194156
0.22336737503843618,-0.9299196993168288,-0.2659328098959248,1.1193704402459748
1.572107101447485,-0.4283870058491178,-0.614785190287958,-0.2977245829473957
0.5444886349103664,-0.11606970045856302,0.12126613815622078,-0.5049499140278036
0.18408784486291685,-0.004305476586278667,7.9969046086540985,0.7350284715168391
1.8468461601454744,0.20957815944193214,-0.034169319096508666,0.28182834947721713
5.680114504736162,-0.25464123411218886,3.017672317152938,-0.533639645550398
0.7977589358364596,-0.20623477118411837,-0.13158432542333953,-0.7494124203381296
1.3965222967115718,2.2715032895114025,0.0723196475112402,-0.07699905227836568
0.5545180287752622,0.3266495508361169,0.17639776114990413,-0.9394847780728055
1.7127973937979895,-0.6775651964592937,0.6276260376007765,0.43350154157499476
3.224079400795442,-0.5953367178657976,0.13995429662179082,0.8407369744958268
1.2806729394284413,-0.7529112121118517,0.48603689139034945,0.9444886482965351
0.4733762465978155,-0.7534999722040339,3.525659098915572,0.018999014970242367
3.9125240299590436,-0.6399665004593728,0.5214550118400161,0.2819058110459829
0.58567251353342,-0.6831955272824715,0.5683447068548706,-0.47997226397860115
1.1444790250278185,1.245297197011074,1.3669352234340373,0.403590480925045
1.0389694302135233,-0.32896780782958357,0.7735102943639138,-0.5181182333645865
0.7312900897148404,-0.8364767190619236,-0.23476870878230405,-0.11458635358471492
0.38966263263148093,-0.1489822120533255,-0.4145163270460752,1.1107376702116705
2.0448926740822126,-0.6709540516465626,0.2083693810216709,0.6620063676440311
0.5264767050878709,-0.6729540760864798,0.4976532447710642,-0.9449911856762566
2.017982897638188,-0.6462787939238279,-0.16687493095948724,4.594797346478898
1.026590076912799,-0.25096235030258407,2.6168404238617544,-0.27533692873011517
0.7436630316283372,-0.6321172742157529,-0.06204104560015411,-0.3214845663880843
0.7148766941153044,-0.1710240539927893,6.396236387954977,2.242000280807352
0.6695405774881693,-0.5046537425612857,2.4919591122226725,0.9055287530623635
11.02662134946462,-0.016811333912432835,-0.15796653057400456,-0.5456346328661459
0.7049899576769234,-0.3562997462243732,0.05976328173931433,0.20396330258359652
0.46592210582715543,-0.3640423735276458,0.8337051716369936,0.2196540191468268
0.5668470627992224,1.846656938616876,2.7387514114240585,-0.4286408850788581
2.515444730781489,0.9508977508789047,0.14880915546529838,-0.7056059621449995
1.684684011052835,0.24670821555094968,0.825052933686917,0.3089928810280891
1.3581769120301241,-0.778435837040656,0.09836642324656864,-0.3171205172703494
0.8828824537371569,-0.8171031146109378,2.8828409308139906,0.6157447325739298
23.977846647271726,-0.9217142743212907,1.0522945065513922,0.7121573799912739
0.32973712389590637,-0.42058368165805404,-0.7566240023078205,-0.12608338721825574
2.542982709374724,-0.5993674048789841,7.135683540842075,-0.6301503397397432
3.7213778895982728,-0.5804656853471397,0.41470276213297996,-0.4648331747296657
1.5203849814861248,0.4759735591438774,1.193673462765355,-0.017792714198724635
1.084844276000858,-0.18853185313619647,0.591612900103051,-0.49995962643571934
0.6453597779138103,1.1077098165710182,0.1206335662975504,0.5214763551140387
2.0607851023881403,-0.9445164672821085,0.9761197650403084,-0.7259456405091117
0.2989141601089935,-0.909263720076484,-0.0877562872543105,0.3556358752975477
2.161020751187009,-0.22608293981446104,-0.4187672930839852,-0.7866210546702948
1.6587865348563184,-0.3773974555011579,-0.05423324814233377,0.490176493756054
11.309896587078049,-0.26481736667496014,-0.9236320337159534,0.6020983464448864
3.472345819118879,-0.20381879764041577,0.04836508989967392,-0.683169333896753
11.95163632108799,-0.2070466679150481,0.24205577080201413,-0.25187520665609064
0.31733558992156885,-0.2948814790741334,3.2679675808912867,-0.25967201177066734
0.7449195895865033,-0.318989061171404,-0.18408639271740979,-0.6067892736005707
1.3864902862651767,-0.43093629035814585,2.2724034268743383,-0.4091400809732404
0.35307742894126504,-0.8859272036091763,1.019618829537834,-0.06371968265403194
1.5136178143205337,-0.265894039952167,0.0622115060922499,0.460452158784856
0.9823694160773335,0.3803840272416621,1.471302986776763,0.9596304590841764
0.7838502997618049,0.08990950863262226,0.2900840278083079,-0.5573742242182713
1.9492933573249007,3.6097895784113483,0.4688958753537116,-0.025900166159085636
2.1206865839513918,-0.09922986107968101,3.153477140865377,-0.11081573483596963
3.4638483429845497,0.772177418156617,0.26844092344325454,-0.15329499646637268
0.14730404829272103,0.1128731528708149,1.192569802713272,-0.015052143129926754
0.6867070248973668,-0.252420202142699,16.34686090494144,0.2485036933252729
12.44353702271878,1.7441594430330292,-0.5198724780440074,0.16584780623429518
1.5755292656332736,-0.5433168280616425,0.37395568808564406,-0.5531975249320706
2.374225174659617,0.8400968007151157,6.790666925144106,1.3452641045341474
2.4061848629830487,0.6553253205583134,0.8740736380728418,5.082100078370424
1.9148764672892793,-0.5938438501314117,0.0034693652798858388,1.40981123601372
1.249536390913923,0.32177866340444017,0.3642461361688245,-0.2998282206634124
2.9746762857363964,0.6802617039774903,-0.47030675175770076,-0.17660602873848374
1.8843139348173614,-0.387221604510702,0.2597964174420244,0.24491103230991684
2.37577781308526,1.0127097361267978,-0.3272735650590437,-0.2777587290078043
6.698587449929044,-0.31087471854891846,0.7527658268005866,4.676261440474663
0.907274296693874,-0.6294081064846333,-0.4030882348274536,-0.2719701073206352
1.7893161283069512,-0.4702053133610734,-0.7013292294640984,-0.3971005239086637
1.4003954248628294,-0.6090976400490368,1.8645327327403742,0.39164842958018986
1.7897863451625953,-0.6115291099420559,2.487300840559705,-0.30160642318841957
0.6669549813209659,-0.5768298711114414,-0.026566045116059644,-0.12950801893497577
1.6763437198473525,-0.8138127539706267,-0.6500701417635,-0.5026595557562252
0.9914970419838354,1.730803030770487,-0.9413959432407466,-0.41402861526262624
4.865952331086897,8.387479455458477,-0.07291815664502177,7.546934125181421
0.5082357753470337,-0.8574306949933402,0.36253069074735955,-0.5183535905804815
1.2274943831022394,-0.9193804748942198,0.17972530091021532,-0.07428002981619952
1.0494131794894908,-0.3327090103693947,1.043853550930241,-0.7232659420973966
0.4146783034939543,1.2488860002736515,-0.03150570928165364,0.8200053137231402
1.519755156179,-0.3081497513744772,0.9761642012164709,-0.03128766294571694
1.307597461455726,-0.35491217595441726,0.8066329679737472,0.544434580335035
4.2805933375334595,0.010099045249809313,1.2534886260269973,0.0846873802842043
1.2477097463084337,2.7101927981669025,0.098874266228411,3.075314799114759
2.3829703389201544,0.16393291397174758,-0.06468185701344153,-0.39172101366677414
0.4874502097755944,1.4101517848274092,-0.08253679950592785,5.538958176857357
-0.05990722807856497,-0.65256175671201,-0.5089323334582769,-0.35169720013610173
6.923507442727678,-0.4843283897765558,-0.4240594313632524,-0.30089098950971505
1.012567274296401,-0.44501196713493274,-0.5897041410618977,-0.02254128625036622
1.0353159864136252,0.09753431389285105,0.14948961244226888,-0.6415349887164123
1.0341635482967138,-0.7953568951593896,2.533014283870884,-0.06379040842987593
0.3016467408849661,-0.33830409492830926,0.260875879777245,-0.1562052310421128
4.7252318324957,-0.03620438179572072,-0.42000605092083476,-0.30887135344556493
2.740132610205052,0.1950771631228534,3.241963572859434,0.17354215534552497
1.6833811953374402,-0.21078611633439248,0.41063568635236924,0.045747322861870776
5.844741695801458,-0.2419988230879747,0.08860318519014165,0.5784492349811821
0.48165413302766247,0.5545079851901829,-0.4586251536956051,-0.325365004014184
1.0889402963476735,0.0808419442400572,0.00940632933489205,15.52240569716923
1.2209921873621883,-0.0818188716921665,0.9039130754849551,0.5674774600413397
0.17902145814798165,0.3659827530469877,10.176061334179039,-0.1687530411171133
0.925554291534991,3.9343056656825066,-0.32484085032823284,0.4764714262543306
1.9211596574054894,-0.3656226835459745,6.005123399956943,-0.7686580921983194
1.3414868663018638,-0.20856578773176082,1.492185110528267,0.6097497758681878
3.3847295146204583,-0.15762621388404885,-0.9190211017936684,-0.3991586973952883
3.814583607366875,-0.5447206763696986,-0.15056872448586311,-0.6332328513419647
0.4750648574265697,-0.4587352067769952,0.28408697103585556,-0.22753134116831353
0.8029539764331715,-0.14360438265712816,7.565848422301746,-0.6565530759499426
2.3302480539207777,-0.1835115405404647,-0.3217985160918012,-0.28351065784668017
0.4800548117259995,-0.7337168697159608,5.243767470020341,-0.7132971635846158
0.8797986150766433,0.366570816192729,0.39294290589835557,1.421409460745811
1.8899598478372654,0.019809929635696832,1.6811226954677707,-0.6142098583197773
3.154487957545756,0.5250373738107659,-0.5755425688296392,-0.623535147648488
0.5366112193688,-0.7133881485035972,2.7526162205961486,-0.10176987380897495
0.8254733981883862,0.06631028484721435,-0.08178181006645746,0.10687013477146534
1.641395834717854,1.3919999680426152,0.46918507366446494,-0.6675944087309172
1.1382601883180143,-0.23600436557904636,-0.3768421203099983,-0.17852190236578158
0.9021582397906198,1.5709932062392555,0.2238032539251782,-0.23576303533793785
2.4837724312957388,1.7751212835322931,-0.4111716726195891,-0.07579713903683671
5.5040778983929775,-0.35050313245628084,0.16731072049140083,0.3045423402741496
0.4943653281268141,-0.4950718012224963,0.46699109612693923,-0.28197427554122845
1.5553073572935245,-0.13260997034689936,-0.19454260356723307,-0.3685860210917544
0.157445554137994,-0.2893751328384836,-0.5576399457480774,3.1655643443132115
