x1,x2,x3,x4,x5,x6,x7,x8,x9,x10,x11,x12,x13,x14,x15,x16,x17,x18,x19,x20,x21,x22,x23,x24,x25,x26,x27,x28,x29,x30,x31,x32,x33,x34,x35,x36,x37,x38,x39,x40,x41,x42,x43,x44,x45,x46,x47,x48,x49,x50,x51,x52,x53,x54,x55,x56,x57,x58,x59,x60,x61,x62,x63,x64,x65,x66,x67,x68,x69,x70,x71,x72,x73,x74,x75,x76,x77,x78,x79,x80,x81,x82,x83,x84,x85,x86,x87,x88,x89,x90,x91,x92,x93,x94,x95,x96,x97,x98,x99,x100,x101,x102,x103,x104,x105,x106,x107,x108,x109,x110,x111,x112,x113,x114,x115,x116,x117,x118,x119,x120,x121,x122,x123,x124,x125,x126,x127,x128,x129,x130,x131,x132,x133,x134,x135,x136,x137,x138,x139,x140,x141,x142,x143,x144,x145,x146,x147,x148,x149,x150,x151,x152,x153,x154,x155,x156,x157,x158,x159,x160,x161,x162,x163,x164,x165,x166,x167,x168,x169,x170,x171,x172,x173,x174,x175,x176,x177,x178,x179,x180,x181,x182,x183,x184,x185,x186,x187,x188,x189,x190,x191,x192,x193,x194,x195,x196,x197,x198,x199,x200,x201,x202,x203,x204,x205,x206,x207,x208,x209,x210,x211,x212,x213,x214,x215,x216,x217,x218,x219,x220,x221,x222,x223,x224,x225,x226,x227,x228,x229,x230,x231,x232,x233,x234,x235,x236,x237,x238,x239,x240,x241,x242,x243,x244,x245,x246,x247,x248,x249,x250,x251,x252,x253,x254,x255,x256,x257,x258,x259,x260,x261,x262,x263,x264,x265,x266,x267,x268,x269,x270,x271,x272,x273,x274,x275,x276,x277,x278,x279,x280,x281,x282,x283,x284,x285,x286,x287,x288,x289,x290,x291,x292,x293,x294,x295,x296,x297,x298,x299,x300,x301,x302,x303,x304,x305,x306,x307,x308,x309,x310,x311,x312,x313,x314,x315,x316,x317,x318,x319,x320,x321,x322,x323,x324,x325,x326,x327,x328,x329,x330,x331,x332,x333,x334,x335,x336,x337,x338,x339,x340,x341,x342,x343,x344,x345,x346,x347,x348,x349,x350,x351,x352,x353,x354,x355,x356,x357,x358,x359,x360,x361,x362,x363,x364,x365,x366,x367,x368,x369,x370,x371,x372,x373,x374,x375,x376,x377,x378,x379,x380,x381,x382,x383,x384,x385,x386,x387,x388,x389,x390,x391,x392,x393,x394,x395,x396,x397,x398,x399,x400,x401,x402,x403,x404,x405,x406,x407,x408,x409,x410,x411,x412,x413,x414,x415,x416,x417,x418,x419,x420,x421,x422,x423,x424,x425,x426,x427,x428,x429,x430,x431,x432,x433,x434,x435,x436,x437,x438,x439,x440,x441,x442,x443,x444,x445,x446,x447,x448,x449,x450,x451,x452,x453,x454,x455,x456,x457,x458,x459,x460,x461,x462,x463,x464,x465,x466,x467,x468,x469,x470,x471,x472,x473,x474,x475,x476,x477,x478,x479,x480,x481,x482,x483,x484,x485,x486,x487,x488,x489,x490,x491,x492,x493,x494,x495,x496,x497,x498,x499,x500,x501,x502,x503,x504,x505,x506,x507,x508,x509,x510,x511,x512,x513,x514,x515,x516,x517,x518,x519,x520,x521,x522,x523,x524,x525,x526,x527,x528,x529,x530,x531,x532,x533,x534,x535,x536,x537,x538,x539,x540,x541,x542,x543,x544,x545,x546,x547,x548,x549,x550,x551,x552,x553,x554,x555,x556,x557,x558,x559,x560,x561,x562,x563,x564,x565,x566,x567,x568,x569,x570,x571,x572,x573,x574,x575,x576,x577,x578,x579,x580,x581,x582,x583,x584,x585,x586,x587,x588,x589,x590,x591,x592,x593,x594,x595,x596,x597,x598,x599,x600,x601,x602,x603,x604,x605,x606,x607,x608,x609,x610,x611,x612,x613,x614,x615,x616,x617,x618,x619,x620,x621,x622,x623,x624,x625,x626,x627,x628,x629,x630,x631,x632,x633,x634,x635,x636,x637,x638,x639,x640,x641,x642,x643,x644,x645,x646,x647,x648,x649,x650,x651,x652,x653,x654,x655,x656,x657,x658,x659,x660,x661,x662,x663,x664,x665,x666,x667,x668,x669,x670,x671,x672,x673,x674,x675,x676,x677,x678,x679,x680,x681,x682,x683,x684,x685,x686,x687,x688,x689,x690,x691,x692,x693,x694,x695,x696,x697,x698,x699,x700,x701,x702,x703,x704,x705,x706,x707,x708,x709,x710,x711,x712,x713,x714,x715,x716,x717,x718,x719,x720,x721,x722,x723,x724,x725,x726,x727,x728,x729,x730,x731,x732,x733,x734,x735,x736,x737,x738,x739,x740,x741,x742,x743,x744,x745,x746,x747,x748,x749,x750,x751,x752,x753,x754,x755,x756,x757,x758,x759,x760,x761,x762,x763,x764,x765,x766,x767,x768,x769,x770,x771,x772,x773,x774,x775,x776,x777,x778,x779,x780,x781,x782,x783,x784,x785,x786,x787,x788,x789,x790,x791,x792,x793,x794,x795,x796,x797,x798,x799,x800,x801,x802,x803,x804,x805,x806,x807,x808,x809,x810,x811,x812,x813,x814,x815,x816,x817,x818,x819,x820,x821,x822,x823,x824,x825,x826,x827,x828,x829,x830,x831,x832,x833,x834,x835,x836,x837,x838,x839,x840,x841,x842,x843,x844,x845,x846,x847,x848,x849,x850,x851,x852,x853,x854,x855,x856,x857,x858,x859,x860,x861,x862,x863,x864,x865,x866,x867,x868,x869,x870,x871,x872,x873,x874,x875,x876,x877,x878,x879,x880,x881,x882,x883,x884,x885,x886,x887,x888,x889,x890,x891,x892,x893,x894,x895,x896,x897,x898,x899,x900,x901,x902,x903,x904,x905,x906,x907,x908,x909,x910,x911,x912,x913,x914,x915,x916,x917,x918,x919,x920,x921,x922,x923,x924,x925,x926,x927,x928,x929,x930,x931,x932,x933,x934,x935,x936,x937,x938,x939,x940,x941,x942,x943,x944,x945,x946,x947,x948,x949,x950,x951,x952,x953,x954,x955,x956,x957,x958,x959,x960,x961,x962,x963,x964,x965,x966,x967,x968,x969,x970,x971,x972,x973,x974,x975,x976,x977,x978,x979,x980,x981,x982,x983,x984,x985,x986,x987,x988,x989,x990,x991,x992,x993,x994,x995,x996,x997,x998,x999,x1000
-0.05277224166720562,0.06583918092070307,0.0007576545518863664,-0.05650399433294184,0.008972359931068041,0.016461756047970733,-0.018854776318663835,-0.02007507001692943,-0.012860903352484021,0.011965543879745688,-0.036200449261656775,0.03026448411512228,-0.00940509942044021,-0.039139747795906565,0.01841087741916536,0.025833814302469893,-0.026579180194241436,0.05391308223906055,0.07103965540975832,-0.022428505723554037,-0.004643369522862262,0.03047327203364114,0.06375038848946235,-0.0026479895268028963,0.06634104591227552,0.010622869520042988,-0.06002094423991311,-0.07573872926050651,-0.06908666734627233,0.03499303310352464,0.08605396020554701,-0.0026509301457823264,0.029411496151617866,0.05894706396418692,0.007281595754742076,-0.022258008048419264,0.04238443382153623,0.001786666524309588,-0.07600361746871398,0.08480597489618091,0.0198982563027561,0.01046754874939082,-0.003463833016955742,0.011031306514843964,-0.06832333333477925,-0.05711990644184817,0.10010124334011561,0.0524890264644533,0.06196880587749409,-0.04356342128615143,0.05854774925559392,-0.08126455529084964,0.02751229947000633,-0.004167401843340968,-0.006172930097496754,0.023658290690210748,-0.010454295164247895,0.012829334366855072,-0.014533676160688791,0.16375446516530845,-0.0906660986082497,0.05618116099458481,-0.004866875972829865,0.10752972724303089,0.0017287832843595474,0.09458032049487008,0.009789770462351743,-0.050145482519966755,-0.004203739028028064,0.012101547081324604,0.05903822174296702,-0.02330241340751682,0.05018648754070898,-0.060516356407977034,-0.026445886149770725,0.09214364679884346,0.04667165921438676,-0.02048436042276036,0.021091367308805342,0.04403014062887811,0.021316158158346088,-0.025552352930940714,0.040476894486981774,-0.04861856484573701,-0.06898499437388317,0.03728481016954621,0.09865124569659733,-0.03916971038190176,0.02493488720539827,-0.03360685479115011,0.06517641818241238,0.003950391841277545,0.005110543268869838,0.04305329251106138,0.06955311694471278,-0.007690313829707751,-0.009590921386943396,-0.04477118413461967,0.003108754844864725,0.036379969652442945,0.02921041673110425,-0.08363971962072148,-0.07976241340229895,-0.0037954425754043175,0.005601228900810051,-0.016299509731699025,-0.0605243695910509,-0.055286807562066054,0.05126339474464281,-0.01048862322364208,-0.020199978730487178,0.007625968558754304,0.026253451712586973,-0.04619202609094886,-0.012920765411486235,-0.017081378466223707,-0.02180656520137403,-0.07615342162651595,-0.04052245791583442,0.03487909161698988,-0.08053957010415025,-0.045952527582816316,-0.015803290560502004,0.036944787354769915,-0.04709927406735237,0.03135043676827043,-0.019862302806401777,-0.03785321673317876,0.011623597832523203,0.01806816393690691,0.03338826158089847,-0.02558267107838308,-0.04136441766585219,0.00954185707392119,0.04408758900447385,0.008187338285779777,-0.06051906339095059,-0.00818983559029629,-0.0630788440382023,0.04781430709846379,0.06363884797398889,0.058243084382442856,-0.07054707430697416,-0.02575777494490339,0.03864253639923332,0.037516668845340106,0.04355508338318881,0.047469273777672294,0.029097327233988945,0.059939016609968476,0.016063247937646352,-0.00471778514150345,0.12772460321223722,-0.07987122152603943,-0.005465153948132517,0.05727727056700749,0.049672543603969777,-0.052163665177598406,0.08684462546479788,-0.013724980090113692,-0.013587769427320429,-0.033509793641925745,-0.05035875166394532,0.04424424033410013,0.022405805713327842,0.034351603283758525,-0.027670593038267577,-0.034059979859915934,0.07080453689343758,-0.013106324039543038,-0.006972775748653959,0.12113772941454437,0.03668519733256792,0.08167362331110195,-0.06252727683410453,0.017503873907332546,0.020351114557211947,-0.03248846076083356,0.02015332857013208,0.037942823600939146,-0.04740126902601394,-0.0518472924249167,0.004521220991078989,0.07876354659783757,0.041873860676923336,-0.1046457331938615,-0.10510764584224719,0.02940964144913938,0.07090746278672899,0.10562243210165967,-0.025462748897720378,-0.008043564204782916,0.011935352984018266,-0.014121934635160538,-0.06350651845490907,0.04382943076910695,-0.03501380479952887,0.10042005082199035,0.023324793498612717,0.0868281314423629,0.01532164017880877,0.076739906199629,0.017662373373793727,0.044458741259057355,0.0665606539230319,-0.038505248229788736,0.07793119876690469,0.0012786408704332786,-0.016685273267225464,-0.015614407112733097,0.036953751325985884,-0.07792724461243705,-0.0028709857996187527,0.05971550717555929,-0.016280242524833732,0.003750145167048302,-0.02439024828287928,0.035847714273534725,-0.029268276851476704,0.09195665113981177,0.07588977952660314,-0.016679886189531423,-0.030052302455859325,-0.029654706262288055,0.01745739342135688,-0.032243245612115445,-0.02651958033936963,0.00773569617077241,0.010097893971544147,-0.07722060132116437,0.008047349733635523,0.05207308977773728,0.05829755407029835,-0.07042292778489845,0.03802532578008444,0.00948404391135238,-0.019831492274653417,-0.03747285998345684,-0.04958346802649871,0.028206033330200553,-0.01188358051468863,-0.04417742174991135,-0.037170650381049164,0.08963525574832842,-0.04896422585418758,0.0373984564366705,0.03171419580324386,0.00413810103919654,-0.030096906336017692,-0.007622126778784266,0.025462207994151775,0.08878622896377153,-0.07787340432143952,0.06484145337989577,0.023736872974339684,-0.031139737821248237,0.04525822076187902,0.07422272600922408,0.009382223582242055,0.020045105029871335,0.030681227124270016,0.13988838319366304,0.020674980948810484,0.04792394990115345,0.025150433625843238,-0.00028848358667210583,0.04854478363710424,0.13705257550702044,0.08522957632362327,0.01213681194367533,0.034491256376342205,0.09367035662691969,0.044645139163967285,-0.05227968718127729,-0.008142057770005318,0.02546791865672393,-0.040680606153674415,-0.028844380460161245,0.01098526118610521,0.023135303596314216,0.004775818208881066,0.024820729596116253,0.01891022015949151,0.06360036529475677,0.009273468348768965,-0.0020199248077027443,0.04385883418379044,0.06718726132188113,-0.030962989891820003,0.1148028385942843,0.005928484769853082,-0.019621721857741248,0.13507498127275408,-0.016761313757339358,0.1673568262401126,-0.02897988983278732,0.005502855517562466,0.0475280778307694,0.04882448308385379,0.09438646395480044,-0.027554626625806877,-0.056758381166111094,-0.010474147607171469,0.08725101785124778,0.10170261479764542,-0.035346673643856796,-0.005856277821520428,-0.0323096624866519,-0.025887301195394508,0.047302384118169005,0.12132328625580424,-0.024127802253850694,0.05707547830767101,-0.02494681770154905,-0.03997493596178925,0.1268407046190132,-0.050995118025124464,-0.007110390648260245,-0.04101790800364469,0.04147749272688683,0.021348605343881832,-0.06231494164956797,-0.027631805193426673,0.011225385155938294,-0.037972030349336605,-0.052774927464256716,0.01069851704094571,0.0033314897534095778,-0.04465112718730779,-0.0186352339481195,0.03552894985980548,-0.09093953418719058,0.02629802372298773,0.06569651859799674,0.04360490861965127,-0.05584678001104537,0.054787529752529984,-0.009714727127964506,-0.06551130770970182,0.008459456840657742,-0.07765627967043343,-0.06589595520231084,0.02642041937379558,0.023323505599241345,0.017683682261557587,-0.08702686344787514,-0.016407629531834722,-0.05112386288913129,-0.08124425808286628,0.03685556555836689,-0.005930514322228575,-0.010088742393990158,0.07295040408296516,-0.0231530102933728,0.03532670728045195,-0.06216416748777531,0.02184131877025508,0.03749490488685758,0.05560747017589951,0.09820439143819493,0.0081950333179448,-0.040998616335060856,-0.046968978923887406,-0.056219363816447765,-0.032394170794181276,-0.020004708097997925,-0.025222032895912072,-0.006254280095560283,-0.02812144880814138,0.05885576574506013,-0.03430809608647123,0.042874684112788275,0.011019490724086811,0.08586260459267847,0.036681986615875406,0.0500050114530759,0.0762345968951168,-0.0008616303063292419,-0.022146375337708024,0.03143806524619053,-0.05128364737206548,-0.07721032111341075,0.003809809902059813,0.06555325156958203,-0.0411444610067514,0.02367046380878035,-0.03214209226998033,-0.022096963308032902,0.04721265431461896,-0.04331247781975778,0.04485846535963911,-0.0007374594084421648,0.03194205148409446,-0.0823477294050603,-0.011750556934048806,0.029914278945645023,-0.12508731210120838,0.023600864655071163,-0.03943490503016933,0.007350996975166169,-0.008276670006137632,0.11501380252975868,0.0377152928628357,0.03973046366476929,-0.046606968769426826,0.061911243394870086,-0.005264478074207712,-0.008061525548648252,0.02565480194774139,-0.04465010842231898,0.011533919539483684,-0.004642017950651667,-0.09503069436965672,-0.057799705457713846,0.059440094175980285,0.005511277040108453,-0.011009263707483896,0.021602337436407826,-0.024683147025631236,0.04325416592985709,0.04365713322676945,-0.043233914740686386,-0.001234930281605262,-0.05782497159998656,-0.017030934361310424,0.013865616973820938,0.010681867517317922,-0.039481953615626564,0.04718381133397331,0.009085057665491059,0.020445426943057177,-0.036119709919730125,0.007910407143524978,-0.011319059882723748,0.04619924368547368,0.11715644306458994,0.10857267203562149,-0.026382723399432595,0.011153094391106455,-0.00361839620702864,0.03176364352019512,-0.040185716104140345,0.05776951689313248,0.03589332861291483,0.0027591253113770087,-0.018246711125299853,-0.05579469288449823,0.1404146604579397,0.0014727626733221921,0.032222265823362406,0.13313520103283016,-0.03270228328888658,-0.08280097810823284,-0.06589420164004156,-0.0050249815627712024,-0.07188255089603701,-0.03830553285375626,0.0960604853310969,0.0529253415095563,0.03998528005649371,0.0032387040295334124,0.07493340102226975,0.06230971766955573,0.05626382145936293,0.02972455031723209,0.052165856069769756,-0.011746463644681349,-0.01877649811763782,0.011455796740997837,0.014407798314971076,0.011644508306805967,-0.08587113885557662,0.003613132363510685,0.03995268915773886,0.008660450477768755,-0.0007670632329387361,-0.035336819858379,0.00032336012285316684,0.08600991075826014,-0.029049694615415067,0.11579362984885266,-0.003568327592419651,0.012272800259188088,-0.0466708014716144,0.042030344747199244,0.08660524115994539,-0.008922291256982628,0.012338559716931208,0.0020006557050207263,0.05246304418609915,0.01736097711970519,-0.0321942491515127,0.09517949592517772,0.04308243400862399,-0.007038646039186691,-0.038386645461415125,0.07473370817851821,0.11409017183881232,-0.019455347028739522,0.026396252116464458,-0.05814124986719249,0.08048305454738336,0.005971022454211772,-0.03463097462828002,-0.07095118113413079,0.046710637669534094,-0.019792058823824066,0.007992450723278699,-0.03430823051499199,-0.043531344238235126,0.02504555341823478,0.008357088023085657,0.014925614763380946,-0.017460656182774925,-0.03743953770274455,0.030034429065531665,-0.026810632399401957,-0.035754787209999916,-0.09894987420761903,0.056803101644974596,0.08444480763713691,0.004766401512581897,0.00902459263537736,0.018588102167740095,-0.0036972854691081913,0.05825009501220357,0.050744803909934966,-0.03089970390379304,-0.023218797973370453,-0.07140215408018913,-0.011418961113565662,-0.010455340520135525,0.01451499370042253,-0.014441589730704862,-0.006652580562073074,0.06371879210129627,-0.07266192309871866,0.05470161950306496,-0.05040899703206425,0.06508644952754183,0.014672517765348392,-0.008059034716214275,0.01982703204450109,0.025767116088242004,-0.038066385139500225,0.03353079523503921,0.051413256905462834,0.056447272920046476,-0.029525060716897644,-0.08676270935781016,0.04006822450781877,0.026157564100889985,-0.06445001493162805,0.010718603096028456,0.0634147044796991,0.037477513584095234,-0.012922085849785603,0.05188551138987707,-0.0017136171483009832,0.0292781987311459,0.12945066290910145,-0.006069819384371233,0.01111265095239622,0.019627176717790684,0.05127649737813833,-0.0016983511499603088,-0.029559911098056002,0.05569664147002418,-0.032334389507571726,0.05679027439176365,0.02218696610371884,-0.03920911207447231,-0.0007677572424725776,0.022659689055001486,-0.004271676931448698,-0.029216792756422416,-0.03091119709112089,0.0144161573584356,0.02314456386616337,0.06460742981215195,-0.047528643338774934,0.05454617481410762,0.024446623589819083,0.009918712434490162,0.05593074671202625,-0.12854158956985628,0.02901139317439716,-0.050640945779409696,0.035044122097787955,-0.05400904034371068,0.051475741478375525,-0.0184439392254927,-0.06548123530497163,0.08597145371007242,0.006869446442959504,-0.04639914260167277,0.09208524950960828,-0.04098592997741757,-0.00619472520644937,0.002360556026866023,-0.06637539833731487,0.07061161751613643,-0.011259308456076367,0.016844885536561716,-0.03135857899897765,-0.03813524408688529,-0.04696616911995233,0.0026049150465021764,-0.035910044292554955,-0.008196546621637268,0.08281892929905066,0.02878960293569266,0.036350176212193164,0.04569987749912996,0.06814736777437247,-0.03899705133619191,0.022722302328052946,-0.09961515925581754,-0.05053782118683592,-0.0084196045385313,0.16689426849782807,-0.007384954074638683,-0.0010092214855730308,0.06535156802933884,-0.017983350412526855,0.0049442515303166346,-0.05293599029358809,0.034511351158896364,0.05120028582662606,-0.032740106160157434,0.08508247987092554,0.006807657612058815,-0.0737414745871342,-0.03433514108685776,-0.0018217931638926377,-0.01397940432240019,-0.02823860030534764,-0.032826300727093916,-0.06942558430239387,0.06240432182509492,-0.043169832383128215,-0.03128051892499162,-0.005725437879276374,-0.024117899936372478,0.060365481798485776,0.010380596916057971,-0.013945670951135636,-0.004409203298217479,-0.009324130179820256,0.01013623825219434,-0.002113358317615055,-0.011423126979687614,-0.03900922982027377,-0.002276782083597939,0.04394606256055189,-0.007415718375182845,0.14957975949591074,0.0196859004252945,0.03861196839756009,0.0027004819633578148,-0.05316683916882947,-0.03372944533448674,0.06174212070208451,0.06164633954113663,0.0038870120083631665,-0.03970230175871492,-0.0828264272048187,0.01952055478923098,-0.06876389157248297,0.008161472267041558,0.010353326763259174,0.003961832529009834,0.06304637779102285,0.07937926817596175,0.03266030429752087,-0.06647231131843123,0.059762740653868995,0.14435879804049545,0.041095125705399305,-0.03442687544252343,0.023548541028469483,-0.004088792255529827,-0.057216543723794255,-0.07841848174437493,0.08025878516101348,-0.018238934601939594,-0.009066782048364308,0.10686457869601185,-0.03842412757177649,-0.02344549538817453,-0.0053421570106078065,0.027905238752643946,0.03922815743013586,0.03935143100937344,0.0818575791528462,0.01312572363867237,0.07884069718267961,0.057430053596246644,0.07047402376578837,-0.007463355932197824,-0.021726572125398302,-0.0003586430698097054,-0.026281282634630254,-0.013685797921031528,-0.06403203101857258,-0.01974507921065205,-0.07531583157964361,-0.03779621676720901,0.055659559876021,0.02440396208603346,0.029496894154871,0.04728465538830351,-0.06844031950362095,0.016189149398415204,-0.05342100366828584,-0.04966097995269503,0.022256470207265622,0.008742565710334826,-0.0746594884275642,-0.00944490635406392,-0.06851774409435873,-0.041764428916864826,0.018943953637520883,0.04616290099493381,-0.02426636723724962,0.0028567942368296073,0.030576578437253588,-0.001915917595060268,-0.010530020555937547,0.07965110715702495,0.06456388094378718,0.0183138029055101,0.015180877477911414,-0.02659660029145272,-0.042239478149825094,0.030945870830494826,0.011739191709733365,-0.0764140493709412,-0.003489280287620744,0.0650533340492867,0.05390046982128105,0.03882196280914463,-0.03116313960669681,-0.05085365578757728,0.08590508836842448,-0.11326075833144167,0.13637493036935577,-0.05152466853175719,-0.06667575086333333,0.03990483820739499,-0.020498753965060734,0.001593175813991543,-0.005712155175312317,0.0247929468520951,-0.014781980141050921,0.04145381191001163,0.10170640240690987,0.03724526046165311,-0.048207068748857496,0.025398920565937733,0.10772040665840876,0.09426685075561148,-0.006606178922666905,-0.03567670438367876,0.0019483342891004618,-0.020407436027639725,0.047747023190158,0.007428897320957972,-0.05059144689593853,-0.03977873512998498,0.023588636162181542,-0.0352513420289291,0.039687739509746134,-0.021212590960484667,-0.008904804527643195,0.05604769568832335,-0.016233126982682755,-0.05089066296468037,0.0027716923854177455,-0.03998951444195542,-0.004720825540215912,0.09923064736986453,-0.06862226883323164,-0.05788474285446554,-0.01972920327455019,-0.03209939631354497,-0.06903680187337013,0.033885964575844696,0.10551466927661579,-0.038735301028659186,0.03217127346420856,0.03551938319081116,0.05003603533603007,0.044345125417956766,-0.031052331337000028,-0.0031155486814966604,0.02578429028300744,-0.051303976436745446,0.0268099128144903,0.0876221196267657,0.051902250540784456,0.04268076779900909,-0.012353793350266207,-0.031622551918327524,0.006292328878181541,0.05103935916860758,0.04322201251017299,0.024896293590979113,-0.028278196783634968,-0.019296391033225224,-0.06544241430621245,0.013866469198684506,0.0033197282633654623,0.0064197229973737,-0.007251866920209293,0.019215086203092646,0.00014133616408296135,-0.056068139873654,-0.002597350382608332,0.14028582596788874,0.028012715699436308,0.0637458253634795,-0.026086965659866568,0.014753817440795736,-0.017018615546178117,0.05217996680323722,0.07417605103352498,-0.04909372410274215,0.006787607863295575,-0.01511949117239042,-0.058203219626183134,0.03343943089965018,-0.0018990958095064236,0.00037260154692564385,-0.05379108894712381,0.059758316505557296,0.07283314782754613,0.021377943999986826,0.09528385507278103,-0.033371701546367705,0.004367361059865571,0.020487953890699018,0.14999483203591302,-0.05041158876703389,0.00873091575319318,0.12755173172892986,-0.024080776648756408,0.13202632511377788,0.02329236248594313,0.013031499344506647,-0.031088197455822586,0.005041822042123778,0.024623127855409876,0.002787525387998757,-0.06829218935253722,0.026592494790534493,0.04692556748925125,0.05146509653751363,-0.023950161017712968,-0.023762901996604247,0.034073775391260996,0.015103746577242338,0.039867121894041846,0.09252789841775844,0.017984858098679668,0.04682182124983236,-0.04098158635736937,-0.05446021556154057,0.02356610727150721,-0.02557720682666098,0.06500640163902016,0.029650518403563142,0.042929240297390425,0.0004975331526950733,-0.053329778899381064,-0.02845534715970932,-0.0017923417603230574,0.025492316414870597,0.07061617055843117,-0.050190704031757516,0.03521423408497881,0.1832686772040928,0.0020266539025037833,-0.030866759768632845,-0.02154765629054567,0.0625221839460004,-0.04042789450772677,-0.015957301891112663,0.011118087397778087,-0.008756277094443599,-0.011276630513779806,0.09426004590192982,0.0273731317002055,-0.03313275209372246,0.06864148452097019,0.07128931569238217,-0.0668795533316493,-0.02987967253106638,0.0849499748531104,-0.01583037335836235,0.040726741695104485,0.03792755964674899,0.007600402978084286,-0.02087127175322301,0.05827770420530465,-0.009373280478014667,0.007156405368690333,0.020272594784011222,0.035565309023611213,0.02431718071944,0.07224255118591305,-0.03616502781921205,0.003497746102069099,0.09710024675175055,0.022889163174143246,0.14391596124044725,-0.07933417293273526,0.06391413591375517,0.054893694064223286,-0.004323574287423471,-0.035625285872065926,0.020328754746461897,-0.0042294346936240235,-0.008802088006113262,0.017563416532772713,-0.014257486778544992,0.033427332764230044,0.011971212244311857,0.026038047908975903,0.0168741239739556,-0.04340431054326799,0.06811898213966883,0.027518745570051406,0.004338078111205457,0.04477990146980537,-0.0338254461012103,-0.009828819741638517,0.01089261712354328,-0.04039979026032137,0.06390684281064773,0.054587421229938426,-0.007985247882108304,0.011931683409792448,0.05190462117589423,0.015169931194682462,-0.03629172691031457,-0.004265266188200334,-0.01385290730297184,0.02616947315650342,-0.02992582853950232,-0.09556722717679833,-0.07500992460074252,-0.05523985063552894,-0.02525153693729354,0.01193991465476163,0.05672514822448549,-0.0791469190392069,0.07296254665438573,0.007931424023568834,-0.027969508669070442,0.18296590712928507,-0.013879388915668311,-0.048620789772736206,0.015681009658051748,-0.04283294315489683,-0.019512959635545002,0.014333962950521473,0.04767313145766816,0.044890092998926656,0.10575581531432254,0.053844502844737185,0.0006280656124475481,0.060226127848505895,0.09143722739264515,-0.016055840265205346,0.018072269264542085,-0.05129762182297648,0.05642139385199041,-0.0872337391487259,0.04461320939594704,-0.07313584206258261,-0.07164727418611361,0.0760868789948097,0.023350559076569466,0.003157892753284708,-0.07148792759417721,0.003867379089807166,-0.004950901477925873,-0.0019874152671401912,0.09787923653694985,0.03270320207850075,0.01497373347335973,0.059699247993726834,0.04225092412577314,-0.05873192446550157,0.0001929074893152194,0.06288992118186032,-0.0352109630857258,-0.012596873778757622,-0.018396329989597948
