x1,x2,x3,x4,x5,x6,x7,x8,x9,x10,x11,x12,x13,x14,x15,x16,x17,x18,x19,x20,x21,x22,x23,x24,x25,x26,x27,x28,x29,x30,x31,x32,x33,x34,x35,x36,x37,x38,x39,x40,x41,x42,x43,x44,x45,x46,x47,x48,x49,x50,x51,x52,x53,x54,x55,x56,x57,x58,x59,x60,x61,x62,x63,x64,x65,x66,x67,x68,x69,x70,x71,x72,x73,x74,x75,x76,x77,x78,x79,x80,x81,x82,x83,x84,x85,x86,x87,x88,x89,x90,x91,x92,x93,x94,x95,x96,x97,x98,x99,x100,x101,x102,x103,x104,x105,x106,x107,x108,x109,x110,x111,x112,x113,x114,x115,x116,x117,x118,x119,x120,x121,x122,x123,x124,x125,x126,x127,x128,x129,x130,x131,x132,x133,x134,x135,x136,x137,x138,x139,x140,x141,x142,x143,x144,x145,x146,x147,x148,x149,x150,x151,x152,x153,x154,x155,x156,x157,x158,x159,x160,x161,x162,x163,x164,x165,x166,x167,x168,x169,x170,x171,x172,x173,x174,x175,x176,x177,x178,x179,x180,x181,x182,x183,x184,x185,x186,x187,x188,x189,x190,x191,x192,x193,x194,x195,x196,x197,x198,x199,x200,x201,x202,x203,x204,x205,x206,x207,x208,x209,x210,x211,x212,x213,x214,x215,x216,x217,x218,x219,x220,x221,x222,x223,x224,x225,x226,x227,x228,x229,x230,x231,x232,x233,x234,x235,x236,x237,x238,x239,x240,x241,x242,x243,x244,x245,x246,x247,x248,x249,x250,x251,x252,x253,x254,x255,x256,x257,x258,x259,x260,x261,x262,x263,x264,x265,x266,x267,x268,x269,x270,x271,x272,x273,x274,x275,x276,x277,x278,x279,x280,x281,x282,x283,x284,x285,x286,x287,x288,x289,x290,x291,x292,x293,x294,x295,x296,x297,x298,x299,x300,x301,x302,x303,x304,x305,x306,x307,x308,x309,x310,x311,x312,x313,x314,x315,x316,x317,x318,x319,x320,x321,x322,x323,x324,x325,x326,x327,x328,x329,x330,x331,x332,x333,x334,x335,x336,x337,x338,x339,x340,x341,x342,x343,x344,x345,x346,x347,x348,x349,x350,x351,x352,x353,x354,x355,x356,x357,x358,x359,x360,x361,x362,x363,x364,x365,x366,x367,x368,x369,x370,x371,x372,x373,x374,x375,x376,x377,x378,x379,x380,x381,x382,x383,x384,x385,x386,x387,x388,x389,x390,x391,x392,x393,x394,x395,x396,x397,x398,x399,x400,x401,x402,x403,x404,x405,x406,x407,x408,x409,x410,x411,x412,x413,x414,x415,x416,x417,x418,x419,x420,x421,x422,x423,x424,x425,x426,x427,x428,x429,x430,x431,x432,x433,x434,x435,x436,x437,x438,x439,x440,x441,x442,x443,x444,x445,x446,x447,x448,x449,x450,x451,x452,x453,x454,x455,x456,x457,x458,x459,x460,x461,x462,x463,x464,x465,x466,x467,x468,x469,x470,x471,x472,x473,x474,x475,x476,x477,x478,x479,x480,x481,x482,x483,x484,x485,x486,x487,x488,x489,x490,x491,x492,x493,x494,x495,x496,x497,x498,x499,x500,x501,x502,x503,x504,x505,x506,x507,x508,x509,x510,x511,x512,x513,x514,x515,x516,x517,x518,x519,x520,x521,x522,x523,x524,x525,x526,x527,x528,x529,x530,x531,x532,x533,x534,x535,x536,x537,x538,x539,x540,x541,x542,x543,x544,x545,x546,x547,x548,x549,x550,x551,x552,x553,x554,x555,x556,x557,x558,x559,x560,x561,x562,x563,x564,x565,x566,x567,x568,x569,x570,x571,x572,x573,x574,x575,x576,x577,x578,x579,x580,x581,x582,x583,x584,x585,x586,x587,x588,x589,x590,x591,x592,x593,x594,x595,x596,x597,x598,x599,x600,x601,x602,x603,x604,x605,x606,x607,x608,x609,x610,x611,x612,x613,x614,x615,x616,x617,x618,x619,x620,x621,x622,x623,x624,x625,x626,x627,x628,x629,x630,x631,x632,x633,x634,x635,x636,x637,x638,x639,x640,x641,x642,x643,x644,x645,x646,x647,x648,x649,x650,x651,x652,x653,x654,x655,x656,x657,x658,x659,x660,x661,x662,x663,x664,x665,x666,x667,x668,x669,x670,x671,x672,x673,x674,x675,x676,x677,x678,x679,x680,x681,x682,x683,x684,x685,x686,x687,x688,x689,x690,x691,x692,x693,x694,x695,x696,x697,x698,x699,x700,x701,x702,x703,x704,x705,x706,x707,x708,x709,x710,x711,x712,x713,x714,x715,x716,x717,x718,x719,x720,x721,x722,x723,x724,x725,x726,x727,x728,x729,x730,x731,x732,x733,x734,x735,x736,x737,x738,x739,x740,x741,x742,x743,x744,x745,x746,x747,x748,x749,x750,x751,x752,x753,x754,x755,x756,x757,x758,x759,x760,x761,x762,x763,x764,x765,x766,x767,x768,x769,x770,x771,x772,x773,x774,x775,x776,x777,x778,x779,x780,x781,x782,x783,x784,x785,x786,x787,x788,x789,x790,x791,x792,x793,x794,x795,x796,x797,x798,x799,x800,x801,x802,x803,x804,x805,x806,x807,x808,x809,x810,x811,x812,x813,x814,x815,x816,x817,x818,x819,x820,x821,x822,x823,x824,x825,x826,x827,x828,x829,x830,x831,x832,x833,x834,x835,x836,x837,x838,x839,x840,x841,x842,x843,x844,x845,x846,x847,x848,x849,x850,x851,x852,x853,x854,x855,x856,x857,x858,x859,x860,x861,x862,x863,x864,x865,x866,x867,x868,x869,x870,x871,x872,x873,x874,x875,x876,x877,x878,x879,x880,x881,x882,x883,x884,x885,x886,x887,x888,x889,x890,x891,x892,x893,x894,x895,x896,x897,x898,x899,x900,x901,x902,x903,x904,x905,x906,x907,x908,x909,x910,x911,x912,x913,x914,x915,x916,x917,x918,x919,x920,x921,x922,x923,x924,x925,x926,x927,x928,x929,x930,x931,x932,x933,x934,x935,x936,x937,x938,x939,x940,x941,x942,x943,x944,x945,x946,x947,x948,x949,x950,x951,x952,x953,x954,x955,x956,x957,x958,x959,x960,x961,x962,x963,x964,x965,x966,x967,x968,x969,x970,x971,x972,x973,x974,x975,x976,x977,x978,x979,x980,x981,x982,x983,x984,x985,x986,x987,x988,x989,x990,x991,x992,x993,x994,x995,x996,x997,x998,x999,x1000
-0.06314483371004509,0.01095001802849005,0.00567178258498191,-0.04570242154859816,-0.010108931759208906,0.07778482130680353,0.06882285050120562,0.16066099224576957,0.0336692884152634,-0.06783030081961683,0.0801958014382893,0.16124835699730067,0.08229288357438103,-0.004826879016396002,-0.09968036501730615,0.06843320931498109,0.04009984132111488,0.039569176645112725,0.051782070993461105,-0.07126803395027526,0.015912779431655366,-0.021989875513214185,0.06043234154237509,-0.06720103788212817,0.03870499642322156,0.038230728191520846,-0.11369361008969969,-0.016116745223066054,-0.009742023455519,-0.08073188320276703,0.0013143571577032276,0.025896886788895568,0.05533493506449583,0.07882170611061112,-0.04327536727210479,0.018053992106838557,-0.03744423704743571,-0.020688373518647607,-0.07310294980959631,-0.012535216435470953,-0.01316867999073712,0.021935416903490657,0.027531449148317177,-0.042509758827427024,-0.04700396237131654,-0.01785431501222856,0.07754698517772263,0.251050127609737,0.03404400197010227,-0.05684786217313442,0.06494079648702611,-0.021236606241397782,-0.003167078534060508,-0.08305450049765473,-0.018876276404392156,0.0739580180362549,0.04490593008130728,0.06942980622485173,0.03454120950591699,0.18823321030880313,-0.09300879552648467,0.058981098937469945,-0.02431216418003257,0.013067935173605605,-0.03797605641308466,0.07599175805004599,0.08258812409910443,0.005668911075186411,0.08929499014816122,0.048437336610793746,0.06010625413371673,-0.11559856913303135,0.08249741834232571,-0.13252523875764954,-0.05479053108165144,0.14912070851341452,0.06598244132467812,-0.059725610114927496,-0.024345246470690585,0.09527950912580141,0.06757064178044514,-0.03742340101533548,0.004727064323498897,-0.04018091848760774,-0.032075816915604016,0.032336424035736444,-0.0047951489058492,-0.02979183298320487,-0.07385004875740708,-0.0469290093282243,-0.04069982836677366,0.013189079761939837,-0.10827851461466809,0.13344262245227312,0.05145139776009988,-0.06056549953890378,0.033935369810457194,-0.0971306951437636,-0.024547323583476777,0.024963135842984485,0.13848207414878022,-0.13879658935152728,-0.13133574373909807,0.012770978159965862,-0.01025513046218407,0.04054115177742279,-0.11968552463780813,0.02613139459778946,0.025726560914880903,-0.07600683747719095,0.005477039409722995,0.00497570407931236,0.005553562810739265,-0.02886803736839416,0.024165605840060778,-0.059466751047715705,0.03902109514284602,-0.0483512783736495,-0.06791641528154646,0.15401252791869524,-0.11070716484761589,-0.022574216217779774,-0.00027580226921175566,0.005824816227885776,0.04427098814334718,-0.055829849677676124,-0.05640419596137325,0.07517696271466878,-0.046251438652876176,-0.04456874043335146,-0.010132126610529202,-0.14160741229200857,-0.024597333392495924,-0.00012698458609161634,-0.024256882130340385,0.013976914530724027,-0.049490296143501866,-0.04534160162469858,-0.04310652649074442,0.00902793755393394,0.06264170217207221,0.13820843825960205,-0.022581968065261582,-0.027781171398913895,-0.04563904367742144,0.056258156401495674,-0.09386097106756552,-0.0011179233779023967,0.10337617229636331,0.023853014645545567,-0.08024479861253009,-0.008006435779914667,0.10412348201442656,-0.08949602929878342,-0.023980618590870195,-0.09404951453107468,0.05925505387167607,-0.03408770838888886,0.1213731950624406,-0.09834494480433276,-0.020739111161474533,0.011408184502037066,-0.020973912213592794,0.01247196597918454,0.0886093747329113,0.04220008129472608,-0.08655693973098577,-0.043787638059513134,0.08176843105472376,0.028866271276267508,-0.020498502391568918,-0.034288428052751785,0.08868720649078754,0.024550031657395,-0.03715567449071644,0.006455858568223505,-0.04126708207403218,0.03997937012846098,-0.05598911838465459,-0.0028910829596264787,0.03403668291034534,-0.05157858487084843,0.04028418876493589,0.002393947790426454,0.029739589420045176,-0.01655461753723375,0.1058285175634257,-0.03322160289932119,0.06149820023895636,-0.032981396551268194,-0.0049738605383928824,-0.09233174206105244,0.01806381773228871,-0.023142436971159586,-0.06968525445991403,-0.08731226531180458,-0.06031161751414815,0.046067335058291414,0.04672603659615904,0.11148481446885694,0.0652332463762142,-0.012155879959754756,0.10043616366814256,-0.018063260301348638,0.14096295960721017,0.053608103020025055,-0.023301146517865856,0.012464767115774933,-0.015242357619970726,0.05770709192841639,-0.00950773481842504,-0.10194343255141136,0.05721676214993843,-0.07917350177805382,-0.060980966136439774,0.00651422303500615,-0.050413636708278364,0.0043966029225250836,-0.10673301519823453,0.11021980652665886,-0.0040664205033460465,-0.02137664887664248,-0.09308019461837003,-0.014212801960329147,0.015304206712075663,0.01903365810576263,-0.02517333978291858,0.04932988149977424,-0.031011637335820463,-0.061158272816598136,-0.026714252331508148,0.09688204688655877,0.06275313780946146,-0.03513370758648038,-0.005576547549839828,-0.0153187411036797,-0.034983393242780436,-0.006357789074356912,0.09267427026401753,-0.03525938374451798,-0.052248629580691874,0.08449226377577945,-0.036059912015201534,0.0694425433810939,-0.023335124142578323,0.018680836207895624,7.077309356540162e-5,0.035717912420906384,-0.08412467429207982,-0.07696119056250272,0.02447301453709194,-0.014044138380228777,-0.09113619005432327,0.0621202423867393,-0.006610497481077893,0.07618664598375169,0.009836366238378469,0.01638744769335121,-0.0016420158362406845,-0.028801240246560167,-0.049729177990296525,-0.0024755235710932633,0.020043783382200253,0.10848864187058438,0.045443049653401735,0.10448680501385899,0.14326479782951806,0.12421637087342563,0.07365553501127264,0.024397900378864357,0.03094526574495471,0.10735636435256546,-0.07938108227719387,-0.03806647054867596,-0.03580642413623791,0.03474721720404017,-0.02178645348404218,-0.07311290189909292,0.07717175962221212,-0.017868381019131463,-0.08317422090934368,-0.009480852828863906,0.057828727061636664,-0.039467279385885234,0.03927833096740496,0.04033820423283996,-0.029153691077422494,0.06247840746940381,-0.08298868595808462,0.10424045988594255,0.014051233121462392,-0.04382177050285063,0.013237459961548792,-0.11643423860308078,0.07263228735639604,-0.07312428418078154,-0.0009962779120271659,0.032701407090149015,-0.03328396052059257,0.10211542775137561,-0.020514475981885938,0.022717997698239678,-0.01604994767801471,0.09835958697954639,0.215433942073465,0.017192712682291056,0.02586089418280957,-0.10739144105334075,0.0373289387846083,-0.080450614549617,0.33627299263303323,-0.0686618492328025,-0.0001366746051540968,0.009765420381449452,-0.05636499611657109,0.15347221982603965,0.045967267904063025,-0.05177658161302756,-0.08374316608248367,0.04042865893396641,0.0488552493740253,0.002138263367232218,0.04323363638054545,-0.004799674343659133,0.01595272656746083,-0.08469695014348955,-0.026924224586610257,0.037170035924217304,-0.12248479215944297,0.077108764937448,0.006530193920599503,-0.07054537946698236,0.048403460208150006,0.01236450938565814,0.025667871099261275,0.10438250454004416,0.03174235447989204,0.031063574008123318,-0.03911856533661118,-0.020673849403899602,-0.09517957680324007,0.0629425996498747,0.1682310535052136,0.07530841062086102,0.00042649149377593787,-0.04569740597997729,-0.04558041107146771,-0.035083774801274226,-0.024924684512295348,-0.019924550540034947,0.0009563480599146246,-0.006609604049728324,0.049319246795271,-0.08395658012882845,0.054276828029117485,-0.07869623525252178,0.06443895909352237,0.16353951926914334,-0.024058109937932892,0.03672417864352506,-0.06191550246167621,-0.0036288613170354367,-0.00913959041095258,-0.011957936699614313,0.026492371462542907,-0.07079419574648327,0.09542445656720688,-0.02082867933555721,-0.0043151747636238635,0.04739219215192114,0.08734692198437899,-0.05331927293731209,0.040026543259474856,0.03030155359712916,0.03154343961431372,0.046257727576126006,0.015499612268833562,0.00612837615256856,-0.04506275213582078,0.027207658955001435,-0.09312567998213672,-0.12642853204669602,-0.01613361273601599,-0.0063966461545111875,-0.12677414086591554,0.03417754623774516,-0.07583487178192294,-0.0633069235749153,-0.00813535459280812,-0.0626245188134118,-0.03272145370062718,0.06172301939143665,-0.018729482074055337,0.02635471004655754,0.024085268790072334,0.12398991518250235,-0.02139210748122733,0.08081019888154106,0.012631438700081876,0.0014439277769935366,0.03964895410830582,0.1356451547034676,-0.005989845660584803,-0.017141312020017563,-0.014784690615836649,0.01178734799549952,-0.052464938823632234,-0.058442791742527644,0.0020227429970660626,0.08082929692052021,0.07901772220596581,-0.07689743719897868,-0.0027120702946998865,-0.07121466561511924,0.007762047586437504,0.02428339157030579,-0.0546808319033365,-0.007404501250758533,-0.06985317606068298,-0.0065835891031980065,0.0604088537529337,-0.03804827553259471,-0.03253682499915844,-0.13107299357691216,-0.06005056064936143,-0.03527751544688562,-0.05818012734576117,-0.14669269913828198,0.0021046893748357665,0.029492269615895683,-0.07734032672500701,-0.11913603260596983,0.04988725943608596,-0.013063321210625367,-0.02847034048451924,0.0391483994782611,0.03200449349350776,0.055537721417541874,0.041086472622476666,0.0436718094388342,0.11366011508900664,-0.035297431413478186,0.01084998062952458,0.11450601817140904,0.01603680468967461,-0.035234033361104644,-0.040798730215873324,-7.368763889958885e-6,-0.07746515538177956,0.007373085318852279,0.18224022746759205,0.0086324134696949,-0.06609740875757542,-0.06599659176322814,-0.00697432896041672,-0.028362105583458197,0.1115430945781295,0.005640145024396137,-0.0013757113590636694,0.0053214958901020015,0.08375183691732224,0.18711352169011386,0.04072779867341092,0.18165616818421326,0.14715756511775835,0.10034154117217398,-0.002949646235579584,-0.036474252040116006,-0.11913146000225694,-0.055904742056864465,0.031547794572119425,-0.04342274619644371,0.10397546236018318,-0.0539213538486123,0.032702221462892256,-0.004697755921007296,0.03692656697931418,0.06779076754923885,0.0070746195890838415,-0.027105003070865497,0.0008207020034334267,0.04382716518227148,0.08444266769104769,-0.061829508295697444,0.0100298189289596,0.11565600342923066,-0.09371602768597764,0.02086499999303304,-0.04600991410447941,0.1060023284432372,0.07896941934735491,-0.032206854306862764,0.16005385570811081,-0.053249622534718544,-0.14114624883747295,-0.038594571613878026,0.024863041745180503,-0.0226053090354994,0.018476610034622087,-0.06285221124989371,-0.028330391878562677,0.014051127202783675,-0.0015977939142495234,0.10516899650278067,0.010958203655243803,-0.03342676513186249,-0.008662870073292028,0.0157290525942817,-0.04696190440794257,-0.019044316435408937,-0.04060650378307051,0.10514276838404957,-0.05699772443562856,-0.04806090397140339,0.09575869957131022,0.04168867689941913,-0.03679736106793585,0.09910695738682218,-0.0431243031086902,-0.008624887394051761,0.1284580501265058,0.06840022326286577,0.10990526464153039,-0.08340967731930615,-0.04242893889354893,-0.07095001447956817,-0.09050974248720212,-0.014165022364870494,-2.891327218701445e-5,-0.08626094433202436,-0.12463526882167619,0.05321097489951221,-0.014896872686717355,0.046044718342040936,-0.04082197578939917,0.07198230208028855,-0.021890493234182018,0.13127900437752005,0.12803319227185583,-0.011637225134255247,0.08146618676879025,0.03757618906935112,0.06381198791019771,-0.015596465687550354,-0.10273739266393689,0.020966666394249822,0.021898008312525752,-0.01856520526833494,-0.03958714029345611,0.09006942260427087,0.07830320987483397,0.11978373649642449,-0.061911349910304225,-0.022482638326004056,-0.0385866402943118,-0.11863752765246027,-0.13158679441694532,0.0501753528531359,0.017468908646059766,0.001833832453071338,0.06433014102367829,0.07829979800897591,-0.012728301767480188,0.01513085140156134,0.015278291086198159,0.046365683339367525,-0.11514873564804207,-0.02819374363053495,-0.023071161205561852,-0.004396954299075939,-0.006706871565941297,-0.1035200922370767,-0.009223635903777838,0.03381534442541545,-0.11576960495656008,-0.0015702701354598503,0.02222292847803553,-0.04421024290193243,0.10658560634797087,0.04047166078855202,-0.04188171808246377,-0.02782350191122318,-0.0020104908743300287,0.07137694019286789,-0.029710126819970428,-0.028560009954546772,0.037764313771646574,0.022091186060347212,0.060664447152193546,-0.08669900622138382,-0.003324186204177515,-0.03270765425653921,-0.007914641926108912,-0.08360204862067266,0.05039990277869122,-0.05349485467622017,0.03910845039858324,-0.01979776985107251,-0.00948667154808791,-0.08481119416681371,-0.02357053966685818,-0.0524770677499965,-0.09048378084151987,0.02383810461676128,-0.024755108324392094,-0.014028131005637046,0.020778342632822522,-0.041392609138525494,-0.016874288556159467,-0.019008916025557987,0.1022091369529794,-0.013131798612931456,0.07510483472163898,0.027439251650430263,-0.008732613716432192,-0.03322656138231461,0.17297562552796797,-0.10292662029431776,-0.08187804178060754,-0.11834576089954774,0.05078989830885661,0.06113355736785464,-0.05814541172060439,0.03059133104349021,-0.09192766924208606,-0.03260125772266331,0.017855388668531536,-0.09571587189023845,0.04319907274694179,-0.06873120296489299,0.0032197949011436577,0.07474061862014514,-0.06952786802121291,-0.01787553901980199,-0.022113412401821075,-0.03955424414195541,0.11533501005022417,-0.0010314307351900753,-0.07998465230257701,-0.012227258889142778,-0.00991473264229581,-0.10297410393943618,0.027277415974425345,-0.06364869884373903,0.06789781911059078,0.042250886350845285,-0.005109848156088059,-0.039087375443096706,0.02613559988667924,0.017972639270284363,-0.0675022494745311,0.01678956902130735,-0.08925264206843242,-0.09017359451461615,-0.04095640451661675,0.016589430209778877,0.08105583523542648,-0.04527597875878131,-0.04527240197901761,-0.11379490208207399,0.056111132078735304,0.027053922041323064,-0.000704761434409451,0.0976441717354275,0.035937393279893204,-0.0012401795887352351,-0.032345550918245536,0.015395620633422702,-0.06902769542313847,-0.010704493341512467,0.03455453601695746,-0.06416625033141199,0.019236718341634873,0.03290538468152837,0.03280313000030022,-0.04764793024450775,-0.017204045297740778,0.14286615613467157,0.1116812089701793,-0.12964441843019991,0.04580020108580607,-0.07320446911075118,-0.03409822238363647,-0.048755689703504634,0.05535854941916063,-0.0643613794043969,0.15731303749643066,0.3551614484829453,0.14586164583876648,-0.053979288302875794,0.07710262272913959,0.10756967817215246,0.09769824953220674,0.07610858578658175,0.091302816399915,0.11150147317824777,0.11581827709312686,0.10678889974309858,0.06821881491304826,-0.03777304387542624,-0.06519192235938909,-0.008723400967846295,0.06276969440700442,-3.091415383327245e-5,-0.11681417265710503,0.08038739172888532,0.01792787886047087,-0.04353027064170789,0.06815412871861781,0.036325370577672045,-0.01317081423277533,0.00630108499296278,-0.07126986646437583,0.009541070454037737,0.09074420375804637,-0.08911019151510347,-0.08584623254518209,0.17770608151305645,-0.0892544262260424,-0.054408109048562525,-0.007219192921435136,0.047143302082083505,-0.06502454352335985,0.021280254636560914,0.2151783589555729,-0.02662620465158172,-0.07913290834126796,0.11426587160646129,0.06854547286183887,-0.015015594593638326,0.10034188868444138,0.030305983375439105,-0.03450170318431045,0.018730024826847824,-0.05634482442545574,0.02169158961918871,0.04631471770590623,-0.03182845510774457,0.005977127249442438,0.015305970896619003,0.14495432056215063,-0.011884128853755671,0.01893251822391573,-0.12031728565401989,0.10239392883118881,-0.1207832606233118,-0.010756587209894919,-0.14629667327431273,-0.054561850799018985,0.024007492099803684,0.09084644011113796,0.05189437836166233,-0.06042592691566706,0.09961860364112196,0.06840605524013599,0.024562235694477907,-0.013268679652506665,0.023901227265219482,-0.03265940591546146,0.07780472554985751,0.05930196806691046,0.06322083914410559,-0.012629402778364218,0.013170406079014985,0.00176366568532349,0.17311768399031702,0.016246853005129402,0.04007859989053264,0.03439207422843604,0.07303273472268268,0.001963208050707932,-0.0179385378067054,0.003182567934677083,-0.017812158382985777,0.11687385378659787,-0.08243978570082666,-0.02868858592228929,-0.04701627638333916,0.1124780891046131,0.0027367421532926706,0.058514459947232034,-0.008796938345408956,-0.09144113260974907,-0.05269098562983365,0.11979683933260343,0.007698941674115556,-0.05279700084843886,-0.06472173229652434,0.2095597150279076,0.04425303455868734,-0.04571451642989821,0.07888267172173857,0.01890298340631391,-0.009882809455833863,0.0250479209943395,0.019875151050624318,0.06426903792343763,-0.06122716318493848,-0.06494972118854048,0.0912935118566447,0.0532785291703346,0.09087877925718768,-0.047999342443580284,-0.045325195786344974,0.03989874354065703,0.057944674721154055,0.07300071454745671,-0.010097961417925072,-0.00468213681091989,-0.0010273181190294522,0.010824545553242082,0.0480415524306812,0.012803047818790159,0.04399686487609156,-0.06665148874036841,-0.1157782215230676,0.026427377410381148,0.031549061223409725,0.01917985284004864,0.05539886749723433,-0.04275943159310247,-0.015553096011203804,-0.08155525045414391,0.012007315777938565,0.012110394374599487,-0.11651221088620745,0.011806162888216676,0.07468105576441975,0.06691241203246623,-0.019653185484705182,-0.012861450334808788,0.00320511873317586,0.05589154686556941,-0.0270696879377903,0.036332029995326254,0.12671701456778606,-0.10467239683272189,0.04919518809474943,0.045851478105134014,-0.026600510386373233,0.0477333994047755,-0.06056454664184796,0.06732201745410338,0.013936323998688493,-0.008619277713747597,0.005964182265461027,-0.08105556108650513,0.13709819649835842,0.0841846948001177,0.0566333316909442,-0.1136539260787599,0.06758427503269915,0.07258581226707483,-0.007252427371929437,0.037179740150319995,-0.03731440844458289,0.13620149098256773,0.030830724624794303,0.005289440239971244,-0.013656870439120894,0.27964678229743356,-0.04373974775490996,-0.011407700064904325,-0.010327163511558712,-0.036371000576537416,0.08440703035107355,-0.012818900696301094,-0.07536262439864982,0.034648380867680295,-0.02610595963976936,0.05956970413953755,-0.08462790604071702,-0.024286252601898095,0.0472297102891468,-0.07781463885173534,-0.07070269608879654,-0.057449025220779215,0.0593590309231673,-0.0015911374603296835,-0.018011843617051437,0.08267457589658411,-0.01018854990233764,0.03029330446897016,0.025717723952400684,-0.04297363429272916,0.052049246189088905,-0.08479668962912368,0.03756639816643137,0.02144344367790052,-0.03460123527556069,-0.04681246908447578,0.05137540107698779,0.00631138180534041,-0.0993371167895083,-0.0009768432241471503,0.07703089625591142,-0.08950458349004375,-0.15457006102742166,0.03214301511661333,-0.01548439583591632,-0.01061022603446915,0.049241203683356716,-0.03645930179956591,0.041980347681479735,-0.055840079122437714,0.03474032413812811,0.05609953045990812,0.09735883818027635,0.16984175734663465,0.08367062366156941,-0.04151910170021322,0.037229082804616453,-0.01607848552912139,0.019591520815692043,-0.0024825331976194853,0.08803820525964778,-0.040178478854760113,0.005445905568182141,0.1054639341663397,-0.04303737658439577,-0.01965168476671708,-0.12592429914120618,-0.03745275016435978,0.03808888500123775,0.047705534787570336,-0.11160948054536934,0.16896424645961616,0.007708749388364744,0.13347126523248032,-0.03972216244985205,-0.011649334182905702,-0.0023006298740355646,-0.00723928025698517,-0.08057165128884958,0.016503229720316703,-0.01879030231123968,0.009708416403577447,0.04754968104754376,-0.029434027711117805,-0.00308156031225304,0.0914659765908965,0.0010903233574099946,0.13083089829036476,-0.013078178239371407,0.009621030869166658,-0.023241697761025693,-0.02118757885011069,0.071626405573048,0.1752727367762521,0.0980629623261593,-0.09826154383716301,-0.0043619020924590135,0.07372266869874577,-0.0799104384153726,0.014771904595420216,0.01835818933972888,-0.09818352489673998,0.14235685173115908,-0.034095009870898085,0.018020909789122852,-0.031720618020136815,0.1295110264944923,-0.11067246889190097,-0.05060455149998222,0.03360133699151002,0.042540590228107966,-0.06039781543039169,0.062183667240088614,-0.0018948125689064454,-0.04926139809639529,0.03232337450323142,-0.051246066067212936,0.04113578728167866,0.0393804660235888,0.0298817277587502,0.019512316737449353,0.02573778890844114,0.019389042815567636,-0.04493703783063974,-0.042758590877351677,-0.03068299914857564,0.004207512332710106,0.015226577599610103,0.005201933800948577,-0.04812484347563162,-0.06054702847385007,-0.030440292667183066,-0.062481243975422984,-0.08035240109652986,0.06283139716439856,0.08278414553833446,-0.0036561712827170023,0.17679657562769568,0.10392894127570873,-0.10886966952091448,0.02456622863337654,-0.0169910606434166,0.015116127289577674,-0.06758939450247536,0.06007391272063001
