x1,x2,x3,x4
1.4843524559959205,0.05220381996471257,3.1753842553529568,6.786163443006978
2.2265582165791717,0.2874893791961557,-0.07368262419674831,5.178738198042774
2.1547543543698238,0.06966195501788186,-0.26790027347113843,0.1340486191480268
0.9898843663608101,-0.8571625480861508,0.22388807354846074,-0.15983894783172115
3.2783148532423843,-0.4502866236053671,-0.17725808868380133,-0.011391728694535308
0.7098295278267475,-0.31930431285782435,2.20571537028903,-0.2892820232821287
0.9558324788333952,5.992554612293515,1.8296049494331417,2.6961258503670904
0.8530194901969694,-0.23156949746603683,0.7573733740328299,-0.08736166130273004
6.678585413982923,-0.8362516391359559,-0.22344777467148325,1.022780860633183
0.4645516078932539,-0.14376141848762858,0.5523536555483151,0.2858287712170331
2.9577184174300593,-0.947960810936621,-0.039334551409860086,-0.7734499732372494
2.4265687353608913,-0.8076179895030101,1.1187568037118432,2.2980126001728123
0.7970143930179294,-0.09000540285443515,2.0784986442345814,0.17595416295467214
12.788564518808338,-0.163851438226993,0.22993655069253371,-0.41847439810387843
3.996663610108662,0.5088639921897082,6.673187049222538,-0.6040246094777001
2.0263079248021114,-0.4704829878119644,-0.3801602658063583,1.1177743108016043
2.1159296412900668,-0.4815817963483938,2.239436851452537,-0.730623708448974
3.268108806384496,-0.47240653008255673,-0.40434366903301444,-0.15494928625333737
0.8580788676423128,-0.4327067059085121,0.6992894531579688,-0.45422295453124983
-0.10636252736802143,-0.057398006353694964,-0.570660465996649,0.040167998933680504
8.790090960106243,-0.5731839681463871,0.9559541709535921,0.3640401763469081
2.480640161790927,-0.2907991747006943,0.3424890669615124,-0.5802908187014091
0.3704819876325398,-0.4168198886060729,-0.09135840623083058,0.3978201569102764
1.2750425078477727,-0.4087421541153562,-0.10573684615096479,-0.01953242770119923
2.604366444992365,-0.7002120384407817,9.921707257735173,-0.21742638570700135
2.2721487872394937,-0.5471512985572304,-0.4533114727636177,1.219399955152828
2.4548633860333617,0.02496827136946833,1.215880189424639,4.824354450873174
7.3189348294230605,-0.8293026835869469,1.2559819400907175,-0.315569615063902
3.0507122891638394,-0.5253373474195586,0.3372080667078685,-0.5641254940028075
3.3050833577159633,-0.06668644896575004,0.13972497151475127,0.4767983786033039
1.1719685709691303,-0.43129282169636163,1.2052946825314819,0.5967150930705309
5.55748229694668,-0.542141091941741,0.08142468963679472,0.016206060246357623
1.3259695992307576,-0.5511356253846622,-0.2512521028283565,-0.5775667348812291
1.1086827242984998,-0.19083469057722113,0.8505053274485366,0.4811749893522759
24.324149453016243,-0.42007185139674563,-0.6837678001530776,-0.7941998968803299
1.5992947723222701,-0.8365979627025846,1.25725582528665,-0.5211355463610272
1.432318080244157,-0.7294457589615838,0.40692151711642577,0.7643782635168372
1.2022107970714293,0.5823682730260475,-0.18246211306018645,-0.6811377273149375
0.8327825136839873,2.568129013223257,-0.025611420741295188,-0.02600889932347583
1.7672901624710677,6.561721472714809,1.9461651209228985,0.8255926141044174
0.9910020681552707,-0.5649395338908481,0.0962034437569399,0.7101572797705453
1.4058542700512002,-0.6635166242791026,0.043392918844205264,0.7488544487227429
0.6944023677661091,2.409574196584951,0.7012713736415226,1.3230535486590154
1.805863381231965,-0.5338825758579219,-0.8599283633160287,0.24427572735542924
3.3296185798114655,-0.5184145159136304,1.7895060046339566,1.6580020655009382
1.5326575076662392,-0.5099953730568353,-0.020350111405523896,0.2455223832163782
2.092773121000789,-0.19920936317708304,1.0258915971058822,-0.3892989664815999
6.420093793376115,2.92242415934635,-0.14358296205827392,0.19337907501692908
3.0170119160698663,-0.4062227700148876,-0.03928059265717865,-0.22625971861325556
1.1022266293769176,-0.7106989757162746,0.8065848859335552,-0.17426261848942803
3.2047460468634785,0.6855390174075564,0.9729962837133697,-0.05157583987632308
4.1009946645747135,-0.5097888784194199,12.662354227787716,-0.16319068953190263
1.3274665590279153,-0.019058733400088013,1.9296014878543986,-0.17431505665165814
1.3899646034134787,-0.7191750507743858,0.7044515533310258,-0.38567595750683037
2.196064347036476,-0.7469704724368356,0.4282452964953618,0.3258132710184165
1.4923921056020868,-0.14604293208685903,0.8290998455519221,0.582222912175798
2.5530139544409014,0.9358781680494297,1.8266448289834485,-0.7298290298587724
1.7950567999295188,-0.08186482594488365,-0.0728220702276815,3.231227999005233
1.1242575062559172,-0.5321862081294346,2.9502630314252998,0.5838023949190614
2.1618035137338034,-0.43084494791186334,-0.31230309800312395,3.6739247645917787
0.9046005328323279,0.1464018696548044,0.3758622265231133,-0.29134513852803223
5.885373687193566,0.4500946733323703,-0.28919697441248227,1.1529447828232726
2.3393914737562422,1.6502606230687897,-0.25709562850781265,-0.38469365298740266
2.742653667009935,-0.5264512362785041,3.3707435064718947,-0.4528290246509985
1.0075692593841277,-0.6525647805073264,5.076236667417016,0.23390916018570573
1.7515385727018202,-0.04856429750301994,0.2419622419942522,0.1332168353769192
0.7807013195191048,-0.5448826365685322,-0.6317016955928817,2.5684764643864324
1.2716562988176254,-0.45423342425002333,3.1426768868750896,0.06780638526201677
0.9223046075562387,-0.6442136706074648,1.0386457558841928,-0.3693184533514171
0.9752407011688622,-0.5214793280612808,1.6929723879078207,-0.47344136518755175
0.4529494076664433,0.13949518930736438,-0.23631153264669225,-0.6517067532722598
1.120961574488958,0.7931861338748238,-0.02596521747512548,0.5062563678951266
2.234275720770486,-0.22725619193165192,-0.5042486219715547,-0.436712482688978
2.856798476944812,-0.4428173884359077,0.2984949231542504,0.06634300866043463
25.496866953693782,-0.7209127745374042,-0.27368827207783075,-0.16443529161977277
1.5382716004146277,0.29954562096227777,1.0583268937689256,0.778130014412941
2.5064892088539175,-0.7454951742278622,-0.8614569148832674,0.2428152675748254
0.5681507724178616,-0.5818955885055057,2.6681246884071266,0.0948047902486171
0.984192315734971,-0.5618850624023073,0.061543848786354216,0.4479147793536955
1.5637866686432478,-0.8035712722218713,-0.0972405458365806,0.4591920646668892
4.895307937924808,-0.4109910037422868,0.9306415487987314,1.3111406719118195
9.60900562641448,-0.5628624996767921,-0.06231133429841351,0.0841557560504127
0.4335787507586595,1.7192510617846248,32.61919886939619,-0.025555489746019067
2.3899467556015397,-0.2719740065863919,0.06336507928062662,0.11380370795651151
10.569982374393465,-0.09494521203115469,0.5314248928351502,3.356616794578753
3.8613424024412257,-0.8391383798145959,2.966374094224489,0.12941984115167826
2.4838139842956024,-0.6205302988944514,0.28842938579382027,0.3848648225101712
1.4062686170067558,0.5907383975997029,-0.43766105675644473,-0.8950534471938907
2.2935463800587144,-0.48283364275864404,0.8238668905778972,-0.36229145826314113
53.28909178442875,4.9126019677991906e-5,1.5077427784578745,0.6472564468667004
0.6604161597404177,-0.8733185456310821,1.0586232549316161,0.7556535219454368
1.4620222716674958,-0.4944406037572189,-0.12638427709534839,0.6482364215971514
1.6671137719547904,-0.21184353263779998,-0.04027303027820672,1.8155632028112256
2.533628705908466,-0.7871801388781093,0.2120378801287066,-0.4117794354504628
1.5807652006454616,1.1259884317481035,6.12553181764063,-0.5582004869663011
5.695842554397405,-0.005494298319669633,1.4406189631014161,0.7636897427849336
1.9921075483439226,-0.2494164051003468,2.7298981638586874,0.1739715526250083
2.0976329582150255,0.22837749308908828,0.13030944201757655,-0.35312952128609587
0.6737666742794615,-0.6232559724077902,-0.7902192689371945,-0.763724801232308
1.4430810592890744,0.07250289833757462,1.1811089349527393,-0.3965338701122161
1.4666807188064186,-0.7286432323364831,0.04932291753656237,0.08686547737491712
1.6740464591401278,3.2199316427213924,0.33982081720138524,0.46295703300620517
1.7433780800631329,-0.4273071002821083,-0.6238670773309176,0.3333728188145102
1.6372354787052585,-0.45376865995612303,-0.16734318882555554,-0.10879341361552841
1.0806466934896828,-0.4842358031324432,-0.5552829078990873,0.05422352135310016
3.7583505100771557,-0.6901964840881857,2.818068418456498,0.0783812351224098
2.044130979664532,0.04555021685392591,1.0458369858885335,-0.08815161962538165
1.497985679528433,-0.19898879508737788,-0.3969868033105102,0.6071692752571476
3.9179563478422548,-0.3364468264543372,0.13454316900195806,-0.09621829018795613
3.0808968008295565,-0.44077077900846595,-0.2804530724658246,-0.6375121430771311
3.117832390386609,-0.22164281950432496,0.09884090177113469,1.7709999843796398
1.2590647368858288,-0.34138078597349586,-0.2980584514122008,0.8755475466719349
0.7761007869179541,-0.31171649103889376,-0.15043188238265404,0.2985224333285428
2.663192492094188,-0.6171608224884535,0.6924200842442441,0.7576567019762033
1.163555906623822,-0.4246692761123573,-0.016853251656443136,0.6410254223348186
1.3275516160113399,4.3699463152773035,0.3415120198595112,-0.4994300790752385
3.1120823237816886,-0.752996832130525,0.5764794302248633,8.87947042867584
2.5593908691141105,0.7354613488457193,1.2935234619844795,1.2393015688774298
2.1256035246967895,-0.18073188396565243,1.2086290850786345,-0.006687390227901213
2.8681869081499096,-0.42500566519740235,0.7646738161361295,0.3193592683953983
2.2892367396836732,1.1577427064421233,0.016455135968447276,0.479438189729666
3.115324175851778,0.17281019226254224,-0.12012895148997216,-0.27421046904866087
2.435691150186135,-0.3955720844790427,1.9190939309774455,3.130408699995651
1.6922308533175316,0.6152374246760393,-0.37395668590938624,-0.565257516193514
1.4103093900922667,0.3747023589742424,0.23636874541191566,-0.07337748380984144
1.4875104331802724,-0.20154720971358897,2.895664746206946,-0.18456091889770476
2.693966123087837,-0.1851975942629388,-0.45085246469293616,2.349947765648007
2.50103246090623,0.18482278375686545,1.5792012940197768,0.04682683046149072
15.806023091355044,-0.6650765105885073,0.4836771293389901,0.4842692332782177
2.6289662778201635,-0.2769738856370296,0.39517487492634507,-0.04875291326897635
9.520279773263963,-0.5041662024423197,-0.48475204073290046,0.9383635790332399
0.3198756899293016,-0.30400073606012323,0.12193575513591859,-0.661847462283121
2.0775687881895566,-0.36705393823114596,1.0842968495741,-0.7051303242036284
7.641540491640882,-0.4019687252644979,-0.4043821633311907,0.06362795809314958
1.3983805502975941,0.09482749367148235,-0.33083825882233164,0.6268531632947172
1.923888880211555,-0.01204506579800102,1.3442997824629934,-0.8120162797896883
1.8979224475313914,0.07038967773491334,1.0874886308955256,-0.01670021747686301
0.8758202050948911,-0.3151184622173654,-0.042973976182215434,0.849787256408526
3.85446420943771,-0.3043199671937433,1.1249008404314949,0.3434839445136082
1.7282866737147415,-0.2662501775192737,0.05314144929424924,0.1969440753894245
2.8375780489646556,0.25487566341319257,-0.42074640301858846,0.8228409175696338
2.1656712781831704,-0.7272267768932738,0.3186078772224641,10.32949210897971
0.6568543443797508,0.4542045291238217,-0.523947231677322,-0.4649076892754441
1.1227999606759909,1.1187002889933328,0.1141902065808924,0.39395956208058447
3.7108213954421405,0.10361852091564772,0.2423398666171146,0.50924396881097
2.2379304836208744,3.5150706018719307,1.7527198199015155,0.33813758342922373
0.8126037689878371,-0.007376270583425937,-0.12146947220706983,-0.08021139677714062
1.3779584347774931,-0.029366470967008396,0.8299735636542187,3.054805468742642
1.4947280732616544,-0.729630148254939,0.8754166116740318,-0.48552080438816214
1.807992398305351,-0.8250356679258067,-0.25379926363997574,2.5469899139465952
1.9097645166922086,-0.4642009330048429,1.4479621012134998,-0.25411791856432386
2.100574360296381,-0.3660587980134695,169.62223910528564,-0.7468702782129132
9.791603381287871,0.1502194097509526,3.134953462922441,-0.5482729195108977
8.70925252976315,-0.052840425191989615,-0.7101987806794172,1.9373151948316272
4.649679773110449,-0.48233910556232507,0.4555748146666698,0.026255874454532036
5.098135617215868,-0.44468699297457526,0.5560151257519343,-0.17203620715404555
4.624318228906715,-0.13189125848523475,-0.0008485633623870337,0.044688854349719254
1.1109851564921511,0.03246360808827964,-0.030617349046336506,0.048660612043308626
1.8753259856664326,-0.7527734164858759,1.4353831483922908,0.5618945954420256
6.109423150863047,-0.6908488215353265,5.373600350222507,0.570022541852625
2.750970192813897,-0.8170382457182227,2.603191109187735,0.6631583161100598
2.751156860175759,-0.4572664684932416,0.9126799129890681,-0.007349154084356435
2.6833760413278003,-0.657841866652867,0.4327242708244916,-0.09431608561660265
2.6483201932426406,-0.4898665108283462,0.9885682773569429,-0.20305137586631206
0.9379982254738377,-0.3194299025189177,0.3492169100513949,0.4441273774101304
1.1812859698680072,-0.43916485717432274,-0.17366523156703428,0.5020155455898592
2.9200866116647295,-0.33172268929207205,-0.22266480877865558,-0.1158130183581566
4.6065410892069085,-0.022429025838607508,0.8726555463833467,-0.533307667033238
0.4432390654313705,-0.4276191659621662,-0.6334230159370662,0.8880457888538826
1.2191279370481833,0.18511602340084132,0.12148077812976377,-0.7398467211314326
2.4109113280809575,-0.48077306554813004,2.678631085185523,-0.5347211530138426
1.5644909438886279,0.6882452441525215,-0.618773317922233,-0.7346679380266601
1.4126670221190825,-0.7297527200691061,-0.52413428664289,1.0617965055465204
2.6171428103235104,-0.6176494596387766,0.6403667912374915,-0.11510228067005546
1.5632334066079663,-0.13590476736814316,-0.45871512980328666,-0.018465021649142432
1.086088974543527,-0.1345009324423484,0.5725359526039553,3.1881083507970045
0.24857939140827656,-0.6475968144397872,0.5819669403806387,-0.21843253566232046
2.6737201033548095,-0.04043311676031314,0.0786610115397759,-0.4279804781341682
4.730033146998554,-0.8787096631254342,1.4342619902179772,-0.05972313643696059
0.8651909508498805,2.30053210496517,1.4099446232570383,-0.2733560098405996
1.384347804940686,0.08906147884048621,-0.23644321959786774,0.5757797374085631
1.2764579158782698,0.8682832034309984,-0.016665769600701874,-0.358771728224893
1.7759716998957837,-0.18438976790188577,3.0518317465705103,1.057010646280284
1.7598985943846812,-0.13746244005325037,3.2195275850646867,-0.9067302465074966
2.315415951437195,-0.2991931530189207,0.2804866599864868,-0.6340787060062574
6.098805648929104,-0.27656614849709327,2.775381217299388,0.7735402431866161
1.045847243927231,-0.2984821594825322,-0.5124565483741992,0.3935367125097857
0.25138189677133327,-0.4431670228251534,0.3247412904102045,1.943925650953957
3.156397999348087,-0.2079596489428711,-0.7404011688363727,-0.5614350355086752
2.6582771388900515,-0.8884347723033905,0.92900898777871,1.9161385278270098
3.0298940758504473,0.9324145312371637,2.088607633944414,-0.18006159572160751
1.626095340517928,-0.4784283920926047,0.8902818231967566,-0.5969918821419382
1.2946268947271364,0.292811664562006,0.7425387762276277,0.14420211049355336
1.4360946099155267,-0.22398962755552831,3.537178310177528,0.6529738391493478
1.2691927503311966,-0.1815287956086491,1.1463815288090786,-0.03350075537527608
2.250781635453759,-0.2917850717972055,0.8941988427236314,0.6148774140157491
2.874136141220519,-0.7495092145425633,-0.09199546848832496,-0.5035388391015809
0.9680454894888244,-0.28247778071168195,-0.0016323447582731188,-0.19875254079066307
2.615558473119188,-0.4885233669918252,-0.48414266615698365,0.012563575535318616
1.1410061963990752,-0.09465028576352996,-0.29616492901058356,0.2662959042279891
1.7223766391429365,-0.45822482873892845,0.03549103807397147,0.2827710374210122
3.3814704407628167,-0.4852800470250048,0.13674353623822744,0.2326293841811149
3.195622185715113,0.49656299047227237,-0.06293506799525617,0.7133494758331653
2.2118572172288022,0.42777884791616594,-0.055281132985757875,-0.10982585274430678
3.308580800265199,-0.5446238720056469,0.13696818841459657,-0.5154366952273097
1.227221723332844,0.18125632458481,0.2706142626739132,-0.47668405182637374
0.8473108410796093,0.2110225795938263,-0.15652410215585133,-0.5520993386091619
1.417003635450496,-0.38025005617688035,0.45084283132704295,0.29125437162289525
1.452443064048179,1.4466497075378415,1.8912707963499842,0.22825247462646692
1.8574680636923389,-0.8007505915702466,0.522480164323998,0.3198607929375332
1.2685031766919224,0.18592587680452977,0.3113094428393135,-0.6018804203453259
1.485796281255396,-0.7282682663959719,0.5114021378891025,0.8211122491750031
14.165447571166755,-0.42632524398490856,0.8058051475315062,-0.49586804003873597
4.733551130991722,-0.5211485781139622,0.3412983964023961,0.2066268363499426
5.365444764087425,-0.37845857594542887,0.6817873373289607,-0.41738786482100865
2.0255698360586125,0.05698170101032907,-0.031819155770991925,0.4894965410594865
0.5932818054017099,-0.3350790338352324,1.7694147052053304,0.8261557291611563
4.059491538016083,-0.2813645293057466,3.502875514297795,-0.6910843908828024
19.849427168807374,1.3742753118862243,-0.4451836891663129,-0.5937630572587715
6.435165252594116,-0.40500578472838167,-0.18244695177975156,1.3953902239252716
1.4836483868140684,-0.6710551375154874,-0.8082479131482031,0.12952808682266426
1.30015360086712,0.009233199616180743,-0.3315244936620627,-0.29765428378581926
3.341249166183033,-0.720786857778758,0.2893578437237865,0.22166713607905786
1.1007876413897537,-0.1908092420881199,-0.47307298919843765,0.12588147382082493
2.7599469471234874,0.7416742267311158,0.3572864012390822,-0.5783988057282292
0.786434878797482,0.028796083581818843,0.04195281860868327,-0.14293446618866534
2.389440780010765,0.8573259974437317,-0.13960294953549113,-0.4310375785168705
1.392206096179625,-0.2732077463222228,0.03674417429020416,-0.0715741771402193
5.235246063313955,-0.5921084696563959,-0.05245015685518695,-0.13118633055042972
2.829379270778158,-0.41263180411320044,0.24275414757732272,-0.5378577723588402
-0.06609352417257153,-0.7311782996440337,0.306569299690977,-0.5802142479116891
7.957579193421644,0.12905676879410066,0.4736896324521618,-0.4747614825030694
1.607346869263388,-0.08291227771557974,1.2035663012588622,-0.38003586076245355
10.037366018901107,0.3526221643270102,0.7184783463873898,1.114665578674567
2.2012737307168293,0.4257791409901841,2.2937619782884546,-0.37631603813131054
3.039803221505747,0.6900170785573903,1.2858991343494584,-0.33294455622954144
3.081142882229525,0.22030964595306868,-0.046130401519311914,3.5045423956410993
10.465573565743801,-0.398427177165696,0.19552342779758414,1.892246994859148
2.310535040279486,-0.9654053421582746,1.0465809627716745,2.1181243468157938
3.130798455593597,2.146554476159142,1.1666172901141492,-0.609641469423579
0.748620485114931,-0.38850998945641324,4.675910092900254,-0.386916548559361
0.4553761614256562,-0.11319018823557547,0.252885328021633,0.29902590774275817
0.7999273546359731,-0.11069260813983806,1.344971343461454,1.4486155311981017
1.9001892444100386,0.09453824550785295,0.35394063275587406,0.8462180646948436
4.174839930195209,-0.2814589455381745,0.6558515198147674,0.14626613151427503
1.618014802208254,-0.2531697591639853,-0.43460433172598845,-0.5669722308913077
3.502846852672948,-0.6747392944830186,-0.13148838629879578,1.008481722934655
2.9150237132459003,-0.5202414451981354,-0.7238952219799841,0.030129768624028275
3.093712832702762,-0.6740355022785867,0.6548909266020551,0.1345904361073913
0.6918792139927514,-0.08758762664264319,-0.3536896693769531,-0.39137445625240874
1.9228756663022368,-0.15261684161037647,0.5666245559045682,-0.35814801217457914
1.2992194643918729,-0.5587804620355894,-0.26784102582676583,-0.2769068070047098
6.066281438720191,-0.9175488322821831,23.089800250831352,0.46845459957016544
0.9276611528093772,2.704841866679026,0.26163702191693416,2.7992004446997583
0.8115611406123691,-0.09406893967380914,0.3831324995028582,0.19846840296011115
4.650716644988174,-0.8131382703621073,0.23742154239192215,-0.03927070327136828
1.7023923022815741,-0.6866347283214096,1.156680759985893,1.741705790070844
1.327560816919482,0.37884809621021653,0.185696692652219,0.01179390235046296
1.7450132704353019,0.4124525420113254,4.398442052457715,0.6017983380682221
1.2415450916645332,-0.6504358900452601,0.28311528142016984,-0.5625652554606533
1.8895406199840714,-0.6837896312376924,0.7575208057939438,1.5525226182856438
2.5700331092846804,-0.3481701208730078,0.014670636543886673,0.09181846463695797
2.274708213372691,0.40578533990647747,-0.12395673570872201,0.2206344561253084
0.33604529079849343,-0.3766354010279819,-0.7490705643624469,-0.3096323248718448
0.6720524776033383,-0.44860537191555583,-0.5565769031699322,4.986912308672092
0.41668847506085616,-0.8367351835136756,-0.7959489860030103,2.149839494404325
1.2538393851405667,-0.06108506473605879,1.8551636341680142,1.11543194867258
3.934646224916192,-0.5092476138098875,-0.06652170501005983,1.4272206542664416
1.8231719715318597,-0.166538229496206,1.4021200836046273,-0.1920497347853024
1.457568047343209,-0.5080311086030134,-0.8421495067432418,0.2717385752892967
1.3441219871226937,-0.8109871989089747,0.3312499752956162,4.686277162382207
1.406257205862555,-0.5902584622509328,0.16318977230343834,-0.3467790500676988
0.5953124285521074,-0.4062762557320102,0.9929770712412753,-0.22120132067675036
2.5288725336386952,-0.27583537972911787,-0.5338403560183742,-0.18050873177362792
1.4855788354400232,2.8413903925547452,0.906753681096329,0.1272103152723294
1.8059387247264613,-0.07094483827932097,-0.48305928283163013,-0.6246797549921057
0.14486498835420325,-0.6041282486419379,0.632554704043828,-0.8263836924831082
3.1321948307372374,-0.6647936112342525,-0.193870758654893,0.1490704000333989
2.2903103062763908,-0.014717455175890515,-0.5245880367789613,-0.327162207068747
1.1268758819243163,0.6508412752595854,-0.3641260752686941,-0.8974213027600736
1.6567198197810948,-0.8486562707875501,2.3290696859890843,0.9269733445890072
0.6527050972588702,-0.7948617654173158,0.24946317985008926,0.636745603855069
5.832871999120487,-0.37212338721305893,0.45304932716524204,0.18220812825371313
6.396753774336179,-0.4401618117432712,0.4054144473912691,-0.4568374096369274
1.6820519119337867,-0.3742181617899759,1.2423587024503635,-0.3346474489294784
1.6376552344525486,-0.7837809655258542,0.5786444702613853,-0.28866786929133004
4.995551870198653,-0.4764241024168424,-0.2852068277966173,0.6086180972213311
3.9771789401999635,-0.6856786875604797,0.26055288313580904,-0.294862837352163
7.340151134412805,-0.6588725643431204,-0.27145298744577495,8.755472918260512
0.9379046872297303,-0.6496046596073253,0.7437043501576361,0.006274031546840808
1.7259526136777832,-0.3523119220867349,0.5401854422685226,-0.5382430959435409
1.1983709871888526,0.22181813034326892,0.7273048232744255,0.9612923727526099
4.365677026960134,-0.6393788412081731,0.6349606067020763,0.30293339823062615
0.42341225967445717,-0.5033745389125659,1.4056901321722348,0.2553906686084555
1.1288920360896397,2.407634013049663,0.5538568532577424,1.4366727253521732
1.99351873368989,0.06553209317644249,0.5285809844047196,-0.23423693016514524
1.4514810891879057,-0.33304602978674436,-0.2551021352446494,-0.27039445749196866
3.8337178321282215,-0.6155210852958959,0.38778615351306955,0.21470142077329402
1.2853045773706748,-0.16915370072166458,2.371966597862541,0.14278917963586046
1.6480098495502578,0.43611140879094545,7.241846096427503,-0.5285700913418516
11.205010851734789,0.275813147458281,1.3377809052314404,0.4625246626108217
1.829736729724241,0.22924413122953835,1.4825936801704729,2.433859104267182
6.850912767762008,-0.31439870136548465,-0.17758141337253253,0.2128071634654467
7.234619774293247,-0.6497219055315551,1.3335385110725286,0.6874613241272982
2.0647987362608218,-0.8320357005929714,3.134663169291402,-0.12698948759348172
0.5873742936180262,-0.29146118448966196,17.71470241344883,-0.052676712777929735
2.316267437978255,-0.043762953911224645,0.024423139269452054,3.3696759784611823
1.6115906545992122,-0.2767016811287343,-0.3509744189618321,-0.21794765776009584
0.6538196065830733,-0.31597064135586395,2.1594431862863477,-0.19564263674981153
4.365921266675842,-0.06180694514805063,-0.005639969748520879,-0.06322769940025696
1.483888419244363,-0.6157468511442135,0.15530859429973365,0.1260499159594286
1.0969096379428853,0.8172658058128879,-0.16330527691894348,-0.324469422548593
0.9543134722178177,-0.26230837009827634,-0.8639284882879572,-0.3512833014082839
2.880842070120967,-0.02757510230277005,-0.5594431964342916,0.7544222484568661
2.4647602934812207,-0.9270016959076507,-0.6555214820339477,-0.10019710060612397
6.702337198765593,-0.3117136555000578,-0.009344129148241453,1.0010463282285884
4.573142459104388,1.5589574764648813,-0.76008169707329,-0.3522527885252392
2.8599173718798374,3.4663562667032783,0.20258945148710805,0.6150711796187338
1.6490510195810764,-0.4638448145868277,-0.15968638214171893,1.2494522054845465
1.3406300020635764,-0.6224300590657098,9.553512262440975,0.07850628541001936
10.489715464323066,-0.3899391871074468,0.04408427087195621,-0.5411103845936611
5.081710331116979,0.5195337411751266,-0.12780838825675533,0.6605211281915249
1.549032686104907,-0.38088949049358267,2.0136279551631024,0.2708860489014433
0.9783354487008165,-0.14253427576283217,-0.6453670128997662,0.25373686105031235
4.007692169112852,-0.348876798130065,0.6364822333712994,0.07982565839890143
6.718957458624039,0.411279182176975,0.11653958906391959,-0.3819098791582113
1.7263816196885422,-0.26542297572476237,0.3737965201621525,0.02040654707192391
1.7631771919131318,-0.4830110336877076,-0.17941802826465492,1.850883119894415
1.8456541738024312,0.4412165781082247,0.11711764676019643,-0.2624598026382946
2.9509856593003296,6.772673958040792,2.711056043022119,0.02771928407508506
0.8070011283739318,-0.006425294211219623,1.5448990620028025,1.9499228864917444
4.399897552716918,-0.6609322545731069,1.6361006943419212,-0.12945454769344655
2.665808709121755,-0.39481878979318485,0.7953190214813151,-0.7943077183214078
1.5407233440729637,-0.023045971304401225,1.671774170477336,1.8701536651794752
2.681621216375775,-0.8050099213320254,-0.40378485752198634,0.7079818376231786
4.889486839322573,5.627629806405876,1.000824219698591,1.6807188474454913
0.8597748073502027,-0.0895568437033758,1.487663046293576,0.507100275971927
2.3749640254555135,-0.25190286949603224,-0.05094790535497096,0.24937532709538623
3.2516552526292823,-0.2826734505780065,-0.011734114804858642,0.30530412164789533
1.5302495412234811,-0.6120397285548398,-0.1990076993725587,-0.04054811905141953
2.6766895657935157,0.06397802759702564,0.8577597985259118,-0.17376346500115614
2.3450512107351997,-0.663438827963768,-0.0007411110152768519,-0.30893926058775334
0.7773823980104866,-0.7211009764301894,0.6158586303402633,0.7178433352408593
2.5251065404001043,-0.5204727642594169,0.0399147096752952,1.1502157629724934
14.36103475825147,1.2469491444791334,0.29060648299369585,-0.42729488274531935
2.9996245272599533,-0.5941506612221932,0.010675680095253215,-0.6093911255920305
2.0883561431754076,2.2142221668494453,-0.0826987766739149,1.4259080898747336
3.1017771958766733,0.5978689402185817,3.163788838276692,0.1369190617622218
2.2599042053712095,-0.1796788111762938,-0.17601893068269947,-0.05247606599482979
0.8950700768815008,-0.4036159730858161,-0.3793308716681425,1.1200305773782588
1.01920984108129,0.06347552418441182,0.725987009090453,0.5767830437037011
0.7409275495456751,-0.6726116546901726,0.11169303916866657,0.35231433444292515
1.8384797268355686,-0.7251314467309331,0.22359855911207638,0.04827526774419888
3.9962634805813666,-0.763745677516446,0.3203316793256037,0.3316558446773059
1.4129018604969086,0.049743632032228424,-0.78813996931534,-0.19908045162421106
0.8916784709968473,-0.00012028923840168293,0.8696082900763809,2.465608079582048
0.9629927167834065,-0.3093967994716984,0.5982843406468996,-0.40369217319587214
0.4508537162599857,-0.5551716202780603,0.45470116156360674,-0.1390510701656632
1.6243411402635193,-0.23824997489309951,-0.07152170352864307,-0.5668403926020127
10.80492170422469,-0.46808138572182223,0.713817179312098,-0.0683768819015893
1.3669901221075484,-0.00969789935530807,-0.35495011634101614,-0.7684148151278452
1.2444051871928923,-0.28922746620477124,-0.9112786076149157,1.1909661941631278
5.104858645473781,3.5463351472479836,2.1854768906842446,0.785379172245068
1.4052431510915038,0.3031579809170024,0.421330740275641,-0.3952848563431678
1.779979474330232,-0.750331889490089,-0.40177945292588935,-0.5156312792770983
3.9662051863309795,1.045688890683369,0.05549466606911535,-0.15748007137163456
1.3111624293934079,-0.13666338543010326,0.7585366993733824,-0.1111492031106962
0.46786564752284954,-0.5214992696309262,-0.37710616032454425,-0.8692650044192213
1.2126103283728038,-0.360093672150093,-0.41392605960973317,1.1738490175549567
2.402947371330362,-0.6344864037432811,4.239198283133462,-0.4278678560981155
0.7322089058957983,4.531901503022132,0.23983719082833166,1.3332850353318046
3.645841454228143,-0.08401898900701288,4.007474571742268,-0.30392790659177604
9.128322898014531,1.2545324795793835,1.7385223904121836,4.023306769459257
1.5473355723503421,-0.7677519350458297,-0.2504585613188789,0.0051930228744427875
1.4218860291567097,-0.7938105165078704,-0.11980418208462418,1.2420372238300557
13.581047747697596,-0.5211836354155633,0.18228191003489158,-0.13599637388468933
4.69631433179632,-0.45822863629319577,24.132379478074952,4.624400682120062
12.663056079740286,0.2939572619198201,43.95721760707481,0.6348689996847348
0.7529378477175825,-0.1867738587267792,-0.7824521612300959,-0.028891794389876768
0.6446177822113828,-0.5976645443043828,-0.5954486048041723,-0.59628002154298
3.477367189625207,-0.4319309255930339,0.8066932584037594,-0.38472068451365427
1.3360387908394369,-0.11673668962570827,0.06386517390281399,-0.8165278303721965
2.290039232132274,-0.4603188676117246,-0.35468778639869003,-0.5371858274636284
4.122640274893881,0.21741220533611916,-0.19771096276543676,0.3676035576656187
1.3768802951486991,-0.8909578101807547,2.1577483443124867,0.001113042556484034
11.11123748750892,1.0027986096011507,0.5913476944951883,-0.7169820939074243
1.3322842364175465,0.18698954207353724,0.20709879877145632,0.39826754381578966
1.6046662525302335,-0.3316917806904205,-0.017968629116808077,1.1630339015590656
2.0452262824285166,2.5337129947689303,2.359742956176538,-0.24751032040341003
1.9483380734540785,-0.650188738079958,-0.3171397662368489,1.611106637038994
4.992729066973599,0.15430450971487053,5.249943262141552,0.4420637714260942
3.5208226033450574,-0.2283570418170463,3.7870875213899753,-0.012042451758649153
0.5102801690354999,0.6393122331484005,-0.0971702614434059,-0.2845799572610235
1.5318298405678021,-0.7462118079973833,2.0525379326642623,13.782662921704212
0.8050984312285216,0.11926377406390376,0.005961405653248653,1.049962739166574
1.809934950259592,-0.7885101591424052,-0.2931024015050112,1.3560562269867869
1.8463109070797858,-0.3945402274726709,-0.1813605865632597,-0.3583099126271003
1.6560121373942662,-0.10079333580193106,0.7930606146700203,0.12931430681794698
2.1163302573745217,-0.5523945633430409,-0.054711321571086935,-0.0402383719442847
0.4196464431492086,-0.6729929427847685,1.5827610442509088,-0.7179693588193187
1.5852523801204597,-0.18249768908893205,0.18098364440749815,0.4101288261515412
1.1174840192777586,-0.4573745607964391,0.04685155311919398,-0.8270202893312152
0.8057965469389645,-0.2895139165181836,-0.19780716540993393,-0.4946947691026259
10.786625470836572,0.011362852543031376,0.04208985881705729,0.3733520978643021
2.758331216932795,0.0653688245419708,0.3127752532936332,-0.26868799609517047
2.66772190360142,-0.7487531414258375,-0.7173569021399981,-0.25900937717351724
1.4168748558610367,-0.13265603868027365,-0.3123563347726719,-0.3920164867263898
2.3649950781188975,-0.21479871416505336,6.166828072826157,-0.8049825668235834
1.1191555801577149,-0.36930151014315304,0.9203742125304055,-0.6803992669427698
2.7680916274679617,-0.5415577893195378,-0.6113305821797802,0.40195460405912886
13.202713772189654,-0.27772224887386365,-0.2786457088244775,-0.7632098087910737
1.2437076527040793,-0.42652267383874964,2.9511024754894515,-0.33525713590320416
1.1419796770889068,-0.7264407708282017,0.23146232148298895,0.04604992089484394
3.182763316917436,0.10311850124540745,0.7133810722723515,1.1177801386840889
2.0103412761936177,-0.5833399418730958,3.7405048959197122,-0.24158811937301905
0.9170784586945235,0.08660466112976972,0.39448606399840735,-0.3411892958581928
1.1258343126764134,-0.8266257144282979,0.4475630004797324,0.10105093415992528
1.9984378044151128,-0.6471247808714629,0.5155103357813227,0.8682189251835244
5.106114591820466,-0.7449086051693505,0.05175769052571089,0.35535541279221294
2.467718443894634,-0.4255340388894763,1.2265828952995177,0.13434025499578106
1.053400212611539,-0.2922732507588536,-0.3083857130225893,1.5845235887489726
0.6481474774191023,0.4468306748430384,1.055946885081465,3.230566052884141
9.066598130425538,-0.17895778165912768,-0.24968523733893855,2.78043422157975
2.3891223333250937,0.561843195283019,-0.14118529518036593,-0.7485336807431762
9.02291724158668,-0.6145161400819149,3.9376180650989543,1.7037951659717367
1.0241843643906758,0.4890864378741391,-0.3147951617911986,1.3939657958909808
18.724690091088316,1.0453609171195577,0.9189491721841794,1.2005875097300107
10.864039320178014,-0.8193874131156513,0.23419000000105994,1.8100044188860616
5.03457586146828,0.8268240800872815,0.7585490252345211,0.21980853901974773
0.15089540782148259,-0.48110121087618607,3.257103924977839,0.8143636246472636
0.35006999184198984,-0.6367461818805777,-0.8390353592577837,-0.46443644698565967
4.30301290138735,-0.3142400874073661,-0.013538124084033099,-0.0003891032743348344
0.39937720130016485,0.1269149437000383,-0.17418071762724874,1.0068877126979041
0.17226967454991926,-0.6575791198892136,0.2132692608571911,-0.5156682047700707
1.8427669659784995,-0.7731039024079646,0.10649198654739567,0.8498189622160275
13.943607643320162,-0.7976275641349636,-0.2176366784453987,0.5176786132612583
1.589279421244417,-0.16708297919349546,1.2301820886315165,-0.8163371982408261
1.1678123188137208,0.45120274253155745,0.12095087198384658,-0.8036388945365056
2.1467748648530693,-0.5552609056739178,0.8428885489819846,-0.35082962955263386
2.1805097209566076,-0.15616055957832453,0.7169467776225602,4.5689816248037
5.723872861392941,-0.3040774610874686,-0.4076019120552363,-0.71753777069104
1.3711243811342877,-0.889613178762616,-0.06401385300003815,5.789297675903495
1.426487249012538,-0.4248938561961191,1.5481265875815762,-0.29439483460669313
0.544657068344105,-0.7149155414218488,0.26020708955271377,0.2714531214290574
4.636425896712502,-0.2488980406066884,0.5691701667564806,-0.25308373430491804
0.15635830391124506,-0.7036768675821828,1.522110684339581,3.210700714039519
2.2774931962489355,-0.8676155014945447,-0.12930246603720585,0.6879014688238685
0.6121356291296345,-0.18967153086432664,0.28488845176018796,-0.11823648218302485
1.5219708287356624,-0.209940346373514,1.1817954152749905,-0.5505635902676156
1.6020647518831233,13.738065943373208,0.047796319348278216,-0.8196088568771422
3.6856092338018067,0.8279902503667289,-0.43257585471486637,0.7039306034050976
2.6527173189760247,-0.3846844939491618,-0.4283010563807296,0.40922273284561794
1.9104099524875124,-0.8893916727880089,8.30503336898493,1.607273424048325
2.4937817848869046,-0.3988570988624045,0.12142854311756546,0.2510420843571799
6.865547083430107,-0.7651666107824896,1.482529582153913,-0.7334724073509349
2.172363846742743,-0.6965040178323796,0.9021598700817242,-0.28668378317645316
1.5949361761860201,-0.6421984720523071,2.5714659445452765,1.0493993870910736
2.7115658631312662,1.2570909801581762,1.0781586865308634,-0.1898203192818394
1.1725479669939887,-0.17744118320390379,0.6864058440841252,0.20853439239039906
1.9987306834851508,-0.7140087133596671,-0.20433457856011517,0.032834969268540126
2.3435144352983044,-0.6061089227569505,0.2815686977815859,1.5935733070834268
0.7874368869174204,-0.6993327949303121,-0.3762356408008566,-0.8226000092260068
1.6726120038631973,-0.4906569138230651,4.569909632334861,-0.7169948916504041
0.5774137178025005,-0.06672927892450486,-0.07155358025408076,-0.24094713638811294
1.30743643404344,-0.702235004979836,0.0473207768653392,-0.8294806709451822
1.3151596188683379,-0.2047480892698471,-0.5110353926640581,-0.2411965322861549
2.057526938373567,0.9379325467264188,1.2093599775186559,-0.382366311783951
2.3642134035237325,0.13267315686342118,0.9706905714774166,-0.8631645642066342
0.5547686452523783,-0.21405523503723156,1.741435663154291,-0.08513755057111072
1.1040268501102113,-0.7006740991687403,1.15218926599028,-0.0072422711400847994
5.625306811031609,6.334365643283249,-0.45225068799884927,2.0238318338879564
27.879247093804988,-0.4554648999183959,-0.04727306716474633,-0.27998129537081773
1.5690245933736096,-0.37229501337720683,1.3757275134849043,1.7234386344790495
1.4124027489571458,0.23281487238449783,0.0946988092424681,-0.3526096846152308
0.6331879985484685,-0.501501018877736,0.26154115747903584,-0.3849365004025006
2.703989483974043,2.6561235556528646,-0.05735061188107393,0.21736768532633288
1.0605222037309208,-0.5823593859110712,-0.07276663395871186,-0.40352405101513666
6.995672585185947,0.11867685374042991,-0.5688034988849378,0.02393695502425741
8.286429690730404,-0.7199257521055036,0.03263756630570014,0.2653048555259905
2.113535099965427,-0.3971161088210219,0.2542338715374064,4.9715899463119
0.879884556264465,-0.24651088422930512,0.0996550483353491,-0.4435028948359041
1.4584998434738785,0.8464239834046345,-0.32194350162012153,1.2669407249282552
3.494719015220811,-0.4195626307165703,0.4628745380503321,-0.5585713694139182
1.8683462834284872,0.35854797511952996,0.16690469981019151,1.174604376909902
0.7915065378436168,-0.4058929886547781,-0.09334084734850723,1.6054472566456344
0.6706031434525246,0.5903975120121079,-0.2241036387784502,-0.041801172705245526
1.2458654017487678,-0.09674169143435207,0.13251168396626256,-0.578421590966671
0.6454643524824317,0.31865119366159256,-0.6654048920923386,-0.8155689932120538
5.3555199413759,-0.38453003092283755,2.389916160857375,5.373505571891174
2.164559642101996,-0.08554316980443888,-0.6757098812083127,0.8901235755658419
0.8214914280202907,-0.2076918596448386,-0.23634700022195343,-0.556611703608805
4.7577748549976056,0.338316369677935,-0.20372059095539063,11.892290099427605
1.0554666643389004,-0.4038780217869522,1.0717745002674128,0.1629384401353089
1.4079594785587628,0.3195200276624064,-0.9578144714814109,0.07997101957148534
1.1273813244517488,-0.6627855215117364,0.3321582815200024,-0.4826239646057793
1.8554908925629028,-0.6178799284139357,0.4305983968134235,-0.05545469406456782
6.520837855133374,2.5451428786912715,0.7250797004655711,1.0139832199024057
4.874120994119142,1.5245676818888203,0.6818814988188497,-0.02906124122516518
1.9604329848446187,-0.34105464995655055,0.9359915917922701,0.4883665669224708
1.2320794138275248,-0.3079614991614795,5.0503942631006495,-0.39573181481795705
8.191215396332767,-0.1368009239977941,0.8307998093624316,-0.41440416049601025
1.2794551246397514,-0.45584267826801006,-0.1408521026098024,-0.5212551278265503
2.890629303303423,-0.46881834592978733,0.2444204969223127,0.09903318330395461
1.8538756542088324,-0.4077200274051792,-0.942538250088017,-0.2879192357338767
0.28216124823062394,-0.6677818080101852,-0.2211802970073623,-0.3586882561772251
0.6035538549851982,-0.6313934543643283,0.3802138060810618,0.16617410536593114
2.311540748381886,0.007610396397734531,0.33345651534703324,-0.4360330115513218
1.0607627729431446,-0.8048765508677187,0.42107008734674656,0.06725258308424564
2.0403540651022234,-0.4505944144236106,2.8118299354863674,0.5756024511099704
5.839119918829273,0.8668635710857568,2.311905605908993,0.640792746315217
4.163395914143168,-0.707991663243964,-0.8081212155309973,-0.5753852015058734
1.6701808279975259,-0.48758873148099635,3.2213972110265443,3.9443716179397743
3.6769228765355786,-0.5075833212368916,1.1984134810296512,-0.7997448392040326
0.5244269202710721,-0.6198623665131462,0.8417734834744799,-0.3173719000694821
0.6245678438738815,-0.36337201466498004,0.29278682293200475,0.39059722559091803
1.0334284101865197,0.5212368728663732,1.6020909640858543,-0.5757717454566378
1.120101762211886,-0.3604467949025938,0.9322946886898849,0.23062161035799433
2.5676418029699724,-0.7910418206684746,-0.6998323934629286,-0.6119077266784609
1.0978011540347534,-0.036152594656017945,-0.0019708282418658962,-0.32346934592469534
1.1895220951875753,-0.74123447612665,-0.43521367787435694,-0.40066972046619487
44.86368491001777,-0.8544153795183755,1.742327462663257,0.06138362186879687
2.4540566334672365,-0.3188151332391622,-0.09564288437232404,-0.7122924696846259
1.5488660881075536,-0.0022028991524698505,0.31632652702940045,-0.332482968366979
1.956386880080839,0.016828157353231843,-0.1711869697986178,1.9959552208664069
3.1830006692022295,-0.7983028650417784,1.104314721532774,-0.43908171477160896
0.7340741398499884,-0.6051437043763328,-0.10473610895138386,1.2199332510264242
2.346248094101883,-0.5493515251527312,-0.5123853648537842,-0.22892885697560905
5.115462329747568,4.1282868925961465,-0.1584158742900209,0.9544149118227547
1.955195440862198,-0.48475224261160643,3.500390893196818,0.40384983041402656
2.3111611411148263,0.031155316425189428,6.298757856092638,0.43686187985963754
1.7382707652875,0.10213143990085283,-0.19173453147065578,-0.08079629781696662
2.38259858344097,-0.6354843034807316,4.767265863819206,0.6328258098838919
7.485601858770432,0.4888620024147641,0.8284858674753188,-0.4059248970580881
3.087526849521371,-0.7163602534359943,0.1030655542817216,-0.30524137338907387
0.8777874188221195,-0.2650025020807759,0.04447395857738079,-0.22320650759977356
1.5460355949577318,-0.23901937250629834,0.006348474776089796,-0.7569547090055344
2.453599767749396,3.0463678133138457,1.7041620720949306,11.85501439328173
9.585071190140939,-0.1452797497652223,-0.2478967725365031,-0.38568743926280113
4.814663841611572,0.5541648046318006,-0.8075292761479445,-0.879722256151926
3.5057904620749065,0.18783632604105205,0.9614007944459777,0.09923373392693469
2.4108078943339546,-0.010097068142415067,0.3734815810298997,-0.3925362109248557
0.8099324548522611,-0.5316798317979863,0.07071403536539078,-0.5731076690389982
1.9523070668577014,-0.3740154254892879,0.4258023150447956,-0.3476465405171756
3.5512834244905127,-0.1832300454058522,0.21316939450856864,2.819781565990896
5.765806384517531,-0.7899669118219129,0.18091407907410972,1.329199438877846
9.273975800727166,0.5302004270452623,1.093314183148582,-0.0560904800160561
1.2279652535893004,-0.8586751071735614,-0.14263193102263494,-0.4427253278841553
1.56537583212448,-0.16468222093871665,0.8709795743057009,2.669431083384566
3.440826438637677,-0.0192887692506446,-0.0344694515236178,0.7492332162585267
1.1523480783710918,-0.13608743107883348,-0.12987146820660445,-0.4198390447274042
4.015342253150829,-0.5764005561331907,0.9550343428628798,1.217388655769485
2.2606792090808945,2.4039091025437944,-0.6926176920357243,-0.15514010621990126
2.3422182007649726,-0.5693817124421449,0.38291532591571964,0.029916502850718008
1.5929162442194644,1.516735985838677,-0.5443341458953888,-0.5220766430872932
2.9873457208196617,1.1745875221635673,-0.44251600929280943,-0.012914350088959692
3.716057701207866,-0.03670694634353988,-0.16534510597748764,-0.10470562828660768
1.8025166047858407,-0.40079023670749414,10.719324796487271,1.5709451875980252
2.556407587255089,-0.07375071860482674,3.016887182765392,0.5947383687779921
0.4590495830525785,-0.521985720694891,0.6431095284763035,-0.6889118211348031
1.9156267849959376,-0.40729794880432524,-0.4844777163483436,-0.16582884193791758
2.4181014617616836,1.7670759451899198,0.6359140577369831,-0.532607895357328
2.6184504327114873,-0.21378557249533803,0.5441938614703141,-0.1025669894633845
2.0493819031713434,-0.3403167428103563,1.162161627146653,-0.17652510726991422
0.9465809234678861,0.4746343774006405,0.4521238437916022,3.286358023007173
1.3764464350253203,-0.6658359365473859,0.014656648531038874,2.932622939874202
1.0671397461282743,-0.553321808360968,-0.032463122775596265,0.7303039682954522
1.352646500381471,0.37747376902206287,0.7028322179769435,1.1868307345570273
0.770312050824052,-0.49912916240427896,0.921280668904122,1.0011316141532691
1.2525347684529504,0.4939725960198267,1.092855050513068,0.3413042413607805
0.7810521474572969,-0.575554677834221,0.2366099891894342,-0.07977439152665289
0.8998986027330755,-0.1962433705760397,0.38350397157837013,0.5023480831294957
0.7479857027585199,-0.42156198162107594,1.2625047480634413,-0.6424793792892328
2.0109565424114164,-0.48608649125242953,-0.46602848144943987,0.06501501014655431
3.4711198755089647,0.271814454121283,0.4998499761995767,0.4554489096667309
2.7377931962420146,-0.570717591333222,2.4824305247704967,-0.05654544594964195
6.2195406257732495,0.4218039151453754,2.757801348888897,7.125241373293331
1.784730204330602,0.2592190665708989,-0.5229529991847346,0.05623913519693757
2.4440581613909798,-0.08994982648056093,8.16214597060035,0.42047775173046986
1.309154638787689,0.9357412186498602,1.2502954442852898,0.3276743081346347
5.459745660192844,1.7361535034266518,-0.21147427785334838,0.16467263398813392
10.371273938421805,-0.5833989513386566,0.22919495417140556,2.5823025114085234
0.9526688211087146,-0.3245676264927203,-0.08627344240335255,0.008072390098367688
3.522486602922654,-0.2676124124198306,0.4101622700285146,0.3662149827703969
2.0406390683032933,-0.6758027098283221,3.2813373576780673,0.8084174763559238
2.7186880142877725,-0.170960087486407,0.1373117681500815,-0.6509308179692554
1.7683800997560355,0.2655536875131126,-0.3427950611516165,0.6641556912992157
0.46761364475004097,-0.28422872185463577,0.2347856535553554,2.8783742132859946
1.1293454409372754,-0.5875718406376242,2.5091145381912683,1.010475395462954
1.1726837988053114,0.24432449119747668,1.6131342287626107,0.3812651050172928
0.6418185350873225,-0.8058927731016203,-0.19204504248004806,0.8747781378466015
2.2221514868151973,-0.7510022471303457,1.3227085864811436,-0.4763176834582966
1.177595733220035,-0.09410633479525199,0.7741047366382026,2.6062753282932243
0.3015982715602765,-0.3468125503895406,0.5861423117973918,0.40709423659940946
0.9310837156103362,-0.6915369224327974,1.584843124055106,-0.43065088813455665
1.959277889184007,-0.30758157783487006,-0.5949527955366208,-0.5095897590369651
3.1577407999078266,4.0319185683444,0.3421739457688744,-0.7297770185631717
2.3994017475037532,-0.3590159710889459,3.2627286936265048,-0.2749349790632625
13.818754286815043,-0.22221049200185572,2.004440377236918,1.116764859214383
2.3426596942519975,-0.28189188214412,0.9288623866384269,0.6538211319419407
10.725658069330853,-0.7933067085498899,0.5645036478324283,-0.13149727594272853
0.22249252083018778,-0.220464506114167,0.37041101051016345,-0.5270759665500176
1.5087212200622582,-0.2932498369072378,0.04960445663082114,3.6575325084492745
5.652666323081416,0.7605651846184973,1.3759946652385482,2.410057965183563
2.610250819007578,-0.935517816686679,0.9537187249414958,1.4789366551678276
2.628466507640275,0.8547845356300157,29.517427001985926,-0.38212952928362676
8.52993016203144,0.048092062110036915,0.2453048789439698,0.9417034184436022
1.3094613176205727,-0.26860131303789625,1.2846684549340166,0.6535304233298542
1.0222257504436674,-0.1264300239831203,-0.8974158981245468,0.19544159170445985
4.41150894859413,-0.673206915298681,0.1277101715930573,-0.6974920752620095
1.7495999226013295,-0.15874389966037927,1.2800080076819431,0.522352899050929
3.4663220578841134,0.8387681680547314,-0.4145973554085367,0.9241216049103562
1.4716698142166682,-0.8970368840060853,0.029274574696129596,0.042991546561710114
2.2372420490507157,-0.13687236139984937,0.33698503615242514,-0.2619520431546498
0.9025433978198429,-0.6132403922611257,0.9746105187587282,-0.5837728655506863
1.045599507742931,0.5980980863925638,-0.19206273827693898,0.14801946309117286
18.436778006001965,-0.685335719356571,0.8252457603611278,-0.30528042446554726
7.655880713255826,-0.5197889481960211,0.022471640550519867,0.4104888086300571
5.900280625737087,1.096655667245813,2.879153050380782,-0.11052619682659437
1.6633631017561568,-0.47802348782190474,0.26659691994344015,-0.7978189698063802
2.209435074070161,-0.21387375872818437,0.15370779663867928,0.3712986537170728
0.9429392089045407,-0.38528265460360434,0.47263014423122285,0.9069898478292817
3.2085122061598907,-0.24333357298580605,0.5075823744279411,0.07938715425563192
0.5755019222345641,-0.09085925878406564,0.955282635843552,-0.5562664285352177
0.8559470907307014,0.21532857637976566,1.1242695356425236,-0.09579133095697456
12.283917466063748,-0.5868566372437396,1.5873949137319485,0.16270222737955642
1.2223437875527114,4.060188911764467,-0.3951190071434014,-0.25517960752937574
2.8607229798435108,0.10477213276696551,1.2935810505340024,-0.7506474627399172
1.8243324524623037,-0.271997527795375,-0.033527589796737756,0.2789381467764136
1.5594226650366676,-0.7386831870080985,1.0227549098091688,0.3803715428208836
0.7348579514649023,-0.32027637055417024,0.047529764213826375,0.20918785126798856
1.0399307393012207,0.8207085647662724,0.6869221073270608,0.0008602849698333692
3.5251079564743213,-0.330520615079378,0.8732989683105921,-0.4093353115398719
1.1982157153489474,0.19046926751645765,0.8169575238923477,-0.6280530682183894
2.3653822403790814,-0.2815079814981247,2.802940966134833,1.8994150323143408
4.282326186435785,-0.8054759419316764,1.0834365963018726,0.16303835432808667
3.2766838824824784,-0.2832176498471427,0.08613224792507546,0.18172370633121138
2.551419014787243,0.25952863584447905,-0.24883684306593534,0.7030550218448668
2.142902931970593,0.18748750313983042,1.2127297315642664,-0.18919569069695463
1.448691286281755,1.4021611285364886,-0.7023600277262734,0.6686519871242178
2.2810821903034544,-0.42476354617450185,1.8270124031344825,-0.2555087155449527
2.6856231742625245,0.616207202176609,0.4797059173868401,0.665788694626744
3.414633187362889,0.04208112726534208,0.8940702352895731,-0.32016587422069764
2.1284157392734664,0.4415804736712532,0.2829454820288968,-0.10619824054923677
1.8482475892064887,0.056892113082097406,2.550581860214173,0.7509687552228874
1.2386399492734599,-0.42162313785312,0.1453068235938535,0.700295494597484
3.6545920829514014,-0.3987404565036706,-0.5382399943311451,3.0213977469765725
0.9975381237178655,-0.577752936205386,0.06634666641882658,0.30753193696760994
2.7184433232679956,1.5077832066942927,-0.6794087591264328,0.39927198079257353
1.324685789171495,-0.8595290000774731,0.308562955868376,-0.2599419341831942
2.231490369126848,0.04870565465285992,0.359364673612941,-0.7375779753306388
1.9213972710781682,-0.012795026169930779,-0.7417518614110563,1.1102079973334344
4.593480251575495,-0.7543469063236452,0.5699020509225616,1.598623217306257
1.5166543184648211,-0.19249013862819397,-0.09094557792097524,-0.0029023183086526183
2.0179345119170815,0.33212858196349204,-0.45209430393638605,1.4967228663349048
1.1285291573353353,0.06964353362421272,0.4142354603084015,0.15566102179506092
4.7676684431274206,-0.20517378353474292,-0.08666335441416473,4.688299317356227
6.007804398600365,-0.0817271542543252,4.795729359495325,-0.8531452310310106
2.851102096056654,-0.28261238769381924,0.0020718583929673073,-0.630762999632086
2.0443437233671617,0.5042192001269321,5.403594987341297,-0.21882407417594518
1.412121269619083,0.821015312203331,1.416632451844305,0.5912497256175142
3.6982713909849867,-0.1674007090236017,-0.19606810900314808,-0.12637313658950577
0.6511006238620458,0.18540168789011102,1.2963858933809203,-0.13612596781940578
6.523919707038178,-0.06501818428883721,0.6271456523709387,15.440415208029858
5.678814239906814,-0.6034495250472782,1.3101952310869711,3.9929658941945174
2.809793777994224,-0.11581143090590473,-0.7791119501463679,0.314408980596816
0.43240110456637537,-0.6944343313910954,-0.24746494345241665,0.09266595721165194
2.1487686055361275,-0.4441779721700819,0.08849918671454726,1.3775044633219804
1.9841157374548373,0.3175490878037792,-0.28503336861038575,0.3214228884441268
0.8895102073003636,0.22667802992520958,0.3696595200740065,0.3667932346587337
1.2028223467003483,-0.45545618934556176,0.37863924278329475,0.31046682252043833
2.420610906874162,-0.9649396066535872,-0.5687186764804743,-0.09947045624813311
2.457143189003255,-0.8956599242868154,0.5910078964363366,-0.6356616405921836
4.1553768969274145,-0.6438934781687868,1.9455290203872582,0.8449302699946781
1.048881890092256,0.4093304217113718,0.6716459794576086,-0.12359340528572793
1.8171598101861748,0.04482758665224207,0.1302195994219264,-0.30609836091791
4.496676417806167,-0.05403496043564493,0.25242948320755,-0.33273245785755146
1.1537929124550357,0.38405727058635164,0.7238798328687266,0.28238179812721986
6.836946273514262,-0.43565515829038515,-0.42882566642926745,-0.15134877430069704
1.9169766335614464,-0.0861373755456114,0.14582005755902228,2.1813768965245655
0.38362777921225355,-0.24705920522857938,0.735558631222919,1.3271725420800342
30.653129119726017,-0.5649876521576256,0.6089574378669145,-0.4841192344394827
1.0376220604345963,-0.5515774940504232,1.5125832234396386,0.03702266986506686
2.7756603667023465,-0.9497382479246567,2.3221419066564812,-0.5426972426087153
1.6546660435066785,-0.8563570446444779,0.23859418938829458,1.4751225041135938
1.649792391452476,0.14503331237747985,-0.05539358102942282,-0.2565106230078289
6.6194896795178995,-0.6075319018210241,1.0686202918384513,1.8857676855427856
1.1645366204004288,-0.009059571818065826,10.12600415080436,-0.19276353375233235
1.801320883696747,-0.5037403040634478,2.582250602215086,-0.26702034588271273
1.9672232819965294,0.08236715486154811,-0.049878733912321005,1.0453594896888632
0.4260570159017776,0.9110231722660103,0.19584789530592905,2.7197444449979526
2.298447587063002,-0.03354873912386924,1.1372340257335378,-0.3503311002366478
0.6750102991377744,-0.3738818815720826,0.010021628041852582,0.180402602848031
1.4477535769516474,-0.3063702876165919,0.09815418067448234,0.4505217107232773
1.122794008743237,0.19367813020758562,-0.7546762895767887,1.8510818295246483
2.849372603796155,-0.6578398133626325,0.46180863963563423,-0.6896405941501079
2.1565061748800907,-0.1126241718433374,0.728890210445861,-0.0055168987256235535
4.012862121295996,0.7063439328510939,3.628737418506997,0.1050778283037157
4.795805666622304,-0.4915734808894954,0.00841287874210317,3.806153663371333
0.7103911622769203,-0.3642191169936745,2.943347193897816,-0.030914471202056926
1.592096198044021,0.8126364901934049,1.212725936951756,0.28211975708509396
3.9365065957469936,-0.40011814044472505,1.1252601625343979,2.0579597076615626
1.551385685652189,-0.8256707509905513,0.6552946737281669,0.72678581592719
4.717533276730772,0.5785979405137349,1.1880117347722634,0.7290713583406363
1.433713870936149,-0.32425246261271035,1.5698276923272387,-0.5379476433151863
1.5207021148957458,-0.3372085190036668,-0.137981968831288,1.1530122043960174
0.5263233426343825,0.34101862461178234,0.9004058872326628,0.0649114655974734
2.193320302475245,-0.014391738192201409,6.015586699618873,0.2218684825924695
3.311870839903916,-0.08349886357696867,1.6788643523320594,-0.06777439701462551
1.9796445554604984,-0.6180835029794447,-0.08841439132472029,-0.31842839245288956
0.886155171464196,-0.2880511784299161,-0.26856615314739807,0.40575105401338973
2.763876267260207,0.7066398277502957,0.03548913577260193,0.6766769799758838
1.8621132089775068,-0.29706612758952533,0.23212502179289785,2.6502505171429536
3.554918210694969,0.058556138912350564,0.2811371191111689,-0.5984268645060402
4.194276252610011,-0.7714903135775539,0.32175979786425546,-0.057950096014351526
2.06591406014969,0.07260263661555766,0.8069684049452341,0.263168202865236
7.563049758441727,-0.8777044479291812,0.8268547020988484,-0.3793536100603836
5.190744997865052,-0.47931972080727314,0.5934452661418439,0.3522553677247833
6.990726794108385,0.0310313732455616,1.8025690936612975,-0.19219034608476293
3.0032858049721627,-0.26049316165835856,-0.09473128907958628,-0.9469314804908109
0.5849826736912473,-0.728552650509741,0.4185561016958943,-0.051968274649246915
2.230492134399497,-0.7015205175174644,0.46858524728502915,-0.23535872793941748
114.99066394710671,-0.2791941161289453,0.9964903785868986,1.7183466522778525
2.110237344313974,-0.3499524406983415,-0.2944230286629057,-0.1021073141179033
1.0409948502370834,0.3302063627940506,0.5275635930952987,-0.18284833501619013
2.693189555015016,-0.45134603563027276,-0.11787655400961539,0.8356018429508232
3.8736777395459985,-0.20418016543870698,0.39690719636055105,0.43436846530011164
1.4678525771094462,-0.08915072066842433,0.3410900056809074,0.2803228879062769
2.1658598129971667,0.16643033103852556,-0.29498762826594993,-0.24186475897442705
2.7739527851339956,-0.49524330296821484,-0.12763024007538382,0.09192758590100159
3.188958670399881,2.37279413375821,0.37216325613996815,2.4654379071856156
3.172224332074566,-0.2295835268395744,1.0088566321152976,-0.7635406490870218
2.76145480735275,-0.3052128473269522,0.2990563322365378,0.10505886423889188
1.6029087202626005,-0.12023480862179714,0.24211051854951804,1.3640829921272402
2.728185787315892,-0.3813833708674277,0.032442966377394855,2.035602493444958
1.7907279830827583,-0.5933775128819201,-0.21268914330971656,-0.6827249216163602
47.77708311606769,-0.6340888998165013,2.0636881305944286,2.0862962015109585
8.213224608670348,-0.14268044775629574,0.31211260075381375,-0.4990503230988592
1.8118266092738216,1.1596881242174053,-0.22126130767455954,0.41472946558358603
11.285324344296436,-0.28089961807415365,-0.7444031872528447,-0.6140829898808441
1.5204260944491987,1.7705452454663138,-0.3655959499281658,-0.3529784721426473
4.164076686692671,3.4047866124552497,-0.20456377595678887,0.033477578167230515
0.7269495212745036,-0.6062716761543304,1.3348287063756228,0.12303137438865797
3.7594026471708135,-0.535501655154219,4.2331189601913,3.1998244633035036
2.731950667184956,-0.19392544655400878,-0.492765956455278,-0.5653724142452653
2.50122568765543,1.87487459018522,0.5865286989912819,0.02612313957090029
2.4600914766982944,4.149949103575206,-0.9526740887806698,0.01371686992131349
8.942948753873903,0.04880485646252608,-0.28900299145122943,-0.05550635955313277
2.114423349571968,-0.329116661172008,0.8381616817055029,0.8238641564654017
6.888625527971741,-0.5979422812192745,1.0645844983360346,-0.4427823529531104
4.0048291068989315,0.4583435493296659,-0.10192026769766183,0.18849194180270445
4.09896695009474,0.10141503516415717,0.3671457752811218,-0.02321811388494377
1.1044255574822044,-0.3794316744810331,4.053276360999683,-0.16086743667705328
1.6588001468951385,-0.2843393678780157,3.0921378193015787,-0.17227952738049412
1.4267021196687573,-0.27708474599813604,0.04532396346724066,-0.22607206823154347
1.2838997930895166,-0.5542728572433602,-0.30813329795000544,-0.16051096038344992
0.4466111500442518,-0.5660279306695175,1.8700055119324936,4.544050794409039
1.1719897368977792,0.24440528234873105,1.0959467219911079,-0.0155074265548647
1.1112610989125367,0.07505217150241816,-0.13716532742191545,-0.6509348810819344
1.4042264859737177,0.40113074265500903,-0.37048339923881635,0.3581633729093321
1.0333910179166632,0.2267105705951198,-0.43281454991996615,-0.175258452991913
3.1211792933222755,0.02537282937185914,0.31773252433970245,-0.7844965227174322
1.5887891320006915,0.8141062532165937,-0.8318870524182502,-0.6097194068901477
2.743807791259205,0.655828681407568,-0.7898240032098764,1.1548318215892261
3.3357864635348973,-0.27554137274700163,0.9603484767896373,0.5888472194500138
1.1666231036586923,-0.8752520275150162,-0.7560766710945507,0.3329806819320429
1.3016487278092685,-0.13062969746947373,5.948576106610647,0.24639325570761117
1.2613761398985375,-0.6661174987539553,-0.35633722418217306,0.8590544736331769
1.0477822315316767,0.5235963406088859,-0.37292211408898623,1.7362045622625955
0.7250238247524572,1.746567150081332,-0.12830798120068376,-0.6474056351111093
2.7782465944315957,-0.2246964735567779,0.8941171233757641,0.8506690054304249
3.488141428582842,1.3019908636840452,-0.6327820135347826,-0.4022154567983077
3.456322601127196,-0.6684601388390305,-0.2773246612389062,-0.12112516082896674
2.2872553709351346,6.863662172677415,1.1908858778151954,0.16388815926974165
1.2658054521210653,-0.45265776955547654,-0.23992615340218482,-0.2506744989488432
4.802633061562817,-0.578543972153902,0.8104270993884681,0.7503256273325984
6.003668813599124,0.10241022460623461,0.1051202282173278,8.741937798684898
3.500940502995686,0.08767763420606411,1.0220871763144115,2.1612390366774012
4.479944051275562,0.5941447104439714,1.0593944411439384,2.030648521534525
1.92512773188575,0.2621728858966972,-0.6288499157824547,-0.545216959182351
3.2168793390946693,-0.7471823510827416,0.34327797131283155,0.8452721684295033
1.6511977686748502,1.9950227686892426,-0.3677559396596767,0.14013508804668628
0.544694784848551,0.4584231251530768,-0.015657847358159116,1.7086627589810037
0.5920169344441637,-0.3038916423735676,-0.05426135056565429,0.6592345989053663
3.526502318448631,-0.00043670083559177453,0.312846647857034,0.4887717015309776
3.7749961660283766,1.3786155649477507,-0.2806443545221844,-0.630342348516812
2.8905162757693423,-0.681922659475658,0.20033650187253937,-0.5718913686790287
2.5186992076553345,-0.054560477871123836,0.16681801532836316,-0.22703122232752904
6.055813074905531,-0.2570826468023748,0.8658495054919062,-0.3976972603045624
3.6259343941727176,4.252623465709298,-0.44899495731594574,0.3381347289261831
1.3830974774093514,1.0862729538032379,-0.6203391708632318,0.4458928177214674
0.8161874966290907,-0.3148798369130098,0.534736213955463,-0.7857995791829244
9.312373188031223,0.5832148869534415,6.809032194377137,14.082829171252992
0.5493020195878258,-0.8367067310742018,0.39685745402270745,-0.599593101351185
1.5321069032272447,-0.5713710559882308,0.06756666892541685,-0.84085528997008
3.497373030953132,-0.21394250007633364,-0.41266833859868335,-0.1872009737516498
4.3147934248439235,-0.045837133371698036,3.2461840577327017,0.3480807416210656
11.778991791302621,-0.5135109142895116,0.3769074817572222,0.6152851663056871
1.386824247235391,-0.5373678434080746,0.6301866597812735,0.17751057860724173
4.588394905231084,-0.689932526186724,-0.21725784197756115,-0.5647263135971792
1.5509659908045466,-0.11077096782779283,1.6327658590504708,-0.38698370357667455
3.334639803593789,-0.6846817222614849,0.4169512218152205,-0.21553364297646072
7.837199931506337,1.1872653972147607,0.8582133428666971,-0.7987196568919049
1.0704733326347995,-0.33183006472035004,2.157544101287478,-0.38435365028093427
2.236548540091876,-0.7048464422036864,-0.081488570047068,1.4659706351223791
4.229868802624303,-0.8137473602679354,-0.4676733486784276,1.7303854474257538
1.0527654027606168,0.8032233015751582,1.5936695077130048,0.5768972070748692
0.8670853262474953,-0.6898804606167397,0.15575239714833655,-0.7016657560878088
1.6706653734294772,0.6712170877007786,-0.46259584978642876,-0.31766512834516836
0.5984000947953205,-0.6947715307099835,0.07856280420247264,1.3654611895436788
10.336832414930111,0.8288765122123656,0.575339288472065,-0.38124485451980594
3.1993796401372316,0.05788176338700213,-0.5872137815517651,-0.5887646928246756
0.9825435077187605,-0.3470249853333256,-0.42587957702251555,0.6447866992192044
2.054198969648428,0.37978127823204333,2.302537871114729,0.09210232879478464
1.8702262544867598,-0.676513675550284,-0.2251929365615417,-0.24487211394987296
83.19919745000055,-0.22932750064000562,0.6132343122961474,-0.30566586124560613
2.0136863367814586,-0.3634035936383395,0.1977915174858107,0.002888349784401001
3.9326617711398635,-0.16808433605452866,0.46958109808703674,-0.6823594674598135
0.8770744989624357,-0.609032369787881,0.3195069489476463,1.292218616952825
1.2795511047630082,1.03267072832768,0.8924463099806521,-0.5752487019183794
1.1730542021122203,-0.47733324774942776,-0.5293392882058012,0.6980177257114804
5.030385757260836,-0.3155779735887092,0.30210902155390174,0.5140064024114392
2.0842548842741655,0.33069543160766046,3.2388432366875044,0.40094125745867015
13.065861992649749,-0.7367265199198021,0.4912819866030975,0.17717848536538128
2.3652666046572524,-0.2803867815766441,0.44362701958697826,0.2696404601336513
9.033214113340229,-0.15110603941067569,0.1514644468261248,0.13720159809175736
1.731416150911873,-0.5497716365287075,-0.7070034310206619,14.159497676141624
1.5183166064685754,-0.47725789211275316,1.0326358316004955,2.078424144501346
0.17584310536435166,-0.6196926266815843,-0.3478567404494346,-0.7218540012522912
2.6108943999821066,1.6544759887212166,-0.07574603397302493,1.0393335762212526
1.2411194395847156,0.44195415955052275,0.3570515074397982,-0.00022266773170609433
3.3410245786113455,-0.04930201595184425,0.30021958557630346,2.895955270593669
1.5499206847201905,0.3223595975766038,0.16930064163206326,1.1507416134375128
1.2471169952077892,-0.43966332242281814,0.6419633209153603,0.26213794014777636
4.196646506484138,-0.21145421418855181,0.5315576542029368,1.0048414051725731
7.238387295193444,-0.6349780110673411,-0.7780016119367068,-0.180880852153542
2.298569006412791,-0.40412355701019864,2.345536359726877,0.8045199451982294
0.30837008951214595,-0.3966890700642268,0.6812963672761512,0.11205196518337956
28.01966605907564,-0.23730200718711103,5.137271681671661,1.042827258285448
2.5397287847228602,-0.38338899991534914,0.3514928009688938,1.5938570355619976
6.414831231343134,0.022555883847143354,1.1985841843028044,-0.05783947651119825
1.3768747131896357,-0.2881656521988982,0.06437970370563173,1.8642970443570976
1.978342659476946,-0.5242691290393702,0.1285759978080523,-0.6572845598858024
2.4944041701790294,1.157525710932461,0.4365008710664604,1.0396581598785533
0.7634236014755251,-0.18187618372795655,0.006469224839050325,-0.15317490106587228
5.691171340408523,-0.15670461383706624,3.824580918636145,1.1115233554126518
1.4043957209362623,-0.3200383247727039,-0.5435066914775422,-0.09511832162430556
0.8957947528359818,-0.0847430717232075,0.06004004079986491,0.12038212794251701
1.603177975754261,-0.40780645664649195,-0.37493267411418707,0.36486845212461505
4.289623723855476,0.22904806554870127,0.9089231822534252,0.7894536372219325
3.1409201376020466,-0.19255912204757486,0.5050639063050713,-0.4996306691798911
1.731603879642321,0.7394286025584411,0.717928258878364,1.0692818509548587
2.92802921610446,-0.21046243474658177,-0.04106218636544268,0.10824780460439065
1.3158508983083221,-0.16084768102596625,0.4964649535562673,-0.3251408300193096
2.2931946276239357,-0.7231867028812772,-0.07344517737782175,0.9023280388463164
0.9429348041744321,1.249541657879747,0.3393969231613658,-0.3556404839558719
3.4013994166142476,-0.8427532661955579,0.36279606063613246,-0.34262683736166333
2.834469984065185,-0.5141599255867759,0.9588400786139455,-0.01049830010822772
2.596549126691646,-0.5486394571183686,0.660469788388347,-0.5248683245166819
1.0961573537081533,3.046834423654869,7.73752386536383,-0.2871119461985544
0.45042805650672135,3.4988555072977476,-0.3407665259940058,-0.6339109601354455
4.0025098542142,2.31743227640384,2.245446315786799,0.1401174248908259
0.6761217038370237,2.531153329904456,1.3508997157285267,1.1225537738602136
3.9452910553889673,-0.09001277900531945,0.4653571350634542,0.3003094877989121
0.8387763606774072,-0.5388730601406193,0.7306177213431699,0.46610447062693705
3.472034326038705,-0.8544627808086569,1.8547746999968533,1.6305102535253266
0.9174800672260051,0.19579308773496362,1.7994006832677663,-0.2372371083585889
1.069666925570941,-0.5705811270998589,-0.2435825548921211,-0.5180518174368292
1.5608877400768422,0.6609896096399372,0.7386530952212287,1.9494860744380818
0.7148191339797947,0.45988426843092567,1.4830696822957647,0.5202923280001142
1.8027143239244157,-0.4265257789920237,0.19936365872962836,0.0704611375851587
13.005783307586697,-0.27721480715494207,1.0323207100192247,1.7245296615846395
1.0932719042861154,-0.5508112297935099,-0.30826492275265216,2.6183520567710663
0.8775032474554301,-0.3831876673250879,-0.19438961958333278,2.441721462030688
9.08458805759337,1.9802693331144217,-0.05195265638993052,0.6288234803022481
1.8518123545013059,-0.1414088575913467,-0.16867116876248156,1.9913837015371048
0.2654866799986286,-0.5885664399253434,0.018884402101545295,0.7509652814141254
0.6437755649636854,-0.4082399170596466,-0.6254811020645072,-0.3745233296393138
2.1266758379926953,-0.5607177133039285,0.5338344800715993,1.9275198244231633
4.2212910923086415,-0.3841748797456497,0.165616873312457,1.3169149239346818
1.9469442200239286,-0.4498565894688704,0.4344743738149335,-0.2596740963879519
2.6424245903025616,-0.6946166694086755,0.17010402516527767,-0.22913657142211896
4.500044090122508,-0.13207922131744876,-0.6340094503087834,-0.12376453594212544
2.148144486459562,-0.39961431125777946,2.920305532578357,-0.4161065297265528
51.706131177662485,0.031157361075596635,0.8557481729898715,2.1126081991069037
0.539419212185702,-0.31652824582448835,18.051218339304672,0.5570919569764898
3.5357147587988775,-0.2671759143227681,0.5869750053843623,0.8873720982370812
0.8352515838285604,-0.2927818139257339,0.11597125367961914,-0.023192277007174522
5.351257153861263,0.6451240303182164,-0.41204573381876086,2.511972975324022
1.078138826764223,-0.34239501949983286,-0.08230763308848532,-0.6970598434958761
3.2241531799765717,0.5429610221460286,1.2536900669315747,0.7910006046734479
2.2944983350353283,-0.44242657468841085,0.2984569230828942,0.03852363697477368
1.3994345706830091,-0.424520343831187,0.14274226869227635,0.5522501118298653
0.40090773096766896,-0.4422855444492172,1.5326378296039858,0.40398395583485835
0.9852084717601979,-0.35093603212017077,0.4346163579204114,-0.120233050148849
0.7556884986143819,-0.4024991576394915,5.563268499055073,1.267736180918094
3.1660964904372584,-0.08130637253118511,1.2385780870609655,3.9192998737644
5.948180570441305,-0.2394564364806553,1.145229611550827,1.008792675508813
1.1356717681979287,0.1856103665343234,0.2922458682098541,0.2745369678111389
0.23712236184546565,0.8390875049385951,0.16671563038803883,-0.015783383371259063
2.2485301227081886,-0.2769881870310331,0.6028005222559467,-0.10462811022230534
6.586595810024922,-0.17345742517071716,0.38141554177071946,2.7674740573996623
1.4673163563091989,0.09838742515279475,0.10381369142688768,0.40220939654027554
4.092157741579271,-0.4162746607326383,0.2493532284767166,0.6523143664176145
1.273212258182706,-0.3946388831279275,-0.5900284794089821,0.5034490612739582
0.7428186109818256,-0.8007944948797205,0.20398723922307394,-0.046140376212173484
3.590745831189479,0.07044177887598413,1.1085650869419923,-0.13236712426164998
2.270625021343805,-0.2710159645326772,0.8059862117239203,0.21851545273788453
1.7830754407546228,0.727152883265213,1.1923451337759103,3.9877539200522136
5.55920742809565,1.0957688642324261,2.4147202729001953,1.064587440820449
3.800393054947432,-0.26409580103208896,-0.020131048131656004,0.5757668773244529
0.39985350976357825,-0.8595039225734202,-0.5346412567515102,2.026527228150751
0.9427410707841082,-0.5384261646075686,0.1932661947659522,5.605858585839832
10.224744065846522,0.2720381423696936,-0.0035161059071862066,5.142924598279006
0.9598934484578396,-0.6227011989081354,0.2860987377420272,1.5647045214766249
2.512050872316511,1.3287028550315148,0.21093963958515594,-0.3915789291952405
1.9681310178313658,-0.6141763357900372,0.3475602516549754,0.7211049314521942
1.0454628996276254,-0.1892842710071092,-0.026444036420805506,0.6857067263331731
1.8023479806741198,-0.21148474544990226,2.01031301662333,0.3701981397937717
1.3126748540102753,-0.5955004520530812,-0.2902695396469507,0.28123459160718856
1.5098563995078504,0.15783870139647505,0.24250641414827823,0.012792669165159642
7.2721884378140516,0.020032311617874665,0.1920098614901209,-0.052373772446812406
1.3549937738320912,1.2158375321158927,0.06618063370912841,-0.483112202087856
1.955970373052096,0.10445487019676536,1.1434428144982127,0.568419986381284
2.438458029810514,0.013699155900413595,0.5627672704357642,-0.3384879361680423
0.9280940895866518,0.3740970431950643,0.15129440087877577,0.5543359073117413
9.334410838369521,-0.3731098168157899,-0.32078754717174285,-0.27654462111399525
2.9973208050783087,-0.34135074987149505,-0.22259612976078702,-0.014948822224876479
0.8839430328971025,-0.7308955883441681,0.5093194015871654,-0.115366772873296
0.8967110772234068,-0.40799440701860334,3.4405566312766123,1.6122620505437353
1.0913140669059982,-0.13666854244584503,-0.5653404147913188,1.2994117505825802
4.567706068023249,-0.1212547858147538,1.2037495718721973,-0.1684428818503334
2.3140763253286063,-0.2731901217187608,-0.24765048782320742,-0.5086927939410237
1.430886931260709,-0.6265869585348274,1.2119771934557297,0.5771103294954463
0.7841234706445632,-0.5460718608175624,1.4406076465754443,-0.31748654839208545
2.350333289486118,-0.6452793087004731,0.674185506408272,-0.5500011235954383
2.270023894214032,0.8091601230882137,2.596134650863346,-0.5584154220308393
2.613960233152928,-0.5330146050336126,0.10735704009002434,-0.017962395026759337
1.5350593143433557,-0.8861049458773693,0.07045604514467341,-0.42035095970972225
1.844651286489698,-0.21764438492780658,-0.10636195825391648,-0.5704139420537928
7.632445153409508,-0.008621616347305738,0.13401260259265424,-0.5936919566133148
1.8169811896277954,-0.6402449007199533,0.4656379341192687,0.7678010607682006
0.8828930974833471,-0.8802169331464132,-0.4007201868540784,0.033084467028208664
5.080586513080964,-0.45084481832838164,0.4812463653275836,-0.4257672600625749
8.249403931251532,-0.6758119746378755,0.9169773112484885,-0.3174488199878579
2.475269432668465,-0.8516063075700736,1.3159360074837547,-0.6274926749420422
1.4021267985708779,-0.1208333411460154,-0.9679756896268801,-0.1955832711285902
2.2313628310381866,-0.16123815076639514,1.3605263967048997,0.001038581326598731
1.7281539938339416,0.9683241229487323,-0.4616499505327486,0.442916785749617
4.02424724003014,0.009792587378386841,0.3030418865246649,-0.013269664394579661
3.199523102069243,-0.26971527131006634,0.12325984916515509,0.7677001213333716
1.5531515072301025,-0.5676448206839689,0.5862884867073603,0.10237333654323844
1.2537701589196648,-0.7711024010335427,-0.3632329358912675,0.16628648414325697
2.3425473342322722,-0.7149429854168486,12.131283238111736,-0.4567719741067213
1.465463277107386,1.3675401348332241,-0.11146504964215787,0.5499895774503811
6.7471033107646345,-0.46017985807797146,0.4677945438832809,0.05396633814856977
3.683496463649707,1.4897706267664463,0.38680113666278193,0.5515445320992687
2.5375182254738444,-0.5112579786028064,-0.4297306068922395,-0.2282233052880439
0.5390029066945241,-0.09459450107975398,0.1966060120670139,-0.1519426951111188
4.503638655705494,0.012830270673290789,1.7878989742777613,-0.17950252312079218
1.810098533232845,-0.16021631416965876,0.4417901066545007,-0.14064455362673645
2.458613713200062,-0.25915391434222645,-0.41763905290232484,0.35846418004417013
0.7695945142492759,-0.8749158088922273,0.5586293044561843,-0.5916402911854334
2.1734086091416787,-0.4917979807793815,1.0531283475362332,0.19334056644778874
5.9506085929397265,-0.23727384013668995,0.3080238411908496,0.08032465565813052
3.376117020997553,-0.7819791865322314,-0.1745945830117578,0.292672397056323
11.663981012281775,-0.2970279373023408,-0.42730153950365124,0.7174587360803952
6.488389734738705,-0.8745892873834316,0.4354781620859094,1.1585575123756495
2.559785567025946,-0.7867349517564453,0.10654390182002649,6.602291854720402
0.7945407631199164,-0.18673545165480565,-0.18735787389366887,0.22129560295188955
2.141839122005534,1.7134923320016089,3.354281877281948,-0.12877513255748863
2.011675810481109,0.14832844805456924,-0.4442209370388266,0.2292545252596383
3.9809952665291837,0.4299415264533417,2.7394301517149033,3.0735667792790373
1.5703242627044522,-0.5744562284376581,-0.11643095484773636,1.2359592136247746
0.46529718969687006,-0.16564791619070485,0.7050673618142822,-0.35763428261133745
8.266027778383894,-0.589595516118535,-0.16166617846296671,-0.8961369966274984
1.9547753381289943,0.4131940417597866,1.8868769463089188,-0.23255847953907738
2.019422320608901,0.5905295160481328,1.6979760900321024,1.0589132619802406
7.275462658370399,-0.0013060418023604914,-0.3731808272966398,-0.03382357887235965
2.08185059415318,0.19644984848721792,0.14686351920602325,-0.9440511444058305
1.215140942437717,0.19176894123136345,-0.1524783792662916,15.957417350854115
3.116280585647689,-0.24731514241941377,1.491941796106003,-0.6351247238295888
1.0115786309209516,0.1498938772668863,0.4705254219523487,-0.44318977372604096
0.683849625640278,-0.6188531829187323,0.45899727472693774,-0.016688507044986478
0.7888250517367268,-0.6748089720610045,-0.6509578873890949,0.6361936882064243
3.0128077772848885,-0.03875615085713857,0.03139268081274338,0.005830262782308804
0.868344210121748,-0.8729725378761205,0.8150527207811864,-0.0576263058207388
0.6504102688930784,0.33027088238159097,0.1180225045932839,0.19140625102914277
1.3029943396909118,-0.03474632905559327,-0.1945132591963169,0.3968132325906908
1.9847389089301193,-0.8471023769262178,0.254120529788493,0.20483369633674453
3.087664859808365,0.524857442241152,0.15755882526220266,-0.54661211721434
3.4864077397319004,-0.7963166100416237,-0.4499614913593668,0.4086538147259331
2.1909051158321917,0.3891253253307323,0.8044865954319649,0.9047911084436095
3.0345849896268557,-0.31219551552716607,0.47630170489464563,0.12957673688069993
1.5404949573229505,-0.39085750963864196,-0.17005347465232934,-0.026474694287044853
1.01410376917188,-0.33750381978786925,2.2748094461570707,-0.8315502873643011
0.7658889557382988,-0.4042158294401893,-0.4109646557376323,-0.42543854320634866
1.529797532954249,-0.4111834686837711,0.34198091134107544,-0.009695497326955516
1.8091229906329813,0.2473073189261108,-0.30649956851619264,0.1571794451765316
2.0266480998347527,-0.8086209226397512,0.38128607997908337,-0.563546081566748
0.2477804193709192,-0.042607219499463334,0.6851358258379043,-0.7701312185505128
