x1,x2,x3,x4
1.1624553016037953,-0.6153091691997863,0.57323522002463,-0.23415393462538525
1.9842114464763445,-0.703748506718699,6.483509116136405,0.4945225018515307
0.42945045605438525,-0.47120317581862214,20.087973205693046,-0.3452977526949187
1.164238780838517,-0.6438822054973221,0.8227090711337421,0.8468451253837586
2.6811954397254345,-0.13362109655983856,2.2413951871040934,-0.3869844176511448
1.86268473162309,1.5775602485150837,0.6579461959351631,-0.2041630765116874
2.1061735558937933,-0.3466960436886003,-0.07484652058279717,1.625398535248404
1.3450953125130725,-0.6694320839937375,-0.44858358388235864,0.15520657438570096
1.6902339658011534,-0.15674172082191862,1.2088677567901747,-0.3402238576501275
1.4598406803279036,-0.02190117880463216,0.1563499846696066,0.5941261470639441
0.7727929814545589,-0.8056756341574233,0.2883419224081405,-0.6185819704239426
1.186016292558747,-0.20557899674989,0.7597701259329783,0.2475781366354004
0.7257324121224724,-0.10361513749224316,0.8576090565239765,0.018608373493811614
0.9325885501697171,-0.3175203518906695,-0.07015465476527394,-0.666183270227066
1.9028682127807817,-0.2854903620537791,0.7390961430989462,-0.3412172287926115
1.93347593446259,-0.08835613552554622,2.972430776172508,-0.062367385293275235
0.8156740089977632,-0.31309506325581704,4.082947463323485,-0.5500705645587473
1.4778941516793083,-0.741273327878156,0.19780164751939733,0.2055009813845332
0.9866898837400981,-0.5444111189451348,-0.7238519222839113,0.5321426093011263
0.2299340864123225,-0.4133071742108604,0.13230712038893433,-0.4523323989889442
1.038424404365383,-0.6844770227543582,0.8678823245692879,11.603780363731385
1.9108798708513492,-0.8344473045205898,1.543801161453613,-0.09815763956826029
1.9484150958290036,0.4612315041583408,1.1360883418442138,-0.44598623538076276
0.8264922584124159,0.9229380233043398,-0.4419103265473183,0.0932553544261836
0.9154747194994219,-0.4747141833216979,-0.5618213795772091,0.7208942022221299
1.2008621364923888,0.10689542444552624,0.011108059122410419,-0.6944772070051417
3.7906563828348725,-0.5797864287228749,2.273330865294194,1.4255722488821778
1.1200663648147304,-0.5789132387298425,3.063907348010292,-0.48793962241377486
13.83357426047736,-0.4444303811004211,-0.6941698195212072,-0.5780676509902634
3.3305072476142277,-0.6527432465818247,0.44870721959610593,0.3397147828200231
0.4268807086790596,0.09924760387772058,1.1220792300132896,0.1578109953216651
2.6334944718066557,0.9743903288372497,1.7506924933810493,1.6773362945796322
1.029429983658611,0.0843269870544543,0.9101563395026457,-0.06301110894746609
3.15156775485704,-0.02305917561159543,-0.7915917001417523,0.4529057789499915
1.5024112146728923,0.3196731370384409,0.4343653082888579,1.2657588584234385
0.7134599200143843,1.0783298890705741,1.1852015750774694,0.8920291245973178
0.9387100880804244,1.7927419675678449,0.23830206829273748,1.3922875876932133
1.4897747674505424,-0.2781970397831147,1.167507055530252,-0.5532725716540421
0.27050682598812936,-0.5619741945145511,0.464187847795978,1.045259802081953
0.8786910875224823,-0.47002324066765244,0.8307340116938904,-0.49711462012497576
3.121870287637737,-0.18005671741565132,2.6996489020507113,0.32904771372115116
0.7553523810439524,0.056697660329131594,-0.12516382652955316,-0.7706150459685683
0.8011459817466651,-0.14736632156433183,0.6396419488516043,0.38060355245293764
1.6892889938475464,-0.32386708700411404,-0.6298112555823909,0.41077128878457225
8.7175727313489,-0.17950857564978662,-0.2565109420162507,0.102789756454303
0.616548342450566,-0.5312243512471662,0.1491582856399596,-0.34842295254029343
1.2238211564629435,0.08435931154487153,1.000862331152061,0.3926828617491098
0.6871810945679631,-0.38398335871910994,1.7828140640272365,0.004952927583183442
1.0385675207084568,0.11679632204562984,-0.1955458012524931,-0.6123083379209275
1.0952382288858593,-0.5294631016547822,-0.38009261023736984,2.234942954862606
2.263548065202605,-0.19343744243377115,0.16164977724225515,1.428151605947007
1.0648563667104272,0.6047767521150365,0.1326263300200008,0.37884627619288724
0.5509426443833361,-0.6303998229991318,-0.18028514013610808,-0.28738082109757423
1.3055308606579832,-0.38380313475385286,0.10363667772659357,0.20059404313774643
1.4972729511794376,-0.5667283049317231,0.5710491763400072,-0.4622072686069205
1.1947077132567006,-0.45982486400180655,0.6635550234974994,0.7620518943897545
0.23600888879155035,-0.741256427842389,0.9137506965455282,0.4142533006312381
1.4052271922187831,-0.523791786435589,0.1462875438585003,-0.2896218858493447
1.25784744684769,-0.14074318712922895,0.7132112781532316,-0.30983176490250697
1.7027011718326204,-0.14023980635817768,0.2987969402097632,-0.03739472044109993
5.121503285416554,-0.30559709588693806,-0.4107189500580166,-0.7018610266099643
9.479663578568992,-0.10489199981221609,-0.6116326010880004,0.7317137514477314
1.6390757001108764,-0.9519197956676293,0.9960512144457738,-0.02426971576965886
0.5115342292797689,0.16395833464387422,0.3964532289400866,0.5881721539182045
7.039273596037029,1.9860742059363425,1.5849173238182344,-0.7555111072840637
-0.2071375621812407,1.2717096443605822,-0.6013506384613359,-0.2679919230559956
2.5495967936754274,-0.29339140441649114,0.8851626315539993,0.629239687148849
2.5292921200203007,-0.5222750467515194,0.498378267292269,-0.23067534534701517
1.017904047913968,0.33266368504255905,-0.8526459014711798,-0.24361007720607986
1.4706073055873592,0.1073843766821021,-0.31666660499863863,-0.1714606334937896
3.9820410694724266,-0.1735052783952481,3.1128636227506785,0.6174481905875602
2.10582901905807,-0.6170377345842424,0.47450033742922226,0.8099170886953642
3.79641901235951,2.5617408791407463,2.4150987318737447,0.23707740991382753
2.9806429004554715,0.09783923250753901,0.3921894409083193,0.37955481573383554
0.24002295012905428,-0.3853178308480788,-0.16505953998168843,-0.8883782801965162
3.327915156476977,-0.16105061616363925,-0.658657962394257,0.4141707812081734
4.408162603299479,-0.42888422983323315,-0.50220191057053,0.7900124881526973
2.063425939203213,-0.21878335176786057,0.4003944828569883,0.8247860350347584
2.1929942315095574,1.5884102415981687,0.8509000408804619,-0.7266189056487062
2.7263330017720744,0.008827016189875136,0.350705461148499,0.20517686661691448
1.1461669752223371,2.470131307673992,1.086076633626103,-0.3251688133222088
0.643318116092628,-0.43116797460088596,-0.03613749755436024,-0.29896992176171333
1.6031872711201491,-0.37693847414497805,1.2293801419719688,-0.16967182776610135
0.533737918284344,-0.08805471812466215,-0.6664785536486866,-0.5110405638234716
1.6346767040961598,-0.04521248567188574,0.3139803154403009,2.7471309847343774
1.2815087856362024,-0.19868407154283552,0.24947243996842827,1.693873012584389
5.166001833577637,-0.4444801805308941,2.738649085749825,-0.43026106710924095
0.640155691570973,-0.23598809029329149,0.43389344534357566,0.08925033649203495
0.9512124374176161,0.19952656510242472,2.0818696262454846,0.17944626600771074
1.848245923930159,-0.5798768334480534,0.35798168760444216,-0.7651623186957408
0.07399450892980752,-0.16132883380110996,5.278066721234465,-0.510025782300366
3.8435758870480905,-0.03287349069685941,12.730793602657736,-0.6055439840353556
1.1421420967627052,3.6993285909254743,-0.18569784268350698,0.21203757821486047
4.4745396782967095,-0.6845011538012601,0.699602593337227,-0.2506356095709593
0.4525541866114611,-0.32438039283427367,0.7696251435583881,0.05054822377018109
0.5456662401720471,3.2432928268647547,1.2362967405452272,0.07400512535466741
1.8945539944653786,-0.35316460019103224,5.135615031402958,-0.33657954950937885
0.23304013114725852,-0.5542997869939288,0.15475244797989718,0.6268937009566036
0.6566836527481752,-0.5431568099735007,0.6162626868099113,0.7885120066785334
0.4494118260149922,1.2124325341598596,0.9313094658302195,-0.6884023072751642
0.5855268854356834,-0.14014188276160566,-0.47112530092508675,0.17988290113219674
0.7864362889663603,-0.2572090267713725,1.0511557864251078,-0.5474718686147468
7.104078374335073,-0.5409150244267977,1.7152199349130495,-0.29022253266997433
0.7097163766030603,-0.3299546506876716,5.480874231431158,0.15351416705439025
1.014170896884652,-0.49582657370555105,-0.23690884550955793,-0.9183930236174473
0.34657479691126314,-0.417305044529533,-0.5294545403054571,-0.47698903763326106
2.91914606070388,-0.3441167809717116,0.5204866778503321,2.9450712550424396
7.550644658834248,0.37853268801472617,0.1386639992263512,-0.7522964014538815
7.543478465812246,-0.06649632816416007,3.3122778114093077,0.630525448184152
1.3392324438754892,-0.5763398566582038,-0.7387697682354486,-0.21933891791837534
0.7741351596776873,2.607488318475816,0.2624296764901828,-0.8586932466365508
0.47172812158816924,0.45210991642769893,-0.00758111131151229,0.7523886652900023
-0.05374140895534729,-0.35889305019098006,0.45546511071667894,-0.5426241801483112
2.8171538669410063,-0.09532325902141503,2.8688930422771293,3.4696657673134013
2.735947244106434,0.6601319274133799,0.2935654118289879,-0.5351069217127506
0.5812326372015431,0.7206412688373962,-0.16618110568053512,-0.877905146208017
6.203414248512148,0.7498896396627752,0.5481345194931964,-0.46151711921717364
28.495919871844745,1.1965295976795134,-0.5851941677182375,0.07342293727901517
0.7819077503918992,-0.7172168603726173,-0.39184480447408065,1.1949746864812822
45.01257067909521,0.10014420165261506,-0.3452919186676976,-0.6113612063323335
0.7748074618514387,-0.11230167356569298,0.6692955856956218,0.3092845659591765
1.0533403788631253,-0.42839707218089507,0.11952358439227706,-0.25135938083302245
2.6549213020967097,-0.675078529131415,-0.029962872357352066,-0.38410874551708274
4.2091301083146675,-0.20310438062910452,-0.3860713277120945,2.2756059710074394
1.6010056748136994,0.022301905350874174,-0.18645675595543343,1.6258944002594449
0.80116466608649,-0.2336161891655093,0.3394926231969,0.48657744933372116
0.012185744815818467,-0.75551805853499,0.256636781507922,0.526005269569765
3.985384047132211,0.030428037286404308,0.3275870868392299,0.1981906379032834
2.8967626685011814,-0.5457550600228882,1.533059589172609,3.279665300398112
1.6379967801859658,-0.4403930048651723,-0.3769664059769452,-0.3189082929168573
0.862846628847324,-0.547666568060305,-0.1648021695673747,0.04636148168725773
1.319773803542815,-0.5621452716431155,-0.2881432420096486,-0.4753160779860873
0.2069899823226875,-0.7605685805745208,1.1879981668198725,-0.7615977739576241
6.362038108356994,0.16568756980212673,-0.256608087809007,-0.3018455423644042
0.4953263610121099,1.5093011247018464,2.142470603308933,2.0907863566479574
4.103612594069104,-0.5925408071104756,0.5694962914618267,0.7357213550816233
0.3500365701432633,-0.5763179676540677,0.4521847009976563,-0.6128021720451922
2.838373920175128,-0.8108986743684548,0.3883866895644532,0.29290005752781423
2.3441957414177286,0.0437320078723622,-0.3301392347304647,-0.12106872576689731
1.609923741703355,-0.8849296703211091,0.5917101504271156,-0.41503797668348974
0.1437305123340349,-0.44824201870340885,-0.7006078609365852,1.7681019111398641
1.5732136269990837,0.0695474500857225,1.2784748041800045,1.5347434592471592
1.1423911955430666,-0.1125019635990544,8.016613766344907,2.70970518952182
0.12171728955749739,-0.09835437661809632,-0.11943600083831174,0.9503115593509952
2.022487629915634,-0.321221241520911,4.465650060828726,0.16470632957244602
2.6011571360428687,0.1533773342431275,1.3424279056123756,-0.4039196972173851
1.7230492771571622,-0.6055651570005234,-0.04153629856516283,0.33368560886250087
0.15884557276559086,-0.38747488757993465,0.5600722435966949,-0.22694099099443166
0.6584714791694206,-0.6175133965419433,0.2728055635928761,0.21122756897102235
0.5304062500803797,-0.453013834656274,1.6871671551612941,-0.6589288878769489
3.4013227739928196,-0.42591297110587545,2.3071814828273873,0.21683757832021788
0.978172111697696,-0.5831225779196908,-0.06106622269990891,0.04935424632219432
0.9482106271224304,-0.4226777905515503,2.3648372320754785,-0.36616164087401204
0.8808474610562256,0.30806100037540385,-0.0016764639133869386,-0.7546696868016357
4.175882137219332,-0.19810670554486598,-0.09080881683877118,-0.34273171727842644
3.0697359814259153,0.1716732230501501,-0.44954835320636755,-0.17941185274095917
0.9420198466728598,0.27014102737506374,-0.12448797996029914,1.3234195490337606
5.588944010626256,-0.23636804980789605,2.14356906658417,4.027951304898333
1.6774271059833499,-0.4133212844536922,0.7215738143799197,2.301227956710633
3.8486291727907487,-0.008072326894319137,2.414123815048255,-0.14031457626919164
3.5202986555959788,-0.15577927137498915,-0.10679191913245478,-0.16015838510651526
0.81317847410262,-0.8563419130180875,2.6068133254213848,-0.16084005413320712
2.9191643421638385,-0.30048573091491115,-0.16895157995990806,0.24031587275140076
1.2277405994539978,-0.6286368344873955,1.9342250003056929,0.1254921821879489
2.040510423517484,-0.3979690623851414,1.236346696852043,1.8182001619931714
1.8701634886365857,-0.7715878575562388,0.038051528418072245,0.24259134992722897
0.04700876725762715,-0.6735597016536152,10.535949994507494,0.706411718362117
0.5007613605166839,-0.22560802249999345,-0.3608829645941771,1.5067387977269409
0.35378646929065516,-0.6642725956311851,-0.8344062978894697,-0.46959362611920064
0.36874132439085416,-0.547570600054814,-0.197975813552013,-0.32915890488550903
2.9742216394832006,-0.5235847777257179,0.5988530162805614,0.2956918316893433
1.2437930402510324,-0.593574628354081,0.17537175556315154,-0.3651681353155758
4.148778713485688,0.0942772156326499,10.134862984924082,0.03884603520959806
1.7117559132318712,-0.36651000989115856,-0.36768724706030664,-0.7312900606285312
1.2184365479833725,0.04995438676388919,0.052063498612062276,0.15696466321287983
1.3455476429542341,-0.3390044319040888,1.2022581750804733,0.21887871916286494
6.836923887241111,-0.9621668062246095,-0.04324325693864306,-0.23201514624791508
1.2632484609608445,-0.06419027229868735,1.6984867745065535,0.11408901368993773
2.4431355803083035,-0.39553266315953806,-0.022400041611148502,-0.17401384673738363
2.4961927179102563,0.5937710811804038,1.334308644409255,-0.8921023963480856
0.8106709879578471,-0.5997266336856748,-0.9053694257808361,-0.04089888410650444
17.00269018924657,-0.7821121532994808,-0.0035440580274543887,-0.7726174946153462
1.8405014745820818,0.29662364037406785,1.3448371027358554,0.7078867425298829
1.9997616528129676,-0.7642273640837477,0.17946408515113021,-0.7310977310614171
1.484057546167846,-0.6659433979339332,0.08096539501091016,-0.2457833749247501
3.042453625210366,0.03254346153568477,0.3514369256905858,0.38613106793656393
1.4669816286286732,0.9391409606249657,0.6502755106381739,0.3714559172486136
1.9323510583691283,-0.7007357646916135,0.15718392832036643,6.579037657595503
0.23790987977145672,0.8844112046276174,0.4620411482214799,-0.17721085843023265
0.777844549510317,0.16448949955480474,-0.25066095823646983,-0.33826699807483196
6.9989017051483176,-0.6994965798331048,3.0962581732023455,-0.11683759959168738
0.9368413893484688,-0.4293513067840734,0.4828423963292523,16.07129898701356
1.1914703009328682,0.17708357958881038,-0.8343226332615694,-0.5343177439277642
-0.16729058750766668,-0.7240968953165805,0.7713137064927138,0.33849960703004944
1.4378991571441389,0.028717674299358675,0.7263902765505896,0.7782252065242934
0.7085564916553666,-0.46351385179962945,0.42432397803639765,0.7008073036536937
0.9339195968174259,-0.43746976686994954,0.8159163373891132,0.9634960250986973
2.098181356103157,-0.12009371758919718,0.12183939640648656,0.07503112368259224
0.2497163174402226,-0.42423868659087827,0.12771225628185223,-0.46270073533674905
1.7201941895094395,-0.9164250493246835,2.0194949050315474,-0.7084808133632166
1.9285234352932559,-0.7359952974847275,1.2035904844269556,-0.5841503923876497
1.5410284286796907,-0.2922521502221491,1.2649224642520998,-0.42172579705597657
-0.03622296546455761,-0.8115640020848743,0.7573920762668485,-0.6179166811412604
9.731027412381264,0.29615696685293047,2.30658607105344,-0.05306401207062483
0.6324210329619497,0.7451701856552013,0.004205975779922877,0.773802788661605
2.933508332805013,-0.10639421985182151,2.419082203185608,1.002647662492398
0.6393347563138023,-0.49575473891322097,0.8998681217059605,3.012270735198433
2.1813439775463217,4.2292093509970075,0.0332903319011042,0.25276015939899166
0.6092416502200644,-0.15421101490477607,1.1376082829414278,-0.7855237178805454
1.0688638813865778,0.22495189762581247,-0.5506168674631474,-0.1721123125513605
0.6480674157957789,-0.6682080795495976,0.7017785563693288,0.07044013299599716
2.527764379420038,-0.6491110452656523,2.2786005557775213,0.8045179784600611
2.3731085906371794,-0.785720478942931,1.3656577091052973,-0.22743132465279126
0.01634746431866363,-0.23045506365083945,0.6637094011038613,-0.37589424447295516
0.6873814519312516,0.03780250960130749,2.21888588056779,-0.4309611910015987
1.5913816443272966,-0.6628899892036981,-0.40442890887954275,-0.21991479141506187
0.1261008206170311,-0.6419329239945991,0.773157751283875,0.03751458324843826
1.5257830366369847,-0.3460323430598089,5.5959896651540575,0.2813497223328043
4.331413071644918,-0.2534173195726611,0.11636256833538416,-0.2724223176489807
1.0724687539891913,1.0223463071507628,-0.20131154408248442,-0.3462319691308615
0.17008694864540197,-0.8417526745703409,-0.35899538772455897,-0.5750093278117319
1.2475814196989186,-0.2226133286378943,3.808211671269566,0.4067119184182584
0.5344256273368586,1.0704324775278602,-0.6101191941413093,-0.11319259688407901
9.460717044031222,-0.7044440206252374,1.0531918381495196,0.2044170712553286
22.45235994033345,0.9973272750252962,-0.0023863744126257913,-0.12968000634584675
0.40648995447671243,-0.516239856036855,0.035055986802774886,-0.8133383925643635
1.298522049042902,0.1884789283688324,-0.6607313131976502,-0.10592547163692112
2.275290996389664,1.1818954496739238,-0.0618116445597674,3.7574591299909956
1.1123220318607152,0.7715226816200318,-0.2878038453121452,-0.587711949542118
1.0784782481192372,0.5961791094301407,-0.618606542971049,0.7892850674313479
0.18787195171928284,-0.044948243593517456,-0.39007165236643804,-0.07620448892002762
10.815068817017945,-0.8465319277631387,0.31865759299193797,0.10453776599301312
0.7266052028483732,0.16354979308734352,-0.12223989783191314,0.06038506514699149
3.047573428100689,-0.16515709304453596,-0.6596129709093248,-0.33509116296800234
0.5746525597670522,-0.07669945214315377,1.101152628811659,0.5693898788680172
0.12260555566152487,-0.5789340096254113,11.528371858712902,-0.34568682677755014
2.4044479964564593,-0.9792468432455352,-0.5906141501316589,-0.3013190689086743
0.6933536702925345,-0.40875298363637813,-0.22348537838590743,0.2512283500846426
0.29421004711362087,-0.7270610457436629,0.9003738768305236,-0.49043253430719924
0.947213238597167,0.011027818617370233,0.0005881311458286742,2.941692656304739
3.61454099383924,-0.6592212554675602,-0.6252096130787529,-0.6643752452061142
1.6623658928352212,-0.5257019504271669,1.0627912121093548,0.5726704294878908
1.4643489849856004,-0.01217671741991233,1.6742609289237036,-0.1107264042371443
0.32308841987705095,-0.30930369152454473,-0.1662700677469081,-0.7721978370926728
0.6687231983665112,0.1291901608251249,0.07117949000003554,0.7505406532800811
4.467684278035426,-0.08089793293729641,0.202960419985589,0.19871417312815476
0.6715297386170807,0.032183326837282866,0.3510741962622863,-0.06964553636904869
1.986203871145447,-0.7447045251768936,1.4122257412798196,-0.3029289217289013
1.6043456346848766,2.169093062124877,1.1591235557797068,0.1737698117889892
0.5169248811511149,-0.4404689665608821,2.083508054001633,0.065615730211396
0.3301735913031225,-0.5631911012693512,-0.6869468692159355,0.004173684774678277
2.22701154991797,-0.4288738579065754,0.5388609536520621,-0.16969438754294186
0.7812607353493988,-0.7568522919122327,-0.31739969168843774,0.7495003756714778
0.5470364427406358,1.3961923865453167,1.4116871669255016,-0.45161009151631604
0.9132004634461601,-0.6211533258812737,-0.50363867800887,-0.27449850146130783
0.8496416428155709,3.9202944885076745,2.865428809267602,-0.25312676661247036
1.887163427533522,-0.3603013352316563,-0.3611589973575263,0.3329037757134037
-0.0024133111838894328,-0.5243698439991765,1.8073686849510615,0.4829615196336945
0.5064039582396826,0.0004879132256856433,0.5061842952383027,-0.4715807793435429
2.0575968670987073,1.6798122205907045,-0.6481199241484144,2.0193792998040867
1.404826510328871,-0.46030298937401526,0.03315705981373185,-0.8169226044159046
0.34035186955620866,-0.11387903803094879,3.0527117854680803,0.2692760622162116
7.368656227178345,-0.45554813775012537,0.42136161849576714,1.7761406493458591
0.5033640605403693,0.1296701084564129,-0.021680929225532997,0.06931161611498937
0.1748244530661771,-0.7539549774445286,-0.9196086482076118,-0.6167271209477261
0.08635620637466834,-0.2506377590137112,0.0018803911150457875,1.0101578758446421
1.020667779996645,-0.8158158899600516,0.2880140699186524,6.084994314906462
1.1347482760556176,-0.5345200766191782,-0.4785986679758206,-0.07349432050640292
1.2275531706473117,-0.5946014253115037,1.2712321407963327,0.7208730755904917
2.397561716262049,1.5255235701190006,4.5058558483670765,1.8595686866970889
16.60383129113856,-0.24110009571449043,0.3402094045660149,-0.33155055298981884
0.4479871628545009,-0.5933874962948358,0.2654591816224767,-0.5190871546662499
1.247026358483068,0.479521061508015,-0.17720777464748783,-0.6488026824035811
4.160067916416002,-0.36939852926519723,10.938672194351113,-0.17903868721537908
1.0502273401635076,0.4170895832055841,0.8631022150241543,1.135110056982711
4.467906504472385,-0.5336052479440131,2.8708333646178366,-0.8128448490633406
6.851986349600865,-0.8219809326562773,1.253265628861314,-0.532035700086894
0.165988736681155,-0.11795108427638779,-0.45806784709184123,4.446718162565271
9.353843560770825,0.23566753138540153,0.688750110531656,0.23897112543749288
0.806498014538982,0.2994194233366998,0.3933995868642588,-0.11830571344847352
1.6479601931449381,-0.3129778452833587,0.2727358625310117,0.5832510055156175
2.0756797135255005,-0.21836923031986433,0.08296111302216014,-0.3116183993483136
0.6976211545790869,-0.18726368907158342,1.220618103052876,0.1793729684112515
0.6763549952323549,0.7572051963415658,0.1078498071823022,0.24544790280582185
2.0626023481588254,-0.6347783319371052,-0.24408764507765623,-0.4979463290120295
11.921128419249511,-0.5033965695656881,0.010808766606993148,-0.4757956285970203
0.1724839191875036,-0.5691803276109322,-0.6146040089244884,-0.7834823514729525
21.291830500970903,0.6483389568517941,3.0329146396041713,-0.5226139917694235
0.2953348331012233,-0.5033875966770209,-0.3619172091380475,0.690869391561515
2.4775404464262833,-0.417703160807847,0.819824523903067,5.3408200938800325
36.511116181044635,-0.00659692751132146,0.06328565905085637,-0.07773033100806703
1.7634063544616976,-0.6307750242232797,0.7498529367409983,-0.320946736038795
12.169765663353946,-0.48975870571414915,1.854006915142762,-0.039631268727159386
2.598157261751054,-0.5781946119445756,0.1969159257077142,-0.11889034657938768
1.0946193040317684,-0.6639747838285976,-0.40526485029972437,-0.5603293275033294
1.439594177234376,-0.7311738879645102,-0.3607560071076362,0.6465254914843386
0.9203508258877442,0.27313670372997767,0.747751090041894,12.702065505838767
0.9424509804998265,0.11980491977128116,-0.6315509757002864,-0.13708933678564128
3.4111172092242565,-0.36586579235088357,0.7257543178835502,-0.27462400188761715
1.0807831741340732,2.018252398491826,-0.6734870813025856,0.15484872833615704
1.6819707626442022,0.6253682342629987,-0.27983242027405986,-0.04362347229228647
-0.006807946657929165,-0.5923172288892982,-0.6565522810025853,0.6851927630983494
6.9627767247730485,-0.5250922458499818,0.722675908714747,-0.42560980616364574
1.2013604668970146,-0.8515738107387988,0.4157930771969147,-0.631798736941574
0.07315428038261196,-0.5202931459872036,2.1262082281223034,-0.2967267431154943
9.732303133484779,1.0659936317981433,0.05801688258709592,-0.026080851623907275
2.0895719942324957,-0.20893974299944218,-0.41820081190753666,0.7236393067624509
3.2204920726027675,-0.12582260923817024,-0.5399695647531502,-0.4222544709935443
2.7419042891970205,-0.5505563465131444,0.12873659358286504,-0.33793284693389625
2.4577939753585163,-0.7861284820971829,-0.23049485934524483,-0.06623952332679905
0.826820282628961,0.03901064073725036,0.7353370400081523,-0.609264701563369
1.9599655780164555,1.3753217184799373,0.70470388232776,0.26348056796848063
0.9417479807368305,-0.9397664075862544,0.6418771981183837,-0.20912910141653218
1.19366041555188,-0.5113631841264672,-0.5881656578767841,0.585335771225534
0.9678838420241946,0.4320502474114458,2.755593959012094,-0.0930080756474645
0.9432868292676848,-0.6746131993136881,-0.41322221959314165,-0.5628690658450823
0.7105132066591853,0.3454574571855431,0.42997207608893584,0.6160208000570502
0.7714092934924028,-0.645863692728869,0.6885742335232645,1.7539948456925232
0.4658101348680501,-0.8150076786904442,0.0900165598721685,0.003102855675896743
1.6733563491589956,-0.46893729358694614,-0.6714296279364296,-0.6306185682158301
1.2161424126605298,0.6415670383945824,-0.24994241745456336,-0.33749457654048676
0.5059065521195658,-0.2787353099542831,0.2607618877175597,0.07890385036540448
0.3935050111185623,-0.7089775562529839,-0.27786104307921866,0.4720802566529825
0.2635271737292333,-0.6118207055862153,1.5758304207054534,-0.6868276016397611
2.258305895282492,-0.6695275764787276,0.15781773432509993,0.6369289951046935
2.025220870958634,0.32316075313980197,0.14518545575782515,-0.2985985631060344
1.7978391352132763,-0.33294235769224534,0.6724233333871659,-0.8874082041181498
0.8097613695718398,-0.21027135777065586,-0.3383174999357369,-0.11473197888742492
-0.00848103183745963,-0.46776192137507955,3.010089097800101,-0.2392045935240752
9.15404419494965,0.4195078648268109,-0.2282975900931572,1.9563165338275366
0.5401415674605119,-0.444683718968787,-0.4992225705243649,0.30717005259803853
1.8780485790744126,-0.2926758897802293,0.35460124606144205,-0.7761174564537455
3.8880143669970657,-0.30065366655656356,-0.2813581821692869,-0.62692721301514
0.37833661576044464,-0.2920820626471373,-0.15633383642637122,-0.5291666906461001
1.5202089534141874,-0.46981366710742956,-0.0032146025443914317,-0.2828702527601028
3.2816818179476845,1.2488307675435935,-0.3921102980397355,-0.32848489569459083
-0.0876923102791275,-0.8977178490928016,0.823888050016865,-0.4838680699260015
0.6722819442308137,-0.48868672691039805,-0.2892380359218615,-0.8394161249753683
0.62049196730145,-0.8358635798864756,0.01445457782012638,0.6283780880516832
0.6719565554420524,-0.3894185537574645,0.915118666533693,3.7034505950552594
12.997228564827124,-0.6217101685178275,0.1071268599589359,0.2428108322231084
3.0561784198156596,-0.33894284179086787,0.4756851053209239,-0.36376247258195527
1.2392604829384926,-0.8686189749346612,-0.7538891645069451,-0.24286702036054264
1.127643575904043,-0.7930813807000935,-0.8686393461827152,-0.3042190901991373
0.5031754974496914,-0.49247689976314635,-0.25822859150482125,-0.019612053648991767
0.10541183508834018,-0.5622559647385522,0.6176911789302975,-0.4407643226164528
0.36774973047435067,-0.4846654617152665,1.2472252015840701,-0.29817210674218253
0.6802134858274687,-0.6021408321815818,-0.07113258992388694,-0.5211326263571863
5.018656246371769,0.36951769903420995,2.7385346854179993,0.1518703933404475
0.3037663814425251,-0.6493322727000832,0.7498086029099305,0.23123740553445682
13.353332740835096,-0.3913483592698366,0.6354387328744124,0.1524746085158193
5.314645750864491,0.7014599102970436,-0.40384139068593927,0.735847993374571
1.9569197643932656,-0.33781913757856463,0.019836197172786063,-0.024420747697145306
1.0168592792364017,-0.5299041787447538,1.7652719861709745,0.6109587181340972
1.0129879443180485,-0.7444704871395018,1.4505010035773735,-0.659444487501489
2.4323205482668673,-0.7236777591465694,-0.3247245501986593,-0.4029518811954671
1.4416395425831237,-0.35925739933766565,1.363092437122308,-0.23731857158503478
1.2866856205330683,-0.12546231820098108,-0.6450917637960841,-0.6576630858890267
13.562649067010616,-0.05308606287400508,1.9095930868896338,0.30033447940904234
0.5355783275804398,-0.7622591622081334,-0.26479012049652495,0.06025463014025578
0.8739482981823767,-0.043693097855573626,0.8166361180123296,0.2872072763769422
1.0534530629046537,-0.5409721287409952,0.47798521535111993,-0.10182088589627292
0.4208595091521876,-0.4611047427196191,0.6239483899969498,-0.35353291779381957
1.1753362705792099,0.1980145893728027,1.0727926199943143,-0.4598002803802609
0.3858925189058482,-0.6103039467418174,-0.6712890886532394,0.6149197197758218
1.230617353161696,-0.7141043506578185,-0.4951223700360289,-0.5536996677995105
3.3512888254974147,0.5960536393964402,-0.569237671715409,5.241134927330544
1.3542708509611012,0.02198710854080943,0.6616995505812611,0.471766132499738
0.2012864717000582,-0.44470355437816556,0.774771237099416,-0.7936776230311205
1.3894323348343747,-0.2882518886434099,0.09410855909755589,-0.5733800025207152
1.0402712925421769,-0.5381249470592635,0.9013313057422216,0.11678911336416187
1.4250739719936187,-0.7893268931820354,7.342810330909225,1.2314307010900123
0.6588654665127909,2.900563291495102,-0.530119044657458,0.10824090092476046
0.12136411024213234,-0.6482600965210636,2.4255419198087633,-0.29386553116580716
1.521576101171111,-0.802641743756823,0.7139194687123638,0.39785351615719766
3.7875129758835246,-0.5115393339157431,-0.9067724925627475,-0.608804514427367
1.8001044125322245,-0.831150761510805,-0.6966167891808512,0.43898615128666507
0.9998151118648253,0.5597167341915215,0.36710230378284914,0.20901506659491953
2.0645053167255254,-0.5353923676226322,-0.18943918490883815,-0.017038709038443622
0.7940251905065536,1.0376331785990778,-0.3882460329722547,0.5229443400958413
2.1437718814824542,-0.7345307062110513,0.4053773301350154,-0.5453203460234377
0.38791780684636845,0.03158236854460483,-0.12260604647452833,-0.6369719288727586
3.1779010718366285,-0.41723320822954757,0.5521013290647823,-0.48837810365853507
0.7937671520117204,0.018559771849020912,1.5463453612290659,-0.34701529206108717
0.9013601683513777,-0.34753748527067885,0.7778028628267739,-0.23298198872396236
0.3326630736157681,-0.4165703825032101,-0.23699427416413144,0.8486244493817632
0.8405178331205103,1.0369528932088152,-0.40251530957556736,-0.374374615386604
-0.1551261914479204,-0.3956125706365081,-0.3686685404179182,-0.17017349920723723
21.688977497238653,-0.8523916431835561,1.21700096157308,-0.9306937515555146
6.344043124464694,0.26538986378720364,1.378404214975434,1.3931703683784677
2.773256754778358,-0.8323113002267949,-0.4676650125136912,-0.40214254378710157
0.5159528357952041,-0.3758547001147219,0.7559578265813487,0.3066946410984883
1.4212816094899114,-0.8874895318146546,-0.4083653870587983,0.3672264917942649
1.7260271169005112,-0.21985846811053011,0.1421878547455957,0.725097498649045
2.046359467939604,-0.2714660384578492,0.1341338128812093,0.4659836099139847
1.289330534136031,0.7075181441550922,14.273362132472839,-0.19445262717986833
0.42079143040492895,0.0006176352203444146,0.15855237923696874,-0.29567992150327227
1.733256439243359,0.3125430426919269,0.9707547691064262,2.890190020277571
0.6056044834631849,-0.6784808651798118,1.523431828340108,1.0870406732048776
1.147027808142179,-0.11686400199785918,0.44744698028416274,-0.0019577421010049667
11.890855244012364,-0.3241019672642821,1.5517763119691135,-0.051093668808362636
3.205542150345085,-0.15422295008759102,0.40483089542737094,7.258599124770631
6.566278640153822,-0.7220031607858487,-0.3747476681565668,0.8960376420651419
4.477758099616841,-0.9008901771881532,-0.4767529274957394,-0.636370919935761
1.421009521723223,0.1985077942375666,-0.23900654818935518,2.797203957462094
2.0011936837942383,-0.28409168365751136,-0.10466094895691658,0.015741802787161863
0.45508509421592436,-0.8401487416268061,-0.36271324769467006,-0.715788210310899
1.3731737114989042,1.578301895901733,3.9652102037281267,2.0263057684615933
1.8894641799370615,-0.13841251595950987,0.43441077131405437,-0.19170679006510394
0.7992549147870385,0.22012341453721063,0.7945350375170852,-0.15772423935865287
2.3152862612126315,-0.18135148822232805,0.6533260223604587,1.4226767552415298
0.7255608731488006,11.807696745856864,-0.012252859927135873,-0.09785254357858142
3.0713026630050315,-0.2039575349444228,4.698004842764593,-0.8084815499501514
1.0465765297864094,-0.2334863750328633,-0.03616310487501451,2.265664201591616
0.8376732908801741,-0.5939553604075216,-0.017490146771956483,-0.6314508420284849
0.37457308922839494,0.07736596576894339,1.1682881009872488,0.08105286774809262
0.3512451730226127,-0.8258064727651738,0.39730497000005816,0.12634465418246132
0.9791290494624525,-0.7307251026710833,1.4348258157721752,-0.24541943519379705
3.650165415851438,-0.25995680093704443,-0.053894259752373386,-0.10159564680107691
1.9614848979036008,-0.06516978384849603,0.3554442529983346,-0.3718826842180255
0.7145326536635865,-0.21468278475188518,0.5569435941510597,0.2038057751982969
2.7643026513083395,-0.46360523018585,2.4866090783588617,-0.5014535901878143
0.4965804209697977,-0.6787384214271308,-0.037521810716206194,-0.787669588315806
1.9053368302110276,-0.7330349245882521,-0.11062073480189982,-0.05456484481103485
1.680643229251852,0.6200257964106686,0.1791605222975179,2.347614188250727
2.179367995994247,1.4537591188154577,0.36524104453436546,-0.5574376602120463
5.405959142501715,-0.5730563964371821,1.8617762049209738,1.249883930404739
0.15247575651760759,-0.7140866115589319,0.5051515781815878,-0.8212974939626627
0.45101138599722024,-0.5131951034693967,0.19058978516193514,1.7604369223066203
2.7544630263988554,-0.6884458620519069,0.6267943657325696,0.1993464282511932
2.4264494508601273,-0.03786878870364385,0.48997240841707335,0.29967734586189243
3.057453640276729,-0.780683264361159,-0.2992483383029636,0.7590034140662267
0.8525619579574617,-0.3204844197058283,-0.35940216440858364,-0.7690237432517666
0.9640427894584,-0.5853478800388732,4.058919879206216,-0.8534114327213329
2.2674577887510274,2.431741862160669,-0.02938523930207959,6.246466077213292
2.0576307097871216,-0.7089147204009357,-0.6072422763088907,-0.707817595054069
5.896639190233858,-0.19509628065873308,0.5598689545406221,-0.5120757709245997
2.059106087419309,-0.28512908157255856,-0.8294918798207642,-0.4066717427109322
0.2781204146273719,0.14668076753984982,0.2568897501285208,-0.5958823772704479
0.8948124460872158,0.013490974136739498,0.12269635949826108,1.2742398858449873
2.579128527209659,-0.7951330827993852,0.9466246762247843,0.24926687827548033
2.5671936619294233,-0.2238330520257944,7.669729225048746,0.10698177886522742
1.3703855214539358,-0.1584333078939565,1.5100819280961817,-0.3281655560972362
1.214021898439686,5.521801284356676,0.6164069452376153,0.44104750912686486
0.9630884522784282,-0.9326952957816175,1.6694557828868866,0.7520093344873282
0.6818121232379148,-0.6402439738199168,-0.1005778646223493,-0.6993366340146262
0.4802318273939954,-0.033742158506076314,-0.39280659950549557,-0.3388652463482722
0.9715309588626166,-0.23915030241996715,0.5330028595500216,-0.3111790010015878
2.5215444794794917,-0.8758070576348815,0.5402269561466269,1.9025660493442689
0.8330845626957915,-0.5595959836960409,0.2138456991375901,-0.1572239700112691
1.445162884348909,0.08274997422210228,2.7489692661644556,-0.009857845189835901
0.173730308292817,0.03304976549659644,0.26008416289224434,1.4970433594380812
1.867897420858026,-0.6286814544786083,2.1312633041983133,0.5822088783858208
1.1380981829968744,0.25336287802438395,2.625349637356365,-0.12430141163829389
0.7380764797512931,0.34331810258425044,0.498023723146789,0.12956165520278562
1.3360769447018512,-0.46148113718776695,4.34113977648897,-0.13162280635125145
0.7518471409545746,-0.33128001506815685,-0.6762895655394496,0.2503502039256107
1.7416649960994355,0.006504730301614137,0.1632661429396971,-0.170053269504424
0.1599210364353154,-0.258250031395713,1.1130219645100534,0.6526547341144109
8.62280822463799,-0.08938869990200893,-0.2882610100797489,-0.3327030374698229
2.2503360518660185,-0.4254653517331276,-0.1479651865595083,-0.0844887369341848
0.26769066768861793,-0.28667787506574094,0.7534006858097182,0.7943041493445662
0.4557276100500176,-0.7486964825865423,-0.2643497871470223,1.3671546446040477
3.333896908036208,-0.6485914306626892,0.4929721130506124,-0.4217797375371132
0.4077446697231506,-0.10335352078805915,0.03371522832647811,0.8028224515018441
1.7295551380589962,-0.44751247805302863,0.730988551685607,-0.5051131740190165
2.70293745843779,-0.8327282266436422,2.046249116185977,-0.5612783196305644
1.1072961666244074,-0.3824770296150728,-0.5985409843062841,-0.7141777484125857
2.127577465278158,-0.703056344454584,0.8876557368440112,-0.8344212324714715
0.7568527878762077,-0.3528634981707316,0.12829140300163822,-0.05042517229037202
2.4927139986342275,-0.4415957399268081,-0.10004224172631027,0.5102312841317835
2.430127830790579,-0.3742447423201112,2.46294321977543,-0.5479927566073093
1.5490316579252434,-0.3528117608988811,3.0782780004758035,-0.3024663035485812
0.4412812977657137,-0.6020921175721398,0.9864647138820304,1.0043660828552428
0.598295123176203,-0.4641363260392647,-0.1673125360487362,-0.14145569544415004
0.7716828860700771,-0.3700703141928696,1.459284372846339,-0.6905752638251748
1.2782768491022312,-0.4618386858585616,-0.17142871758699718,-0.20800622712012173
3.28995807170336,0.17888955107979054,0.07758951686483662,-0.6280926956209525
1.5685603268710904,-0.1559317631518875,0.1542069391736156,-0.5921468447439833
1.0322036840492768,-0.7640347708664036,-0.6165699622174083,0.3293441296376678
1.2505299595094619,0.30843980654565595,0.07911747995948026,-0.5303767205157096
0.781046891089332,-0.5276067273429043,-0.04050088376174954,-0.5192725610855383
1.8683737448546762,-0.46459439922746837,0.11951586413706283,0.7812438332692135
2.187531982583214,-0.7102686926863097,0.21078819952545458,-0.3287992423280167
2.595438550324343,-0.7175127464405229,0.34914923761026406,0.16528728750570854
2.9759424990970307,-0.8062954043181847,1.1939452897624023,1.3516700140566482
0.29045567387860527,-0.23863364435948853,0.22011255174778777,0.0034882318014513025
0.2659676541131397,-0.570839285756357,0.31657682214367755,1.9634764361138246
0.8830665818700325,-0.3358996970905548,1.8916313483731124,0.1523028162163813
0.5350267835850735,-0.2768310205809068,0.7484723317693927,0.12464868501014159
1.9851886523620323,-0.34412296406989173,-0.7958591328879782,-0.15838247170211606
0.7576849549522049,-0.37705301484047493,0.491740618085063,-0.006488119265475989
1.100296443992408,-0.4423081806388717,-0.8033799248413191,-0.1962542761148406
0.18448955814123624,-0.3311526023928062,0.3673866381104003,0.7724874009884899
0.9835000066703397,-0.4506221220345752,-0.5515543012620268,-0.4669150246838095
9.710394874228045,-0.4865142529665165,0.2841093824006502,0.8106989866888064
2.7655162238551427,-0.39069064855727886,6.696374326821447,-0.0006624864479308767
0.6487526692733401,0.6153423639960798,-0.7744958784644047,0.37064072778770263
1.7479249836731867,-0.522735675109506,0.6907894993251049,-0.6362616849549825
1.4205855272849761,-0.7668582577156957,-0.7572415058465909,-0.6516174240653341
0.6512899040778999,-0.7879844816773913,2.1684205315417366,0.7863126877074937
1.0241231185955169,-0.2735786913097057,-0.9239813814098647,-0.6521534451986459
1.5356436477185094,0.24839621340349716,5.225480768153869,-0.47743698529357914
6.281932823336522,-0.8042416913722328,-0.39688750140167794,0.24811925054771256
1.0744419297147059,0.2872871507860628,0.603306973069542,0.8252649502826424
2.398195412064723,-0.5287213929819824,0.016301731534889008,-0.7469916083376158
1.935296262092121,-0.06808314387895109,1.6023370599379572,-0.4452923131683798
1.790984067618151,-0.8212515253144446,-0.3967786139616073,0.25663044988466255
3.9685602222556104,-0.03648941473180378,1.4243472348631019,2.877614708494032
2.1471314418419176,-0.25113690042898573,0.5164216612845487,0.9788166921649193
0.3656740002268084,-0.058647659733600754,4.732900117307874,-0.061735886652660055
0.36983848056054414,0.8055694741125423,-0.46535725210627377,0.013078411881271235
2.3596195208596558,-0.5935562843587954,-0.25274243244273664,-0.6671727659967763
0.7468755920416492,-0.73610268404918,1.3074294428001751,-0.39110709773529806
1.6622209952521776,-0.2821830292507692,0.10707265138698152,-0.5908590324785125
0.31229108139076067,-0.6845577338697446,0.7694686564899313,-0.7966789216105283
7.461101747364289,3.4824522570527554,-0.7879667033754746,-0.713225539301198
2.7272072514140357,-0.6305593948814792,3.8921126480045993,1.1966536513709234
1.3463734314705351,-0.4847465153364342,-0.5333660466755998,-0.03166651470280013
-0.19026669316264821,-0.6752233928223598,0.04908776840877738,0.9908479817818279
4.399451194670608,-0.7144116790545998,-0.559302354159177,0.09180816114747437
9.351314796284255,-0.05818974709329083,0.901269869784568,-0.721916714282391
0.13927481420607113,-0.511123926149977,0.9024441004356623,-0.3170385586267127
2.115341559615162,0.23716665086128197,0.8801698473857489,0.5942950272744274
0.5243504101189274,-0.47355748878638526,0.20175935750980667,0.871901811237433
-0.2165866915314354,-0.3463726277259974,0.6653882700886791,0.09979399650672072
0.12592267467517204,0.25140476689533253,-0.060411464740840026,0.5894811241088216
0.2018806937453701,0.6220513190445383,-0.005831099800016393,-0.06379650297201112
0.8647029589682831,-0.7175824329059403,0.11513662977127526,-0.49172146094884317
0.33691321640500616,-0.05936383125464251,-0.11308647373725811,0.11150134055290195
-0.015560910627471447,-0.6699407803337132,3.2378186804166234,-0.3078155604496189
1.428067775142945,-0.24263640733126546,1.3350681852313904,0.5004385521314767
0.5508042145488978,-0.8092922366893905,0.5296144483178031,-0.05113856330070332
3.7330366666533017,-0.5672790423400961,0.9296553214269578,-0.43185541284543816
0.5154971958465477,-0.3051387618358351,-0.2781435829235155,0.4158983438494377
10.362421530053277,-0.12307391660812061,-0.2183789237567234,-0.35933404727878626
2.1740986563461795,-0.844386011409822,-0.525771098985512,-0.3703514033227452
2.1967608646082817,9.246320915718707,0.3048260604029951,0.11197623218672526
1.6863241991626499,-0.14685342117512556,0.9939651974457651,-0.4831785370619346
0.46210021255905875,-0.20817523198676313,0.2819219975849425,0.8305439279326441
2.3044227919386087,1.7570931828010576,1.3053203395702417,-0.010089725748907763
0.12022293434955289,0.5481151739828269,-0.5192286259967628,1.8981994594782434
2.5977096837962375,0.013704709539161586,5.939676850314127,-0.10883366816431306
2.20818849962325,-0.6036543769681582,0.6217624824594647,0.31962178283607257
5.405855750369699,-0.03913335981474453,0.1966396721337027,-0.42216097953458964
2.543213972791371,0.05214320498444791,0.08527636332294408,-0.2704607436459999
0.355490373335104,0.3732951311137285,0.3343290576099225,-0.8901209891236037
2.715184037113486,-0.3822871334002559,1.4172093176501774,1.5490752845157547
0.9587734124739027,-0.36155066944589354,-0.5126060142582092,0.1600504632428752
30.83662641307379,-0.9302354763074027,0.9342146309753809,-0.5052620151302403
1.7929596377125843,0.0643753032509462,1.6220455462807242,0.9504158821246633
2.268552745671772,1.716017154839549,0.31757933555104967,-0.04475719162932679
2.9478859221439855,-0.31437605901878574,-0.6776931863603375,-0.029380739422368296
0.6798257561372958,1.1059112381364056,0.9981332533383518,0.5266792495378008
4.488538654245709,-0.7886023429160999,1.504477582976996,2.312058673562158
1.102958895749385,0.7313385282632909,0.5292785108913485,-0.17764347867751007
5.664859019969305,-0.23060030479579186,-0.2802242949310201,0.1214171862104707
1.6090369582383701,-0.7867564982300355,-0.1426773476483948,-0.26703423745566235
2.4882689486066334,0.8155609011777649,-0.4525786382797403,0.06152998603559001
0.5881575637059027,-0.38218509174154014,-0.2946866887274896,0.3512251613378079
9.954016401738047,-0.7421614624565281,0.7599164338255782,-0.17411284328100807
1.3888050317354157,-0.9282017626349527,0.17081497150503644,-0.5084883843981522
0.21627727927057228,-0.185705851046564,0.9814591503029311,1.2862978726140022
3.684902449304939,0.03937242511061867,2.4393271539263415,-0.22781545401743553
2.460387699227559,0.7491764078895586,0.32641637296229664,-0.359242622852028
2.155619814036355,-0.2438511339608631,3.9680878270320186,2.7506515839901287
0.5785514807234451,-0.2780481663587251,-0.04854472276434174,0.8551068252206628
0.8321340509211332,-0.7342031599276742,0.006874444614815456,0.22004826256074317
1.199818802211491,-0.5702415980599482,0.051308097020735355,10.374507351222935
0.8888572029565434,-0.8321273976487589,-0.41719230567969234,-0.728781518062933
0.3596301182144652,-0.3027490843356824,-0.26349131031625694,-0.19597025561344117
0.7633145565444064,0.367945450318798,-0.3601194942148219,1.2427706435655117
2.5110729311380346,-0.2892266387266096,-0.5327805051208621,-0.7875071721611894
1.1283952423262091,-0.7666743971785279,0.6378149821247774,-0.4870894603568442
0.0645274724873508,-0.44520153505660176,0.3035365876760461,0.4603460722654902
1.452712773841336,-0.7325721847582729,0.023398953382289145,-0.42387251937502457
0.963462410267331,-0.5015217872198687,-0.7088339278290667,0.9334545837218178
1.2875121495055373,-0.5269130581468298,-0.30649041874192284,-0.3245464044642127
2.128728879908663,-0.6315159025574577,0.9965890995817319,-0.03116285275744568
0.4685246196507702,-0.3576202313564316,0.5579256419805716,-0.6076834363130924
0.17626219502276053,-0.6055001706200152,-0.3341428138962508,-0.6073776228223482
1.1072698258321827,-0.2625899406719092,0.15378094600909264,0.13017710766538015
1.001927371850058,-0.7581933397178278,0.2274071586927624,-0.4082492227810639
6.926101653531614,0.4944700282860077,0.38550746920806866,-0.22271547283632998
1.9464596900420017,0.7061147656417017,-0.8808556730513275,0.3219842736628189
0.9117802760110763,0.5941333409656331,-0.6728046772931952,-0.15068694910287217
1.1403191200412373,0.15658816132737696,0.3505159404023428,0.23920010969783978
0.4503203587703126,-0.2643956599512166,-0.5366266559593891,-0.4136148422363145
0.6353929377873073,-0.8016194151986158,2.8953397740056617,-0.8871024185484198
1.9341672065042244,-0.3826637739778689,-0.2125525383778334,0.3131932113433211
1.5521823552950291,-0.6787831110328324,-0.21966391445030298,-0.05534756870639668
1.1065287529526886,-0.27793179184458505,0.6098826562796857,-0.6038548084164996
5.202883406358423,-0.1330683425167133,0.12858001355715198,0.10008603237415437
0.6474023690312809,-0.2013290240237663,2.034784289094348,-0.6116710753411718
0.6128761861397747,-0.6319741406430001,0.2854159717193454,-0.16674008025789988
0.8526789943527231,-0.8445858597243291,0.9455814935276934,-0.43827708579714086
1.1797936376865379,1.2071328982518952,0.22586419331946872,-0.4567607722737945
0.3753791256135246,-0.820474236122793,-0.24854271135115547,-0.521927908613701
1.5510380952414278,1.237306389041744,1.0074199224191198,0.22752848267768733
1.8203431394661758,-0.555441582419587,3.954486823059802,-0.8055674136422191
3.7602570999786193,-0.07168831705520373,1.0313543160834326,0.506556647756385
2.396096781964687,-0.26243569194240934,-0.7309098091547801,1.144681776048122
0.3571356588956507,-0.24290781112935644,1.2600640729255619,-0.4275437178793894
1.9849646517759538,-0.7160082827594574,-0.40355183798154415,-0.10520274520421391
0.935311623954018,-0.18037072062903048,1.953743915481987,1.14900336088987
3.7288637380194576,0.39823919394049634,-0.19689057584755498,-0.6292296867904544
0.546786488933092,-0.7680288323158218,4.892024246895108,-0.274207007129607
0.43805437362459165,-0.2697165069601133,0.8184391281992967,-0.36932040478294936
2.23995067646145,-0.4427765123266978,1.1339299586997735,-0.8121767835189182
0.4407264815780296,-0.5267231179255268,0.9257404841135746,0.05537200311491852
2.122772932399258,-0.590322776789618,1.7877072073510898,0.015404765766145578
4.283090439951839,-0.16367202105504552,0.17709005429508018,0.3211607153402516
0.07081039905414976,-0.8080015004636912,0.658202684166378,-0.11092807871982546
0.17563603092935054,-0.43520567188678727,0.04937429527621884,-0.14930773623633364
1.3172371527389002,-0.5001363949044091,-0.03972066265074492,-0.6590811746238594
1.4844593647047284,-0.31819775109348514,0.4193167999849843,-0.4631728053608659
0.7698160598822448,-0.37875375983769166,1.3427595949250977,2.296231212806479
1.1833359680452222,-0.31182678373175376,0.44174241675412595,-0.5003088095727399
9.168391160132305,-0.010074832898623431,-0.25328089559337263,0.05469468909236408
2.038236851585714,-0.7203596593353865,1.6023521525677724,0.932475948395254
0.5978470050384868,0.6695198346805384,-0.4368789905039313,0.8439132919619434
0.8998353316489667,1.0466282447741437,-0.360868342781852,-0.7703882591372438
3.829164610666429,-0.6413905054226119,0.11905265198079418,-0.2887573848466637
4.380089942718514,-0.1286420050124345,0.4278652478623761,0.4741428950353943
2.9590279317187127,0.17372112848897459,3.2872096375326816,1.0922049040391628
0.9924561171031696,0.1167749233377966,0.3851078388940421,-0.9483221399105495
1.8610139316794623,-0.16282788244699775,-0.13711254573108134,0.08450760808905788
0.8504608466662529,-0.5320855058605302,0.6626953756371907,0.20386393723048024
3.86596472931131,-0.0073762592398605165,1.3556547187152788,8.162601353431198
2.296384292302657,0.09973718356603234,0.15047000506240682,2.4786160953921668
2.659779335818282,2.9036691819300118,0.059743552338414,3.4196037778762243
1.663272333087876,-0.644988216136805,0.2767009975609662,-0.5494861592622318
0.9310410095018575,-0.4378906818439062,-0.496345593484281,0.4792877608243924
9.151384899998968,0.03281679107050861,1.313509261261638,0.6231148561422766
1.1082036964045665,-0.4916301091626002,-0.24412237075376508,0.15324041788870635
3.005143102833996,-0.4127748651983535,1.8354076140729303,-0.05316513546014612
0.2820169594503781,-0.11224672169333394,0.22755400531668046,-0.5709066749578393
1.1738169433087564,-0.18108395180880876,0.25592827993241496,1.155510937540766
3.719502218983971,3.644289629405873,-0.08560530967140934,-0.5124272285530165
0.29994568042100456,-0.6675031230583813,0.6818564995405703,-0.3183943303975185
0.3583941366695671,-0.40451226428428344,0.9682860390072283,-0.7680477106167785
4.189304729960989,0.5368921508181952,1.3136574310163622,-0.34792613101014835
3.233425369269483,-0.4303345156876798,0.7487872256539398,-0.38756468010941747
1.116106589743183,-0.5497953494838237,2.5142291324913795,0.24309662256007036
0.03177911004364131,-0.8638895243439133,0.365827088894471,5.998756338979505
0.8490053622474258,-0.611726487322529,-0.032978880466630556,2.1620818846349583
2.1796793700326376,-0.8570180390244707,-0.5302008712208335,-0.5844908480605024
1.1251389198187742,-0.1890614232817731,0.37572635844466395,0.7926935691039081
1.173389880378295,3.1830897312018482,0.35383974406205265,0.5493861113660901
0.39076234895558315,0.04431901034459029,2.2048721063645056,-0.04365418130219323
0.9679936433531386,-0.5006397881427453,-0.16128943936201268,-0.048397295807020124
2.4778600965179147,-0.6126922180251078,0.5625864639226303,1.3679553676123852
0.3054358004820463,-0.3771731417675426,-0.31746385767665464,1.4233383939196167
0.37434923029183875,-0.49669451836818224,0.12248938138051635,5.7562991629125975
1.712941329357954,-0.2562885586394339,0.7707542138299219,1.446906383518792
-0.0984283974758069,-0.8024641682982606,3.2275047918670907,-0.6927514568072171
1.0330197763372477,-0.4823866279774598,2.364384981777292,-0.5819858429153069
1.0890393223748975,-0.7100553273681591,0.7647662332283152,0.11418103476577657
0.6259923467165891,-0.6032897448151564,0.8585610370620957,-0.32555046398478604
1.8920128419874636,-0.8162895821223052,-0.1918548419577587,0.3784039196192579
0.6019282911107346,-0.24932300751689396,-0.3533193661381796,-0.393185166497243
1.5318838921214262,0.09062906787280589,-0.19474122646775616,0.2775039254608753
1.8594904012349693,-0.8397320338911269,0.9910246442029946,-0.7952750334088365
1.572406912356462,-0.6446999027006408,-0.5119804858287211,-0.128627437186297
23.54513025572678,-0.18729182871612637,0.20055302535539488,-0.3980522793732506
0.30884454665821726,-0.34986193298885127,0.16989673749829448,-0.5172202312663374
1.608160597696548,0.2722244839265975,0.4795590880149554,-0.49946120756504486
3.046098683059448,-0.29406738099389707,-0.48869747329432667,0.6961735792388888
1.6120535011207755,-0.48958493364261535,0.81224435141306,-0.4436900861384274
0.6222547455470102,0.7070236013325355,-0.19555379547250462,-0.3197099020338201
3.859156642163546,-0.2796048666118923,0.6477245476940479,-0.7166784429707296
0.6353141942379079,0.7684178575350364,-0.27029916392057207,3.175592604376525
2.2458141042468593,-0.38531917120329495,0.3261181884608617,0.43142415306896553
0.6065614123524692,-0.6475252331570498,0.2482829592722593,-0.7516149202072218
3.2263081488565,0.6286693340781198,1.1316718040544922,0.3751487513992269
0.7225904770214666,-0.6099159883533878,0.669761037901933,1.1786480635759982
0.9594378422860246,0.34907486823921485,1.205488680219959,0.6088730225738808
2.4295667376218226,0.6088369545490357,0.9086282183870367,0.3494399399938861
0.32835600414572785,0.02140400640612561,-0.6407753207491387,-0.16978483730971372
2.2808926853216143,-0.27243562592672954,-0.5400651769321454,-0.00782841373926435
1.5127415892675002,-0.9690594716233287,-0.28037041567855103,0.5359714796555872
1.8961021870772239,-0.9104838901097323,0.574809855917481,-0.18167896540937856
0.7973564569283793,-0.5232198912856046,-0.5118681435980839,-0.3011547711563969
0.6382354743987799,-0.022459554525004255,0.01400335886195525,1.0694261003512802
-0.14179451557251255,-0.5618569282973889,-0.6989690637797814,-0.20617164453283066
0.6133859622034306,-0.29888926535037463,-0.2514114396855238,-0.03868869470822911
1.2598630067034828,0.014322295557176679,-0.8035371950440553,2.168827411080693
2.3067104146409982,-0.21176334095491256,-0.14190272765668,0.5376182266744565
0.5174842170680454,1.9732212944046768,0.754751923385736,0.10042247434732698
0.3088808164337651,-0.5105912879392807,2.158019699000116,1.1050811784338581
0.13107552776185472,0.3449821966542397,-0.028475235820041522,-0.44540592139104307
2.0515254008814368,-0.6614652676997893,3.0087533525595394,-0.30613595141161265
1.4204938256228425,-0.7757934110794275,0.6560661584343788,-0.123997336663907
0.2590348470181465,-0.13626303594640254,0.23276103720394192,-0.40593914880328485
0.8053610713990564,-0.3844031060943419,-0.22852128645342595,-0.5962989019758047
1.1455595243487253,-0.6795638034897113,-0.3743569740700524,-0.520730476654804
0.23043960323388668,-0.4987377497902047,0.14584387060329296,0.311736194989388
3.2867972969050747,0.39618836847881744,0.8708515984828187,-0.10960476415502873
0.5406012478914726,-0.37864271152558837,-0.8480571144981481,-0.1727284319674528
-0.028413022729277926,-0.5106680773842601,-0.11826449448969589,-0.34992613584738075
2.3251508152378983,0.3507563510251741,-0.07978552980023645,-0.38791893203373995
5.501319236730888,-0.19612405044811887,-0.2104449369549668,-0.5552416473617809
1.2614427939480648,-0.8453948125483353,-0.2359444614749766,-0.6401829775369714
8.967963801965508,-0.8730894609646657,1.3343912435234997,0.19653354085989116
0.8653603253492999,-0.5178319108652987,0.5993119640730562,1.9840623509619726
1.5471793249674142,2.712822104412575,0.8229674026148397,0.9993075501229403
1.2614072348894996,-0.3784509872005978,0.5767103820400719,-0.7275802280052612
1.885129253575902,-0.4401590784914241,5.696285407608065,2.49761316680346
1.4865057311556966,-0.21566322237759605,-0.45698641138011564,-0.8052819166484866
3.3318125420313818,-0.2732821175910676,-0.07843625174951518,-0.7272182025872191
0.2934900286928668,-0.8195828924125141,1.5601283690756387,0.9672603285821797
6.084809439253894,-0.5454571225380065,-0.23451145308983778,0.06385344282032701
0.26150627695717654,-0.2679635907653064,0.39050196269282855,-0.07661722481890887
4.237801593404844,-0.4453623307555775,-0.5513330985533691,-0.3725185912611739
1.3776495379926041,-0.3641257581286783,-0.41093916529816843,0.0027478466740069596
1.8944334872982322,0.9549104002886246,-0.22567969804477384,-0.7418159694398778
0.35065147043635836,-0.5836752927982942,4.389086913539016,1.0359108475272882
1.4950137356051205,0.4101921712095862,0.03998073023395232,-0.4126169451549503
1.1078396035427778,-0.3052349687727305,-0.9671545112459091,-0.05128257012943549
0.15510373959348,-0.01236061251965448,-0.5612757288246704,0.23861105089716217
0.45167358693907556,-0.4456043177186788,-0.4091863609609444,-0.5516501435717222
0.04506861278504726,-0.8286516387681845,-0.5286899124330687,-0.1771125502349159
0.45427279213987637,-0.5871849229407389,-0.7136796659240217,0.3775617216806577
0.9534117144370367,-0.624588506160078,1.1363407579551197,-0.21194011593667172
1.846591192307792,1.6385265442541255,3.352270841360202,-0.3415062091699692
0.3489574218406777,-0.5177251900549809,0.11887810802592003,-0.7175170350820537
1.0829901023494029,0.13312937468153652,2.5999723879636814,-0.24647849992720505
0.6078638532145406,-0.6316892913128171,0.7583304504705775,-0.5811036172594415
0.8763522084130111,-0.682487389424322,0.19649560112772102,0.5681078263617414
0.2917602229863736,-0.2886901997610405,-0.037383185680017195,-0.69628891976436
3.103737146796492,-0.8246720245974405,0.23355062186839093,-0.757527115736184
2.403149744791908,-0.28719327418076734,0.6022691164936722,1.109879819907842
2.4811108675740887,-0.5594852942514063,1.4040845151762547,-0.2459489405698294
0.599018352619455,-0.6797181362854186,0.20866056052586646,1.1142437613690834
1.0619586743317218,-0.021446097664416297,-0.645614460352864,0.39031343657206397
3.342215002339108,0.18199852205338152,-0.19628007316755836,-0.22762237207765235
0.6022937052200579,0.21973654509314278,0.6106305588659469,-0.28294385494275
1.2456752918529022,0.5176575834019641,0.45017207813512994,-0.1726474551709959
0.6831111124039277,-0.9539447400860163,-0.3957384618644625,0.5716071284354904
1.3882072165624084,-0.6558409694712719,-0.040278376086881895,-0.3141686259603491
0.7635928369455804,-0.39443961631187496,1.6573189787286369,0.7109453529004264
1.6703805629142523,-0.3805686923220669,0.8665142028506414,-0.5951091464521019
0.025265765130964457,-0.9254228106387101,0.5784780272955741,0.0728793170892299
2.0257547647195002,0.6041129290666833,0.5713574243997932,-0.454274214094572
2.4115027225467847,-0.09515550358682168,0.05596719657205873,-0.12658919068553154
1.0037780248100683,-0.45540331727999117,3.0883304439320325,-0.8122720114958875
1.0263821001548772,-0.11354341931448497,0.28881685068420615,1.1451804980047355
4.013169967784845,-0.46837003605660144,0.2711831714738906,-0.4475226079463649
6.9874144941888785,-0.08128083884858894,1.559041004090144,-0.4248638309520092
1.8350202788610974,-0.7321927401108153,-0.3776753348963755,-0.3332949583595095
2.393194372387476,0.006704284652391923,-0.6350283658178688,-0.6385057445705808
1.5753639813903129,-0.8052369156776582,0.8353771781938932,-0.2950252246413786
0.29973806672660075,-0.18710476253100383,-0.11140129602302995,-0.23034966802776735
2.196890777521518,-0.21822113367895335,3.456150215485291,-0.03181975695259254
2.460958973792541,-0.5287773732527707,0.612777677225304,1.2001390023222762
0.49100475872338745,-0.3501805072122447,-0.01231917169080099,11.348691018870824
0.9009196518283276,-0.4582450396367471,0.0015067771285079967,-0.4546304402930538
3.264655425206888,-0.5188274848047171,3.9044912380241525,-0.08863551914432766
3.0310757909409647,-0.7124101551649618,0.7148586700794077,0.19020858223833992
2.06891713279713,-0.668834850764255,1.1373597017901766,-0.04153542291261769
6.221136104382053,-0.4188912868115635,0.23093114550440363,-0.18068862008856412
0.5785231416090335,-0.4071146320014636,-0.6819849928099851,-0.3249085558030397
1.50802009002906,0.04830582762274971,-0.28811727604233595,-0.12076624065456154
1.6476633620673113,0.6715820540519513,-0.7831914389377465,-0.44801211553276143
0.9984539097432692,-0.27919850484634035,-0.3102490413621761,0.016603855599104822
0.8888692832207004,-0.4152939749065887,0.04185332501777683,3.804717855371636
0.17753490134720296,-0.8725464781007519,-0.061799918668912546,-0.21783823409368408
0.40192486286641493,1.651189630077639,-0.49060804476599795,0.26278043303167475
1.0941109932584947,-0.7290389798295207,0.185523708748222,-0.12315898251355428
0.6005165424573495,-0.6872471819142629,-0.2020166825146309,-0.49587557006688887
0.5194313959560934,0.03192928831469999,-0.20420521726346008,-0.5096445158363776
0.06736857890597547,-0.35709170285625924,0.5038747726064583,-0.3574894920607822
3.0206920857553445,1.1857335648342766,0.6964669823955079,-0.5295284519763614
6.995333253555484,-0.253665340599743,-0.09538776002197114,0.29182139751134684
2.1799609017469863,-0.92342941253879,-0.15420726034603016,0.05634297834530133
0.49076884958786415,0.5747151691663106,-0.40680939640825964,0.3300036200498082
2.6318152579198,-0.3145053334282355,0.13944739889315572,0.5684310517963236
3.995634406919163,-0.2580081713388789,-0.6287150015105405,0.06455780359547991
-0.05946926871760205,0.04297425097591856,0.5539634509542264,-0.8850741697610065
1.1464439508260527,-0.8033361997335647,0.07538779774026083,-0.5081147766778102
7.334303245404893,-0.6754276890101859,0.7489376704240984,0.23422979407770717
1.1459365164011297,-0.2969734260713165,0.859918861824146,-0.5855580119322279
4.488045360715313,-0.13054823978268093,0.51661295015949,0.1978474389194782
2.8696338945546964,-0.5590690824661124,-0.25969554132545325,0.5223821709029344
0.5600397347709845,-0.45524197371371733,-0.17577082065495064,-0.15055814394653377
1.3737949975847408,-0.2988691589282796,1.4663940137688662,-0.34549383160233293
0.8414715338584728,-0.7459467988412958,-0.12940550055966116,0.4450176580791272
0.2941447966840147,-0.5748522593021297,16.29240289459323,1.0176066631983067
2.0529222630838917,-0.33326649656650187,0.0694354269316888,0.20797635680773063
2.7758956549448586,-0.6972504591572395,2.053620709231234,0.6092826976915784
1.2175847050914164,0.9740699454784811,2.409500463954395,-0.10158049376670131
0.22056895870696636,-0.2989558196869575,-0.8383782014542791,-0.19360191453951714
2.776607770731665,0.08681192127781912,0.472299484459652,-0.41135707779563613
4.673112592085618,-0.45230565372068154,0.6143382217445381,-0.687808034302275
1.189843519010187,1.0775999477479123,3.334443256537697,-0.038058098219937775
2.5005503796007877,-0.8097859908865769,-0.12736940893244875,-0.17492153879790573
1.644277327706578,-0.4256138761909559,6.082226360152784,-0.12840545692802463
2.7884068573990755,-0.22629504827194136,1.0037304448963607,0.17508011351720376
7.805732144224564,-0.27965691431868667,0.17419131537300792,-0.49274153659684294
14.108982355816867,-0.02776694639325139,-0.1016890051727728,3.9671016398439907
1.3875476951563854,-0.3660915934633344,0.23490676820535716,-0.6295572014551178
0.3995698832038186,-0.17767713890625458,2.5365383314618817,-0.2553019759849299
0.6202193211021785,0.10564000549260233,0.45153576948262164,-0.5405913040123622
0.8882992593284791,-0.15991930729019244,2.504783089778577,0.6241789858293749
0.6698190640674055,-0.2991558792501844,-0.8211511327261422,-0.13265174448362194
1.3602878460067633,-0.2959708850611975,0.5341120701846707,1.9621067143624944
0.825489228165116,-0.45943399772502713,2.4661840784771467,-0.32739412648877697
1.473565584386633,-0.12949111412401393,-0.5716075187759094,0.34073529741801467
2.5355138462124387,0.005667439541862329,1.1998800323634518,-0.6042998576044802
0.3792205489099407,-0.023652467839644697,-0.22606430655574983,0.014670089991332347
0.3455437695126993,-0.28994221578510304,3.881676385447779,0.35722204594805707
20.91541994970303,-0.5330562539186845,2.0106349457896684,-0.24406303595584256
0.46727759374868505,-0.24472381034501567,-0.6304920137663114,-0.7217029838991471
2.3265795748050806,-0.1013750300518309,0.3180767845951338,-0.1901572078393292
0.5089642771562881,0.6578994381349148,-0.39620751161952084,-0.0757662018708336
1.8747955405085563,-0.7074201243004499,-0.1916800190216964,0.09647439172713934
0.42685010503959275,-0.5076315609197437,0.22367054650951634,-0.7669883202593843
0.44211801983243926,-0.7871607594870722,0.8447954612003363,0.41477152679549656
1.693902887585982,-0.6403475790875504,0.6904926300959073,0.20574434827249632
2.2432030115468304,-0.23474206716444712,0.6059416075236446,-0.5923124430083895
3.8320026183049745,-0.8131991666734937,2.837011931421572,-0.3650534796165532
1.9320226270722225,0.49219005197623655,-0.575113227590763,-0.1733744642957824
2.03185553844113,-0.6923193251617842,0.7408711372043708,1.8361335177811422
0.9526301389470107,-0.1852119454217216,0.5105120870024631,0.6092305189692968
0.7770652695782989,0.27944779671143216,0.16033709208473956,-0.3573266676626544
1.1002147927197972,-0.31843212634603135,0.3053695733714259,-0.424593706559543
1.531081993070032,0.23554817901302627,0.7252638204618418,-0.48362386272712743
4.119530213785262,-0.6053180927196313,-0.04133256644187733,-0.14077092303811245
0.3241656222186704,-0.6622961959150828,-0.3126809565456312,-0.6768944631890585
1.0047643699667832,-0.8903230149246891,-0.254745999113853,-0.6401273783814398
0.9724389274975471,-0.09203116108662157,0.2049653720411675,-0.11199836953654774
0.8928310349175452,1.5245587285273703,-0.06695449976453349,0.3233444970541526
2.910818097842263,-0.7569639120338878,0.3905279162385591,0.6350082026955823
1.5841912665614482,-0.635597674096998,-0.114700800406487,-0.0021412747696165635
2.7388724357795553,-0.5834811438286975,23.49374324850658,6.115676575036135
5.099691873631622,-0.2813096586372914,-0.27909399433494975,0.35977997981288135
0.6655348002010038,1.038219819684512,0.5071426191735113,-0.5816315120267528
0.8000178037798424,-0.5510957897381767,0.8469299178431577,-0.9193717570199975
1.0916409275843169,0.14040980344940013,1.6380288630050095,0.748842663967654
0.07249524854179956,-0.2744580474013054,-0.17583948630358293,0.8389615115396161
2.052133482781034,-0.04721942018804148,-0.3475052761216093,-0.27465854212800356
1.9387688941516465,-0.028797105317929117,2.301770050699954,1.484802898972044
1.1342182926650133,2.163095821146059,0.039425558539226024,0.43585173917953957
4.289354027109837,-0.1622967475043975,0.7398212650962299,-0.29080360537040595
1.9235241278524344,-0.38193371528742603,5.303752496219938,0.11996709293527275
1.5290231144176771,-0.4296267939285231,8.318756001202562,0.1927779291113192
-0.08028450550263244,-0.2636644118328444,2.2930177207601243,1.4043225084997126
1.9293581850979864,-0.6456674935166142,-0.5410864031929556,1.9570827232809038
1.165913565190969,-0.4778686082282294,-0.21986093859241596,0.2031977272893406
1.5250266193890258,0.16565930434342335,2.651797869899489,-0.4006855221381671
1.3876618327188086,-0.586090507668723,0.8921852477297008,0.13532445729663167
0.9703500321420557,-0.49991128979641997,-0.03708057649217,-0.6412607975504578
4.193831560902626,-0.5278748731401137,3.6671250572481195,-0.28356860159023956
1.8146351962176857,-0.5323218879630468,0.7902692858652103,-0.3858273127209664
3.1173804062812946,-0.3256968557467833,-0.12427155851731142,-0.01989890173277986
2.5562021593232527,-0.32121981330602034,-0.07826389550277957,-0.6620715494806206
2.5508581697293,-0.5584974150509845,2.5411873642821554,-0.1040650591680855
2.2855856727395967,-0.6938033715868283,-0.3429113386981385,7.445871207477623
6.296161120568211,0.6515931490642515,0.312813168600266,2.3988723079478254
0.24401399830041726,1.14945016040883,0.703426618768416,-0.10403461324101448
1.429356501256359,0.4153286711372195,3.5970246057259327,0.1702664793873756
1.7451090778503429,-0.6653330218429452,-0.042887611447761875,0.8813473863322643
2.3912659955307993,-0.7733649539552241,-0.4259352472560769,-0.06069165305660973
1.0953430311919115,0.2671257753439056,0.07881210075291634,0.035662050143218105
6.20708061594327,-0.7872979739815771,1.1672783893645282,-0.12744796362738553
1.1803084040564378,-0.1996641261724792,0.47337296873304635,0.22782483611596493
3.8194453980178453,-0.22697251853846256,-0.5669447661341819,-0.09608999922864392
0.9057762529819124,-0.753015473843802,0.4422088310515164,-0.46695167377602265
4.908800435101057,-0.06927674889490287,0.2184708613863373,0.07759726974040349
3.6157575297362206,-0.17521749384280239,0.2813265799178033,0.14982627065633336
19.17652470289765,-0.7546157004633947,0.37311871119836737,9.760449895076924
1.1595594447310575,1.0661699171525005,0.5026213506632271,0.09261117840038735
0.35905307029500433,-0.8022859223740944,0.2587902925887018,0.9246770430035565
0.9594286633626488,-0.18325636259512812,0.14554645497866514,-0.6087026848829487
2.139791705500933,-0.2698672490714821,3.672077208507665,-0.31236720701497245
1.7603613465834531,-0.05087145668112303,2.199688741441488,-0.16228778813943812
2.1114696418737315,-0.03290453886089806,1.5302404172092516,3.363804075411224
1.1578254443482074,-0.7644136730997415,-0.4574406705030454,-0.6807006758604184
0.8395553160164673,-0.25902586159932195,1.4598217623526466,-0.06655941800961629
10.022751513888009,-0.4413229838862872,-0.2404189491846641,-0.43261877622636924
1.69968864982892,0.03552082799882772,0.1745810927909912,4.372629021013778
2.3329098886832385,-0.02967840630105467,0.8692383304434925,0.7791701585319044
1.1297345255889826,-0.14818266396390967,0.5945347002010497,0.9521432850949034
0.6063033135546307,0.13820273297126273,0.09277869996640975,-0.18887324063491573
0.8360521400380618,-0.6233838900557929,-0.42971395611464547,-0.38230774379342114
0.5470975178858348,-0.4488313408664777,-0.028072641651075703,0.34711395573363
5.18471801868245,0.17553983104338444,0.31874330247581706,-0.4354529398242113
1.1401181709280235,-0.6319074474188165,0.5454391703599599,0.1955006777164856
0.6286902824337812,-0.472334511382018,-0.6677713829841869,-0.18932762006036286
0.583213240558939,-0.8358207777285893,1.3213331278078537,-0.7166236883264578
0.50899385133293,-0.48371334010915545,0.09848781821521224,1.2197026366712342
1.6980461647545266,0.07341428319662424,8.856722959100091,-0.24360240468798267
1.1764138979554124,-0.5181162772588344,0.02600955375192049,0.054926471806220345
2.320518426735344,-0.6449397791059522,3.33101863559342,-0.42111721004784264
1.294687286497374,-0.5783972113646487,1.4920989134958753,-0.5983056344466804
3.658909351425227,3.1811077242116177,0.44754141064882313,-0.44613119167945814
0.9031289998463647,14.326737160388747,2.824546933491488,-0.03661521277183255
2.885658978314235,-0.3769078056399231,0.356645853072836,0.13360931200319803
4.662583178064408,-0.1829871207142375,0.34808025940235576,16.139946055728107
2.962481239955294,-0.4723509787365894,-0.3112669524256241,0.01643200700562386
0.9245890206638481,-0.35335756870419455,-0.5047269784605799,-0.7348647084629392
0.0712082443903237,-0.42527898332899605,-0.05397452466021557,-0.8393507548335836
0.12868078100921876,-0.5541751680599469,-0.06922643668282669,0.34223970420268035
2.8141645208562496,-0.7940096349695631,2.1020764142758326,-0.7273775951982683
1.350784674227019,-0.21087497791446552,0.10893921952498431,0.31119638988562603
0.8378716585481631,-0.5071698939328041,0.9635346319071236,-0.4908116112452413
2.277579165848183,-0.045692187602730194,-0.11594840739744294,-0.8029346127606412
0.12431301262374439,0.5167426729575364,-0.8060214002234931,-0.23757364791150848
4.06154481758051,-0.5979729250158714,0.813094785511443,0.7106574865535915
1.7128125628224975,-0.8195858868894559,1.2226700664498602,1.831570825969841
1.292700059653995,-0.27678077819287494,-0.10989508699283868,-0.16697445761494478
0.8056986340427208,-0.23556328938135762,1.0537092403279198,3.3141526140616433
2.183416325412074,-0.6127573383382475,-0.6806487911184048,-0.7648691672221786
0.7087902964036219,0.1265341920891332,0.0444272051971808,-0.6985233818648452
2.0432279460446674,-0.12717720952171463,0.47552146552804486,0.05996792159885689
2.756209780434054,0.1452409844653615,-0.2140742546299641,-0.5295121977710366
1.8859335892363989,-0.5803407723037569,0.7488627620107986,-0.48560444018629423
7.185318981221137,-0.5018647868453825,0.3678526222975249,0.4044241682942009
3.987283281897671,-0.7776376412837952,0.020598941630815437,7.154499376408166
6.0410431989764515,-0.3481337542353574,1.1301127642711624,-0.13836921347076592
2.010698257231886,0.12178932874244008,-0.08304355223312032,0.22175287284391199
3.7881383980099486,-0.6410980769354914,2.909685404613257,-0.15659870233514972
0.9507009946649567,-0.22762907091288997,0.0837883653907796,-0.64748004606979
0.972198570211517,-0.7239058388003372,1.1646098899954094,0.5892959860001918
1.0019215048056083,-0.6173529301858367,0.39027625332234583,-0.059306407496436675
2.2257561765335074,-0.7080931328842306,1.9261026253789146,0.8849764440212875
4.27679180536628,-0.6797848160995392,0.2629198023185546,-0.3616695940663751
0.8494273014270544,-0.4536134908166841,-0.4095227745431782,0.999903033423869
1.9158932732718603,0.39282611930433786,0.3934946872545686,-0.16817136511278385
0.6436427795043842,-0.3393107434062639,0.23021288951117125,-0.4151666523653439
2.3906675107881123,0.07062997413935612,1.2194955211783944,-0.3608403378415971
1.154274851255726,-0.9159549611975641,1.005031152539896,-0.4193901299216649
1.3976479767048557,-0.2748856768255099,1.189610884139448,0.8784585002107606
8.825379855131805,-0.22087013179987935,0.028523423823904714,-0.04007303132522433
6.535427216917086,0.04378823381564545,1.4777982573672603,0.35287802285272063
1.1650483724634118,0.2569972210251339,0.36850107451451874,1.1027700982309678
3.601541333602814,-0.36429494636645765,0.4457581491828959,0.0803329095751617
0.25209054232516137,1.8270301177964159,0.7390067787067325,0.3410877358533748
-0.13396346994974018,-0.6326375036690853,-0.28482423933783163,-0.7663900981366671
1.6296874332446092,-0.8319989904285241,0.489396690547921,1.5087190283986551
0.4257902205426056,-0.4179565710476586,0.0812202786751608,-0.07006148324241424
1.2637521067065003,-0.5805318146755654,0.2965442621494283,0.8622612050568124
0.5166893900742648,-0.88576610329434,-0.07459038262120943,3.7570257932614615
0.8548339981714859,0.0038867575139649446,-0.3202368009245603,-0.11575829836088913
0.46854077791392923,-0.2096979674835212,0.09371768543161707,0.498268046369593
0.9336388491499845,0.14600574154901658,-0.23665448705611924,0.34121659013982764
0.9096134112109695,-0.8362038222226813,0.06317279293967037,-0.14145942364556607
6.51201771855666,-0.48091662915403177,1.0275217230492975,-0.375453959150286
1.2681558804601423,-0.7530581150404264,0.8693737987788044,1.1212619327842623
2.7975095833472126,-0.09878853694262102,0.39122669224338,0.1565451825679931
0.8620440643798286,-0.3904803683470791,-0.8345655312293696,-0.2549656729100884
0.8520645515122132,-0.5750674307311545,0.3153116540162113,-0.4681914241657248
0.7888086557408942,-0.19547011736140318,1.2151941883710249,-0.48339397537760687
1.7886085384438482,-0.6605369162056159,0.5898153515672002,-0.3664384867795458
10.721723391506014,-0.2990529191767951,-0.5477060743865803,0.10662214132884684
2.1464175067887874,-0.938643601230011,2.586729713550199,-0.4270219912688912
2.6086355170217184,-0.4203605799598351,-0.11360510216263708,0.7650900192171353
0.9056029074199152,0.2625468028768416,1.0014119396707382,-0.5703642840293301
3.917145186417369,-0.04503384620622575,-0.3963741222965691,-0.4941754731892488
1.8014316766037455,-0.06962161417408086,0.4016727276651053,0.20415961336983468
3.061378439052067,-0.805175216769124,0.0030540559652678656,0.3029553935093934
2.593114470719461,-0.5867431958552327,0.4870005055528437,-0.3077378786669013
0.7186649188344991,-0.504351671000572,2.919323723606437,-0.04340718503890573
0.9478965729891244,-0.7443495604122092,-0.3048308184965405,-0.7293120746468932
10.211812549228924,0.3154790925462938,2.133761006015458,0.47964168577504274
2.015388947145587,-0.08901555404082451,0.9133071070871517,0.04192119163755259
4.343673758643285,-0.5885501885360727,-0.6605397405817328,0.006990349619569125
0.7424708741580599,-0.535744463069711,0.45173101011803074,-0.09055216590813842
0.6943023829146846,-0.5970262124715198,-0.10296918022202972,-0.5779342414253341
0.3911306092922071,0.8998000354976858,3.040961146958759,-0.6786670329783944
8.514424032006724,0.7933550174658361,1.438975534218161,-0.562970556714274
0.4883312902606247,-0.4411812875671428,-0.14861423338096236,-0.34244461495399137
2.0143026099992407,-0.6036822362620351,0.6559604597758384,-0.17954562569147203
2.3782067756164333,0.08567151127326067,0.05844467574305301,-0.012178341069876697
0.9489538571931462,-0.16704618371056768,1.0872922788503936,-0.519947823820719
0.7746798835310953,-0.3846921689962606,-0.14819613729022274,-0.07963536440586305
5.848773961821927,0.04831706861055185,1.790815432409766,-0.11053757300852174
0.5138803473995137,-0.1508810287207516,0.8825852892643793,0.26663519537547486
1.014496860913999,-0.7777373024890508,1.7516859747512372,-0.6685440577997681
0.5692859370886603,-0.13902293339159788,0.35161232845389345,0.7125276666576856
3.0508123580648805,-0.6394854713381332,5.290546344634833,0.6778294398315181
2.0950597473250503,-0.7749269055462802,0.4973129542464316,-0.9919419581084993
2.412704910385593,-0.19247100585883703,2.086339027153942,0.6443070498342474
-0.03975326384678535,-0.39451154430129154,2.666123535950606,0.23225377202003816
0.8937503841315058,-0.2250482878914729,1.536674917024647,0.2668932346084052
1.2375195824477867,-0.7592203226002685,1.153318730119826,0.2139882446207506
0.3471819078657783,0.24377049223099378,0.7836836510760821,-0.3909470905559642
0.4804020375765161,-0.47236481217647386,1.3476750720028936,0.8726932708927251
0.3277735823000032,-0.07554962112260732,9.772582245306772,0.7034432876102592
3.736053352256465,0.5463274618729526,0.9283221251385843,-0.16653235261151578
1.6767797208692223,-0.5616536991902894,4.046418848575231,-0.18351304616992103
1.2266252067188228,-0.47515336027800203,0.3638750646877995,0.015429108389966473
1.0278733386812036,-0.14371839535966735,0.09896436225212812,0.6569725487559575
1.3579990656843512,0.8626796559522796,1.3816589932254772,0.3825598997220523
3.611947300676766,0.1006037437680003,-0.10174384454145025,-0.5558948566421773
0.5927701439995765,-0.2532183618456978,11.457132015952611,14.82018347669337
1.1857110754360063,0.7466552345950652,2.829922272344686,-0.1811744337070631
2.953653158969208,-0.5569250095141898,2.1945245231117463,0.9029207056959108
0.3714773553983004,-0.6580778300628707,-0.7669776195822995,1.2226776324576378
4.181007480214013,0.08735916885275907,0.5713515160088867,-0.28814611372818566
