x1,x2,x3,x4
3.239493298554085,-0.566462896398698,-0.226044898645836,0.14797747986716736
2.318568794093582,-0.40754527712570465,1.2003658044336323,1.0333592425874798
0.12103442911261308,-0.39424369773667767,3.02423300920646,-0.5223108662259835
1.7851992403152428,-0.7107123499595676,4.688810478607344,2.9231270955727395
3.9229130452500875,-0.06299242707219521,-0.1841432355424627,-0.40777731599235056
1.0336185112209586,-0.20168568360509176,1.1890067607393369,0.08838101239480634
3.6910276629446104,0.37380532131382505,2.8083046520695625,-0.405304566533753
1.1266966451227716,-0.579636558571681,-0.48990448409567855,-0.2555693212180723
1.4925611651239064,-0.0797787793928858,1.511863470384363,-0.7356454806781552
1.9963396499128292,-0.20964300165638894,0.5771764505897796,-0.7381229469195758
2.7222851005634117,1.8183339779758425,1.5463581579304249,-0.5173258577749892
1.870857481295817,3.067209841626725,1.5787170850652874,0.07734352936976685
0.4302303002076773,0.43509413125682683,3.1319778532897384,-0.24909807930122474
2.6361025068990442,-0.5677984531798643,0.0015285803797546738,0.23383072356934287
1.4556070850960792,-0.015123853259205844,3.3148896265335734,-0.6332017640458154
3.616202240494623,-0.6483864552692178,1.240586873799212,-0.4394844806538455
1.2367745755246067,0.25065280939170465,2.2049033811398426,2.206925685115753
2.634729077608334,-0.6193449511770273,1.9408137156006693,0.010944184434393156
2.4788835870689474,2.2343716094795254,0.9874870627578334,-0.2558638966202297
0.41632072306285917,-0.5731895815159394,0.6344484167766209,0.4216142331365631
0.18787420989711623,-0.040808185546445386,-0.2776698712965656,0.17979722448015867
4.203345781878869,-0.35796387911415717,-0.0319030827380572,-0.38255085328503513
0.6715352095594744,-0.3341513118273267,-0.6090238440725912,-0.25951292421857175
5.156382937232736,0.23447711243604452,4.523413039810642,0.20739127307005822
1.626713915797645,-0.4581634228933221,0.17189505695800444,0.7694677631651619
2.2542004793197488,0.019972945321952817,0.5169374981176169,0.9609437587651142
0.33112056976559523,-0.21765431830235193,1.1217393451874647,-0.17077343392214717
1.6765999341545355,5.306504368269807,-0.8787971382044333,-0.18136651498967882
0.37879072075023035,-0.15716923494524093,-0.4216797767646947,-0.850947129377057
6.900620933376196,0.30981146928077474,-0.14637171122127346,-0.5995389048260327
0.7672542208324729,-0.5293088111792188,0.11880635185659805,-0.818681554213309
1.106790310909283,-0.5396056907607388,1.6180332596389748,0.09033029405304882
1.980901107266062,-0.4486917373939844,0.40639214167753557,-0.7295313126758121
0.45867901949604883,-0.4525817706315969,-0.009123942077422509,-0.2261638711721211
0.9298349941741233,-0.5980401293181077,0.2607566800855847,0.859206248783206
1.8539869666497975,-0.7012142746876555,-0.1625854627779475,0.038486222001159254
0.13588097751612827,-0.80202234949062,2.8651505250323104,-0.06028851620362208
1.6502386232909942,-0.24594852822507074,-0.023785701402176507,-0.3448718921369678
0.42755789559687374,-0.7928707015283254,1.5330604985303768,-0.6969910793466787
0.28977515599501236,-0.790767316361253,-0.16648102043115875,1.3716513196808338
1.5950571045019037,0.03362287410834064,0.1638299228817064,0.43704287832679145
0.7409264087132192,-0.7005903318915705,2.4626418619748747,-0.6317056164030461
0.6246291884641701,-0.29513319658114656,0.601020341274481,-0.7362916884843178
3.3591033069351894,-0.605726757823601,1.3883967045792804,2.7484684191147144
2.664985823929727,-0.03311851164590762,0.3225873117933491,0.2273357553952109
0.19863691666112215,-0.6825190340036233,2.870311467976174,-0.36268633428311925
1.105809875489757,-0.4349361619795231,0.7133323907537361,0.15033430186540198
0.8837120244975276,-0.6130853724118086,0.27372079120029436,-0.5866787334311543
0.2253059673510447,-0.7418208700808757,0.07082722042162537,1.919917575131071
0.963916511199407,-0.12529310870863375,3.4510939877163835,-0.5944815605826361
4.9099591563540566,3.980509338847612,6.740894149277668,0.7338301170819879
1.735586164336771,-0.7149892086584655,1.1669263864124386,0.32233075487758067
2.3853729431229325,1.6766718672497207,4.405768139018391,-0.7179174320523682
2.6170222392363214,-0.04880508056006172,0.9670481723108311,-0.42596127612511503
1.7903560876490898,-0.8644408740662103,1.6861999206363616,0.9286655114900388
0.7304209130052197,-0.23193580699708805,1.0300483768996949,-0.9106991369248201
2.108767950125206,-0.4353284187750134,-0.49171314479796535,-0.015881827451061592
5.201608149408392,-0.49089064512153724,-0.4161824833583062,0.030860534910495785
1.2266926947006778,-0.6440583762956715,0.26532991508345694,1.1363484905167915
0.6932059594716351,-0.4370392872990473,-0.47828143424187874,-0.67445614382647
4.869679565364158,3.285614647608001,2.9666811992144404,0.2888365796797796
4.0417908807293825,-0.859691176583645,-0.1245322526678515,0.5684758487356092
4.552386735535969,-0.26957370690490257,1.3817960079601015,-0.22211729365152122
3.2541880214475043,-0.6075197845028227,0.05083665464622067,0.7606234774206726
1.5682961096629762,-0.6363377184272525,0.1163740872456176,-0.32872089248866254
0.76311655144775,-0.5792191750904911,0.4103572007204166,0.9770349253351354
4.2755752204248365,-0.2237518972840783,0.8221352398701143,26.67775769413501
0.9875172433827906,-0.31132064661699144,1.5111113087491783,0.04948280227986257
3.0144623363591956,-0.22688534009579397,8.986471718068284,0.4996174153409152
0.40338429338042237,-0.5661418710372677,-0.5188638669943424,0.12755695344208062
5.772429524276325,0.3437881807573886,2.5110904697401404,0.33030778395172855
1.5802223332514127,0.16782726497252987,-0.5202833749113612,4.106763287809832
0.4638228908001454,-0.8922158161869477,0.6193262234026744,-0.0847630957791371
2.1679230944783274,-0.5036244562910732,2.3113533008476854,-0.7562380980570917
-0.1877901229547171,-0.6336093148725266,-0.1695920418439104,-0.5505134555917497
10.468623482610397,-0.39313293207473343,1.9358123565346737,-0.2705688413591384
1.3598869512317115,-0.4439180946291805,0.6989716091175078,-0.250766894840589
8.488262666566134,-0.6018490829433524,-0.12074394698141355,-0.3064603984832873
5.057856608208246,0.08625570524200898,0.7848724018251658,0.2696809113684351
2.0353540663300307,3.7371628266287615,1.9119883373152975,0.06989677601519473
4.247640559308049,-0.07503255126548047,2.103359173139068,-0.5611913042726876
10.05088838913824,-0.5724719425646918,0.7912535377326404,1.4207465914482662
1.4824812690879265,-0.6462412709263967,0.8586825358943739,-0.3055321472655522
4.160762039614347,-0.5486748686467202,0.3182839771526811,-0.07550450895521721
3.8348018102396972,-0.8439279470757568,1.5487635005334894,0.23126647083619
0.8634348510525756,-0.6893511214639103,0.7125008526626111,4.899361898177581
4.149023135998504,-0.764147347501245,-0.8714340879375898,0.4660267546495933
1.1016669421545116,0.4728360343993121,-0.2393647260760562,-0.9700831728281166
4.716915594096961,-0.261190246760282,0.8271381928000736,0.2139168475118216
1.8312102492737878,-0.09989669506711052,0.8008812410958692,-0.39883322531737797
0.9568747219360352,-0.412281717404274,1.1320282127891126,0.31952037738299
1.143283515929812,-0.09148807074462717,0.522830643936965,-0.0577556083113655
2.5954914366541852,11.56366974176245,-0.2549123170893889,-0.1058712322341191
1.7169589056957353,0.6591041908722308,0.3682900032679659,0.6688348469613119
0.18032306899720707,1.0318856087490165,1.4285339857559767,0.9405328671685755
1.270955922113132,-0.17593236734083417,1.8710500269989074,0.12261723280270376
6.278924369212433,-0.4082275464576669,1.9207017698592432,0.23913792077493734
1.3321947885709267,-0.6983081046605619,0.13988188682498026,0.9047138185823649
3.4792550282177084,-0.2536388598020567,0.932219454685729,-0.6890397118223655
3.633245006837698,-0.8273461194676925,0.051760849908974116,-0.5794845634818078
0.9321967703447585,-0.607569402706148,0.9431762883409627,-0.49713698006206186
2.465039574774819,-0.31204620286988993,12.392676185754812,-0.4437174482595454
4.112741131354639,-0.04480199539006291,0.3079330262027551,-0.5897727948258933
3.128249601398002,-0.6340568296227331,1.2067732548440664,-0.5925450558901945
6.7711933970814755,-0.3707983138460301,0.3279719445660889,-0.4212474902181331
5.159686839662904,-0.41716087760682286,-0.24699724396029488,-0.07201340145051305
2.409471904027567,-0.25991406233333225,2.121344835240078,-0.34494595852809296
2.176760483877575,0.29152576301811006,1.3425527305367502,-0.018284393698104084
1.473352470195945,-0.6421175370574712,9.75722619651298,-0.5390853896937045
1.2758614265322903,-0.7284102172037955,0.9699873664306808,6.465290196219484
1.3098160684826867,-0.017429264159837476,0.5560718145867809,0.06227097557761385
3.0405507840932966,-0.6771890541110644,0.39874372095693467,0.24282493761217938
0.40599078131684796,-0.8086533798956181,0.8222997928003113,-0.0021852798509459648
3.0899204616413076,0.45359967908684373,7.180621603833517,-0.10266370469769315
0.6339308928841467,-0.08407310771838283,-0.620410339250129,-0.2547132088496167
0.3170088676912588,-0.7748351757322293,2.2472987663661765,-0.14111554027651507
1.2623748221818376,2.775394275013559,-0.04647919564917791,0.2327199260853796
17.05309858265419,-0.45636227383164274,1.1303331732263557,-0.2960109038438047
36.20213669841122,-0.24728515373462656,1.8252269785050488,-0.38307762604579165
2.085559880093886,-0.535741376169355,0.6643429485781673,-0.4513320034899537
1.750080966976919,1.0785308116739531,0.348465698658893,0.7484694935379386
1.8085851017762695,-0.3716526923327399,-0.22811315816141708,0.6429813080519464
1.2834602332154432,-0.24687631826912693,3.2696272602071534,0.0745822887676888
1.0887682633188063,0.09188465616696218,1.211919435906502,1.3050194064250724
0.7054046375123997,-0.8615525403266536,1.7099225944811445,0.33302601087092754
5.227114525924305,-0.3356165182194959,-0.1651892553938098,2.2520273107528714
0.29842491410896277,-0.29952277624415946,0.3131885671428236,0.6141698746306328
0.7541970084341763,-0.49829933774787694,0.6066110623246022,1.1282673757411432
4.070580487954109,-0.45392695924007687,1.3629720753618342,-0.3485427186973804
0.4994527739244712,-0.968252274256582,0.09373588449009707,-0.5179688514617777
0.633882613546761,-0.4476619359530415,-0.45001424032952664,0.08431906845410264
1.2150765597199276,-0.5085340853286326,0.8778681068108432,0.06573555953436316
2.0326756809705078,0.2663202925841406,-0.7990594099984711,2.286544746962341
0.8432382076200775,-0.6118548281463858,-0.5790306623843227,-0.07857257889977276
-0.006678824654107185,-0.5749735118172308,1.0870368610949228,-0.27552210467781624
2.677320943985611,-0.6267248008029439,1.713606349607201,0.43736189230349654
5.520819693986139,-0.5031476807084312,3.379685786713556,-0.6748988723648375
1.2222492635012845,-0.5172483241022074,1.130084326235146,0.5974171371540542
2.4518528481210358,-0.27104082816728303,-0.8397825294100212,0.2923200401036994
3.8903980617067475,-0.3799347803077632,1.3831519452425391,0.7275308980953128
1.018603812885425,-0.25339001823824925,0.6768674906377137,-0.46270267762683426
1.765240984278884,-0.6014166998591806,2.089313479417762,-0.06493192994375241
2.624847021963835,1.326365864809563,-0.11811867680478183,2.0980471989210328
1.7952855863425379,-0.2586806752364327,0.6415430272806952,2.0769855686875562
1.4006251418950009,0.5559178841019397,-0.3656972258637784,0.2247022642256462
4.696522246358915,-0.6609598293259802,1.4254909391764579,-0.05303581372407429
5.495534312699888,-0.22759309688584617,1.414912831167133,6.232419952347564
0.6006570806270501,-0.3348333777828868,2.907846062808568,-0.14274486340487302
0.8475641161728824,-0.8679797699496052,11.495728826640333,-0.4387709547350003
3.4593377353192025,-0.6295571942342988,0.5915652774355151,-0.2995441790674901
1.4047080970477506,-0.3843659282111185,-0.10079424382995117,0.44827410288299996
2.4517432956049605,0.019027860981260636,0.8678205800312759,-0.40893405385288684
1.029116372674213,-0.9403636645888747,-0.22935317813029066,-0.44392059481924484
3.10787050065691,-0.4208311416593825,0.4817814483011489,-0.5006633421760559
1.9754343360779738,-0.7958421472420681,1.3577352184101081,0.16397434462376914
1.4068916432613752,-0.7518937012692545,-0.4034054784574388,-0.4099824856346137
0.4768289073570289,-0.465242413659096,0.9647668424470117,-0.36739484045569015
0.13995937587652763,-0.3976926992442804,2.123039190248294,-0.3665966564700086
0.8762601330903026,-0.776427731807489,-0.24989449223394533,0.5444686775496852
0.8753152606513348,1.2574865257316752,2.051756146439812,-0.21158297356980615
1.4617712125783564,-0.8936221170189556,0.5017416233930299,0.16782619081448824
1.2219105152169805,0.6167461812467865,0.9654917326275458,0.5302693738670377
1.6794952395389737,-0.32237212896219414,2.4740826361328936,0.3932628076593023
7.136233363769849,-0.7827702112311348,0.1248578349446825,-0.05467585210154269
1.887951613291892,-0.15776286922566019,1.5667666699278757,-0.6042129137251311
1.7340972250788753,-0.5913091678508934,-0.26428675130010215,-0.04373515585991994
2.861601092742151,-0.4115298265637656,0.3848773850101783,-0.7841109497386121
0.879782850947022,0.028666783250679506,0.14007549679288545,-0.6094272894470785
6.433640589468503,-0.30455303152502633,-0.278726035755389,1.5979196931765234
2.3023575608186015,-0.4508945709129881,4.310873630677537,-0.8863172166314296
0.7039916429576722,-0.5407965992392502,0.6688764238296119,2.34088868268858
1.7458687540897277,0.2985851215298172,2.9602781852245754,-0.6447106721145754
2.628995977080725,-0.7958598125191402,1.4071876231806781,-0.0980619883319892
0.978545044666963,-0.19635992077129139,3.4170576764932736,-0.4803041719714959
0.7374701848534648,3.2601134408883903,1.024838708645691,-0.32753099080937287
0.3673267589568481,-0.43300598705984217,6.790943625868032,-0.825684360948756
1.3151050044993844,-0.16133431344681137,1.0869414674296212,0.9503140957456724
1.4017790438235895,-0.4211623461087127,0.41730687350837226,0.37963655701587506
2.36917764468895,-0.4002504127563363,1.459117103097333,-0.2425253851101118
2.5353212483424103,-0.21371771810391027,1.0459488082705772,0.04890601876131728
0.732445309181557,-0.7198391489574547,-0.18164672074568777,0.9507953220379268
15.029348497317873,-0.13520648963453097,0.5732172482601248,0.751918480703486
1.4002413224406576,0.8303757383510255,2.135411820621637,-0.3584005193416675
0.08574012960529198,-0.681796737575264,0.5120525139994176,-0.6662283372481128
1.831637780607764,-0.7851602386691088,0.36403884666463315,0.42963133795593134
1.0157927755928897,-0.1854307587576829,0.47248243673424173,0.11179691789414647
1.9024665196165245,2.190301864303187,0.9221231624945481,2.125868097184033
2.698310846795707,-0.48839915678573087,-0.12005377724991861,-0.4379237030745481
1.1056367616185403,-0.02047544573931026,0.9796498738107171,0.001230371584849399
2.61206520527383,-0.5960845101323415,-0.25707712377402425,-0.6906418387933482
0.8612864981954444,-0.45383259471082726,0.9078127712240078,0.7427866552738129
1.690037763224482,10.554100153588921,0.08475049887120667,1.8331155142964781
13.94670434824061,-0.5915215085511998,6.70086256550846,-0.6918527358329857
7.618361018998389,0.8379443678622598,2.694031054321418,-0.24803863947598404
1.9691478333299806,-0.8562205750516968,6.403931744180264,0.6845515314719901
0.4586947063356208,0.01463715493479456,0.2646587372413072,0.6946524583402853
0.47008782092287915,-0.7750842836742651,0.33979435639739575,-0.42836637735412497
27.002032552196322,-0.7685384366489437,28.821976592944125,0.7756391023362836
3.3856986052690337,-0.1348170654529579,1.6756232944230662,1.7441389152251134
2.044729284551597,-0.6703275318643808,2.736629393778532,1.1849219618709896
3.692089230133311,0.03913973715362129,1.84997501765706,-0.17258846254219606
1.317593971652005,0.6458400700850573,-0.44763857499128823,2.578844996409323
1.6154123367025859,-0.6987552065825952,-0.4314094108814942,-0.09311231634654948
1.41895865802155,0.8686469444709641,-0.632780589808033,2.720479317147938
1.0465908150087895,-0.8700705186366131,0.9060636368401498,0.6651733478882493
2.0435633179038595,-0.399809145954253,0.5602921192899908,-0.07792239282494295
1.0038016113858084,-0.5923662977983231,-0.34814411594432315,12.016735552100403
2.0559270898887445,-0.6228194446856489,1.2551591539165936,0.7638371898816616
4.688894788178593,1.1076164550985146,0.12472560058792914,0.10192863131028407
21.877029054909162,1.4995361271603391,0.7498966383412351,0.031206160853331832
5.026801121552367,-0.36448429152322614,0.7293879753013843,-0.07039740015646989
0.651439571611349,-0.7118075004534374,0.1587066260558152,-0.02793290453845987
14.167335204315375,-0.46127271853412666,3.0383910714085403,0.18773339728372718
1.3171130552386625,-0.2898685481027983,0.287457226986658,1.2963919296806337
7.774238675275139,0.22127973393328704,0.038140028114696856,0.604563451473429
1.5175132647031204,1.1789983866704374,1.3798259460030935,0.6020401200434682
18.41177957053994,-0.30463854263500856,2.4389090954764034,-0.23200069906910115
9.922504445136157,0.002043720864931098,0.08937287041064979,-0.7167557227232384
3.992945629326768,-0.6143967644352745,-0.4588829628833785,2.0168918949441554
5.884844684284577,-0.4809556769507841,0.1747811158262651,-0.1959083771847786
0.015009044362080504,-0.9219614875986045,11.12603120199395,-0.29357188904568843
0.4256702803458101,-0.6114414705278878,-0.250437415620715,-0.062320724777329084
0.6277294942897742,-0.8100103201777977,0.25650254102535053,-0.13527786616509663
2.233530777739249,-0.49221044779908885,5.68831775262888,-0.5389608106882979
8.16724216099265,-0.07414678102039263,0.952674174799071,2.1849344189485866
0.2807788746045645,-0.24868822033144355,0.35634239667174317,0.12176358702028423
2.950578486443695,0.22142472495550947,-0.16043848207890476,-0.608542310439079
1.0069742671448387,-0.3475365455623636,0.035841756805815805,0.31139322316134854
3.7425380747701027,-0.8101148600589105,1.3815539136907922,3.3088653521917903
-0.15997111553180754,-0.8367173421714409,0.19724042476945436,2.305846670060085
2.6414462157691676,-0.01521504633621995,-0.3732936034184804,0.16753011253135397
0.8035646946160979,0.063476074819941,0.11617466164839207,-0.542788631390175
2.5862230742425383,-0.6928336614253465,1.1884496570641736,0.7215761540206849
5.614684849486939,0.3221603492651435,0.9104950779130829,0.3226552453282814
2.6684876641317405,-0.5294747280949685,-0.1213771400727004,0.4808221359418985
0.5812998907539695,0.6262879313738676,1.6842598242001174,1.6305659991409565
1.0367757364947643,-0.05208589752563342,-0.14415376123767487,-0.1985457647073654
4.747139478550853,-0.30227451765283886,4.081340546899898,-0.4560670097706341
0.8970755723114849,-0.3385175449215939,-0.6172714982162509,-0.14457723494429842
5.0727840528533905,-0.6084773008447281,0.6715991776322612,1.6373527124783047
1.6122385783973896,-0.5612314809978515,2.9564132648096924,-0.4191792738083606
1.8034759136773606,-0.4972754396455852,4.450796874251909,0.15693221672800695
1.06562221004216,0.8301348125322556,0.8767101645049005,-0.2289600402434141
0.2437292828229709,-0.6725172937419652,0.6767176281607827,-0.13705708623970003
1.3273815420619934,0.08881194122370406,-0.6708630710324128,-0.10028961099069855
1.2585392687524029,-0.21129360854059898,2.580238838693608,-0.633715597066056
4.664129911152932,-0.8811908763737133,3.5929826410486108,-0.23261573017856818
0.8821973627421356,-0.612182540732708,0.5274340482007578,-0.09391564618496495
1.775785148168168,-0.3919369218169705,4.419395643530512,0.6469163448044914
2.9215672545159017,-0.5479172096103648,-0.009639310865538486,-0.8984416742804768
2.510869776292006,-0.7565546107835762,0.2899355194472155,-0.04848040561810418
5.292833673611846,-0.23230035944239757,9.489057828398776,-0.2500831632150299
0.8000615642711484,-0.7538596188940536,-0.14777470303279638,-0.7247916997660553
0.786586880146426,0.03106632099966511,0.2452467583450788,1.4123768558191472
5.711975965852646,-0.5518801827075259,0.006911456418662976,-0.07763123979938535
0.7658207705070939,-0.015706260378350212,-0.1226172766271113,1.7954579579724954
1.0127369877258752,-0.7473503338147715,-0.6120186786934859,-0.5974973197634956
1.1926583117112584,-0.22593430882859245,0.19791776077259682,0.8921712724444157
6.92785064912494,-0.4064412291519526,2.13119605860645,-0.5201828940779472
5.795978327174079,0.08657752693789611,4.371795403265081,-0.5390649976400381
7.867185384299008,-0.12519583216114927,1.0341428285634957,0.32551956458304887
0.5231214285756312,-0.5660565285479253,-0.0398802375516869,0.2657971423439167
3.1858224613531565,-0.4824769295367397,0.4350714597991687,0.2982932537379692
4.768287478992791,1.4206641911809919,11.004053440941265,-0.1968785700445972
0.8679339231602008,-0.6131080799060149,1.2298119913362462,-0.4261261734528602
0.0893799901651855,-0.589622815092119,0.8536076735295324,-0.3412330032181715
1.1937362062753185,-0.805250998085406,0.6441457364449843,0.11281248332765759
2.028516331551615,1.8513833490747547,0.6308168117469313,0.7377655865462334
1.769055932931963,-0.7429251586793348,-0.09033859784695109,-0.022876906431847255
2.156533216048059,-0.4711909035740979,0.03171660003913024,6.535264970396592
11.548497197870985,-0.3628915388414278,0.07690120862373306,-0.2630499546455428
2.761809761121765,0.8910563091130519,0.8186091999347431,0.5173425862652883
1.9196269824550263,-0.5955689670507032,4.251828303476429,-0.2761200973431973
5.127822213568694,1.9650931279585913,-0.4691019887105049,-0.313676147956527
2.3490124542231148,-0.051828220805916425,0.240146829731968,1.1345798695036127
0.8362473469858656,0.25567268311875835,1.89439205940403,-0.5177595867663602
1.1552376131242421,-0.5150954890419221,-0.14089093008836384,-0.6872862439258424
1.453740233041389,0.6909350949749018,4.356435518483162,0.21411174544235556
4.460944655734135,-0.09499984292923469,0.8359455243305758,0.46265494072717317
2.508185965795326,0.24144844934065013,0.7202892722875982,-0.1571807792280795
2.2759882668503937,3.6556764124060646,2.131691402046428,9.875787510911874
1.4941294439833213,-0.4715400424862448,1.2600724643147108,1.6390338470840775
0.6658214915396514,0.006111029589640493,1.297638963663435,1.806195300703875
3.5663083748069253,-0.6457562732732198,-0.12468146511318534,-0.3563626514983712
1.2450168863784117,-0.18419753927214255,0.8204852878028275,0.43945119763123164
3.3825242536163405,1.3155369626154778,-0.07187670817873326,-0.5636324166730535
2.3932927065422254,-0.14947297102384138,-0.4183542958566481,-0.6482033651826101
10.810084216815076,-0.36032084977786205,1.840058497186786,1.7482541362745576
0.18440828077087956,-0.6462947678196556,-0.669513946510591,0.046641283874633066
4.1455610999556125,-0.0374448211011581,1.7481227712407588,-0.39797856155771305
1.0906211866927995,-0.3159210469715171,0.23010325510546137,0.9648864836652773
4.1777600405215845,-0.6374018391203251,0.8467403320175486,-0.3087451630700915
4.50970100334905,0.23971699819369685,0.22638475578004713,-0.5270310513433611
3.12515799005868,-0.6648291190455011,0.9452427115641568,1.7170679922944183
2.9742927783234148,-0.6048659061414818,3.7239248032173453,0.44156879350801415
0.9716386390939262,-0.49995002319486737,0.6468169704948197,0.7706476139477956
2.457802013722909,-0.3747928146570235,0.7684659733130512,6.476258629180128
2.5438494353493017,-0.4518419382441625,0.6732814591500951,-0.35790414454548447
3.26446980952755,-0.17982836267085556,3.4287187649223707,0.5140160636186746
4.051496151753396,-0.9124668166120771,0.7801954334509933,0.13115310496003296
2.202184394908968,-0.3385686660186372,0.30785463870963126,-0.44585463827248906
-0.11164234000465278,-0.5796176619560537,1.8647217939496112,-0.47447057145059657
0.29797364319270825,-0.955345626514233,3.163916339847005,0.512119991700547
3.181225930806666,-0.07631414442085382,0.03042616963776945,-0.4197039770471608
3.157691778318834,-0.78070577409779,5.799756924916203,-0.18699248975533533
10.400902246608567,-0.6387668063634686,2.567545406986003,0.19416967909902683
1.823275004467272,-0.8531566993786421,9.805607402116504,-0.7063976074391966
0.35617678214626713,-0.5372491392270002,-0.7815000139122856,0.19619781458397
1.308782419324161,-0.2671660855291864,-0.5992129010716469,0.3001580639057353
1.4071587769117984,-0.3154381867859478,0.41626454092336185,3.003839649700091
2.8866599916719937,-0.2744629080035357,1.1977662050726217,0.07778170624423986
0.6682576223826744,-0.7597820231579833,-0.5613822351896058,-0.41253379044468785
3.120756536316236,-0.613383722202806,1.3864250345708253,-0.07230021384822627
2.1245003062685743,-0.6372585233724315,-0.21753809241342204,-0.26381794521556823
1.9911477387247123,0.29836541442141606,2.119195457103973,-0.232413011799542
2.584486609764416,-0.3107429347857342,2.8497799237818078,0.3438674926426559
4.326353811233921,0.30868119360179347,2.967725695934452,0.014244305579288019
1.1885996143396191,-0.42165789693900946,3.847747625003402,0.678620406924296
1.9942360222678377,-0.1627824575569894,-0.3452854105032157,-0.6005199945562644
0.8988215421336547,-0.7244507774017426,4.051801596476689,0.10195771513895013
3.9534354085660697,0.043390609126698454,0.6293006220809958,-0.23062751926456726
3.2168582627481506,1.0031243353946313,0.5061432391705791,0.4069948683990954
0.880270111190466,-0.43950089268193815,0.7948674617643883,0.6061813955270621
0.9438705263931275,-0.7126206840056899,0.33209681659691426,0.10903106906603455
1.1077232675316742,-0.2971310848968174,0.8027699713233092,0.08570039313925149
0.5686920226464616,-0.6368622877118707,0.07831849717600425,0.3281763238623612
0.7034274620682874,-0.3684346188402292,-0.19660443882805612,0.01607336683695837
3.9307330285937763,-0.6597615880683874,-0.10658923908909534,-0.02289639782134023
0.4896248262479561,-0.526841450178958,-0.4089735639958382,-0.1516780281893143
0.6512254717318917,-0.3594707598852729,-0.29608565784979124,-0.6429968108401807
1.1748000825744982,-0.8172294583074108,-0.018378812311013237,13.815311484108188
0.7194117992709512,-0.5183384164311753,-0.4670151093808885,-0.18710421515470876
1.7267619107095697,-0.7228206462895324,2.3525644437770663,-0.7798035852360318
0.46562510734164375,-0.7526440421283586,-0.0327302504536886,1.056022900853383
3.32826607202282,-0.12965089896524573,1.1813608053309186,0.5732557349008387
3.629569387486973,-0.27377001833207704,0.32724942323158546,0.06753581352185312
1.5072421004705587,3.264216949080054,1.3067986049807292,1.603951796117597
1.7864390068403253,0.04601837954343857,4.197549110130702,0.011221556853480585
1.5567740119099276,-0.023539384574513766,3.5365560165075776,0.27078729760395537
0.18640456889194645,-0.2622327598466384,-0.018087581754251625,-0.10456475683046385
0.8598267472022183,-0.5873539179642244,27.765010033044383,-0.5709867303613927
1.6954131939306145,0.09788043704315097,0.44814574371067417,-0.14203936363889624
1.6187346431372478,-0.2294187353261885,0.38256869522436676,0.002042612284533618
4.34548107880084,0.2635845844496625,6.50000937293503,0.4727933566300446
0.16556308320619872,-0.4847215042512044,-0.38068986965866136,-0.6115969472273762
4.7545811018064725,-0.7068544906345984,0.8644644848174126,-0.175806268865364
1.026741218493847,-0.0707388969964946,0.7345768120846528,0.7512571194037381
2.79886909991603,-0.6835913639694262,0.8799529456006241,-0.5803347543475204
1.2487299624998336,-0.30287549499430466,0.5260915490333595,0.8950381285394948
0.4265282376686128,-0.8494977795920794,0.7007527133712572,-0.2620246257886426
1.0384852108714164,0.7479327966394631,0.7250605960875716,-0.2585181220557591
1.0963424222455092,0.5109186068438085,7.327615934714325,0.6349111678400758
2.951514041756386,-0.17865249938155014,0.827933545788258,0.6848708688327865
1.0261353325982236,-0.8566959664396736,0.8009106452639836,0.34019567515694127
1.7738381575431101,0.680036991320379,7.466162111339271,1.1208498686615012
8.646563541556187,0.1631371026957591,0.28631528841847764,0.14329913051374232
1.7606443110163488,-0.9527167254359961,0.5093984132374216,0.028957758566291236
2.345059307613091,-0.584257577114458,0.09761682828986906,-0.2839092567459165
11.61977741706878,-0.24976685926104392,-0.346328881096048,0.02348013609003008
13.391944474620619,-0.20998833507170445,3.2888512453246976,-0.16402113437561539
0.2294150083206956,-0.3450574009363603,-0.3031291690477782,0.7243920429407198
1.4430508414957877,-0.47750106136433157,1.141229192059066,-0.6820781202556995
0.6941258396018921,-0.5603575442184249,0.9910628228159755,0.15934673796154386
8.677859360284545,0.46989125628726214,0.48481615461565153,0.22340852592697957
1.2206239546962707,0.0012871287853091218,1.4376443829058796,0.46027881810791205
5.488334205641821,-0.2988352717101621,1.0606417307686784,-0.2429211534567225
1.7209814670040835,0.5738596365405226,0.8869281713458101,-0.48499663154194483
1.9679158445638203,-0.6168772105700855,-0.3669022558184155,-0.7239168827130151
2.65510785866126,0.33083538583733296,-0.3347634867932239,0.19220494876052285
5.944492707977062,-0.926547369008064,-0.31499702975330324,-0.6942453984661784
3.696486609741317,-0.3871694331534774,2.4201623621223476,2.0462091401695623
11.790613911717294,-0.4688705349147083,-0.2999633205530696,3.354749730226496
0.9552550031124598,-0.5202879019421607,0.1496731313350248,0.43380052165396665
0.9500485707001298,-0.7590158254374275,0.5355966148525861,-0.44052776899122326
0.5012045333463955,-0.5294358023785166,-0.37338830557952674,1.4527606391007906
1.6773382939320811,-0.9086285802752337,3.4426272968884524,-0.13963389374969148
7.447409535535918,-0.19331871498922137,-0.1377647980369141,5.4394974437859815
3.415512795898821,-0.5099971811536231,2.401703267672719,0.012843213134354103
1.3782401851252728,-0.7541807697705757,-0.48905329608152004,-0.23256839804674434
1.471502505924692,-0.29148313928452385,2.665768350213991,1.4769920675993373
0.4835329943271225,-0.735088452572725,-0.6753533248162329,-0.07389963169589286
4.223341249469061,-0.7814499650884017,3.7607899797124302,-0.34763401314700304
1.074300822792022,-0.8133146063625543,0.8124573116415319,-0.13823177670168263
0.13724426069623163,-0.6694794431556279,1.5156459021157107,-0.7341491711037469
2.0387864339421102,-0.30338076862328933,0.5154011476878635,0.2355699226214587
1.0218229076109475,-0.28388514627719397,-0.21093573640121743,0.632438597569329
0.5655906497461127,-0.9596910400694211,-0.3727087226871111,-0.5832042486435092
0.6235822380864151,-0.6698756187167423,0.019131917246887342,1.4976355063963633
0.4542365270273099,-0.7361540510886224,4.381569986350641,-0.23951033207739225
2.802383208725299,-0.8663042319398601,0.99562194099728,-0.4237121674601566
0.9825810413563283,-0.5851111409866845,0.2964793111202739,-0.31969313029252444
1.39276968378842,-0.35567675898521944,0.9996291590480875,0.47797290019297933
3.01024653360722,-0.17216468540449326,-0.4758915825488643,0.6798866001707293
5.477280716427645,1.4348372520873833,0.3031533429409732,-0.11407364417803822
1.3385251335239303,-0.509355743993356,0.7714813092224797,-0.059668803466519926
0.07231975490143383,-0.6330245386063222,2.0758345821542923,0.5501013478203687
1.220398428082448,0.8856814908578641,-0.17325330069903644,-0.23316152753091757
2.057120525216997,-0.4099816640406212,12.367106149700342,-0.4680453898551672
0.6781626544173016,-0.39903306185456233,2.931653560355771,1.6975679609422496
0.007053621797366905,-0.2453801081170498,-0.36466223876601644,0.19167929799389039
1.4613955205466302,-0.010539182145898773,1.47985664555367,-0.09154923833289608
3.715682392034809,0.24004735441019998,0.8942418227686681,0.8562094225856283
3.559813008432476,0.7646476292802715,4.182048985521298,1.0511834859691165
4.0685414332898775,-0.656817317880989,0.7581764036165246,-0.054818061929575834
1.2119638772110348,-0.10478457251818596,22.441562629541842,0.14206101749446653
0.535449882902248,-0.6976665248944036,-0.27565420827769593,-0.5444500731763648
10.27761009654011,-0.2340595068622594,-0.28097005176370593,-0.32281406596963447
1.875939368209678,-0.5564007815708452,1.2462050071779665,0.06547683669719273
1.5740518630899114,-0.3417514675268202,0.48482952222099596,8.51230511943253
2.0180120230776417,-0.21625484614315982,0.11291989546266423,0.6733850619029089
1.2794303800532303,-0.7135063765424476,0.3306283870620059,-0.32524834250041845
1.1037349872965403,-0.23988706948031124,0.18885469203516858,1.3790379654228966
5.877755674604731,-0.6119760338788738,2.288174339969672,1.4803509574282199
1.0507633889392127,-0.42955635139571435,2.2629334453551686,1.7628149345539388
1.5734989385925622,-0.5520726408677659,2.7459146594326658,0.3793366404353744
0.4825695755001005,-0.7519459255310849,-0.16477289175650756,-0.6236201996022666
1.6319865103129523,-0.44780830818934625,5.339928150612302,0.07013551392293316
1.7371745788437263,-0.1638708418402931,0.2743974282390833,0.2207588427679481
2.1468743997797364,-0.572603788160885,4.132977286712068,-0.4291049165278328
3.8025235098173127,0.18081600169393286,-0.17257142188639207,-0.026195359713681254
1.249623394969123,-0.7455678629089443,1.0557133227851918,-0.8246004036062515
1.8524863157591867,-0.8924104081556138,0.00026893961962470847,0.5168557553493576
0.11968878705505359,-0.24699128413082316,0.6319884082616587,0.7617167797248723
0.6825778961541586,-0.24021439549598445,-0.5118329957209855,-0.3498929053066361
1.00244673804383,-0.5019056001837298,1.7349289110855088,-0.13001715987616413
3.416044681556312,-0.33868063358012745,0.7426004121109155,-0.299611830312968
4.310783061804653,-0.2999162255805661,0.5569819516051042,0.19139849805348597
-0.12927496051991672,-0.7465057663864962,1.1768034174412634,0.05943180916790425
3.3699689479924047,-0.16204711751061385,2.2431449499436846,-0.9520828913075828
3.5086481569626526,0.7922176095231259,1.2270371356052974,0.12200847469796927
0.7835842140580309,-0.37904508427847605,0.14467771717793476,3.973132035267766
1.0600145225154964,-0.585545662008178,-0.18518506200040252,-0.6541220795301639
2.565074165842568,-0.202607202531497,-0.05593530349833076,0.38329254226117326
0.707640796536362,-0.452961291645542,-0.09053234478153571,-0.7503409927706021
3.1921054099950616,-0.8600083122275698,1.2003213286137653,0.9076032329868235
2.9758169031905726,0.3876312677857674,2.273338345803675,-0.6283297797364198
21.894822542924533,-0.8040333963471407,-0.35086722493139155,3.7751393232326613
1.8311080649604707,-0.32632790585360405,3.9582864315987054,-0.3898497061572489
10.934875513795111,-0.5289643635676935,0.1291954874050405,-0.5761441709341746
1.986548925517087,-0.6052492579471478,-0.7570803219173113,2.445519595377142
0.9716598940896977,-0.04251987532360857,0.9582515847410726,-0.2791727505429097
1.0951246598826971,-0.27815775496660144,-0.5196120944618281,-0.07585893907513375
0.5243056158270056,-0.7160646424371737,0.1739396584612647,0.43219338972787513
2.0941318990988274,-0.526943190640009,-0.06210187685912005,-0.5173046047566923
0.5813352670172038,-0.8109034590447973,1.208434214566616,-0.012926462974687802
2.1619658600287126,1.2172354972061616,2.1967016477775743,-0.16731651040067952
0.840303607428766,-0.7997344173074987,1.0960974886373576,-0.455107553096617
1.111406081590026,-0.7929144219771302,0.4614473110170636,1.0011646808167058
1.225243603882681,-0.39296424639356153,2.0668780030559426,-0.05188801696370693
1.5983259105519796,0.0653878056017585,1.5312768181501908,0.3413004875327881
3.4699230660137124,-0.4015317982577443,0.44008627720344906,0.2071094639877462
0.49401373060079967,-0.20651410588012642,0.6948796754012001,0.42802014449567993
1.4124477504478836,0.25952399206765997,1.8158830055992312,-0.1175754285452777
0.2708339387409757,-0.616906611652714,2.464055663765252,-0.06767731863367854
1.2536564179952894,-0.8290101296551475,0.3787533404024874,-0.20296195488998225
1.5645470274356015,-0.0789831158625256,1.0645711229788937,-0.1878968637091475
1.715643032431319,7.778178680115953,-0.4348074061760836,-0.8252356542849522
68.94954840500192,1.5997810561545087,4.058992218170061,-0.17881724292893553
-0.02698024727488668,-0.8784649199243801,0.3668779832060558,1.2141633624810653
0.8771561590963479,-0.6355113197918756,2.843695693736279,0.31973634693460795
0.3508688168176344,-0.5570628546820581,1.2434619376998852,-0.7346202135497542
1.0980433510222145,-0.18304333025968933,2.224600844434186,-0.4922216361432581
0.567763210016508,-0.08898708253249688,0.7198503465322799,1.0018737242564435
1.2630162920041883,-0.8335167975936978,1.4778425029507969,0.14728940026415982
0.7984293182043642,-0.48359165311348973,1.272771588496353,-0.3741387694822609
-0.02316098630275243,-0.6016880570545742,3.3032833212041144,1.1821508955421645
32.72043435170339,-0.4720950908329531,1.0993581721963337,0.17688594827760284
1.7275573170067688,-0.5142373843412406,-0.45700601095162086,0.03808538182532972
2.0690290845787818,1.0909702415311018,1.7044952764222594,2.0854824697135386
11.189737969356504,0.004051756456427524,-0.09685058860094697,0.30015694498682177
1.3756748722362908,-0.37647017572828245,0.3447329548975946,-0.30384080467920305
0.3823141736405946,-0.9107420518547057,0.39628203302241016,-0.35928462600953015
0.6443859109777659,0.1125300916281693,-0.5463191854555258,0.1552481208454286
0.3486379529306609,-0.8254979900292827,1.4325436504276614,-0.6860079811419975
1.1719171783318547,-0.8910275583305586,1.1863490614670682,-0.3296641617910009
2.618398866884939,-0.6542098958946507,2.362872798952453,0.6155471586504868
2.9742232976005964,-0.4585033049071754,1.74700280540756,0.43523671112320916
4.3000451394919885,4.749962557910895,1.4854800787540627,0.08615673603863128
1.9654872790016888,-0.5376851611044089,3.87360930267442,-0.26820720797047115
1.5245227789719968,-0.9432550628834534,0.038607834291364274,0.20914770163332608
0.5916318470448367,0.08501338201522146,-0.20652083249284314,1.0170202820577114
1.2119033501092686,0.4539788105833853,0.5138347584882934,-0.1812206328551752
0.58286638507972,-0.48996842505508487,0.06399051303300585,-0.4177212666858925
2.47114625151244,-0.8907678754210037,1.2180258077216064,0.5911727791019528
5.828422244786263,-0.37590200776097404,-0.2623529720895701,-0.4828323514349103
1.091870716012051,-0.19455381921847237,0.1954231056549225,0.5761251766284885
1.1678367466308086,-0.4984730115249094,1.8755973821174985,-0.7777956118506448
1.5297698596897114,-0.6475733319306604,-0.5931723043308457,-0.5072393739822456
8.76809581460898,0.03251446529673463,-0.4707682846207851,-0.4449386481311305
3.94342192549838,-0.5317203977883808,1.757883888839574,0.3506868066470097
1.3927261218706075,-0.8467271949738171,0.9564829359544222,0.33079037606806283
4.970598701885517,-0.8564812040241352,0.24348814257800777,0.12906792264731437
0.2851077460450695,-0.6076290931718478,7.871084823857778,-0.9004230994141391
0.8987693819729097,-0.21628403714359523,0.5580115963293695,-0.16649470121968424
3.523427585669932,-0.5367105133076822,-0.5182080470270201,-0.11422784178343803
2.192596344870403,-0.47988830113845204,0.5979953369621582,0.8274497679156962
1.0384577135765425,-0.8343999285326834,1.11841320165709,1.1851748734313645
0.5658479405182295,-0.6722869545547336,-0.19318522319413245,0.9211405848939671
2.950418905680603,-0.706257043301868,1.0447534489358823,-0.5312411537148067
0.2322941732277688,-0.6695139365045846,0.07241470256061433,-0.34863676725512616
0.4336124656338247,-0.44887184113485246,1.2629247832784758,1.017112694260367
6.074990751828738,1.8279579511781234,1.9780976160223203,0.6924922365992683
1.7080820275400903,-0.1242268961253351,0.6586889523813542,-0.2372039250707365
1.4042275189352598,-0.43933076083518086,2.177626812446141,0.012923096159306535
2.0251053463825013,-0.5795366848974427,0.048447336750544245,0.7182315052423809
3.353614350807793,0.9780439122765734,-0.7347644745189829,0.41784274327975157
3.9272180972302513,-0.9915256135705734,-0.2713761975662857,-0.06071427834652077
1.3139689870417532,-0.38874890986007116,0.4578633767355569,-0.3223587881957761
1.5344633382861441,-0.13778100398147297,0.34769743805360753,0.8588823176323805
0.6680232720506121,-0.4753234343481687,0.5721663743453065,-0.5663037254450258
1.1632140614790898,-0.5905939656016437,11.432254315897634,-0.05521484295489687
3.3418518556469907,-0.3750751528709737,0.3065850644920227,-0.3216922761417531
1.3655578890768094,-0.7608809425656664,0.8682140117873882,-0.26382231016285906
1.5228701007932894,0.3690517938994291,2.4134748333937766,-0.16553507292868253
0.02059866434377433,-0.5319093336214791,1.5269224081274144,0.8235990812776852
2.174409893306025,-0.6713109067837921,3.039941900468378,-0.2374088265818396
1.413059294925754,-0.7020908197173703,-0.18154963237493804,0.25993050933353756
0.26321007816958053,-0.6451603326849775,1.3684378124375631,-0.7126924789928807
0.2775420943795246,-0.7160328699460747,-0.23239395223238368,-0.05884214408443689
0.802470261370698,-0.6556467195025453,2.1110550320353427,-0.5672679986513884
1.2998789121152319,-0.13541307005768133,0.6610604880482012,-0.05521306126589154
2.27799446120458,-0.6914452483196933,1.141021877843603,0.31395916236021804
0.2754856413120266,0.25243272044758647,0.16220363736942556,-0.04882306880933629
3.5524560054673424,2.674146859916976,-0.12314585455255667,0.03248568049810574
1.536711281039135,0.5331441227668252,0.674096840179224,-0.014826625382163616
0.2545432356330266,-0.8943266028472776,1.1556687739339755,0.20099572212010242
2.736619196575313,1.522954626856306,-0.16269827466460596,-0.005388473055718768
0.08469431171927067,-0.4376457586112873,1.0258254989111442,1.313833037925586
0.6205282310376115,-0.033291320421044435,-0.06006885369044679,1.8029749539946085
1.2526697149178645,0.006059521577308713,1.027091566840018,-0.16943469561718583
1.9618422707141403,0.24138860961785036,8.885346277816016,0.2453863063583972
2.239042725178635,0.027978646441396027,-0.01883236541191169,0.6709883320058136
1.056869560847296,-0.5948913733576965,0.7909082712568458,0.3848690471365006
0.680428835196581,-0.860900520907004,0.5352072422820098,0.46146494536866123
3.4000033753066763,-0.4740972080395508,1.240658327581627,-0.13052697301061855
2.2326765966555118,-0.7893961509116739,0.24610070656729266,-0.14807574824722747
0.8409228478031621,0.07798968435648979,3.3684243750465557,0.779454076771539
2.482446229466381,1.693322489262596,0.26847789529990873,-0.3146382148698217
1.1534661553427243,-0.5992044702732955,2.203014337548521,-0.349857794313132
3.6823290331667593,2.385649978177205,4.2351167460685915,-0.4788278935599666
1.2164625471905501,-0.1920123660219779,0.8086626377499024,0.9380182782563533
1.3170571548159757,-0.38709237767328986,1.2710687080034058,-0.41487378382159323
1.6275773688706008,-0.6314727536454178,2.20623752367106,-0.09628097024145843
0.12740669534096916,-0.9810465653729598,-0.16192970784200178,0.2938862579664978
0.4831555570475914,-0.4585081412006038,-0.4616711444756254,-0.1599481145416114
3.5014000415384388,-0.6282747618086107,7.812323654463819,-0.7182921535649334
2.431618226799332,-0.7102434962173143,-0.2082475143184469,0.020602011033564516
0.7638711130811036,-0.49391056987920845,1.2134094830206306,1.927868823059181
1.2785916215833764,22.12022111601292,0.6447525495291222,0.5148315057731716
2.2909352263822167,-0.2853558006148338,-0.35277089538045947,1.6954423376893475
3.9745477446478557,-0.07882450608721636,0.32058478473657637,0.06085615220585372
1.0477742167488278,-0.1909119438418575,5.57940078253415,0.7013236914047789
14.309779170043175,-0.2691566958291485,0.3676447256363282,1.080983472390221
8.854663342006633,-0.6197310819661017,2.198325212475361,-0.40355951134900325
0.18288118516482776,-0.18783221698063868,0.7210809129272935,0.8602270947656667
0.5587604350938371,-0.8403895225546492,0.28195197634194424,1.3176037200464665
0.752775398996401,-0.8499578645100461,-0.23127361734092822,-0.6750759385106495
3.4405832424160696,0.00882360696007578,0.37340200653149913,-0.05485651024354332
1.2674160091115363,-0.2116420098842141,1.3622174332285075,1.871291132466573
3.1767967497849483,-0.11576965401506112,-0.004714482639398665,3.4054259947282635
2.2492207655206817,-0.7227093246663501,0.36093598011053674,-0.09386615191744041
1.3676984518824926,-0.7459246675979001,0.08509416267351377,0.7412431345508459
0.735261421106409,-0.924191470808979,-0.6377869967192236,0.02557606185627792
1.1171496713153717,-0.8405096360179742,0.4487873260493387,0.7159974842759753
3.206464645612776,-0.5395170927260224,1.2437558923445153,-0.3397172933548538
4.696326179198712,-0.920975227126127,1.645380990255449,0.47847163493574896
3.960722723719104,-0.6450085245312277,0.40342696873659545,-0.7043902022736817
1.3516834866215865,-0.761077155135963,1.7018249579652096,1.1813519382367894
6.42989590692053,-0.4471371177593054,1.2262995522916182,-0.31568111697383905
1.0076659522419984,-0.6164751508715934,0.32460534949844044,0.7248739927807757
9.770345526041085,-0.21574271413101354,1.124801976298004,0.6861406428022141
3.6982167986762517,-0.32582482846381333,1.364182755421862,-0.6878303381957217
0.7989933613865041,-0.25632818551374537,0.22569682886831255,1.4276563171599999
6.514894144419022,1.6807906018478893,0.0001263441410357391,0.14432285872529294
4.300345098942367,1.778403532483102,3.90337587002435,0.41604655340438335
2.2223213473883026,-0.519778503342168,2.7309839198206345,-0.6194299645815745
0.7779481362331451,-0.4940843834818137,4.5938008376706865,1.2863042689906274
0.9503945341959241,0.21425668800786446,-0.3464147406306788,-0.14772871968082524
1.0708573453466088,-0.44734664672792146,0.7509115242360784,-0.2809707341887824
1.1861127833999938,-0.20601520840446574,0.3793517604345149,0.1109431766814497
0.7084411534954971,-0.434714984600749,1.3132888006005703,-0.23639874971136843
1.759280398853396,0.2354328608658085,0.12887056218290294,-0.5958477947851163
16.692406432125015,-0.6384370910194724,1.0421889382551996,0.016404384069242495
5.924688358287433,-0.12245844979710674,0.27630148160051604,0.8959403294340837
1.0363009906351053,-0.08906297415707176,1.3832807880106484,-0.22936502018411076
1.594364048505342,-0.4069870773360599,0.3740272013233099,0.23915297314808948
1.0279736987482524,-0.2678771368449141,2.311491024922305,-0.34056290233964925
1.5626963825932392,-0.12623866243879822,-0.4122352678404223,-0.0034563107019833783
5.363432100517341,-0.25033488407165905,25.48161991234839,-0.2317798964011064
0.7690591628848529,5.856076175688821,2.1129609284478357,4.177163058322995
0.9787407703249458,-0.3881228257451278,1.567468526210957,-0.17545393273843646
1.160999426631593,-0.711752382548803,-0.4874543993341056,-0.5411612373625081
1.4097229599487018,-0.7879187941656666,0.10238951239279803,-0.47760179619891874
0.7616196297905193,-0.6889403604055258,-0.5373900690095167,-0.3152760961222202
1.777164187276469,1.3087648070231146,0.7375073176442328,-0.2782521117265764
1.6173564099065652,-0.4566583831721298,3.4643738108928455,1.9196543823650942
0.6890329064678757,1.8891527853457228,0.08949888259938366,-0.0882467374455983
0.5736061294644899,-0.5185155042157292,1.625225767553125,0.4588920519670314
69.76504928414315,-0.3823413072083176,0.5491705249040035,1.0525432097101328
1.1022537243560193,-0.6630950896224375,-0.7408842647554466,0.2202531627906481
2.3561809472686313,-0.4120573956451249,0.22450959210994292,-0.5500778668499435
0.6644280952729738,0.19095898640893072,0.5695121203260509,-0.12940847188522775
2.9971274548299096,-0.6085077211588144,-0.2602846222783435,-0.4277324104302156
0.9451346452366953,-0.7382415192583569,2.184068675229758,-0.2544040279299563
1.5665060809927658,-0.39648700047268826,0.8581472832790167,1.2405368076121515
2.2065564106144815,-0.3032957122177635,0.9389297839860247,1.734779142410352
1.074451730732636,3.2562516291059405,5.920911512664246,-0.5635095050951677
1.826576211823022,0.25044171053808806,1.0922619285837163,0.0361714357863121
0.628551477545682,-0.6489838450509219,0.434633470478611,0.08443419230901306
0.6848336868036016,-0.9385901008382975,-0.21631315055193134,0.4648115272444364
0.34231228328032914,-0.6842265498154857,1.9663973455261785,-0.22998642826215832
2.7618704813882093,-0.2474421052387059,0.0740564555639589,0.01919315617495765
1.7489674575233551,-0.6087045481845687,0.0862903060554665,2.8399343529725583
0.3682941120574781,-0.7440830735498692,0.8030757646091695,-0.09345531697179199
1.5152768696343126,-0.26503626038924777,8.868678370219223,-0.16027999441069185
5.579406683333827,0.14416178284787495,-0.4019178575517254,-0.09994656328894425
1.2077993688664934,-0.5741297089775221,-0.9528629218884679,0.3307674105426852
0.7827679146474087,-0.6514767477661231,2.706732870674863,-0.17133972055561653
0.3345142533522705,-0.6033917782077101,1.3400580540461435,-0.1476258661363833
7.088108222867126,-0.3250624269275225,0.8841855739308775,0.32128521987341996
0.6723715254768965,-0.8564213195421247,0.9871105447358592,2.5766228134316678
0.7632088725786421,-0.45102247569470444,0.4258399466085212,-0.3230848804359323
3.776508579764613,-0.5568114156454309,-0.13275138518520635,0.1415251488243412
0.7407531667340044,0.3487902023106575,-0.08814165239745575,0.47232151062989036
2.535204527682851,0.03229329039189999,3.9117037591783923,1.7384032829837293
2.48793033292305,-0.39580427084108627,0.19454864914627867,-0.15453147517204502
1.734782976845115,-0.20898755876598474,-0.7867849272989466,-0.15225200679224093
2.9951590621311897,-0.3126209886378991,1.8754340850217743,-0.44523928194044526
2.0496535192522667,-0.4233833813019424,2.0422424297794213,-0.10584405989475432
2.2772055440231282,-0.5321218324394541,1.314324792907355,-0.8766933585072967
4.770063326961901,0.04915634366708388,1.7853660453572808,-0.24795474897244074
0.7333493767578811,-0.8168998571559322,4.561436864134687,0.4793371155340487
0.586142897984286,-0.7514962802684427,0.6904070431587994,-0.48477568785612146
5.391258414175278,-0.4242695227083474,0.8389543751975801,4.894179037511423
0.3999422142720399,0.1781701332727068,2.4471163176542925,-0.7785130429034167
0.9518420429407313,-0.45232658624246713,-0.3370354323387982,-0.22911415038243033
2.2700445619367,1.687424600903666,1.2830140278853124,-0.22548475050562844
1.7425088576406127,-0.05094688107309975,0.3175979205794168,-0.27628330335146134
1.556573479939901,1.0037564200179694,1.2187522177546866,-0.5001615036697624
3.474554660021309,-0.4212420556704458,-0.17721393914833095,-0.017303125062915203
1.3586529231655509,-0.4232936525212935,9.352862154765997,-0.5219711285337256
1.364314719219363,-0.46625583120276004,2.445930550509363,-0.03979157902440733
3.0285127337618967,4.120901236104597,1.2590771534053729,-0.4558002163434902
1.773659640031517,-0.2001299822484448,-0.5539622124245378,0.10449843093185529
4.865886821350848,-0.5329484996107179,1.8877336067111474,0.34727560766638876
0.8286287876473781,-0.44298951922023566,-0.5687027568144665,-0.5183986688402287
6.265374842542913,-0.633076532407721,0.20259759746302852,-0.2047693016927189
0.8702733166173686,-0.9159063745951294,-0.2844706833582695,4.219492839683218
0.9503100844672507,-0.7019065420731658,0.9486386174546717,1.4060511476513016
0.3931218125220022,-0.9678087793742348,0.9136036145949287,1.4276264664468115
1.7297665406361329,-0.0914896851078737,0.47994153832369246,-0.016185708788632458
2.564581547713389,-0.4703233673674718,0.05484442224614239,-0.19621446795151998
0.30708076998184675,-0.6792131872825224,0.5509577325006461,-0.426179632472685
1.2476409412889429,-0.5524616961422755,0.49916831239354265,-0.20785405870013185
0.5993571441531205,-0.19213534575348634,1.6321569969238858,-0.3742982716519252
2.4538432025504404,0.5472767528949067,-0.31700434760185103,0.6495213328925331
4.578900190769529,0.014213958166058305,-0.6792683545925129,-0.22069680863509666
0.7038404946833579,-0.3094341740593285,1.9273576405474717,1.5390030280064857
1.1612760512130995,0.7333313935551982,-0.5259641520510682,0.5660789095213781
0.7517092201874465,-0.6626655478866139,0.1648405844421943,-0.05135582950041373
1.0220418729016831,-0.0007428166996087393,0.8767831929647767,0.7503063789146849
0.8354033241663568,-0.1289130966038784,3.775425066602045,-0.6846114110357784
0.7461662647942282,-0.30914718396129226,-0.7642634409386647,-0.7725624721823018
0.5883305256844791,-0.15950588398365284,1.7238337307447522,-0.13203267219964065
0.1448460186370153,-0.24775655109077188,0.151924358846381,-0.12328182882867433
0.7547899768423982,-0.17876893040927933,1.7024263651428537,-0.15712911830471454
0.6739460742728667,-0.2913745557730283,-0.263831323801634,0.3146126664736313
3.2145968884975193,-0.5136588729535879,-0.5859672119992005,-0.22822064303276912
2.0284395139062776,-0.7838611580139336,1.0153906510072233,-0.278377768843882
2.1695613378573877,-0.3277912866706557,0.6057476537587854,-0.11630533253305753
1.1374486054171475,-0.5823046679300439,3.951757133058564,-0.13293299568498151
13.282709060746878,-0.6501445798096648,0.44578523020643335,0.6764700474240832
0.6062255916591142,-0.05930087457352207,0.8514081433105438,-0.351049904112826
3.083866860615151,-0.8897880518572339,0.920783657540672,0.1727786440838579
2.4673215747803443,-0.643393131334125,0.3831839658882683,0.5551310231269566
1.4666332043995625,0.6488372530805904,0.42633374274490987,2.807794585102174
2.0692894374702786,-0.7949094150442715,108.06664715353182,1.1970917963517467
1.2523522746066993,-0.6965736268624139,1.7762590838670484,4.407826105492899
0.5037660615253832,-0.7920155195391947,0.1523077529930854,-0.2260022437725432
3.6192316993735316,1.7529544817773655,3.0912679983067566,0.01939673744459025
9.766788766679273,-0.893837256543936,0.7869800519277004,-0.05838503233796288
1.5676848369392617,-0.12857332732164262,-0.5857268465584311,-0.38716411908774917
4.454750318281666,-0.1566254646234313,-0.1391229864774487,-0.4284265444967138
3.817301815999575,-0.2095819241768998,1.7042203176034114,0.07677462272220525
7.966774995348128,-0.5765413841860179,-0.14616869362143647,0.644030352348242
1.3384128853577124,0.1334708447729691,0.5357656025416826,0.7288017455035669
1.418618513082614,-0.626038488713789,1.2105165405584022,-0.35460003533823425
0.43719927764692446,-0.45022245267368644,10.546765485070566,-0.5609962783572326
0.9572571964943233,-0.12521417582479144,1.4616225653632133,-0.24120044591213774
2.2328303540126333,0.3095518453075208,1.1315951051181221,-0.3299643810640226
2.5208191837323737,-0.3857665938035979,-0.06352173898110913,0.26357351354837766
5.167888051551244,0.7157636977705875,4.042312300798762,-0.34315382230631253
2.742843661460284,-0.2343987100056827,-0.648737517158029,3.348707448685137
1.2200109743440453,-0.15798322704361445,0.78797489044327,0.11317679355108456
1.2029149276328122,1.336863210234983,1.060002035996222,-0.30405597424326436
4.188744927063402,-0.841838576864994,0.6256822556249939,-0.41669313650912754
4.015848075969886,-0.49869472182198193,1.3245834689707405,0.022521208872037235
2.290676430154517,-0.5246333849884517,0.6735841860353087,1.8584935499809436
1.5577829232799911,-0.7573620329846213,0.16291066342396032,-0.023572747990724507
2.843062942266519,-0.5347348401531116,1.4364129674705808,0.49006671366372645
0.7964577184449773,-0.7567972970612091,0.7007270388038567,-0.1677005635694485
2.6881248244635816,-0.5617372158220572,0.2732552475617258,2.133114190453814
3.23218666974174,-0.08776265263930538,0.3856865759108523,-0.4441933602577075
1.5292879844203675,-0.5863640034182527,0.08726528613847395,0.2313208003526761
2.9422191689782773,-0.7435342052586811,0.35535248458042257,-0.43283475424407014
1.3318225208274965,-0.62441650767628,-0.06346789019036059,1.4500721966101557
1.4408676992909308,-0.5246700719152326,0.6648177652667357,-0.2111884904264516
7.8046074412537685,3.2577034162440253,0.9276048016602034,-0.2558413643837849
8.547234714034797,-0.7280935402023179,0.33609652303478965,-0.45226849038740047
2.858530417165525,-0.464345320834495,-0.16929257431574385,0.5861345420243234
1.8271765107838798,-0.7972159260717679,1.5640158485021907,-0.20230941210394793
2.108233582916058,0.06154206036358856,0.23137757540484394,0.12477943882743636
2.6824829279924405,-0.3530609178620585,4.369090264740004,-0.3912340710547242
2.574607553634568,-0.6181107950324087,1.491466739302727,-0.10381152021221551
3.0458859825269533,-0.7526167596886382,1.2113435350236843,-0.8309280363034659
1.8439015786237722,0.4240085576059549,0.596479112297619,-0.7227521831345067
1.9901714901778504,-0.28687437309669206,3.6229905023162114,-0.4351609127075572
0.7041307054484653,3.0525448928661234,2.544895347235519,0.19002907733872876
2.803937421258815,-0.05736914908625668,4.327490378093021,1.0436975902766674
3.7302196921758846,-0.7326083521098226,2.8452099253907224,-0.708239882798531
1.9498963038836634,-0.7439572347121342,0.8709191904009059,0.8023253013323028
1.5143929917931995,-0.2920164931118209,1.5506040168393462,-0.3499119656957448
2.1960643212663835,-0.59098054279512,-0.31772946952616765,-0.500047611661369
1.724242213120574,-0.6375765296848499,-0.7798651877270567,1.124549225016692
3.9986836907744,-0.5629058921332702,0.3227473821170348,1.2162177445721767
3.1101926442676984,0.1807109283650954,6.1853541483559455,0.7162670324823259
0.5247153532816264,-0.32898227919327006,0.23855916897652452,0.3485301064689883
0.29900396594180445,-0.6234464492139198,0.45336519414209797,0.7264550823869713
2.5626266458886664,-0.6098084601780658,0.7621195639680927,0.38563954381915444
0.40185641813715,1.9749266046598781,0.564094030633645,-0.7930855213653091
1.831364053777234,0.18361723000500407,0.8026384135071296,-0.48003696298924436
1.7286739646761542,0.11615400038072266,10.766485972349527,-0.065333725693133
2.4615061066274397,0.9081121149653504,0.1796106988226025,-0.20319450934736638
2.4454423247859145,-0.14412150234061116,1.2873993817068783,-0.03330392142553151
5.264147710166048,-0.6327786338783864,1.1259187344422812,-0.11994465054099324
0.48736283014713466,-0.4597565342543187,9.404678861405824,0.21427424719668564
1.1403254633626876,-0.41618483358081027,0.30971529304877854,0.7277801503943382
0.8952343216491652,-0.6808430885410821,35.16934042561266,-0.1670498936020185
1.0922665977400032,-0.30340577434664273,1.2993154498181045,1.1926908128361524
1.012416142876989,-0.45483618276457205,2.6683438108128787,0.7019461189307838
1.477734501930557,-0.7146511126581357,0.6380252577776526,-0.829294817319937
0.8444506627536486,1.3658629317152653,0.8103811606252782,1.5699652952222483
0.5160153449732228,-0.7269340167372417,0.4211514048491709,-0.12216189265377664
1.7647627286360725,-0.6697156239925018,0.6790246769643935,-0.8810262628477442
1.5664746769038609,0.21172177972145656,1.6429549195733135,-0.8776009091263051
2.3842395805049414,-0.7727336596443181,0.7581588053725652,-0.31807523771036483
0.1962491153355117,-0.5174568145713169,3.9881529448175748,0.17004136533468261
3.6552477290700125,0.8567401007851894,1.8445718513124776,-0.11992072717473234
3.3685172804193417,-0.8100905897972127,-0.1490759354809631,-0.7447014449727761
1.3205978541328256,-0.49518917306374133,0.6057539256085236,-0.3283357861858254
2.6055737438055604,-0.6710868856980784,0.6241780751601289,-0.34981027703889145
0.4262856366171537,-0.5267737176671903,0.5180132318575561,-0.1838273534850089
0.7762089168618787,-0.6170716324302061,0.08717878516607924,-0.4539838952418497
1.801138068923454,-0.6009006066719179,0.7502050056454848,-0.4194299783697053
0.23133997660545647,-0.7179507642105938,-0.5445555573675207,3.5134412513103666
1.4089163283799895,-0.5697367926922475,1.017190520122842,0.5842105191748896
1.00985038207323,-0.21761242378411882,1.0049389487016631,0.5908507138823229
0.6237700490600164,-0.6988770406341237,-0.7560734488106458,1.4284482351528456
0.9593600028467406,-0.5186879151057208,2.8604426856330543,0.19751046038427766
2.973050139754638,-0.6590842393133798,0.8782216457648546,-0.35084124578630305
1.7736540475802358,-0.5442051844323532,0.07413236592532546,0.11397190688649506
1.1588665726277978,-0.49078998754928316,0.8850471721746289,0.3076423223371749
2.263315071008047,-0.18331195978902126,1.1340786165500485,-0.06276164978837506
0.8567013626038309,-0.5389874201626386,1.3369761554640474,0.142417789913728
2.1505237792859653,-0.5992270965516657,1.42077969464541,-0.6074367088134055
0.8470147162508208,-0.6227744029567936,3.03035119154742,-0.31816542535346204
0.10475078293077722,-0.7814608348219044,0.65575344294724,2.1436969931327496
3.6176843005502093,-0.3357923146306788,0.7021404014812223,-0.05515538002593068
1.7073889612080482,-0.3848355580896564,0.9543167412111755,-0.29896399712845356
0.7135407983081823,0.0022896258735187747,0.5640156400225516,-0.35822270333771955
5.750206751754743,0.28205677787440786,1.4660263826247562,-0.6436490590757362
1.1170440779958417,1.604840488474513,21.219770561668415,-0.17197198911972666
1.9132922743137382,-0.3399347454178677,1.1391623393024028,0.23072522825600306
0.5528861949926405,-0.5787608157830646,2.4374362305478927,-0.026632108671876487
0.3580677600057973,-0.4987566393966856,0.7439282084636836,0.2948110297039641
2.248902352495636,-0.19338572657094144,4.285961246547236,-0.48688859083942626
1.9001217807255557,-0.6317819283322301,0.5306253247274562,-0.4259147160343203
1.8285985163153113,-0.3066174564255719,0.2556831042078376,2.2197898239108773
1.220648094513522,-0.7584978865886652,1.5181294139914616,-0.29548365692631495
1.2837087245649084,-0.6398699496602677,0.14987536910188703,0.0005870816503545928
2.079372596983876,0.05460491578513027,0.7145594481421829,1.2144670059634346
0.4793318031226417,0.7588727620924114,-0.871630315969784,2.2120974621949783
1.6158023058065405,0.5922001373721157,-0.27554304454331224,0.27832741111033465
0.6975339121791462,-0.5646641542216491,0.84837734874238,1.7133030805283576
1.0289359674720475,-0.6126227175398433,3.403183075365855,0.0699973367693918
0.7715770354359257,-0.6021649504916009,-0.32663944466963224,1.1911304775558338
0.8896788807904943,-0.6721875774273576,0.24308969755833898,0.613642980124635
1.166640665016053,-0.7784061038766477,1.5978906117460276,0.5908483233266562
1.5766149513771617,-0.08980444644295515,0.7995511119171341,-0.10041033197077609
1.433257810814553,-0.3397695469263209,0.5154266378956722,0.3880723813919731
1.1621821572131705,1.0149671231068753,0.8776255288748509,0.11757962828044444
2.496019632246401,-0.2965757901703755,-0.6561749019865728,1.4586430748187316
1.0714207237635978,-0.6546234135332409,-0.6275301898380592,0.25016959719466425
0.9353723241243888,-0.5851629292156001,0.032724838451640315,1.9966978505347268
5.573310929342514,-0.15004673011243386,0.6831419144335429,-0.03635836637536993
1.0745435711646936,-0.4414581003501328,0.07448115679248835,-0.6653564411215934
2.5395807154019576,-0.38553831267260985,1.040988529533232,0.19251845219201846
7.933512288348297,-0.7533138850360197,0.41968756448983324,-0.2716948476077492
0.07113544071785216,0.06690095844098454,0.24618342016998063,-0.7160812272254928
1.0319418657851793,-0.7910386312169719,1.243991019428437,0.1028396902819464
3.9079050201775987,-0.650704129097676,0.1571615762534846,-0.7233472387794244
0.46293911228144036,-0.27300171186865485,-0.009697955617405274,0.1186796694679233
1.357951745221865,-0.8650078536091981,0.432684810598732,-0.30115230134915993
0.5463378314314762,-0.7224667509061675,0.3294076565131423,0.33385483204264044
3.2626236746052957,-0.537249711281699,0.06590117810052232,0.19374476301422505
1.2196167668026598,-0.5728512945097207,0.9706967566155167,-0.8691308918652304
4.570331103276948,-0.7200913132067505,0.7535762799651393,0.0002753738646439352
1.3876779085562303,-0.3702844618206037,0.3063602718150522,-0.20106508242892385
4.463259829591307,2.0149663861134015,0.39315082909551924,-0.8627620747916036
1.6292995187902557,-0.05989798644215216,2.2044105470226514,-0.4320539619228203
0.790253872372189,-0.49990850583736657,1.023846341614786,-0.7288284249364013
0.19048372662918744,-0.18611644812303785,-0.02790229841524683,-0.17167513156149983
1.300180384003656,0.3306862363859393,1.6794656855626284,-0.2815923741771753
3.0948265954049745,-0.5245014786318092,0.24265633918745588,1.1032146935078901
2.0457197940619745,-0.8748406891458904,1.403345808257388,-0.26634206375155833
2.4223977433338297,9.225294499614714,0.9099776501153618,1.487931490490229
3.0187731735656467,-0.025211191868110938,1.6195538821120348,0.4211280535724349
0.43154610496560597,0.24810409609592954,4.634140825339153,-0.4454016320309624
4.2583409495059135,-0.1929635896205415,-0.16346829862460566,-0.006072896613600665
2.702049822643058,-0.9435735574798576,0.2906564063853805,1.0152504131078168
1.8367883509774554,-0.6531455445643893,1.3047413009509023,-0.31203351718312067
0.43106792786872705,-0.7394677868019899,0.5417060370841176,-0.310433243534353
0.9965645909380665,-0.6296270790612166,0.18251788168114857,-0.8661145148396431
0.701240798790991,-0.7213044073605894,-0.7284354681935297,-0.7412421497719552
0.27191149102791434,0.6276433275069568,-0.010662304928881317,-0.0753292516497398
1.567309023778178,-0.27813501126511475,1.1008444395686885,0.8499237767355454
5.103679730663244,0.5543603200954481,1.5682043591105366,0.343971333592056
0.842153654761068,-0.3255088322148907,1.491798526418203,0.4846537843163792
0.1677710197672182,-0.8272635481246797,0.6974111583741656,-0.21766982191605266
3.0883842587660864,-0.6532507864270696,1.3904366045995729,-0.12153783717747446
1.972020867119531,0.052862173133722656,0.19562909148332674,-0.6822944316850716
1.186787661154356,-0.5095296583929552,0.03348145529772495,0.477551918043978
0.7761972982230743,-0.22399717258545837,0.016652979439114812,-0.251858577381023
2.2908087914902433,-0.31392135814182176,1.850703719693855,-0.6224251745770834
3.278525337458462,-0.13891506958188982,0.6184191742778271,2.277910999934408
19.666559818408043,1.0005374358794477,0.0747500172636284,-0.2711981102575862
0.48964794154923763,-0.6689472471438374,1.351324108958765,0.13290244219667113
1.1838390300100636,5.918174765517533,0.42671869358236303,-0.525399711942252
4.029984150787282,0.7431669040095743,1.7287238091454182,-0.5835079404070094
0.2783688629589305,-0.5264568959230502,1.8866998765938852,0.9202589648972719
0.5861839458353908,-0.7384836662074183,0.08160820451669815,-0.3322641225077738
3.3132651543859994,-0.8275541885009361,-0.7105603066279096,0.21935426772771782
1.3914922530725855,-0.5663609409416301,1.2837808592897328,0.3638800975935097
1.6788537980850577,-0.41293152581250425,-0.30518064831260694,-0.7554327126420419
0.7749632884715838,0.20970224615531707,1.7684120519493343,1.59966126652477
1.4025274673556374,-0.8692910888311036,-0.017146742281299754,0.05885848728297716
0.1972627430988212,0.029609360201699797,0.641241050315029,-0.22563214641825002
1.009575840601939,-0.47706407303079745,-0.10719114395002949,-0.39030728939173076
2.722581550569535,0.5425699109966231,-0.6464304404666826,-0.3051386160657713
0.45256275551216985,0.023655291999569394,2.3094172077596817,2.4832930862790175
2.0239328466836684,0.6857384477986395,-0.49012368679537155,0.2954408226300884
6.336508564870011,-0.5725237029388994,0.4866374313546218,0.03280290493399929
1.4508067320338411,-0.6662676585559683,-0.3075966880755354,0.16355776723926474
2.134592784274033,-0.3258465794085189,0.6870458738962293,0.1677120764134139
1.1648347573683635,-0.24682470475684448,5.117808411014865,1.2257101818954084
1.1562742105674557,-0.43177872140193374,1.5109441074970458,0.1130671658412854
1.2368760175113254,-0.27800878661328965,-0.3351962046946396,-0.14537300402897424
0.05905593467763337,-0.9217956199147596,-0.024134350955584694,-0.5414053793865545
1.9676351600331379,-0.7017936200706545,0.6464576688430437,-0.47155745797622006
1.2233421972570526,-0.8137396002684624,1.7158015434992877,0.31561994083000533
2.6241281695275225,2.8835539307772264,0.5560666310940856,-0.3446678483558119
1.326677668267069,0.010136487226309221,0.6947548267050634,0.30931207078070977
1.6710062188330994,-0.642465115170426,-0.23934055061737491,0.6275924806888125
2.5788580663972644,-0.49763015761692586,-0.19194947360112058,0.25319696083965915
3.0514476665486105,0.20995469813533307,-0.2881956934064215,0.32784511700082697
1.0861242286787967,-0.05239413128324211,0.40951695499543295,-0.22390591928024817
1.879160168457767,-0.305927408595039,4.468851849871267,-0.7867200247701484
1.6592344290450098,1.4165666532179806,0.6261823383285212,-0.8509524960457931
7.132821958567364,-0.8545254056191918,-0.5116350760690824,2.3600041812454373
1.5540450487204933,-0.5179286591016163,1.1729366207338154,-0.3951710975832008
1.029830225233873,0.8501135079995255,-0.4604018602477016,-0.47195151185341
4.710918815137373,0.1220325107508673,0.37962434121945554,-0.22101287927613245
0.3554578461550404,-0.19943069724184004,0.05057632703167836,0.021039170318461142
0.9398686500962659,-0.8736469709613673,7.825135768457775,-0.4167385883659589
13.597634447063482,0.44783895384986794,-0.8447957980286167,0.18069656168658965
1.9254649591839201,0.008352715231429553,1.2369657999700974,-0.462141223056185
0.8080140088543102,-0.6759598867588108,1.6931141816607753,-0.27761536077868465
3.6923542877430373,-0.17565300941739492,-0.5416957960466308,0.6880321989308107
8.251415058105298,0.3243018616569615,-0.7656519721840518,1.603984380315087
1.8178250665445206,-0.7118705111736157,0.564526702605366,-0.16193456596228395
2.192349035629043,1.1341926650144831,0.975420155448482,-0.14581000099403074
3.0776111387645653,-0.037054826010252895,0.7863212622456164,1.5872267867518808
1.4306726875187552,-0.4439550506895049,0.6397033841399704,1.5324541413397075
0.7896845020661787,-0.8040785730785902,0.9547756056235959,0.03599851127715059
3.495430380796339,-0.22431531960445583,0.5015819245786148,-0.3385664424883521
-0.06345483666012175,-0.5948257388431168,4.068940373571955,-0.25477554443558903
48.095873361140825,-0.9570784993861174,0.6111744137693336,-0.06896304168128065
2.8797342743015273,0.8088797454353496,1.180348170958979,-0.11507341594407816
2.115898293703337,1.0587075963555095,0.43058015473359634,-0.7504520937443387
0.357400664322157,-0.6342180069156751,2.1394686517082877,0.3356793008260224
1.0090652895004055,-0.5261382746258094,2.763829346327753,-0.6583652218595788
1.4465123050383415,-0.30405073046865705,2.012470666761722,0.47092056153098794
1.4550607919562202,-0.40029774182114275,1.9993108828361414,0.8890769638508351
2.934560462242713,-0.6426597120756842,0.6898151321709174,-0.7414904785710312
0.5622392716770159,-0.5883657587147042,-0.8278971044214034,1.199279277056303
1.5408922919095396,0.03944025446253119,2.2459589422171127,1.0313344912106843
1.4385335647991608,-0.49634410557027664,0.561401191898478,-0.2568432221295889
1.8505896221130484,-0.5161448086996665,3.192933094548886,-0.14364538332615662
3.0141547665676347,-0.1720759969900728,-0.25250940271979794,-0.3490019869210408
1.1438190575643672,-0.670614184877327,0.04591317659212657,-0.06995456131736477
1.9542197858129615,-0.2055143062415309,0.069365450575261,-0.4235908828552458
3.337302705608492,-0.6131780904297841,0.6667917389509246,-0.7824502223424452
2.758096074887593,0.051709562448135626,0.3586708190735046,-0.004449636300889459
3.6132442421752753,-0.8823858395922496,0.6372819184580851,0.4109587670876056
1.377690057955315,-0.578577868586678,-0.028527546821974337,0.6972132476013462
2.3951966919016177,-0.3564267950069573,1.7115507970895325,1.851641865367334
1.1773620855191633,0.5711486511915222,0.30997353766187286,-0.5111837018614334
1.047644684872521,-0.0942487939593244,-0.021718514897046792,1.0619633676706397
1.4190194032567254,-0.708432161334055,2.6540088944707967,-0.1538145565937432
3.310180188337955,-0.7830643598144819,0.6194822658801826,2.9402868661811277
4.721151440107128,-0.8118944615364805,0.21827954501612368,0.09504001713871246
0.8049665748994519,-0.3404490472272985,9.211419486395572,-0.49658036313166576
0.12523505944089153,-0.2949351757462537,-0.3893168071280333,0.48406888797112746
1.7941952449337313,-0.7299350932549582,2.1257453325477362,4.116332021771078
1.1779127878260733,-0.9513745411357494,1.7268150087505547,0.22360818323298304
3.251654327534361,-0.7984923815503009,0.5041044965503831,0.22135053156962692
11.461208209494126,1.383488074266174,0.40646533385862416,0.16686492072506165
1.3560084575793754,0.22578199836187962,-0.05433061873678002,1.769374467788054
2.216571026157135,0.5061195511530225,-0.4039245142167409,-0.4471046882007502
0.9495175908205791,-0.632936874159774,0.9596530995744892,-0.04249772766621884
3.4908381424129296,-0.5730021216410561,0.556680137809116,-0.011257069358286964
1.1653835949590423,-0.7579073471886686,1.5410840520217306,-0.403975252629477
0.34838213866572043,0.20386327863584697,0.7204099278404035,0.26668367618599875
23.490503120268986,0.049748399410840305,-0.06643540970172235,1.5187919876961176
1.970570488621774,0.840856524475448,-0.45918867577122524,-0.5682937709073459
0.9945103699274591,0.748632844195174,2.319745593814283,-0.8546747392760794
2.20678460473231,-0.09140733106266952,1.5862234848433663,2.2011300160647616
0.11983794621958421,-0.7106944183473023,0.08251568483027683,-0.5394510941147452
26.254322725785872,-0.7206006438694781,0.003210986390294046,-0.18639190123136085
1.013036610897558,-0.6017375639476956,5.3482824788256655,0.4568326759175856
1.21502360091739,0.3259843954188042,0.4963684102023931,0.9516381902782869
3.360051436576299,0.10776300890285873,0.010384996586612072,1.973445691708096
2.501740714258908,3.941846035930751,3.2002933447472834,0.3295198855918742
0.6581536978774971,0.6915760181243302,1.3896972913582233,-0.5007608154056885
1.4457370389635318,0.45860318294716196,0.36984696510087245,-0.8093223016916999
1.1803008487153979,-0.38244608081647025,3.8922337007114782,1.5694678635072807
1.9392146820099954,-0.09467985167928239,0.5443894753498013,1.5493772562298096
1.4307362957380314,-0.694377358783377,0.8935090016538265,0.2369547027310932
0.13113993960234005,-0.5816064649964257,0.615276101623021,-0.47618288701746947
1.88801395914285,-0.8305743704328868,0.5207327042142786,0.28533150103155447
8.04923603254345,0.1267961241388016,0.04783599981600539,5.703223902354562
2.069922823427666,0.06657505505137373,6.0526186172266785,0.24970348021273736
0.6250751089978652,-0.7651064787797903,0.1564838891690561,4.755482279714751
0.3332516694971963,-0.50885235880393,0.4976455448306236,0.036740330238781205
1.5498247814949306,0.21779865953837874,0.33541224824499816,0.07304157215798712
0.3081741901924939,-0.9426296049693708,0.5124560093143045,-0.44228212934606415
2.047000681861622,0.019220535879844958,0.7042467478209637,-0.18978653236993315
5.559561744189453,0.41278550445972906,1.2722579915003047,0.12479121319318831
2.042874512685313,-0.8244281799049732,-0.3849269897904909,2.403335134452961
0.7053328681602216,0.9109313071393466,2.3467161224426127,0.28850705696439505
3.0942941542292104,-0.40692709832676177,2.8668775257756405,-0.4166745492741273
1.8476649959058058,-0.7649258638486118,1.4383403470865672,0.381085882880708
0.5625495311691573,-0.7672330914522983,-0.07737807437246191,1.7205046848407681
3.3295422435855535,3.985153849232317,2.7008979807682336,0.21599406656936737
2.005691360901319,0.2200500380420578,0.13003971526794933,0.011037973671311985
3.0446565619402826,0.40832399563857935,0.4337905826900359,-0.4677833806528321
1.8581722197120305,-0.5825993991214684,1.0821640341545598,1.1401810439155846
1.0893955513486677,-0.7042783115770768,0.11847016037832359,-0.09404376808438486
2.9584750933884822,-0.688498155727364,3.866737786522064,-0.059400630811158206
2.6856729275676314,0.19602315476664178,1.2489402601032893,6.801362602265762
7.8130641075655465,-0.24817868634366413,1.3197801139323597,1.3629690942634878
3.7443155386470064,-0.28098581734842754,0.6797605667026616,0.575916309823634
1.678163444890183,-0.2701150230334258,-0.4478818441852286,-0.2008738650481341
3.6509263772215164,-0.30430771436962545,0.7355012989872602,3.6988769270422805
0.08966843182350326,-0.42261652231305746,-0.11219855375768029,-0.4877804492470398
1.4862002168637627,0.026913299663962498,2.1130126277132977,-0.37960353275718206
1.8248902496316397,-0.9241446883645409,2.5540683607876793,0.7010628235652532
3.2648463795514697,-0.5026842345492524,-0.2659720442131035,0.1169689945460668
5.49360724266076,1.2951368609616676,2.0570862453165275,0.5032856388338678
1.711911628855873,-0.7464979765098445,4.523592837818009,-0.08277113660477964
0.7355136091102368,0.015771157833863736,7.900334855791286,1.754540401500435
2.0223302731240818,0.14065996224782285,-0.28713793517004205,-0.21503369753548063
0.22912328680522553,-0.6225451625615824,0.22223608678809548,-0.08606357402865006
1.22312386057947,-0.6735414126528307,-0.6941844351553965,-0.6983886625307757
0.45035620723492253,-0.7312608237814155,0.3645997869715478,0.08253938596129551
2.671687333747373,4.39014313912298,2.018800647690629,0.03687636363248892
6.142418857369139,-0.29121863716155816,-0.1741648172383904,0.27059403150832617
1.6939293538837839,-0.6672184043535174,0.0184363163167236,-0.189349623486608
1.8627592866761367,-0.48725726027502114,0.6689974847753595,-0.3081225455553861
0.409226136581339,-0.07684398379249413,0.595567529124011,0.3034399788339577
0.47366488253083916,-0.692877124932008,1.2924079939197886,-0.21254886295065745
4.973403771373094,-0.2992574320097827,0.5057594231795677,0.019402418450393366
4.231233998554448,-0.7740592062700551,0.13999858549220434,1.4618392743408943
1.0109572376929803,-0.24551187757550186,4.2789557486785705,0.33265731764263484
2.642253398147972,-0.7588061171505263,-0.23350037379802957,1.0063049680080032
1.2288361038759317,-0.8386193303039469,1.6656153435105674,2.10394444768157
0.681298305165448,-0.7574916323988112,0.34469249608593455,-0.12633163525607272
1.0818004133930414,0.7067043086084728,1.162858502324951,-0.219386046898708
1.7161837686156547,2.052614548197294,4.388146407473683,-0.2487291805591919
2.081378101629405,-0.539317287134482,0.13688091547118697,-0.5414239150827329
2.2493258489962904,1.7197940019046727,1.3961962893419995,-0.3503420799156186
9.776941035993165,-0.2305771418654562,0.6664503895526608,0.8289031919888163
2.976880005022239,-0.7121964173693363,1.3765257241188698,-0.34533616024712155
1.1110582551473684,0.9242187615875559,1.417715277184946,-0.5035182526625427
0.6774875675548633,-0.5116917162541188,-0.6808073923695181,1.7772568970812683
1.5121906382202508,-0.7554555498575692,-0.6687756008568062,0.8364631859600884
1.1065046288906943,-0.4393294424396611,0.7750886859782313,-0.27276765301376416
0.7905950973304294,-0.6069290698774574,0.3883369158087988,0.0956031393374086
4.65979228828349,-0.4701559644614248,2.753290757908244,0.16257253351826173
8.42689442637512,8.327409468310266,0.9207402960617759,-0.3967626432122051
