x1,x2,x3,x4
2.632645359765204,-0.20856796408758504,0.5185558697137227,1.3924805506080231
1.5474769409243239,-0.4188687123227789,-0.14020651136828777,3.8031378495014962
1.7884284801902366,1.0538172658912375,1.4748250549160877,-0.43029074566526326
0.47144716469476045,-0.39353434719095726,-0.2702870452034083,3.96472280547734
0.9846077596587066,0.12426453062909326,0.3029461496581636,3.106005330297159
4.590560169031104,-0.07671578687171143,2.527020998964844,0.25085265394519785
1.4712146862135804,-0.37814146424063466,0.33730606071120084,-0.33842183186564156
1.4370564186944423,0.5496191873040974,0.3101129583524458,0.848306885246062
1.5379912401538691,-0.3359044290114279,0.620702056306065,0.03741840413494635
1.9143376724161718,-0.08796077033474814,2.7935698375932656,0.9357542785488662
2.044047704337423,-0.29786175117159885,0.9108787868987753,0.31047908144474956
1.114772990584667,0.24994106500713897,0.9644004680551685,-0.31277710058086805
2.866905860934056,-0.22955351352871178,-0.5277980027820806,0.4819271794807094
1.7854546835909253,-0.4833430179426481,1.4011889237601163,-0.6216692530568297
1.6805073785273814,-0.8434004719489978,1.8002905214842153,-0.10250082414675699
1.924721795098232,0.5995661102233303,1.5518603348970825,1.1694520331615745
1.9143302137969131,-0.42397212403791396,1.1372352659134526,0.3212864550362087
0.5006350612818291,-0.48384598658260114,0.05070411514369089,0.05608043829666598
0.5734446036437448,-0.5983428035790133,0.7189427822060099,0.763803418363489
0.1671117629988843,-0.45393874795001765,0.7610720797472437,0.5051626056857479
1.4551982883544206,-0.33870754982891693,3.63974951106598,-0.24616198535425893
2.8771435764784314,-0.04950390350376488,0.07520409620855495,0.7687817994378308
1.81338768119363,0.2221085695997651,1.879704497550891,2.4921202034123686
0.2223973760082012,-0.7383692852004389,-0.6654919939222004,0.0027154143848702184
0.43896724604152215,2.853423379944895,1.207319201868163,0.12361721671081938
1.8009069820062362,-0.46470042448028825,0.11575100346421507,0.2640972621379696
1.0328106588737227,0.4057248321731286,0.3666629472356442,22.33576995774646
1.8343069427642469,0.38762384550026807,-0.33841203671488684,1.4937550363221774
1.3332347674624474,0.23964492328946796,0.0003239708697992949,0.6446181967191629
7.241306124538072,-0.20507527075806886,-0.0720053768353418,0.8108103700123186
0.2659295167834368,-0.4971495461554255,8.61327415431166,-0.08427364412965554
1.826446189042188,-0.3720221791797903,1.65432210225524,0.9038753637419434
12.422859653299636,1.187204762139943,0.03495435578588024,-0.08004690137590897
3.9726132519305866,-0.14632137270331913,-0.1890649372997899,1.1736683790888351
1.7455245635472827,-0.18792469829353486,0.8358788627889406,-0.11501491722056634
2.350771871976606,-0.16812230035529996,-0.3122240485511869,-0.2485144669157835
1.3879765797447154,-0.7517842710351967,2.434914446730314,0.02769344520151651
3.2002005097499175,0.15278630156915285,15.368215594810685,-0.4663198621616407
1.0080538689963552,-0.4635470822104325,0.475122681096235,1.2942324092579969
1.3940338281249556,-0.5021544318670097,2.0795240690218133,0.46594154115163966
1.4489967771765477,-0.7993570592885436,3.6242388517436543,0.226133246525686
2.5232468740391107,-0.5170253005955063,-0.685621897324406,-0.522446692872623
2.6004737265324542,0.19363708880773478,0.14282563971468254,0.2580171724487528
0.11492077156905656,-0.6965543649398291,-0.20922002031210485,-0.7529774242737641
0.38472740651647563,-0.3708301877591855,-0.6123647923433968,0.48790794398722737
7.920841573885863,0.1362638831071561,-0.10832817573510456,1.1925492146659589
2.4995243666271687,-0.34097935819582814,-0.3511252415636992,0.37653256047689965
1.1931941194534619,-0.40911441517250535,1.3909244868503259,0.15683622645437012
1.2316653700984048,0.15971739506731342,0.9934150924912819,0.761821596958643
17.457155469549186,-0.2666932010111541,0.9243747978563934,0.8123249004922748
3.2861678017524625,-0.9152372365651676,-0.21219270529982526,0.1330504697853203
0.589568778309483,-0.03279134959113117,4.23447401516626,1.8016591963866553
1.6542818080823278,0.0016294019865312759,0.6956670717421576,-0.6287419632684517
0.39066451587556994,-0.00023184491015582065,0.3133751961148761,-0.3457447642703092
3.1911171014053066,-0.42804700305178356,-0.005098854626795157,-0.5829718478101187
0.4386035012775975,-0.4941823899583796,0.13250947511786726,-0.24334648379483337
1.795251640794035,4.767803757673761,-0.23254087522578537,-0.34927512522358417
3.7116047449749177,-0.8564293322009533,0.6770301233726972,1.2175343649134645
5.810455348923556,-0.24163034435624475,0.6682725777667384,-0.05510191827427946
2.519967081488321,-0.23522639096198794,2.079525650636232,0.7750231242378693
2.5693537108633207,-0.5931787741471634,2.336557197754724,3.597554158511527
1.0221150603590559,2.4248513165095558,0.9199973671737536,1.466825271810762
0.5375177299317331,-0.04802902268835396,-0.18457891219890976,-0.479238588484879
0.892206810711119,0.04408218659265395,0.848006631844795,0.3490695212764803
1.6585383860648433,3.7751452111976187,-0.2783695622086654,-0.09700688622618969
1.2922969194811946,0.865292859189823,0.10599210015708582,4.3798549532944975
1.0381478484315263,-0.20765952440835278,1.7757699183473648,-0.6083383608842965
4.11223077181512,-0.06287377776791747,1.2866366297950842,0.26067611125746115
1.2886568019115017,1.178511219235868,0.5388345888885475,0.36740611839128445
3.454023541024661,-0.4869518507845456,0.9450142121382139,0.4960331429316718
1.3977823976842174,0.09924745202055818,-0.42201442886347085,1.0477020254406537
3.10525154563767,0.2729460698581121,0.09231255332054555,-0.12213308576358606
1.24720984517429,0.24774529883421925,0.9278508102468521,0.5123615151105905
0.8374845038905825,1.978065045287253,-0.03111388107576818,-0.8706199345828637
1.7952184271675087,0.13148827585862732,-0.05734422317681476,-0.5556660831325831
1.128288904599783,-0.4807689260344169,1.041492224133826,-0.38182329227734313
0.31283033651140957,0.0966078439872764,1.9458008101609487,11.42949068112864
0.12137073185296665,-0.6982022611909198,9.88675584092203,-0.7314538200486268
0.6394121371604331,-0.38389970671318063,2.268739643086062,0.8675043720042854
3.341853603725596,-0.4877818466073015,0.21395933703881065,1.579666374328918
0.6540778761767307,-0.643842454208821,1.3663320058096597,-0.69866417241836
2.106791267044467,-0.12692741539118446,1.9577922889292139,2.18690232305238
2.6349940875604996,0.7389703156115355,0.20988934798193815,0.4027022857363298
1.139260589981895,-0.041549000854861684,-0.4830735258343073,1.3495942437708197
0.5339053399425238,-0.3895334370505822,3.883811865508342,0.0575127203624628
9.414145461947912,-0.9375823608183961,0.921510378689065,-0.07801860613299771
2.825075586879184,-0.0543381044915241,0.9037851442164362,-0.7446175545899107
2.3553613903888215,-0.7407917286442789,2.6730952989059964,-0.8176673117740406
3.2291743079549073,-0.5490828444758523,0.011563722568727286,-0.21561995301498016
0.8565984041234957,0.06792379567851459,2.7795797106856646,0.8649131673708121
1.0069393808902567,0.0980745284120812,0.3449264002840411,0.019268249780960645
1.544568392912347,0.5770769376915106,0.8498705063889382,1.109526049800992
1.1662501932007272,-0.7768247094013577,2.9301194043178604,-0.48162237045956313
8.289438595843972,0.6098742002398452,2.8056387990792415,-0.7093753322853644
2.173771306134016,-0.5927385700469774,-0.43318130876887284,0.6115599409624304
6.288708058839931,-0.15911108411805908,0.7227012540795876,0.12137471768925079
1.1938995775497347,0.22291101785180234,0.595425352687218,-0.014511868343834888
3.3112997395088968,-0.282340189327016,1.336359465163829,0.3093845206589636
1.6973534960633154,0.29628655542208393,0.21848397557228938,1.0370126197416187
1.415347814114173,-0.5931824245145632,0.024988175190839845,-0.8411972415495546
1.7617464098737798,-0.23353676234883292,-0.4315711598876004,0.2665847756518107
2.040084569558406,-0.8095168530147926,0.35808302439854023,-0.307334092246469
3.6476062033101986,-0.7781943316204688,2.036840367858903,-0.32031293756718904
0.7186981606396807,-0.49667385907276573,0.6326925618457431,-0.036438286116251994
6.325300680241707,-0.4754374362082222,7.258976942217833,1.8717306410154575
0.4701742352924583,-0.41638707265255726,1.8290558367976288,0.19695322782713243
0.40440487576219697,0.781024634440763,0.7771136630364313,1.4920350262431494
1.6867911591727593,-0.7237176554526832,0.10527899999328705,0.15983986409622264
2.022054455322528,-0.07453561952016474,-0.23654763548361235,0.43818022133986134
0.9288110264356548,-0.8274785466959361,0.5969949648201978,0.3615604167249562
7.569989141911641,-0.34155627182552994,0.19213740185399764,-0.5477815284925232
2.6016446375156335,1.5327445768703636,-0.07110552649579915,0.0552340688741948
1.8516502115963065,-0.6495972332034364,1.8036769079360089,-0.35689490220398445
1.525838711802328,-0.8191564361668702,1.5325404560150973,0.3262534499880272
28.987976093579228,1.7247027232143273,1.068141663778436,0.17644042867359522
1.4553745118534995,-0.400628059079164,1.3059029960643858,-0.253809758293127
1.4105713699941473,2.6864120715565374,1.2279308390519628,1.1822752665291612
1.3942987687335724,0.1205793673226121,0.9623279785222516,0.3893395868634597
1.114763557907894,0.09703919213289414,-0.4667594967430372,1.8014101178603434
0.9197132061701816,0.1264113417329491,0.653810050976749,-0.20756555362765383
2.69456448627127,0.6726018251815871,1.6215834459903156,-0.3327707433976329
2.5878143710722097,-0.24092571856059708,0.11814214644141341,5.213611703114627
2.0428149041833983,-0.6130436795331979,1.3125203303412873,-0.5942010537723772
0.9878938178731773,0.11043382453509332,-0.571577349575646,0.12977237285730525
0.5702662693115998,-0.43139905060395567,2.2737914256829588,-0.09375584830357164
2.5765067407288704,-0.8130874073304081,6.008629204463211,1.1030182417583179
3.882083022082152,0.8784202369054879,0.5600644592487147,-0.30194464646562225
1.8813405135921601,-0.06756975998623516,-0.582931037177522,-0.40948068671675675
0.37747035454258726,-0.5111541970052469,0.021439654033891697,0.730844333049627
31.178081758282012,-0.032656155031684286,-0.32272704556609544,0.7014698989296553
6.393783852747895,1.2097825601975338,0.16689256949718612,1.2501975025881897
1.3531079694005443,-0.3232586458306046,0.47649011039097067,-0.6664760872873544
4.584148573140723,-0.5028065047925472,0.2672530080319673,1.9737386671317578
1.6376711744532528,0.3215203195244716,-0.3737819181336095,-0.362347034434639
1.3777360177522682,-0.23119600083091296,1.789949834570102,-0.5198329289126484
0.9742933373526599,-0.48331777920897157,0.8589146258175804,0.897603967361476
1.805275920900777,-0.5090559749016073,-0.28847487686051787,-0.5946057190564116
0.560118952721862,0.9985612420285972,3.718363421645358,0.3740098088674786
1.4664565659512365,-0.857789450953951,0.6670330319332645,-0.6218150989619882
4.581263765040047,-0.6491406624068434,0.019810694928493966,7.969241964235664
2.0370845712720476,-0.32584696218477127,1.2082796451491733,1.779558959461888
3.0787740438439366,0.21956367975417423,0.1278286434381648,0.6369867270298653
1.6735192282124491,-0.8666353448621746,1.143927141998995,0.9227905156266738
112.12257095850188,-0.7898636594136688,1.0037112325912063,0.9864148628773493
3.025778499399565,-0.2519585740312328,1.3247032057348753,-0.15610947232242245
2.1706052326391965,-0.08492061178789245,0.3600255592232129,4.984322002679326
1.8065535252063376,-0.5068973361011635,0.04654829233381519,-0.45640711276856505
1.2809117276293525,-0.28826566642776075,0.2253206890468873,-0.1235586479918932
0.4651472276166746,-0.6969062694313826,0.09795052002744287,-0.06541040326992831
1.0452496191907636,0.3326719476490585,0.3825578367759519,0.007786280434271653
3.20443486905757,-0.6105134639404575,0.2526592655023914,2.733833568202059
1.1128857064791795,0.24066437149526676,1.5726522781014345,-0.6402327980730951
10.206100738854298,-0.5540161804934043,-0.9293669614558885,-0.5123124849102008
0.8931119234971352,7.466233005416241,0.5431120646884753,0.4998919461633964
2.6578594816963226,-0.3203870846695642,-0.230964979433525,2.683049425936755
2.0650943709042213,-0.739027597903668,0.5885925706022848,4.01716947313446
0.34796985422802873,0.42414704592842933,2.7040155208166516,-0.05134907434199942
4.59010158984679,-0.8945156739858959,-0.1570778326997878,0.09353807171747808
1.022859794907815,-0.465534691685614,0.4682792955031507,-0.3007253319837858
1.167606574479521,-0.2960112233018405,0.5383035662962883,4.178183980799173
2.0344111137127974,-0.4903740397911469,0.6569068226057342,0.17154907517086637
11.01592370759754,7.502112410148271,0.17422653677885447,-0.09045539895848764
1.0739456012390214,-0.6970033562146294,0.4544257573786017,0.5008103746053658
2.186707432299349,-0.5982995194239036,0.6768154709345662,-0.5398809388527648
9.297229173869951,-0.4084675498274626,2.170976582958782,0.8750133960607196
1.138506882613564,0.7015577136360074,2.769178551276117,-0.14392914677623914
1.1503324862950408,-0.19052928180565776,0.795163873122102,-0.19248388458519605
1.0758789845584342,-0.6943983401836573,0.0708267012090924,0.011255096642456275
2.871021276393141,1.7390319091972888,1.8980261037520316,-0.27417695397782715
0.6713814064181991,-0.41772261447451,0.24332516219314826,1.6072501536668504
0.6445362267267092,-0.39450463157564797,0.49918031577003164,0.0426771714522689
1.5748024746457943,0.05317177163974107,0.07282994087772865,-0.26899386397617786
1.6786580058504805,0.4461837382845055,-0.2880635261307092,-0.012546783114060323
8.639888841074498,-0.7492285141808669,1.2490220762716944,-0.15506497261590246
2.352956340364305,1.3799111305628684,2.461700730039834,0.491567193766399
5.087052121045519,-0.43216973270542025,5.255994504074448,-0.12776124254234789
-0.21382477562960434,-0.5224569942428421,0.20610242719425576,0.10412647290112353
0.7236039116870208,0.09792605172935609,1.3091371388307094,6.017529285817122
2.3824365702556363,0.19952539375700606,-0.6749651267812453,-0.262810650127708
2.6401498104031162,-0.5256945517192508,-0.196542687967442,-0.33070830618369695
1.2116095711966666,0.6519967836461309,0.8524199279014169,0.5348400951119787
2.9893202052584438,-0.6615628910108462,-0.3370542330496623,-0.3567151519550904
2.812169135530177,-0.5473383932943194,0.3673044487125039,1.024198919355415
1.486982931893679,0.43604412199078046,-0.14455600291228832,0.827515864005171
1.7686895480086693,-0.42783429638250514,0.7631655690017258,-0.4980666248133444
4.507275474794456,-0.6618840538706467,0.2183888982977662,-0.3736822070443798
0.26093403255596304,-0.15654999517292145,-0.28465288243033926,0.3814187067662407
0.4061307662468665,-0.22110269695066376,0.5873282195369971,0.6384246994433003
3.838143648555218,-0.3623926698216351,-0.0917836470599036,-0.06415656842833661
3.3731546691341014,-0.2815489246615669,0.1383735880371506,-0.44340289639979436
6.914296689505128,-0.6311901798309938,1.1587454028150508,0.26936317791991193
0.9910303472353101,-0.8961671027422361,0.07823826204728834,0.5733027658951699
1.5932667240105762,-0.7065160248783571,-0.08732829741372128,0.11260680076551188
2.196519205646037,-0.34418794273903563,-0.025764046639998317,0.3135336694922619
11.580669989465587,-0.899783579698001,1.0207374546380898,1.320111163413491
1.0919026548792514,-0.25968280994692483,0.5797713613481714,-0.015825171758979795
2.9077126528955874,0.30932956718133897,-0.025187602306496304,0.11326653658134767
1.9700333253191564,-0.8206263498829188,1.19030293429751,1.3148325861674284
0.7896216927580111,-0.7136999009604755,2.437576898201154,-0.07864984213694914
1.5525960353292434,0.028444707889541343,1.8753039163409562,-0.13024910262686373
2.2070406718340707,-0.8841945666675329,-0.38631980314467607,1.5040855768549242
1.1826955753363952,0.14045731978684528,-0.3728987763406034,0.5045124206467799
2.6277449904854047,-0.17325165277082943,2.0963456886805756,0.7914710321993024
1.6105318169821219,0.08606691395776833,3.1466653570467367,0.810161006388358
0.6246047049079486,-0.9437657862390203,-0.19537542297841326,-0.8328885831698527
0.7837011444167188,2.460366202868732,-0.9295911429693074,-0.41706487254501046
3.561097161872306,-0.4652799224171976,0.6102864026147388,-0.6112046994237494
1.7198812415941567,-0.6252130862436589,0.6584615205643702,1.5979591149595338
21.78508914559635,-0.8069707534913563,3.538235842962707,-0.28567521016031927
1.3638845593853306,-0.521673479863787,1.8074288759996056,-0.28655355798881554
2.7880691115926886,0.2008086346882174,-0.0750624164653878,-0.5485934893731949
1.6515333802853833,-0.3149481738253038,2.196116294535891,0.4806297586110282
1.993581402297783,-0.33227266996872373,-0.5507796133575944,-0.09358258930615071
2.0099585610984323,1.1329904489424205,0.033434654071453185,-0.4138316467310992
1.715448210954472,-0.35553869979677766,0.28139467913410954,-0.21670912340762294
5.9560395495578335,0.03487383333280558,0.3084317970030437,-0.7697944868767854
0.14380002944772086,-0.6851807153581302,0.2658337438013485,0.592010790070534
2.762893379402203,-0.7662821173805187,-0.15401935416495816,3.7600857403395445
0.9803605761360876,-0.7207299038093862,0.507746595558825,3.957775258644439
1.1795919735153992,0.42498246287173735,0.014254983506936103,-0.5456544053886435
0.6507549059728008,-0.3083726921695005,2.523087053325513,4.912975412186617
1.0642988129896374,-0.6602024932610422,0.5387834379000542,-0.048371610946272625
0.8712951456879976,-0.10352393330012111,1.0203248198404848,1.501242391383196
0.500204093224693,-0.504128144141615,-0.319406208038601,-0.31043339759910216
8.565189115022733,-0.44676057713483397,6.0092636721588475,-0.34812288589411466
3.242575813059058,-0.33449608410115694,0.6125819218950854,-0.04663300505212675
4.2154546696659985,0.4753169305016136,1.6783500637071422,2.702388137406407
2.858640865320916,-0.7343026038841252,-0.7727497600563874,-0.3288837334298399
4.177462309541968,-0.33977607950638833,-0.195559272038204,-0.0935306998750367
8.972616432679178,-0.8124000507927314,0.4535597965039606,-0.8771166516386576
1.7985546754715545,-0.8901693568649603,1.6498802334223797,0.18589137795347455
0.8762798184305434,-0.6890135767441737,1.1766010994052247,0.06295247070058219
0.04849565066802253,-0.6498564021988235,-0.6268817749912114,-0.513642838773875
2.052062555884635,-0.4246460507859259,0.4120814467516716,0.17709982256351675
2.441459700247196,-0.21174481588416671,-0.2986655357029616,-0.8623112102069204
1.6322995414498092,10.8810357099175,0.7890557498928275,1.0835139690054318
2.4684049262991032,-0.4909585882950125,1.3918536277722469,0.2284190524173535
1.9329122889706434,-0.47085797781302674,0.5989824296346276,0.3923624732539739
1.3476405091147625,-0.362139283096767,0.3594058589093545,3.6968198624104263
1.749298854741013,-0.1782083799265638,0.7271001336942171,-0.5508613950518494
15.426096672919538,-0.5859788588736832,0.37094015995009255,-0.1520127065744895
1.396572303662173,0.9190494669172333,5.796808836891998,-0.13956788671624898
5.507819094728555,-0.4972650546757472,-0.29096035636899886,-0.02674852480627843
1.4691397723180946,0.8918211148148474,5.735030866583713,-0.5115405660789656
1.127095954947385,0.7417155429926969,0.04889819291302411,15.989949274782777
3.25192750845374,-0.41891063882285895,0.6834869913544059,0.1268306921324016
1.3857623700200392,-0.6737698395408033,-0.5744244882459407,-0.33903993712762615
2.8684312341896816,-0.6265747880739141,-0.1830660904797603,1.7112955681220074
2.940548413238205,0.025205442899165487,0.44854656148898875,0.05730453816228809
1.014062669925734,-0.45093304999647077,1.0039048209975787,0.9879279092092816
2.7063855727153445,-0.5361299948025162,-0.5920803286940415,0.5720418951706143
0.7812919351414875,-0.6157934847734357,-0.043435371476680085,0.115223804916331
1.6945509555231575,-0.350475269295196,-0.01351423834732357,0.8077620037712347
1.1617505602083575,0.1476532523358125,3.1873073115922814,-0.2543080130008032
4.073000314685088,-0.2160785123750033,-0.6412667566812905,-0.1773739974693358
1.4894530054610717,-0.14152542214589292,0.6081132689169746,0.10722423901409517
0.9533854486371853,-0.7893916979634097,0.7097335036654191,-0.5984179691251605
2.0274967564597537,5.085002106934651,1.7468139392591149,2.230550659489644
1.7704912714861338,1.166724415337875,0.4765601470642842,-0.10902388224941906
3.355833204421822,-0.7473905268527301,1.4403596913272496,2.3355165973680263
4.63256418676163,-0.6582666712985725,0.4924565318413814,0.13479543871440813
1.2382610272078445,-0.5667834421738034,0.6385323098321387,6.381407348081178
2.8786228631474917,-0.09222328238240507,0.12382743224274084,0.33950205823692126
1.6479819687627444,0.4422661987342402,2.96796753706339,0.3734325858691363
0.3373464992815014,-0.419964056625442,2.6668213798996154,-0.8885768564897877
2.7452758843050225,-0.5153785659601167,-0.09164167711327686,-0.8263697799144142
0.7432477968319946,-0.15282291263609515,2.5395347117028715,-0.32270160801440284
1.3787875567310124,-0.6159387193945083,0.6064917063299398,1.0323968758636242
1.6400375632335362,-0.46455985080351536,-0.20418898349103742,2.082355727618001
1.760880073839762,0.26183892490308236,-0.6791978420525558,0.6584084576137037
2.7967036279495794,-0.4643538305712399,0.5587706633949328,0.08438329233199493
0.9350338242929432,1.160868655187599,-0.02629138993765412,0.3276867987645533
0.6720801858875303,-0.5644085917189026,0.903107667111652,4.0064184322230805
0.8184509543953591,-0.6209846428112269,0.9354847565319051,0.4521087394383514
3.287634516279513,-0.6185539663878716,0.6224461088902937,0.4679745410193159
1.1265293045370735,-0.678894171758943,-0.1455122945674162,-0.7067286397036755
0.8590028933406788,-0.4949305753359955,1.8222984182736317,-0.018289600096840553
1.734935519034917,-0.019300190746797008,0.04149297564609489,0.4456365220749312
0.5458797650703402,-0.413311091178836,0.0353682530291084,-0.3116791938488327
1.4084298517026612,-0.5446511464199482,0.019405482280913988,0.10002139038299473
10.377348211337482,-0.3055475157379838,0.18653368392653968,-0.7191709531679571
0.5016832770911921,-0.013502455285420378,1.3005217861060778,-0.16281009067521068
12.691174406864791,0.153772553762616,0.6627222024029262,6.190965681610984
1.535495769443263,-0.38933074850953053,1.4157809536928863,-0.8069558200868107
2.1789153962643377,0.11291345546427434,0.8237199815839755,1.962447154936708
2.362777046818975,-0.143325547384484,1.6775246894646885,-0.42186061487591797
3.9129938211153545,-0.0895948012857043,-0.1316748773564882,-0.6925675311379391
2.913756723463379,0.29954813433211425,-0.0923973561636976,0.3623405150413439
1.171741885818565,-0.3475623838816314,0.35786704769357525,-0.1676304694096049
1.0620518039879343,9.636432430856075,1.0320818309927033,-0.4871239345096058
0.587012648126048,-0.23948341005180063,3.1493108925463558,-0.2737230202450631
1.0916818842689437,-0.7123453452534826,-0.6006243717038862,-0.04696278183283897
1.9366959482370212,-0.30762057869784987,-0.6375474007740167,0.4957333168603961
1.2858489437259277,-0.0014115495762666574,-0.15989746163184726,0.6871264386190254
2.8032756459189394,-0.8844017994570669,1.142306483300601,-0.09364399175259519
1.5840512634221513,-0.7336411885951164,0.706145509381795,-0.6528265154105989
0.9413917329160544,2.328463765089244,0.18492630074165017,-0.28231739583104964
1.2343957328097028,-0.49098533176523473,1.0049679039992725,0.5764568235350767
1.6971961492162388,5.754120740353276,1.8460375781952432,-0.2371782727363272
2.5336073675085147,-0.7305534494976502,0.5148311474629887,1.0986306604118017
2.951186854474237,-0.3215825607726831,-0.3639991180745292,0.9772826332721254
0.6899445452336095,-0.5103508625294049,-0.16750085669428072,-0.4771455116589224
6.700641284428372,-0.4682809859812076,1.5196719813806063,-0.3979726988956974
2.265632157300455,-0.10561628375192444,2.1643053591813772,0.5435885061727062
1.7410387096200806,-0.42171505972163315,0.5996416292711644,12.596318336431485
1.1978129784486882,0.28433182451843586,-0.1670385771838101,-0.34622166465500004
4.391001975724606,0.40138066595509736,0.729378974283533,2.0607010174833396
2.4288738987199188,-0.5441429633923481,2.570936794905398,-0.6672421629710994
0.1258768641519621,-0.21498201811690953,1.3650135150138554,1.2191743444714152
1.0462796457506833,-0.5201290122784342,0.088594788386678,0.6013647618514317
3.3646430101309033,1.379177308957909,16.662248132452316,4.764993432542836
1.1994822748201313,-0.8750264700807615,0.10660370775540517,-0.14600890650840692
1.1305884764289598,1.7723103742291992,-0.383126026873978,-0.0812081765128414
4.219823051116374,-0.6164983463438897,4.228473485460555,0.4059644817747765
1.6930422740170745,-0.32305401092738284,-0.37950378877354984,-0.2864764142582792
7.850962447544399,-0.7133220575805302,1.3787182426978046,-0.42894716335977623
3.0081341196970905,-0.25755913635721306,3.9825971236640907,-0.253949352235476
3.06133469672994,-0.6027166657118335,-0.46871095423958575,0.07361573326382587
0.9036486528922079,-0.40974398106442234,-0.0771394386653862,0.66638360010485
0.846001571946597,1.0984240841411803,-0.5764227836387386,-0.1488246288744719
1.485525767330604,-0.164698315783262,-0.15508542289732596,0.7610217348652941
0.5531699001923791,-0.36901567757698084,0.7050386041147112,-0.409601409498356
0.8154885046160996,-0.29643346773176593,1.7659185519370229,0.10977021874544257
2.595024816952319,-0.46457423225052885,-0.10301101564000736,-0.13055061587284678
0.8569107894182681,-0.7223196121477259,0.032960497901379116,0.25101803590003424
3.7516899074372123,-0.5518260219481499,2.47032889568831,1.2236148662058284
1.12809719049161,-0.5311129431811097,1.5972288856679628,0.7623444691762786
1.3051733716098752,-0.6762486395622346,-0.24885092361211147,-0.47880816920865976
2.255887191584929,21.986911185161294,0.12251937117903444,-0.32792714303008164
2.544508015770457,-0.6012749155722508,0.8471749784559075,-0.2792092800570577
3.5163046242445697,1.4581288309876093,-0.3276509759752223,0.46243470943580545
1.5330250198973556,-0.47157547030770364,1.5635568773892388,0.3834701199227766
4.4052558303006055,-0.5439620737814037,0.4750324349822028,-0.5038631197311401
0.4430071823246704,-0.4660251536325605,1.5542098679998588,-0.26573832301525235
1.0053614768479298,-0.41111633356681343,0.01513214136149399,0.6501155098638387
3.3747410417218013,-0.5594074115454367,-0.6752072612969051,0.5484904674893336
2.794710864237761,-0.5333503827521924,0.45506053006639524,-0.6008328084119439
1.5285211038496342,0.13058669087618835,2.808248041124115,0.12589133452225565
0.4112045202661596,-0.6031808606897617,-0.33001612085420384,-0.0097179163260942
2.7068755417296186,-0.30803205578058857,1.0812742713345656,3.6340188351340537
1.1164274878962632,-0.2839546286563378,1.2299862619740867,0.859862409601927
3.9763460361453955,-0.9173980115204239,0.6802863021164212,0.297347752670716
1.7772063100449293,-0.42804209720982433,0.14168809165551655,0.2788371599241586
1.571986104855545,-0.4942515426080286,-0.1536208434045182,-0.16842334942962023
2.436500996732758,-0.23238303350031653,-0.18212353095705558,0.0926908471183796
1.443828908449707,-0.298186267244835,0.47146966549047487,-0.5319618957695631
0.8855203904359106,-0.47157559877571376,-0.031295947098272436,-0.03516633777719835
5.825279346153357,-0.7924536529327812,1.2533155084943735,-0.37098646635489074
3.6392503480130607,-0.9705284429859977,0.5285036814702126,0.5701287630541292
3.70064781419987,-0.6505153667836514,1.547651748058747,0.23211561780385348
2.718447840572979,-0.5793177244570493,0.8313291801417761,0.27338079824952
8.895479927130491,-0.21456269607446177,-0.05180227788094671,0.5744173656058715
1.1822897265135688,-0.7604375276157331,0.345463127093077,1.3334707923535416
2.1666510560514065,-0.32241595405544654,0.20919284117485937,0.288919035522889
1.3575726373892834,-0.4012533564061599,1.0299738372622622,0.4291828170925658
1.1792969662383683,-0.3692332866704334,0.5768405757283674,2.155708592387618
1.3774444321834194,1.926799953859545,-0.8602308127727596,-0.6232127092995268
1.4647054265273027,-0.5562555016173363,1.226905575634143,0.11080535608624698
1.0544939148233765,-0.5743419353948644,4.186425397742879,1.2581747868800854
2.734867826099589,-0.49369183169156794,2.481369543823733,-0.6732825774676152
1.7756617404712718,-0.7486278506205017,7.667278592964754,0.6069178108441764
0.4052452320095028,-0.2783153437867171,0.43558071164474566,0.04625571141022933
1.5398282998878292,-0.15225000375579956,3.5868447163575548,0.9016877943313997
0.9378817423516213,-0.0008108928031989038,1.0368193497846563,-0.4346713772489674
1.4382424728025933,-0.8743680247653105,1.5051563848705136,0.6113809869300091
6.178025262797726,-0.7670724204599415,1.4541404039750674,-0.34346159159178735
2.17071650389486,-0.8324280669812528,0.7692661264411875,-0.8558948622536161
0.4205049122475115,0.33805869424746415,0.09734405931400403,-0.7562768338219847
0.4198555610865635,-0.1321847472968577,2.1434190226513197,-0.5143839463294615
1.48218867716065,-0.773260116260034,0.5224579626268175,0.33732295992741923
0.9437437727656912,-0.7357777165621696,0.6606090608732975,0.5313491060666873
1.731418832354159,-0.574476035736325,2.223396520414084,-0.06606435638955388
0.6625147416096164,-0.002008232958311207,-0.3353423715141408,0.13074927884525134
2.884309429958935,0.26030903963087804,-0.07737692884494196,0.2155251212003264
1.2857424245132325,-0.4391324687149304,0.1690688084632319,1.6568748086903264
4.569017485843091,-0.6383777070583778,4.0449904585623955,0.02902503581995597
0.5627712936836347,-0.8195883745834387,-0.4810144165989919,-0.10800399067742972
1.0296085134048938,-0.6562569053483738,5.905069450054928,-0.1749118492864824
1.4326784249560744,-0.5092185283756204,0.8607998224364739,-0.20982626730607323
0.5892630809972932,0.23670691310280856,0.7874328254258673,0.13534268521714
1.1031339603404309,0.023520642762687283,0.9294588520403031,2.5193648246774085
0.40264298355686967,-0.5229253493777875,1.4884039742704882,-0.12356913356729027
1.3629050415168837,-0.1375247728157788,0.282196773943024,1.8609369210644386
0.9479863603440639,0.16352122484143305,2.596202376935463,1.2462891227021502
2.367594925479964,-0.2185587988034542,-0.4213226803868343,1.9451418321981677
1.8314781509372549,0.7029097019141375,-0.21254422388002603,3.0437460706385613
12.176893489392944,-0.3948014565488349,-0.33029679899167097,-0.04090907522733278
3.8276250275907104,-0.4444519922848583,3.024300817226437,0.734208913137695
0.970723265078129,-0.5890754614200221,0.8191362080655145,-0.3887298802820066
14.073125845315573,0.4352549562958252,6.548624366069419,-0.3048048813970572
3.594888268705655,2.1552783179624893,0.07005001731347615,-0.17198483979466683
5.3877729525064195,-0.5259989035909757,0.8410665121912704,0.8459342138263171
0.4440664616527299,-0.29947757937244857,2.6153741291870514,0.06742698520309376
1.073227830746149,0.577656301303701,2.8175649988046834,0.7109568257935663
0.2995147889283223,-0.5837902086488984,2.638022352640938,0.6810949753190454
0.7157045263823201,-0.007877868077151184,0.36692181187210715,0.36447573525743127
1.865876259383719,-0.38019094289996924,0.07293152430278438,-0.7921871335514007
3.472371166320153,0.5221828622926374,0.7218426323132787,0.20734812090387789
2.960040057890701,-0.14626555363721372,2.931688394766547,0.5386754255027639
0.21168371520700924,0.3415781631379571,9.72231272970234,0.18815912454368977
0.8901104367624715,-0.6313125661621017,0.7983051864220312,-0.10708621918452244
0.8316665775459702,-0.47651007063721884,-0.05606925189268919,-0.0327285170576177
1.6040472492372881,-0.7191691056280594,0.6067223477963972,0.5174699981960982
1.3499577180773326,-0.448669644657925,1.6021136617030387,21.37009334799658
18.429230929484707,-0.5488951001552049,-0.2483498584194902,0.21125200793234256
5.35279486590652,-0.17519934065134968,-0.05065815508627569,0.28697689288522166
0.3753300148032688,-0.5798375321927363,-0.05426345605797267,0.8130224056118296
2.1100942189488623,-0.5347078425491513,1.4214464984225867,-0.19112693460209906
2.32818703279303,0.2557025368484185,-0.14892245386961112,0.03997500643944485
3.3932626678984565,-0.48546212742411654,0.4821078214603931,0.01950025223172558
0.8995467476456283,-0.5347284505537235,0.2537318253085967,-0.2947213483141622
0.7375587202611629,-0.5547920075158068,-0.3327872431661233,0.6882612204159448
1.3776976905448515,-0.24358524380819857,0.16715755020745937,-0.06036271871166554
1.6496024894379961,-0.1341269795823249,1.618547419322946,0.6333393268623146
2.619386109876252,-0.5867357141487913,-0.17589415745909864,-0.4371383346459249
6.411481410040921,-0.34754605432315133,-0.7450139401439505,2.727377395807103
1.6318292529745957,-0.7142488812043121,0.29890166409255303,8.305096599189257
8.601493244349527,-0.7119109284132044,-0.8297086077605598,-0.5822391158148779
0.9923976190418986,0.40218374960132586,-0.6683273429692795,-0.2768658836170088
1.941449648395206,-0.6881837254867554,0.9903803525769326,1.6597227599405358
1.791768815146955,0.27695610279603144,0.05006858493301136,8.873127801814443
4.2646310022434335,1.7136286567442607,-0.39951951812698905,1.9684946503882554
0.9970478010381156,-0.1463546349387428,0.06672719433145913,-0.6780427289854778
0.9508628417219098,-0.2816194861536917,-0.1395453943756485,0.6158207513626084
3.4407139763443695,-0.7772198637512082,0.7332435160365336,-0.36910805772766886
3.166645519367842,-0.37486652476065196,1.887093181039719,-0.33011338227754206
1.2971028693487998,-0.16129561274651494,0.44364630762999124,0.38745161643612036
3.321538497743779,-0.34771499067638345,1.10136572786497,-0.4065298512946607
1.641190398805735,-0.5188220999107584,1.825959992738634,-0.12135176836182504
0.9040126460330229,-0.636311424503587,0.24962410081085085,0.35115923846257036
0.7485821391313721,0.028004857612897283,-0.16675652366714855,0.37808157615477866
1.0698292750854423,-0.44043715491949864,1.1277655002719085,0.3523432798347754
1.1162993247184172,0.09080709959010957,-0.020694809900967837,-0.04198737863303903
1.7850203864823597,-0.6822250661354856,0.8696934895642432,0.775144087998376
2.846519831510626,-0.3104034400992819,0.5126187831841613,1.299440097373782
1.0926550388592617,-0.5737282531041115,0.05149718655909363,-0.4029711233380564
2.4414559202406423,-0.31340756423730043,4.778866532871697,-0.4782640415118974
3.618019342364728,-0.624997510349793,0.0058955988706876905,-0.257114428488455
0.4998640494098756,1.9794504294656359,1.006014018348309,0.8220465388778828
1.144001378399456,-0.7275414061376426,1.3179537001813686,0.07463514654653536
0.6440391612634115,-0.7086522028249431,0.3348396571007286,0.19073220474458608
0.7802125609363553,-0.44185089404866007,0.2422240450553057,-0.09972485305353862
1.1856134773505436,0.35656162661351254,1.2017911220717878,-0.1680696650367175
0.8882053309760765,-0.40243281819712984,0.855750463433373,-0.8286998826838526
2.8658510537685205,-0.6302265983608631,0.289677045826803,-0.907609049370649
0.10545005161998344,0.2739163486963274,0.04046516788044596,-0.08304583680275357
1.3695871681024974,-0.7472082565318681,-0.24645423627282304,-0.2406023124067478
0.275696815554727,5.732056270596134,-0.18586711175625836,-0.42976052388264996
1.5393328854349195,-0.40729655579712665,0.701920068795175,1.2095533531375056
8.264145542476253,-0.8907707080980032,6.041492141533878,-0.29994705309132086
1.2992214274943619,-0.6433622263803662,-0.6713009197128217,-0.13769291531499261
1.713910764731351,-0.30453339022901516,0.4221985712195191,0.13189492625009325
1.9985708622266252,-0.28989571453086826,-0.2256981191827464,0.5510177840654733
0.8809493619629036,-0.6335840525282146,0.6728001063468745,-0.4935045149499372
2.408571947022722,-0.6912348222970377,-0.03524222164403312,-0.33335001169870593
0.9972371576368491,0.3724235849863764,-0.18342157084353128,0.4826851788230442
0.4725896524821831,0.08388501515269908,-0.7545867087082685,0.6877733698113548
0.21763548189700987,-0.893780644232711,-0.5414535657986512,0.39400666372149673
0.1781395543191555,-0.3994530474479213,0.06392919826164234,0.052253359514251585
1.0826395170980403,-0.25049158245263425,0.9086776531690623,-0.2161751887468999
1.2345874589839316,0.44272080598053654,-0.1329115644405574,0.5229646902539766
18.499503817690346,-0.6481095584727747,-0.7791561650554737,0.5760908576764441
11.344868108709257,0.14143754020916544,3.1073622096167117,-0.12557495966986376
1.8493654643967021,0.22763069581600703,0.430517710168443,0.6787234189015017
2.173635640643739,0.3350589574286287,0.5063132210270935,-0.406109809427596
1.3578541807670907,-0.6504249944275233,0.5398194326778336,-0.11899801917295116
2.2992702486693792,-0.5536894607776701,-0.4698182256202905,-0.3251527574610723
2.2975370717877652,-0.2549699663390933,-0.15910143198391657,0.49588001676870697
15.049212368115736,-0.6458410433254882,0.6416024110301979,-0.30616887907649504
0.9417295409046482,-0.6314511011832915,0.5711537798531199,-0.2025314576489785
2.000258137702535,-0.8533578846248334,0.4998725453172803,0.16414508378472004
0.9926995622664185,-0.7754216077254098,-0.05501100558767558,-0.5157114815785993
2.0288890467304994,0.1533204481763939,0.9944065958066621,0.8838025502376352
1.2125032980149477,0.08431975676990389,0.19824470567479824,0.21882599772212386
1.0232098644706125,-0.6345954435768879,0.5295617106328694,0.3476698120251174
5.34838253626487,-0.09281367179543254,0.6385881640383182,0.5983799042852811
1.688185262994092,-0.28271691271315125,1.0522279743589276,-0.7979732024789898
0.8297094050505027,1.014239171309479,4.168848039554231,1.1422400887104742
0.5063428885287768,-0.10405941651964257,1.3336890474237029,-0.11905019787602955
0.3438917244460302,-0.5353668793334845,0.509353089065691,1.2822354627940578
1.9259656800966276,-0.8069747863869999,0.44853428770181436,1.2141951780042852
2.0085175046604684,-0.03276482486720289,4.570189994246453,-0.6184649527636603
1.233527214525835,-0.12996304989780638,1.514422898659065,0.034042971890869245
1.4113036232483336,-0.021566310779613795,0.5644381115646979,0.2133540955593558
4.731201278344345,-0.5573683135570178,0.5154551879072198,-0.23999465262436137
2.110470507537991,-0.09381403505871966,0.600725481898444,-0.7013073013123208
1.380142556243141,-0.6690441933910631,-0.2572969102665019,-0.7666334081124527
1.0807288694039148,0.3652379717774268,1.3918632102362118,-0.7685025202290365
0.6824408861427194,-0.843182949016557,-0.4722376059436003,0.24720505232522139
3.2718546718084927,0.1756208055852666,0.10990928795593269,1.6859425103277585
4.5216256116667015,-0.5620422478867672,-0.29896620452368383,-0.22678911239290023
3.566495494569547,0.14276055776549756,0.4078574563538371,1.7838934178787307
2.090944975577022,-0.5625785361288593,0.4846630665157292,2.942768797222151
0.750045153849711,-0.45731520644797885,0.8337317037801824,1.4590867039054474
2.425784046031303,0.08541577407691836,-0.7027888205526045,0.5059371512015576
0.758371196339773,-0.7727894730666223,-0.29181119145224965,-0.22024745385159794
1.5018220141026024,0.12251755712282075,1.5988709891865085,0.5783803954989497
1.5205416809124466,-0.046398855110933224,-0.1403965966247247,-0.12640268940901922
2.226854911693345,-0.5411654760063378,2.645083767930145,0.31726017706300125
3.48658424830952,-0.03228417044541476,4.066789804251344,-0.5956029903944485
1.679341998238737,-0.09258937127614619,0.30920126195758035,0.7570994568437888
3.223263178396201,-0.9327995726868613,0.27317085464083557,0.6046739780050712
2.4908461486767486,0.4235533429533336,0.5763048542799296,-0.6362316304256026
4.717099657068272,0.1463413355435761,0.03529421284585044,0.27368520235074145
2.8967030540789196,0.4236645841611171,0.5967945112140354,7.304635935522384
3.2104776745541583,0.47666346652612535,4.7859453296266015,31.912018322253125
1.8022832651782674,1.0628510258818062,0.026696838255551025,1.2569045310834523
3.663757370010897,-0.2958973883244346,0.8457605655063751,-0.28722148151303495
1.0929704683314783,-0.31696757559707234,1.3775269924158895,1.1496212483382835
0.4341724093685069,-0.4343946756941214,2.3911086062581153,0.5908396716916722
1.6207873653009672,-0.29949536755626105,0.0157554934301809,1.6337390502648446
0.609789641798745,0.601921583421013,0.5726960210045915,2.9522048979033406
1.083124435603342,-0.3071326015174439,-0.11044331774380789,-0.1899472567209436
1.3967946319142461,-0.4819931767542388,-0.16300122431073039,-0.03659851126715785
3.675800792417852,-0.684736293397894,1.1312140824866406,0.1741580406692742
1.5084836989232477,-0.8620681628778781,0.4059791431702111,0.10318935849126865
1.6681088778177795,-0.4276955389379017,1.0224080731735326,-0.6728393075514071
1.5922800593281048,-0.8797006027400782,1.3630781300767425,4.1078648019820525
3.3611902147245223,0.5108397918387015,1.0084038429512012,1.2346678586479096
1.9244745898993405,-0.6031833437356975,0.306563163770589,-0.0361545675880407
1.4892112579079448,-0.5320678580815101,-0.01575916140783795,0.9043910493403515
1.5930576970222705,0.714325384451181,-0.1576799549226836,0.4241903708181347
4.4494502471776025,-0.6225007507997393,0.23031806103550423,0.7020938636944145
11.908347574631218,1.5652983104389468,0.36500761955389893,-0.2816586980047455
1.8522297917844628,-0.28495886454327823,-0.5249354146549847,0.18280584455380144
4.575953851639596,-0.4543621268473399,-0.2588808584180351,-0.14187882521109185
1.7412422461137118,1.3400919763772738,-0.10223789226101554,0.11061085811452998
1.36140941276496,-0.8981624881587407,-0.14807307179961726,0.8972886319418174
0.3803725121886872,-0.41253997165525746,3.5220079358268297,-0.1397295596510234
3.9294048102762122,-0.4802715359619395,1.2195088910693128,-0.037916544873819236
0.683112150895798,-0.5432208498225677,0.3905938797316888,0.9752411861216999
1.713878135322393,-0.5974155837391872,-0.113392611837971,0.8480210313211998
0.7926749810171123,-0.37008957511006235,1.3416135901952368,-0.09386154980481032
1.7961435894772726,-0.7694958920203839,0.26789277290918556,-0.6569507775192561
41.9384232358083,-0.08796236833297877,-0.5308606906935167,1.1711052730458742
11.6817397603691,-0.6434532270061455,1.4659373205944748,-0.12135305541727537
0.6656471217800655,-0.8026768105515326,-0.23484422505456493,3.572465573311378
1.2574161799799617,1.0164519684717477,-0.13544685239380538,-0.1942400779032495
0.7562820311597898,-0.4610901129876982,1.4067164184925378,0.0976747752745577
0.44649952265718196,-0.5816735856125363,-0.1569617919878845,1.6424369571429072
6.5269739426616615,-0.04746362378461211,0.8629916599116909,-0.3757380297192565
1.2464847263121737,0.29380884398442664,0.2632242872015389,0.029613244923257342
1.1802840820079559,-0.6194258808042785,5.226461985728715,-0.35688660104345316
2.1703300284263367,0.4931464772510352,-0.317896627846202,0.3705068704579946
1.2053491263050318,-0.092023619899407,0.6742603773410794,0.08925621350296553
0.9295301354195931,-0.42160765645956333,3.11828226979377,-0.4443533266919617
1.860954249466523,-0.5398180934219461,-0.4032124291508441,1.16821842826127
0.838233331867515,-0.29752915869454255,-0.6089357402754011,0.9355843532112489
1.0931749382441822,-0.8183256350612987,1.177022021903995,-0.45459152448103357
1.5377139773081718,0.08297700749921888,0.8995211517306203,-0.4546644331225609
0.2866987776957257,-0.3841841427655236,0.3940962104825587,2.740244868672701
15.234680720851298,-0.37590111980642804,2.3178751870396286,0.7272463564440304
0.6619203531908942,-0.7900789518885195,3.3049126746181896,0.2248697117808205
1.7031062384677802,-0.3193162738398089,0.26789382211093016,0.15730038796462598
2.8297970162091577,-0.8262996444268931,-0.7812002195811342,-0.5042143325664437
3.9189167035112114,-0.4802567108558847,1.8715139687363855,-0.7992691984103322
1.5563305427919651,-0.47387679692581075,0.4179366424329196,-0.40891409938709167
1.704714494547372,0.8791307803534214,0.15255209826561122,-0.003590041421435597
0.7472900171733365,-0.40633093802390474,-0.4413366271228145,2.4077481671701544
0.5949968677577766,-0.13222141879245675,-0.5909825790301717,1.5303082901423433
1.4333672435393225,-0.52301776055697,0.8284616551233837,0.025012202263906103
1.9915465619358024,-0.5164516401830698,0.221877963568901,0.5360634650888267
2.05917096547491,-0.06236100425743196,0.577154282586122,-0.7180315889398838
5.938322628812313,2.2676312804644474,4.1573058437062596,2.1874481992398653
1.4523871223987466,-0.8789191777224385,2.0759018730081444,0.32061474030125536
0.6689318890535485,-0.36904958313697145,-0.257957162793641,-0.27761738780835377
0.5595072422937628,-0.7636912810059797,0.6494060226849749,-0.2046852147559557
18.1333644951679,-0.6730904086682951,0.003952304499497572,-0.9731589362660825
0.853472557550764,-0.5475347647971921,0.09914655490324997,-0.18253570518252982
0.26755575905941353,-0.32520412498561835,0.4229263185900216,5.56914180805649
2.818419663322108,4.3627120480783725,1.324771955815812,-0.8062124782496793
4.9074320252842885,-0.5793937192567505,-0.24215840419511891,2.8169803662122184
1.3200565017373695,-0.009688239838556156,1.3808661205782826,0.038619978027639945
1.617272278490789,-0.5618153812451867,2.086854095130326,0.3040732211242505
0.5468047488361323,2.838029883418713,9.183175211985578,-0.19314805321464268
0.726928462841437,-0.41532439612808514,-0.8547482846949567,0.3436873310141171
4.9130340763029325,-0.20029151205552342,0.29446105686917035,0.39752166531416866
1.603864789280292,-0.6631422979058613,0.646263989799271,-0.5479334278646439
1.6405305806563661,-0.7093935049016136,0.5184235226037113,0.409464248607013
1.1642801268025895,1.667900946049138,-0.16189792228100885,2.0763927793886383
3.333600103042283,-0.3667067298514849,3.6189790215402287,-0.12585944671330218
2.3717255487693096,-0.6679431851182607,17.392401968730542,0.18861923791685808
1.6967242703542924,-0.5802047930297899,2.9586220983277745,0.2494562213633833
1.9349912476119968,-0.48523352519661866,-0.48601511604993697,-0.15230483576317744
1.439720606584347,-0.2841999464464172,-0.21046232317018287,0.3239450942145803
0.39582200472199003,-0.062095717009315377,1.12685714283045,-0.16056118189200208
0.5170875557500667,1.9688227963112608,3.0608871385043743,0.04145014862769303
4.979048746647748,-0.37527817441762346,-0.02087119827552031,0.3328914015484554
0.4707666080972459,-0.3813110165043314,0.22498809030287026,-0.30009841265127324
2.174765981836473,-0.5407953336666875,0.6364579025710657,-0.10928658824714177
1.5382141019164575,-0.7016579501165539,0.6780245361625012,-0.9474416243985687
0.9301702249064585,0.17496303154613124,1.6385843355109522,-0.782276189400994
2.342667404276179,1.199432911246038,-0.6006178696629187,-0.18050609875844625
1.5204420785617048,-0.17113137454023775,0.7035749869658885,1.2272736655337337
5.246292861550142,-0.0051201155203672855,-0.04114529845916082,8.433777058426012
1.6574714597302558,0.08451659525168864,2.9592208402372733,-0.25544304310242316
0.4703211399937799,-0.6918742969612013,2.8954099525054007,-0.16672339462889885
1.443419559162129,-0.5211026070994663,2.3468247950086027,-0.4406433580397774
0.054511776861321026,-0.8087662081488662,-0.41475876427918856,0.12792725385994652
0.9382944977506316,-0.39818986843307913,-0.21759386816781645,-0.7042101311766424
0.7557452758312226,0.3333271946886258,0.11679277523321052,2.7420699366091013
1.5336325731919596,-0.5468001126985675,5.605313469704034,0.12942454265286818
6.14625384886626,-0.48689240832042135,12.35407506986878,0.0502063452897501
4.13558742966497,-0.6918651805001066,-0.08693293476829611,-0.407743781918705
1.6093203469038704,0.2066951872645033,0.9891663321457296,0.6894834197514474
0.9122923603420456,0.2242910118157948,0.852299703412168,-0.14409519994498565
1.5596177253126555,-0.6386063969596228,0.4611091680275454,0.8478645219262992
1.705941679417752,0.7648987104758518,-0.05378354269222618,3.189275883770212
2.5154773448798067,2.907811060731419,0.07304996129956876,0.0035410916173714835
1.2275032503922247,0.063171160398106,0.24812238375849494,-0.05376562581450306
1.2151121088218249,-0.2571423336961137,-0.6044317256741456,-0.5719295724299647
14.814643050031618,-0.6256694024753977,1.3631482166396576,0.6675864706276222
0.8938023241850492,0.14475118890259742,-0.6414574145011218,0.30713105908487504
0.48871215411842694,-0.4551221097261178,2.9374066701829387,-0.2315023278792856
1.8743040796112824,-0.3427248438592213,0.4736858488732214,0.01131072501135666
2.1837422547130627,-0.7869121545674441,2.177279203779833,0.3495049851037353
1.8480718507756242,-0.7414637735997376,0.5777243439790252,0.6962943239192776
16.656820821009884,-0.32379407852446007,-0.296136408981578,1.085392684409217
1.40835426628984,-0.37650649714182405,-0.105678640159938,-0.4956096942616268
1.691523030836366,-0.47582712348575495,0.6742445132887922,0.48217509117606205
9.807412253549384,-0.6736022861107486,1.9922405342138072,-0.07180406815694262
3.6669826675538166,-0.6322476283667305,3.5370919643375123,-0.7569394804578666
0.655934393142311,-0.5510299748384582,-0.5287682931330788,-0.7400894894890075
1.4184769770216406,-0.8603092402175786,-0.7615074210758495,-0.4142373430758318
1.928424482780859,0.30883991581492687,5.711453692679901,6.471021126834056
0.8940496435192702,-0.6469824522602766,0.3177229847705796,0.556770381059958
1.7176539798430874,-0.8071456631045674,-0.5934763606502733,-0.35863271033852206
0.7234537559913299,-0.733526388738198,0.9437890082685017,0.3936990990237075
1.7607582404109405,-0.19837218583166127,-0.16945311956895726,0.8133089551513857
3.403590554516833,-0.7392565011392565,-0.4173515688535314,-0.42231825249650057
1.1023542063095295,-0.33924220942194727,0.8719633826716069,7.144078540606396
5.00267805035645,-0.13683607279212806,-0.42664722575297964,0.32255423662473137
1.6185225787055169,-0.2610307453985903,5.316862058538301,-0.718623168898112
2.415913929739242,-0.30324634354407254,-0.17220046317365378,-0.4008811019292675
3.5529948822159323,-0.6742553718817516,0.4205491074942922,0.21998188880855185
6.890908187981826,-0.3381324785285714,-0.47821026854919935,1.4369741730067158
2.2356553762083786,-0.2783772589920266,-0.44949783294214574,0.15766182571749576
2.241538897319426,-0.04509665377489802,0.6833155023241291,-0.19077798774783572
2.1163060133711986,-0.4678011400304314,0.5074855209590834,-0.5673742041746969
0.5565529209501949,-0.5242810540246854,0.0531884542652572,0.13879272326019199
0.14823580865639086,0.28479147997881915,2.012649788186147,-0.21344333741978105
13.504704694026184,-0.12571842913283537,0.9299721957342124,-0.017121006124999893
0.24812211091740566,-0.683343930406225,1.1050672319232104,0.7232907911705004
4.783985834619878,-0.3460110871323918,3.3696913830733166,-0.9681627935766907
1.323952288004619,0.15684458437394655,-0.24741996452669812,0.3282455798031505
0.18348268796871348,-0.6206551923912588,0.08851888192584623,-0.23306901537188995
1.31758244962852,-0.5204770174094207,0.6628580213505373,-0.4908576758464588
2.906698836780285,-0.428473051490726,1.0037605882276552,-0.31263269683491457
0.9399541323684624,-0.3612092075247568,9.029470696709437,0.30998320105219057
20.931767346955482,0.6320389960256929,1.4332258000344211,-0.52112102910469
1.2163549074133124,-0.22676785493283524,1.1076934512907823,0.04076514172581813
12.111220855417926,-0.09327591928773504,1.573493656342261,0.7551682761175658
0.5619366301334157,-0.41040609195591815,6.971167716697921,-0.3031451189048242
4.3461376817110295,-0.57475803857686,0.08397021025740603,-0.7331663867479574
0.9319385269769989,0.04292166085112159,-0.6708072531018876,-0.7534894458997681
5.17473065320356,-0.530643084815086,5.125416388574288,0.2701270187786575
3.5028551843272853,-0.2691142160819491,0.111755633180322,0.028341675452900894
0.771898212164569,-0.6818005254602031,-0.1460915181448178,0.024405264014257133
3.770725582146537,-0.6214996701154492,8.602194064006145,-0.751449627837727
2.092152351544041,0.029645403997272002,0.48840717341249795,1.055529470345801
0.4907725338132374,-0.640524151783118,-0.18414517858083368,-0.34496897871445764
3.7727771598591477,-0.3267275788398193,1.6362853110744782,0.12731133463344357
0.598309709885855,0.798725578598056,1.184953712571803,0.2261335975864336
4.944951973635956,0.5240431048324734,0.5511480194848422,0.9281536971873061
0.402216552352717,-0.18832620078322992,-0.5079262241801419,0.617008793804481
1.58705488668051,0.3535126504210957,4.453798320526883,-0.794306144883581
2.2050112490899885,0.7078395361493843,0.7853177135980596,0.15724447099841998
0.6352072590086495,-0.578690197548631,0.5886667935251502,-0.6592593775218918
13.443018188691404,-0.7435808107173618,3.772245550873188,0.33102282911691727
0.40559832234796067,-0.6426516504150318,-0.4176547634334943,-0.18436381891304332
0.46561527201122055,-0.44393778848463505,0.36857279318925373,-0.31240515954672365
0.25482519373045887,-0.6149367665217371,-0.029756485449860315,0.48309537883671383
5.159084185258018,-0.37952281514589237,-0.2675420383629805,0.2748884142603809
4.783989239695877,-0.1925657109827743,0.6907559731967992,-0.5310093891572667
7.461054791986371,-0.432721759596322,10.586591809523847,-0.19459766509642795
0.9364210243422633,-0.5307089942800135,-0.5196924392032284,0.3572960321193823
2.7753221687801526,0.34177912255904963,-0.02698465202055056,7.092367058005298
5.047552983970621,1.258883792629939,0.9798061375715843,-0.547912445698995
1.7352278996038613,0.08998595297583734,1.204819088240448,0.437279352352955
5.1066803920816035,-0.3272282881740287,-0.1490004670651489,-0.490181507056364
0.8850156045997217,-0.0037555857060457276,2.227876604387095,5.6601450210514574
4.223937465183499,-0.25951794936271533,0.8978684075785421,0.47609375224570516
0.10842947438757378,-0.2774600717496667,-0.09396765229501625,0.3894920425973065
4.159620322921061,-0.26785549048380286,-0.5428152824932564,-0.558663000489789
2.606421234368413,-0.06636749672076958,0.5402532843839025,-0.29208719071394795
0.3125554180213188,-0.28055128753691705,17.533032939834378,-0.09770609817399811
3.4466018419975653,0.595020489661694,1.6166315239885072,-0.20482267916355545
0.8951464032776444,-0.46748544294931493,2.0261309567160133,2.13413849119209
2.239592090718573,-0.8486189789124483,-0.7541704196598121,0.03996693561328257
2.16821643275341,-0.6549473573942219,1.3850485862114388,12.169837051913142
1.5741710066155137,-0.8417869816287362,-0.710097748065078,3.1163575383589484
1.7391644828639574,0.9618413780885162,0.9391896608621615,-0.2879884054148215
1.0366120986953842,-0.8251470743109333,-0.24312514787689243,-0.4506493192727856
16.712066137637724,-0.6504225449186609,1.4432026237197362,1.1047784910107992
0.81600330772743,-0.29459747622924015,1.163601340995064,-0.40783342873773165
2.175833579625014,-0.41860998840274677,2.09256359697664,-0.24754122673577372
7.957183746538657,-0.271920976461676,-0.5693689904678143,-0.18620155679589878
2.297699983472798,-0.822962230423965,-0.4646999014839416,-0.25201446486315515
1.2497648587037866,-0.08647188342509782,0.516734180251494,-0.529513235115342
1.9072293424044053,-0.6595621475241029,0.11794665702176022,-0.42723296977051783
1.806530948659625,-0.09077843368521943,1.7151454501335506,1.154881314733323
0.8047695389744254,-0.39605848512625297,1.4256765348370766,-0.8514792318119682
2.149689072648899,-0.8256470412580438,-0.05015322713285175,0.4964187693857012
2.1447216675230587,1.1393733815311728,-0.18412520981299496,-0.4434165422042238
0.6165814052360885,-0.6655479015505672,-0.047759293540540315,-0.2163752377565875
0.07562644380990169,-0.6131276108130324,0.7530379035884529,-0.44972327271152635
2.326927715873185,-0.2744366282236391,-0.2314361034209581,1.446256057593569
1.0092008151464609,1.4121096779699633,1.0164942652832498,-0.5068785391456119
18.768414434721524,-0.41000959029008965,1.7758912399255906,-0.15124605211123
9.24778438589323,-0.3499674135032532,1.7767957936543368,4.1387897768972834
5.90464517917712,-0.8294302035664215,0.3119226754689075,0.23035751468129906
2.3983101896824097,-0.694018896101473,0.018582382062608538,0.16058679621303917
1.5253775003018446,-0.16506869772626698,-0.4617878688807483,3.2309371126775446
0.947000349287406,0.45967019622047656,0.4061039928462271,-0.08568389258073628
3.649949718827693,-0.4571540347691515,0.2042290402704443,-0.16585845052266512
0.7626466036262642,0.19908060172509057,0.8476725602081157,0.17524975320366742
4.821193137202079,-0.8269164810591022,1.9599270162634101,-0.1126759974903403
1.5009675832821348,-0.6362635588682457,1.4721981458886173,1.1062271679725786
2.687746677768177,-0.27555942102344566,2.0989222741680784,0.22960997288941276
7.590595940421775,-0.2491793732051517,33.81455451829745,2.615459307233023
0.7547806274025504,-0.4773512110769812,-0.4531332928829873,-0.3040535602555917
2.645846243613485,-0.5046135795290709,0.07978620110708601,0.636646732874038
1.9743131447493623,-0.7927320829035339,2.9083494023341556,-0.6888311265730791
2.180583751095349,-0.9265328059223423,3.4056967805200262,3.932960237730958
0.9320182516863851,-0.04373677933750231,-0.7462280355825974,0.772634260328253
1.0728202878650603,-0.06571073236835823,-0.6593613539618244,0.04804156296154649
1.5024790468726992,-0.3420019791865635,1.4754216502757855,0.03717133109941573
7.889993814507804,-0.777646113490959,2.183660737502482,-0.48726269130730226
1.3289230049796688,-0.9147323246839294,4.784048596203647,-0.6051575303591312
3.470260970274426,-0.3742387341575326,0.17471006411332213,-0.40046036168812926
2.370560407597446,-0.6453120328337916,-0.11164623473664925,-0.3218640168498301
1.2244562851759762,-0.0054808261591690055,2.809501633015209,0.21600676125195362
1.9518772598283158,-0.010753332283542472,0.16384486666727938,0.5238962418114335
0.6984230575462462,-0.12951447151855588,0.14300891838612384,0.18165169594752584
2.6469989219485113,3.385062711443158,1.5820213804117995,1.5029317706926912
1.4873168682537408,1.329492302578399,0.41871426700123404,-0.7326219254644356
1.2604851052430313,-0.531396382281129,2.9504988846077893,-0.6383990858748314
2.567662581622625,-0.9719906570523377,0.7511519385913783,-0.03715251929213603
1.4366861247553788,-0.4624340398291207,1.3931341426431723,-0.715067379814304
2.1565956608122434,-0.1352457246989328,0.4741908045160719,-0.48126867500895754
2.3279064669776246,-0.47721666712122324,1.25912157783111,0.5324231408456859
1.707386505512975,-0.4728557415363267,0.11771563244852024,0.6761802102036327
1.0973984481631587,-0.016631975954486178,-0.07684596115122821,0.6104278035490132
1.6708586375966425,-0.37144307152151756,1.4045304340448688,8.133148116005215
0.4020876545535983,-0.12925609960781603,-0.6465703887491683,-0.5471194108702467
2.7648655676101304,-0.37394369135268,0.9860069647759904,-0.10635653858645189
1.3358787720604104,0.07742982731070813,0.5034232768409106,0.7415384949613422
2.8801320108652178,-0.7699840276846532,1.6863794552659708,1.500433633540863
2.014247370215409,-0.4304970988810197,0.12259304393121084,1.2556201887320624
0.8476993487912317,-0.5350037033578905,0.23742475118477047,-0.12346635024558739
1.67880400057228,-0.24465441036578528,0.8658481676817993,-0.23263951790457116
2.685888551589747,-0.9833756587443983,0.5199690193519881,0.26345497167304477
5.2609027314183665,0.4173445856410485,-0.3611936727708389,0.7438414189098805
19.212759988667408,-0.8342804199938632,0.13589670554194622,-0.3770531383140162
3.4703040973292527,-0.31842455455651,3.716572471466237,-0.4703457212159251
6.217811989208239,-0.036085709357355555,1.6745147780144056,-0.7115807827426277
0.6335493028217185,0.11406632036050168,0.4638596446061263,-0.40717558964129086
0.5708257285379013,-0.22779448247756295,1.7452649990461033,-0.34726445101685666
0.5087140219717408,-0.7625723401230671,4.060569790090259,0.7648509503861372
0.7046398641092626,0.41501925093001923,5.608318935427759,0.5576354017123037
2.4986937554676283,-0.5228766581796012,0.5620491854904939,2.2371942315092515
0.6132927197960742,-0.5610406531708435,0.21810964000796962,0.8762322574136756
3.739201800820765,0.34363284792704896,0.4477197491256979,-0.6114887447286097
2.74280099226395,-0.6090048585797722,-0.07177755667714747,-0.4629162871204907
2.717578131534592,-0.6497962751334712,0.35241845202512545,-0.39913358075105243
1.0767951759371241,-0.4858637022441694,-0.6732826819765511,1.0848784483040137
0.4717213641544573,0.06820492437893844,6.759392798514052,0.4168412733347622
2.0381907798050065,0.44205079424856075,1.0595657824512275,0.35158241478382357
5.540594748177851,-0.4274513460502103,0.07073869240540742,-0.7850714543524433
2.4359668143598467,-0.624828831038498,0.20482398691149073,-0.3404218447323998
63.91179226904201,-0.7850553257083095,0.08876224908598207,1.9294225514288437
0.8545341838065705,-0.7683755813788057,1.2315183097691036,0.2670818728812465
1.4231814067528448,-0.9068710547771792,0.9731777324566533,-0.2659066313488898
18.38721663734548,-0.6422223733912442,2.107908911566512,-0.3443337473286665
5.370958003416916,0.014576636970428547,1.6668803715575589,-0.45984372739212154
2.4229933294999983,-0.8147167301350715,1.1359939244475612,-0.3888541627705232
1.8674604375661241,-0.2746720790374959,0.3611272958507721,-0.6025870142754862
1.0159290445663554,-0.30284660655719675,1.0738740691881987,0.27299161317711707
0.32515923669809843,-0.6149529357792011,0.09251022035915724,1.7768125436227975
0.840354338790162,0.9830428980993478,0.41314682497470256,-0.30213937692674886
0.8091823117156789,-0.8885489901611084,-0.6230043488479202,0.942116192107098
8.306403556973251,-0.4750937417413703,3.3369455415040967,-0.5398282803969177
2.94405390565662,0.10471360968728849,2.941686625442076,0.8078427281934426
5.069719090418977,-0.4440750666363421,0.44163052986096907,0.8566558721895252
8.055025492067942,-0.4129043984444569,0.8226400216845868,2.951242107438891
4.943322914318284,-0.5493681040181944,-0.24270090555503898,3.457556499509506
1.3132171606473864,-0.3064528929132284,-0.5488798827575427,0.49777600330564153
3.555734041565482,-0.5484407499217643,0.27708161046861046,-0.4350409580803619
2.7069496022351003,-0.6218913216043329,-0.8437532850949336,-0.6410468423472548
3.0322021497710923,1.6972043984012704,0.1748879227289737,0.6683564550357164
5.659955835189565,-0.9083775818286584,0.7222925931160171,0.4287950941883625
2.2857756659600157,0.5570806767467196,1.2364754867893328,-0.3794182560101803
1.1571555593923697,-0.7833965909539086,1.9686565299057688,1.0015805892630887
1.6184088887977301,-0.8509137069426144,0.8459700996533701,-0.4452227337418223
0.3907662478328402,-0.4093166499983494,0.5046234821512363,0.08658219648912979
0.9182156597975499,0.03069712890409515,7.7079025147581,0.05418973047177911
5.928449280423561,-0.4546971387004045,-0.25835355480190236,1.6698430039076122
1.0502935842572074,-0.3843662198429608,0.4141749390330929,0.8100007372960112
1.6279538523149037,-0.3652649657992454,-0.0889305432929447,3.811474904108504
2.126062701510579,-0.1478736043894926,1.0731432799148029,-0.6610656459004565
1.7276017045818235,2.3443392240279572,-0.4833305301579983,1.1445208171657932
3.6014983832454908,-0.7864807290518054,-0.32610457971910767,0.0002979237854376926
0.9341308267358208,-0.40972405671748047,0.5114269541607381,5.904166026539828
3.7439181328331577,-0.8923765884755189,3.9153956195321324,-0.5065582222407655
2.138465810100924,-0.5812219318473342,1.5219342729201397,3.244533336418865
2.414587471406179,-0.6797542404341126,-0.02166610808510816,-0.38202944375215375
1.2781187443315551,-0.3614097136646889,-0.06619188287000355,-0.5567462996977224
2.3567705743321863,-0.7578850986589036,1.709502479639482,1.544761252578815
2.6055747968606346,-0.31209711619570635,0.4565723486856008,-0.869757373353497
2.493203093403922,0.6953321480900267,1.961476303188579,-0.19330111772878322
2.0926903598515687,0.10454120560177604,0.9269954028753673,0.16937757932747588
1.6011541701034626,-0.09496818943574292,0.024378293400913797,-0.6304974172760617
1.1929026341654505,-0.867840007401552,4.823202700290713,-0.28134493825540696
2.8304933514752384,-0.6504223734447727,1.7732859580787448,0.692986218711926
6.5599617844679186,-0.8832641403575521,-0.21589183929358435,0.8167866702846702
1.5510629239576716,-0.08602629042156329,-0.1847594125776686,-0.4383473040981505
4.709735166875596,0.5306552899095309,0.5512137234151451,-0.04112476935571996
2.5948414766138406,-0.8346855342413781,-0.13186152373688587,1.0487517046235402
3.3252959232952124,-0.6186963094738279,0.28509603180838017,-0.12038271816459589
0.3341600625763963,-0.7448637816642876,6.387011224939226,-0.5503022345717904
1.4930722912288754,0.015742643251386967,-0.17733532577052957,0.9806361090660864
3.3551790809062663,-0.5580963694170076,0.7789803747478854,0.42404924839882807
1.132822914026964,-0.1091565009504798,1.2973448905432599,0.3566954987311677
1.0249115629596277,-0.2845369031685486,-0.10225520728944903,-0.7811184000357027
3.032117492318868,-0.04984059081503145,-0.40721618526631886,-0.3466764144838238
1.2991821451419647,1.352110661283171,0.006073603795902827,0.38132860709199345
1.0364625569613932,0.25696355108192415,0.14280140887756,0.8366921282846349
0.8568342930197017,-0.5105754862269887,1.2858754668044172,-0.6895732334282814
3.0567121696171613,0.4053349858171267,0.37964178725048914,0.17337309206374907
1.7237171901390451,-0.32702702291712826,-0.40639502536921135,0.8320352731349536
1.887710234654861,-0.5005917341236925,-0.03355075219635417,0.01041875313582974
5.47786511895215,0.3047989177101489,4.442908006989342,0.6126367850311574
0.9102145531015957,-0.5236681177271952,-0.10650305886513778,-0.06457652864007468
0.2761920780294529,-0.2208583528081628,0.9117510400823472,1.0892392551784775
0.6937199054812702,-0.5464743414768409,-0.5268200300908877,-0.4296066494450965
2.2252404656686102,-0.43211909898522916,1.4801773605644577,0.378291548999375
1.386133784036495,-0.8946199085559672,-0.1919077843918111,-0.40144144618891575
0.7194870192868807,-0.38724250147524386,0.9038701522355892,0.7779596248177674
0.9875316679525274,15.920583905959873,1.817182757869507,0.4301067145435453
1.2715420037442513,-0.6683230771750239,0.2044984992570562,0.1992611021752153
3.2931605911158197,-0.6695268508106712,1.7816776367696692,0.835875227175289
0.44325893286541196,0.6150445727441289,1.5691559211768045,0.4405402900122186
1.4675257404604447,-0.2505714891712115,0.492946458350217,-0.36262773500618506
1.5764590129732565,-0.5756435680426693,3.3630313312851277,-0.6869279699557038
2.325644479995106,0.4100737801971104,1.0579320275832886,-0.41378595071668545
0.480666841554797,0.0422546163691333,0.5639692213397922,-0.16633539135183928
1.0483617843362185,-0.23087549411835762,1.3341852789508928,-0.25790071252023294
1.9850686432995857,-0.13405851427337045,0.35894573737489477,0.5198835061403011
0.47227196245014835,-0.8061990720733411,-0.6010000051700097,-0.6936134129606504
4.94321451494975,-0.8898448791470882,0.7813315940235657,0.6060187524323803
2.0750084007115523,-0.4894646758850847,0.3472178209419068,-0.49506110117991153
2.058808589400794,-0.689625180590339,0.4529350986530938,3.2689633852327376
0.4684786865522763,-0.48038025815332575,0.68650174270381,0.6296706658601738
3.8682715729558135,0.48319227296331446,2.5341906810700423,1.0223232525878125
1.6125100282378728,0.1764796607461956,0.1439045167288957,0.8362209130041958
0.9742470256371023,-0.5996839742597376,-0.2046153810521022,0.009627226961872237
1.7790353997852533,-0.7682051259662899,-0.35995344980146093,-0.05582352540473867
3.134523605940487,-0.6933015543767246,-0.7224044166194219,0.3380550576255428
1.787578252670074,-0.36166188810513134,0.8141899604698009,-0.6127978576333523
5.587647733105882,0.48934467991802677,-0.7881443931835228,0.6740768242962039
2.4581411223656247,-0.6041610666051986,1.1277092267346567,0.6477322625770352
3.9522354813738634,-0.6156188375035097,0.43368940658083077,2.883524125064756
0.8394152817617149,-0.3414917956682402,1.1261048784916086,-0.35094769184665386
0.7847239888022017,-0.5422853216155583,0.6310147019775969,-0.1250493028341222
1.9168372685279076,-0.044704088208993076,1.3875029563226344,1.5201631217202598
0.6208126039028681,-0.7098029553428491,0.3935423311830435,0.19747947496607332
1.6946639711538531,-0.8156005290969605,-0.13367673003064295,0.34229777716787124
1.0848722233557009,-0.4359699312489346,0.5817019946345443,-0.9345684582623248
1.6334814271587428,0.01635687784626816,0.6328752886033462,0.013946897555753734
0.47730055173511277,-0.45617111910622754,0.7146682973159131,1.0316302730721731
1.6154967555187314,-0.299133550051804,0.5179318793183225,-0.059833752246516436
0.9002509680318664,-0.4715192982281132,0.10631977310919205,-0.6644290310113767
2.372975246836904,-0.5776158059515033,0.18723478293012863,-0.5279938870053186
0.9334731518346087,-0.5549175235226494,0.0894639459406501,1.0960448293991498
1.6940026576926117,0.01692944041108646,-0.05237979948308913,0.10163843694249963
0.2776944308218241,-0.5440264401295734,0.2946474787332267,-0.04218090760516813
1.6970252360745328,-0.3465478838709456,-0.32492053886255534,0.11522802127959575
0.3768155217459208,-0.35863856893026913,-0.6166984679689631,-0.036734851136427604
2.343305200047449,0.05171335760942797,0.9145509583490306,-0.5246879421806105
9.240612038785441,-0.7705000156493954,0.09214399396798201,9.745598337477114
1.5881307715571715,-0.8599053744532982,3.421737603624596,-0.1325325139610385
3.8659154949614765,-0.3468412979716663,-0.10156120654491341,-0.6308246392848462
0.7039012640584663,0.31943862020314495,-0.4804601935807381,0.1505532590949481
1.1753233681878514,-0.6600159178138107,-0.3346482970953869,1.085074636013199
2.6814801787353324,-0.3627198784261555,0.6803303371950391,0.11077389882910071
1.4352888031963995,-0.19403042251906466,0.4735625318329266,0.3120247316291671
2.057236115247522,2.697847109392488,0.7194622265331005,2.40259716108593
0.3251449144365828,-0.8025334288695238,-0.13728426854008624,-0.29225520965252105
4.275654158692478,0.9519945364929154,0.36681130491969083,1.0156603268018225
3.33250496590735,-0.7337172204599749,-0.14782050916007883,-0.013414488111538225
3.5450034124832044,0.956228234928066,2.0811999253675473,-0.4488504240004729
1.7455321925803342,-0.3662046656604411,-0.3152912843627851,0.32113870578755765
-0.22959400929186236,-0.5184931565696191,0.28881725542930514,0.2778751073244987
0.8210554816455902,-0.027399801626410203,0.4022424466615644,-0.3823121420416432
0.40041245477288623,0.11657120359387774,-0.3199040101969918,0.14821866027565767
13.440634673921094,-0.5758327926669138,1.1337711320362356,-0.30771989256300203
1.686790172769388,1.1320474929445314,-0.30365951161942717,-0.061442968909030005
2.0320825693715925,0.26895342213706597,0.3779023347667698,-0.3241793937401628
0.6762995154560474,-0.1410230246044153,5.050307424509518,0.9113264974712691
1.1428823229824823,-0.6489197995382898,-0.464499691182378,1.6007171569092482
1.1427376348306995,-0.03290788905724096,0.39184273834626393,1.091565186807299
6.5594940120497,-0.5603524185094955,0.02087055399592197,1.4620487072379436
1.3050187986910653,-0.7554568084779838,-0.632397820719268,-0.24877753596189567
1.3626886775422489,-0.22344735214619726,0.10880005189270592,0.37100265113015785
5.151526040361796,0.49592416539098405,-0.1881060793005006,-0.17156053981735742
8.588386359463948,-0.845547284096007,0.5774709908317324,1.4835973431555498
4.666179419002278,0.4572027187608556,3.6759913599298804,0.705219646181708
6.414031415450632,-0.720320934823458,0.663512897403773,1.5063852402785818
18.441432602429572,-0.31298451089795976,0.4470220243532994,2.0511839471603834
2.6049524845554344,0.04905573578575373,0.11657695613420871,-0.475648358576391
1.6330107775263794,0.7843056706803739,0.7985414804997841,-0.3649886227400324
2.3099905059283086,-0.9046203488060381,0.13546969267778697,0.3382682107079613
1.7535698619682827,-0.21025041469474948,1.8311189372101646,0.4847824269503478
13.731359624932757,-0.1587561658465264,-0.26269163716337707,12.376535724132443
0.24590623408904122,-0.8124300455446404,-0.09216906807705016,1.2577162981908656
1.0372832244705958,-0.4343587182898955,0.26351329074453367,-0.4150510365921909
1.121682183890285,-0.6275714255398974,1.309555083215241,-0.17221999177990965
2.3420578502444975,-0.45768892468076006,-0.6136985353594296,-0.28241807985034695
2.5478449117066253,1.189368168280522,0.08514233199995469,-0.5111134229655092
1.1388587121453595,-0.4504644024467117,0.16524069450164292,-0.40356056895966586
1.0449032000955203,-0.7024055215452727,1.3297401963031006,-0.3247034985249331
0.696605748401387,0.23395587942363583,6.233879321477517,1.8432916816379352
0.583425440540585,-0.5930621799553946,-0.1494044377908289,-0.08757970029865769
1.991896693894725,-0.015663622903146046,0.3251356815898707,3.8495668687129703
3.6553166186630897,-0.6968727257064214,1.8875281098562664,-0.34272593635348736
4.982716407837523,-0.8599540104642271,-0.47358039732236124,1.2858627449225333
1.5814159976658395,-0.5433036743107769,5.200732495313785,0.10970427782159464
2.4897898519525725,-0.4066789810327631,0.8443560596060198,1.1626863932754903
4.045622363209884,-0.07189277739778088,0.49338657612217274,-0.6583788019989671
1.4740323854207786,0.5760246246136174,1.682913443370745,-0.9253663234200471
2.8358444241909933,-0.3271071109876348,0.6592371540518509,-0.19593333754203424
1.4377273286141707,-0.65626095688373,0.7550382623535246,-0.5815655449747986
0.6933288513926812,-0.827418318533851,2.4808243630066587,-0.6967316183725595
2.035558501704847,-0.48706102452243316,-0.32040174030896507,-0.4767096917966016
2.245636945814385,-0.268278830245816,-0.5522125233562747,-0.3654663465224519
4.052683334853113,-0.21000056580281068,2.260103979885191,-0.1152014517461657
2.3482784369456025,0.6899473966002623,1.6527530691006782,0.04555379941709714
1.1721933820050952,-0.1715557933319406,1.527651340185522,2.23732302014132
0.13126285050075825,1.590762881367842,-0.14274497846366252,-0.13338661474385205
2.099204073203875,-0.89395901476158,4.10810483145941,0.3810512429766679
1.0464339280656714,0.9210094770602553,0.31915765150417363,-0.44416003750938315
0.8142374491340969,-0.49477013236734957,0.6130108265686516,-0.7222788044739071
0.9743627602479477,0.17054339994299283,-0.015880449820798836,-0.5576426935257914
3.3065850950980504,-0.6240417616729121,0.9025194653404409,-0.3771275241798554
1.559270443742208,0.2137434073275315,0.03832676114064504,-0.3188462292700399
6.631217662544696,-0.638535318725405,2.0178402592324476,-0.45016149117711357
5.446684157906343,-0.7299699457192714,0.7008661978457447,-0.29669612098863096
2.010646494067614,-0.2756989692773433,3.381441064743271,-0.36915103996341436
1.9153946780487487,-0.24672755376243005,1.6605095644764645,-0.464787402558715
1.704617906979347,4.028746736347484,-0.030378776506753802,0.4217474271359394
4.858154112496932,-0.5127376155112722,1.3273167554145822,-0.24489417817419168
2.195226753575619,-0.40723816090196485,2.8062185086093923,-0.06487484610972505
1.2283069659838692,-0.07741853856958547,2.218739962927125,0.5110370472725241
1.0026399510951758,0.9676728663623695,0.9366392388132165,0.8227363639791518
0.746490076791527,-0.6237650669076951,0.9802565222474273,0.1642662896109579
2.7405236682686325,-0.2527123222050609,-0.4298782446908128,-0.8868109719272587
1.113909705023493,-0.5271762597590658,0.3526842667439394,-0.7222858488367118
1.9596943609661808,-0.8065622783932657,3.3104124761622655,1.8869432087371694
0.673274962870795,0.7562890395003643,1.160726871978357,-0.22061241320114255
2.6602383871281865,-0.8521562548414021,0.4175863455962592,1.1223435296482847
1.246935363420011,-0.42086048995562375,-0.5062739330805086,2.0773255544970723
13.934351364053523,-0.2248535904079515,1.4795347336499263,-0.1683788284289226
0.08421844053516181,-0.7607189836706432,0.9314134457430907,-0.850437732930574
5.131655341761175,-0.4399308793371368,-0.26616647678850236,0.41557948590684624
0.7330050303103262,-0.4046423689916786,0.6305260987860257,0.08018811292698325
0.5200520714671912,-0.5689002919471445,10.020011707637213,0.6482638241783172
1.987954058634278,-0.5188056293144918,1.3908251421944509,3.0095289173464996
1.0053293954827467,0.17178700927208435,4.7167792779218525,-0.17832547772186746
0.451022958234663,-0.07611880510641977,-0.3310999659154592,-0.6931926061721498
1.5238503837471278,1.0037166060628406,0.866575114074841,1.4832449531430525
4.554584542401743,-0.23479413077443756,0.6633419373486571,-0.68190078642415
2.6724350731564,-0.5834229286240991,4.863096906918684,0.05752169952116759
1.6952539059102865,-0.12059303654528775,5.478827800882798,0.67528185243163
5.701293955592909,-0.7495840254339834,1.8366124814354445,-0.31759188976572805
1.2076698723294936,-0.3395787304040121,0.6917717760683231,0.007400108378064374
4.057745445975993,0.17652319731501587,-0.16220352173970698,-0.4248332090005277
1.165999756962127,-0.5934400302694152,-0.1954674739607163,-0.3901097046710946
2.1725952920411182,9.579536466294654,1.3149110716148305,-0.3752778444895585
3.1057867652168287,0.13598610043619086,-0.4749891089799496,0.041507763215443916
25.134718014454236,-0.8117675957471894,0.3049273824454255,-0.7039851148376353
1.9954645855799469,-0.6798789705624113,1.106034950845892,0.012783284246763893
3.787407918734605,0.06963028811412464,0.7781693234018463,0.5018116602031517
1.6203028239439692,0.4636212099370858,-0.040457693998223854,-0.6323001628199628
2.9011184773132817,-0.7765655868095875,1.540142258738884,0.15275775213024256
1.0919795102086147,-0.38539900423234696,1.459889123243176,0.1217779921458444
3.1222651810901736,-0.5055448735619139,1.2856414555290088,1.490887021110915
0.8502852337553215,-0.23004542935182304,0.1751033747761157,3.380092053007739
3.3874848574753855,-0.5252116843225594,0.4576321551167495,-0.22859221417517706
0.4566707817155926,-0.8546495888148458,1.728423294323874,-0.5849297214083498
1.0465581916663758,0.05742777773095531,-0.49221888941813874,-0.35062633891340755
1.3983868732303555,-0.2516494978193522,4.545599334784319,-0.19711089160051054
3.80803855979903,-0.3166332506633277,0.1989238617856275,1.2503309835823773
2.848649035592726,-0.595108035217981,0.3084373191198049,0.005002438344959614
4.334949026789113,-0.20696089777001025,2.3661879896077616,0.19034239919082907
4.123790297860202,-0.5540600472028034,1.8366292212092605,0.4361870704735351
1.4057983864109729,-0.7391730464234549,0.31938090450721046,-0.26389292073890647
1.8823773441246319,-0.632624352944017,0.22714008080586745,0.3790161437744264
4.621090324341582,-0.01679424804934282,-0.5692052515705378,0.024636292305951768
1.7651052912920777,1.0806102455742161,0.37081549759881427,0.31908885242218465
2.1580703272500306,-0.5253187753363158,0.9125822013651246,0.39745010149255466
