x1,x2,x3,x4
2.097599519252719,-0.37753444078642573,0.09572279692572816,0.2913052597563974
1.1075340485283744,-0.3764116125215321,0.5037960108914648,0.05614153961020096
0.9330531220694329,-0.3337388718957436,0.4429378844625391,-0.20018045755458613
0.4852247857745393,-0.4978820953361257,-0.06913443866273816,4.052458631178239
1.3567177244683446,0.20683359038769256,6.007050025317628,0.21145341176552268
0.8782548941207908,0.04695004754844856,-0.5429173555535506,-0.22738867326545387
0.30886647273738377,-0.5599936272771782,-0.3849914894444352,0.42513416409525573
2.565781498572644,0.5451574024561112,0.8619240733675799,2.5965933148726745
1.5876518186246176,0.05037069201495781,-0.6750588092545888,-0.629183007752727
0.2504747616672247,-0.8298415087046,-0.4385671273497007,-0.12599409776748882
3.808532867619081,-0.29371435268809953,-0.4232940409793452,-0.13389388702087734
1.5426617930184086,-0.5633309552699756,0.9318768633884407,-0.3044156803230479
0.38939304373063477,-0.687841560766455,-0.16685989551647973,-0.49056987697002385
1.27124237037075,-0.4509723323499366,-0.2639146499029764,-0.8692404804437833
1.978620996117367,-0.38338349747754685,-0.37189216866135,0.18332232142187532
1.8178338531262606,-0.30858765439830327,-0.9064349451583671,0.3019454519724487
1.9490080147885203,0.25974227013288087,0.11032585423354124,-0.10498467458227445
1.291318780195406,-0.828853622743454,1.2605288803817496,0.925198540039331
8.710259318289415,0.4238873908133478,-0.2837388672945058,-0.020957730964884735
1.3264047851082195,0.06580600757829558,-0.12461684529327444,1.6874527801238512
1.1838656715912093,-0.49947285775674644,-0.06928259541352577,-0.7055598748786229
2.889229736570035,-0.6215955755333231,9.547793671400363,0.3363846035488287
1.2057936196382153,0.15087722171673668,0.8684784590596069,0.21015984510922547
1.4335823086385413,-0.34177745851837305,-0.6903801878521343,2.699706761172252
0.5743437808473812,-0.5713768707723332,0.5711867071474865,-0.8690078077403776
1.448097061560099,-0.2561311666725502,-0.7236818169057453,-0.3684477552396638
-0.08948643610973994,-0.6067799622293399,-0.6665443029352689,-0.46785037331396484
3.770331075245454,4.151134231091722,0.005599460413081125,-0.20926259136712
9.28072299359752,-0.48560555543185446,2.483260122912922,0.9349006813292156
0.395457788880194,-0.612715477972436,-0.37952855341131453,0.2474526828677801
0.8953621306074904,2.665083078906269,0.7867196499148759,1.3465449377772298
38.35702470136934,-0.07156176709195983,0.39555403580585624,-0.1199571455437638
10.603107491394313,0.1673295266294359,2.4232504339277816,-0.2533271533494761
1.2072603253364536,-0.35547173507216323,2.7997396823551743,-0.4797684876149123
4.7191482107362255,-0.7181646508557309,2.252197208266185,-0.2052902132005534
1.0020402791881962,-0.2770275522889101,0.04948487154421066,0.006458993138527269
4.107745916390079,0.18416138069684562,-0.6164793766541292,2.195218924225729
4.2503312248364775,-0.6657863584298418,-0.018419538240805666,0.4584033522407547
3.2021302383897208,-0.24919258933631483,0.7289992247420078,0.027411449933814946
0.24509411189107233,-0.4280590114369913,-0.03316293612545462,1.0462477662144267
1.0360818006829269,-0.13552444128154095,-0.13297606298415665,-0.5621155612862625
0.2610639136462416,-0.8287283092705175,-0.40778442317026553,-0.5632871206922094
2.4057444032762327,0.02092301767815341,4.181049777121353,-0.9522229698138546
1.4501311794468825,-0.2609025965880799,0.04461681214866586,0.8969234975422926
9.802302549115714,0.19654238988557515,0.11135612185339117,1.1239212820034714
1.1574638041100882,0.6814298270150503,3.803294182687633,0.5082001023118048
0.6773886516961791,-0.6657676809148143,2.4175472157686086,0.29407871977528277
3.31718017735132,-0.6511064862395735,0.46730168509076786,-0.759674289658911
1.455078765630867,-0.013736999628691016,2.1431819385467676,0.33219723474712626
1.0860301588193542,-0.46798847211744177,0.29910725884015643,-0.3526239586374176
1.780472051964352,-0.148686787479974,0.5952302015710562,-0.5868163901807637
3.457455995572042,-0.640558942826514,-0.856480104341064,1.5917422614507561
1.503774962190164,-0.5105127213784063,-0.619010295190429,-0.5226054959053217
2.450007550425522,-0.4766274742587312,-0.682259097091844,0.6145620236155522
2.81426319627366,-0.5822751983195114,-0.2823272521565203,0.5132018104134632
1.669174475692473,-0.3297934853409964,0.6129064944608533,-0.6254843011995607
0.3266237837862562,-0.6861808491116911,0.0532612240349446,0.21087226820268357
2.391388685989161,0.1439167876376386,-0.5198896192222554,0.07193680736004082
1.1324544707768025,0.22604938246086426,-0.3346147549252143,0.16648781902662746
0.8368240989237725,-0.7723815847831765,0.3454783280086602,-0.5147574873147527
0.6943172863703346,-0.05795921072721322,0.7365176505501188,-0.5841257248170942
0.8738813355224866,-0.5870409370210466,2.861836308851726,-0.7701246349170987
1.568428510175453,5.626701074948011,1.0849717418173848,-0.28713355902431736
4.10206578893144,-0.23470399466049563,3.3724506907784964,-0.8458419367820885
1.0630671930573343,-0.6044634434826481,1.7798655788674353,4.217560932373322
2.144991373573895,3.309704127621318,-0.46361535094163386,-0.16787032412979197
0.43491707659607437,-0.5732341332521089,-0.41058433726632415,1.2623610665182947
2.286398274709782,0.2664611903288323,-0.6357359568753831,6.050116555519186
0.9602432320003624,0.3585936453026708,-0.011682937155822914,0.3928841698725003
2.214282230432103,0.4835230008713636,7.721530212843486,3.9799644430650494
1.6873561655908853,-0.19080048115621107,-0.7233565872017711,-0.6160916870667217
1.9746987163187746,-0.14214131067254665,0.10591145162832927,0.4899001716362872
0.7932472273185491,-0.5823818196933617,1.3030585640268098,-0.5834177533670435
3.944713434655216,-0.3145157426040385,-0.7668121200623713,-0.5234200680458416
0.4676142779192394,-0.7822553122746188,-0.09156837171783117,-0.37419224700926335
2.3934527028646118,-0.2604700297939233,1.7532249964107884,-0.2915910046954975
0.8866929127664591,-0.33974274318013764,0.7887850128585436,1.1889995786701744
9.686513674836306,0.016972332321364636,-0.555815160309691,-0.5253355164698572
1.886052435049951,-0.5588511541671823,0.6946856105388328,1.3557586006994566
1.431229809780345,-0.8432623130528424,-0.03975628029174605,-0.9271709596743101
0.12568221319649475,-0.8068578952905565,-0.6013444861261319,-0.2142602502384756
1.5979377286465395,-0.49169452297053917,1.7599303068857157,-0.3606977600818331
2.1894146313959757,-0.2735777037535221,0.23120886759791315,-0.1746390646504533
3.71150705368707,0.2834803261379695,3.848428934629812,-0.3561181143201876
4.693054501380955,-0.3217417473539157,0.754687983979833,-0.22167952170871197
8.237971390210058,-0.04957039586550027,0.5998774298520324,-0.9298892922560854
1.8438993121593055,-0.5045870690303061,0.5243329572210296,-0.45694107197292133
0.5538042908430933,-0.09744436846439286,-0.35102815374472507,0.0031107203441227416
0.706461296295078,-0.6689240222905513,3.3524039362498224,4.612956487247925
9.264754617869054,4.9842282547881664,0.1644038970034385,-0.5390873373408832
4.4818803391805515,-0.1489666448010024,0.8417295429309548,-0.21108934313665784
57.76505313127636,-0.02606464293483246,2.8305229690716627,0.3831326286758774
1.751793505453597,-0.6049979436152955,0.29755553799110634,-0.6765216460774851
1.7868274617250806,0.3607050757754,-0.32163242397534175,1.8578486789672666
3.664175711521942,-0.6675904545767904,1.0032692951435598,-0.08392334389726974
0.5389096512354106,-0.39400936489046345,0.02885811955208939,-0.22299303263950865
1.7735345288750346,-0.42978178591353167,-0.4218878264387108,-0.6455567995021485
0.7373401159166355,-0.6339346432617811,3.7526175887115194,-0.5957149069857308
1.5853763805609202,-0.4207528232188077,-0.9139399365343712,0.26312403383895067
1.1344570268592498,-0.7242314890813524,-0.1364620013635397,-0.6794700136678709
1.0823428177348355,-0.5578788199011246,0.6825454192250162,0.4061175569849007
0.4546264196458645,0.6113989354127436,-0.39906790382827506,0.5155120210513342
16.175005755938084,0.07023692831072492,1.5140259473036894,0.7315504012866136
2.122745565413986,-0.5168829262217384,3.6673292500208303,-0.5727136125212191
0.7247319225238575,-0.2583810207007443,0.27644180116603745,-0.41506967896338187
1.156821486465868,-0.4822082453727864,0.7950474604937843,0.8237584032892773
2.895743710869135,-0.94004437175629,1.583784793596601,-0.22565329215948116
1.3072636219920661,-0.3587625956588133,2.793270039769932,0.0836702731099983
1.1544301661741754,0.21919021769662583,0.18434873873961388,0.21548191275032957
0.9299789007514467,1.038901864207797,0.5160659047435185,-0.49707046640168584
2.593388944221348,0.32335007067251276,-0.44019524006206046,-0.48338246929674644
1.6640975903418527,-0.5284763576827829,2.285273690378825,-0.005873956555235593
1.762644902948645,-0.4864208831025073,0.7273624983284106,-0.6740831708325947
1.1983790578343396,-0.772888480089893,0.9798563545857353,-0.6917939686664303
0.15993908382879685,-0.5388990838560304,-0.4157735712823579,1.5099532255593089
0.48912941848675096,-0.5399814342753453,-0.23249385218566265,-0.000254489747847475
5.447895485970566,-0.0008712423557610816,-0.16126704540272074,-0.27513935998117633
2.032619827904054,-0.4421072236689555,0.8463929586453502,0.0535827679277896
1.0186560127072388,-0.42439815149295335,2.47341597052615,-0.2700227540472928
3.2843985592964025,-0.12800605444778135,1.7181643140702665,-0.6814910236665959
3.372849928494956,0.7992347233531323,2.918477130180024,0.08609262656092276
4.031240883246045,6.197521715484556,-0.7296926895697313,-0.03380461921757838
1.4534575067204036,-0.6725092649880606,-0.3304760769135777,-0.22007411333544313
1.8874814911603117,-0.25133754726706636,-0.2393942780073488,-0.06266129671146548
1.8669653123017889,-0.24246537415823544,-0.6545038191242523,0.07799434491317414
0.12255723360102833,-0.752104817102599,0.23483275264259573,0.30606141204766035
-0.19543654784537656,-0.6460270439127,-0.452304232004308,0.09236952021104194
7.291641496530895,4.443694432576918,1.5147032291456024,-0.6258184691751933
1.03740834338809,-0.17261454843305846,11.435188441524634,1.808600349849578
0.9034042213731992,-0.4333275809078544,-0.07092967866940836,0.899396918077223
1.728954751707767,1.5760975885901818,1.1554853831913583,-0.2543070194140241
3.0930907154294465,-0.40245374276804724,0.12798946133197098,-0.05724166034210765
2.6790643577539384,0.42850856039371177,-0.01225464661465303,-0.4776075009148897
1.1579163757284938,-0.8063326973542404,0.22527427529151578,-0.658545660674944
0.22368865135035976,-0.15406022558103882,5.422341702299952,-0.4375602718476157
4.890843474742604,0.2880177876894481,-0.7586904965415626,0.1355754924654724
4.565128645624669,-0.28430946796084366,4.8210973692077825,0.11882843959634704
0.2817937244450326,-0.7574580530604991,-0.803530366553574,-0.31504104546688716
1.0903557687750958,-0.8420085145418232,-0.34124708180255403,-0.3620448154043058
1.6552813303380218,-0.17510177409639882,-0.34507405268482705,1.8677565382613883
0.11752350093565478,-0.24962538392137634,0.10438570580123563,0.5151454899473178
0.016696816652054025,-0.44968333666646443,-0.603570337052601,-0.5078062902685008
0.9114904842016722,-0.31051570000560147,0.9430668143848018,0.7276254173018624
0.19457831075733467,-0.46365556828862176,0.31786480116580274,1.092051965534925
1.79729917949282,-0.4144869115513009,10.0606387700134,-0.38808088024222476
3.7679419872899205,-0.2788928842405989,-0.6494473987892009,-0.15482353167554375
2.792015827978004,-0.2597714571043893,0.4252970051220699,1.2433685308366886
0.6404942174820096,2.1980366570152112,0.34538531831328734,-0.33120279429647215
2.116107797882621,-0.7705967807581573,1.1093910619842782,0.1314346645244222
0.8555702955646354,-0.24645571475599037,3.304743331232304,0.4594985470846369
1.3406716969890367,-0.1812274382674589,0.49513241666740937,-0.4362723085512138
0.657906950245174,-0.7038113639546639,0.5969894030006915,-0.3500461404316426
1.2030814629107014,-0.6791402475354091,0.1309017565213546,-0.2232861841142355
2.12791857783706,-0.8213243329752767,-0.019248044099491324,0.039145550046275845
1.0024407462254121,-0.7238343853303403,0.2424643345114108,-0.3567507638969416
2.990085652418636,-0.31764854419063815,-0.1859345559203186,0.17306388553902918
2.892152912925545,-0.5974293699860269,0.6884832423430312,-0.13255850602740882
1.7297805456883872,-0.4824886576325925,-0.17703784587740645,-0.8614065387465227
0.916656526474142,0.1843170674518957,1.0204184463054742,0.1660616904417771
0.8104537972002581,1.0165452145733611,0.20820297470981375,0.12170984287584896
2.49481218864102,0.8122573023334438,0.247936544379455,-0.9347268966878735
2.056551189473858,0.4103676105904819,0.25702293977063584,-0.7727636423505633
2.535255237896948,0.12227012504394152,0.40177175574400614,0.12371927035627439
20.607578456848028,-0.6152971052563092,1.986423064019375,0.011586006577544605
1.833397353141876,-0.7576587386193954,1.9319909055594717,-0.46391425297528543
0.9398568688677862,-0.019104189517651582,0.31850337003282747,-0.5829685440892833
2.271896371997076,-0.8131743471715458,-0.7017250408276279,-0.32580267973603105
3.033343798268165,1.5046871800799004,0.842254212695783,-0.34322141293134534
-0.0415653751340429,-0.6968446197923575,0.8772745215221103,0.54683523453473
1.2706953403022547,-0.4559811707295436,-0.43692138287038296,1.1852751094438227
7.431722509807937,-0.18598947298167368,0.9755563359895474,-0.26085607918857023
0.6979945748375811,-0.17769550744021878,-0.18625408699707124,-0.5995586812670404
0.1021371747976092,-0.40515446102427033,-0.8332497923909197,-0.195501025427247
0.8882918445411285,-0.13036191138702358,1.5532677878759955,0.27787315413559077
1.269757029739449,0.25903208023681157,-0.2786273777660181,-0.625421780251891
1.3407390933810066,0.2640969317483004,7.296283060602665,-0.12630192428636644
2.4689477924705363,-0.8278464934621108,0.07728145477273674,-0.05715402630533217
0.8390711594447184,-0.39100571158324626,0.7627494586830548,3.9304436055156984
3.7634253894776384,-0.6914295553816678,-0.37438800671972483,-0.6256300984972802
4.341417285361936,-0.4311427141463329,0.8983746419669738,1.912437087130899
0.4092936407326182,-0.5315860595682707,-0.14779202450771034,0.03302321874327285
1.2580788749832355,-0.2628827218668911,0.033705307057413814,-0.2479485094821784
-0.014306237438099556,-0.6606047327778921,2.363641391899257,0.06432263415177308
1.1913146703914332,-0.7833501373001225,-0.2802881094372043,-0.3464292438056188
4.671095591304933,-0.5059964832915843,1.552330913083129,0.07378231484406905
2.1305111020754626,-0.4455894940971524,-0.34015065429451286,0.6815037313210552
-0.12340488593446364,-0.27195486778449796,1.1060242940942362,-0.005762075570214464
0.6450121011059964,-0.7742182416243164,0.39680332993222245,0.936652912225024
1.0968806266152393,-0.416159716097355,1.0278031603165783,-0.12486025482578222
1.1815460267766524,0.4410329565606239,2.9306003470360587,-0.48965788300613455
1.7868872819050656,0.15722903346191863,-0.7042004784737991,0.42033714513400633
3.534074379673159,-0.8671797517472687,0.5995674766029657,0.43294613985297303
2.9561615354465487,-0.7359598310439283,0.037587510486700504,0.10200155834162561
1.2268716709149574,1.7790421935154548,0.17040792006053818,0.12928656297632135
0.8658101897378709,-0.44525817783318433,0.409842190787993,-0.23497325085166387
1.0549690807856327,0.12139556184854161,-0.3287279747329296,0.9558810524409946
0.18643165022882413,-0.5959156009272522,1.8471718879769274,0.4019961553436511
1.7176885171459064,-0.10488757726955167,0.08554568756243319,-0.32625959883337485
0.4179836947633788,-0.5272152178490876,3.492707560788138,-0.6523463115305801
6.850498391253862,-0.3716450345656527,-0.17013296978368864,0.21320788873132157
0.4279303665793621,-0.7619454676874985,-0.4250178812369707,-0.24564900193175565
2.469830910160051,-0.2230367330792007,-0.2396447555077058,0.6261095243313171
1.1445121977512285,-0.05595745009976549,-0.4308208894054245,-0.06783191724101278
3.6647792225761338,-0.03654797165678825,0.31376320046127293,-0.2550881747407847
1.7031916799659021,0.06868293483344523,-0.703199180694995,-0.5186094246252233
0.8344507157620711,-0.8015061397616587,0.3492624298059732,-0.4430232614151408
1.9825856219359945,-0.9326606820922043,1.1566158790302175,-0.25322488075125427
2.331269082022027,0.2085483011320315,3.06628000248356,-0.4753300946225645
2.603135057874685,-0.5080421153575002,3.4417052050078754,1.4089205063081685
3.2469890958039214,-0.8158700010116511,0.8775198453157118,0.5143037466174558
0.8249947015884567,-0.077442950778004,-0.4764689289672617,-0.19644019107682476
1.4222890813409244,0.39606681877487016,0.40573590579637187,-0.4738611961695428
1.8266394414625413,-0.48251465586449294,-0.11229742985566882,-0.1767167192478868
1.4000588293778535,-0.48233172946068414,1.5170753979310891,-0.8691657501740486
1.1419790325375048,0.526827950480312,-0.14134791671870117,-0.5795084401138367
2.528953193849859,-0.5633465762867487,0.03653021630872244,-0.3289076386606399
1.9817898240996934,-0.1493469054348675,0.38870869159954213,0.45900090836518515
4.1347271416473035,-0.6788005148376988,-0.33502137725588077,-0.2638672503818208
0.9927286894991627,-0.3772166292309339,-0.14757687092664007,0.07075153485556163
3.464247188300579,-0.5640554866889674,3.623736126687419,30.168277457195035
3.942071766843302,-0.1889602020980976,-0.0667610807044482,-0.20545946085300326
2.34253381037752,0.5423877168879077,1.3770336404355068,-0.5214206383800655
0.4663367101039355,-0.10719399226942306,0.8989546049327024,0.1377720674206615
3.6853018892371585,-0.7440161080224879,0.023876793835486465,1.4687086838682175
1.4725392790107459,-0.24753797096945485,-0.6115482435685833,-0.10879399298376391
0.9597810619103433,-0.42134014415174825,-0.4144017941144116,8.040809860751743
1.3354063356171397,-0.2649526841251918,1.357046465029648,-0.03031257183931435
0.41757225377763696,-0.011455164334749135,4.18508809773022,0.0125670657428254
4.5672019138622835,-0.2074589893264437,0.0556785970921454,-0.1373017941044521
0.03435263668149102,-0.5584197244358315,0.6843701818655106,-0.6067955329208198
-0.009467287438522765,-0.25176500600831175,0.23782343450082077,1.0220259643861955
2.065453825202678,-0.16776728495478987,-0.09840382860132524,-0.5903346022204141
0.9785475795127037,-0.4231712748463312,0.2754296288221323,-0.6363183205220966
0.8955975273468613,-0.6730562211655491,0.32344298101186775,-0.4743977538171935
1.6560147301232586,-0.5525439133485442,0.03670780341840785,-0.33830732840057687
3.104721794234875,0.31736691928611394,0.7135820496548355,-0.17028137526826126
9.947468132270197,-0.5547907898137489,-0.5095566784957863,-0.453947829503089
1.5052842813789553,1.9517364435541062,-0.5306443768613032,0.5511007778779753
2.9507625356226286,0.031587759560917084,0.00647113161989421,-0.21062175706871467
1.8326303133178166,-0.3482222999434138,0.05259380894513965,-0.4279185860709137
1.0156083303357861,-0.09248998441035361,0.6877261917752622,-0.5327752603036064
0.4985924248907587,-0.7965800835664241,-0.5836755111227168,-0.041743163091836566
12.244137163470686,-0.29607429535770646,0.2849436047985585,0.5548528436743128
1.7483367945001986,-0.3609832064493841,-0.30741819036754126,-0.8211953873397541
1.8929736224379106,1.475740342427068,0.8024385927017874,0.17487835868418067
4.41497833619188,-0.48361132243235117,0.3630806497178578,-0.8396218715790202
5.186577148491427,0.5366617216620302,-0.3059800495223872,-0.38438742687952965
0.3685745670868652,0.2503727373432987,2.51295763283089,0.01822804342819251
3.066749382129796,-0.7614025941666633,0.9490712706767592,-0.4136297656344503
2.3102750247759043,-0.44699355599293555,-0.26620503516451,0.4986835710772968
3.3638848050430434,-0.6453257769982372,-0.5472936849794279,-0.4651062812764516
3.361297182607439,-0.0947592569875233,-0.37705772994455844,-0.37829859642905883
0.9046718605527988,0.14823696996695457,0.19117974206565336,0.5531970589421633
3.015951647636027,-0.6335544797494155,1.6678916206858396,0.20085941787319084
1.260397869147205,0.9270277141480778,1.478095901046907,0.5958519942537455
1.1186678548660747,0.2831854085964707,-0.7413963815042441,1.7024485860725767
5.729309441867572,1.6069321552644436,0.30491989920658935,-0.24139203525876352
1.9036844308759648,-0.5744022999507461,1.2494078102021202,-0.7941880374386414
1.4921883436542722,-0.7977641709787519,-0.2048397967147776,-0.12953457004694946
0.4668931425084344,0.408699786316562,2.3917806179980134,-0.4973726737689875
1.4516162751785426,0.6239629240878206,0.5457914109383113,0.07773336335132974
1.4372160841473178,-0.48149757292352313,0.21068463911494661,-0.27410272618856857
1.0777972236377393,-0.6486762945094502,0.10224590378844334,-0.010400914386562987
1.3389650448557786,-0.5513297417770632,0.8961094174906021,0.5330899794948927
1.8228246096373728,0.07872410270708019,1.3701965817814132,-0.2216011311573286
2.756669163707124,-0.510882278976752,-0.4811161149571097,0.832551912736438
0.6812373672259149,-0.20505731318261067,-0.3679876966852821,1.8882000078737686
1.8436784728953026,0.02621071557775534,-0.9041324633441157,-0.22334042396997578
2.2053037929157346,0.4477190512085527,0.19001412711443533,0.4647585136209271
4.574170367776181,-0.7205314057312507,3.1857109004535413,-0.2050619759882889
1.079137216762886,-0.756025977491557,-0.6389161712567277,2.4310213315784894
6.028053623283863,-0.6494882230138694,0.596046576132965,-0.16701394117333923
0.3913297425668756,-0.5478649912384665,-0.15196083935510774,2.2524055297262877
3.951252819860792,-0.6051326244773807,-0.10636583758812945,-0.9395949375924556
1.9428001676486617,0.9053286608944513,0.7290141004565045,-0.602932928426335
1.0181417856469843,-0.42465580294566907,-0.6240476206482455,0.23861755974130827
1.5838914310264358,-0.7536906394669415,-0.18601940884966883,-0.07105870908320422
0.34684475266111425,-0.6497608014899017,2.1546440659517243,0.10639608798008204
1.7722579688453628,-0.24639044446953673,0.4791758175397256,0.08697806700244715
0.2016650426188753,3.198953761582855,0.2682196144246636,-0.4232354961884045
4.146680122658348,-0.7720747375652948,1.136749822317686,0.6079219938076608
2.642147815773343,-0.7320155817261218,1.525491537090609,-0.42631134900873124
2.1937883076902485,-0.7045935937866399,0.4899290425196148,1.1578615883822212
3.7668799463085803,-0.04679853554105917,0.48680305437027394,2.640099336424686
1.474167693483809,-0.42472970592903625,2.248973072499249,0.018643321402069812
1.0630002977575086,0.47591129172864477,0.1912796753993009,3.7554924877490823
1.6660539478571037,2.042143286482531,-0.25541969012003385,0.5114143343524833
4.730748242085283,-0.502912810270806,1.1603367878757695,-0.3066836337011498
0.9405221943838284,-0.677951526218443,1.0397127400254926,-0.5553567682465449
1.5225239134019377,-0.43043763420271086,2.0230557925223565,0.2693997884774939
1.0872381631974362,-0.09798765766045725,0.8548588476874548,5.111151103167213
1.245486497337878,-0.3297290322862729,-0.2547042440515732,0.5000720371649812
2.1539082190483096,-0.6674082408348214,2.558766043652582,-0.8641848898394613
0.8122443089146718,1.5840130918357311,-0.5347708454363207,0.13307470195527737
1.2847883629183303,0.05425865678374375,1.656689099353299,0.21296107725238644
5.42130436816521,-0.5493002634992746,0.35758635973459074,1.2267550785687225
2.5808468630910415,0.6762118272306601,4.690753072973157,-0.3452173644215458
1.8774211741522993,-0.2532932269675683,-0.3795712973999008,0.11279343137460862
0.9945950763389586,1.1845342628505375,-0.34315831036545474,0.21184717317652835
1.713211360755964,-0.49783093498376874,0.3834887575663555,-0.411627794152851
2.390297392618445,0.16071022991406458,-0.19769426637405407,-0.7872544725023867
-0.1262112120502289,10.162039394966698,0.6183577057690699,0.2363314340861915
1.4167114736640087,-0.5728813601172267,0.563728916168394,8.043703652023972
1.4110871725802636,-0.5881181407328304,-0.2087480059220137,-0.173897311929745
1.5779733570334282,-0.9156540688548844,0.7230090607025232,-0.42859916329711134
1.847665484773152,2.8434017256256165,0.12124065774061599,-0.2808959028040875
1.0260272283962828,-0.4608221983661034,0.8492217384316554,-0.7617257718486483
0.9422087767298497,0.5586928580040624,0.04694759877723831,0.6447151415709125
0.3029075593000281,-0.6059126244883579,0.04152658021652855,-0.09013545688530678
1.3326055681065543,0.0018195693454576833,3.4951438272179836,0.8636299512242516
1.2115722012568249,-0.7411497979178128,-0.4861111290383169,-0.21843965988656555
0.9004893475090654,-0.13356631751467274,-0.6971734567821303,0.4125638707625727
3.837076939306435,-0.8485649997539787,-0.573517264521251,-0.20624804864606805
2.042931601466997,-0.07820194718660567,-0.45342340493482647,3.4000302195904366
2.037064685213275,-0.3674321633503289,0.5142161167846366,2.4605232045628607
2.279348605810182,-0.6879371799389462,-0.09321651191699987,-0.6499310969620404
1.8397607568897256,1.8404321227401192,0.7743220329651668,0.29157091424170645
2.675340094014637,-0.028461562359670567,4.574331810140864,0.1392887175390356
0.8981072090375779,-0.3937605558852775,0.26620769960847923,-0.5136767853306516
2.782059165622063,-0.9003341906836914,-0.6779722970908539,-0.0922690341254444
1.6656418780598354,-0.8420500670384204,0.14764606091169985,0.06615308146312482
1.8138844965746177,-0.5348404495614927,0.3536282556367698,-0.2781375390909663
2.6218710757329013,-0.6512719342200328,-0.30131148329513935,0.6250883205344804
1.613730908712622,-0.5010614181764703,-0.3171788558276408,14.15415850558343
6.810818053940862,-0.4457211515073811,0.23903307057163858,3.5664222484405412
0.7078664986350418,-0.4105519700122747,0.6472772607597921,-0.48923742979441165
1.363222891568654,0.19984911480915812,-0.9093880657206138,0.4034948295015486
0.9031193633444139,-0.6550016871322479,0.78632886677273,1.150840993658854
1.119847219069336,-0.6077954936853738,0.04909732710007497,1.3883064782198549
0.8271693870696379,-0.6684158479371367,1.3990252972179684,0.028491074130091665
2.844812337288545,-0.5136429267229554,0.7610465333831609,0.9186070382421274
1.1689849299949744,0.15747216510961093,-0.05199500298258386,-0.4088602496522271
0.9310459251810848,-0.4601966844568518,-0.31326750719110386,-0.03311487618877218
1.961732296507288,-0.517557849058217,-0.2610603683128375,-0.5497404306233236
0.6558633214036127,-0.38917639707182294,1.0628676893027857,-0.734282102405375
2.966693403703667,0.15132867306446984,0.4748743553415362,1.3184992813013756
1.4500845529799418,0.022768746206120793,-0.022905621340895466,0.8129091072745684
0.6103901688560123,-0.886383140307545,0.19393627952123071,-0.4235955659126056
0.8932338229673886,0.3743703766743134,-0.14623403195289664,-0.047645526947316164
2.135245254578395,-0.3569164934771636,1.610303697479845,-0.6320550182156822
1.7529549564940563,-0.20476239371245786,1.6881071205924458,-0.10544079431290165
1.2665460391964491,-0.21369128842100216,0.3523087937189102,0.3742758238595538
0.38247934542334394,-0.497019154466664,-0.29250720734595825,-0.6322826869177083
0.8095882534981389,-0.304073091245772,1.9751631323987509,-0.153626585285085
1.8776820398494376,-0.36946517616669994,0.9146303381681926,2.1855357807691886
0.5817168165432041,-0.8727528460124694,2.1252070366267612,0.16357377932028938
1.2764411611755118,-0.6201853450095626,1.1472861132057135,-0.6206150861389617
0.7854656827433344,-0.4792032821891137,-0.13125374422866187,0.40474239773007126
1.1188544818148913,-0.8065417578055233,0.21015302683260328,2.680273663584459
0.47652183502397794,0.019561895409129892,0.09247288481664517,-0.13941041218544936
2.086157836049483,-0.6771696116282733,0.7699065438937733,-0.45558075670075315
0.23802850005202725,-0.12290208438101036,0.10827124635027996,-0.46720075728464694
1.1149402963535873,0.058384857340019414,-0.13454704890534108,1.0005862820890705
1.8067314926999969,-0.5460890863334356,0.7133624200924882,-0.4405646422139441
1.1430908546773888,-0.5186516415560278,0.05759886525760405,1.6315019431715223
1.0275591946536116,-0.6761849238116653,-0.35642360080657765,-0.677527618330372
1.6003789795651508,3.5115992954826334,-0.16880098906958108,-0.719445031333722
0.6926395518229294,0.1475186484715565,0.44499895012096546,1.7400819718165836
0.7656834006417224,0.21177948490603127,-0.21752315240191789,0.8004063783198316
4.191741618856424,-0.07143954588889168,1.0537504187942068,-0.3941036472914149
1.594141726219556,-0.3830267010393049,0.20067136119559592,-0.3970058991884079
0.672535620172511,-0.35918684420770164,0.499290235738175,-0.2319650352894782
1.0904452774927096,0.46767332441056,0.2896553934048962,-0.6389446366610232
0.5161288318265482,-0.43014562671461065,-0.5354337680781718,0.2795611509846161
2.2731357603842044,0.14457801577079255,0.13079053643167948,-0.7704881350936338
4.430258752495617,-0.008999084048983863,4.230472243503191,-0.6341981143654474
3.55905977312079,0.5184441495773957,-0.5897276772551839,1.037170421371631
3.053923094443027,-0.6004947123687286,-0.005636359573183536,-0.2897741323223413
1.1484814895845945,-0.7302982695542998,0.5330563872097349,6.691808134326211
2.224116793919931,-0.28717216881143504,0.9092041058371705,-0.5828964822727186
2.4237559757509843,-0.38455651095298926,6.859402947989301,-0.10143757951128762
1.2681479375292537,-0.5941002122584116,-0.11971057138900043,-0.2776606686864316
1.2944941731744954,0.6612581053344455,0.4134203240854566,0.043050684683512586
1.2494115552126543,0.27044578370903527,0.8169722003750564,-0.49203066251630423
1.036543025521686,-0.10706064254464975,-0.909821872961237,0.12228739621732476
0.597215713166781,-0.5692135218179624,4.726686292199648,0.386731577305375
0.990526016772799,-0.47899939074656506,1.0396300578763187,3.03190433591282
4.26540642558933,-0.11121175708072939,3.302566689228976,-0.7328816035819234
0.8809708183943255,-0.38132017341457247,0.33252177453995735,-0.6822762837950913
1.3440764893952437,1.377185680732853,-0.3502844591729626,-0.024451119647907582
0.9757886531651858,-0.42139037277954283,1.1598297047585095,-0.4014882702243532
0.6396100594935377,-0.732644540768636,-0.04557019818709007,0.10164844728386369
1.243378007571831,-0.5391922468080541,0.0769345447878671,-0.21857611565980095
1.031765828485169,0.5145433536947956,-0.28749440610660915,0.22734186738041706
0.9144593852507619,-0.3778018299452095,1.5460019359235972,-0.20828461476572957
1.647378536133587,-0.7277146068015985,0.41123621494031926,-0.19397535788608067
1.7276129892442151,-0.8844264776783045,-0.4204609509683984,0.11987535037363672
0.5938647349793205,-0.610258777489154,-0.612666895325046,-0.2024157228817658
1.8181626368607215,0.11682129548012621,-0.17678905716573112,-0.004932098575976207
0.37672029069980995,-0.7746759528702849,0.12453337240815787,-0.06233951754608258
1.4499788744163742,-0.304160504971289,2.295270039614752,-0.13025720189396217
3.060324262792344,-0.6140188834951061,-0.3780513193965823,-0.3548378849689964
2.0050035641480504,-0.6834220109411451,0.20717612928584117,3.343377131226381
2.392332231614933,-0.01784898292360193,0.6339983849030288,0.0370153519846772
1.7408394730657917,0.4514358643255252,0.012421557300426711,-0.6597122972628897
0.27528679559847635,-0.6582150949652029,0.3029407971240634,-0.6358530132001047
0.6762000982684704,-0.8728988869162796,-0.45526961629966267,-0.7881748531784883
2.0591666809744686,1.361414074319728,0.6344724541741937,-0.7557144546241252
1.9531703441550214,-0.761907441208524,0.7438666654252646,0.04419453127829032
1.046793448476914,-0.09653263419621883,4.370773680811709,-0.3020651078572639
2.1869030400655585,-0.23979671668919056,0.13594876995683314,-0.26793417823099475
0.9034710575913023,0.415805264279828,-0.8396990166311745,-0.1032995646406425
1.1048487269025933,-0.5793166324148087,0.18595385849338952,-0.2765117204239552
4.684144349035906,-0.19483279906321527,0.08615698086600121,-0.5440675959324783
1.5435374513059994,0.3092883938410873,0.13124292225350032,-0.26198215677353387
1.2119125511811815,-0.4541627376139109,-0.4200836462963571,2.2690405115249614
2.7958813284432744,-0.4172958389620244,0.1124450557067409,10.528121543826591
9.70373593050809,-0.7421698188049337,-0.1267086890416821,-0.1852284685825879
0.42630076793742844,-0.37131143714573955,-0.8453974566834299,-0.6404635120695142
0.4316119408179928,0.2377205136107523,0.6557237457566358,0.33313400365573553
0.9940342186767301,0.4980203065027169,0.1709310643929296,-0.32089546004624214
0.6351729232712451,1.1289133828069557,0.5787442319661524,0.08041878872430397
4.949021955655598,0.2594834789913185,1.0855403220398303,-0.19680515716366465
0.005022335824746982,-0.8582103799861862,-0.16391293186615818,-0.035333784568327586
2.2619745552891475,-0.16066793307860194,0.02062607226701929,0.7264047903744164
0.5898230099767161,0.1627741055928038,-0.9116570730657226,-0.4595826701402712
0.6060107788017524,-0.34658093996612205,0.32410501587162566,1.9083271999912217
1.83829260955478,-0.7004548765393164,0.4749341620259475,-0.09483202428677939
0.25191790137040115,-0.1965391117619264,0.406118898439346,-0.4156486911540975
2.7587619137755426,-0.36800409685285995,0.30394074341357213,0.4489244413915219
0.53751817880679,-0.587946809342321,1.017568706329382,0.04453575898952766
4.58494633483933,-0.45765647584229296,0.5088212463690502,0.18310898720229019
0.5828269414907419,0.34477242442551703,-0.5850312741046075,-0.31244760654760173
3.124636109924837,-0.36084061547571156,-0.4867872048826558,-0.2785250732461787
1.695533806349924,-0.2358711718821782,-0.22662620084390128,1.1113570344165136
0.6149281115065399,0.07391372805793339,-0.054604900145066804,0.14065546103614923
2.0862188500271945,-0.8230328897287632,0.13096997282501266,-0.647087404133745
0.007704530302353296,-0.4388817092127639,1.536826450167828,-0.4964642767943147
7.208682165962024,0.05690540833811797,3.0308853103720645,0.3681223455653
0.9452670725094885,10.195381504286601,-0.1372847833924895,4.297164496176599
2.0648055873047086,1.0557969338429456,-0.023689385385026296,0.3296585312974507
1.8229078391795115,-0.15294980787614632,12.272787634784658,-0.148873447502457
1.8183857482518713,-0.32631621550243084,-0.10583937818024713,0.02400611814370124
0.7757865965169415,-0.6406696313724608,1.9838509947027032,0.1223113907571769
0.8759146704375471,-0.39032042039748915,-0.30671676831725847,-0.45185482069966465
3.060592075740911,-0.9170601097134325,-0.4914492370824277,-0.44046417340443733
1.8203131154085672,0.24972448627373822,-0.7192993642111006,-0.8552658948922264
1.3565896763104153,0.22740577769318904,-0.009632592252821093,-0.8642282709842226
1.5125704488735088,-0.6170839068109899,0.8583267575788955,-0.7708729489703731
0.36409655268500574,-0.1766303565500914,-0.6604283186665574,-0.5295869994646092
1.7198044552771452,-0.3677686024978999,-0.4577239791361378,-0.16650327686967314
1.4652471469989972,0.012496468809749528,1.5672383812256387,-0.05820474211817994
1.8198175129298337,-0.7631778681408886,-0.15132603796455946,0.1723894245470834
0.6047436115921812,-0.5956778524024648,-0.27773410614590965,-0.4197165975019542
2.242034032281458,-0.40368557975624464,4.561156993853099,-0.3680059295411948
4.152957311691058,-0.5976818011347238,0.2892852185134993,0.2508248465936451
2.146627564574602,-0.6846433119672743,0.4006731509239083,5.926069038051479
1.3270125442112715,0.3934925345000089,-0.5301936232978446,0.49415457039093824
3.1173109939440193,1.082409903412005,-0.5197276718755887,-0.7485921386585166
0.9540680879743217,-0.8586285956508153,2.836236504279691,-0.31053842678427623
0.821664411499399,-0.37753021928873964,0.7797882241155356,-0.09315026762602796
1.1107132157712982,-0.6006768284746875,0.07436721897874188,0.024803442422948185
6.154199538321247,-0.27464349648213593,8.174554373067503,-0.5544782356843811
0.8664620874075606,-0.6251148959379235,-0.6952439803042635,-0.47592633378501614
1.8141933265070782,0.13529988952441085,-0.00817234954479329,-0.07374648490564506
0.32235478604561996,-0.5976974316356467,0.19121192599810755,-0.27361561111303745
1.2216636144322348,1.2586857497238468,0.13836918764924233,-0.12812682582872825
1.9907275829933773,-0.19560519410930477,0.4928151496884383,-0.1669391413307033
3.492192655348771,-0.17661590132694782,-0.26083122008751214,-0.7481330120571494
14.116755602135886,-0.7851904282438577,-0.023573493463067918,-0.12610600378385206
0.558967071786495,-0.12497445029587961,-0.23522951488350863,1.4751911002161822
1.0515479783369748,-0.32607188587060865,2.0887075020335795,-0.6073173121512466
2.3850745834605576,-0.38896810327254705,-0.6631889955529457,2.7119909836139526
0.6218964724116314,0.005335115611911245,0.6374672799578998,-0.8311994101819553
0.8586720617961454,-0.42349937261286785,0.7172676383688839,0.3324489662331942
3.4210234830108375,-0.22834512703628418,-0.46745369414534776,0.682813915753945
3.5241408951399986,-0.20501004722725547,0.11932580100463896,-0.40569472602605505
1.272672731565717,-0.8209789582316752,-0.1418048622729422,0.2340901236742703
1.6478268263944553,-0.6931311831321791,1.594107219001459,1.3346781222699398
0.9932818674181674,-0.7582161744037392,0.06398294944442218,-0.396009082317927
1.3202951311879576,3.282787602156052,-0.19505214284743133,0.2732839207581528
1.8297185480689473,-0.5880021080425641,0.19059097502520816,-0.3341812300537502
1.1308807189564654,0.7149374616438529,0.048660948525273584,-0.10101270633083548
2.7032643153687395,-0.5301130211090153,-0.8191532125888268,-0.5088611456074312
1.1878164474473274,-0.45161367740361114,0.5714650611739549,-0.41853961453623434
0.08822340921941163,0.13773574409324918,-0.39035146190086734,0.5043965468125071
1.7723398579762337,-0.305834100674534,0.9202093138615652,-0.09841408552601216
0.818508811681977,-0.21831231677224527,1.524844408689333,-0.6268800464091322
4.513677722904769,-0.34782210524034796,0.3987969147208197,0.24820431565233325
2.9676569762500002,2.067918026763789,11.10668563329434,-0.2527230512532421
1.9661031543654715,0.49460853697577645,6.663552917595915,5.293917136995521
0.39202962833261235,-0.011269087151424273,1.7659600652534566,0.6450735608197866
0.5279273413838068,-0.975705412104781,-0.36799929530329933,0.03956015765459986
2.0599818505467975,-0.4847091268352238,0.4211077563649368,-0.23592539198774054
0.7394243629846551,0.19719476415498138,0.13433354361018934,2.275617542998033
0.5797138011557648,-0.38685249376260844,-0.016750473757423556,-0.5669477477736471
0.11093703093906826,-0.669244945143677,3.06939513651281,-0.09277679049522514
0.22264761001107636,0.8626773287934952,-0.2681276128888127,-0.017886886003786295
2.6968721649388248,-0.0837022804697215,0.9850877604144768,0.24630428103255197
0.4005833987782572,-0.15410407916247781,-0.24892508030408378,1.2311007852498328
0.743736481327256,0.6099846977462449,0.44002170005964336,-0.1266917556696403
1.5256072268181833,-0.6798794538541573,-0.8207776100270217,-0.197365160894048
0.49365622955729727,-0.4305486381143264,1.7999051899147154,-0.9135943631721024
5.182793579013705,-0.471952785976811,0.3003394608808152,-0.21391567631151887
1.8835158460556714,-0.42020474989549617,3.072619408387707,-0.4066881470990952
1.314695190621006,-0.7636837801679839,1.6278961562432643,-0.941036610556934
1.5864410677089946,-0.24498947598017096,-0.1984978405936898,-0.6446860110560162
1.5109603705706784,0.3899857323300402,0.4028502648206562,-0.5471225035753939
1.9308027773826986,-0.43403568872700293,0.9322856029625428,0.6111439632115367
0.7604735953129549,-0.6623041358096933,-0.2604331125805748,-0.041519150088912715
2.272831955002847,0.32719340365417593,-0.2584771302523754,0.05450769324728677
0.9613892280801914,-0.15546771010396898,0.03515382913555487,-0.2429044185644793
1.3361485754432905,0.698410542796134,0.5428213983319179,1.0335591606788066
1.1761009211181128,0.6048199513479924,0.47946440922405764,1.6034589207939196
0.06621793940966825,-0.7942676036471668,-0.3393040688103902,1.186175709083511
1.23732052538324,-0.09083901926336702,0.7116522802011742,-0.4704782577315386
8.680093389834182,-0.4910177150099656,0.7486548412553535,-0.5631977777177717
2.3778667959889197,-0.7616125717494155,1.859231620601291,-0.34973084513630126
1.0105932029891456,-0.7850819314361268,0.35922730375058753,-0.3004459048357613
1.3855094701945458,-0.31569772313812083,2.5222398941704194,-0.42547356301752015
0.4671045175378721,-0.12680192587754946,7.315746209946935,-0.04831675531350521
2.1209623649978746,-0.318440116187094,0.4663663462171914,0.0015492696347927382
2.109119238351747,-0.8829849321068485,0.6839788973064707,0.018839481701130145
1.0543276259199046,-0.8993314915244889,-0.3892636171018291,-0.05983811234014069
-0.014948706861195094,-0.3924166821998806,-0.7242524777665893,0.05568728347840679
0.5932436046608416,-0.39269482441863945,-0.23101738999287968,3.5669390579733813
1.019152254491098,-0.9338974462997498,0.30233204553335735,-0.6700876754387162
0.9524554683966227,-0.49115734501252617,0.7702248084422336,-0.19005572437242868
1.648965871030582,-0.757761142786385,0.2797437657028885,-0.6524136919387064
0.26767256873256584,-0.7415712242045001,0.4374674630577793,-0.6685125324483796
0.7542071505507852,-0.4373062928209127,1.4118851948393663,-0.28203611933830497
1.8634022759991011,0.9059383179564193,-0.47943819202126214,-0.2627793182848367
0.9563069882090993,0.42197642067948515,0.7218299534857331,1.1391969264150146
0.8119977415159134,-0.35527355796150095,0.7508250573272333,-0.35939040400492417
1.1638385128754152,0.32101073398898317,0.0383399841035601,-0.6828145054702186
1.100393853175334,-0.4618921382581288,-0.7808872406225648,-0.08406117215206688
1.8229565871079156,0.34892138757735536,-0.012174870267516846,-0.4978342034648521
0.9712149035543178,-0.5729628035482558,-0.5700750180553894,-0.43578390414364376
0.229259066953291,-0.9203673987444794,-0.816822218669945,0.0907459598857785
1.0959701308082646,-0.7112776657957718,0.620816144012724,-0.2390428951792587
1.8024543007935874,-0.456727236869122,0.38160942861079405,0.21669640496595388
1.4556806066890582,-0.7224756799183993,-0.1661998439012371,0.4935312387999031
1.455573691150188,-0.46556901227737524,0.39930164442272087,-0.035077570753819565
2.2817341220306213,-0.05193177825681705,1.3312193317747276,-0.4446682383946903
0.8002245034887456,-0.353555186723292,-0.19803732247136963,0.2037669462913121
1.7624845782942553,-0.27820383987908515,2.146989432731228,-0.23207359082228252
1.1102444842167616,-0.11625211685080283,-0.13751579046115459,-0.8192096895755063
1.5024034394083956,-0.39282813487468615,-0.031896778948405924,0.2177505775509765
1.0175160314934835,-0.4665441251723751,0.8072786386726805,-0.8032214035608907
0.9661139288834357,0.3205285052722673,0.31194899537775433,1.0441574457376488
1.1595790770041674,-0.5290636446895582,0.07217164336537762,-0.36809282620248207
0.7058665716506392,-0.48911985406725267,-0.355749038496722,-0.820346173734493
0.5876027567570412,0.03951444366052259,0.09840823056895531,3.5192251815580233
2.0198977860164207,0.3509978213178704,-0.49499582216353155,-0.08121096092430724
0.7409501410932025,-0.17578057278145942,1.7578819419371126,-0.060310344544658556
2.218422044021653,-0.3138646651003676,-0.3842779970274567,5.784422428432559
0.8627256081494974,3.878696063674913,3.521289974447603,-0.12225464142997466
1.4478823980602766,0.7004834316135502,0.5034798932595306,1.0276844410838684
1.172836648479103,-0.49434637379246926,2.5355721837213587,-0.5947516808077624
0.879497976071826,-0.277851511364989,-0.5145578075312311,-0.12555527443114722
0.9903017946035644,2.200360294658026,0.5347587743498234,-0.5287774232026667
0.22143324267224407,-0.20361955080501937,0.7085908123673139,0.33534962966166915
1.085698638444026,-0.9650706294499699,3.972150727292764,0.09846655614632005
4.333900766728704,-0.215164679500768,-0.6965976155469003,0.4929655798303074
2.062139619331114,-0.470531889590889,0.5840739488521618,-0.38446310724494714
1.6096949108154974,-0.05100298769318368,1.4222285755407706,-0.4673066064709194
5.208369341971493,1.7562749250813656,0.7797230521990672,57.120702973715886
2.201885565813912,-0.26584945841204877,-0.15923152532659712,-0.039021274625237745
1.7534827314349801,-0.9594524190649819,1.8961381205977026,0.6440519961057107
2.7618418721416726,-0.8639595109912095,-0.0014966090783539165,3.450638451451116
3.4726737490985915,-0.17477148440384227,0.00438370365414853,0.30052734067380826
0.7147229103994748,-0.6810974975499191,0.21488769874247482,-0.8824716204951911
2.177670916090442,1.0499861472748488,0.8104077154699385,1.0550527947588564
0.4984076689693908,-0.695896279698559,-0.5701666407370831,0.13394799422086812
0.377656065099117,0.14689815662061534,2.501227531659405,0.31949566600951407
6.6189155747958734,-0.5530227692958662,0.6941633100748903,0.5545857329689223
0.930270176654014,-0.13973590318721074,0.9984771205882832,0.2880363259661489
0.7900262339473201,0.1965483648040951,0.6175533237315094,-0.6207139061657012
0.2061584124070608,-0.48411655469448767,0.1978917873306525,-0.12808003671070667
0.42098598940709353,-0.10647897356136715,0.23129701424168347,0.0434938407964649
3.3627944140126997,-0.5444238462137659,-0.0013713253027527461,-0.23269223948537243
0.6518089452197326,-0.10212088769956673,0.34078889099255427,-0.1213496716264526
0.2761132500017931,0.3534542645433518,-0.15247755035197819,0.6165171620261338
1.0400679997948448,-0.15569281778426125,-0.446266903937783,-0.20134531930769484
1.6230118730253538,-0.22981343824294753,-0.31605221975047804,0.21365154962230526
1.444990298038269,-0.10942254412315977,-0.8171335101059383,0.16499722912835724
0.7516824728979818,0.03279851008221302,2.04241829754677,-0.15460904958934174
1.0452187916719247,-0.08806102039211527,-0.9034069987618204,0.6632180843858435
6.704470350651372,1.9199491033524754,-0.3184549974285149,-0.7970816552833793
1.6660900583955565,-0.45982891100015466,-0.4003871474033358,-0.15917702228849406
5.252527873253524,0.654329009342691,-0.3117646907051036,0.13118680255831294
5.733298899116765,0.23349200405043002,-0.6909872935418053,0.09420699001430277
5.1831267502686025,-0.7944264309014678,0.9646274530681023,-0.20512223564003673
4.6958197997416455,-0.08062600197011205,-0.5099863458382166,-0.7340431810603183
2.0245506105067026,-0.3704574531289341,-0.27663825919803653,-0.7243515181494209
0.7272346950706716,-0.673740967161433,0.1898613265709832,0.009818643955552986
3.259174024737722,0.840129965399139,0.1510156065165391,-0.2859814457266121
1.0599303726806895,-0.012446950493827047,-0.5720508868304295,-0.15894765246565168
1.7482400774983087,-0.9108524901782482,-0.6900964636970185,0.1433629650767405
2.0636828354908885,-0.20170452965487962,-0.5283611107701298,-0.2707113737207807
1.8347251574656132,-0.19099564130195856,0.11132253127439262,0.03484447950582781
1.5924131127397296,-0.7509208317268069,0.7637030988132807,0.3865798703637471
1.083577550836297,-0.9190565636267993,0.2552569380403258,-0.48583720250006945
1.7207784269937,-0.25886836373586086,0.8568647295348293,-0.21922889270492352
0.6719367668530385,-0.6470658635885291,2.7547971816456287,0.39582559190962474
1.0577706964120135,-0.2186412589851151,8.189052114369366,-0.2573703004796699
1.6739426390863903,6.029936964569796,-0.34485341352638044,-0.693937206436225
5.509068826511923,-0.1951785045699851,1.7512822947237954,-0.41014824350525914
2.1855623482157465,-0.9010769626619052,-0.17282101041058406,-0.4579817860387406
1.9045813684573796,-0.4104036295662574,0.6933065508034613,-0.8940435779095818
1.245681476553215,0.12737317964535522,7.774657310696204,-0.1923766030900219
2.052190431585676,-0.6188505401343938,0.752308906006824,0.2992726067719087
0.06795177507652506,-0.32508663633482826,1.2498808966455446,-0.5213930803996265
-0.05419126004457753,-0.5788674609131852,1.0323784977932489,-0.7035555142501679
0.9172131148567066,-0.09217575238206976,1.6315980587921017,-0.04061227133381107
0.6891033297209073,0.044670057465860724,0.16323227265591922,0.1645180687224992
15.636925882161197,0.9798527222494235,0.30721135168343605,0.10922069461925998
3.3077056043556192,-0.25680105169822864,2.664797738208358,0.12088799211147339
1.3244448097182766,-0.16508170782493425,4.731235383275221,-0.24865236687975412
1.2768186445981984,0.2596886718920024,-0.18224144852953872,0.6845170231000879
7.454410479380352,-0.10073231845183916,-0.697327496054212,-0.4005021292773472
1.74285892891604,0.33343136830318465,-0.3887776397695283,0.20030498418187204
17.062637729122724,-0.21008685860884246,0.19001761735312805,-0.4091435439893959
2.01949833788884,-0.6226297913224457,2.4201632495313694,-0.7602943415251957
1.4930236136965602,-0.04345371493723904,4.1944651334907315,6.1971247527741005
3.584092490918593,-0.8898637969481967,0.9408520889319341,0.7967136770594936
3.3910634340462886,0.5988435232831986,0.3387886159275928,1.4864249887012648
1.8903480827331203,0.3176946856708711,-0.3935919347550195,1.0214186954958486
-0.1320991852824832,-0.5575020190572137,-0.04106296963717049,-0.4849698980748639
1.5207268394728413,-0.6211903355197916,3.2091019548998707,-0.4068147616119102
2.5998622605108697,-0.4508553377303435,-0.7031348169995779,-0.7099966469263455
0.7513401129348019,-0.5859802403247776,-0.07813477910026179,4.332413213509219
3.039465028503227,-0.166325126096184,-0.3537846007857631,-0.2861535057057001
1.2261416383914296,0.22175554135387898,1.3928837193869104,0.4021782085865391
1.2492866863095,-0.043950398522261236,0.31944270878184566,-0.4482796522191994
2.2074498563501055,-0.3733418246970577,-0.7485560020474473,-0.47256830623342727
0.6783855391620277,-0.7205086425644386,0.4292072745048392,0.8398684936232532
1.974322280829905,-0.6165111948111067,0.5975157332330243,2.130677307016733
0.9300457479721511,5.245600779956768,0.5296388241269288,0.0032179948148427506
2.953071956004494,0.014245804578964849,0.373645510424379,-0.42656039855734396
0.013749623764074181,-0.5694288468132921,-0.7165464188857286,-0.4518134350532035
0.3738509639245555,-0.5361995194885859,0.5222165820367939,-0.6911555169414781
3.425737416489965,0.17932907924248664,1.3916236402537216,-0.48162980107861475
0.7414466071912429,-0.06770230358841345,0.8524046089922468,-0.05183507872913706
2.3740156536618926,-0.04268052363685282,-0.08603449786242356,-0.44848867161364825
0.5883640146303244,-0.6361442193198067,0.43999441706096265,-0.3848811580960063
1.8601762184793311,-0.14065309287143046,6.8998041731720905,-0.23402763816970495
1.5511489773476512,-0.17272887917624846,-0.768001487571842,0.262835728583493
1.4902983163212156,0.11896051912443428,0.2535643751113248,-0.4434556221912922
2.037739145486324,2.069843753445388,0.1946656673476157,-0.8646880968192536
0.836629889654156,-0.5727139319079122,-0.14915543163318934,0.1686392675206232
2.6813240242805993,0.7151339683370936,0.6005715678124943,-0.40787813095600434
1.241091888331613,0.3422705078458854,2.5003658311039882,-0.8609947384461742
0.44005988831311393,-0.3735966270528116,-0.666413218703453,-0.11177170518382995
1.1761496261830486,0.31720843615256156,2.0584538155471668,0.545089829174026
0.8436786122159388,-0.7776790644892386,-0.08811954085981843,0.23597180620241986
11.347574623872386,-0.1904317110562357,0.565071564897603,-0.050557283380442186
0.6324317370915349,-0.15171243973383852,2.82175367300717,-0.5066248991959695
4.688440014398125,-0.5861084377569427,-0.37435743564033974,-0.2725543860436731
0.43816258369929995,-0.46458447433141914,0.04764944702042406,-0.3826950603866568
5.6763626679195305,-0.7115648365828886,0.10602338401780043,-0.2731836078430484
2.7353464728974766,0.15706170076537118,0.06164465632140592,-0.12480613864857071
0.8454214583185522,-0.6446283370761903,0.7047618536132638,0.35569322048427443
3.8091042752500215,-0.32127420021765674,-0.4824308417034787,-0.7628292626094197
0.4506170831042815,-0.18654790057523318,0.0005247741299077013,-0.08764939524008597
2.841726898390251,-0.48841384106373764,-0.19231446578617895,-0.5166499602084457
0.7319824763395015,-0.2884005644362073,0.4692429148783117,0.7866967598346326
1.997546528399806,0.0016107709712289697,0.08376562191445869,-0.09647500922956431
0.4628327451667469,-0.5198545882377523,-0.4697431833756137,-0.7738695075008457
1.479103278237499,-0.730407574505124,0.3012264473875188,-0.48204481063820726
1.9876707821711537,0.5498610271270639,2.2072448328768717,0.642132198723828
1.2105924833651889,-0.41655139952920794,0.33113572316786954,-0.27010848948536637
1.501186418295219,-0.6343730186462015,-0.37539184386318647,-0.073782063832743
0.3697940868121079,1.657839674898852,2.325797897410894,-0.3590855600310848
1.252376023066124,-0.2239306621967434,0.42957805897219914,0.214663718539003
4.460529439536431,-0.6758982710769234,1.9283605810819746,0.03549468119654464
0.09579261613606094,-0.44127912213938536,-0.19278986817849386,-0.5667455542762974
0.6423601056612134,-0.23281092149859883,-0.3630541202048969,-0.32177440509265476
1.9083843308976154,-0.544725877485434,2.2042353349070507,-0.10681657524188548
0.28188720779741083,-0.49974600831995997,0.7216579922300146,-0.3861968701091343
1.3097923504642615,-0.6410287651812643,-0.5425767640775578,0.9223799015099365
1.0994053828975043,-0.3063185777420706,0.46329876212557974,-0.5519134012605567
3.7322488653498525,-0.3633462705486312,0.6073950623461577,3.061657636234811
3.8963885855609623,-0.5507846211436518,0.03857346813275919,-0.3916385371156803
0.8941673123438918,-0.3290325139470862,-0.31690949126781,-0.5047300917516924
1.4626335997109896,0.15102874548310008,-0.08305717614936192,0.5336468477566927
1.059628660468701,-0.40412791790224845,1.005229827603515,1.0751290331038836
1.4638379521003246,0.5100304731072935,0.7423628205050892,1.1202615032398113
-0.10344381480116249,-0.8729956058799113,0.09066952727710009,-0.6120531320847167
0.6966102149039461,-0.3190789446896636,0.05906659269253489,-0.2475999659778091
1.1125077811810251,-0.044935305615166454,-0.4697684724206913,-0.3175829846803053
0.6881758852700186,-0.6532850144548763,0.03371191525882011,0.4563026216617536
4.803872427496427,0.02062864527332109,-0.12032738459840098,-0.01329804197501705
0.6676493020135128,0.5091130943403941,-0.14911222702125515,0.6606298773193118
0.11598249459488774,-0.01511346263014235,-0.43999856361310585,-0.4701144740902672
0.7183362927706693,-0.5864999021896127,1.7139749671128621,0.21743143745231808
13.824243564723742,1.790976959217538,-0.9307792032773246,-0.014893768254382045
3.528319798058126,1.2449547328915105,0.7290536758973316,0.048838952412064485
0.7697721123623038,-0.14790632378827884,0.17729694872444957,1.2058220059142193
2.92348253941542,-0.746593881549072,-0.0022946414447381214,0.7299595070850879
1.1648575125078726,-0.3186182584619366,3.8975413503998784,0.3409367462545694
2.6386758778731156,-0.587353186068045,0.34680711266174824,-0.29917522723315215
1.7279785828826686,-0.7479720913666004,10.168321643226239,0.5815198605534715
1.8884154897347742,0.4849015163453507,0.7709094072637128,0.5200858040948069
4.418302445070458,1.142473224951122,0.22385035226993177,-0.029947825416049678
0.8666172331708801,-0.2812599463745651,-0.8345543809777375,-0.2877930492741487
4.102054400855075,0.11583014166909278,-0.32705744901701295,-0.742726612586098
1.9203763098645172,-0.2804287085272247,-0.04667098906376399,-0.09651069230663967
1.5310786852063778,-0.5384650029643812,1.4259269143393487,-0.8947467522994001
1.2709505468081712,0.42037151058439526,0.7593627165986627,0.4951803335808458
1.4175903382317188,1.3691703580694337,-0.39923392588488904,-0.16446686799373433
1.5376702704564935,-0.6425387568444506,-0.4994807063949239,-0.7689632157100245
1.0055563913097902,-0.06616430801057216,16.84296982808635,-0.26668374712276477
6.1279542914398695,-0.11013258877445131,-0.5388635347444494,-0.3888318819544824
1.6602853838744256,0.38286806408340057,-0.13724333606579842,-0.025201890287048778
0.07775048175124111,-0.34249366799367564,0.24959659887555286,-0.21969903332167795
0.9680333860372246,-0.5624456027452843,-0.2115728636064924,-0.5156184926521208
1.6769063853007822,-0.30355827813517566,0.8750133759246335,-0.6779684495128838
7.240770147155631,-0.28440474989185127,1.170068167192773,2.0097414835209517
0.22089667221117604,-0.7294338605937428,-0.25169143191492616,0.4859005945684576
1.2252967934020491,-0.7655163983406572,1.9494286824881537,0.024906722729656217
2.4656142270416312,-0.5991876373951321,0.31059031070068865,-0.36620178582747165
7.742964252211216,0.3221584005800371,0.2630367011069368,6.796923419773207
1.7086644114176384,-0.6472545975443875,0.5511343090708294,1.4921566146738185
0.4092219792545553,-0.6403240833492034,0.23685498673442118,0.4739518208985942
1.0239110505042084,-0.38853399462107174,0.6724621255553458,0.41289308207494524
0.9714125332816748,0.21205326023330273,-0.44229328405997814,-0.018888666916022867
0.7404835923583399,1.1986810017866723,-0.35465930888567787,-0.36544314216543283
2.001289532378358,0.33465428934379315,-0.18702895591746893,0.026268474865797975
0.9838009923044864,1.4938685101402283,0.33858154406294383,0.31867021427939757
2.910542410111227,-0.2724804130594637,1.189118310933131,-0.5182841331739814
1.260914146109033,-0.22719037179980128,2.769065306162927,-0.38885685783199886
0.5525756356274414,-0.5076986307790152,0.8606110285681969,1.3591593020653239
0.2388181389983648,-0.5165708039650871,-0.36749989298567987,-0.0073257523147773895
2.3124478912053013,0.05422547383387477,0.9380693654753365,-0.8002530094405356
3.2982682854993515,0.11748650048069909,0.13866192504785624,0.3606770220716957
0.4499423456434988,-0.28149021730777146,-0.34869395094620526,-0.045276867328833625
1.4700682245494727,-0.7215804242002167,-0.43554383808162744,-0.3047244876331777
1.1173873205956917,0.0772638540578916,1.0776633215687,0.08944151564244485
1.8593106990344532,-0.10386640884079357,0.10848552954668556,0.03750138996093666
1.6859072440956462,-0.5241132574619218,0.7912443935725841,-0.5600517851512554
2.4204751446970594,-0.07341627303858689,-0.1925148052791963,-0.10704767453384478
16.26802586049073,-0.35617883778722925,0.5082080735564549,-0.0027660863303484717
0.2143940156423063,0.12196202133963063,0.8395895579815076,-0.5261102917647419
2.652387508087451,-0.5602102280661041,1.1527531223198686,0.4230038306414361
21.680352081639118,0.30828409474721163,1.3315642340747096,0.17756064543702466
6.389881730611804,-0.604831296965769,0.27138160308602677,-0.5686029760810126
8.76266875047033,-0.71078592214738,-0.18769334995861142,-0.1827879239354554
0.5850683017663822,-0.332234371602698,-0.030233505278148387,-0.2108110677149776
1.2810039318846171,3.313082046459069,0.02874317726977127,1.4649123595741838
8.756235012761834,-0.5309739318845771,-0.45207827359586616,2.0085848636331347
2.2825630440307694,-0.7681786526610276,-0.0331560261041004,-0.1635261442977196
1.1857718608228818,-0.5133124846615074,-0.32845251376081464,-0.48434825211043697
4.307794008534891,-0.05713607216882388,-0.8011782439016422,-0.11221776951812001
0.48055483359982976,-0.4218561086854573,0.10355249412516487,0.49943427796779805
15.435348702628747,0.18872493800262857,0.36552188865740143,0.2223845628559047
0.9673956389502614,-0.24714193079490143,-0.2411526706524032,-0.5650093208303081
2.701336821282765,-0.7033355364448127,0.03873812223070172,0.6027453789810628
1.5510801605322095,0.4458052958984686,0.7221328128994131,-0.5459031174135911
3.608336789409017,-0.15695834143264276,0.9084521133471515,0.2657709191187396
1.079726435467875,-0.4006963904024432,-0.2923705278751174,-0.29960290753045493
0.014130143198687994,1.0432071876016455,-0.6468118997821177,0.01580479740709939
0.3448475372742694,-0.811930393141121,0.8016179577382176,-0.6206690564439443
1.8904990758184534,-0.6002672263010029,-0.6489313112554687,0.04715591351405579
2.3640255488756754,-0.5222204562636767,4.064498925441049,0.6235892577593045
1.9277733356403282,-0.5221953657161085,-0.948691316669366,-0.2507436879010919
1.0117618483497046,1.0970384133417057,-0.16048061026033256,-0.3247071000772568
1.0808674399309948,-0.701809130342478,2.923101968780663,-0.0929200565223165
1.2806166033771729,-0.47989522613926316,0.73253975136311,-0.48125426989763265
0.6740292755019828,-0.6453601396117,-0.28814077758981915,-0.5877022931290355
1.4260078326255141,0.535910257162598,1.3718052042300597,-0.5259352850900825
1.6687072313754499,0.21918286183871416,0.3272640277425203,-0.4688692508324317
1.061633495007479,0.24132304774580282,0.02341204655796214,0.12678434244185
4.447596230635123,-0.7918155988020172,0.6556982991144786,-0.6195507185221534
0.5877202196816935,0.3028638532280794,-0.07573507126407752,-0.5981466268391993
-0.05368332901508588,-0.7537750468244506,2.147745320327847,0.6603488079526194
3.3270037744152656,-0.8932837927827124,2.9025312439462962,-0.39447764948539177
0.7944640701452752,4.338498654975141,1.3529513540179643,2.414522478679402
1.995597071271341,-0.5796871303908275,0.3635070219486034,0.8303328499096121
2.0792754202883605,-0.3412010889990751,-0.2627122397514906,0.6291126941350609
2.4188848322340175,0.7318270004721514,0.6897477471973619,-0.6956662176523047
0.847514398224595,0.41806107651126,-0.6336412290401069,2.0152900125604405
1.5959773891677238,0.31001542870152465,0.6822687394632636,0.02398203587969827
0.8717111130142214,0.33946993138790105,13.616418150575656,-0.8110900089375332
4.845607311620333,-0.3644894698224178,0.9309234617914606,0.8475931427942234
0.07647605396460744,-0.6672686659033157,6.630434837234812,-0.5583970882084532
3.5006737449070267,-0.23202279447322716,1.3279466005770528,0.7710862930972173
2.4157686078892127,-0.8271910308597821,-0.11199867092940363,-0.4476313642063581
2.2425522245905354,-0.6585705727178699,-0.40908734716109163,-0.29277664998437825
0.990837890781245,2.1928213673783903,0.6008403396168445,0.6366067019919814
1.760038839673292,-0.5715202598904148,-0.04093786327256066,1.9404271324855014
5.085658770007336,-0.6542963851996724,-0.48001277715156254,2.657884799664525
2.0715600571607418,-0.1747808088927041,0.14436744323908912,-0.3409688551466894
0.7386693034798495,0.09947985076138188,1.6144063906910233,0.4029324044763536
0.01972654919064376,-0.9084557181929189,-0.5956283878926043,-0.17996990781130862
1.6375217196478729,-0.11352688518995868,0.7998967574690647,0.9068995109524571
2.0614740258531232,-0.04980270883696458,1.592082526110286,-0.18331531640012189
3.4951621961853894,-0.7425386442690507,0.7802598663368208,-0.07080428085658685
1.8840121967612373,-0.7650910854932929,0.30180289416169104,-0.6734732069206568
0.9268176988555696,-0.3945938106826019,-0.07401246190567179,0.12909669735115048
0.5854181306936463,-0.3923943169866104,0.06673625443760733,-0.6286819839861983
2.194256323806413,0.9907668263534513,0.5643037885667375,0.19873047441371572
1.93955785823798,-0.03688551764289727,0.10036842033547089,-0.208161492302662
2.0822389808040755,0.06942564028108911,-0.49224685282082303,-0.5361974804621972
1.0948359213636438,-0.07595904930396136,-0.2398160428152778,0.5946767261788104
0.7591236237936134,-0.0635948822894763,-0.22757511247504936,0.31755565893537696
0.8298022636539635,-0.6375867177413134,1.5723420028637674,-0.17547716673435154
2.7098616652396563,-0.054706581022759604,-0.5720828842093975,-0.19758551755965104
0.7453488271913109,-0.2095006042441001,0.07898358580933462,0.14205624695570318
0.9197994532976621,0.5967129121848485,1.3758155128090874,-0.4523637768241249
0.5923438778493952,-0.2558749290001091,0.47490864252036613,-0.013155928092270397
0.7543323745757027,0.054471547961009614,-0.10210957204935611,0.26940221228350825
0.8606880024059653,0.42593271654526776,-0.5693923632351527,-0.8106129115989796
1.1870943871884374,0.1378008236912558,0.6823929529472244,-0.16419711146738292
0.4341533535546118,0.03964322151353339,-0.308308428993204,-0.5560569320569213
1.0109069108639384,0.4881757773374198,2.968921929635352,0.13178246500441482
2.866524418203606,-0.5737798216854935,0.6520417341346871,-0.7876527031928585
-0.02474989726696908,-0.3962616587871487,-0.6149633074090937,-0.053688679589709354
0.9751953254040855,-0.8178198559246265,0.21051194187683486,0.8323252443949514
0.9871016239475252,-0.43512391959551056,-0.0689991862105711,-0.6688442677217312
5.679403142636929,-0.584834700872473,0.05039073526983806,0.950661229868482
0.7141115007814383,-0.4219853200976793,-0.01735274810108156,-0.22194237252708904
7.8073254006263255,0.438236249593015,0.5682615498034471,-0.5680772912791274
1.3050715382077223,-0.9350497553644966,0.11936543096509467,0.5487698898426507
1.7312088945341229,0.29998067583788335,0.34959075334071477,-0.06398262105629293
3.4462602322938363,-0.8356326899508322,0.4521015726595903,0.748839844596306
2.986346228833434,-0.39671311148854604,-0.053279460043271665,-0.6975019540160818
3.4580837401257014,-0.41316858153895586,2.5343896172999005,3.2640061153521023
2.8124766631540905,-0.043356605332550924,0.8630145978926125,-0.4131466700187171
1.2256409679376277,1.6412008596691874,0.4051611091528642,0.27464969351467716
14.23466018796228,-0.4393310652922998,4.759116424767809,-0.6001166675231615
0.8218977483293548,-0.4065340589433487,2.0738768007988426,-0.47123098482680437
3.112840202598437,1.076508002308533,-0.29650899492483185,0.10216333591580451
0.7648613630727377,-0.8923202675206905,0.08600636586116228,0.15123653072106813
0.6885362268082909,0.6008206281223796,-0.7697419474790758,-0.06227272246692539
7.99043766520691,-0.6833632289125613,2.87042121744394,-0.3953615909367735
0.1631644206097611,0.577215521093335,-0.3139090581624827,-0.8644819835066622
1.1003071613872795,-0.6775181901028813,1.5307231664288485,-0.10471593948806679
0.5959901995933541,0.040068444412741044,-0.05245563674119291,0.19226175131760348
2.8739038078390027,1.2632913936484709,1.9813601949712112,-0.501183897937849
1.367986747548064,0.04086538103870119,0.5840026220752907,3.319232352280581
0.6200651865133264,-0.7295239027841625,-0.14840877966786903,0.26900793985934746
4.515877155656394,0.07779763466324408,0.037723472705094796,-0.36827833503382756
1.9569263208984893,-0.5071915497954058,-0.4330556763110378,-0.7736963359994455
3.617185271268645,-0.04552587812180464,-0.6731038779341085,0.6582736200407984
1.4204605819017675,-0.5705341463167571,0.34671625124371563,-0.4868382897284693
3.9381252017874235,1.5597297174975382,2.078712059448068,-0.4926534773484136
1.6030273781281492,-0.24529755473867287,1.0423727079431786,-0.07622516527183987
6.487919068587024,-0.9251318143535581,5.71904303641764,-0.338992184873531
1.7231722936128602,-0.00014618297839530392,0.8410112379193748,-0.48110403762065856
0.6206855652779626,-0.837947694957217,-0.4477678400139147,0.476867673364749
0.33910920880341644,-0.7947107453394544,3.0475473641925834,0.3690458432882868
1.74984971901244,-0.5690665744876052,-0.18392304239801238,4.811400808029473
0.020272691806035414,-0.5776748187911289,-0.6684572849587764,-0.4273526681205124
1.8932357532836677,-0.48407106479041107,1.1017554370635576,0.27152297124229663
2.158276756350641,-0.6777707388478297,0.9761544280583749,-0.698114655438767
1.475629984179276,1.1114419212285784,4.921624016851802,0.4674355592440098
0.1821630539412773,-0.5892906343251634,-0.10266398445834779,-0.5516612253710637
2.2269429229675155,-0.24419968977605389,0.4488704810611692,-0.48282752897306624
1.2122403562482935,-0.3342703037341924,1.2309180498298606,0.24603784707805287
1.557419153145335,0.03755545935286464,0.15841843300476444,-0.19598364622540765
1.2394223409955596,0.04018554312321654,0.8582627499467386,0.22212833733680082
2.032884085869442,-0.09684587825449997,-0.5457453233843703,0.7488488129501885
3.1565492139281606,1.2809328044807313,1.0926568314891956,1.2264647651326088
2.493382147841114,-0.6669684085418164,-0.86021635963053,0.26894689267212546
1.1511911684666267,-0.46447397495249654,0.7276742804027045,0.6690016708773547
1.112564791263968,1.6499183483133848,0.38700837689161927,0.6215223298785375
4.4634352267637425,-0.7802997861017005,1.756607258834996,0.3855752784740456
0.45952462545536843,-0.08389831610809018,-0.03906572405675457,-0.4005610737805009
0.5682247499430695,-0.10491311037719875,0.2786732319964125,0.04773926534615547
0.7678176877334459,-0.5469815239725409,-0.4167115997155555,0.20184510256848376
1.5688054918579528,-0.8649997974076292,1.8205003256932906,-0.5906240065016315
2.1267894191379155,0.10638445918493189,2.278532444104543,1.2973469685881507
1.304157934510462,-0.8476901136641328,1.1885033553348898,-0.49968943555482837
1.548615233277153,-0.6495125522065437,17.755692185430593,-0.016678855250664038
0.6617877801219509,0.44218549101614535,0.3025024466171333,-0.7759748277627532
4.8013886495513285,-0.33858889878879694,0.09429317048638253,-0.29667696980712843
1.4267575029408075,-0.4380800973839335,-0.16630816466676435,-0.12102903809547028
1.4515120864938433,-0.6586773757487852,0.0880892137362157,-0.7756433324712347
1.4597985840849006,-0.666340401830884,1.6120425721360725,-0.4117523368279995
4.974213290578983,-0.143625661372898,-0.15771784961996183,-0.3215874917096345
1.5156020740805491,-0.41068877839296214,0.3469877410191913,-0.3234844651110367
1.4472488026242205,0.016215841300229572,-0.2965582311897824,0.482657054990544
3.0653943141542683,-0.8245093770815849,1.1338740922320647,-0.051329015811812484
0.9021497330184418,1.1236220027902397,-0.2152538545132643,1.7473772487402557
0.3963022815195172,1.0398942422274629,0.5008206036400524,0.7377890235410998
1.3482691689798751,-0.19122573440529578,-0.34897555272574043,0.07595804098036263
1.093842549361919,-0.962457362009817,1.7496527387415788,0.27284268162657876
0.8201679996270723,-0.3237816275566162,0.6176589421962713,0.2629636392519006
0.5998847734242512,-0.701905652332142,-0.7014793545027777,0.2790471722316845
2.351832751492385,0.05532606907478743,6.790786273984146,-0.7830407251543012
2.524656175143531,-0.4772936290470885,0.4165241298483038,0.764846323003042
2.754526136792408,-0.38731654818630523,-0.4827881638560708,0.7937268345093988
38.827517942837524,-0.6576073253809427,-0.302197972494337,-0.23202030936049378
0.6254447905749487,3.55994662919937,-0.13929777068594662,-0.15086636778005402
1.9919527571045603,-0.4590173758513131,-0.037346552646879694,-0.021097008845793797
1.3903676599705785,-0.843202006762745,0.1620967255302337,-0.13170458019430542
1.1361903990034938,-0.04488337591521585,-0.21173851304701208,-0.39517208255699854
0.5133330204963602,-0.5825712366978104,0.02799935261180142,0.06979015638624042
3.818479735432846,-0.5894524627603254,-0.2991404440849038,0.05343556354549128
0.8283996207593765,-0.637179050495317,-0.5852734848184344,0.5908420847928264
1.0257867212387235,-0.5366637426260691,1.2235352857382447,0.5429171350107003
1.0366782315763206,-0.5048719731691826,0.6210642189607256,0.9638716057624765
1.0004143528465996,-0.11192284688700571,0.34083176722466835,0.8020237119678866
1.8079769593139496,-0.3481930659108823,-0.5715979908526838,-0.6310044539230049
1.722506056822422,-0.5602481122383498,-0.496432082479368,0.021807768250499127
2.0969815306950728,-0.15956916862403514,0.6998938016691609,-0.359231854288805
1.6420575457486204,-0.7017457626019599,0.6884365357877202,0.18526824302343425
1.7511066698530011,-0.11654118752469989,-0.15543202886345442,-0.4603728804483862
1.50531972887531,-0.6478251089485618,0.150499626332965,0.7436871943898946
9.484491526186739,0.5778784319375836,-0.1985860783216954,-0.30844261045008126
0.13524254752455644,-0.27881797665566355,-0.352852305439622,-0.6745366521541494
4.130294557984758,0.3365549955866658,-0.12830233672132352,-0.14039834731267542
0.5909357863315237,-0.231310836381314,-0.09982271817197252,-0.698880175790034
1.117105726733422,2.2655046722357772,0.016667173775258615,-0.03168381913066709
0.7167272359328822,-0.1418542216017714,0.02576096772839609,-0.1375946170654826
2.523558022192621,0.020388799461585894,0.41967311984272615,-0.695320186477554
1.4881243228899605,2.2189122405863166,1.1184670232687757,-0.8056061727849712
0.8254555667103025,-0.426595596581702,0.0038727540127008186,-0.21265228259461166
1.0897945978492833,-0.16228951728041252,0.6522615977883404,-0.7889008008224896
0.9070066508010242,-0.35253064811945367,0.20772897229430298,-0.5284327434046445
0.24524051197617713,0.5835134691361339,-0.6199708208819534,-0.38256924097745704
29.578490636791308,-0.2794985432914757,-0.2712878004501741,-0.3243544189922035
2.669553058171701,-0.5286808778911487,1.3306858260953058,-0.46138396194116216
2.0526807139134626,-0.024826383295218246,-0.41936684931463275,0.2532777133375941
1.3204951147293733,-0.5147951054966642,-0.05970297317266926,0.6974411302853976
0.7544900767778933,-0.06700453837806664,-0.0661007620466284,-0.5102270510970129
0.5249875260564181,-0.452572719466237,0.3818284798360665,0.2676141122371003
0.4354024561101204,-0.6965796704034259,1.3411852931961343,-0.27741590914242387
5.248831846344599,-0.6283828418261356,-0.14185922654195815,-0.41426752026864366
8.228868559039732,-0.7559761293756323,0.782058182463595,-0.1730132665356905
0.7558520659091992,2.492826171482182,4.718671250439556,-0.18342484364498346
1.4597704659406574,0.3982161478365023,-0.02484870644492576,-0.20486601404426652
3.717539729471369,-0.6737040338509662,-0.5153976786307952,0.4945473933845328
0.33278810829732874,-0.1126215861375105,-0.3836045593954449,0.036011529792828956
0.5192339159268977,-0.4355370954109685,-0.2714796787606921,0.09970793590959759
2.5471121238603702,0.2023271644364093,0.23933056771472372,1.2433605341292657
0.4286241647428415,-0.2073643833749742,-0.01382242016654922,-0.4538777213856169
0.41731504250893425,-0.8973807226897736,0.38994216203801213,1.294939291836068
0.9558833578616532,0.2754612760293764,-0.2013582348842653,-0.3444338549358641
1.5337401625435283,0.031335642339300085,2.1709461601689317,0.18942356194424104
1.4659351200495032,0.16536118424504775,0.5782024643110246,-0.5990570807774562
0.9113471677099272,0.5745688278285366,-0.5024315567802544,0.07410184978628065
3.2907680429723616,0.8328956726995991,0.23307718478796602,-0.04458190367731929
0.5498981847731559,0.21918083645445985,0.4788915214588192,-0.30374091437995154
2.256912955331977,0.5846018567496232,1.5231076817221347,0.07247972183250728
5.224704445305525,6.9092201672048725,-0.03068361640465267,-0.6107003370041559
2.3959127685542385,-0.6228353670801642,3.1824673877873604,0.00305922205735909
1.5846535816283285,-0.5568370513797894,-0.45595380174648936,-0.27722216125818255
0.46262609090543894,0.6016425050274694,-0.3503259778977491,0.08486910649526735
1.3893410499313008,-0.3888771776462423,1.0226723965947198,1.1761676134854273
0.04640155805293955,-0.33778173877948325,-0.037716072125275724,-0.5973704322594596
3.365833930234862,1.7861349763848056,-0.2075545294606006,1.387137739864949
2.5280991641330792,-0.038011604603073845,0.12714601217183308,-0.41384068891981796
1.6544770900549999,7.753091707029277,0.6487634692199276,-0.08553258925487461
5.605960199247263,-0.5485257610604672,-0.37682149196545567,1.0586059580346938
0.6687543387669017,-0.6935903082738555,1.9365528485623886,0.6351226075972407
1.8784059086213927,-0.2632037200585434,0.8155059082419427,3.5869244831786666
4.230385633040736,-0.690670886766017,0.7238859068288861,-0.5113041405834804
2.6713637755707818,-0.39612898755541803,1.5615713444147445,-0.35803076065319583
1.4244456308057516,-0.7008121037408392,0.5015047403259087,-0.4632457831544332
0.7099538923152884,-0.8381394730971108,1.4918258643130664,-0.4353796172967277
1.5657086514948308,0.8262035103626841,0.5879744834199141,0.1994258069198609
3.8883133862378987,3.0793116541164736,0.7119827035771515,0.32445138195773726
1.4963001297560634,-0.4472569184070234,2.456471340239323,1.3253109117585313
1.8347769958271791,-0.8697231815927802,0.21561709709925858,-0.39818517325024216
2.163048014976152,0.009055332760350199,-0.04461883335910566,-0.49283162599007
2.0303035085541277,2.611042505685146,2.4337875725612146,-0.3135378153887073
2.7549148750071235,3.0468990310766877,7.639323304660852,13.168995861727042
1.2014721492821945,-0.4243699373025933,0.42742402205634855,-0.021700228512781305
7.979250938387652,0.19030580507749395,1.4335967940262835,0.34431807349016563
1.2577000937309641,1.140196163463152,-0.3588033231931964,2.4874854966109283
1.16712053579161,-0.14081947501852443,0.865827106904028,0.25533470315550444
0.6094738611645416,-0.8259436619073616,-0.08009037087569959,-0.4203301703260808
0.3512257845807245,-0.8341609281012046,0.1952174142262193,0.9987055912471361
1.1649867935777518,-0.24505561567382417,10.336780778361152,0.2554269215356455
0.8377404951439824,0.6266444192715594,1.090807267964537,-0.2902055479389619
0.7274452815973353,1.048580861806879,4.193537248865225,0.8158147982715973
1.6381802489651789,-0.7522421772301218,0.45411679649876735,0.21280112285394548
0.15898389817911562,0.2494350667791736,-0.4068472810414865,-0.27071712963967876
6.120865281527675,-0.43801810353926685,7.194696206192356,-0.905252287155552
2.5031718750813883,0.06803511813688745,-0.42022304301822444,-0.45928937913624546
6.344612018462442,-0.2736518415031084,3.508249650442246,-0.22902549502998293
2.136249383089334,0.09755354467549537,1.122627789455525,-0.057223774485195444
0.639101128513418,-0.1438005759367631,0.8331133721385662,-0.488924741969078
1.0932318467675843,0.15894139336403512,0.2692359327923688,-0.46960170798320855
1.3849585784889156,2.117215130655098,1.011025360368642,-0.08924866142176857
0.3133721863039922,-0.006517842976518362,0.9621844307002283,-0.6762502901180552
0.9487896393989346,0.4380850880237914,3.5570839425985863,0.2406169898886783
3.8053871040881146,-0.18663123240120438,-0.47408371198463395,0.08847073778671732
1.1849673448432534,1.3570420703520316,5.634682304038736,1.5003283983688305
1.7010019827193554,-0.2758696923654381,0.2687370800793021,-0.45261268610775274
2.2045521593776978,-0.8814410652828601,-0.22534097554014332,-0.5282867679017105
0.6540876923361909,-0.7036737665203865,1.588147301127146,0.005778443192046456
1.4898017835757575,-0.5203314646109067,0.6017090767877669,0.04144716204658949
2.382910083564822,0.002859080629586064,-0.389398614624739,0.28883220987214675
0.8660467138701136,-0.6350186648696222,1.3995400047538746,1.3448799963517328
1.0321954729721563,-0.7944006377074377,2.1038832923881734,-0.31101845528758887
1.0618472984078537,-0.08555134934692388,-0.06502852559648475,1.3877975645644423
3.0978722422423965,0.4621061337182939,0.12446629842435142,2.492103199157814
0.06633123623095916,-0.7151477924809161,-0.46029178467463316,2.266382376888562
0.8555949978279322,3.3858464999504747,3.0000668400831225,-0.3838017613693603
1.762257710383858,1.2194481708535974,0.772206707315739,-0.8854468748105235
1.0107398820185112,-0.36061398614119067,0.5176260330035181,0.12018450927291813
1.1794354829474472,3.6561230798464948,-0.7613630339984342,-0.2049323579999901
0.5436279860506761,-0.3688114582196269,0.6513838812560804,0.27479301510852117
1.6385602541808248,-0.40130694103257714,0.17645902139479297,0.031853676614488124
0.22354992234025217,-0.5568247511229154,-0.6534292557597643,-0.03025231718636867
2.077282117878972,0.0037411972830228013,0.8042127007972213,-0.05447549695434062
0.4275527284452647,-0.3153194241960433,1.625039449194019,1.2767227764505495
