x1,x2,x3,x4
2.68120728986445,0.31069505074569914,2.8800393394844668,0.5290106095418099
0.7441805444878282,-0.9275987282284076,0.629082076784562,0.131625636796032
1.0411202541469642,-0.559475772775996,0.1381967028767912,1.0998921122812964
0.5184554669101371,-0.6487635609754183,0.5931205892347586,-0.5172729236188295
0.8460235026136971,-0.8380002631289795,1.7907352906883656,-0.9625781187969209
0.3821462558961415,-0.7029466471821355,-0.16239025623943515,-0.19616843921080962
1.071654098990035,-0.37743823443104374,-0.04284349914135799,-0.5268466573319093
1.199625092804315,-0.39591723371862986,0.6751280531371837,12.241650104200382
0.28773767442273246,-0.07273467999187289,0.6734168169046131,2.031619968244404
2.4961707586973256,-0.4572352893413074,1.0385444492692457,0.7752404653828635
2.688954013134244,-0.5394774102038817,-0.5782091926720205,2.0140693810241674
4.4806344728286644,0.002394882842205348,-0.7061451775791328,-0.007061685749745306
0.8526705652303432,-0.40650878579835603,5.158767859538009,0.043570206813442924
1.0538692497131077,0.07603903548434654,0.008172495387867462,0.20314014544508652
0.9504122849890075,-0.40025256692923916,2.734627990969272,0.08035975443132548
0.691018014507945,-0.8874205161274069,3.0423414347680664,-0.31576567846392345
0.426096271323525,-0.5695228704532516,1.4323556293739017,-0.09621699099021375
1.0951192531902705,-0.6896284812261302,0.26870031728796384,-0.676700365362768
4.4898837012569075,0.1003332978332705,0.40971176228309014,-0.4504727080322761
0.16895411136931604,0.026680495900275325,2.0949637108595276,-0.8813371513009596
0.42979810985425626,0.12184049703778665,-0.638834404881232,-0.12309873920880521
1.2121273821221616,1.0006175315367458,0.5177920051109017,4.079817452895627
1.1727086678754244,-0.1890805109786573,0.9917707590534506,0.06031107209278841
0.9185578775767149,-0.5318679472246357,0.6472807066438342,2.0987288475487915
1.2470095773940257,-0.5406588349232668,3.7615584750038176,-0.2909834639511055
-0.0325338584646957,-0.08286346777887965,0.7166599113483827,0.1905957262433997
0.12493846715464696,-0.010910217048125448,-0.6432543983502872,0.41462272605085104
0.2563595620828152,-0.18536995757932784,1.8443925843192734,-0.41474832709111786
0.6173487493616361,-0.8130251788647412,-0.1411295177547105,-0.4274997274366148
1.7358807218744654,-0.5935044037401831,0.4317100543367016,-0.08839055683538843
1.6508379523778967,-0.04580519299435326,0.7132060531460256,1.1232200280432107
3.9110326093034793,-0.7098057491035019,0.22496164983770472,0.6189413218275703
0.1474949493964477,-0.6203692633992175,1.9042694131452915,4.331745631740237
0.9556848049814199,-0.6751593168803202,-0.5685231688829203,0.030278295552238044
1.669420715718028,-0.4139037123731396,-0.07485512087585344,0.5299873229422738
0.6529089118597904,1.4403735504235589,0.8015203173411627,-0.5240796795540223
1.0386686416007818,-0.407285593200691,-0.019920762177821016,-0.7403003238079027
1.3159810445497482,-0.5264870250594402,7.244264626884764,-0.09401897169836726
0.41952815535002874,-0.3680695178741832,1.9871919613574969,0.3762031146534881
2.9746598835569555,-0.6005172824830993,0.43029919652684123,-0.36147420336627933
2.421468862804186,-0.5692988176919191,1.556996260306084,-0.3449605224004658
0.19410154093034437,-0.6618729803701915,-0.17438218714051823,-0.040959448165785006
2.9165312479463723,-0.023519839894818317,0.09152449927419326,1.0494084797849283
1.2808906137532259,-0.37434667223016926,3.588724299172335,8.350364411569398
11.95223216766369,-0.4555546975750391,1.041004510556633,-0.4122133814633375
1.1995961568269884,-0.07295702238738344,-0.4088246785812961,2.9068172347596333
1.636416674099617,-0.44427442646475757,0.7499139958686163,-0.7953711034057678
2.158969739250097,-0.1606771232546964,1.1935740467231692,-0.7343041441918116
0.13900641556038051,-0.4771932396529177,2.129159109164884,-0.07063403225263076
1.9530095049965608,-0.608482462378179,1.0667970737505827,0.020343282846116084
1.6502611514779737,-0.18167284001963036,0.08241071123081278,-0.16364427255357694
0.48864282894121236,-0.7775622636773092,5.109184277092781,-0.051961441791599894
0.642716400563283,0.2680576422818002,0.7023166801249658,-0.27769612525259535
1.3988674225186477,0.19557279652225823,0.4153643238777627,-0.1128062416926251
0.9262768115125026,-0.6542917709205167,1.40218806424526,0.4261850870271622
2.3494083174877236,-0.3686062915403293,0.5451682766106618,-0.8764614680310079
0.5732508446303535,-0.28104231415909664,0.44941335668018745,-0.40261820826183625
3.0372642939164622,0.926345309297623,0.27437134232288396,-0.5275430975267238
1.6843481994061746,-0.15847232313363913,3.8369281330310123,-0.1323555796079372
0.4946627991679349,-0.6624616808094028,-0.47788539760190185,0.6241810065135771
1.1438750119382153,-0.3806433565342181,3.830085168954348,0.47428126169531715
0.4143993833086792,1.312011119419279,0.14401779146488147,-0.9446157304217425
1.1178825191369426,-0.6144778222551279,2.6406522787228086,0.35936810015693466
5.5214489914155855,-0.30023528266714505,1.2299811098727642,0.9539068874568086
1.2794717175677186,-0.19232906422809148,1.3169717130475158,0.3494813223101898
0.636275504006675,-0.2878094278594716,4.098137408935264,0.29771489401862294
1.8147952831207608,-0.6760716090325911,0.21556456644497524,0.8520432270669407
0.1844055822562667,-0.4936512745450713,-0.6761183938028067,-0.8994813840780689
1.232525178509067,-0.6356517430461408,1.7840176556280891,-0.9128149111072741
0.4269032296134423,-0.5231459703566833,1.256345531818012,0.04898962282827535
1.4075467616933017,0.5880910499493892,-0.5130622331538464,0.20957477864800622
0.7588328347253013,-0.910015128424976,0.24223483747485197,-0.6059063430101006
-0.012490576554162525,-0.647746740400042,2.916575331539723,-0.9377965715394566
1.236985395355271,-0.3917110833696331,1.2737494371946636,-0.21987808623062832
-0.09504470777861951,-0.3612690915120568,0.7611178313026106,8.635744817146074
2.7526293921865514,-0.6410492406794122,-0.10914394477036693,-0.1539674677200651
3.101488381662609,-0.4163007465528671,-0.804067688790035,-0.7987809223476634
1.3362872382845699,-0.27767419933918525,0.3362212463572529,3.0053144649276176
1.2316483905847968,1.343345227390825,-0.055793172421279014,0.28170381940654843
3.822523926655716,0.6215676299421102,0.6381815557063233,-0.5793919904270786
2.0244418092660115,-0.293036048859293,0.27534517880701825,-0.4220475680788496
1.6845368856646146,-0.4319946386935758,-0.13621173957966015,0.5777713530757917
0.9153373131002069,-0.8026818273419205,-0.16403790371773974,1.1563313820880556
3.116277563147043,-0.6498472241704301,1.6209580122735043,0.33603292427056886
2.336872592465656,0.29677509493229803,1.033519260751234,0.7453055888764848
0.42486020198723407,-0.7293700507366654,-0.823661980359822,-0.13787878665407904
8.662233521750522,-0.15746210790795268,4.485402764331517,0.13678165201935522
1.5264322082432793,0.3783003681883419,2.8139322301701544,0.5584257144331417
1.3329241965053877,-0.45656972425000886,-0.24865223980178108,0.4305841257892107
1.5559682921719666,-0.24379779324350115,-0.44554477258425895,3.9669852142088864
1.4736326878531125,-0.39658157481889855,1.329479298417688,1.077621701810239
2.476005193349771,-0.6843035745520027,0.031111951870211874,1.2238961871177372
0.6149032249151885,0.11491025397442334,0.8019612676046797,0.13369269933112493
2.027888268234118,0.4604818461006803,-0.3761864628101609,-0.21506582791378714
-0.023154602334807373,-0.49198937932947717,2.0937944159025146,1.121607649560152
0.762404832702873,-0.3429872005839387,0.0931312234800592,0.4822404478622295
4.096068560746407,-0.7755085891169794,-0.5433707459387617,-0.05452392805807116
0.13761456753653745,0.3389235375124118,-0.08483399740876951,-0.3148423050106818
2.8658691746066194,-0.7150811700390958,0.7256981951036834,-0.3887366583478301
1.0356642055088359,0.5949305201078601,2.370772357420079,-0.3807621038462554
1.2338473412702742,-0.6911214766880698,-0.055685799149569726,-0.5617375455277787
1.3308783770845198,-0.2936967707152459,1.6586255461359554,-0.6430715158378819
0.6755054306112809,-0.26671776285779236,-0.023081172295397634,3.2771688214159713
0.27516789090673344,-0.6625412676778402,0.699758023291791,0.4135262400572084
7.544588885950123,-0.7034068467200068,-0.22782218239952556,-0.6667732668649129
2.7990703533458556,-0.4334975007538159,-0.3815017005402066,-0.0869414380962179
0.7316775773602029,-0.6425710369756471,-0.3528686422083611,-0.2780542743566067
1.0023375325807047,-0.3812949869006348,-0.4239058447719294,1.617502147639303
1.1608977078867908,-0.5375175435659736,-0.600303999240267,-0.10194085000232189
0.5538403829807268,-0.9058274581899524,2.7480997073056193,0.5819391854667975
1.682641200725858,0.07053804473676428,-0.4036971201560764,-0.519580439584157
1.0371632691458381,-0.41359000079153807,0.19890961183328182,6.383362273360981
-0.31589126548191415,-0.1938578395663575,0.5282421210691177,13.309576308112465
3.4932302473475616,-0.6944128773748006,0.507980294679516,0.08822460920514885
0.9742350600683123,-0.442692911674324,0.28649581100925436,0.08633640853627944
1.8084704043445523,-0.5772713850672778,1.2746988485755,-0.6170160079871692
0.8267788581940767,0.813162714441747,1.0758837837466992,-0.10276433811689134
2.4510728905096006,-0.29912064075145084,1.1205169637447474,-0.23282610383327418
0.5268573181491221,-0.370576089305512,1.4143521445316907,0.45917412565899696
1.457304446153533,0.3346492876740732,0.8432142895557695,2.094734699883626
3.8294008306211067,0.10496003880424243,0.7383129970831646,3.38532898714862
2.843752247244845,-0.8580924840895996,1.413066198475048,1.7048837739852223
4.023301179019218,-0.3364084518492161,-0.28171018929824265,2.1716052161605393
1.4405066740451433,-0.3482143632084236,1.5865070822620182,-0.08221755341913772
1.4968635371283483,-0.8377294301171483,0.2415253084183724,-0.20893560359064411
4.832095757073006,-0.8463537976053866,0.23483032121386938,0.25929126890302046
0.05106996094465166,-0.49471300638918425,-0.47273944663700607,0.02750606022413038
0.14108009060381965,0.30593255412104847,1.7481978468062915,0.0801714694379787
2.991900433658557,-0.6802456768658052,1.7080616373467463,0.0031513574750583473
2.449023746327637,-0.8591453426747226,1.391761124986667,0.9509696159970902
0.6853521612712739,0.11340896708925285,2.18447089042529,0.601525109255661
1.872731592887257,-0.5488918064772532,2.711346532240893,0.36693619006416966
0.4201727199590404,-0.5768941416191471,-0.35069206192883984,-0.04258942434592061
0.5270835293009843,-0.41756740724089814,-0.8851913226517483,-0.29490416495260663
0.46939172480254165,-0.535389457608304,0.5603070822881466,-0.41563536590045524
2.479179849486546,-0.47495166671646416,-0.22330920225965367,-0.6700648651090304
1.7644850910223924,-0.6356880337059251,2.740941428367859,-0.41010146881650666
0.37050118727169945,-0.6582840219535283,-0.04943848390425354,-0.4392534676680333
2.48831452228576,-0.7444182026816055,1.2010607147216104,-0.20104202346195144
2.437576074661331,2.9583064435353745,2.3517239135172034,-0.015030854784322534
0.5616450844897509,-0.5142201098838344,0.13367566344477355,-0.188945840163799
1.6710713004556768,0.14698546002289703,5.660754183399636,0.12778331078547844
0.6680832420695781,-0.4794930675700073,0.02894663228768901,0.5974192544710104
2.188718041057809,-0.06418734341944532,1.2477400511979542,-0.29534581623847367
1.874067100653329,-0.06021229129880379,-0.14192632067702948,-0.1873121678998193
4.522848098326709,-0.23339885556449025,1.0325074161394334,-0.19676211289696866
8.465578913815401,-0.2944522284006087,1.236979605497754,0.5427754281564081
-0.05319568019630705,-0.2824375849666969,-0.5442039765052497,1.0691121154984646
5.0077985024381695,-0.033707947908254376,1.6330746711101205,-0.28596832128206406
1.5964869850884305,-0.4920527296259296,-0.6225289577377262,0.5133473564723807
1.4360991562594156,-0.3471236925113401,-0.485712332528935,0.08019660855623956
4.41067072292086,-0.31232487086909766,0.5114065457407524,-0.4399285695035964
1.4106028982343215,-0.036128989438636516,0.6864767817225075,1.68964133829345
1.6602276563384475,0.05752129433888009,0.7075255785309653,12.37712726416042
3.1085072951503063,-0.3008233504923562,-0.6250093430258135,-0.3152204444753969
1.719410004381836,2.257174279468796,0.26683602185656663,0.656672189222232
1.05627869111566,-0.0652692887728733,1.321212789412201,0.7897048122211687
0.19805353348787302,-0.4448804246177952,0.971226868903885,-0.06895009209963665
0.3979203062001371,-0.8598148197531224,2.3352833802654547,3.1620509500326666
1.3426787331787726,0.8212205046085548,0.7373054364771356,-0.28102263662267113
0.7468862594082204,-0.8023182211643812,-0.19287764887023406,-0.675198535692376
1.5335230266470856,-0.6517285474755521,4.2893683662412885,0.39301424199207813
0.12795297421760532,-0.36597879620978757,0.922929272553227,-0.7435778160587421
1.519815303945454,-0.5034882096666349,0.44108914034763225,0.5645053486857452
1.9661797253111883,-0.8183444174396566,11.31492327570246,-0.1366794610619414
1.114342363135088,-0.22576557590530644,0.4060322815191233,1.4937307852715316
0.5608242028072006,-0.5106427246243068,0.7682486781601334,-0.1853744255968589
6.042329229443149,0.10273630326492933,0.16668819735171558,3.2775061033454502
0.2930066924566148,-0.4821685814028258,0.194384489968908,-0.29241206254061836
0.9397972388547975,-0.7570542849847277,-0.046666992186380485,1.0764186952194468
1.9306112514431297,-0.5315825729852592,3.318696589219642,0.1868314153685695
0.10102014701857143,1.1464497195825119,1.3194287816210766,-0.13417414384900528
0.5808558234202466,-0.790088157720457,-0.07312691878251776,0.27387185502115097
0.442321951230328,-0.8512364320753704,0.1442461893485456,-0.0935886101440383
0.5575613683389722,2.8222579487032546,1.4381253562012133,0.0971721324861714
1.1505751518566232,-0.5519849631351589,-0.6490371177290262,-0.29808326390437434
2.6661224702128403,-0.7036042146115357,4.1271072825598205,0.8746018397974282
1.7265053834794561,-0.9262562510154783,-0.43370036451849736,-0.14245877490558123
0.5847988696941737,-0.6868980295061311,0.1618404700562348,0.8823180804962303
3.350791605368795,-0.5187078698496477,0.4858724458131851,0.508091904149083
4.676469818564712,-0.6853902409151704,-0.11078009885209472,-0.9154953801433328
0.9371142205686331,-0.012778363541939619,0.11336134375792217,0.4951330106175986
4.868938320631447,-0.29801534763918636,-0.391453432125631,-0.6340845925373686
3.1089892292249237,-0.5819784380598483,-0.3096032607632858,0.16120437016140166
3.5330248280357477,-0.3237567247430334,2.1318524243163113,-0.16148563872829125
2.0831464488890448,1.2351610194137264,3.3099896243777422,-0.2682676392444293
2.327120898271075,1.111514179088399,1.220424632958364,0.022496488590593167
2.3372062092825727,-0.7601208823710672,-0.31149924212082414,-0.3126171107032498
2.599344956921445,0.027500273018329136,-0.315110454707788,-0.2624282083757784
0.4686824173831481,-0.32490949473918596,-0.5420668364088039,0.43841980117829427
0.29248060907669493,-0.6514384653409703,0.845889169177527,1.0528838557402582
0.5978500873341042,-0.7910302304685011,0.13718019924055835,-0.19407262106669698
1.1749841321179981,-0.24728373904376466,1.5759486158630334,-0.622016743419602
0.6457974920821705,-0.6068870828006738,-0.4763008890104097,0.28431730823117607
2.9511445163930716,-0.9126664610737225,0.40487314115111617,0.2719974101700491
0.6162242659745201,0.1424890078580201,24.924166778445244,-0.710994823741429
8.917308508659799,1.5599278908060334,-0.3947964916258503,-0.6714904367501573
1.1509940414960647,-0.6271237901472256,1.5038887247180246,-0.1949417671889273
0.37424182668048633,-0.5495593660194291,2.6118899658860806,-0.19662481819722322
3.92919023964655,0.0682514990673233,0.22224633918273895,-0.5270587920775891
0.8252104271247525,-0.22103150928904047,-0.1792542492960516,1.213637100983075
0.8123213771831264,-0.15138964754069228,0.3159430299841117,-0.3254480322745822
9.935610031024096,-0.5617804386341954,-0.14511655122113576,-0.28303848985009816
3.718286395057798,-0.8640186430795342,0.11057458262375985,-0.266828440218827
0.46775262437251164,-0.5427878648736824,0.4529060180771429,-0.2526368759616239
1.5894812347194875,-0.5566278388112024,4.052580140614458,0.45960585509048424
3.474089285048472,-0.6708134274187392,0.8984775927149742,-0.03908278331943715
10.93210264576255,-0.6386524595455156,0.8854900131151526,0.024543877305101658
4.226335264836463,-0.052592553063255054,0.17554730312271216,-0.4434831168045672
0.7865877541732516,-0.005264981722913564,1.1407874891382423,0.1746364243300842
0.27287290895954697,2.316679920407724,5.315424595458472,-0.4319676808198267
1.0986086986265544,-0.6938028418275594,5.176602730348919,-0.37940306865844264
0.14682761641860376,-0.47281660831742445,0.2014574485875089,-0.15861967036492208
0.03710655058551371,-0.5631678872175402,4.194734550484281,0.11075906069793784
1.478414555594013,1.012657746123058,0.7189734103668526,6.1568445650968
4.201691013379474,-0.9710828602931406,0.9839484849011029,0.834342310896079
1.3705966939231247,-0.24411222099499286,-0.36198648186047666,0.24254014035862848
2.0482337960469934,0.4312001243167407,0.2522700258880557,-0.7085541716761754
0.23494541144590086,-0.34728223952912474,-0.23915176678133343,0.5145946919800677
0.4749874807628538,-0.4614890608265022,3.712477815376557,0.6459513376074715
0.33684603551171,-0.538985146780353,0.26211010340535457,0.3666815973522839
7.048589623005329,-0.7670781895680722,-0.3883645003659981,-0.40244434100825077
0.5278571632365381,0.22420805264902777,-0.10580217826875593,1.3239338190793046
1.6751999121414296,-0.9617422891082792,5.275787515644429,-0.5161583166043391
0.749557674385489,1.2025833003540662,1.3269188059399681,0.125643776560999
0.5568461634070137,1.4388948754609103,2.495339333675538,-0.5527851964757511
0.9757002309586262,-0.4107502740176082,1.569334159046492,1.304009440884347
3.394213317484188,0.3291851487336872,1.734056565794797,-0.09349008508469614
0.367894144363375,-0.5558807091038152,2.2872202572741314,-0.22863576376118488
-0.2335102555306363,-0.6307658389097517,0.5467866887079871,-0.6353786933477223
0.8570693445370345,0.8538875596163171,-0.0994979000934636,-0.3389608564594152
0.6109646831283086,-0.33804878929277205,1.0701873947676428,-0.28027199718845297
1.4385421531424099,-0.6279579148476337,0.7269445973875137,-0.5203042382113292
4.124091007199016,-0.40519232848887177,0.04255684476174926,0.019652581663719193
2.0809162291830727,4.184661728624243,2.488167568799102,-0.0603584139086939
0.23597420472711828,-0.11690419032384736,1.2857501127319195,-0.6169949788995761
1.1583305210727075,-0.4740254209510314,0.8961639127538605,-0.11050553264083351
1.8430667550882092,-0.13929772068611235,0.36712167775420523,-0.4476426131821607
0.2171905240222325,0.0433464186442416,-0.8363187730455255,-0.7068999376826184
1.8726909788187207,-0.41678197257909244,-0.21473085306780815,-0.07104582692669847
2.5414167308345545,-0.45494263714882377,1.5587612126808006,-0.3494375732741021
1.0940497455520228,-0.6692375733087423,1.5618822253159728,-0.06165682213857537
0.7149436237895961,-0.18717311313494844,0.46246393895466076,-0.6144321184107716
-0.01892243422290507,-0.42869980886613446,0.25114516294990263,15.963983689012402
0.6706723716495953,0.054496016534026026,-0.030205884063395194,-0.620684729420556
0.3229327945898286,-0.318113375300651,-0.19572812252741068,0.5410845281521977
0.5253886342874643,-0.8174562857021468,-0.58401954090027,-0.585199255127844
0.6618698033194033,-0.19536009246496988,0.03149649296055501,-0.6814326529253367
2.0032590161972093,-0.11786023121420952,0.9742556963401265,-0.11033741370183914
2.0430245189791405,-0.5589343500307664,0.023355606656624284,-0.5250582503704653
3.063919368924526,-0.2063839083379836,2.4365970380368394,-0.02865929347842333
1.1506325306725325,-0.2151143648157383,0.6927498319129772,-0.8858816780780348
0.1807272539951743,-0.6155549146044317,-0.5207450696245405,-0.12213513589868341
1.3316853139480664,1.0509125698680832,0.13314207048923077,0.9450577145735022
3.2302417748284586,-0.18531089941558943,3.218674355616778,0.5373810307560707
0.8561287743694594,0.2654866342894566,-0.3488047579369411,0.052320407443291694
1.3759575710239766,-0.8959602119802503,-0.1361195077040609,-0.654146068436716
-0.057424955121247234,-0.5625986013314506,0.31704102952954205,0.10120255909872977
4.226023978626691,-0.45301423418929876,1.514645186500446,-0.5105917713549717
2.81064431838435,0.6427971790753473,1.1922587660202408,-0.266349101644363
1.3094008286451313,-0.396916499858162,1.25914477835429,-0.27486444787332776
0.16946604806858612,-0.775404773336834,-0.006913700736998707,-0.16817494011829326
0.7615654932230296,0.6689581573055032,-0.6822058824658751,-0.44071328645101404
1.1952565024854707,-0.15491703301681103,-0.13789402151571728,0.7672367858388287
0.22000991551942017,-0.927690530326193,-0.22083528845147182,-0.06429324116029189
-0.009845767709974695,1.4573667891660471,0.4432285289109523,-0.25850126464459877
1.393836018332427,-0.5081065203851591,1.9340895878544284,-0.3387528825356523
0.5089322224795116,-0.5938700269676551,1.796958162128604,0.6139943832502055
0.8046161924873751,-0.7918896044430541,1.3395394874010669,-0.1869417974260803
3.8111632512026743,-0.6504230752145341,0.03363186001612384,-0.23695326967983465
0.9654457420732234,-0.8491690438231347,-0.41283233407340025,-0.010302919414927336
1.1378291490535188,-0.572584616470375,2.0867076352351734,0.6446588920674843
0.5113832157294511,-0.15546926586253063,0.8798920725175734,-0.49912248069769793
2.3828596396298694,-0.7372829442902703,-0.831692027218744,-0.04811134595487876
0.8756229949199472,-0.15730108066700055,1.1496761200803807,-0.2975453934036064
5.523140676878986,-0.27561528715381056,-0.5075060930892874,-0.47383159243282413
1.9708825553631448,0.5356464895671849,2.6284400453150973,0.2536896163515072
1.0455703372788312,0.0013177348652162468,0.5734593287418008,-0.5440866953277455
0.9083228278303395,-0.5300438420684066,-0.6469477475981402,0.7593410735169819
0.6447092651000954,-0.5244864982736785,0.08814295273713646,-0.6236862509964745
1.77164118191771,-0.2972835931652261,2.3875797431146712,-0.08443374948591209
1.2464370669635603,-0.42406478796816305,0.5553984431991836,0.5982583383762727
0.8115068199526043,-0.3397672134230445,1.0803256761516962,-0.23643669534016687
0.29889273173258624,-0.7061414384471971,-0.3018191148411239,-0.2544064103740904
2.928918144446634,-0.9320946738126902,-0.41609547319747686,-0.5243887098418578
2.196752218035468,-0.3614875233310728,7.968555749503956,1.3334428989978662
0.5524503224091699,-0.12491847211658624,-0.03219484918767024,3.761958071611007
1.9808561578431023,0.1911583121363496,2.13395261815666,-0.1142746161456466
2.4594857017957272,-0.6979298420741099,0.3682817602111599,0.34325692711418454
2.736347984022511,3.405918347684124,-0.518829683436602,-0.15379580723140307
3.1716488113993844,2.5981477876234065,-0.318814234753134,3.0461040131514734
6.2520842665988,-0.7002446613772344,-0.5390659087539982,-0.27753934066358077
1.0257879632720406,-0.43051282348093833,-0.2546329726278337,-0.03451190288255901
7.239965038739971,-0.784557446891021,-0.1267396239999573,-0.2846564462537159
2.3775672905790057,-0.7386437264100244,1.0536005607103562,0.004925534804070653
0.592407626739633,-0.6034044925005133,1.3281630928050157,-0.13006652318545076
2.7197575140206856,1.1815600439023113,-0.79246520638909,1.2446465589307474
0.7338762340562577,0.7010267921219047,0.4421073973185554,-0.19718773874609996
13.202918838398245,0.013426644404805677,3.056142173705113,-0.9031791309106256
9.085990668994397,-0.7318617630836777,0.1354232141827214,-0.37407585225501105
0.8953405592253298,-0.3579423584109742,-0.43305606426519916,3.702872763832641
-0.24921235432264588,-0.28289162555309855,-0.03126841133504166,-0.7686802665605563
0.44221029092667075,-0.49532876664832204,-0.19878522000259435,0.4269501281510304
1.6844090112289494,-0.427013417057715,-0.5641295509823658,-0.506103621770468
0.10839399377439274,-0.10317371512037721,0.0430880578588293,-0.36071012343914977
1.7333275547421318,-0.5243041344577202,1.610492466339919,0.4956786663899002
1.3531270556542814,-0.16420791505997612,-0.762804326966692,-0.11987371256249613
-0.0022015329219767787,-0.516381517216906,0.3856372274860378,0.22156747861439774
1.5256256040049423,-0.3577157795839112,1.5166851571868212,0.6505485949456076
4.515571648319308,-0.4693010539822856,0.8717758766749131,0.01106635607043227
0.8484194291615277,0.10898829494387341,1.3359782339496467,-0.4685050996525346
0.5690040453891339,-0.12075084019133608,0.31471275557180856,0.571110117316243
1.2000416785138412,2.112123593507729,-0.1664059423693317,0.04935554954344212
0.25543435867513575,-0.5145003239609969,7.364528068216375,-0.1582575576270958
0.960373381595429,-0.1246952070620021,-0.5335720432579798,0.025993715550004293
6.280633369771513,1.8482034320788006,0.6215823068903432,0.5836275700825972
14.221486103487736,-0.8594915244979814,-0.2371822394549966,-0.42636553080724593
3.63833928847843,-0.3807943334835566,0.8326887806053542,0.3806193829239932
3.4592322468375976,-0.07937654024006446,0.26615611822988927,-0.44543760003240973
0.7512600213305847,-0.589304151023657,0.06289035737937176,2.9207271875883403
3.5977470585590714,-0.22443833032766503,0.570204985769895,0.003486391841988956
0.11977085806434595,-0.480577546633402,0.7192628447464187,-0.17176599106414303
6.530302274165281,-0.6060916413576762,-0.7265302558178617,0.3597501168359001
1.7268649263533709,0.030295278718324825,0.5144090969889958,-0.15689081301495444
3.143885444150232,-0.6225464138907563,1.9490252872897296,2.1344007246393955
3.4105168312930747,-0.655037598655511,1.7386251029067168,-0.15185180688373312
0.8594810418057937,-0.697277144672102,1.8764809579308852,-0.22368030548861706
1.251834566058477,-0.3194641052764391,1.3938850898441353,-0.8366675151736712
0.5365827571743349,0.8067131773959568,-0.688806918376021,-0.17578323642484273
0.40598496770266257,-0.8377509430688146,0.9391000725743357,-0.12669974083247004
0.22929718035273972,-0.7471387332262929,1.1355703773861516,-0.6790932409308688
0.8242348122243024,11.809763861938729,-0.5436443675077063,-0.42708850122662845
0.8131284292372327,-0.7106768247401858,-0.5218403058795313,0.09885450859415656
1.2923793474858232,-0.5588209197232396,1.3279065525392708,-0.7147680449046985
1.701223945543913,5.0975237438563905,-0.6295544942560551,37.817966943656494
1.4855366963087082,-0.5238538145463336,-0.8954751089022724,-0.3979255957852408
-0.0726293223718234,-0.7897714404866739,0.37500832303563514,0.11373832579180254
0.24607834820750285,-0.387432803551784,0.9569281480627305,-0.34232530311853593
0.9515405946806119,0.09373694724674864,0.03184850769249481,-0.45261004531817206
0.34270633042395326,0.44325348563876155,0.1290918543823505,-0.288337653209533
0.6869381460582376,0.044845413277760704,0.6868154454148052,0.009892961033988179
1.6448241074674708,0.044554763772927775,-0.555270324259034,2.9081611951733355
0.846057262312689,-0.6185628863901853,-0.29639809653110116,-0.39775414720058133
0.6592289432147493,-0.6414068219825115,-0.7935404256314867,0.867318203999732
0.08921722028532164,-0.5588299735997975,-0.11552554096936263,-0.4506143142269524
0.5838898480999293,-0.7616265963015583,-0.017233961865413483,0.5423064318518864
0.7589332539794231,0.22713628131379449,0.3450012758774208,0.3259030554153519
7.153243821221185,-0.4400829097075054,0.8038910058209587,0.025610252838039527
1.629136387630874,-0.374498311188589,2.236217080462713,-0.07512800290803534
0.3612180792719222,-0.27444892933216725,-0.03319146361166159,1.521931046527937
0.3587905975837169,-0.7008263802001172,0.26391132965717046,0.48627724676954
3.080171317888947,-0.5060559197569625,0.6861596558933016,0.09681017519204427
2.1639900504768215,0.26864459125230056,2.1462281882821466,-0.628502521041483
1.9149387462977066,-0.6238896811475066,0.2577873719733239,0.26765976050078666
1.8553167702462057,-0.7223146336147832,0.5461327408576038,-0.6086253796084515
0.4859937553493956,-0.1786975874004254,1.2217663079472034,-0.4235077909650621
5.591815347517068,-0.19959557536746408,-0.07553314759629748,1.0254304302204496
1.7680405820960354,0.37815272388275223,-0.22774302178819605,0.9657582901257038
1.5513475930989378,-0.09476408290903704,0.8634489768590938,0.0179470289402488
1.8962011310732514,-0.4684629593077544,-0.02030630011682988,6.217474566077321
0.3452065362805632,-0.6833026117029183,1.343250296209971,-0.36947815339730417
0.6877727223961048,-0.5903019922332517,-0.18782558401774374,0.4063116070875361
0.5320613643404579,-0.4299375323988138,-0.37453206905293257,1.1151098125378396
1.2093536320780989,-0.6599638628115775,0.3676946430874879,0.7236767193587721
0.9073626619280939,-0.37590380090289166,-0.11050348634331453,0.023299666459206447
1.0479526512494024,-0.665256318155937,1.2524807571735437,-0.06347784843316784
0.8525254215869627,0.7147452718366847,0.6731658911095693,-0.7402622814646196
16.720373062992593,-0.8752572420767915,0.6379681035629852,0.7363250307122571
0.6447658933857843,-0.4452689475520557,0.23617163575620292,0.12209555152700058
0.8881725656897783,-0.371939992255381,-0.8468254085677773,-0.5167736492342148
0.38026345122387983,-0.27356379354983895,-0.3928515843627708,1.7645029946914867
8.237600579227509,-0.5990472454510858,2.4864876872126342,-0.01634066116135191
1.1477771577992555,-0.36429844581544946,0.42814386258910764,-0.579837626458535
0.4682338048172605,-0.7458872090440545,0.025598821893596746,0.5202516048969537
0.6590872898476297,-0.510924192159154,0.0644095516525649,0.03563884274206619
2.650023780564128,-0.5957874863114068,0.22119984748873156,-0.3708392832321863
2.0995352122208533,-0.6571023056780455,1.8827559425243159,-0.2069469106126136
0.7734675012219658,1.3601625083424742,-0.572496760500832,0.07486387258033811
1.428078525641221,-0.3561425456991413,0.6602016835481563,1.3692910266053167
1.9980551781482379,0.7690253417457069,-0.06060673585468679,-0.06896552309510517
0.7913604337234357,-0.414408040767109,8.238052195701059,-0.1550737582126155
0.5329994483572433,-0.8093102103395107,0.10936214178539272,0.25697055619385334
8.891802874362117,-0.5521405014018248,-0.1967826129439898,1.1559170666585592
0.5285189455785324,-0.5493235562596422,0.24777651238326603,-0.24887594487023224
2.299307481046924,-0.4684621791106198,-0.14059912923222784,-0.5782484236717057
1.6745976408577925,-0.7939909961774724,2.8788518767180595,1.7184671189222436
1.2297772767778645,-0.14251654416834503,1.306901193909229,-0.02333296624659631
0.08873188224548278,-0.23374227411267035,1.347801689986889,0.023168019871432577
1.6886954122031272,-0.6412037985852681,9.933078720052043,3.26596980187705
5.221522573489657,-0.6238675398522362,1.5112616892478519,-0.2343347722797806
8.131836851809215,-0.7661147445003784,1.9737051331728281,-0.3506496818312139
12.077635432798811,-0.5919080162262313,1.108672626809537,-0.5408239586570287
0.788306661187619,0.08605655815318869,-0.7756504318437852,-0.07541512370734271
4.044845748850037,0.9015607470113554,0.4153151286767589,0.09699955943834926
0.5328172444228023,-0.589907929109442,0.1427524014500503,-0.2634849427011505
0.10963320289199086,-0.8638143673508861,-0.7704073085370075,-0.4172373880046605
0.365201365296292,-0.33240007008324446,0.018299142071352303,-0.6607618495434339
2.072460912571985,-0.6369639760660529,2.0011719709010256,0.3241329520227927
0.26958419478786877,-0.02971170526854794,1.4604734363374918,-0.4971679142741061
-0.05160826989266787,-0.35268083212033163,0.5701733860762994,-0.8043309152012031
2.6013574654914478,0.32271556154613124,1.5823673905475175,-0.039948266201827565
13.568752195872662,0.009180911863040375,0.5567699947099343,1.0763064757748233
39.58599127087992,-0.39039867798709027,-0.4184949246577033,-0.3145410364777431
3.7487047019914446,-0.36979647050402764,0.442713288180135,-0.1574367937911163
2.8159424227901506,-0.44757928171808814,-0.2276284632321698,-0.40432103749035375
0.7963611389083407,3.68461480160547,0.9985017635260849,0.10568959524848576
1.4457260145724744,-0.3282224405766867,0.8860816824458544,-0.3769345754943173
2.096765444309807,0.3362388480213372,2.1719787933760406,0.3966830684870577
0.352074186160803,-0.8912116255513651,0.7568452554831426,-0.37335895948811826
1.4281383078388958,0.20051803509165134,-0.47169640183265327,-0.3376058173138904
2.6466748926750854,-0.2419927728598813,1.4382558883828502,-0.3167508644319159
0.6526202493003364,0.003382482512821916,0.35580366155241894,-0.5686235051045279
1.7671632438886653,-0.961312130904506,0.649486353576787,1.8071844989912753
2.111374336182074,-0.21835013221349497,3.5214806675054096,4.641989990255568
2.830965139957514,0.6024340216269697,0.16215169717278832,0.31225463322873925
3.282108764278304,0.15896334911561794,-0.24033880823551412,0.5637402960745963
0.3765609473711178,-0.06762286084575975,0.33371435301600116,2.92723329126108
0.2913868241163373,-0.8409887505895042,1.4183058972571034,-0.2538026528932129
0.6552763286225118,-0.4118770713625992,-0.23661259753009467,-0.5828910710850216
3.2061332763839037,-0.9322897851655911,-0.19887035784459572,-0.31494196073267355
0.12025232246309248,-0.42378856661042297,-0.358968778101296,-0.3157586967443127
1.0463720128216578,-0.047049054297820914,0.40922871800767835,-0.03176957616253007
0.7434529989601177,-0.45985458285005165,0.17959456370714233,4.128235019268389
3.9015309680279087,-0.35201782408186744,0.24859767890831508,-0.2523231476412353
0.7861601935882985,-0.33735729037975126,-0.26515383432639994,-0.7686756643920636
4.883904752946909,-0.20289609478088788,10.265021531151474,0.0997720778128246
1.417631105274424,0.40099742117594617,17.217978833629676,0.16507553851912293
1.7089890136712942,-0.6057017653283053,-0.49817118844079955,-0.7367980206849359
4.536918195865463,-0.521837361185758,-0.10853517772850052,-0.18193561559406657
2.602697138383562,-0.7578312861481041,0.40045016303979786,-0.17858937353380822
1.318284127180506,4.344347580766834,2.917133141420829,5.225674738063774
-0.009738010454821033,-0.6821826207494368,0.38581506833376467,-0.4549098786421839
0.8436058513269873,-0.623126460887528,0.5816634390431867,-0.32233003718906106
0.7650135374697262,-0.8333585026484139,2.733741662135241,-0.9172195293145957
1.2164923256870606,-0.38724346530536513,0.1729385397358365,-0.07338260993207113
1.8661888752635956,0.041696734112222744,1.0511373542064666,2.07030874150998
3.7573010046264974,-0.2353738101234557,-0.36939618113883,-0.7218978731531904
0.8455605393876662,-0.2065573222946404,0.18516044751588434,-0.19752356491215917
1.202089202972326,-0.787771723585459,-0.7521408861398852,-0.15341537488011414
1.888138776825306,-0.43392962707417804,-0.5392746818609176,-0.38935797470970157
0.7278159150485768,-0.7639967135923162,0.35619088892310846,-0.5384856329220121
1.814192918018139,-0.5342987825009974,-0.24801095072835488,-0.04096446087122807
6.507433636791221,0.05818748033007437,1.179660347261882,1.641687059155517
4.634559098818469,0.9631146061503624,0.5523306211086461,-0.7748716140602037
1.5899203581014363,-0.5856635371743109,3.863561117007081,-0.5423546711244267
2.9962243593974924,-0.20321592319278947,0.5446416669125131,-0.14146914780388253
0.5366712152520543,-0.6372154064598665,-0.5941112819198561,5.174608435679212
0.35543824422142634,0.8246346050505844,0.48529625229826445,-0.49497153135528915
0.5325014788512665,0.5749130192805005,0.6375691314028629,-0.0181897923838219
3.5464958938837983,-0.4783777035050085,0.6657913028282958,1.4908944603784993
0.4709272579205672,0.6888981968322254,1.5551372450534968,0.011511692527606643
2.0498741079074545,-0.13451621106785228,0.8676855389326175,-0.6386668287217157
1.9881583276243706,-0.5977995244758167,3.423680497415088,-0.16058529770174013
1.7015650637673874,-0.8771762630660225,0.7554888213877029,1.6747239084855665
1.8714040235789269,-0.5515883813023518,3.6354784549734163,-0.6093206162236131
0.9015689521621417,-0.38198336783337317,-0.8676139500957242,0.3267054757479202
1.0024918955402384,-0.2804088252461864,0.6207957873428036,-0.5328931758963138
2.9015317787151353,-0.6610467813249565,0.1822920488972164,0.07718431699625672
0.23088324133352933,-0.45072404289108714,0.06642271390858889,1.0492994932901505
0.7454719461436308,-0.7884902064409984,0.1722513152504801,-0.27648974911237123
0.46052400197265664,-0.3227540417557401,0.33476392951401945,0.6401620621417656
0.9543762751357392,-0.43918016611661004,0.661891842291239,0.8354698401859466
-0.1898074676449789,-0.6859135368394429,0.7341081395847293,-0.5482608592951348
2.7212724398447814,-0.9066763691242334,-0.23250858624937487,1.0875615337277575
1.89066555324287,0.7399912778318836,0.3437333032984706,0.14687619016303688
1.512291822775754,0.09125595529430375,0.32227401043382664,0.09442007604692404
2.557570431450136,-0.06194376375786914,-0.27081460940541113,-0.30375555244604135
0.8948727338675913,-0.20776173525047514,-0.10683860328041961,0.9880521718353235
0.8811202873834969,3.145006083078858,0.2552700396889649,0.34139253055366625
0.9465206936964761,-0.1569184904377684,0.15361712978334463,-0.7759907569199427
2.756165702198829,-0.6134886930120251,0.39036722936474955,-0.2080341867398453
0.8819654245897495,-0.23631154305815238,1.4542311351153678,0.03403048859716806
0.3229659186273066,-0.22652750369439378,0.2948733524570717,0.2640124766531322
2.4850225522513436,0.3133081867972227,0.026051320495613428,-0.7615520732003221
10.857599564237233,-0.4642139372803801,0.5350010506128711,-0.8427850920307782
0.7350147098715674,-0.6298250504170702,-0.08199138609720924,-0.12977052623643892
0.8527852156027056,-0.586692409385931,0.19542329029383976,-0.4395385274847149
10.337717246982416,0.6357205080657617,-0.7875624658494038,-0.7928528645148442
4.764583797418334,0.5931955969470621,0.8454819723979841,-0.2609288174755052
1.1432028658175124,-0.34623585676594204,0.9667751169541472,0.032632504129351814
6.322127299711693,0.02102001657186947,-0.0074772128369914315,-0.28660667472519674
1.7979711980125992,-0.3114754656442319,-0.3958311868351695,0.5932154777273111
0.41090398759015523,-0.7614843439814786,-0.5910366768988913,-0.38829905200259207
5.9163089010271115,-0.667141468721882,1.2847097807983459,-0.44835461148920186
2.8369241648002976,0.9225552557333541,0.9431390760854932,-0.5150402339344149
4.454229874660406,-0.7820187586435269,1.4116940543637395,-0.27090049745236
0.1839160092272949,0.44667783306577324,2.837791094403238,-0.2383965173497623
7.038123686812989,-0.5315964063283978,10.239335353565535,-0.7110553353878128
4.845231063268356,-0.32878408699978434,0.7724035676111012,-0.09224543372114713
0.8069168562018247,-0.7263782490567068,0.030916991210965916,-0.5725438199197442
0.7771741237628194,-0.1913211102446548,13.11432177050538,-0.08676005734332792
0.5155776015501388,-0.3365419506190154,-0.35361924145979906,0.469112167849548
0.13021532249888956,-0.5587899337797855,-0.3853082170197635,1.0343883204292736
0.24857210930897944,-0.2573802246682908,0.007044638767099931,-0.27148744267113145
-0.013733339028749736,-0.061240343852260626,2.3378569485649794,0.07000592805098416
0.9152713075663725,-0.6163982886407888,-0.5971275854377696,-0.28161140801186924
2.1900991216146384,0.11521227876099549,0.19312944471423177,0.07737919388956183
2.47201447571557,0.9005705510435302,-0.279511307312732,0.5088050270506774
2.9456546943099706,-0.4163276490260157,2.306039372464197,0.21869411100417357
0.4907579231908754,-0.6807414680547232,0.09968394827126215,-0.7464839808889809
0.5190538349742739,-0.7732372862357042,1.1985199491484946,-0.16492168602116652
2.189950726404038,0.0514094513933363,0.43857732250220893,0.20188429722979362
1.0635432512010459,-0.5605237793019182,2.9400479198790483,3.008353578914372
4.264333575825649,-0.839810342831155,0.22106141847563254,-0.060982798276870254
2.9359111790720736,-0.41543271922928493,4.742275717426958,-0.07020146960341067
0.6996122739713964,-0.8764436173281936,2.530977272878073,-0.3617658697603846
1.6494294789148785,-0.5665812464748355,-0.1579009845251541,-0.7726108721097582
1.1152473363950817,-0.7661340570259423,1.0610976325896275,0.7609635911170496
0.027432066290487445,-0.650551211394027,-0.4990491400118213,-0.7028193931732141
1.9084161309171948,-0.7078279466830026,2.142183369521047,0.8972467024837967
-0.1923043457202861,-0.5480022799212294,1.747800593955803,-0.2934127084720204
3.170459463331408,2.0841456782989654,-0.12460913082904679,0.4720252945000196
4.379641982465903,-0.2873444492814733,0.3953977485789275,0.10501780388366755
1.3924569927624284,-0.47243612955610004,0.04608379438000543,0.6780311023312722
0.6314385078744604,-0.3060016665699734,2.616163280553835,-0.3503755784163759
4.66619720225379,-0.1504455889020304,-0.8609601284414637,-0.9632000334286769
2.788956883543121,-0.48632560241789935,-0.454746132921812,0.08655245920883359
11.091018081891555,-0.45977620168855715,-0.9258938566400089,-0.589810345161031
0.6850537479646857,-0.4720776993355973,-0.5083851892813696,3.8885540710736883
0.3816101426538363,-0.5108587932240588,13.605402398017386,2.1091332802853318
0.6419078474511828,-0.9080989175423191,0.8594326887536263,-0.6480575176639238
1.2697888635875563,-0.3452762651873136,-0.48977492432838465,-0.16381865237939397
0.03422713681826273,-0.16037648037175523,-0.25987296639475455,0.7826374422748401
5.449480405124324,-0.7445388137225282,5.062855294483545,-0.018571122353545855
0.7197353931070394,-0.5517827425367208,-0.02853897534264649,-0.3029610471145502
1.014949001726507,-0.1013777544722737,1.0928899194281345,-0.2120417528782942
0.4189145674836676,0.03380195282056442,0.5037704535358358,-0.4912977128197975
-0.0790024050803414,-0.42938065108436807,-0.7280749217089993,-0.3524357355916363
1.500103612149164,0.653325398608199,0.050601880203856586,0.43085530035352004
0.37952482533308696,-0.4850000618448035,1.120207801768807,-0.2897766219396739
1.4444544512118984,-0.8152220902218504,1.977047219624469,0.007464452462561333
1.5393543001939296,2.320065212387295,1.8702144621051184,-0.5166885791876761
2.11621923794338,0.4012690644453678,0.4927047332981238,0.088261568228301
3.336046680811883,-0.3446710409111491,0.76486855269589,-0.21870568127799506
0.8923749308905937,-0.7804751759043775,2.0497310754335394,3.3595894191538225
1.5087422042431404,0.32639478490166973,-2.0118358095788658e-5,0.6138565114062811
3.441174581555929,0.8670277714083761,1.3358157928829262,-0.15152299288704596
1.723679329719816,-0.14575408970684633,1.8728536995643004,0.7885696187481466
0.46905902516587195,-0.2157807121626738,2.417115616326828,-0.26681592598569615
1.4825507390754051,0.015863458768825334,1.677614047121546,-0.2424422176364882
0.542378793899903,-0.23864770085539988,0.3150832073590384,-0.24503489500759412
1.2667684765925795,0.06394191647111924,2.7018073442322654,-0.00660426161831329
2.181042284039677,-0.21995314591473614,-0.44185120692168245,3.831141665705589
1.3399752443387327,0.2809826628401819,3.217127457473425,-0.28465873252298124
0.4934807963292869,-0.6882336389952608,0.8116773755558073,-0.27529253894799444
1.1721302746776776,-0.7177212390921436,-0.24757479879343813,1.557121644000214
2.1915872088148323,-0.0937907860047037,0.27789004334636536,-0.17171208827463424
0.24308303925414654,-0.24165093990252473,0.19281277384410211,0.1908765281452378
1.7415258525405974,-0.27234277504651794,0.7766903080675394,1.1711096451717005
1.4948880626688617,-0.5649264794980736,-0.5871009388367243,-0.9168710848101032
0.7969910002315337,0.26032607075663083,-0.2230820588753618,0.8883746773329015
1.3452914886554312,-0.4385367196817004,-0.2980600308918343,0.6308023850590434
3.4446946984779867,0.2450444456331493,-0.2137111653078646,-0.1446317863234191
2.2798345642699367,0.11388717702350193,-0.7699213630205879,-0.2377998088579506
2.0138882556307798,0.2580008812341903,1.0429425052537433,1.0518414459181415
0.45466306347726393,-0.07973409631617401,2.7106802279652324,0.6376941558270173
3.812323600815433,-0.321762025322498,6.763197440548059,1.6087604551827117
1.398674810224417,-0.26981531229839906,0.7730118429943675,-0.7213053013124113
2.365642326572377,-0.504154012101345,1.039123450846673,0.037820603768083716
2.2738899025962658,-0.7028542196221148,2.007569436022771,-0.11636714955104355
1.0018170288222286,-0.07784354260473958,0.527762545559066,-0.8457861869118939
1.4102411005760511,-0.2805234063498703,6.460316854402282,-0.06762309675894662
0.4717218742834215,-0.8326259325846396,0.36147442030424415,0.23784520374663165
0.9718092268568661,-0.5784086829780852,0.5650888727284344,-0.04776424006844138
2.3580269380242536,0.24142758700319678,0.9196951398086115,3.2292553965917676
1.8220946045454558,-0.7950133075933297,1.2319680668232036,-0.0722408510674214
3.5068894556287926,-0.536153946653467,-0.5652499448767199,-0.29952555913609447
0.6854214671217562,-0.46705327455071455,5.223180526430844,-0.4210028179403923
0.6849279363306611,-0.5619640161148742,-0.4918916226565986,0.4627396146872269
0.30208481626351724,-0.6202030803223352,2.371374883143505,0.9367567362943867
0.3604811500100593,-0.49869466420831043,1.1534189882861612,0.6798844085337059
0.5901939258689195,-0.14042084687844847,-0.15573241703904328,0.021559701025372302
4.240542622616508,-0.7949707974055414,13.924344359337807,-0.08202665457885538
0.21459621740969426,0.32764344268481427,0.7292818159029946,-0.9121335094942937
-0.03469843390448568,-0.6352625458372876,1.1320433431242005,0.020339486758371716
2.814741743116613,-0.5452132403305863,0.5751755015595119,-0.047140053285930184
2.4693654320639786,-0.23327790258053072,-0.32991378626924406,-0.37806580651700683
0.3770614395021894,-0.19688956012213288,-0.14279190321554813,-0.2947817179742105
-0.03980937591734135,-0.3270756382797525,1.4773145723388508,-0.11222378119129006
0.6618040901079958,0.23739779857563614,0.46372472876968684,0.607996528222372
5.159703737588673,-0.8056326186168891,1.5219714735495629,2.2579370218483343
2.032704684017803,0.01865231058108119,0.4559905388034382,0.6508904174946988
0.9247465240027499,-0.8968458731211555,2.103734230676673,1.0180029838941893
1.2044591025103522,-0.6389239043163517,0.16757682070997593,-0.18235335831004718
3.5229632492050493,0.9526638336110034,-0.11844619566852543,-0.05516877097687445
0.7854331809837702,1.5550750408316723,-0.34799077976923865,-0.27274339540673787
0.35268747160719416,-0.2787086376626564,1.2328414592806967,0.16430533858965113
2.248921740439765,-0.5044515381016488,-0.5494407452864146,-0.4261592766033837
2.439160237021946,-0.4119827563465783,7.613583346739913,-0.25708843065083375
3.374490517965822,-0.5721115412175006,-0.20977231859097056,-0.05457150241449005
2.3315833633416725,-0.6501050564859903,-0.25717421634851056,-0.6456105213659336
1.1257736024486418,-0.21337773234220536,0.722662170669196,-0.19850865243591598
0.833961980891895,-0.39587864130263806,2.696212552502566,0.45645155665693027
0.662019530060056,-0.32987098357646105,0.0847552786502217,1.4492953132581219
2.2266684254146893,-0.7519406375125234,1.4582730022627954,1.1613561997809834
0.8534202566132185,0.016072191099781863,1.1536266936642194,0.9793367063512135
1.407427058738349,3.9072880403525687,-0.07958179896142437,1.406829375718642
4.043833577966763,-0.6243037497185454,0.9491625967779256,-0.7105026444818452
2.814725008230329,-0.3216361568472804,0.7994665672803605,0.6491293066188577
0.5587307483631376,-0.2867679367182828,0.9020190663158754,0.6267103953056932
3.5349903208759024,0.008388918621560881,1.2355720457121828,5.702264463604951
2.129153032905131,0.5326628089862653,0.7072181476346151,1.1658777899827717
2.212329621828214,2.9182263042378875,27.943545973441726,-0.4576107666262631
2.5970502766706467,-0.5130792945802257,1.930444491358827,-0.4998601145336792
0.6913171264622759,-0.6721026451966257,21.72562961127906,0.09470362656113807
3.774340748193942,0.25060714306259557,0.4469630544831813,1.0061998595863662
3.499154600283309,-0.36239893626771735,0.46438561155575364,-0.5227667632126733
1.6600336723228502,1.157167789152239,0.39158127613228055,0.5010866260401399
1.4430721223264458,-0.47593531183249504,-0.10022657924090128,-0.15636764870565978
0.7004817194494171,-0.27436346159029357,-0.3548786014472022,-0.3252069176678043
2.7747138383556065,-0.29365635570462567,0.3703724210471697,-0.08900693856199404
3.554322234845677,-0.22529256892714888,-0.43237119304422167,-0.33576231918798094
-0.21085853959904888,-0.7244336477026624,-0.2410121018565724,-0.07974104369322643
2.662309969675189,-0.24530247775081648,0.2526310906518334,-0.6536247163893467
1.6083592056949354,-0.18391087889178093,1.3474222813287131,-0.00462733699328699
0.19593914020621384,-0.3504300279712317,-0.7426461223412986,-0.5496909695326349
0.37860826627864297,-0.3076511947107675,46.666064758204506,0.739336348683268
1.6434244169397498,-0.7649921775559618,0.08359599551792107,-0.5835951196913804
0.26602853338587673,-0.4472647000809249,-0.7500615668157347,-0.36137747979275225
0.24829525324699553,-0.2619489699560057,0.17879222270046813,-0.8533222150515879
0.6380144036031759,-0.11281624433896886,-0.6252530215837997,-0.41776352293782526
0.4113332197259123,0.8232456848423024,0.6078586575832665,-0.8080404254600384
0.9122051920330347,0.23705030270500949,0.09395111915289434,-0.48248674809928904
0.35319404510508545,-0.6090468902064249,0.14962299788116873,0.4305085120314076
1.3686642785823753,-0.441078589081202,-0.003122768132107878,0.4499050859481657
10.81273380862483,-0.1512898520804823,0.5792387355810469,-0.2744193735034257
0.6242141689759897,-0.6392962565931398,0.45443347691531044,0.0667073299960228
2.069683856836861,-0.5905591312910332,0.699043532027221,0.4836585291676978
3.7277958424868736,-0.10720690221858165,3.870203328170663,0.04392722399203741
1.937542446250951,-0.5305950714109045,0.2810646182150256,-0.46560828916151187
3.2851202717236223,-0.6160077652489983,1.833791479049959,0.281734805186171
0.7859747163933495,-0.7410759884437407,0.7416287214626227,-0.3284509783730246
1.2150529625849416,-0.4463979041381203,1.3958849708031096,-0.350507755887807
0.606746612436891,-0.8296344267403091,-0.42199094484683164,-0.26705497136410217
0.525861752781958,-0.40142779876843815,0.7618955074912439,0.4617234016306404
0.3405577025778468,-0.5146507912271419,0.9628430796162153,0.3774196459107244
1.7511039442333414,-0.04862478284979743,-0.3627480104837939,1.383567005821607
1.8149348867806157,-0.05045574047044532,0.5142172674383862,-0.6323475534853853
1.6401542258584598,-0.3157962203674908,0.06972479832036416,0.1601567511982509
3.0695338794202716,-0.0709065408945696,-0.1352291862036974,-0.4629974229786704
0.35730803612156614,1.5167888840507406,6.963207587151758,0.8376716797117454
2.527059468221669,0.14950793216167235,1.687587520693695,-0.04206465886191557
3.7616741136314005,0.9311382471225655,0.0428542495930182,0.5276205170760828
1.8629696804683098,-0.1097318364494193,-0.2382486157760807,-0.3887432526294038
0.6544402044854378,-0.5316210953781404,0.2003365383150033,-0.658719217336915
1.517171404336342,-0.2932239447824898,0.36275785873941735,-0.44589460475029397
0.3466245570518083,-0.32828137939027624,-0.1476733481201613,-0.3116181138624524
6.422197783313557,-0.13651006075034366,2.9899671603394213,2.3639861940800713
0.45947414677808207,-0.23379785755346127,1.0326301768908785,0.3044477589783745
0.5252947732798949,-0.5770610012957551,-0.8302084256658383,-0.4773789568451421
1.7959390081344169,3.384320936820264,1.8861215816566625,0.2815371605291761
2.4852201043512134,-0.9055151754627964,1.6320765464899978,-0.3088984776440017
0.9839547464080594,-0.591904448065064,0.10060236936088152,-0.2773012029863403
1.4302952026333338,-0.6244785522382553,-0.18746174961071782,2.5032221601372386
0.9216745258382988,-0.23604915165552942,0.6808199027284119,-0.556247228761345
1.0952193170583984,-0.4719608476194973,0.7971794437920703,-0.1256237574652923
1.742636032435351,-0.42123652682110935,0.3430799626537626,-0.6449536902154547
0.33904523281487453,0.5410097272586847,-0.8895440935747337,-0.026469155124951294
1.1647617387509008,-0.5059900963586335,-0.5586411619986353,-0.41941395563229866
1.5999961997887215,-0.8078257983955833,0.15378600465474568,0.21772524319520592
0.78549148909965,-0.08466937644944794,0.38232913021147374,-0.12771050018592311
0.9986472356971219,-0.2144206913314003,1.7003472835903595,0.6964374823729582
1.0175397537169903,-0.7390740426873925,0.8167501972497744,0.03852990283287161
2.4490438763209306,0.20250657921657034,0.36781026346964674,0.5332764766507119
0.1986893811073165,-0.8127561501008622,0.4098832321359267,-0.5008520121019515
0.9548840528797793,-0.12705992772939667,0.3737158368218596,0.5686196329462196
1.584147397946961,-0.3064590828524234,0.34510518476384355,0.940467071174673
1.6430963179717537,-0.33219753745058855,2.074491880583833,-0.4158305204819278
1.8806462516418878,-0.8119781809783959,-0.4672377992018867,0.34844332662107824
1.5603521156399043,-0.7019145112774183,0.43153041658463454,0.15569521218852778
0.6703609854279382,0.1993065569189021,0.18913049753444677,-0.011435477683202966
3.4074311907619164,-0.3939737277910017,12.273179606561904,-0.4253386751964623
0.663540179446324,0.28637027249774816,0.5215980964944436,0.6939892628510065
1.536958509112194,0.07590653186888119,1.1857349580063659,-0.6101329831140744
1.9229053218277854,-0.36268242920784777,0.15006029894272088,-0.5475510985530381
1.3758469668157982,0.38112422624715125,-0.10035961360726797,10.895031280650313
1.251469369392201,-0.5485279228394786,1.6856761585380369,0.9605398692439258
1.673217835621954,-0.7807765588478792,0.06524931236382603,-0.8059953503989747
0.7715769973299749,-0.41164707193319305,2.114558702215564,3.103897801168708
0.8517475316052789,1.3396767725703258,1.3139021650350449,0.8804723368606944
3.6537230438898094,-0.8421034730308146,-0.057069104699019935,-0.3136390445395919
1.0233684676942771,-0.9114798933771949,-0.7408562966493044,0.28362205321631717
3.6566910160224113,-0.9209868154925044,-0.5783463226905885,0.38482019947398727
0.9675213715364825,-0.18631906115010344,0.5314841763024396,0.007191422102981404
0.09172819946292421,0.6898598318871878,0.2729282577704719,-0.7122573823723387
0.7716528633925652,-0.7858588377526005,1.8240473785911089,3.269037414906494
1.4949559144045104,0.056058064774314964,3.5826248841896318,-0.5612596858482515
2.17040092724524,-0.7494445905731103,-0.16961338456558894,0.11417455638109852
1.3677368214814338,-0.870284691807226,0.9964869474592595,-0.5934788090740748
2.458838225012509,-0.05208429222826849,2.3475288416547486,-0.17592917273384956
7.104748509563967,-0.06208450510428021,0.48345539308881147,0.14551410257298847
2.6346623259718074,-0.441452506417096,-0.2423315653922533,-0.04049177780476787
0.932478526480272,-0.20443864887114493,0.4138518217349483,0.22371099131054284
2.026902940924814,-0.7031089592436943,0.233664417957538,-0.4214461063300481
3.261755540155961,0.302301373139533,1.6000410400576874,-0.09842453920521499
1.5540615179502266,-0.21763904074120877,0.9972761750233201,-0.1059599130716814
2.499160818925518,-0.7164910805682385,0.49776217015228497,-0.07468962722038597
1.0111035061596971,-0.17334486906364677,-0.11955425324684466,0.14108503351773405
2.2239333943854884,-0.37749481248490413,1.7704944845659427,-0.31831588487833373
2.8950571915709484,-0.4039408489940365,0.7679175923718071,-0.24101799482970365
1.2009283534559527,-0.38011343576904666,3.716197735039758,0.7860851694980266
1.9548832138619567,-0.2696076931920566,0.08067444082838104,0.15838753885383294
3.6899606845023953,3.1745439589657263,1.9804264283904556,-0.3102810695943701
7.190358037998475,-0.9121897694349461,2.019605495872547,-0.7329756701574912
0.47982875477639886,0.6135325268691258,0.42767250051582595,-0.5801304816752066
1.3544535058472436,-0.37701735003357384,1.122455930912666,0.08546955142034407
0.08092031543455125,-0.6273384075206332,5.0119538632901675,-0.24808791139719633
2.343800085668389,-0.5601907204912623,-0.07376887826335843,-0.1276680761450939
0.8733855231296641,-0.5652864570157188,-0.27427892151205335,5.623669155540075
2.845362251281481,2.0358529646437113,0.8352768917654827,0.12022613826792883
1.120929888699532,-0.9440533655922286,0.12935581361489756,1.6141202481482257
1.2498025839963773,-0.2228568227451153,0.8631611838952367,-0.6013389161630662
0.22903575019361821,4.2067960918192355,-0.33503252151916885,-0.19418991773132466
1.9447988202776263,-0.3962635206754389,0.31695889309987746,0.059421167399136054
0.7796614380749409,-0.560161350080478,0.17418972117439213,5.097089033890274
0.28723016521465894,-0.768724962414621,0.4907964755569827,-0.3488142152921918
6.179420823883239,-0.26923090914943026,0.8328570111980391,-0.2451539777252023
0.7243335897530636,0.44952201812939996,-0.13769629159038754,-0.5115149649789216
1.5554082782126462,-0.4115881687200369,1.1267527666727806,-0.17708119934672417
0.5675029720229867,-0.2573980466177911,0.3306261741575607,0.20173551869529827
0.9341875943525302,-0.5705223956455401,4.433312245249505,0.17010194890735542
-0.19026637701127802,-0.35949379238305834,1.2137962941152725,1.8402419991588483
3.133457877895908,-0.8174094073035321,3.7045816190799563,-0.5248497625997763
2.7350992411147996,-0.15805392327614864,4.37267368215421,1.3869482101552073
1.3370971089299792,-0.10615513891958439,1.280314276559917,-0.20847911541266384
1.4968048597143246,0.1998461069651225,0.03633693744449529,5.426480779281005
0.31243885532924187,-0.9231676834228137,-0.2899729895397678,-0.574839197697834
3.3892927709741336,0.16087967596990937,1.1487981462878043,0.5904050347051668
0.5577718190141305,-0.6077980185766463,-0.09743010974110233,0.17963789423950804
1.9502461845787655,-0.5092471437731463,0.03270222631490305,-0.21540487904903127
1.1143705379571074,-0.7037448485115267,0.2574580261052799,0.22444528452216406
2.695502115494222,-0.5226993541878631,0.3985917527375571,0.3890289428387359
1.0627359349892584,-0.23073081816681595,1.0840189703662793,-0.6063871149561614
3.6510516001887554,-0.32145985999841553,1.6563360316401807,-0.5138754115638409
2.6540843773389606,-0.5521266601608709,0.04733146982894754,0.5969905574313286
0.6069699842386744,-0.6402179832267401,0.8919045683481521,-0.028135683549513346
1.134983743133803,-0.7264790518051611,0.6563363460813705,-0.4020545878316051
0.8779859660921914,-0.7966095641354007,0.42155543695013487,-0.5830194541974949
3.4368492538439783,1.7875179475023928,0.03547028869201818,0.8658950640491061
5.858698709729783,-0.9533916224569879,-0.8647844637019697,-0.08727635991495364
0.4514055444469116,1.1956900216867834,0.07896287468908958,-0.45012099467667666
1.3259425951290895,-0.7086510979390566,0.2699812828888073,0.21256496488454446
0.37886275598438646,-0.9112601167073346,1.0897513961122467,-0.2434991959480598
0.8774905035183167,-0.5150841546060387,0.3907246434311029,2.894502392663775
1.1090315363420649,-0.39522229697055977,-0.2734581150067048,-0.30186389051070894
2.20037410483053,0.9091837213823475,0.6997302821937137,-0.2854747935380082
1.009742310933785,2.5265127340932705,-0.2654007867509809,-0.4419631420737502
0.5946153508317291,0.013593355842671961,0.6914375516300617,1.2055801742627827
0.8463095059181713,-0.6278474243554737,6.776010313676809,0.4418842305300019
2.0076797370035955,1.0410092142673517,-0.12849717763120339,-0.23361783202704778
6.143751195969975,-0.4662631941820392,0.9836789781974298,-0.4223765047047643
3.829645895367074,-0.7258065828167037,1.3868826607795763,-0.3554870654374901
4.095245002025657,-0.8269128245625744,-0.008214229444116872,1.6136008726984845
0.06527481987564943,-0.24893708656954872,1.2711451719322868,3.9388970077440337
4.270240788351,-0.2677711119978201,0.8138978782097346,2.4532910192104405
1.9902142739649715,-0.7156014296541575,1.6611995314851677,0.1768845495564748
1.0970134513401422,-0.5838872913107006,0.8175517760447724,-0.8120835042240291
0.652245148930914,-0.640696668981138,-0.2065559516564177,-0.5974414624224849
0.723603923501956,-0.5322045148018903,3.064235941988424,0.41280683565786
9.075494922460566,12.465323676778075,1.6749074449780847,0.9511968648816276
2.891525339405082,-0.45552326429176737,0.5386075344407129,-0.6053509697403724
0.7712309414759018,1.2132421981662156,0.6909475594044894,0.3087535916450841
2.146375856417536,-0.27312777021979806,-0.39429900299080467,-0.5911995770769681
0.8743708080600809,-0.6515716158722303,1.832340077650728,2.7790605828108967
3.709496598152593,-0.6133722057107791,-0.25170239429785446,-0.17100074916452568
0.4087502691317866,-0.6792937947304429,0.17230128540594758,-0.7734015490214716
0.011945857848083552,-0.42011476815828486,1.026731979341816,-0.27702385135927254
0.08300020861201896,-0.2661970106586399,-0.9397686289186828,0.11880462549895121
0.893981150231937,0.1959250465066671,1.9177639113086276,-0.28328019320165876
2.3933751492718986,1.0105325212038068,2.0700366160871373,-0.32907699796236756
6.94814528283627,0.16524199777285742,0.9840143687366922,-0.18342133767163482
0.7345888365899034,0.7436940696151477,3.241442423958431,0.1122703584253093
0.8109794941458197,-0.4141157672336412,0.19997971482920063,-0.10570202669634776
0.3799707433362731,-0.5201914182934263,2.5456356224414014,-0.04088490517909826
0.08098278678500037,0.4805603827586682,1.1114014007963533,0.06427248342546399
1.1964660081277514,-0.6354204942148445,0.7149209496451914,0.10710908941728747
2.4119534970848986,0.6696310200224211,1.0824895918375335,4.25653265701665
3.3729177502078977,-0.0957733945232151,0.7798461896536006,-0.7054317332241726
0.4381175755687594,-0.7781999245455296,0.03517986340650148,0.6064620416437276
1.074379691618574,0.5690558448726317,-0.6352063478772435,-0.3522764364594224
3.7764368346539623,-0.8823503735577717,0.4899744293684589,1.1751677903771443
0.655010566831475,-0.0006633348578328757,-0.45973789109516894,-0.24600037062659297
5.675550481926182,-0.28191658672580877,-0.28096569787443815,-0.4257112262906336
1.8435015615425567,-0.708344711613593,0.2072214230879248,-0.24414928391960367
1.1578122162063087,-0.6981897600921019,0.7817802584750326,-0.20841981875559368
3.785226322670895,-0.564792512608002,0.2609272422419433,-0.4107108282889622
1.2903133135117488,-0.10737406384129644,0.7391545610117094,0.010036440452798834
0.5534176437826646,-0.7748661322266006,2.5262453924653574,-0.25874090673534933
1.138166301588953,-0.8990499724261118,11.963363059247152,-0.4616258412477223
5.651292869541558,1.8088490836553635,1.2990765227732366,0.26979773365613635
2.1705911390716244,-0.5153837297894273,15.049854878454333,-0.7938891786852705
1.2222564984948852,-0.7165790985003246,-0.8911891635967608,-0.0365374659975749
0.525855687929621,-0.044441086109989314,0.40928762602951196,1.7976666326589466
0.5791751927935951,-0.1365096582343437,-0.9011342862365599,-0.41843719887098896
0.7446931186754135,-0.01727086470795325,1.05589645189138,-0.31128274903445285
0.7633899329417471,-0.5939752121976318,0.7813691037933042,0.8979003585245535
0.5600487374678513,-0.4624570072852563,0.21527551089826646,-0.0916473341924573
5.477253154698743,-0.29878068872023256,-0.4607736084424352,-0.22834047844888172
0.22563370024719998,-0.76101593221175,0.2432591074871049,0.051428027833118506
0.3820360449164961,-0.401608212267916,0.18316583456151014,-0.004265824785490757
0.16566048650251175,-0.9058830839048448,3.6459439251122276,-0.8222209380452314
0.7768675674054013,-0.806256147112911,0.9186863464420112,0.17588979777240743
0.6083901280813613,0.11664056508010678,0.5866105084718711,1.280976260286418
1.6351757921092736,-0.530635576790302,0.6679998015533997,1.0773024628754815
11.012251391030123,-0.22004431944652147,1.5456870042309245,0.283955039666135
0.2021920431196773,-0.327650998448928,1.1343517183860747,-0.6613627423392237
0.6649725001754165,-0.7558328820211159,-0.12351166979548567,-0.012219655646035332
1.3066505504088348,2.1600759257842563,0.02893757953039433,0.37910130183964985
1.6486930265968578,0.29150373496236437,0.7589696500371297,-0.0004702904519989781
0.38458593100816896,-0.4372621153764428,-0.19259361485291826,0.026218874744311504
0.16325457650612019,-0.6823043484656499,0.6811595798055883,-0.20183491053706426
5.758289466382194,1.8665628799774194,-0.034652019934917955,0.16249987230011742
0.7089899891480476,0.18852378086772625,1.4480694923911281,-0.6807080842657259
0.7636883256975253,-0.6522201068038487,3.425604547104829,-0.30351133221439974
3.375838691907467,0.844191929708302,4.119284898169604,-0.3054510042008586
2.378474261457265,-0.834589904439475,0.4077116159069185,-0.661816040427327
6.016326063743027,-0.29458880938189447,9.149428126050456,-0.44829076388373257
0.23726811873607412,0.9231370081504222,2.735282928821385,0.09614208584687223
3.329739343243239,-0.40366520368156156,0.3247018945290061,-0.12726080616492164
0.5710917677886262,-0.3768871225741537,-0.05934974764894596,-0.5145491543038249
0.7060486041247733,-0.5996435160888585,3.5628059553742384,0.6165958176780948
2.751530122858302,-0.21642026103486334,0.25610185825625886,-0.19590535581425905
0.628443930828638,-0.06770084934261822,0.03735348183015175,-0.7052498415874566
1.9093674665394698,-0.5937734823881934,5.345857737714263,-0.5899395943826493
7.123779113351249,-0.48227754093626796,-0.32734588536051357,0.6632082259376739
2.028382359816684,-0.8445392319990507,0.6345641759005123,1.549361757885345
5.443719893230591,-0.20594631834789956,-0.2754391901746329,0.999984878159172
0.7052444494189616,-0.3145658091367023,0.4285897650162598,-0.23325516166913374
0.43788187194158845,-0.1474916900732719,1.0440738244023073,0.6337958561448256
1.6091624920687448,-0.6927722340444454,-0.06354444604630938,-0.06872765191564234
0.6363004040234221,-0.26177059260020297,-0.3510469449867172,-0.5835048165215055
0.8066348761488091,-0.19343233262673898,-0.5446955459791694,0.048387077963862435
2.046927239993874,-0.42288611441612856,1.206246039529704,-0.6530518525495599
2.431128771115723,0.5853736708286088,0.029907561271955263,0.8811405812138908
1.0885462597190148,-0.5983702280934822,0.19804036987836104,-0.6351627832047957
1.0018557539455517,-0.3706714067289043,-0.06778295568006487,-0.5635313558255144
0.004646142858625746,-0.7287943401647144,3.354027684918754,0.7636051761307343
0.2203366532729072,0.4414320748391596,1.1998206309420163,-0.22720227055113773
1.9157493423390823,0.9391993646727599,1.533393451777298,0.4859730836269005
0.48834934280131836,-0.4513983661819173,1.3262416894334192,0.5846818528972015
4.090170631000087,-0.46594651400767495,-0.06971414773744466,-0.21778134799420923
4.396754647374477,-0.5765292816463818,-0.6045239153936455,1.5940282029048825
3.106388083813444,-0.7849345998494541,0.6607157475667846,-0.23798577860400982
1.1873096346157563,-0.13866154783391782,0.2809288751876473,-0.07420734427716369
9.244944109711838,-0.49571973813774706,0.6154999706658093,-0.2590626209088408
2.0387097318316885,-0.4520842519014857,-0.8839390875886429,-0.379557033272632
-0.15641483090789232,-0.5716463660845545,0.38867719070949014,0.24211700684337556
0.06449154505412591,-0.5031423838095552,-0.23650490933738022,-0.42280965544636306
1.1109243723028697,-0.6446293244529633,-0.0653954445291941,-0.5325180509546708
1.7497008100680715,3.7928151960620884,-0.37025398279615684,-0.12331667168357119
0.935555287850323,-0.9136069991258524,0.9740423089269914,-0.004992487477508578
1.0385783791701204,0.6574237161395686,0.3565799529346345,-0.7377478984238135
1.151761749101678,-0.9655896517840101,3.835548837259279,0.7079623683989471
1.3616564267891484,-0.7949853106616965,0.19906044575646398,1.0034488068946055
2.6537525411854452,0.061523554271578185,1.1509378811796136,-0.3595013392946136
1.3184271209960747,-0.2604550110800704,-0.6365318556410027,6.35577548318968
0.9205288873059199,-0.5460323426321215,1.2904681575935641,0.37920752588957174
9.311440420895954,-0.6918969500841714,1.1649025437354834,-0.20033514457340185
0.3038117882935001,-0.15435094783474523,-0.486460307909797,1.589034194183014
2.191571084591632,-0.43421609172379816,-0.46697680648716366,-0.9431570484173094
2.4605228181467886,0.5827095228023029,0.6395685034684551,1.353851276694408
0.8219536075404485,-0.08468547895389256,0.9495300294957572,0.02962418729758154
1.2012466007420137,-0.31494185615232995,-0.0062058024823562485,-0.4165209595759949
-0.018107356861273738,0.30299699375537625,1.837531162543664,0.8819578508279471
0.5658474954354633,-0.6695539099233905,0.2477569643197497,-0.5545471802806583
0.9324566030621522,-0.624535861921992,-0.3357002921438791,-0.507974825250197
21.762228483962424,0.5068153622937506,0.9119689143000722,-0.758992709074745
0.7279893791491303,0.2572908392685458,0.8358668477036597,0.7298373761783765
0.649603906368279,-0.8257729658860573,1.9278509658540113,0.767877941651147
3.709950155906288,-0.877418107269661,0.2727207249691972,0.11305678155730026
0.4660270940018405,-0.4997578875169949,-0.46773367591631265,-0.7205656251522433
1.7187284230213695,-0.6476247422966057,-0.13665613625049455,-0.14584538388028012
-0.021716408007535604,-0.6264329990409601,-0.6418796748893447,0.6829219887355735
12.534743675674054,-0.5985275825513039,-0.516958767943279,-0.839768189891099
4.718640490550853,-0.19918617624467028,-0.11237763645701027,0.06469246552692787
0.7590428690662203,0.06480340452328259,-0.43708797629980056,-0.7827046628132455
0.16558074578736215,-0.03887767727379965,0.766819971391457,0.4589243311328324
1.479523943117547,0.5157373737880411,2.900330440935931,0.14280754825852227
0.5854583846257351,-0.49056325922561084,-0.05685570624191538,-0.5237174745643463
2.1833367825772476,-0.730933379981964,2.241591801077339,-0.9348534482450006
0.7942077867632624,0.2551659533641992,-0.24966918900049073,-0.49425847464578154
3.8890801117831115,-0.5092522886867192,-0.5711418863201705,-0.2791100438794041
1.8159717305836125,0.5788801460658661,0.11354479144248297,-0.1151473750413402
0.8425489808448541,-0.48099887802337815,1.7353199789024387,-0.03181054822973528
0.10567130326221763,-0.3201396157424218,0.17317255879094096,0.6863823744559758
-0.02293509279068362,-0.7194995651583466,-0.5732234909123488,-0.3578897372155737
0.9326925062522875,0.01262201208594349,0.07643334757881104,-0.5938170316212814
1.8788940627418818,0.5500995449390964,-0.19382624625894052,-0.39005540160922025
1.3507798813947827,0.200257891554249,3.0308160631656733,-0.5314864559128836
2.3493501054604997,-0.6002316021372749,0.23006658265875823,0.508280245442875
3.983597019764818,1.0579013229219476,1.317272733186515,-0.06370311544024376
1.8694425573237425,-0.4108229353840259,0.8548618549500151,0.5951939736531027
0.4810099168795927,-0.7260048926624538,0.3430940589679399,0.009803481834114836
0.14957386368971082,-0.3451893391318257,-0.3300364470909104,-0.5385803064216432
1.3729267698887329,-0.33020084894727,0.29488126971401285,0.24396966456542457
6.023626844858317,0.016080558052756766,0.41374151773007495,0.31147506590186325
0.5450389370391175,-0.035611261740771116,-0.11497476314381028,0.4540906051458118
0.7125792882466859,-0.7926586303236827,0.7483050452941238,0.7270274813079065
2.6267892073680947,-0.4440899301435147,0.06812427867449977,0.05618015239085006
3.069793910499774,-0.7657960297279633,0.10982141010038893,-0.1716896604327457
2.8197358115738593,-0.4835367273280955,10.459544582856532,0.3142950003361775
0.7695147527237647,-0.12238746848460302,0.13190480538044747,-0.3136459092160264
0.18152760659928835,0.2560113174996135,1.0485002717498877,1.4694830148941436
6.301376444689871,-0.6572762429937965,4.128379544639895,-0.36903687986230105
1.1095501699688737,-0.4942253541594812,0.16051937035973962,3.429230859215912
0.2264379249133881,-0.6695458337690043,0.10955923342057505,-0.8878168940564679
2.834963391151607,-0.0735737157155455,0.9793533887180634,-0.2294956066689171
0.7639292981092831,-0.2019356968629651,0.7743793809714687,-0.35276548911556416
1.2982234623069218,-0.8066857041283155,0.5500299768212609,-0.1908588060712948
1.5818244210929588,-0.762664015478631,3.5208239247372397,0.21191497485305621
27.412910813114415,-0.38751226180852516,0.41401506576937486,0.49500686138648353
0.81792746327721,8.623483714577322,-0.21136886413259293,2.7324626225324318
0.6728122864424393,-0.8449968396584244,-0.26369155132823907,5.822931635037707
0.00225480254151611,-0.8681143049905402,-0.4579126247507199,-0.37335919099874837
1.926394200398414,-0.8419309081952895,1.480014079021446,-0.6007117191165046
0.7171436957308701,0.08678151307277338,1.8805940235849703,0.5833943641428336
4.518897801870038,-0.48857323617630266,-0.21627668003471823,0.6630176721800032
1.575902687896542,-0.6051902257026704,1.4925147444186968,-0.21413250711947274
0.6609160236537084,-0.4908559744280261,-0.4392355659827756,0.9689202196972089
0.5232585867008797,-0.4972162114880355,1.6004268045513133,0.021261047421455848
2.8475398140570642,-0.44630394428749665,-0.8517865726055118,0.1579185184268268
1.4182075706333723,-0.6252987027872248,2.7486957963106917,-0.6753153112299193
9.600783193800952,-0.2613996141244278,-0.6961544904204445,0.306768289337888
0.08983970938617669,0.07433912185843017,-0.5571877480479304,-0.23092952204187112
3.286486841440386,-0.7730903682379029,0.7131866966357021,-0.4185562592954716
1.0636523108416518,2.3868145763216244,-0.5851260142349085,0.30661590135293193
0.7666271465940844,0.0026372352541621513,4.583148072455453,-0.25302416980450093
0.35789985472593244,-0.5461865432744373,2.109182998756342,-0.755183771509625
0.3200288212721134,-0.453094385962691,0.04052381944045025,-0.6583516657022112
0.6503300803027217,1.0349333564090215,1.4969049599710047,0.3828122497409172
2.315614751063365,-0.06903687006941095,-0.364442940933837,1.1604279477420008
1.2203234549599862,-0.4134243638979582,-0.4120045447048064,-0.48596525951675573
0.5757793773370985,-0.6905487970255633,-0.051784663464205294,-0.014239962812656493
3.777404519713996,2.5104188782232004,1.5092288974337884,-0.5562573860428757
0.2546084475571726,-0.3119127536588324,0.7875173403167934,-0.1475792032396478
1.0376734109288082,-0.2908516202125755,0.17615836597887724,1.4529738001951022
0.36558114630548544,-0.6818511576584484,-0.4527489546204506,0.05249953730522505
1.4012519168184547,-0.38227761463721543,0.37809072812500544,0.17182911965981762
-0.0023372653383469943,-0.3484506134438563,0.8348246270271249,4.610668767087112
1.532606256642476,-0.32502563612284796,5.883824154709488,-0.42271918626163796
1.1963441399644226,-0.6560907004260028,0.10654025357966712,-0.7748282472027541
1.300329475002716,-0.12439691291484223,-0.27977770877910724,0.12210316807693111
4.046858453677348,-0.47049443575565153,1.0115369739084903,0.20129624957779502
0.5437428661455757,1.4524791459565005,0.06949783734284365,-0.9347029836275322
1.7760497275305331,-0.21345718410619963,5.50817389001317,-0.9294203762093266
2.0208257229323556,-0.0585487137967432,-0.6456335071944381,-0.577171707280798
1.6751526984459706,-0.5947002242027191,0.36969887316129757,1.806594561852159
4.044454385064621,-0.7640318303105427,0.20522730052439586,0.7734265166354077
1.3605193955457042,-0.46872353486478413,8.478460445412097,-0.2916951583538058
0.629180394425082,-0.21157225427275494,0.8280872909019057,-0.19721159477801875
2.0166158307292457,-0.3199925249684251,-0.7092677939088536,0.2869783324768913
1.6468630329056406,-0.8005532977332637,0.20884206887322088,0.13737880988276796
0.3567118142247856,-0.3907581045535089,-0.6874788883565424,0.1315557494813211
1.4521957545553272,0.08361903098949885,-0.22492668624044454,-0.5201506001546847
1.9246910303861937,-0.02566356574619366,0.05521925859298871,1.212128323314913
1.15531898608055,-0.345483859564913,0.34951390182901254,0.451395538094308
1.4379191869648307,-0.5039659646176455,7.756454582639821,-0.43522959590745747
0.6518253013496844,-0.4651847982060404,0.8975950197631992,1.9242182526870497
2.506175987809596,-0.8315562120593943,3.6034804722284663,-0.41980594055818576
1.4312990265664247,-0.03658849520975371,0.5951864850096111,-0.6169614971023869
1.872055546014503,-0.7693871453506455,0.35712996119375484,-0.8062220651704838
0.8674830970312495,-0.5194944485548743,0.16392469592015413,-0.12097018268240578
11.53046504351894,-0.3808173301234187,-0.3516557549400404,1.305482217776198
1.6409075184097999,-0.5396505055090363,-0.27795890560613734,1.6501496309831496
0.34104240638808436,-0.33086899647091395,0.1581690228241912,-0.1056740792110602
7.924416591261453,0.6128777229185829,-0.12346975778914115,-0.3216147672317339
0.9354761288573459,-0.4554777690343974,0.9596128858338624,1.263605608625725
1.737812294113878,-0.8526616408358222,1.987275576025421,-0.06930168365526224
1.0215258561236,-0.8236958682129993,-0.31141610245402374,-0.17483730525203156
0.7871135762811414,-0.5970246520629486,0.04761025225621052,-0.7008518140134028
0.2949979904288891,-0.6163534727564858,1.3002968271703206,0.3497135593527647
1.503141223805708,-0.3126052495316771,1.1577729105202668,11.840389604414591
0.3690150375281709,0.9546471641093266,2.255074161820014,-0.7108402551242025
0.916328589278889,-0.05079517945789136,0.6633428832519872,-0.12424618592488001
0.05218113827463067,-0.6412537492357687,0.24396926543360808,0.00818288292561542
0.6861825547011646,-0.4214745103149756,2.318716287717187,-0.524930794938951
2.2465637205944504,0.7160835931946081,0.7929668572719324,0.9795209907032929
1.5792861276163936,-0.10644443456253805,-0.5389161672271057,2.446535988920304
1.225208945193803,-0.6848274154033935,-0.2897046336020468,-0.19394254902814
-0.12648708291631217,-0.33860688625447666,-0.2625011300209843,-0.33620733128801983
0.9256323371869009,-0.5886397903816287,-0.024943237604956536,0.17581749867371022
4.0958939673724615,-0.5478177407739029,2.475878135424634,-0.5230974734774451
1.556103990392793,-0.34437087861453086,-0.15508474799066974,0.05537167424770373
-0.02906917968963152,0.6784862919550292,0.6332380704853615,4.929387007873233
0.5588795296825639,0.44256049812953413,0.32824148562682054,-0.43917069246148743
0.15973760378968538,-0.49667515869514745,3.4231638567247336,0.06865198052244903
0.820150341617299,-0.6921893509568793,0.5626908059843281,0.23301473553154883
0.9037689517624878,0.2727617730895411,0.2062183299183178,0.41553765733043213
3.064700023201718,0.10153261106233646,0.4072207221527224,-0.10101197365728876
1.2809570548715907,-0.14054820291454506,0.05980313873911647,2.240825322951663
1.6608235743231905,0.39836174855801443,0.08080652667974486,-0.18645343396136593
0.1417861198890764,-0.7623647953124658,-0.6650967874499971,-0.2908611493165324
0.25266064903730356,-0.12499767323144861,1.1757030605684484,0.049705779359197955
1.5814880627962284,-0.44714934750228474,-0.3485271712327278,-0.5955367957058972
2.915882874391829,-0.04289171085017773,0.6725700106653649,-0.09968423483524469
0.7654099236803387,-0.5940930235293225,0.6106518984810327,-0.6176836031931219
0.5363333854378138,-0.5303940396735658,1.0467479963632536,-0.534510029803432
2.8963338745807725,0.06689063601811784,0.15792702174238982,3.584596066104014
1.0994109168944326,-0.20843522602540265,0.48129161753194505,-0.013453062800309779
1.88555680257979,0.5459793322597004,0.26375238508758714,0.024320175451961967
