x1,x2,x3,x4
1.295702699161473,0.18117481900218935,-0.16349849916188286,0.4462573148957456
1.4366758633777255,0.47867728058629444,-0.5586492218775351,0.14561551908746595
3.151937896751682,-0.4866432339833857,0.07478186147154453,0.9794557597002496
0.4247120197768215,3.491135613542254,2.009308784510044,0.35423753913640454
2.739794910180276,-0.5365177961050531,-0.21666528214261183,-0.40127839630051987
2.4079386676553076,2.585390019748489,1.3722589810326253,-0.3791727740217419
1.0151361708295958,-0.2780149358554036,-0.1192127446293344,0.3929527434936264
1.1047624830837992,1.5563213274562786,-0.7411539209093165,3.9976744280681995
3.1292418203623207,1.1238461774452118,0.5728053436716074,-0.34784543719043803
1.1428040566531936,-0.5157749235874765,0.17078758354582857,0.15985383571625644
1.741311676353698,-0.17875041718677787,2.334703115177077,-0.06014571969090676
0.13989141451243747,-0.609283666246132,-0.7317220132209864,-0.895946876553551
1.323742177332326,-0.2703045690570942,0.4337736142213373,0.5455025049225122
1.0673421507447585,-0.7856122344884457,-0.11318147492199371,0.9770959383583486
0.5432015875549328,0.21438764032797164,4.822083086102557,0.22450090557857671
1.8230370169568473,1.1285805487245577,0.8761241095919712,0.881463255060229
0.6027029785217972,0.4713674177890348,-0.32717857604736367,1.7241950565580053
0.9220986344689723,1.1404891031308053,0.4072822618374352,0.6438742187881201
1.034693803161625,-0.11743921437498439,0.2768385524134467,1.0275365496453608
2.3632182537241446,-0.6855360605574077,0.6076849475465889,0.4330193632292798
0.911537851004169,-0.7145035456596969,0.2428659765371859,-0.007489723515605395
1.9657727991505691,-0.38978346207091263,0.4752271588994117,0.8074720354461176
1.435074766313793,-0.36100027916458577,-0.11181886972716204,3.767503298555388
1.5139562061712875,-0.24019085381269123,0.5674260537943037,-0.5920354912520207
1.1261920083509587,-0.1890741574355591,-0.6538816636165048,-0.07683591029774961
3.460920307620217,-0.7288462564588306,0.35557895007702633,1.6810558118289722
2.9024932736871873,-0.2843363033639804,0.6823095054393122,-0.49378331012731447
1.921600179465794,-0.5317333299644402,-0.080797047412275,-0.6463668894300028
1.8431871750176003,0.2910991492987114,0.16937727226475907,-0.1488307977609098
1.0060896354383613,-0.48940922647600227,4.045625973089983,-0.2646824533326744
0.637034159347105,-0.5578915273702946,0.48675464469001994,-0.4484412183329889
1.707047806919189,-0.594683290392624,-0.3393040217800817,1.2299739561898453
1.750587023943781,0.9850912582333824,2.405104770191231,-0.04208938802107853
4.075485506098302,1.8761247500024987,3.824235046887159,-0.12521379510347763
1.3803898299173119,-0.1810206720440939,-0.22198994501413605,0.9318911897807662
1.0686966444288624,0.10411677852253964,-0.7386656181380638,0.6857280909037673
0.9448759109732359,0.28610935499402035,0.5253176365642873,0.3147856544514456
2.2958176998604465,-0.06068604957710666,2.8453019424271853,-0.8146436464288392
2.929863455298238,-0.7777020413880738,0.6295195183341691,-0.26814379147362577
3.3429347757692174,-0.0566694863000311,-0.5240457994223842,-0.37221410873646044
1.221022650897742,0.7315122593336643,-0.584802861508799,0.8059537134920569
2.4535181567210884,-0.24587442262336257,-0.788323120081469,0.6696817846478451
10.460471517678567,0.012247356269700305,0.4682627353928317,0.1012379807591528
5.08166784678209,0.12884832356505482,0.30223396117366796,-0.7287954805602256
2.2327533238316604,0.14555384325005116,1.0762640187176342,-0.8123152442550492
3.226251026438974,-0.7116320386040842,6.593381104450019,0.03978101936967948
1.9198325439871011,0.6459624305689846,-0.08531176702738807,-0.060788695897656564
3.2579071588007347,-0.6272019670983291,3.5674051244657505,2.590593019355749
0.3382785588822237,-0.4484361743418104,-0.007398252966921204,0.5088237663534367
2.9492878367838475,1.706897881368731,0.9119234802120197,-0.013096750308427052
2.4905719834919324,-0.7649551380971868,-0.511911364612728,-0.24336509918150984
0.30255891741487195,-0.20168690455720806,0.0626745791044585,-0.0848972506930914
0.19521491577724603,-0.5422202849988769,-0.16416514436227547,0.2778433424918221
-0.0546176585798378,-0.18603405717616506,0.16718562775699786,-0.2998470845938783
2.032603974581717,-0.6849017600199232,0.16511820624938922,0.13030929842361627
0.7986006852878083,-0.04740794471649146,0.372070531418895,-0.46555240365525574
1.0676134382856501,0.10768294704195358,-0.0002461800148363391,-0.23531731794526567
0.24276121833119646,-0.49924132324541537,1.383613465643526,0.07709533577604133
0.756021032263799,-0.1586829416738872,-0.13048477266591751,0.4765079361116209
-0.026577463779691834,-0.8636229870053903,-0.337807421818868,3.5981147868739223
0.6222988983676718,-0.42448573028289105,0.5281310527972762,-0.23945246062955672
1.5304933132746132,-0.6839432353432895,0.1606816319227704,0.20217244300454662
0.8826664205859567,-0.5945760443978797,0.09743442498119914,-0.74524001774471
0.9053258349336852,-0.40135710188171847,0.630533867175906,2.0565996682356364
0.8364380944330199,0.1615807774770457,-0.47218590936065097,-0.10743698234512478
0.7929980604197633,0.4645723855892976,1.3948641231000294,0.01765238705196759
2.0600699665081006,-0.3140417982170989,0.6125800899913239,0.9812256699287532
8.567052438464794,-0.8637210708573401,0.07308774367715443,-0.5457216200441748
0.8529661962683999,-0.18417105871157424,0.8797725679144224,2.585263770670975
14.375608081640559,-0.8318681327873664,-0.14699476608688433,0.6263987565359319
1.6003882408389973,-0.21245790866819303,0.3807510429364309,2.0209516660157423
1.8045796268274734,0.6713590313362447,0.37110492141343787,-0.5224870980956686
1.3322918269458062,-0.509647743586619,0.4567491873365628,-0.17418125356876224
2.9408846782911504,2.859793121988407,1.009756718445499,-0.3667573517130521
1.8331640645402003,0.011282750346028436,-0.5005725678186073,-0.5046713235773603
0.5479847523086456,-0.4404676308980705,-0.1813315967090433,0.7331694926074386
1.5284560960138576,-0.5926861902929519,-0.693109478860158,-0.6183821396003046
2.021189521406628,-0.2538479674889563,-0.11617769480675255,0.10904449611294487
0.9430775648914052,2.5519872877049594,3.4252212481490227,0.09684252260677728
1.1915050523780284,0.09795923219117975,0.5786078024802537,-0.154922713279265
3.4098085852115574,0.725941109840845,0.6102728892322971,-0.24802619116228675
1.3504492654435296,-0.9222544329420561,0.11299659178297428,1.3817552460464975
0.502575822656959,-0.33799943368773677,-0.015605217352080092,0.7054660484876318
1.1754626377281507,-0.19852007290249774,8.010526244639252,1.159615768433647
1.824651599903258,-0.5165662564126221,0.27671008344686787,0.6469349962621698
2.3078324044907395,-0.23025959522765072,-0.008053727185041937,0.8362369239345839
4.923462905722118,-0.03657074003240435,-0.8235348509047938,0.601177371926473
1.4734290110115063,-0.014991339997305841,2.1133528039965093,-0.21522346229621014
0.6153693598270156,-0.2822896914079589,0.458253797703021,-0.3588829776226209
0.5385592434435582,-0.6649520495639765,0.562502035653093,0.4585866024936991
0.6034021779247138,1.2099269948451754,-0.36934131076034893,-0.40412565670374057
4.663602720125648,1.1321081743341948,0.828475540638246,0.3977152538591595
1.288682965569735,-0.44586625907373245,-0.06031516488707034,-0.10324108850330149
0.9512664160482538,-0.6841253786375279,1.6270108436085122,-0.4666561485070718
0.19933424405626066,-0.3978270156162296,1.4232736308065719,-0.37491838644712694
2.361847555517674,0.2619463472632255,1.8965982968754438,-0.7455844066895356
-0.04868422311155807,-0.30486383649087834,-0.8834449401169095,0.12841576182412617
1.4285011015612228,-0.4628010541227422,-0.2578424391975067,0.06559010844968483
0.9435339360911543,-0.16121785157216006,6.458182450811418,-0.24458069349201583
0.6126273495531158,-0.5388051870913783,1.6189792489025119,-0.41729743260323704
0.4261027679397731,-0.14136034780399231,-0.47514444675899914,-0.9123412530510554
0.531002581127741,0.11474467035250258,-0.3266366234647071,0.01859603784809538
1.4600157560183664,-0.4455348730203249,0.1541030184415677,-0.6769439688453498
1.961158885313675,-0.07016375138090303,-0.11084702636390942,-0.1924463523609926
0.6329108829785954,-0.26207400021414584,0.1574944871167241,-0.7507720053724175
2.072832330940895,3.077344807059948,8.028238556558867,-0.6620466763962527
0.32623408746619775,-0.6253217217487164,2.378663902514068,0.15186970078064266
1.3333509427281007,-0.5938065214783914,-0.20333511245268576,2.261580948371531
0.733673827414361,0.33066954778319313,-0.2566406325684262,0.45949667033060426
0.9542238543891712,1.0468418741268577,0.4320979507626417,3.8393520334397033
13.178301123697421,-0.12326020568864249,0.05571118695674682,2.430675187268959
3.9892300471183697,2.276112942905667,0.2712207254225447,0.7407504555626414
0.9552981253825046,-0.414994468858392,-0.12076862077999151,-0.1452907415384117
0.3913574503285435,0.5768553407740258,-0.576042485958329,1.3286272953234533
0.951159500281906,7.020706536426241,-0.33709847546175997,1.2071136389220891
1.212854839961393,-0.6528896513250972,-0.3907123866404383,2.23432856818664
0.7887841065429955,6.85476516886547,0.27672211591038254,0.7262133603091716
0.39274969884461486,-0.8125443727884736,0.2930669301371178,0.27335433255720987
2.908111548358314,-0.44668662409663284,-0.15665878634798525,-0.881010516269847
1.349541102055249,-0.4619612829347668,0.998253783177951,-0.48030939636082237
1.1605956110793785,-0.039808940543802906,-0.8456196606928956,-0.4256582922603269
0.9481126201451251,-0.7470556638441894,1.5934311443463192,-0.631426355451515
2.475248789376589,-0.293680792977527,0.07366719627007057,-0.42267852477780166
1.6233899052119432,-0.4851449564921747,-0.028890789089592528,-0.19164166266684246
4.09835797853242,-0.5175341696669418,-0.1880466190240938,0.12460837051005402
5.083924071911743,1.3959589829521608,0.19574853896776045,-0.33299743722231423
1.5537871370670175,0.819432845392726,0.794591751121051,-0.6532919447115606
0.6682738564102111,-0.3458166707318394,0.07658618127996464,0.32917549534880264
0.76799559746066,-0.12012065211197043,0.26452624340997755,0.4850134174222134
3.7646316357625356,2.8404269889987863,-0.48649042228341777,-0.24030473563399268
5.5768540333069065,0.9214523737814666,0.9687879008550508,0.5775264656271606
0.7201244057658818,2.8539547400480645,-0.8258771735706034,-0.0003547989012562258
1.3664323981617508,-0.1600557624264599,-0.3619929316863939,-0.311617830992282
0.37714506425323924,0.08307131070316975,0.27807905901937335,-0.24333859775767552
1.0446048215471992,-0.8265800152464615,0.4850801941333358,-0.9432620302437902
2.3670251510200457,0.06351576885046817,-0.053479893444843496,-0.365884490963828
2.258346847993846,0.4336726837987481,0.02821832690003201,0.2569422917216677
0.39267234021246944,-0.2755024650850445,-0.5616771300233074,-0.06531139738083092
0.3033157464085423,-0.49711578573255966,1.5953206750988151,0.48931535873796306
13.934584400340805,-0.702536908895622,0.49337209173013385,-0.6125602300042521
0.3329929776188991,3.471968455311311,0.27945633630928435,0.2429641408885661
1.1537928637914385,-0.49438281458071287,-0.25733824966921026,4.237074519242954
1.4033523803121577,-0.17730757056496638,0.7030646749824023,-0.3342749056090598
0.8465728459808664,-0.7862042159838171,-0.9304085612707714,0.22370428038926482
3.869204055249482,-0.40356925718107217,0.27618133935180555,0.14478497336121499
1.6810500619133153,2.2863610667591834,-0.6922214066345629,0.10657614918256963
0.5333489406566507,-0.49710123700176256,-0.5986398948644295,-0.09310657726189264
1.5474379194254615,-0.6274156636985746,0.06399698255514785,0.04295689291447413
5.1711250743078425,-0.19651773146028273,1.9378233015244315,1.5940325505693917
1.1322162155417388,-0.4209998795404106,-0.7704873890107939,-0.1578810139832887
3.3600784437788374,0.3738207311030126,0.4673760214151781,0.26468671931824117
1.1389161716425558,-0.6607203058039314,-0.23660496326405556,0.8515848585434076
0.9076828748566608,-0.3064606198586133,0.2920803218469308,-0.5249135210726887
5.717251398599999,-0.40052965304746135,-0.6858622454464812,-0.033870266277322814
0.9730220586355331,0.2739144098527102,-0.8017259020629649,0.822922537888549
0.4155926491150632,-0.0002568979452162168,0.6464161531995252,0.032488709390255055
0.4170893530967881,4.0390170102581004,-0.05566072027247637,-0.5537441587603275
7.306497364362503,-0.19483509115607212,0.13526563157969296,-0.20961163731547927
0.21364777709884164,-0.6111789372200525,0.3178799722658634,0.8500811013733895
0.5364632594405738,-0.6645039726808303,-0.6046136985144441,-0.008849249128135894
0.4136629541729493,-0.5716869986443333,5.908852879018615,0.340718813208466
1.6330117489456115,0.16451426882274323,0.4449942324573888,2.552853008865581
1.41508781595084,0.23850436607343584,0.34294756539020477,-0.7671518059679889
2.475207506212478,-0.8942485207913726,2.15630416972942,0.21756251245973757
0.9551758944818389,-0.2708189886014102,0.43253035508050286,-0.7608321571002005
1.0544098187802322,-0.35808955570202283,-0.601057223590447,3.903417304685492
4.083412442555413,-0.49490856030662267,-0.5921658365664761,0.3366614698051549
0.7922091783629355,-0.3682929459116815,4.022890791202905,-0.18230846851753058
0.12967656864145827,-0.6359907826023832,0.5966061347323437,0.03867373896120685
0.31753412835655404,-0.21488605667259486,-0.7426509737515751,-0.8815326703647179
0.9677761249156538,-0.7153366672003023,0.09643184935744542,-0.41780753279001404
0.45014819762016844,-0.684008122538015,3.015521637857976,0.14933628923031828
0.7872885652812103,0.6937988731313982,0.0471964886848788,2.3649959253010127
1.1625541174185021,-0.43978758384955674,-0.4987073625425219,2.43559102657191
1.4873688779365994,-0.7750083346571701,0.08353966429366966,1.977378684053881
1.006869207532843,-0.18723799846079126,-0.4163175170497553,0.16656047779402372
0.8686729881838675,1.0525976736631217,-0.316721095390299,1.3058318688380646
0.42016962978894723,-0.4171317176232404,-0.8802950137473979,-0.47003359193156
4.597372232668183,-0.3809130010328564,0.18172672113749155,0.15144294060598207
0.6946047592676163,-0.6648298804373112,0.20852427919102756,0.01126365809132368
0.668138339913354,-0.23294290832920772,0.5852054104037754,-0.17127406224724584
1.775444086450996,0.033324971969881156,-0.8610632597941199,0.14141647097208487
0.9567864820761536,0.001236740716057394,0.8254304208395156,0.5774204647064989
1.5019041879202364,-0.45343310884467003,0.6715247239290776,-0.5828177563633191
4.339272233900171,-0.3441353219722111,-0.24804139665382252,0.26727082067751606
0.8889882659984762,-0.6329446303032439,0.11932334316858939,-0.7158908973858342
0.6195648919051102,-0.318164728037336,2.1177428900490423,-0.5653656250186341
2.706003673642697,0.13895992757600917,-0.2930085461540075,-0.475342563704494
1.9669975107874769,-0.004863250160826671,0.5335325666697561,1.9469200776567526
1.1168441956468516,0.13988785066283338,-0.08053040645317489,-0.12217902896678723
1.3695035495410552,-0.8403822583741376,0.48414318104734955,0.3637235453525398
1.9793178287977296,0.006654499416412163,0.6475339114649532,-0.5768944482547342
1.3843519178268076,-0.06706727350701591,0.11108600459408047,0.49694117466206666
0.6589159068110544,0.5899496289531638,0.6600866174650095,0.40156709277974456
0.029161512429774383,-0.5704400802284277,0.24918610102113936,-0.17992343554206613
3.091312902081521,-0.15350534472750732,12.422020227033666,-0.2131318033577373
2.066277905667849,-0.043872666498463886,0.3827946040900816,0.39807944555427777
3.4952589962274594,3.9966303527794453,1.0384896235039252,0.13609977869175838
3.113784885486133,0.2202109066704625,-0.30330188301932925,-0.8420654184690828
1.2307709100644133,-0.2592713347955494,0.1936885453981647,-0.4057023885994151
13.076310551906534,-0.5164336142992699,-0.5256297384308232,-0.13335534250498882
1.47546860881905,-0.06923035690917989,-0.03587069188078329,-0.23826718807596203
1.0115050114524848,-0.9323169020661458,0.7444728337259359,-0.222178576632046
0.4544989115965732,0.005388178670284294,1.2366723414368512,-0.14568722252458188
0.6736417046011147,-0.866825696626478,1.3030320466140677,-0.18145485577441356
11.708523397903363,-0.29157315516860016,0.4737926540697355,0.18875819187356324
1.1153705928108821,-0.5305144542801988,-0.48603928259419493,0.6751427390171287
3.1401788343697117,-0.19483202548311052,-0.26312366733046555,-0.5489101135090833
2.148911629817669,2.6607740719481088,0.07960175812970327,-0.32132773025211436
0.5683901403355731,-0.20330049225898217,-0.2726204753382666,0.21543526883741926
0.7841748089774576,-0.8572339027087873,-0.5852946953100233,-0.14403910520075514
3.0337399835114756,-0.03498420748344866,0.3756664561288203,0.5562442002949171
0.36314801437169786,-0.37447774184298743,9.39688622366405,-0.27382683887240966
3.856630552464056,-0.5246655732806051,5.205805694019761,-0.5995475698118565
1.0407981720945716,-0.6036399824741053,-0.42309033794784145,-0.03458519994583331
1.824952445693659,-0.7117908705130727,0.04133143107830639,3.2312818989025605
-0.08763204765287391,-0.6300728868705223,-0.0035437632364742067,0.6527888342170718
1.004533856464676,-0.11992719788072348,0.3543980855375848,0.684844942020056
7.444807967763614,-0.6111773791219425,1.5380509957810529,0.8781297529172922
0.6043185156291422,3.3018825362780237,5.885324102390899,-0.1995927982660971
3.136152118735951,0.21589125785233443,-0.09975773751693684,0.5189921337809296
1.1158892576714035,-0.09993852724547869,-0.512900215284364,0.4056492889464536
1.3530375725694626,-0.6216517557937188,0.30861299737640646,4.760489878802541
1.271586096743834,-0.560938254892188,-0.10432718834069676,0.8885061803318388
2.207252316541975,0.5736091102901621,0.2730385605947472,-0.10068070671002394
1.6632811786497896,-0.010784496616908279,-0.13833409785516781,-0.12360816034885858
6.389910945308448,0.44321985441158596,0.24664183767892633,-0.1959456961667323
1.5725465333593838,-0.63182878938229,3.9395886303432706,-0.638179236172697
-0.11449639736465023,-0.5788506117231523,-0.7475111377776544,0.11851791000166023
0.9259388220444338,0.11436267615154061,0.7242634479116627,0.013489370676461832
5.236270808257162,2.259106238091595,0.11354949972461292,0.1907736535876663
0.5487369842631302,-0.5838279947772405,0.7149913620280801,-0.19049165403552537
1.0942739132227013,-0.4452977229752637,0.6289241146965294,-0.06407521031867514
0.6434409439549036,-0.6805284698370357,-0.4949728679121451,-0.7766279345769455
0.6243873971972371,-0.19074820300329964,0.14911745289670897,0.5433375280814912
0.9326399849673372,0.48293085520054,-0.2881498340592905,-0.17965241691955702
0.8291219029066332,0.48351204055340236,0.9261248367474428,-0.062050637284454035
1.199853178031573,0.10338562863026834,-0.3398897030102699,0.37205783027869654
1.8595653954779605,0.18148086520534612,0.113437598996742,-0.35263977809570146
0.8904873451574344,-0.051410749631069286,12.610887625099306,-0.521135546454542
1.1337749378011965,-0.6316138154734773,-0.14523335223845313,-0.12503967848093545
1.7907048326948112,0.4617126201226236,0.773139012381499,0.544236032331999
3.461335013473194,-0.7635925018808404,0.7236248376126522,-0.31462270408939796
2.351695072058218,-0.22549704300556794,-0.12171757327755672,1.9789797660971273
1.5868431359302475,0.015586527113560678,1.328602108227959,4.591045367049713
0.46988989926318103,0.07563919291893728,-0.33806032428240373,1.3534006934244789
1.2499030924965107,-0.7476022653404748,-0.014524434896083682,0.5529344209425116
1.3692092189085288,-0.0011043151960145048,2.9764652083915406,4.365163547354033
1.044218205698507,-0.09180247504928829,0.4425995726844494,0.08657342899472642
1.6975680575885685,0.9271142742764835,0.23592182710730047,-0.45473474208495124
0.26915906969565917,-0.1461189739012526,0.43970054109287826,0.5867005299626669
0.813891738695004,0.22839864884747252,-0.586684975139734,5.247671170116017
1.0791943998106297,0.3317234490854284,1.749479186010931,-0.48019699562670437
2.684406250950431,-0.8062531365586567,-0.49318210607866075,0.40530862565610803
8.99812236122397,-0.11051647353286875,0.7318339923641319,-0.04940405299087636
0.7162234812618067,-0.05693703467688549,14.075921722817904,-0.21495394501803544
0.758363794710486,-0.6182346691771297,3.176489587703225,0.36931246989039423
0.8689637578576863,2.6433804877428364,1.6362204108312675,-0.09907651362524128
0.8651472509078895,1.1868771040520336,1.347610203605266,-0.6789526379640904
0.7736376992634093,-0.5120613559848919,0.2736491838940318,-0.07837983124737491
4.231891983855886,-0.3791588014064716,-0.5040246467825111,0.36213810398317237
0.2039344693736529,-0.4066607695365897,-0.5182231227075134,0.3559364340675881
1.5077302619273265,-0.14281604074122833,1.4035284187842731,0.36522374360082277
2.9354504565327004,-0.6809621747153843,-0.0939900233219505,0.237674077455321
4.814076372419647,-0.43381350915813954,0.597879385387666,-0.6780848241288453
0.01896219845784075,0.05568905465490959,-0.4068384691514375,1.6181478909116094
9.333011280945117,-0.46978804156430465,0.5861444984010902,-0.08672540364595527
0.2911909616494641,-0.8297045603425437,-0.35910373271256046,0.1262249745831463
3.2302479707855607,-0.2680915974853416,0.03888800994800867,-0.40724204199985004
0.43032879118684253,-0.669583332363326,0.5554315898309359,0.3783557293548845
1.5008719143721918,0.7592927689722659,1.0139322492827652,3.34366195634417
1.2259075922332854,-0.6283168407963635,3.422491193707816,-0.53382945388329
0.646695146218403,5.437273061344085,-0.8551148140534655,-0.11157900448135749
0.5160133460731224,-0.6090954680705147,1.975367070645707,1.7641090981711853
0.6822720727040152,-0.26783200327782153,-0.40409315790423317,0.01670808296157067
1.3007336790665462,-0.6919079100457963,-0.1926502867597094,0.4484427559315254
3.3491115129513673,0.20063631888163336,0.37681649174334453,1.180721837244329
1.0198121776752118,-0.6416001785988278,0.27447124714428606,-0.5178629900121414
0.18935329701737302,-0.19173042266289542,2.2694006362440233,-0.6004191791218334
1.3207501718521688,-0.534407906550079,0.4179213522502181,-0.42120953403406847
5.641907554662252,-0.09237032954893176,0.9804187178721231,-0.0368462076342152
1.8556902731145146,-0.5655137143405282,0.07086557912918168,-0.3546339218695681
0.759772793738186,0.3335122240126951,0.09197932282703047,-0.4519557732462669
3.3730869806406147,0.0023258471316631724,0.27533000176227995,0.6456815580862276
0.4022333999422385,-0.5337484974547146,-0.08451531580926941,2.902408862263745
3.1216038612009065,0.08953861697408283,0.6256046361982528,0.01168593795901196
0.5297167558565787,0.6095877379509855,7.455824855398037,-0.8843502317162341
0.8626663604972866,-0.570492774509862,0.020001248068548305,-0.29075391824265906
1.1590940953024553,-0.4607011543056755,2.1221074993781404,0.7038087559540951
0.9509315306989372,-0.6905052675362802,0.35112359372845825,-0.36171418152218937
0.8214385207723984,-0.7677343988830239,1.3499598404742024,-0.6540763195989037
1.1551876347190375,7.526042334871587,2.031763169294159,-0.6169881013497513
1.158820683752407,-0.38237359652209046,1.4839371871264357,-0.2337674446659206
1.857135140171013,-0.2419137028510393,-0.39631886900159286,-0.6646247502211313
2.061401531960371,0.2693563136713595,0.15860048018906814,0.34270316873556994
0.5946679373288335,-0.323177562598163,0.2921756929219377,0.2415050095981759
1.1430568614581826,1.0211937117561551,-0.27398216058462466,-0.3696224156460912
1.4496223191825997,-0.245519556169412,0.0510693576043999,1.6784512996081422
-0.13276161229611172,0.7034204736946286,0.03322281856001785,-0.6682656561516004
2.416667458777815,-0.36597421153287135,0.3724186479921576,-0.2612649537686995
2.0972000781008053,-0.7799887776429806,2.0093487403845174,-0.09342705642370897
0.9761763783838744,-0.44599478905943846,0.5437862067140109,2.056707385719579
0.3858555540348667,1.3273522573357863,-0.3564052477445051,-0.21238192208810625
1.4245934935116442,0.05124879905258761,0.8046079643278072,0.6443274917532493
0.21243822554184733,-0.01706485731801266,0.1854667209682912,-0.5617696053251855
0.6959836106140591,-0.4065819755585375,-0.1280324854054654,1.3082134509364804
0.6016494288319383,-0.43288906341053546,2.0883521494108153,-0.5897819615254902
2.142785699379385,0.4108588250943539,0.38848604921296936,0.37743241381468295
1.1006823850734886,-0.46167304452657076,-0.0325581608660962,0.2600642183800048
0.9924770649680057,-0.14831914443807082,0.42893799403009236,-0.568065379948497
0.2985028682990041,0.06967020868286689,2.5751794289027705,-0.2364333007861229
14.81228806067244,-0.022462197156062347,0.21986100518782514,-0.5091093255988796
2.6589072474651707,0.48475958855761525,0.10015980305901606,-0.535160072652848
1.8666356257307983,-0.8935538430041846,0.612089274493042,-0.2723523698167417
2.1184061211712892,3.1874723213789986,-0.24580331492425445,0.3006570712162615
1.3151227577094584,-0.24249587057976385,0.6001005124147749,0.5169275812999916
1.83247882156946,-0.32997330064623254,6.234837733495181,0.002426871569075617
4.148506896787256,0.34099159867590445,-0.5398616481998118,-0.18870965038069087
1.2795341328057979,-0.7006404988187449,-0.012491341804318434,-0.5872285269770527
2.033720547634206,0.1667879510671677,-0.28510738151239634,-0.7716041086652357
1.2458998505477195,0.38816088834453666,-0.13728488550371776,0.2917932509890391
3.4698290558230482,-0.4957603353497134,0.1947246963758571,-0.5864742967448439
1.465731275797752,-0.4187110943902176,-0.6359730032748496,-0.6032021511650462
1.096659416980124,-0.22485183124003627,-0.08373336483451521,-0.14376648731405361
0.6886548393236338,-0.44143488911088813,0.6179184638978079,-0.44993318836750296
0.2541399712155843,1.5284668075134733,1.5534638374424312,-0.6143932267112824
1.5479641243729296,0.5565068368804866,1.5810299308639113,-0.3710684601434968
1.2805720382766785,-0.1871888067331796,-0.5948219831460153,-0.7865327480258182
3.4858809680418625,-0.7406904541053371,-0.14731644932667487,-0.4469538688315212
0.9571250412037706,-0.9096678429503534,0.7653699496120963,13.194283554665589
1.0511563816766496,-0.8602103417836677,1.184204947846995,-0.2532404177229125
1.4000176149715546,-0.2609918129739828,-0.6083645584140251,-0.22460341798310124
0.4769350198526716,-0.5991526263866197,-0.13498853958602586,2.456594600086578
0.6683278170279086,-0.6600123871965022,4.429093785953606,0.3351470558111691
7.488876752669796,0.0914285656035354,0.24179564344493953,-0.10121120067529832
13.191056288115602,-0.806191113729303,-0.3365363948655723,0.5171573949679209
1.3197490219636299,2.852232609680832,0.7354403452987786,-0.31536105671483594
1.4931919356087153,-0.37033660640268384,2.627251593931549,-0.20854194830529305
1.3004518008922088,-0.4308427365655414,0.018104979401078136,-0.7689132834747114
3.1041050617627626,-0.20546529580019102,0.15027925228818018,1.2857191678205537
2.664955513864759,-0.5707844893784384,0.3894395913133353,-0.043655796406337544
1.244800706177513,-0.39484839663738347,0.002455365294062428,0.21550165580388225
1.8790179285255126,0.25011565851795914,-0.4067400913381375,2.603194836486335
0.9030458568557729,0.053012531974551136,-0.08721072411993724,-0.017520183987485227
2.2388832549587803,-0.21629472906847103,-0.6627409193178451,0.6663246916955705
2.1818718498909937,-0.7587555732812445,0.0009952414086407124,0.5954670633741947
8.510391820782766,-0.5431670956426791,-0.8061143615394605,1.332682239132554
0.45825192211652754,-0.531529148808678,0.10182896689426801,-0.7137191095546562
1.7894286229087708,-0.05859284569259493,-0.3502800181424115,1.8140888510583228
1.5961926537951059,-0.40665533637827267,-0.5312504143254977,0.18024799684987647
5.825151126831624,0.017220639716281072,0.4054282271405534,-0.026893933318119956
2.317977326151644,-0.7460231327188392,0.16518088369377648,-0.6882276326212828
0.7804463749586024,-0.47993174118423065,0.65439800159138,-0.3376996517507812
3.2015437471714874,-0.325506399350065,-0.14069525312899434,0.9618855550254077
1.176412642971981,-0.5985006238022998,0.515096868965168,-0.21601535126985705
3.920980266935686,-0.7268499310183298,-0.40053258902378264,-0.4490518832068262
2.5312787394549097,-0.904419728894989,-0.2526108893388367,-0.7528591424280228
1.0432688640105408,-0.37282637366803373,0.310520485077469,-0.34488632409145714
3.5278248370117575,-0.17444819766656938,5.079363933883593,-0.6265193682136694
2.3592361049983177,1.1259919028045768,-0.13637247445184264,-0.16708092280222842
2.0775792161072135,1.0278685817285123,0.3604707766607911,-0.4959552205923561
1.0098532873736943,3.442913858353422,0.367773873312913,3.2057384708363657
4.727629123561857,-0.5469627082130868,0.7247056387549782,-0.27641694308887177
2.113195805131923,0.30154682969516,1.431147857715148,-0.490533013086646
4.532883179911146,-0.7888374258804104,0.28199112146287875,-0.21879668235633698
0.39160244497513896,-0.7136139200353641,-0.2721972626621161,-0.2736615216850804
0.716263789060323,-0.44441527150388804,2.1620033423490614,-0.53114015220173
1.7388743495541479,-0.37483841410785523,-0.6152290735443109,-0.41538928412350673
0.8614480206479225,0.7831544684504064,0.6061778871890053,-0.430385904465607
1.5397225249576314,-0.6747688141160384,0.7755570186077045,1.186785925193318
0.6366040820002163,0.19948225764388816,0.4891577703188492,-0.15674708164385942
5.659201297585522,2.908032556614155,-0.21012015680768836,2.9087786502480477
14.757802500213794,-0.5781142085359573,0.004374670269692071,0.8723383757627996
0.6229046913911316,-0.4998590471165427,0.24619465805374863,2.3580837783529756
4.548909815173707,-0.5829226449624365,-0.1284942083924835,-0.4497235771996504
1.114586308701413,0.31683008273856483,0.8568635345406141,-0.5897045926910677
1.7522374025570628,-0.07847893977979459,0.2508555268662247,-0.5844493545507441
2.744775798599652,0.057510013222680234,-0.3854741171409053,1.0565848151959356
0.9613603802773898,-0.6178300970917545,-0.31230120907851044,0.22477868178759852
0.8191446763510333,-0.3510999610770289,0.42467927124936056,-0.4600457574404768
3.307455414270267,0.5291324358861387,0.6762246867495993,0.44342617722568534
2.576137293416042,-0.5725295174210503,-0.17535724900569893,-0.1679826428747323
2.5541350695170117,-0.04594957964189661,0.1329537099894098,0.9847335253244496
0.8327322990225825,-0.6086337792264742,-0.200734148286294,0.6515352264770817
0.658746478353575,-0.6237844459838534,-0.17848494292153427,0.36027573946824343
0.8779205814989794,-0.6743250298189147,-0.2161597800662568,-0.5999917069169705
1.1957188407780532,-0.7896711655341634,0.6037863936071657,-0.39791063049022624
1.9493021786336926,-0.44799684553709385,0.14520347941943346,-0.18523251728196144
1.5141925808312893,0.05116533260457934,0.39386167218564694,0.6543267938293016
1.4270269276038872,-0.9594101484681543,0.39185323588001153,2.675526247757908
1.6985760682056106,-0.021017606812320455,0.323688076739157,-0.13326067406822695
1.1299099789675218,-0.6759964592132711,1.5205580078311143,0.45827168547135755
0.4186870631109705,-0.558398428564925,0.22713418909925887,0.18883848106661594
1.8904391446694824,0.11130111984738233,-0.007347221141483451,5.865758555422096
0.41382601047852097,-0.6509979292670112,-0.13606241950805187,0.9396393730492905
0.21211390842490774,0.5205859287504839,-0.593829566957671,0.431015885994696
1.2754227963033715,-0.04438824056662094,0.17528803394457793,-0.7646795534588422
1.4281052509484438,-0.46562125147294264,0.4596186441957302,-0.1783282672786598
4.113073655343493,-0.18169720097562203,-0.19451006719812058,0.14977290895301398
1.1374302405843966,-0.33595119822406494,0.702591794602629,2.5814958989032313
0.3065055248174706,-0.5993178554110801,3.760330174301285,-0.9079815969899551
1.266116683011394,-0.16029926932735927,0.08202990414871336,0.6970498552354825
0.8461859009842994,-0.46092657158264194,1.3728188836321609,-0.1894134629185915
1.3981304417119085,-0.7568534706959619,3.260821150965211,0.16869728644868798
2.212277445021399,-0.1408106318843083,-0.07823881983865422,0.33950108855173156
2.934827107756328,2.8688406104162456,1.2385863947918052,-0.5975620327755324
2.7131798420960025,-0.47143922676242256,2.2785914739730457,-0.7525970497169505
0.8311068996413404,-0.3746799178904756,-0.13857904480300764,-0.03441241427999042
0.6626525920138122,-0.9767347139654581,0.7388149587080526,1.1255480920635712
1.4750881388531085,-0.41900663419476525,0.8249179086315901,-0.6787138692127545
3.2775052156720754,-0.21766188571095257,7.804893731038302,-0.5839727599314276
3.4002956516345577,-0.27498349873360417,-0.5520143777813701,2.587826472205262
0.7846778421300764,-0.491154686207111,-0.34580782612743755,0.6654469147512538
1.9379968972734631,1.9088213548675643,0.4646270166530002,3.437960636907685
0.6764770953654395,-0.6619106472860012,0.023811464669196925,-0.638941479544324
1.2186225230320376,-0.4301274183812427,0.1336327448872494,-0.4887943190413512
0.49753784830871384,-0.28734066668357283,1.3041465275026995,0.16315584413481865
0.0552972388579025,-0.49936373885355145,-0.227801043479817,-0.7171112201267524
1.6418460806572557,-0.010269523884134935,0.38616648815921106,-0.591762067015765
0.5639327385181814,0.7129913807547428,0.30882922810987257,-0.2771240304591226
3.4946950362868403,-0.19580269423687668,0.6984799086472291,-0.702654460988704
4.011361804835287,0.13898334194154915,-0.24176375284982243,3.3486271791931097
2.02105628564716,0.7621950351805027,0.034592149201988054,-0.6716645386314901
0.5754196806333589,-0.22481322829582306,0.5800949786168952,0.14072078683714984
0.3902293852740373,-0.32629130725058064,-0.06251908854902077,1.1389866800899346
0.6766762131355575,0.32212684679264103,8.73120208581685,-0.11075042236964106
1.9263200034117203,-0.280554788779821,-0.6591521467477355,-0.5052033076676885
5.356042839879507,-0.8518454728366326,21.370472610910237,-0.28792344820997917
0.22110140949928936,-0.016131859629753054,-0.21869150565979723,-0.5184738122608166
2.1743119335670764,-0.4390267817523835,-0.11342265465781842,-0.3403088309568929
1.0940511646007223,-0.5700926573483722,0.8372671603208861,0.43160301207857765
0.9762841224482206,-0.6952200220868151,0.12704754774457894,-0.2352505133004641
0.5781682241596648,-0.501077690372854,0.679665601231179,-0.23602438723476526
0.22672827156772835,-0.3439271826137724,-0.5199812254205507,-0.14071513690306714
9.013993566807075,-0.10925898047034466,-0.11849835339296433,-0.5106652549105403
2.702762726871962,-0.7872950791506552,-0.05128947539229034,-0.07950403828796826
1.385689764277497,0.5364862136570516,-0.3727298756964099,-0.9371249269431877
4.157263551111222,-0.49003959173161726,0.9094295710102853,-0.9300170795698567
21.904115089036168,-0.607111668420055,-0.12524990843158335,0.45555319735086486
1.2349039146085556,-0.1886838586286711,-0.49626234347053577,-0.8582676021416475
4.711608154084913,-0.42799795993289214,-0.02196889679843539,0.3489534687653071
1.4793114076332579,-0.19112302739436005,-0.31204224276646186,0.010987466229636755
0.622847666989585,0.7218336778923486,0.2163053937852384,0.7539379145537306
0.06671689180767659,-0.6340164742291852,-0.39609863308385107,-0.3087026252852104
2.0074988212444445,-0.8544040192218343,0.22178564202430895,-0.01911394144255929
1.356351491060693,-0.5238208423736945,-0.830850529929303,-0.33550110146894385
0.8005435253873914,-0.5753957929133786,-0.14639748431879374,-0.11454196088229529
1.9412548235171916,-0.15407366147988477,-0.1977483281351785,-0.5897400395805817
0.6967631970315364,-0.7316103525577669,-0.2837718426490111,8.6381215195387
0.7379463937134096,-0.3073052305621584,0.20140144650042124,0.07688363700460399
1.813141440590774,1.013092357878831,-0.2887695552813636,0.6312913859042038
0.6817442415146364,-0.2329254805797072,0.3040645564992144,3.6155726011687035
-0.4374493900454425,-0.42961212496384915,0.4095756434748583,-0.07799840227512223
1.8941069290409431,1.3570913702122454,-0.6388880356297952,-0.5422045513297862
0.9878191228591717,0.2350459889601182,0.26678675399329443,0.028473514379277587
0.40346920227630334,-0.4117292785193013,5.767514393409411,0.6258888217168841
0.41196040142014856,0.5355172746327033,-0.3065958646351217,-0.4940056994716542
0.1600432419045399,-0.1723029298767319,0.20111192430322755,0.9068809505494859
0.037334506104843346,0.386824327592709,-0.5070208304299153,-0.5040516524993276
0.9803549700554508,0.20231680628261106,1.633867378074592,-0.35943010238487727
1.2131668590527944,-0.4233415620316002,1.8945049407725834,-0.12342218416220463
0.19052771103646804,-0.4416709129505306,-0.6296000327039525,-0.2021461253888357
1.8885754045560224,-0.22963509953108907,-0.16665389187780488,-0.4189573974853752
1.9028061337208997,-0.5458205968770512,0.0979400062393545,-0.3410002334359675
0.18192786149859996,-0.7951094843432431,-0.13141484836031836,-0.2287891126028655
6.741776337434417,-0.7167647241459695,-0.2698052617504402,0.6737572841197241
3.35645697905771,-0.5583037177778025,-0.7844086713321128,-0.155186545867958
1.8086970565772589,-0.7219246894224399,-0.6223378576367056,-0.03229513677161222
1.5346145842075654,-0.40810660308193025,1.0759050540721304,-0.017825057409388667
1.049301282127976,-0.14717843426046706,-0.05071465844313894,-0.4035646675578177
2.1690436811303306,-0.3871118932226819,1.202872036623205,-0.05794300144484943
0.5456291362548997,-0.35551745963777914,-0.6760367175666371,0.8180732645015774
5.354281159843209,-0.18386771036477778,0.7415562560597639,0.4354851716892516
0.12046830283040943,-0.41078779763069695,1.2249530304019278,0.2759923346710058
1.8391820071231821,-0.4810715163769973,0.21618535324254018,0.4012933515127257
1.0380005344817596,-0.5482806674969716,0.2556857958356935,0.33061038322238123
0.6513384038272314,-0.24924515201008468,-0.2551618125811379,-0.30485984464766913
1.1170918207368992,-0.0539526606726588,-0.3476315736152531,5.9778533795576925
2.5742160591421963,-0.6988778232172492,-0.4789995974923009,0.7699329933731367
0.6505960816061938,1.1760023923390883,-0.2628372982372813,0.8886951799769678
1.0636301413824323,-0.6290482227938607,2.2351615172869597,0.5840041511125189
2.3066507905517306,-0.21891656297599227,-0.2392325683960299,0.3097972492097476
1.1215831238412441,-0.5971385953104081,-0.3208825262062992,-0.6954012227819462
1.3867292247063152,0.04395432354338147,0.3163253339872636,-0.25003512478453194
2.0054292370641047,-0.5109686374141074,0.9269784447688945,-0.777495960376538
0.33942506558136665,1.4323827176628896,-0.6601702568055833,1.1332488389356947
1.3905907427175888,-0.8481217342063737,0.6984257009946835,-0.3525107260659709
0.44023636175207836,-0.2639010374807941,0.3770825386541299,-0.44865534620906
2.2070452796123066,-0.2905215306683968,9.08750459030358,0.812255412600402
2.638470501119668,-0.7205922103126959,-0.8344844500326652,1.9582100791803816
1.313502174238021,0.5118992200694528,-0.12950200036756887,-0.573624750563068
2.883206925806206,1.0653821939265748,7.95745085765596,0.041756347224288115
0.6887340417110881,-0.5264794398288726,-0.1951417997035768,0.05938382954755306
0.9914298177672447,-0.47322083327415543,0.10335111541225639,0.615903014327662
4.927758924727763,-0.6071294022470932,-0.887936695953427,0.5071820014380004
1.114951014223736,-0.6220613669971469,0.9001433968436352,-0.3930910657785076
0.6330758803998486,-0.5187765031945133,0.03538949572765704,-0.13459878489753085
0.8991953159968666,-0.4907244313137069,3.4363388280817055,-0.055684659799546066
2.543937039764455,0.7296308111174716,-0.7054945948643421,1.0462906534820813
4.499404355882579,-0.4064710110276395,-0.7782824043944895,0.48728526869499267
8.879443310976491,-0.017219944490518002,-0.07038000207085837,-0.4693620405089446
3.5430063634639337,-0.4329368393398705,-0.5700112659590753,0.30063151965795143
1.2300972641353312,0.6193929235943623,3.0282757723858538,0.8529238800557017
3.335169362752703,-0.5804881352754239,-0.0784462540388573,-0.44223835726525007
0.9084924676243735,0.44517493218928594,-0.25918315664961855,0.3929041643859301
0.575251832282399,-0.17395392892989203,0.9523291203370421,1.9385813691141411
2.789583379645753,3.384089608156115,-0.049076683299411505,-0.12512060638403266
0.50932840491604,0.16750276476761905,0.3516754528685513,0.985637272102805
0.6022368881214399,-0.5402806566001339,-0.49095771981531944,-0.29986328671526574
0.6012474359583995,-0.66668529149654,-0.0502308005693316,-0.5928084276265657
1.0049004328794013,-0.5348790837108701,-0.43325778870504605,0.04667812857677722
0.4824601097485075,-0.7167178272813693,0.35400389140466815,-0.3435721435456892
3.1697801228110096,-0.5399879966606574,-0.4532775824124107,0.5738194279813718
0.08588168992440925,-0.09961982631185551,0.35230341534560705,0.1527286367948144
1.248724120383521,-0.54177940696128,0.23868847803769166,-0.31025554623460483
1.7251286604244176,-0.15749688477193202,1.31145408523015,1.3552267571707022
1.0429580430935275,-0.48040283950424834,0.7864120240690511,-0.3537859350826459
4.367219467047629,-0.4450951828079325,1.5920718547794466,0.24692551503041105
1.0983303660828923,-0.4430806506315975,-0.11863375228869266,0.45862516933646713
1.128278341120443,-0.31858820774320595,1.3855412021584526,0.21152781342079474
2.4920478780507893,-0.522961939474067,-0.7215772768568156,-0.7113575094563174
2.1278669370854133,0.45484618699547275,0.5993764435598501,-0.09234030477560529
1.3774002489407375,11.826817357424662,-0.40615385854103603,0.9732981132644885
1.3151529798893393,-0.053835474816050666,1.27029179082486,-0.17985666812184375
1.4516301212087321,-0.06957520083733004,0.30616794122450863,-0.8190129374902302
1.9915256166676034,0.1689171441942514,0.6351429854483965,2.5397761349706602
8.945868466711664,7.57783710982952,0.13435072806221493,0.20083552136605576
2.9405745322039394,-0.28506280696424635,2.233271743839797,-0.20297663275317412
0.5615794985685183,-0.608054537889594,0.3007967869458845,-0.7100797935504507
1.8168729406186084,-0.16427115903239287,0.13633415398314752,-0.6164719673590373
0.8473159756765463,-0.4037695132162279,-0.04411155827948077,-0.7691870931448452
3.293964913133186,1.6853546289738643,0.3033910664605055,0.09568347175531233
1.7344842908822664,-0.3096767282017332,1.7364109765319946,-0.5505773190322194
4.658722570913406,-0.15914195028142153,-0.07828318474154661,-0.38971016064754493
1.120946723729781,-0.023379654356943114,0.1295494578418772,1.8575716167140972
4.2378438410328,-0.5558025596997369,-0.30911245143446975,0.5215569171652117
1.9387599795153143,-0.6057721977434227,0.10907817076236204,0.09049964963507451
1.4684560277245504,0.9015961144749962,0.4801193455613679,0.2622267238399745
2.717247076347888,0.03895718191771058,0.18098393078822483,0.3193980874162581
0.45662825667154894,-0.6023994481386815,-0.506726185812847,-0.12770027779713256
1.5156362357176287,0.770303689944015,-0.7854275485641753,0.047526750076590796
1.2356207087118243,-0.4835765125979785,1.58867224002922,0.17732595004732588
0.9522657414950491,0.00047584308247716756,-0.5142290547398954,-0.6166601972639791
0.9952657789570727,-0.5017588229990463,1.9262469775383417,0.4756159157258806
0.6560241353876615,-0.5829151209459125,0.08574995647909023,-0.35118500874891834
4.528992442960353,-0.47243920588824106,-0.1902686226831416,9.529893628952552
1.1764085650219158,-0.10952077587046127,0.13209213836778022,0.1490757573508137
1.7280140720684174,0.5268348309635527,-0.14671038108694934,0.21779326679229438
3.0427547754652027,-0.4691200854239981,0.40691872496694836,0.17490972359287582
0.9379242228532658,0.2906692210535262,-0.04200586197889711,-0.35435440656647677
0.7768611137904919,-0.6450672327339011,0.07604903719819345,0.25436631118457087
1.8034710041496544,0.5021481995204222,0.12394945529342083,-0.1401976150433195
2.3567149555785325,0.2003623818131708,-0.09323462600143817,2.138467180547569
0.6908668444350505,-0.5702748962719044,1.0104119195917836,-0.6136870152511316
1.022903971549105,-0.9374468768588093,-0.07026676105619145,0.2185964905436073
60.39430589089764,-0.6859715653886269,1.8218294521591427,-0.414424352769729
3.770881972235699,-0.25810121920519014,1.6542298214435398,0.2827869128156719
2.9497636381000327,-0.37173651815731945,-0.9029528056200604,2.869363783136948
0.6463074409028242,2.263053742683208,0.013417029968833871,-0.04196776867631602
2.582046584376458,0.4928311027836312,0.3683267982318643,1.5549264151475781
2.6162602637118915,-0.6493493017384249,0.20435657244297412,-0.3890364669698574
26.27787214266369,-0.2784019970383025,1.1472688671862166,0.139103719503487
3.5754261232174667,2.00020181861008,2.4163462775843705,0.13203855967311529
9.989926530338556,-0.7316928291918762,3.0837475914750705,0.27257721327761697
1.821611147234122,-0.43117632702929465,0.2518388127914122,0.6807271671459787
0.7631903989339028,-0.5993187748944352,1.3188052255756704,-0.5819528601475348
1.6539575993262519,-0.4056351921097382,-0.17372360433352352,1.9392013086234043
2.9821562980253766,-0.4914364119076241,-0.3908416284699143,-0.2183910444669961
11.307962496615469,0.21963741523395752,-0.23325426115660508,-0.3824296080018754
8.028637106096683,-0.3955563770454684,1.0409341478300544,0.3122274293943881
2.019799452697044,-0.4668092427853411,0.5137278721385252,0.6166465770677767
0.7548394829430063,0.19559540339332093,-0.5093857096131581,0.27011015094213553
2.437400635250253,0.057067361236109004,0.205296682588759,-0.6157480372390722
2.91480938904822,0.026974714805070965,-0.13672723802046916,-0.31842679710332056
0.8787984378641334,-0.9177159864776568,0.7934997664830379,0.9546162697209515
1.3454091198318787,-0.43281966030684127,-0.10768456633619639,0.23784956593533413
2.19815323759786,-0.5251926312513935,0.6709119480397836,-0.3716062584392835
0.32075993933047386,-0.9249048913584423,-0.5546307856258765,-0.5358862275907976
18.223768873431105,-0.009588256648863314,-0.4046659414110664,2.3179353067218127
4.872426629106555,-0.3758202309643739,1.08072923544644,1.9832068011541932
-0.032822411916070604,-0.2508855502931735,0.044312528721919486,-0.50940621575567
3.2748483136360305,-0.7268193960771687,0.4067030574541648,-0.6493502534016382
1.6696536283753525,0.6387733768598955,-0.6306853824730567,0.4549015050566012
2.8231756713558953,-0.5419575556350367,0.6997269628524467,-0.22980372109764147
1.0896324539225586,6.240887447498178,1.5130687918498387,-0.44372922192848474
1.0809453652053662,-0.47146638286309983,-0.09171406928039616,-0.38851673540135134
0.8954573817501077,1.2521396881242093,-0.07007094713793471,0.12423521385189917
2.161628985574479,-0.203894804617329,-0.7830981574687954,0.2839614444573222
1.3780599718929651,-0.2565010337259769,0.6797100709537032,-0.830375090825026
0.5428251117620322,0.6381147673421166,4.214676550535805,-0.0526457335958338
3.7125652647661846,3.927367008988149,0.08446197565776803,-0.3846321745718254
0.7357669430171945,-0.8074477764634997,-0.21179143106074916,-0.10674129165800716
10.009326401333825,-0.5713405580070627,-0.21399187192387525,-0.2704606245532136
2.0602490543035845,0.20511939566173387,0.05433480500429555,-0.3775915094349004
0.8710310800485785,0.20240182487898406,1.5653847410468398,-0.8113203060814673
3.9367909183505088,-0.2921552231970165,-0.1803594030369906,-0.5772754336049126
0.3051247564661861,-0.6090379281992062,-0.3465301092005808,-0.14818951030765382
2.9304961504834113,2.68370872653662,0.5544673521546384,-0.21565164224671396
2.2892957366695907,0.3540508326955112,-0.4364399533387777,-0.4147606743792701
1.73650826489934,-0.8373168557031895,-0.5051937305156188,-0.5835904076372227
0.35160315727901614,-0.1496752234486851,-0.0050244184445904505,-0.1429017876175136
1.009436505268316,0.31037277236274363,1.7557583021604932,-0.6123110876459964
3.7688071145733266,0.6502651320217878,-0.011167092205074725,0.052587841766296384
0.6644830298874542,-0.09882258489743911,3.6701500677866807,-0.44004393609064874
1.37388257123914,0.6707105572080143,-0.18410516798760956,-0.7606387274165923
0.28780114464412243,-0.24758743255584714,0.3122950555071522,-0.26728716997936963
1.4375304896063987,0.22949958912905344,-0.09052671064353146,1.9593516794076993
1.5791861597631316,0.5767033119983915,1.8397197126111577,-0.24909201219003196
4.817989433641364,-0.19774454020928744,-0.20933111722486752,-0.24135273275918667
0.9287286618602208,-0.04906042112535758,-0.1181464123282443,-0.029100409160090934
1.1749996795128115,-0.2062679908687438,-0.19523958817886644,-0.12991101638142366
1.0513982870753638,-0.6098294623139704,-0.1431373512517924,-0.4114195621669853
1.336416980783798,-0.43880929600814367,2.1188986816428597,-0.52289651308821
9.298044773011222,-0.6298089674112282,0.03757838725988649,-0.08857696835346152
7.067222812778509,3.067005464858398,0.6475389964498703,2.7951434879737356
1.4843886119993872,-0.4465652669747362,0.0539348743091832,-0.911721283556505
2.704392919239674,-0.20450215537763128,-0.17490237989842206,0.22598580158670623
0.21671724857282237,-0.4728782340212536,-0.01122287284576029,-0.7439646881020343
0.6834570695014834,1.1116096318153383,-0.6783095161299599,0.2531608002149981
1.4674091643926146,-0.5717568645903612,-0.5833362785129379,-0.30563581799509987
4.078261879642569,-0.8840451907528598,-0.8508759563941424,0.11402368947637709
2.64042336419155,-0.9700273741740605,0.04142161998215044,0.7588968382825974
1.8826408779878334,-0.08316668449386588,0.05056108611434551,-0.5556811643996964
9.510475583906926,-0.3870377216374531,1.0347497825398997,0.8544194863975665
1.8527587910466248,-0.14924773486916287,-0.549530922983413,-0.26626721819029686
0.0844841604646609,-0.6003699017583795,-0.4346133421280386,-0.7751803453276633
0.1506220258832982,1.446586540549112,0.5266653169113233,0.35068816488028043
1.2215594184761436,-0.5323984511433318,0.2910812527853115,0.4743107313487176
0.9952396353557567,0.17803891199658062,-0.11979711630605161,0.4067091258162301
0.6412823301698996,0.11607312755501265,-0.6911702206320188,-0.5645609185722047
0.32537925457085715,2.76941969489748,-0.41846022418629447,0.4373013051356309
3.233479823001405,0.14486537152316892,0.7771733748054994,1.4961626646174082
3.0996612458556827,-0.8749021113631275,0.12822285486471485,-0.39028866776981674
2.518860551611693,0.027005239466371567,0.9992150244479705,0.45227856364063257
0.6054719635738566,4.702909218808418,-0.09333491785760861,2.3592610136708667
2.0978802559585596,-0.916415480224135,0.2062346633987422,1.397213002536816
7.43221266735971,-0.4103526858607559,-0.2447018320748895,0.1721096318782147
-0.083705449975219,-0.8129372434946434,3.05217561188042,-0.02525911343773657
5.273451543298421,-0.5378430508516219,2.1183002613857314,-0.3475574076996132
0.6881250110532253,-0.6541658265609032,-0.913087373063741,-0.5975839201714388
3.56598074938488,-0.40524911098541894,5.194459945437422,-0.23120401844914118
1.189606660061405,-0.6596552662670176,-0.22399910959646596,0.8768490944402945
1.4740125413094587,-0.5207208300127566,-0.19878066414433992,0.48504537105071144
0.33990947033497165,1.643747538965906,-0.053519012517661446,-0.5748722167218567
1.4238110393793693,-0.41613999028364357,0.15470529531845534,-0.10603683879230186
0.5879277849796147,-0.11924908466023254,-0.4340398302556049,-0.5522519385328588
3.88897235983948,-0.43102388752207677,1.180351002614402,-0.44073172770574365
1.343656012676242,-0.5839644171190125,-0.3327413550123042,-0.3378264869506099
2.2213291269494317,-0.13217091051257013,0.3075318020482254,-0.7039498212932169
0.8987110650834758,-0.18430241371689926,0.5017732067927267,-0.2858642558115594
3.0402864584393745,0.10763298689848755,-0.2931392429612454,-0.3280679582420455
0.23339411286395406,-0.5725792659489684,1.353293908618309,-0.20421494290800646
1.260118918697891,-0.8395752004632632,0.6252710456056612,0.11362703302085086
4.7033589774861015,-0.7419601873823342,1.1974122815137336,0.06458646305035431
0.021125203670852244,0.6282528300054926,0.6125319699492069,-0.4848100411698135
0.09190351086855997,-0.18274147843271482,-0.10093786998122567,0.5723125419889263
0.8588512947493716,0.014094858298866697,-0.3902411145779825,-0.6986537062600747
0.18468776788782093,-0.7090621042950653,-0.7171575469563225,0.6195233309110484
2.235351749397989,-0.19784033788093314,1.0128937239325424,0.6095055043365707
3.2269030646886243,-0.011879693251680812,0.21459584353180827,0.16494835852339218
1.205612121252618,0.3253079326994941,-0.2442395493070959,1.2660268531051444
0.5972802058455389,-0.1487212869925023,1.4178701071950512,-0.4142390294087833
4.764720737125614,-0.30461032316392733,4.812187218629443,0.26502965162015757
0.5814357454799128,0.9350675124959051,-0.08529972817176867,-0.629988115929657
0.35811273622484374,0.30809429750032,0.24167288301347511,-0.5960459764284973
1.8192228623471842,2.6859644277947288,0.723908457264997,0.03742197812130699
4.356133032906798,-0.8484967750338618,0.8291098466722693,0.1516846133466836
3.287802264701332,-0.5185754487185652,-0.7049565660276902,0.5678384923191002
0.48038379654265495,1.3141770144656384,0.023272650180396814,-0.8356206725152278
7.336232589832013,0.455253343367636,-0.5424012982370485,1.9670035548846072
0.4589111670405641,0.6199527123904303,-0.2488369699050983,-0.049407201380479715
-0.1388923377781528,-0.31482823827744044,12.026314325213594,0.47950067152775566
0.849865879657937,0.24989930455839726,-0.6005281611074642,3.6223265385876795
1.2167710365791606,0.6578830619475711,4.274901057865063,1.1228372490352818
2.4961553994066783,-0.6664828701769663,0.6902884937656644,0.4557014007173057
2.1014576595114525,0.37070326073583226,-0.5385640921203738,-0.3427504433109584
0.6550219495535787,-0.6647498455607814,0.042035515201915175,1.8287577059270128
0.6151654331534873,3.195082226023949,0.2193258561961331,0.6683825450642498
1.0854822086832732,0.4624837642922808,-0.3487850167901221,-0.30866036718697754
0.708507606288941,-0.14026344454473216,-0.3473390247250716,0.5145534955686604
2.30404531494875,1.1692557538058699,0.4862007031201758,0.35718003336669923
1.120459914597482,-0.2915383865554452,0.13474637339384188,-0.06906106873749518
0.31663608048466463,20.39220612793782,-0.896511985264459,0.934940831077425
6.838166066448968,1.2946593574291887,0.6189408080058629,-0.17513732160014883
1.123924221139561,1.6635600966325903,-0.4322777950851502,4.20980343465901
2.2638663860141723,-0.18766810798074474,0.7624744463362727,0.11307720699784696
1.049058182147435,-0.6300021181613731,3.000883272172728,0.18415150339923803
0.5585222328900132,2.3931290801020064,-0.3838310952098539,-0.007774841038130531
0.7288431697435884,0.4623324373002631,0.930973913511125,0.6979184591310565
1.504479034417853,0.3066412202274649,-0.3624257750121206,-0.0619782345076747
4.018886266314974,-0.5081612505524546,-0.45375757175176956,0.4069920270208913
1.9365813517341715,-0.3081030751612417,0.07629417041848141,-0.7726591622128607
1.0097437965159832,0.3666308172407402,-0.08607896121361969,-0.2113412483861059
1.7225725135456549,-0.12785776400385174,0.7553729155223565,-0.21429996266271523
6.912341574030453,0.4381889913717427,0.4571845872863798,-0.6788265443130636
1.2090222548272545,-0.8032066965285286,0.18464719702054389,-0.20547995683631526
2.604428727808108,1.5682948484861106,1.3618329001001652,0.4671603299515854
3.6548060889952554,-0.5859686281206727,-0.24370012257870932,0.774122783780073
0.7513320170747968,-0.6341305320236481,-0.02723714694023549,0.30589736139121637
3.576482359604298,0.15838056829467773,-0.07213325302976092,0.9543038312796419
0.06391943289397384,0.2805513517073044,1.9146676421083129,0.13509226502301708
0.5021648721255463,-0.6370858242410451,-0.2383893346502569,-0.5756128487854781
3.4619508951815128,-0.18488162014085585,-0.5468173049272498,-0.4485090038255942
2.5073573023163416,-0.383787227639794,-0.8045222282133415,1.3587545313181875
1.2809409039121533,0.19798511246273764,1.4982877094829816,0.29188489662250583
1.024117354940779,-0.1881965828394755,-0.5389596794278014,-0.6997837500552556
2.201046235395937,-0.33577643999956985,-0.09416234240621302,4.0897676648630155
0.5895110032726754,2.6126887329508603,1.8207618590046346,0.1120301443972389
0.2527650159356518,-0.36665329239806077,0.3242682195948867,-0.3696565463358882
1.3337006105419986,0.4935410831723943,-0.540649688198277,0.34303186896446447
5.108925584904425,-0.47651568557485147,1.7821902248723567,-0.547882773760236
0.7614743801381085,4.8730177508165875,0.4018270070850418,-0.48390917365126773
1.0603925649957824,0.4019233704275693,-0.19252397440163949,-0.06839028338555286
2.170002495720085,0.030338139880957904,0.1458983539878982,5.5419691277440695
2.1363860209145717,-0.7320025671906084,-0.5861350329948907,0.8844350317712486
0.7722063645552797,-0.8353627700338551,-0.6806534652192955,-0.33052802965220573
1.9930224123983025,0.21531140101533075,-0.6010523060278947,-0.553607244545459
2.3465737203007135,-0.3894274181274058,1.0352014390469138,-0.2533560297284212
2.8724054265919103,-0.10943201730757168,0.43257476137821227,-0.20920364258039092
0.5792759549198674,-0.5794423796241877,6.208552568599993,0.8247206911051383
1.9518054755186611,0.014047189160215634,0.5988932621783543,-0.3645351821690471
1.7634111636693142,0.046717590181762025,0.5999979989452058,0.78097667264142
4.44732196167682,-0.7240300745956272,-0.675856920974841,3.205932876546423
0.8913388179864941,-0.46541261642982146,-0.16452232449218196,-0.5025938642765655
0.5539150975177087,-0.5548250588156296,0.2946416818029707,-0.16147716901671805
1.9578988451238724,0.532846794667664,1.8059243992734237,-0.817532559596281
0.19390796658603393,-0.6951015367001261,0.881004864421526,0.31101019480049175
1.2442251986288801,-0.5468053314349327,-0.7126181703319718,0.49561857581423086
1.4776136130227147,0.018890460280554633,0.6338416366711201,-0.3912021377962507
1.9057227312031135,0.0762255748509213,-0.15038330670347344,-0.5653788547511981
1.5850288634390397,0.5434066755973401,-0.516462640200142,-0.38097850524191323
0.7588945473936897,0.04611242270775695,4.572882305150783,0.8873281604957124
1.833704105448294,0.009935288111740936,5.60308018168349,-0.7687875139134345
13.960082146334313,-0.4683299496726052,-0.012798017484620616,0.7778657631341948
0.04724388441616245,-0.9382246365369437,0.015409703449632328,0.9497915663367447
4.238628204120723,0.0025486412350108623,-0.6924040851438054,0.38859169421194295
1.767599261027069,-0.7351397704670908,0.14038282615922437,0.24477314951864315
1.8009751275183672,0.3855038214136923,-0.3450880674643375,-0.13904409888123026
1.8266499568034043,-0.9520734404451751,1.2202671253171347,0.1418747003202585
7.415934304594851,2.105487176810566,0.7371416572122176,-0.3662213643516711
3.5257513342572473,-0.7151443200259529,-0.7630512230403534,-0.06274550859574146
0.768941972322619,-0.24733628599144641,-0.8983485972336318,-0.6148229547288941
3.3649882084763947,-0.3339728975167091,0.16575957713802536,-0.29882494267975424
4.0117027286763935,0.5022992519204783,-0.09986029587887746,-0.36604992011412374
0.030397257371603592,-0.3293611088021198,0.8622525706056126,1.4948213237432402
2.4629173225572867,-0.15697650026298027,-0.7730137909040415,0.8098060768002686
15.550202584231126,-0.24700968956758818,-0.016826442925451546,-0.20750179919409129
1.1999784810562755,-0.712577000733444,0.6483830431156501,-0.31783201806371697
1.0722863549084645,3.067667310329634,-0.0019626536494320446,0.040755744487634304
1.4831382060586074,0.1847594902471461,0.2633851217010863,-0.04491970212461627
0.6751465794523641,-0.0007951020243819329,-0.10142046462398635,0.35371772366638554
1.0197590783152868,-0.7393729027858923,-0.30229971963576674,0.08332887658865862
2.599604347444501,0.7406103203159793,-0.672070424871453,1.7881584345498083
9.842042440210475,-0.9292292575602912,-0.8000165765006593,-0.0594930455396413
1.275890076746808,-0.709768604989035,-0.46031728352921164,0.34403416936399944
2.5307383058079926,-0.44073824736991574,-0.6855619620409693,-0.4727829582048435
1.070740888175791,-0.5803784293516072,0.5472792974857215,1.9099495450721826
0.9938480930128357,0.9818655827311737,-0.0029597680123943926,6.291104977883341
1.570386179482821,-0.4644353336123569,0.8229719040857943,2.3131612832367807
1.811159091604174,-0.7551218513382496,-0.4795139956725648,0.09962512993723838
1.8671475950397753,-0.2199871661414995,1.960201935828131,-0.05082051788910147
3.1473375536373522,0.9095720395186386,0.9753384606172313,-0.03524559285236395
1.7359023747135698,-0.6641034368626251,0.5813329372791525,1.6351740587115597
2.2556110849906,-0.5404098416250332,8.65112516220942,-0.14049821667430074
3.385014896288739,0.543828365192667,1.5008545193485436,0.26111435335662736
4.223784258886388,-0.03984722712137079,0.09088674127362584,0.8255546851341651
0.330117019270328,-0.09242586985427814,1.7051161743349201,-0.16596244887638267
0.6365965672319669,0.12576807267576817,3.693875575301141,-0.2551039153376623
1.4544157989586752,-0.22722748707617835,4.286473510762214,-0.6105954274900303
3.175464903114981,-0.42396239215875586,0.3778829311920995,0.296112453020142
0.4028251061724024,0.27205190725118356,0.020911300433241742,0.30865086444584366
4.153492447002699,0.20387687978189328,-0.5664812612088101,-0.3113971007435834
1.1675499388016286,-0.6187674485452153,-0.5577416866770142,7.624593569430262
2.84934071187061,1.0399520175207586,0.1960921488286318,-0.5184541235764811
1.2409986919360785,0.6907799504107113,-0.27197917904470426,0.15715517084772435
0.9214109051980448,-0.20143569356617907,-0.25013075334099133,-0.33263930434991973
0.7647173573400681,-0.2710027993744585,0.5857481163966778,-0.17253382393679606
0.635902458268311,-0.7442652295541453,0.2187381388933518,-0.7227971010336534
1.3523381428452779,0.013394325767161375,-0.5053965649717354,1.3078921232175622
2.2310520967235807,-0.12016872522411248,3.2847961816304547,-0.27189617084059037
1.7767211112367947,-0.14630030234084657,-0.20378976108291325,-0.224060504706874
0.5693434745482442,-0.4838340613850849,1.0172466327001253,-0.6178379341710551
2.1280488299585643,-0.5696613267248681,-0.08565855371162912,-0.43575651583957553
-0.009759027180928026,0.12961155022843052,-0.7816477665870536,3.5611482569822464
1.3283179184864942,0.3612044922666231,0.7685971816972361,5.184447242397039
0.32236548783350405,-0.6474992034959091,-0.33921911166579244,0.15381864564463466
1.324878231592984,-0.582624558497135,-0.44400620430165916,-0.1232602213545535
1.6510385970398298,0.6010432033865314,-0.5306209241687099,-0.6311088191243782
0.9912805336450847,0.062149593222822874,0.021427633926280887,-0.1518603136809682
5.333923511578901,-0.026940253225783195,-0.25826298204886977,4.681582263414637
0.9057263980973156,-0.3355382944533344,3.982524311019894,-0.8100431164904763
3.134430831105446,-0.44175221945056486,-0.20300466371582604,0.8288872316030642
2.7681068702533107,-0.42428539922936404,0.15132610927725554,0.23963682330551084
3.993038554546099,-0.099825703474405,0.5871223399628387,0.37834004630729434
0.3445569559296382,2.2049052386510954,-0.7688293660516639,0.09806539146974291
1.2176809989800916,-0.056827321209276915,1.4113179352352052,-0.3111440186164347
2.9077667650251695,0.43647746206921845,0.07666579469444468,-0.47549343760034146
2.849727252728207,-0.7643477275873864,0.8934659938832987,0.31009075183738055
0.9395031571046701,-0.703001018378963,-0.489226632409998,2.6310516551757854
0.8798157009130496,-0.3678537943444149,-0.2560110212077943,0.0021035349418174754
0.21828858149556152,0.10547366383559531,0.05034690369768491,-0.5494413865911815
8.85891006146062,-0.6081279218807444,7.062180788047627,0.3395124727678609
1.6413611455633168,0.6166611606536074,0.16446387678826113,0.5936187032131857
0.9293325123671115,-0.5066291036691819,0.443818319729685,-0.5180388685039323
1.8995787443695584,0.06107663182905987,0.18587467649861256,1.423882682131358
0.5349029808573982,0.19985637802739653,-0.34479113541255046,-0.20925845764165507
0.5816350933894376,-0.14536786703387106,0.6128794749197399,0.19061805005551946
-0.07059927846376346,-0.4617587335320885,-0.6563911571887046,-0.9882168777936885
1.5927228882625912,-0.1568489284920086,-0.1171291148747069,-0.07127893947451502
0.735023943779402,-0.7779875179224313,0.4737339810052372,0.10958254167077941
1.553170757411725,-0.9131143222948654,35.76709012298689,0.2333791148842599
0.7010978397526753,-0.6623285220967705,3.743160612145487,-0.2625500627965248
3.0837755398413265,-0.6216820085930719,1.4889982248037614,-0.06855091973307137
1.8242788094908016,-0.4595412623440711,-0.21665519158310664,0.897341077113395
5.518448422761876,0.0874338751452235,-0.12506643298901465,-0.3841195424564464
3.051947145753255,-0.3964568291828685,-0.4792094322053898,1.1308698289015502
0.6068770367206358,-0.5835881011539434,0.038259127792915404,-0.3526097508656032
1.7392274640111016,-0.7816992640722725,-0.2560388030300449,-0.6036865109609046
1.1883070137233789,-0.2918109726587865,0.33989309591081707,0.29802105701787895
1.4536265654405227,0.565666901782998,0.306044561283326,-0.0895982022918409
4.847330384653231,-0.7315129408866203,-0.24996944715780656,0.3927783051829268
2.446443939780131,-0.4008137609017566,0.1648839024478197,0.07619678686587794
0.6497635477998656,-0.6630663447396004,-0.05957864830534665,-0.8680423091597957
7.126576555689196,-0.15415994506617103,0.9355730890501643,-0.7335551833124545
1.7626894941861688,-0.1854670662748863,21.126028799711687,0.32223007672401316
0.21918598409216883,-0.4015438312073041,-0.07115169287873924,-0.7902751081150261
1.1129855970459657,-0.5482242973649072,-0.7726686619187824,0.15855606119075616
0.7885978777790879,0.1299763568666905,-0.09249517708354726,-0.7718624211909917
1.5879556606688103,-0.3345284412712737,-0.10991292857131907,2.1394876791826127
1.1627120404902787,-0.36681382967744625,0.3756518491153851,0.37439170787657905
2.7314450019379,0.6690207465487217,1.2380045409245612,-0.484760949234894
10.638944439662174,0.4233834680490942,0.4352176433497086,-0.6481731846439408
1.3765816530582278,0.9465768668547978,-0.018576356536906258,0.72251482462164
1.7548751796961715,-0.5202308476920974,0.47533215456251776,0.21864883556209547
0.8408090040881384,-0.6604390981231278,1.3371920708200329,-0.1921297913730694
2.1081953392709556,0.25945400807040353,0.2959032411190523,0.02911445834555204
0.964036375149586,-0.17994076062323172,-0.7248350126759493,-0.48820603637374016
3.40754454376469,-0.412043161446634,-0.051521893795187124,-0.2385070520857332
0.5924114741224547,-0.13572698128787386,0.18144061169117465,-0.18991334013620853
0.24528164245508322,-0.37533713128337387,-0.9673702275467674,1.7724670271820395
1.4749950949062152,-0.6819429938353452,0.4605552748380908,-0.6275145650153702
0.35456427996567585,-0.6165570043310041,1.172956336841609,-0.12073737308096533
2.7464805335321287,0.2566732621272103,0.07467324729752045,1.7815802687682196
2.3949021823544783,-0.4832218211693715,0.11750784331954667,0.45806894555064326
0.4768448150772193,-0.8876037776118342,7.210719711021397,0.5663732495672067
1.2848415753220155,0.8581569917880554,-0.25148309818012704,-0.27999826868493116
1.4824742672551396,-0.37033324946692725,-0.8658269484335179,-0.7620908395919762
1.7583133798245818,-0.3007447380483719,0.7922570567908727,7.58129375763227
0.5995942874303799,0.4873935246467749,0.10422193925327283,-0.20124130561379028
0.4969393258800108,-0.3724203802260103,0.9551516691839759,-0.37245650567527244
0.18526863182874154,-0.43171925813788425,1.051740612862524,1.1892222408141242
3.6493152246113842,-0.6724443019069022,0.4918724889225934,-0.6222363829780904
0.2930337930656175,-0.1584198973905132,0.6295731057659306,0.01178031660023815
2.2537920612663074,0.30354183768212417,0.2239325160760659,2.905600033500437
2.537953047324986,0.06845553525862424,1.4761508681140905,-0.18156631636908616
6.203962626137827,-0.25831501277758273,0.9596980573723009,1.4100283060482481
2.12737181113888,-0.237537795881958,-0.23621331841699955,-0.703656329652196
4.254241496437623,-0.2937432192337396,0.8516575015837298,-0.2020863100662852
0.7387860951299812,-0.13522036987466157,0.2740157648910979,-0.15051581214952092
3.922445664136906,-0.22415704812302517,0.7739916686727095,0.020034521388368365
-0.14967273858763186,-0.4012590190190003,-0.43708462320219965,0.39419540618712023
1.4968573735774875,-0.48828812666299415,-0.43006024086370376,-0.3432772758268773
1.5280073767363165,-0.27010332206411003,-0.6183172049138702,0.28806870373688187
4.826308671307846,0.47310813915047634,-0.07152597421564089,-0.6125416707600928
2.443700035198057,-0.3648328691272976,-0.30265247157526776,0.02713024711168499
0.7074716926303477,-0.5403117502131544,5.059170868330126,-0.18694747081220153
2.460772438177433,-0.3457340455059571,-0.6470758417076772,0.6493639027808669
0.7527715761507754,-0.3162853188063346,0.42872239464591133,-0.8232621808340794
1.7956803359994251,-0.3036093799425962,0.017047679900161095,-0.04071227789034226
1.3037928040436562,-0.05196741217800338,1.3794917456131826,0.82550960175514
1.5562289650082048,1.204137124870729,0.17504686396495162,-0.19092136628468703
10.182363880629486,-0.4775319156076233,0.2144417959261289,3.8983574782795225
3.58623006968351,-0.04259354507970736,-0.23189561261009017,-0.38405158993491584
0.8520992015817106,-0.422818484443095,0.01028374402231269,-0.1598137192611232
2.200796035392098,-0.765448645447275,-0.3397875112529547,0.2886611880802472
1.332228984940702,1.1290638991258852,0.41452548744359063,15.063955580014802
10.087228646792456,-0.8251591463262493,-0.6163884879658361,0.42506277189570074
0.10549106841694811,-0.3868445988353588,0.00955535550589559,-0.5219951300639656
1.4570859270777108,-0.1987300675617527,0.17678070181805228,0.5436911097496244
0.4684726109493269,-0.39486450988577393,-0.3972610366596103,0.23324417906951433
1.2125077746228792,-0.5315529449394939,0.5623077660839715,-0.5412859356925738
0.4087592985812234,-0.7728941325556096,0.5921416535898414,-0.4237426307938551
2.8385373353041894,-0.23161297621504184,3.0329878971441353,-0.45934196671439986
0.4598500661039058,-0.5720248118525388,0.03394885338479381,1.3179048633007628
0.5831972336016176,0.6289959710492126,-0.10876762409562069,-0.4653090323139497
0.7127753720908163,-0.322306231703127,-0.2774822153536992,0.868335232356642
3.3292395316167456,-0.7173759553346811,0.38276351507951367,1.1693598083920986
2.2925428161688606,-0.014301394511137766,-0.13057791811954433,-0.4042997874777903
4.066330758024619,-0.0214103033489782,1.2152553671914021,0.027703799834852827
0.8914119468312898,0.648366224374954,0.5820268522206986,-0.04210451252881664
0.839038498956374,-0.5385961778702282,0.15450125864388742,1.4429027122115206
0.9158973170526812,0.05482851914836684,0.41447457347200856,0.11885624868277622
0.026854986476675613,-0.42364701585232667,0.35754297866697526,-0.4806761792912252
3.892491520088581,0.3347803211679008,0.29310009798093617,-0.7802372066127135
0.1888958919790662,0.1515021933451568,0.2999632105815393,0.8742980888656107
1.0609677102606008,-0.21299713109547136,1.3988244437579769,-0.2976858071393542
0.7620515181803236,-0.21446018412262968,0.08064938938673971,-0.3892552310672599
0.11136095623266473,-0.6038537982662593,0.17817670374168215,-0.16024939131988558
4.587636954834857,-0.564885809387982,-0.20694241369543676,-0.6937060639408736
0.7531882727523422,0.16640363749708587,0.45271513831481736,0.4576002029583772
7.4233842896769175,-0.676743839016233,-0.5909738055529468,-0.22516902182141196
0.29819462392564766,-0.29010853844177065,0.5504401346604433,1.36577688743166
1.4557666531917222,-0.5825224413453163,0.8119207531313544,1.1010368073117802
1.3722215382500984,-0.24354600266151183,1.6166179337095254,0.4791824479326183
0.5344662652624921,0.7572841199986711,-0.7645575362520765,0.7701418114428051
1.2142502965731024,-0.45872824521437794,2.007117115227905,-0.5321021180793817
0.9134977584471284,2.398899336170293,1.2588369868158984,0.8218711526532669
1.6632523287378476,-0.33258882624314123,0.5142212188554214,-0.55163275764741
14.007628615525867,-0.49699166973693654,0.3630565732402331,-0.03607905482003382
1.097131024658991,-0.6173690601157343,0.3530592414325411,1.8754179397776518
0.761516053575398,-0.5970764808016757,-0.4478125669646337,-0.14962505938876214
2.1331322709494533,-0.4129397720111496,-0.6971357256271976,-0.0016910415555172476
0.056678367955229625,-0.4707209315858458,-0.25784183570473584,0.28460526596335356
2.4402797638286446,-0.868080961405949,1.8370221717854296,-0.5322785913198629
4.817866330005381,0.17123472096599546,-0.29359532048279313,-0.29707648801233355
2.344863773329329,0.08500530931749006,1.3117255624557287,2.8815737337788323
1.4820770191053172,-0.5257396433454431,3.8572769001786664,-0.4310502508951888
6.857003791370078,-0.5343567682072603,3.4849255923555527,0.029547859173088664
1.7648802923999463,-0.681070427632762,1.19284756124947,-0.14200005596302445
1.4973646883644571,0.29972060254259203,-0.009896688207808313,-0.3639340112791325
0.8048971637988087,-0.3657060430871556,0.03925527668901463,0.10362392639496432
0.5737548220399851,0.8119994196033882,1.0385960190491463,-0.15141357980008285
1.0368273454172865,-0.07511278638949814,-0.04385401161061986,-0.01896229987869258
2.070466900587708,-0.3909354656652132,-0.35200722089285763,-0.3446754375823987
2.3030563642601813,-0.4942946470056284,0.10776293638039003,-0.30162945492902826
1.1782014785186496,-0.39804150390502724,-0.7221224098825223,-0.757095770361172
1.0812943405267115,-0.587027052660852,0.7533447772921313,0.4594420619583861
0.6491719827241429,2.0904147500701256,-0.5465699646527775,-0.2119345026901711
0.08487736615998198,-0.3920564554674064,0.763831996451644,0.5426141939722708
11.018098312779562,0.4933691717314592,0.7842432668820862,0.19081393585346484
11.0575360401777,-0.2621798674767579,0.4077309639735551,1.4165613895796416
1.6896553543332367,0.2087749742279419,0.5834470627308397,-0.7809318954993651
3.2869350694366837,-0.40626986234801576,-0.2704392994784226,-0.6029402436820899
1.5255572518912186,-0.8767276094301125,18.16392479488036,-0.22756525234662317
0.7412951090822213,-0.40103382264226484,-0.1541936953706995,0.04725172988543269
1.0106828772515342,19.068147994407635,0.2911421701154182,-0.13048365657579575
0.9148532076506435,0.43866592321029163,-0.7235307060329762,-0.566000292064859
1.0078508747099684,-0.6222309006920587,1.3653551439362213,0.7048403161365215
0.4179360116178157,-0.308371185914329,-0.4914406091363114,-0.6215430931553179
1.8922264995290865,-0.3626862719048385,1.5127554685047833,1.473737596573252
0.9128604860048997,0.016394714244796216,4.957329947952552,-0.0737224976767108
4.136216404036229,-0.32912179509308515,0.3661861950589298,0.16989641627025298
0.7469878065792621,-0.41889063004295646,1.1169249725711867,0.23095665328632675
0.7275048222924936,0.6715840746115533,0.7196358975730819,-0.17140878813763838
0.9143501434854948,0.8969834749100045,1.1677114943752294,0.6371741556966644
1.3244846356051347,1.1632928054244247,-0.5401428006048629,-0.6102468683965002
3.3371411326731417,20.148239761668908,0.3088452126625072,0.6350867997960288
1.2470322752857772,4.634957498224857,4.865531859152985,0.005315397444981107
0.5196453842672406,-0.6802485993285134,1.70977776562566,-0.10517717761952661
0.6940397256553019,-0.8722469906057144,1.960023193564358,-0.15831790971620974
1.143634176852057,-0.6150602248910083,0.7623899854969942,-0.049361110508366
2.290511255173651,-0.7955570483252347,-0.2626636020218148,0.63288603205249
-0.12861785684447802,0.2900012888311707,-0.7425981037429306,0.274919751095577
1.3995387214050465,-0.6609465011443493,1.3981614834842038,0.023108781857727134
0.24855611890458418,-0.5613462556580313,0.5090619712104147,-0.10520103339713593
9.088253330444259,0.40479760078722493,0.13855862066670976,0.018996442140891467
2.2311629729387907,1.6150834631568993,-0.15430244188658948,0.23238577496536283
5.768856803982105,0.7610851351996668,-0.211929554320622,0.5738482179638975
1.0945488045135843,-0.6828512902652862,-0.19527045918977048,0.38666590980615045
0.8709991187897526,-0.33648721516425006,0.9998427357730595,0.030220519418239
1.2349842570533358,-0.7243884873919344,0.3854710275936417,0.5756021065883425
14.148633322760967,0.1015250337301552,0.9424138977178433,0.8600882663399587
1.345882729039349,0.04324931822678724,0.05027344195783101,0.4274389732070625
1.807082334772307,-0.014321255887810858,0.43134026485099475,0.32517699645085485
3.6032750708939547,1.1420866041132878,-0.7490295128106148,0.8345846327686024
5.126752045542899,0.2916860788958744,-0.6677678519422345,1.3132641184316376
1.9124515002614872,0.22213238149011705,-0.35554931578459625,-0.30862157367044263
0.7160776670971545,-0.22669330492240702,0.12438304001478873,-0.5183379321241917
0.78117651316822,-0.2962113974574002,1.1006240739503412,0.2018202218329621
0.3821148025949459,-0.5807507172633668,-0.13678769108259103,-0.03615617541888305
0.9339349994980815,1.5705199420110794,0.4290455036297982,4.681937178595612
1.6315920833283695,0.575573018263394,1.2079742117718144,0.12457467840034075
0.6860740733615054,-0.17181571532672757,-0.21459231227352926,0.023461323720119998
2.8854470504824516,-0.6228326156071462,1.1552986859355685,0.4057077558029236
0.3790156237104032,-0.5583717725994798,-0.3126509645127198,0.015913632950601775
1.3783013118077898,-0.03696065950563898,-0.3455338212822959,-0.8396121417104092
2.810057564160418,-0.15425597949561365,0.6802732488699952,-0.6102643661151378
1.1440895079128768,-0.3339364416362337,1.4127545555179188,2.0245939703882785
0.8174306939524036,0.8549908450205299,0.06874330204337675,-0.3728495742761003
1.313193869268395,-0.8643202191668732,0.38048887685380484,-0.8016565721463434
1.151192640796066,-0.4253603387112761,1.3965894886936727,1.2401263541716938
0.5550747838377312,0.10409987292490741,-0.535878348094665,1.8505388565155472
0.7255183296314354,-0.2605001401666731,0.43271136631998286,-0.5091582294324479
-0.1951550770147682,-0.6585584010848686,-0.09336346087921943,-0.20141657597228846
3.1474064009315494,-0.0511113712997775,2.9720121169106712,-0.0424899079646075
4.594298870489226,-0.2420165620336484,0.15760193133860123,0.9414163887842666
0.46413243807842397,0.6000623028486465,0.42503703625510014,-0.4551915176229665
0.4676604471885666,0.5662765842840454,24.700277401332514,-0.503795014276935
1.0789415216629097,0.3828884506480341,0.5162383189388475,-0.3860172241483413
0.9657888602292597,-0.5133814462769957,1.4922941438027926,0.09976756771499673
0.7443057093320102,-0.6910401403770342,0.836991564926947,0.5573971122345363
2.08882210833011,-0.695509472575809,-0.43738173282695414,-0.6695768914121711
2.38617004899233,-0.39461034353747926,-0.290261671621698,0.7849996796094387
1.5104048496033422,0.299825262087968,1.38404626522687,-0.3924407784614764
9.1268848302302,-0.06828500196679421,-0.1186687069593707,0.7220422972112011
4.198420084193593,-0.08346663737636129,-0.34795248473274676,-0.20784535710834273
4.091444702437429,-0.6319393166289008,-0.3560175157316653,-0.21362285644734735
1.1407978408028598,0.0016218792864979292,-0.6950684482939882,0.926050373266744
1.2232413305373275,1.029137476128938,0.6890437138412109,-0.5321182439366399
11.55826988282281,-0.6013437779915087,1.9911952661443917,8.698296689610718
