x1,x2,x3,x4
0.5511483610376295,-0.5086988916616316,-0.2586722480547413,8.290667317100041
0.4929053438764439,2.690943879922959,1.4340055083521643,0.629374281297012
5.04614904384384,-0.5802744694827275,-0.36716536095574004,-0.6435406107260241
0.6293180747815119,-0.27121194809623217,0.6619001641534592,-0.3858194351438602
0.0058398132148043125,1.0825715853009785,0.5540484514442727,-0.6384083398619425
0.6204660635133454,-0.6063079975985088,0.5160601451658005,0.5545631336849053
0.5731807045953052,-0.7059391221166511,0.9844961438837578,-0.16873324315852345
1.9696671078562096,-0.20463400085307148,2.3904264540725633,0.5232273639449845
0.5121185918700379,-0.39797431600778976,0.6135830602998469,-0.6517396635051995
0.6789289647495422,-0.7913331804736392,-0.09208925821177272,-0.2147846963112645
0.36995781483292833,0.9625520128111278,0.402175255586982,0.1933504476315604
0.4867069407521243,-0.19711815564947566,-0.03061254970835059,-0.5650066055108444
-0.10591306877597606,-0.6586168565656798,-0.20769245720401386,-0.15953944886403348
0.533923023835474,0.8315122343944141,0.4516060183180459,0.8349142123027733
0.8254318214493774,-0.7716325138154954,0.10206716817350969,-0.665051063356525
0.9975514161361054,-0.4321947164159081,-0.22705481524978266,0.2566240198860048
3.9239098167386466,2.9341166756172448,0.35236733992938474,0.040198862967329774
1.8198597695701757,0.43772595083102206,0.8667624817102026,0.5646201675139553
0.49550160475639693,0.2065008290378385,0.17524139706874253,0.21978611257871727
1.969503380261584,2.4178210063728085,0.15546783593180047,0.5120424837281967
-0.1130295514033145,-0.05666970058169185,-0.6557047581792536,-0.6318638282173787
1.1078881154905997,0.10953049825411987,-0.7938234342747039,0.14565474583018467
0.6156623564873114,0.22508253192833272,-0.7147464530392832,3.125588371458707
0.1793225496547186,-0.2640922909863501,0.29829469443475753,-0.4951314734764817
5.421221444897047,-0.8104924664745827,1.0024773378950815,-0.5380565519711709
0.8591751081888184,-0.38835214675499896,-0.28170877563856134,0.25382078439354405
19.533075276407345,-0.475147108274537,1.111304678507877,-0.10423312513341088
0.628788883924293,-0.21006828865285176,-0.6624315655224196,0.40821945811993876
2.302717901166871,-0.4244930400808026,0.07008210263493497,0.5266286238878186
0.5140967592911445,-0.29610469961160224,0.3383489391769028,-0.5574596892614931
2.701526541134226,0.5624693061976738,-0.1614718908004107,-0.10813506604235545
1.5850733199502467,3.0719675431132263,-0.22807012908349655,0.6238742630955783
0.5866042137854188,-0.7917956657135664,1.207773379295296,6.789757995154748
-0.8976774714366521,-0.789287165136563,-0.47219108900822737,-0.6352074988382508
0.658107631885239,3.1240197435675077,11.808094943123663,2.4158144941303803
8.002476983129956,-0.21443398040400918,0.667766123226065,-0.3684030495064611
6.2635695891926195,-0.3194859139817615,13.187582425512705,0.5772455276760009
1.4105727455823307,-0.02420343829928806,0.8019820250754355,-0.29333155194185156
0.1975289381979337,0.6791865837289817,-0.6492004634636274,-0.39056589066968705
7.281277266945528,0.5812508656882478,0.9396363411775259,1.9707710067462796
0.6417477200913009,-0.159383066065499,1.446216509013234,-0.6145055252072299
0.7892367266766698,-0.49545341447551605,1.7104402222599275,0.05414195300543878
0.5894508499386912,-0.6924513741504806,1.242114033613071,-0.15054525369923932
2.968828087347725,-0.11566119266404706,-0.33930978830284797,0.3228238480162664
1.4132335578638182,-0.27312831802429915,1.2481399537137796,0.09273670720765126
3.7947796049893165,-0.41356389441551744,0.21837888610121525,0.5759418566064156
1.5105691584775252,0.1121110549139912,1.0893475023348422,0.15245150426107368
1.1070436685340281,0.16491996322455482,0.06040806151243494,0.22933941436765082
0.8098666770568577,0.44055369620681883,-0.18490777299889716,0.7783253881225491
0.5768027911632772,-0.39778979918077906,0.6990352660985881,-0.35533968494351265
7.598187722275355,-0.0660960636248431,0.36243101618613793,0.06604002684999433
0.9213746837213679,-0.08882355081302629,0.04344235238735483,-0.10508120430782142
0.24746874361526516,-0.3083197494546528,-0.7621793119590704,-0.0028060901708611974
0.7147856203556151,-0.2587179108588392,0.045336000439366364,3.241269716284558
3.588585673759747,-0.5175606564274176,-0.31912594458485666,-0.5442473007732892
1.985255448715872,0.8245762852023839,0.23254971046596684,-0.5603144499197471
0.5590829300016447,-0.6381588901827386,1.8186148395732604,0.004316462484881489
1.3766064975911396,-0.23261409157159774,0.7371151789879633,-0.27717908030768623
1.127923044135183,-0.013160758371171588,0.6401878795322269,-0.31673934817401406
0.7894795945188535,-0.45837140509122787,0.8086763658844187,0.548611336460064
0.7335043595292796,-0.12493855338616233,-0.2904562088280742,2.5613342347383266
0.8892851094078216,-0.49194474629191876,-0.29066077153910896,0.6824252879402837
1.884687170150563,-0.6213844236773378,-0.18064651116628094,0.20087550265613863
0.6703475498951701,0.1721426749817947,-0.5629117555908327,-0.6818136553995828
0.3078864655253726,1.1254181190164703,-0.1151973191801462,-0.46011331509885733
1.3517546121874022,4.119297892350275,2.122700658161519,0.0733717667726066
0.6194549888660748,-0.45660094626886216,-0.594618892650431,7.874905684438982
0.8718260191348093,-0.2518919209996727,0.6446400697393619,-0.7997999807598807
0.3109835289226097,0.07626432738371958,0.3014621909836237,0.59874018441644
1.8842823314483446,-0.0537962075505487,0.09378143753618584,0.15690549762766848
1.4032336174675177,-0.6836176644058884,-0.36908384773128267,0.5177876395024179
1.9328157633855731,-0.7288884249611974,-0.6837709980063233,0.009100913473301775
0.18361980339809003,0.5258395660178499,-0.3152801480296914,-0.64861736150017
1.2897545903164915,-0.12578393379363972,0.030673049323440837,0.7579134235770768
0.9066180646993252,3.221755004755198,-0.6568867791096823,-0.27410698429679625
2.251897087181815,-0.3613228851215564,0.17068571882044337,2.7554767645969562
1.0907686590032282,-0.15750708034733973,-0.18849045234228856,0.838025005675024
3.6821080533665675,-0.3436495339783283,0.9876299269573974,-0.8161993040704117
2.353964884248967,-0.406153104842663,1.8558400320366735,-0.04801889061254416
0.16826420696440159,0.0008508311015662517,-0.7377796769997607,-0.5162549105034929
1.0878283554715455,-0.5262199760110525,1.393550417663791,1.0787612080553202
1.7009118718652365,-0.3755141169378122,4.040325409871548,-0.29163495147892204
-0.30879138308117837,-0.4902915933223597,2.2041634926565092,-0.3325783634042049
3.3184499225896937,-0.23155479771813403,-0.8714472022268736,1.0856249100403348
0.09484856273013897,0.14119128282798576,-0.36859522869919836,-0.4261480977481189
2.392644705665953,0.14269953845335936,0.40517070798078647,0.6148233505896363
0.30934979290241404,-0.2220090881025144,-0.7070005664131684,2.41340952538578
0.3568277865647016,-0.2062795017151242,0.15116133873063387,-0.8256872703649185
1.0240432446136714,-0.39658566555092245,0.4923919603954565,1.083072177086104
0.3584601834717269,0.05750780755766205,10.477535217719367,-0.28498403822005236
0.30564315623338656,-0.8116568635454458,-0.15154815603580352,0.3345561908635948
0.48749139555919374,-0.20302480003594037,1.9988560434574558,-0.33887685439527004
0.8382643005268331,-0.5998875585048261,-0.19004411036158075,0.00616866102815905
1.4184452156846645,-0.1161719915729581,-0.6911918521343601,-0.29395683079299295
0.5486627543841487,-0.8008658459559486,1.0959600730600125,4.334141832785884
3.6851582887961305,-0.15269999511921084,0.12429234204903139,-0.399622575362094
7.904283936247495,1.6856256292161458,0.03763962461211734,0.3935560342320894
3.8752736466123183,0.008383879066135913,0.5927055903491991,-0.23077244148276055
1.3904875809165533,0.05056594213141352,2.5585211930571568,-0.16416620825060602
0.8043014899891174,-0.13002026746928053,0.2609491591592834,1.0119242472229453
0.8217638449238991,-0.26940908925720164,0.0648107376781204,0.3351408460878935
0.6712411818232138,-0.6141517984418283,-0.6645251971376347,0.901978335176916
3.5959521327049933,-0.46370185132085107,1.662515545783653,-0.4481841293517106
0.20917006409143357,-0.1939556796650006,2.0163461901512107,1.8780275890266456
0.05856089437859424,0.16896967999878165,0.36817499609011617,4.276055024031814
0.9112898517893053,-0.36749507633558276,1.3613474361118172,2.814053074655397
2.010840001109909,-0.555464206040337,0.490257469578536,-0.4542320320785468
5.941587529551558,-0.3052769049580797,-0.30532511920064076,0.10536506042225002
0.9507621196179599,-0.5972608190125577,0.2865198988312505,0.6536511659812969
1.1921719240100868,-0.364863238131481,2.1754887323895424,0.03902604505749374
1.5109428431840741,-0.12388164238881949,1.0687608165626998,0.12063108109370901
1.3635863891805333,0.3492457441456642,0.26846037054186467,-0.1611101579052483
0.7132681713848703,-0.6965656953627539,0.07396193366082504,2.07065412266405
0.3099228482738172,0.07296425852541333,2.5950249585566922,-0.5342547877926935
1.4128929931332972,3.7749467038643667,-0.2936351756900558,-0.43295311630363165
0.24735518091443054,-0.19067138102710868,0.25378149591078114,-0.30687625800043583
0.1735361804046096,-0.6179020326726249,-0.15799366454947827,0.15079798440913894
1.1194204514934638,-0.40257330904110256,1.657881405181472,-0.5520977576060491
-0.0822103645383444,5.287853298121018,-0.1111186285366419,-0.40696572681512555
0.7227502976893079,-0.3305554117826339,0.39485198796015997,0.4892005500480663
0.5938950162157224,-0.5527561471467474,2.444223181821088,0.11620466835501042
7.045725218201227,0.21757632116140124,1.1896709018888454,-0.20407833786099494
0.4134090219614568,0.33140714206326694,-0.3387720164689315,0.5859424666997624
6.999581312879704,0.806231085317012,-0.37080943265743116,-0.17730233425698938
2.363700686470638,0.21563960188899434,0.7048372613785463,-0.5608837988981219
1.4087893877914683,-0.75560768547656,-0.007056169877697971,-0.1512782982807499
1.9008144094532549,-0.758196257220724,0.22816865653637652,0.24390597915543344
1.4828940714944605,-0.7350112618556237,0.4505596199683062,-0.8837841502394529
-0.07675395570845978,-0.8704313438089939,-0.03238169826362236,0.7358659607880718
0.664051334325612,0.4355226398440817,0.7857049597772021,-0.29137165480832683
2.9877595935311274,-0.6024753401466323,0.34126702499782313,-0.292237290342385
0.23215624930632228,-0.31547745166832974,-0.5177167626331604,-0.7475532319220495
0.6579892949012147,-0.736960248824772,0.3993456443649399,0.954032449968006
3.5681868776323284,0.8783333701539531,0.07367951052983623,-0.2285553543406763
1.6488750852783753,2.211803967359625,1.0211352563724567,-0.23978270005514724
0.6436055865630352,0.49992630619315315,-0.04154076970519638,0.7011958013736503
1.0995790705797206,-0.15833658955556829,-0.45978087708829607,-0.2007217503616242
1.5661066522310425,-0.8666183633963025,-0.17381520971979814,0.05871035126316371
0.7629484530037152,0.6476389542864223,2.6462863797991636,1.8213839990033378
0.23829993496414237,-0.4607775252598577,0.25004033476090215,-0.049817555725944485
3.386259631799792,-0.4416000917848031,-0.14380648037778032,-0.08968133719577864
0.6026093184661143,0.7283960163436822,-0.025567418113797702,0.15414557773017168
-0.32682518842123487,0.544990926966475,28.454086565990625,-0.32219332588734306
0.8566097336820029,-0.600297492183244,0.44095709063897415,1.5741120471665981
0.6148330528559858,-0.21910977808295262,-0.6651712228123087,0.17852854065387325
0.23738731799249457,3.594244415962268,-0.6879276686424451,-0.5803166586237187
0.9434556553523412,0.8835886169566913,0.18084363393566583,-0.3914807705801634
3.4690094931452293,2.060557248924181,7.804114953237841,0.0381264735513307
0.4597338112500424,-0.513273570820749,2.5618757550934044,-0.15866289462470973
-0.0019834939573968313,2.2792458530802975,1.4228545870277762,0.7474627039582191
0.2246142297334186,-0.03229202010650345,-0.3943423122768708,1.2179905415880237
1.5798247396551215,-0.20019979614296912,0.3190444577989684,0.151451723990343
1.5671759268992544,-0.06619938387161495,-0.6575782653721683,-0.4815764549895406
6.460035000854544,-0.32355336003495294,-0.2734555180753221,0.6083807030594859
1.053935788568353,0.06288750164961399,-0.2504747966986748,0.38400500030209805
0.4601304250405769,-0.02175756321948119,0.16777353812244566,1.0920575650279858
0.373897581052016,-0.16037273931960105,-0.30232898675972064,-0.20859404560490047
-0.021168593757089904,-0.19410427254287244,0.27544622086438175,-0.6234244969715481
-0.15801408507264436,0.505346601462465,0.7382610530271121,-0.36340823393646216
2.890745068617867,-0.47596644098138596,0.5364185076883192,-0.5623639930219784
0.536191637303939,-0.738260171335452,-0.404513584243966,5.043860597364724
0.1505088829942487,0.7445411324341875,7.280297855889357,2.771299275450667
1.3336070534997466,-0.3822710319782262,0.4224955201077809,7.498376932687471
1.9806607615547351,-0.4172866607378085,0.6769394546667302,1.3528394302802296
0.5698277426823193,0.13250310002624177,-0.02343632015115804,0.8124155641140587
0.2645078229745863,-0.32506790891569404,0.37617799328476176,-0.5236741432558949
-0.7253646988070368,0.14556237679468698,4.290858534097708,-0.49796863869452346
2.731121817477314,1.082893771238561,-0.22120121664825398,-0.16985759983133164
1.5863842081428072,-0.3875631297145802,0.031157280532177145,0.36378752649990864
-0.3219314930985564,-0.7902426472117009,1.2267921445512675,-0.8568187810002557
0.3718558482304255,-0.16873455361811107,0.06468345245319806,0.02056137663423563
2.243591607561658,-0.022922708926460866,0.017209064763966886,-0.569653231504442
0.9433400736841753,-0.36550973029568923,0.43379910645849606,0.5065059844722286
2.410996263276819,-0.25073476681400886,0.20602054186732177,0.5670492048149647
0.7165985405534783,0.699207252241506,0.4911481790340768,-0.19064206438754616
1.6754533065455965,-0.0747718848612855,12.320456879082233,0.5845763714639429
0.975428070093161,-0.4528616238298234,0.7186673475698946,1.051528432923147
0.6834613329168755,3.635284202716578,0.4581870957235119,-0.48360227480333506
1.1508799032314276,0.9270081961822354,1.2463777574609658,-0.46656646866444607
0.3801010768359314,0.650316129324356,-0.17591025150560924,-0.01587963171497686
0.631689330558056,0.3861450930470647,-0.5743282814987374,0.09550287153742731
-0.06574467351977653,-0.17522754024054676,0.39363394872769764,-0.21973591413525106
1.5145843663097915,-0.7649364634057876,-0.6149658616722291,-0.4546666740994594
0.8511158067015987,-0.3601594547508875,3.6262963205663725,-0.3211996434752368
0.5720103055988179,-0.41793365501982416,0.2624484053652725,-0.0981360564060253
3.611846566216517,1.4620973522481293,2.127903584207282,0.18226335607539612
0.9279897302794073,-0.5267669255804031,0.788580183252628,0.7241470661259337
-0.009461267626613812,-0.3908731514143178,1.0657488333034335,-0.44975451690555146
-0.011046323098448552,-0.19332317597889503,0.556079119321147,0.49081868625846403
0.5295296511804046,2.573653109479372,3.524516483832004,0.12150482542609198
0.3880285446234688,-0.6421351371285562,2.2283120737544926,-0.04378983824834193
0.8441498595863202,0.4388947712733684,1.317288128543301,-0.32578305437743793
0.0922528760031005,0.9510011883714311,0.5758860565358268,0.022648194743056793
1.2237734278129997,0.3872730306690073,1.2191535963241567,-0.05115170927074053
1.1680181973846224,-0.4740156165344481,0.7646430986786754,0.17132160467357882
0.4023100062460858,0.7870845715651125,0.438954509359629,-0.36959160306226746
1.8252274581912298,-0.35285270603705876,0.580559873582734,1.6588085856488464
0.2896662246329902,0.2978987721965882,-0.25541952589570016,0.24289833526731042
0.2831735877865289,0.0975136268491823,0.25220544100006337,-0.47339624001401415
3.3456597645946644,-0.4762207415413323,6.39620546039326,0.35722417236903925
0.5125115361080332,0.16154879692574653,-0.4741321431288168,0.03746501284045989
1.1393770779653987,1.219654939609672,0.3942259443497982,-0.5057777704889844
0.5862402293613431,-0.03277223119629358,0.12677068493548616,4.258978513036866
0.32192432181584163,-0.5334974734529367,5.629744726566748,-0.389380675661819
0.6367627613583549,-0.44921827631515043,-0.28777939904995076,-0.7309915612701401
0.7135584847113694,-0.12804551017053056,0.06734813550021945,-0.10029635436644058
0.32900289268124094,-0.3244991183844572,0.029394660499336922,0.31804551785043156
-0.33654388430483173,-0.48893505428549344,5.433294881886189,-0.8272985616754591
0.0712290695633957,-0.27336598611020546,-0.09926426914655062,2.243246323195804
0.43899792063703513,0.7648292870996058,0.4128770639949111,-0.3309612347865142
-0.055157140806304295,0.9525838380554923,3.1168633490790567,-0.8204217316955366
0.64079978012952,-0.32123852458703095,-0.14845493293265521,3.9730308816525888
1.2517561841070286,-0.6061913715829428,0.6413050072325714,-0.19974651227531182
1.1698922597261054,1.4090564543309236,2.244441974720513,1.877580671419525
0.32790659086835294,-0.34139830814586714,0.4417743455958474,6.985234216806857
0.4952889021816882,0.5515891735493852,-0.21453932932116582,-0.14923222658309854
3.6838204931265253,-0.04139664936063059,1.8369739275883705,0.8095946749515655
1.062515061568206,0.6696398658202809,1.8071297666516148,0.045911858654052784
0.793091905771522,-0.15494596486742718,0.12662129474552497,0.12538112160039172
1.0051578012664995,1.3733627488254148,0.675663123872714,-0.31781253334208737
0.6670997673170596,-0.48233827306560284,3.42857847528955,0.1413738978919843
0.316331382463759,0.168072038920986,-0.29264546341798525,0.40246695695442347
0.6588553517574047,0.22082631220086557,-0.6969098506502038,0.5756681959262542
0.2221374742702542,-0.6198929809667444,-0.1975630963021915,-0.11819464956613868
1.877585348331003,1.8637418134042951,0.22369149169562008,-0.4710293391135626
0.27886762415040556,-0.4420179742605712,-0.13025439097341063,-0.08575821999502975
4.039382388505037,-0.7870308252949256,0.8398003174421638,0.7246766579825983
1.0666401038517828,-0.23474010712731752,-0.6219398028138758,1.2481667081655656
1.2356732182030403,-0.017957815272501287,-0.2504508483297584,-0.13129280506471452
1.145856091060753,-0.27309271852006445,8.382747005915883,-0.7609887092483452
-0.0053648101990405594,0.011342356343729154,-0.09100202560452098,1.4454129022474347
1.1920311586271426,0.20830800669826077,-0.7245536407036602,0.719411474962232
0.1168092330766437,-0.7051829104292447,0.984744274618764,2.4705621482223767
1.5513084594469633,-0.15629643332825005,1.480997502069715,0.4329524874038442
0.9878966640374387,-0.5354412663510617,-0.27318030418257777,-0.05971377478739959
0.8886713735691787,1.7614903088668195,-0.4932254114868947,1.1492037173785974
0.41646832934972333,1.1025844810922125,-0.3606890825673711,0.36097827087444023
-0.13429446325738648,0.551352873438377,-0.08758998624104175,1.2811411034424602
0.8330906835864245,-0.6033636876367039,0.2700773047918137,0.12013873227008065
1.084149250861115,-0.5372730569047854,0.06756225555451989,-0.05515169647010343
1.9455998573447562,-0.8992122167629871,0.07681423918471397,-0.7211362971760682
0.446179899674491,-0.15741774087521276,-0.2932079560807117,-0.7573201025418728
2.7811630454070113,-0.9009942856659039,-0.08685481070168066,1.5267034304094325
1.9283650441708335,-0.8946440330785256,0.6347068056777407,1.0134445726455832
0.4007648851875687,-0.05370743529681854,0.4206333753001428,-0.4658961743892157
0.3664928941058698,0.6251427866853663,0.3815260616822782,0.03260387299003775
1.0635937523976766,-0.04017180737383019,-0.540036315689229,-0.22632502862981552
0.3842651678412603,-0.24548659974297427,-0.014038968597426038,-0.8511816274968068
1.1105595717899899,-0.6550790973912473,0.10778892780781169,-0.41556770074439486
0.3290494032510156,-0.13880818726006638,-0.2769853854137039,0.3563793420088168
1.127764433111225,0.25990746519939645,-0.8306315258405895,-0.26046663839460193
2.9323627308457207,-0.7321823368757416,0.7051315656964738,0.5537191329596209
0.8035810948518314,-0.34968057566867383,-0.3769895046194123,-0.6790147466138274
0.4855774155141763,0.18758386810493288,0.544432862888462,0.8330483676883371
0.891458272486706,-0.10782998038759295,-0.5845133060303654,-0.2382699998990826
2.586326558579058,0.5650573802414323,-0.5804451427195954,0.272447954743563
0.5991526217102643,-0.334412662296941,0.6108910424280758,-0.5943801283406774
-0.050519750713178935,1.602266647818908,-0.4872933090121918,-0.189058245963876
1.1731497556543062,-0.3390441592283042,0.11948321427033037,0.05266109571769473
0.7057667752607775,-0.10812213933185555,0.017541156124927015,0.10863614883908701
1.740327952959821,-0.23837539283706677,1.6068205934269977,-0.3689082137172158
1.9525493259584308,0.0979906328728537,1.40900546053828,0.5338845628318034
0.2359525145029011,-0.5609819947865013,-0.09545436476674185,1.4797837466367376
-0.15848404089663182,0.0672682969274141,-0.3663590168373224,1.9245118769667489
1.7071021872721301,1.07752240275182,-0.07235793088343745,-0.42918846093891616
7.275931580044663,-0.4824339317367421,0.15393954441893842,0.04887213931517009
0.6897809561067683,0.20029640003015392,-0.40416124296357503,1.2419890516129808
1.6992079561065516,-0.007058309004709495,1.2375191570703707,0.446671492220841
0.4748658136709407,0.0023219183166300894,0.7965817709371372,-0.2743211491210581
0.23997919377144128,-0.8140567676241817,-0.16223784158120713,-0.808506890720164
0.3760225596588731,0.012217255328633492,-0.4179787710372038,-0.6998245963505756
1.1914745411079353,-0.07271195050491663,0.430602419031924,-0.23415873327597148
0.597485421571119,-0.09889520021708398,-0.5300347089583008,-0.20339464666986928
0.9381906064435948,-0.749677331780654,0.15306618061700106,-0.231514622297866
1.3379154889778104,-0.7368628370356585,-0.5579197288641855,1.1494890971578502
1.049946919294983,0.7171503026927462,4.295651366567055,-0.0823739587253619
0.623362415979092,-0.6034047343013813,-0.4232396161750611,17.221962684768528
0.28640795908058947,-0.10344834516297075,-0.033196472727832105,0.3944059571896692
0.7259204733865634,0.010236275152545327,-0.028469436247406277,-0.4503808721097158
0.42292142864685545,0.3639496836810894,0.696297213798768,-0.20250551440045528
0.3188906981949713,-0.687330488838674,0.3398477575621395,-0.28480710036173607
2.0963388471973357,0.5858147269015823,-0.13380963054425188,0.326584354289563
2.276166175724276,-0.7748626862863508,-0.2933258358824151,-0.39049255378191816
0.9354763638403982,-0.4243557168463594,0.23256153533370227,1.1992511986048582
1.4269196062498515,6.065848275200109,1.2169832064108093,1.354415532862265
2.4810537042500873,-0.588485872496392,-0.48733571594585134,-0.22311711150424796
2.4390688769741393,-0.8663876867059512,-0.49224047036008134,-0.4076760896875058
0.8364302950539226,-0.2540568374147857,-0.1941099985649739,-0.15269147657728233
0.03320652586819439,-0.8690049202772785,2.8655338325518116,0.14163964248888528
0.18805897451705245,-0.37256275142613005,2.306145737130539,-0.24176561882141356
0.46599145237880024,0.0691974549052905,0.20248507646125113,1.977018442996986
0.7837721682743368,-0.3714732704316531,0.23214262322138413,0.35116976491124086
1.026280877290605,1.080887127427577,0.36796316774142857,2.517645385428829
1.5319028610372345,-0.42527996031581294,12.438482997529144,-0.17866168091991175
1.0689710364150478,-0.390201643214349,-0.08185428507039105,-0.4049235048961479
2.7439115537488092,0.04887675376217371,0.3845293678876951,-0.7150583229107367
1.365962728798574,-0.3908986641522084,-0.5149572251823777,0.7509448603390441
0.5807073245472214,0.00952978372419544,1.5742584850194485,-0.6542493126834537
0.6363786821038959,-0.33482044324969173,0.5339249273183406,-0.5371183619802624
0.6301582367768379,-0.4112591172507539,0.9600185872109166,-0.6284556637116849
2.1176064283202827,0.2902964119740814,2.3621129876471,-0.9106949658386302
0.42769635831667174,-0.3196610474439946,-0.4146515783651781,4.388193673339103
0.0019326108704709188,0.5308282078223978,2.433894037398943,1.286477120610925
0.23346736678850655,-0.3405557498971119,4.6069673017781625,0.0015123044544813613
0.5641514709124797,-0.34645538289183,0.027096042329998626,-0.18485657809809142
0.02782150870673994,0.20040756242620006,0.3056610889846203,-0.42887062564379996
0.4712913463008166,-0.17227516677407573,-0.7057443378554811,-0.1796784709035183
0.200546055754804,-0.4033185784358536,0.2882766728433501,-0.30710636641060884
0.844311119131856,-0.1690430153316277,0.7885468971985821,-0.11527377868496635
0.7696073212638832,0.02261866047052785,0.126642460038354,0.03300668866020118
1.4255885223376943,-0.665419679350617,3.0684519121194285,1.9851324604294844
7.110852808020063,-0.8563729580301802,1.2406596981284408,0.13754708158197304
0.045090540184064,2.2026768744382075,-0.05412891984645918,3.0104425418369596
0.45678773288053764,-0.6745975179844278,-0.3908006948413265,-0.2265269258697229
1.1760025751947696,-0.6800777182144675,0.09101842948143068,0.4526850990667035
0.6338169946990686,-0.7130755652357446,0.23654778864603787,1.943180975956389
1.4625536718513863,-0.535715398326583,4.1231929503173195,0.23579421539420964
0.5266468892899341,-0.006412063376112331,1.0106800207381514,-0.08371671495202793
2.0752086834015477,-0.6272033813213855,-0.7930429150697497,7.14173367797596
0.3800962228752718,-0.8391098390424596,1.2842621592240206,-0.15537604448529063
0.720874452292092,0.36128871709416255,1.365148275064691,-0.46331031332821293
1.5341669889485114,-0.0188156632815647,-0.4827213671381838,-0.5586888920619493
3.093958625179634,-0.4878256330538715,-0.17877244796433045,-0.4182609584323238
0.7579642699929867,0.9599015354074314,-0.20934639272892142,-0.4683515046907283
0.30002934221925237,-0.433007963240148,-0.5201131414494138,1.9726030557635292
0.8644312138038841,-0.478792810077021,0.022792137863691275,-0.10282137100391842
3.4757670891173476,-0.3536110594380709,0.7159599516187234,0.2212269731985146
0.6293798534405515,-0.4126952790261853,0.46150215972818387,0.2461164428980518
0.50879055006346,-0.09153114700456777,1.6084139359763565,-0.43983414636156315
1.8879856757747246,0.6694664076293528,0.12326862666746496,-0.5005028207272251
2.9132182625898513,0.6220217023059005,1.9026677264199718,6.87970522029512
0.5905386886101243,0.42610226588248046,0.473456244354453,1.8004886133098483
0.5348490833013901,-0.23173174861569257,-0.5232721519006438,-0.2643911173644957
0.0516477866803815,-0.522556370339561,0.21414333968064714,1.5498329447785801
1.0250815719806292,0.11033896822189582,0.8168323503825292,1.2600854730685205
0.8333613338248396,-0.6572730976092229,-0.4060669159982654,-0.2754353868746715
0.316196261532647,0.11810174225577463,0.8224238133619732,-0.4824478329230134
0.49898822027654943,0.07236202779828105,1.4941246712692604,-0.4684492841551946
6.329507010363075,-0.7098543094853548,-0.30776324238076513,9.912958608556739
0.23072650545467188,-0.5616176078040981,0.21682220086121773,2.437818610861597
1.2735559809586285,1.3443602759488167,0.42368257612132654,2.1371810244178846
1.5814706197474044,1.1974701917920596,-0.3511886592255441,-0.6056223421627096
0.8684128966184477,0.4750619468525923,25.179680669155527,-0.40180528881953137
0.2939032322933477,-0.1449842578222852,-0.6004381733140758,-0.42090285373596925
1.2184483924485816,-0.24454421949669491,-0.17776961635470034,-0.3309715983855387
0.4712936727550585,-0.012117001140111161,0.2837700063962627,-0.32524430939815285
1.321337067824917,0.4521829673421589,3.4892317051234896,1.1389254123379775
-0.16709362289170726,-0.8223930748269708,-0.17660513150737478,0.42586379491005855
0.40786273552019425,-0.45905240117375345,0.530805171301338,-0.10684328146937272
0.742426594776536,0.3832234957592615,8.941801223731908,0.556489959184834
-0.09502569935330063,-0.4622682242336362,0.020420970113433246,0.084184728220833
1.7045630738398554,-0.22192255734444621,-0.579489630811377,-0.04929535176082711
2.00088041805328,0.15578766870050842,4.637241215558233,-0.7934261100848965
3.4000056945008215,0.8257147804154474,-0.3777476321073805,1.3393835769927045
4.31704101856768,0.4560138404304337,-0.24022949384366266,0.3632815832763785
0.48413765978202417,-0.37521577170287757,-0.8396896206377825,0.6942352250578208
1.6041129576880047,-0.2272806820009493,0.7987137277277416,5.2718294330455695
0.29507595861017033,-0.5841764639075253,0.8369151339769982,1.119549797749579
0.942148177145113,-0.46396743130946405,0.7756287974379814,6.263913379419973
2.038433794139205,-0.08802238286614539,0.5268219116125796,0.4641075856062209
0.13114379840251367,-0.6910875148322719,0.44036531352239394,-0.22903326706251204
0.25798485508200564,0.2588065286174619,4.435515194239549,0.7349503976461509
0.5541088684208202,0.25947881670192774,-0.14836966206062285,1.0868468298683642
0.644112263765493,0.7036852425468909,0.0020436669924364104,0.5163225351116185
5.510405401633868,-0.33240121010645907,0.8811953545027991,-0.6665684804861579
1.155449786472404,-0.7531406631589768,0.758767056931636,-0.44251324603800546
0.7273435694088299,0.055788061510302356,0.8845832188049154,8.245444440090761
2.5463572316216374,-0.6463990175704051,1.6121640969775264,-0.09795100164987747
0.24686891481804318,0.010880366412462594,-0.41853088593551036,-0.5424431615584726
1.0055639897582496,-0.624827475098521,10.47605279270981,-0.07602259457919869
0.35137859627776713,-0.285933989951646,0.5698541151334722,-0.28908210293082803
1.619700551021531,0.15889363490141473,-0.2789491564231953,0.035569114007862446
5.398679777404177,0.43737877741835973,-0.6990915966656966,-0.05342563655820576
0.13151278696166546,0.023830185298302275,-0.014081861824719932,0.7661244352264431
4.277950469026639,-0.7276067014988737,0.12011530895848233,-0.6785065092355369
0.7026461386895395,-0.5838518470521872,0.20136698666204866,4.2418691889514
2.4767919085891106,-0.44903251245947406,-0.1705077651250816,-0.4236176600476962
1.203053891781765,-0.15028019248780367,-0.6158350228000977,-0.1869273016899291
4.106609773313979,-0.34740506286108297,0.7207437579510645,-0.40259537956770786
0.40625863059524825,0.06748420251429077,-0.09951826633842231,1.0463596451029482
-0.47803230466004676,-0.5190676319876739,-0.5027036319534355,0.14238910605401434
0.5219197202021195,1.7784245221216182,-0.19622528907669923,0.5472711226189741
1.227203589873854,-0.1159230237494785,-0.02248047381245999,-0.06282385474529584
0.8771250622292803,-0.23191539328586774,-0.23070259329985965,-0.0017117843657278309
0.3016398239881377,-0.25890567036385037,-0.06013656133639411,-0.42609582914662847
1.4745134448387955,-0.19269137525368019,-0.6341787160865422,1.3787054923221618
0.6426571783224244,-0.21292107430454366,-0.15431175821984366,0.6697331664191069
-0.10177041142707144,-0.8518243644589534,-0.2874429848064448,-0.6778079477421592
1.88939750780535,-0.63813201523389,0.7208986350646043,1.0598125884088159
0.10867330543105003,-0.5345299173694116,-0.03240175869170159,1.7735080049091319
1.6845062440446394,0.45241738355932015,1.0882229411845907,1.3726483980790736
1.6313368939792645,0.059555208890297084,-0.28768368952281165,6.4424745531234
-0.17313033423460233,-0.047352767111567884,0.37464046008394836,-0.5731772999813416
0.7345477929389992,-0.7065699684262818,0.41404576362574064,-0.18391220425076504
0.6675477162835559,-0.3255403884769742,1.5163100735624635,-0.8459755354950387
1.0623944179676217,-0.21676847480288697,2.344383973516863,2.7445158693590614
0.18118847908123747,-0.5203069957081039,-0.09128212644295997,0.4871905520133102
4.2506720902895365,-0.3361978309075816,-0.24843861830618563,0.06943767039130999
3.1734580422743406,-0.4477869202916387,-0.6990110057434908,-0.21791998630185905
-0.11003871223629591,1.0473247701704067,-0.32771327574643616,2.5620866258890125
0.05301548983264048,-0.6248192169948077,-0.31936329537281394,-0.16571699548961316
1.3785953212381696,0.12956704583560552,-0.8567633980370196,1.0548274345518647
-0.07719388596189303,-0.4510754287101889,0.31300083440757076,-0.12243016594986067
3.5241820813751543,8.507381038016444,0.5741887892251183,-0.3402371363354514
0.691788690813391,0.397611736206424,0.4315155423385617,4.713340564938648
2.8117164904110106,0.3439149999767923,1.2721214284417641,1.205760890581673
1.411498769192848,-0.40924830298576365,0.9763141532219775,-0.5307984510047303
0.48876650209750894,-0.019608679191147282,-0.4946091022836496,4.629558736610845
3.558865941011927,-0.17334514283250746,0.023708396542553745,0.004751409695995079
0.5188520790046991,-0.5517442102895855,0.19415359180624892,-0.03606625509040562
2.862883910432197,-0.1787394834905478,0.08489972743288532,0.5884903722810839
1.452424428178272,0.2846639040360526,0.45223827301824837,1.332370730575946
0.6436502193801283,0.0541788077705192,-0.03943357370310152,-0.15127577897317068
1.5237053253036712,0.5150742366744749,-0.09884845249579999,0.9923421069507188
0.29463827387186403,0.0852407475171002,-0.09994777761431162,1.5593355245367206
0.575137499679464,0.637792144211319,-0.4517884788705546,-0.8371388492038864
1.3919683547187236,-0.915382934011269,-0.1534075618613321,1.4208967078667678
0.1977301095838564,0.5258124199084491,-0.5726593648501901,-0.16716653511276058
1.2877382363680474,-0.006479222604124035,-0.36288799364825575,-0.36996984572384073
0.126975098532788,-0.16866668648866923,-0.7728293494720224,0.6383852316185297
0.5613415774124839,-0.49419876130444007,0.0042871991715960345,-0.3851147080735916
0.19476951390141473,-0.34107122499097886,1.1274139577372213,-0.42627640859413307
0.7754545470028191,-0.682552628025871,0.4877056368470116,0.44997775268463225
1.001791180108233,-0.0020601700671672996,2.834039341452869,0.43198488640974086
3.020800462284843,-0.4970205154399101,0.48012162899267885,-0.39685929236963224
0.6165048447275938,-0.4435242460517821,-0.00043982934862651923,-0.04598194604140371
0.421256096777874,-0.532323407782185,-0.5499452712838911,-0.18470623369232653
0.7182249278606421,-0.49369878933225164,1.0795534850572,1.3002919171241403
0.7794417872965735,-0.6872697043409342,0.26452775528475847,0.6621925082953299
2.8282706562742104,-0.392399896096743,1.6512962050300883,2.176791037344066
1.931246081067835,0.2889604690462588,-0.12109906992162178,-0.04756434008279975
2.088254382352341,-0.47939740584985846,-0.22990357943628348,0.23770860101983526
0.17339829427987352,2.790351069656234,-0.04225769548259095,0.014582716389408779
0.32867446813917156,-0.8144795305395679,-0.8859403041626213,-0.8711133637767229
0.3181441954448385,-0.02715993287788998,0.5373592025191611,-0.3495066493156308
0.23835932652777103,-0.42837668548576735,1.0231629592609406,1.5433299707436134
1.2689217699296642,-0.0978092249773993,1.2650195244776148,0.29430094754910496
0.4767432385633874,-0.5068974280841934,0.5288471285237326,0.17421396795955912
1.7548167014794886,-0.30429740534320615,-0.16673126477961198,-0.7543967863659822
1.6028180837415444,0.9094770680972941,-0.3095730375113567,0.3790396247301395
3.225621639533605,-0.056578770314029136,0.2130638039846553,0.5622188467146272
1.880973951871879,-0.44154109382388684,1.615327101615236,0.06542440162259688
3.0986332333883473,-0.4687935130601937,-0.2710237442403054,6.373343148513729
0.452192787478807,-0.2344029552994411,0.016816196599160893,-0.7676781288543661
-0.1105142542970331,-0.4310230540041231,0.2709850888960994,0.3295859512592554
2.2774407499959173,-0.47645484210588374,0.8886645742980244,-0.3562048068418455
0.6474356979239935,0.4455831657103668,0.8862322040462709,-0.6256908615711827
0.7773895975658149,1.8319236695283814,0.07348896043861641,16.710082621189834
1.1095920218171211,0.08571674915908423,0.15030494046813536,-0.8547056851945213
0.8365259659095416,-0.5199070605784094,0.4548738544545645,0.5810166640025465
1.1774806736495247,0.02253257687215049,-0.15132132293591105,-0.47515768734802133
2.646857020317432,0.5431073526991737,0.10224168945661471,-0.02957741905947009
2.709123955746531,0.37846152319333015,0.38391680888026536,1.2494571128049201
1.8217837246738702,-0.575302853688793,0.26759154555698617,3.9571785906000825
0.6669979463659776,-0.5795994932945052,-0.016058239554526788,0.060152298039013896
0.7353239689795541,-0.5394202757308164,1.0158681950572168,-0.171738781347337
3.461061497553236,0.7858840181133038,2.5383147539517914,-0.40428571692423143
1.0444383643378412,-0.8130865293090795,0.6770927220312335,0.03349283763144362
0.36370068237862574,-0.9047267979025898,-0.2822736725699342,-0.33725604551356825
3.2115017072530696,0.14333792973633752,-0.2168787679873284,0.06838045111768198
0.7465235802761798,-0.32147421079107064,-0.05142008113334151,-0.5346237506352816
0.3247503530364111,0.01098755277581831,-0.18943511659918089,2.244652395562913
1.343740760705494,-0.3443208253866096,0.5802792834755883,-0.0042079898382098024
1.598241200278952,-0.4713249357695106,0.06163756781716745,-0.44079889715980136
0.3582689545755491,-0.05915842829058404,0.305341230644556,-0.21818030885967676
-0.6937477834981741,-0.012347275693372572,-0.8675731046830286,0.37210671025988207
0.66804398098873,-0.13287340089017263,0.2075374304561144,-0.5084833832332858
1.5885326044436812,0.14676152423381006,1.9085528082675096,-0.739397658039588
0.4260386630565294,0.4637571615659488,-0.5241311708170706,-0.2895694705069728
2.1685766174411385,-0.706901275363349,-0.5566399042576369,0.1963630604990534
0.7294293167442063,1.19100001682281,0.6876979853304526,0.39321491328315616
-0.029636239485926752,-0.5780756242058904,0.3000023861461518,0.15019507197706772
1.0225813988324362,-0.545405689734219,1.129194608597028,-0.304018745626353
4.140266479839503,0.3956154070849818,-0.0874134584115912,2.140111304537974
1.0914853749914877,-0.11602579639420885,0.8672794685586291,0.41022294323346653
1.7466237752953533,-0.7486577688363159,0.30966329594255404,-0.10943179124570479
1.371581034233488,-0.6274640226136893,-0.27730855507845364,-0.5461408003649777
0.6048572635491258,-0.2299134907449384,0.23186958554346782,0.4360829121215579
1.6953452675902683,-0.2837182262155683,0.5954978179042889,0.7825937689887841
-0.021868757708372266,-0.8542671248973916,0.3703766978278251,0.7390592980582509
0.8083873601385101,0.2741972384636122,0.09266242265527369,-0.37198811599745374
1.4241601425723758,-0.29424507293585733,1.1524627522238995,1.6038188330475407
0.5297533920617954,-0.43293242728085535,1.0612233208243627,0.06506849160050376
0.05895868438954399,-0.3464906020017492,1.1742175216199362,0.09447105375418596
0.8133738588188069,0.05359145592331993,-0.2347955375326205,1.544984217134885
0.8181664204299033,0.0021892768785780614,1.3818930707537729,1.1937480560572782
0.13868009488463318,-0.6816953508440169,-0.24187344376598163,-0.8005095668825437
0.8586334575013903,0.09823419765394381,-0.7818251729481962,-0.3167205021463888
1.4700841906887003,0.3476345174850237,0.5498474361856927,-0.06582844569337643
0.919926569978941,0.23184561110979507,3.5883722236723727,-0.8430467916883279
0.7361925753415528,1.8532556171945282,0.9619815296792187,-0.8946791792074391
0.38861457173995295,1.6017535561012997,0.09981464093276604,0.732977862101825
0.11445174281169179,-0.11173551658427217,-0.20383041710720706,-0.6754603009667937
0.5564489262785981,0.03304829021033928,1.7597217467619397,0.0709519910099321
2.494628132486116,0.3084099513424188,-0.7669884573280135,-0.3643312667549484
0.2542050059721195,-0.43530489971908237,-0.07933294198262042,0.4828879087369382
15.024249089069759,-0.63307084549964,2.1189194889265845,0.6335858404354131
0.5306136501112577,-0.05829254286561014,-0.6323946512877189,-0.25800861266181074
1.1527440324696157,0.22684992411528837,-0.025225081633702406,2.773102317619871
0.6665247623510513,0.19195583815661243,0.9315337840779254,1.4420981619878828
1.2610313426016257,-0.339528234335603,-0.16341060985920786,0.163754742935744
0.13195648474849753,-0.5233464486978971,1.4651523736990955,0.36504439794599874
1.780511301996861,-0.5733659638666067,-0.8935322867371202,-0.8582464268059635
0.6705148720579199,-0.47704083884555315,-0.09179473380377035,-0.45711853357628207
0.4080669912475734,-0.38786644781257396,0.7629452588599128,2.635137236040226
2.122710088269528,-0.7590490003149956,18.429837525745562,1.532857732322174
1.3942072145838074,0.5776514980240404,-0.24510804669756647,0.7385561747560074
1.4617906829545109,-0.3579083976243763,1.5375027629511795,-0.41703497313475213
0.263224440598955,-0.44983145485458764,0.6700369442056009,0.9044368079310574
1.8917941461162462,0.1415871584170676,6.40714351700479,1.2215014111459999
1.5801577017036994,-0.46196062625115986,-0.20512493273524812,0.008704950873191786
0.5974823065866322,0.6225253437046916,-0.43003825418654595,1.155810104762511
2.195459196280322,0.9675254334266632,-0.2977974783956795,0.257714450763159
2.3823582635496883,-0.04912888798978632,0.3113304736150646,0.8469321886193462
0.10359314268015907,-0.1762409153481188,0.5200883703796113,0.03891056662227643
-0.00901527325332141,0.266577310414013,-0.14135991671361803,0.0036471248834757386
6.807835853317479,-0.4535768124080435,1.0999759444673174,-0.16759274128345936
0.08667129532277662,-0.02092052812131373,-0.5983437770757921,0.003282315189915952
1.3763792987580774,-0.5646763915184354,0.4779180432760026,0.5888606458013905
0.42662600228197056,-0.6048432173792813,-0.40842480808080817,-0.11401119268543514
0.5394617776688733,-0.5550374400262719,0.08880810358517244,-0.3140370338719465
2.6544228610593743,0.19356926742238545,-0.3780607796530986,3.338318363016346
0.12732112457406775,-0.036489827248943896,-0.27512505024813705,-0.550627494887721
0.41336546155843235,0.6324383727387721,-0.3555142089763518,1.02227626670255
0.9001295301301384,-0.17853320611680912,-0.679148044902874,-0.10289826068350305
1.9241195763466012,-0.41048416202442906,0.021404428664385078,1.927929216533705
0.7625134676863974,0.03726841841879658,2.7652028802934776,-0.5746128065699135
5.959318322824482,0.2737802961624394,3.65783047049638,-0.13201357811383263
3.1278228717941587,-0.09396720285332028,-0.760643031299286,1.4034992893188445
2.0185765209443574,-0.2740223157941073,0.12214139198061313,-0.37474264467173446
2.4566865510457774,-0.600232985059014,-0.3872576172021678,0.2549387150974538
1.5712467263583076,-0.808528993536407,-0.8204087801071709,0.13140318498956383
13.430322979685373,0.2647107091073877,1.3658948676012033,-0.006062927491144232
1.2016431557486666,-0.047937767609558035,0.40455307350562797,0.035406816311108535
0.4279815559683817,0.14314016788363548,-0.1792622992082844,0.43774165694079903
0.692034421318839,-0.008087502853290962,-0.283077962347856,0.3682203467640317
0.4971849993856532,-0.5377162663869054,1.549044973955355,0.18735663222654209
0.41292543895671185,-0.45450129580899745,0.2020310243559711,-0.5239853977950756
0.45714147083026857,-0.7287503113993972,-0.07179557692115501,-0.4080698835505967
0.17428514148903362,-0.0656146915009288,1.1561615010775386,0.6995954894142773
0.8862179904976493,1.8438504717256432,-0.28407666527274544,-0.24143889099386584
0.6330272287499401,-0.5494446693370053,-0.5482142806799295,-0.8176818299644903
0.3812079194528952,-0.4163947226956951,-0.47478929915302215,0.40196925575372355
1.1919847819091491,-0.8477471768302396,-0.5196294840125111,-0.4981122134522312
0.6713072132150177,-0.5524126939384364,1.0797063826285127,0.5863719340004314
0.382622433323635,0.16425441888044912,-0.8567703300013909,-0.3931570059550139
2.620207307035014,-0.4454460436092573,0.38931888347322285,-0.4745452091121647
0.13083235087962186,0.1039225118196565,2.8756297075863184,0.18514167140581073
1.4563323003689437,0.9187625685198937,4.983897314347231,0.5369298862854697
1.8229104143943298,0.030953008987919972,1.4141617312015837,2.1529469402639734
1.7230863903398546,4.053449122877096,-0.6568156190491744,0.07487995465682595
0.16377871329691307,0.5170512387420019,0.514217895339175,0.9379217341617645
2.0461113645949798,-0.19673323456797875,1.3200639793829279,-0.25430574936464345
1.2556105034671505,-0.15616418714082514,2.9701629803657474,-0.26047607016300656
5.330758926680701,-0.5454389492186442,0.5839910234851664,-0.5311131848921005
-0.15633314786338326,0.03490572893776056,-0.0804016766379978,-0.7986183458406113
1.7306664845452135,-0.5079350287381095,1.4653624695050098,0.9222140912055516
1.4236628969406229,10.457537421110414,0.38793259346613196,-0.44572008719888323
3.2880838643926236,-0.5805400184094791,-0.16043278059796617,0.5112782844563786
0.6427266181790188,-0.7235107500745689,0.4956534470998968,0.9324170731015937
0.8862720750927124,-0.42889480377681233,0.26391851326019844,5.025670614268083
2.010274151467159,0.02228751618844904,-0.0773685238749493,-0.3051580527876795
1.275351098536054,-0.1070166689487656,-0.45739903236555657,2.092899259174364
0.09874154787890999,-0.21083266278225843,3.9204651585936405,0.35146369352122275
-0.09471140296646607,-0.8067748206180682,1.34448372736626,-0.1361973251309324
0.9685097815991697,-0.6817992865852405,-0.11864273952206605,0.7543248631991504
0.800230749367395,-0.7804220510320997,1.3819819448406663,0.45362980338324776
4.997137916332121,-0.8351691269688988,-0.46240146230815526,0.7170233875218275
0.5494518001185005,-0.27620709359512796,-0.23379304150955205,2.3625555380874035
0.1530082380129929,-0.2545450017097143,-0.18358178007532544,0.04211841445387621
1.1473598245444432,-0.3283311516576486,-0.6880342042627023,0.23097020040464078
8.50009016234956,-0.3165198090872462,0.30233812490709,-0.0600208552932362
-0.41831144296580225,-0.14736891057220802,-0.4222735638282,-0.7836318268483949
0.7632754986008541,-0.47634701918933464,4.943125532150976,-0.028947562706976182
1.029041077750572,0.18018097639858377,-0.22427454094276245,2.4505469984384134
0.6783599161546805,-0.23731319130661166,-0.23985196253815178,1.9747700786793896
1.795418562904885,0.8570325186465251,-0.7803758726816701,0.3023338636132977
1.3815757587992619,0.7818764546607793,1.2317569334601184,1.0413117854940177
2.6944599842252837,-0.4464372890581796,1.4788411588446007,-0.1740807049629176
3.4173613730264805,-0.5299271483507368,1.183015731928375,-0.5548333413702744
1.9534515273064446,-0.6548580193955202,0.35983705926531395,-0.05691269043769487
0.7326616984252212,-0.5623433654302314,1.2594455571886614,-0.058210546498273175
2.5347018026338453,-0.32510014936359344,0.9239869934831841,0.23959767631444162
1.3750130536738068,1.4358256774654392,-0.37233203254969927,2.2983556109719028
0.5683774541998678,-0.44196389765737887,-0.8078009426901587,-0.4283574004115085
0.022741716918976085,-0.3570045337479033,-0.32615048283147674,0.5541181866322349
1.0443259701956014,-0.6047699109244795,0.036809714170138896,0.47348971560574205
0.007840258667494826,0.2612152853482157,-0.521474622172354,-0.3741108659952139
1.2503267032818877,0.11409163676606138,0.892912839666699,-0.34040619849545073
0.18456510593059527,-0.4934480979621182,0.10265655410626828,0.3068520229177125
3.0819472062253324,0.11314502481013244,-0.6406719125137486,0.2709909923390592
0.6243718667123044,-0.24396597587990165,2.5504483092183423,0.5551279033314345
1.0240610133118428,-0.16613769468531847,-0.07799794745345734,-0.5664806935751302
10.544496645150904,-0.813708628879581,0.5650750465826033,0.6561085148342354
2.8526603948323057,-0.32211393708834823,0.37938885073186635,-0.35352987913885026
-0.7396707845475299,-0.9572179613723164,0.30079909753447276,-0.48861418084882147
2.3934643121055945,-0.14270736821509233,1.7501565619721737,0.31581960315093793
-0.19038236085877258,-0.5863423905742366,1.6404161062227747,-0.36992685117812796
3.5468165064900017,0.6744658389646117,0.8385088002027492,0.3065688259375421
1.8747386091826894,1.634987340460249,1.3555243506781305,-0.5678884461173808
0.9388866327517431,0.09150691506085251,-0.11276765535917277,-0.5873222212816067
0.4646404777357165,0.044078059352437915,-0.1960815145347733,6.110272172201601
2.2930724284640256,-0.3696041407053755,-0.017344008151408463,0.12492612619285448
0.001955366037384776,-0.09243249713538426,1.0940517321855525,0.8400046623234565
1.3863037952894657,-0.7522277118425331,0.9952236558925505,-0.3342957163084115
0.3658820747860638,-0.1520555832596009,-0.3366977421810299,0.13883508079059315
1.4217371993527883,-0.09796921890084254,-0.2511324622009904,0.6934352190070663
1.8320741349338672,8.459816518155716,0.14140504534424725,1.3586577147342473
0.9131828297040279,-0.7215340380327624,1.8788786259972925,0.13953196614599106
1.3685445038992108,-0.6029432736916622,1.3051961707254942,-0.6471108047438918
0.33137964821759636,-0.45448855583646286,0.8519209960583571,-0.19156098103293173
1.0367616359008673,0.10967672380876503,-0.533961585111096,-0.27419096473407045
-0.16197971180341175,-0.4025658703486269,0.6387534000987061,0.1121950966148948
1.5333011248481867,-0.3749027912151498,-0.44263376181701897,-0.9137190227086688
1.0901359206673615,0.9292193250337659,-0.841120915553054,0.4105312647683872
0.2913846953072219,-0.26742401962385687,-0.2687603230349651,0.7150386882987063
0.5004392881457695,-0.4374665858136647,1.139840457045315,0.49533755001362945
1.0952762974476524,0.8021729223500988,1.7212213913929042,-0.15715412695249154
2.2618456989464226,-0.11131718619139142,0.4695640183642511,0.9183505399842331
-0.2998529669274538,-0.5557043776841977,2.038406870982017,-0.2047795881861465
0.04055889330464568,0.920259758689312,-0.5339701646422422,0.05467641486410435
0.48464084233110727,-0.7248236975254829,-0.24727859172074085,-0.6728799913799544
0.5631552324173004,-0.5063898149278755,3.021120809445372,0.5280371866767304
1.0307981621775117,-0.02221632007253216,0.9040120960668481,-0.5859657367935768
7.818930963691717,-0.8451868461785128,0.055768606677732535,5.5988367476343885
0.03734976896451592,-0.674123939849079,-0.48468975666681924,0.0841194648139929
0.47604069632359436,0.04437036162018648,-0.6653129658276024,-0.4930275756577642
1.5628281887819058,-0.8482065509403106,-0.023791636071641253,-0.003675810260231449
1.6049917743811077,1.9815223192146925,-0.6005947462494285,0.05324847635971408
0.5723368303622538,-0.18185930065948386,3.991297409027873,0.6894351592787562
0.2710275872617014,-0.20703638891432075,2.508004077810925,-0.08175284099465141
0.7625830691242264,-0.3693657768895988,0.44574177741624244,0.1968957129432536
0.294026077266601,-0.5994294834294094,-0.4670723728346813,0.7839710456381157
1.0134966299437909,0.6086219555349981,1.1765414704916513,-0.38968496879360737
0.30770903757384116,0.8663866809465057,1.6503808019425463,0.2914048041196211
5.2092624653375355,0.00658826533473289,0.45144171620958273,0.012925739225557953
0.018689766978259748,0.07413955633486369,-0.39175502494771597,0.43455327059029014
1.4914499990204795,-0.9469355263735529,0.04375908838903331,0.7049169585975168
0.1464397088047673,-0.3226887533847592,0.691080374438737,0.6255725839357902
0.018312682985026862,0.04679976807499808,-0.5501523941553221,-0.07466954512207036
1.2156393347638694,-0.6019578698771402,0.33004336174080473,-0.051275323205213996
1.021778814546714,-0.09258463616904133,0.12206710815536503,1.49774267109705
0.812600421053677,-0.837214292359167,3.3084010269717936,-0.0816025819734677
1.002594215329506,0.9324788314623673,0.7450573363865751,-0.3835070999597151
5.854027845293419,0.26080526529673564,-0.4592729421576556,1.0548924870964544
0.5154146686877084,-0.7188852588860966,-0.1721151239496379,0.09822420734493353
0.36166306113658364,-0.5351842491012286,-0.3654119017903027,5.777043816755473
5.6113934638254594,1.256671888446598,-0.661023359622624,-0.08081537831297658
0.9083827919495076,-0.0838358586334711,-0.0024449940377353485,-0.4766655329958346
0.35217188610419226,-0.4751809801045267,0.6738454231823032,0.9899710380109745
0.9983570148992851,0.16068140054894875,-0.6161674349361237,-0.32857215399320416
2.610178428687675,-0.7920986750939035,0.30743993198512554,0.36238988975348363
0.007938654677675183,0.06922907339696738,0.22419423507590008,-0.00416324024679926
0.7191806004208865,0.2581698104406127,0.7744623546517313,8.542952733203036
-0.16447998254519935,-0.30874451926955726,-0.2701261100579909,-0.8989415744840507
-0.39461938185872814,-0.37801741206174055,-0.41709897097581194,-0.27456111168750363
0.907126032458607,-0.3932613022487803,0.4063299230684507,-0.22677597401114014
0.2513263846323679,0.718876594049314,0.07138835670429633,7.641151494353355
0.6325866565655074,-0.2507169600968615,0.27096046061884316,0.03773855453932029
0.665004590205448,-0.4366626984740075,0.5346133515046292,1.2981078256247
1.1267970300473897,0.4494293194212735,-0.22237416503973106,-0.2563017006495183
0.2188896899522612,-0.32597971493850764,1.3482389933178291,-0.3209610199902607
1.525377331355164,0.45375844661394327,2.5159670762806297,0.9653079637808224
0.46409984473237187,-0.15247992500941188,-0.07848302191596124,0.10307169245833214
1.058529882572428,-0.606210503679621,2.393598039817492,-0.3060332302545665
0.37392224233617144,-0.47651503566830056,-0.4127081863909624,2.0683462506387684
5.467303090444571,-0.1608314691904409,0.9305430394924514,-0.523573567274835
0.5715091238653289,-0.15034538094198757,0.9266684215040308,1.570476100230826
-0.006803227730079575,-0.5302352962866652,-0.7845742677309522,-0.8342858792046182
1.2669878019364909,0.1996964689416818,0.718090843304148,-0.07362262938782804
0.4707820885097931,0.4426636690727437,1.5555689919131424,1.1056956414761379
1.136489431395276,1.5846528442957748,-0.19431394176174965,3.068756945455074
0.9903004025569173,0.8603999106535984,-0.8406075710554268,-0.301231644382831
0.394478324308025,1.0485115220179773,-0.5531126567567467,-0.2881431694092029
0.1820963486993601,-0.005895777663647461,-0.06522894142248714,-0.43126184130143297
0.8379961291389286,0.7245094703839583,-0.04030421562217179,4.34373712899835
0.5823610392614598,0.1853933306407558,2.591382931612077,1.7007367945912457
0.25763756329860854,-0.08765616987823432,0.045324617632539255,0.3253123327983285
0.9705867822294905,0.07257106325298501,0.22500081966643481,-0.4268492853415936
-0.14922176771157813,1.2054126096148288,3.939111831264298,0.5755468645302235
0.10013450684372582,-0.422122604666597,-0.2642062895637529,-0.6940320847118258
0.006828770975874976,-0.5388848687047445,3.152153734027997,-0.40124819222796226
0.7588586523927621,0.3105057562438662,-0.13380455008290126,0.9207546582210369
0.33046828223320124,-0.610616228496812,0.4252461742837872,-0.3905203881270999
1.2713079503694464,-0.3617478239433305,-0.506646479949188,0.04407833917526016
1.2091120857135844,0.371319801313579,-0.11608960950402936,1.3461023243679553
1.256948654235317,-0.2166026916962398,0.7894035936002703,-0.5748325943210405
0.7948795035962593,-0.09152563061033447,0.13081957324946014,1.0419343627734823
21.820535496422416,-0.39661987768049256,-0.13790677669315876,1.0184055121045277
-0.32847744966386794,-0.6235638016443532,-0.5351425131495764,-0.7477556574788883
9.843220679982634,-0.7409846693190034,0.16686053653074318,0.1063839009225016
2.9955185775930038,-0.3050765415897192,-0.2939791214559536,0.7798180821929905
0.5921840719018996,-0.3231061382726065,3.3409963693849267,-0.5521885760751608
14.312036029994097,-0.0710548605420479,-0.4939382889090457,-0.7223267360988213
0.27760141054571297,0.09914493404344205,1.6835998374657968,1.0967217744303133
-0.048294907734849235,0.23470442309625983,0.6765527336124535,-0.4215975094947637
0.5120019995420433,-0.20868116571660444,0.43191526340107056,3.589991310524005
1.5537390484104492,-0.3902750541170733,1.296476224763031,-0.2067026523374519
2.90654830776246,-0.27386282205967405,0.5835261814059824,-0.4529426132907366
3.00834025893972,-0.11931839675799227,1.3245312447911255,2.2153175201617703
0.7034340186624664,-0.682626305398873,1.913596069828369,0.3682328498818903
0.3989819125050591,0.05074130027300683,0.11923064471584777,0.01957216506465853
0.9967546890501315,0.021300798318534486,1.5183221127632716,-0.438486178761759
0.40664636708054447,0.36925920021362035,-0.797481138756185,-0.4565354022421326
0.5255205032265444,-0.7326508846333843,1.3892005332078403,1.2578639109261114
0.42681563225852526,-0.31988812698045355,1.0603252633472526,-0.14832462191043994
-0.26985575631706793,-0.40858759040339987,-0.020464741094990302,-0.6310538393950134
-0.042079402642641095,-0.6145035876113232,-0.4756657828324883,0.10562702197679541
0.36456098948109905,0.491804044385296,0.3294218630199992,0.389557163489213
1.042083536986906,1.0675998732448946,1.6479434884255029,0.06301589571834865
0.9492954024673168,-0.02913410068322586,-0.1503576098793581,0.3842707260952647
0.8770077644628487,-0.33678586114059583,1.1694935657767505,0.2098065135220082
-0.015181948125828848,-0.44127930901089607,-0.06683741582856362,0.4585046970488349
0.6689752116808001,-0.27386142223433185,0.299677796323387,-0.3504366393423952
0.5592893270465957,2.2733517705607555,0.6116663208471291,-0.009991085486728224
0.7128718000496752,0.2591175746167689,5.613449521833552,-0.27414783809804266
2.087795585984264,9.31742378887731,1.7454340921664833,0.09857471114470506
0.9282793060927901,-0.5031056817868718,-0.20794115528153734,2.843735119528963
0.23842674550428788,-0.6917605329929916,0.7513408185808199,10.306790216424384
0.8574459913254187,-0.2849303033464844,0.11354450446304565,1.770576630533799
0.8617997976980789,1.8970195123132765,-0.1703132784304252,0.47876420705125033
1.798705577397807,-0.3776945515586587,-0.09565032442938759,-0.7875469472737097
-0.07943781954284734,-0.3019237326158588,-0.3136447760014852,0.07892333562898934
1.2616229859115626,-0.13027043516014247,-0.188243370921642,-0.01247095988488045
-0.0029462492935909967,1.5456185630837171,-0.32718321345124923,1.2871043206354105
1.129513688477004,-0.07227227758721533,-0.6361690843568703,-0.342738561593362
0.3157586857717838,-0.05258863694466154,1.32629396434786,-0.1561683419627723
1.24519400696715,-0.48363569753807123,-0.45883816689574963,-0.4994021189031963
-0.06918602457775314,-0.4118961984050026,0.8517576029621163,0.8078064757726011
0.5802275833394217,-0.4234234321701751,0.940047057832818,-0.5107875802949173
0.9077325370030414,1.1499713937693978,-0.24665050461280758,0.3024087412201566
0.4931841609703276,-0.6812056751048285,0.05877624650889812,0.3174882110667372
0.7568158444709232,0.2572408620150468,-0.07416792875859868,-0.47818819667655177
1.2280140410980853,-0.8954783633798078,0.014437979685941515,0.1683682670694473
7.4025175857568595,-0.15251405798256268,-0.09444366517897906,-0.18614031359408156
0.6763982776247535,0.00563960000323771,4.758516581893703,0.3531829208079018
3.016715280682595,0.0007664221389966919,2.798296396999657,-0.2374704734944355
3.6603094082273078,-0.15110293661834828,0.13665504541538165,2.204690210164301
1.2011516473775843,-0.6040522494869249,0.04896914288076237,-0.5487086648196919
2.5547974121384174,-0.1026994118882083,-0.2751505966431894,1.313030344440199
0.6246822010301014,-0.2452326094907128,0.36090623181237325,0.7291791316757641
2.515323989131139,-0.5028303593609744,-0.646335022710413,-0.32800946472955483
0.3617137120907521,0.42740744067732295,1.760281266595801,0.8504499011445341
1.6783790074768512,-0.2856369915611535,0.08600492316205255,-0.29050830320055354
0.30135184487928446,0.9199012325781897,0.6959166011230082,0.21792334601320817
0.4564285013368017,0.14963293848024417,-0.5049382727721687,-0.757363914831043
0.5519100702116688,-0.08906389725684305,-0.43024481132056025,-0.09883612599136138
0.3737829062510678,0.40140265370778794,-0.07017134472723496,0.6259104503652049
-0.16566505404821874,2.7976859497613304,-0.5075527980316699,1.1537793212479026
1.898310781713766,2.0580583492384945,0.7237767580062007,-0.24692593403030494
0.5466184101471432,-0.1878608876284832,-0.5157129058578765,0.7758849651491933
-0.064541805797793,0.028539077331142915,0.39218767028538903,1.2769434524295646
2.367692851485991,-0.8093821923929432,6.178483051671588,0.4531185048918165
-0.0036503669813118256,-0.563573860643718,0.023802986089856093,0.3414476094344152
0.5176055831882362,-0.6497572010073249,-0.13102764368951458,0.04057514683721397
0.6262359702325846,3.240358208844789,1.0634616214816384,-0.257679864597016
1.4809302959403174,0.9121455383707533,-0.26723284451636653,0.01890883635685836
0.12117163060064651,-0.6509932819954489,-0.6904192245180969,0.8246143229265492
0.987388471363166,-0.3457611266038283,-0.4482712233695114,0.21978929988370988
-0.3654091896283448,-0.6427383467168511,3.8541201950801787,-0.42953723566871516
2.1449963912255403,-0.9610655310595999,0.3945063659506345,-0.2201303507539819
1.1002090069179564,0.5309827002236631,4.679140622260982,-0.1405274937206178
0.3753208190937918,0.008496066604994912,8.25749093320406,0.002210469037640106
1.1506851950645456,-0.6344252536940951,1.9110300828408113,0.18106246244769353
0.26599729327483534,-0.3458801937643512,2.8239369490929067,-0.34891426803039305
0.018345981593787197,0.06969081815900013,0.10538399610020788,0.38174210896876093
1.8632036610380949,-0.40769394837017026,0.3787137045799003,0.2369815902620538
0.4409160992230121,-0.42808458497219215,1.0141521144310173,1.162964248321035
0.6143380912757652,2.6463975913851705,0.2613182068986173,1.8754980336102496
0.8900288248497878,1.5256936471538856,4.806890362345968,0.5668034127551496
0.8433467740371441,0.6729385205501914,0.1481284104455396,60.8002556067649
0.2449821506657366,0.2267839373474625,-0.22069459054955787,-0.8731835272918147
0.18234865501813258,-0.6226864705911727,0.23681139168467547,0.19288804618466626
2.9020914453706883,0.0007062212256250255,-0.4101396017100152,-0.8603352482541663
0.5867516477943953,-0.294083354517479,-0.0035194534261842048,-0.27357486024374356
2.701319809267032,-0.7668270954306868,-0.2881963709088602,0.01101389708944489
6.00573465502724,-0.11443410455635439,-0.5308846261126265,0.6930655563584633
0.14584103923076186,-0.38773549308399324,0.24823924455859236,1.6280471677600405
0.4304085570781393,0.05583667288098515,-0.45429979234535334,-0.2219929695741748
2.400566048019454,0.05988855476080723,0.6344523389308245,1.186729689297426
13.98761860098688,-0.39827545565281763,-0.004902404091008727,-0.11104300488204
0.2066029983975226,3.768265784656598,-0.07153683239990294,-0.3660832486474609
-0.06216158757060275,-0.6826307860616234,0.3346400683257542,0.8371148947269724
0.8299355440978899,-0.6161703297468187,-0.002917881875366235,-0.47638097081964426
0.23303538158869475,1.1145647075493983,0.08718578592118909,0.38555233307177916
1.8349752073723309,0.09783629499660185,-0.7923506006617065,-0.2850172686250234
0.5505630446532632,-0.5172790871703533,0.995145525898727,3.020352697931976
0.9497146981314595,0.17517749250705927,-0.5175984500390527,0.10466149840295658
2.4192041697000337,0.19262769309289363,0.6117590259678285,2.7213629656242975
0.6674574424334154,-0.6965922209661544,0.06607141542880779,-0.8157812370528704
0.7957514606857412,-0.5632279475675939,0.5470202377450146,-0.5616898742509224
0.523738265862892,0.3838620774207193,0.0901984591811047,0.32180670931773947
-0.14110288264149373,-0.6653324784084462,-0.4257024878958817,-0.09531529154814389
0.09991681297735622,0.5234319795326567,1.2035188966212207,-0.2501619491880053
0.4320736207439788,0.08102894419944695,0.26105875971552805,-0.8698721636668235
1.7095830219861456,-0.5977951268204889,-0.4852606531915854,0.32069448613274765
1.3923027383325173,-0.5618107057034543,-0.31083273784198806,0.04624512903185818
2.3691405802067145,-0.6291792816467605,0.9350793793305818,-0.28754276409045254
-0.3669662289520309,-0.1990888293271288,-0.08481986493724036,-0.7496212588808462
0.16295165508225296,-0.6799572166544583,-0.18687421529083192,-0.08639947545245152
-0.1669855729790506,-0.39377526588307477,0.06022530357948552,-0.22342142837358103
4.701945201435034,-0.5540921222132962,-0.463921766716748,0.06764454496282224
0.4979826684522859,-0.4470708118757891,-0.0005557986878025334,-0.36444620275959927
0.3312342302928599,1.4600047027002998,0.707934509825751,-0.5364855768810528
0.12913114314225216,-0.3843235091927635,-0.7747492310203116,-0.32872090537472576
0.8968183427502152,1.7295803745113294,0.7998959927834748,-0.17453274529787477
0.06811677951424788,-0.13964694240943765,-0.27969577470362206,-0.061195549953215966
4.208087643196129,-0.29837005165189456,0.17139771379569813,-0.05189489668299152
0.2992088410265401,-0.132386490467705,0.7244110111330608,-0.6250738447345026
0.7310101113301646,-0.2304779577345919,1.2435990925055482,-0.3520079364196028
11.274364544172379,0.42703707163157834,1.5242643673062202,-0.4485430660962211
1.4692823734075673,0.26877836894048546,0.3095407490533084,-0.043195066848276564
0.7410193180091311,0.02037048831272137,0.5985997685787174,1.0160190103104445
0.17953637683306956,-0.6229009422152143,1.583711997822932,0.04750786311967947
5.694670511250482,-0.16948162455388582,0.031151285033945486,-0.18918904769469913
1.2453752307347914,-0.48004705092543887,-0.5692724973892052,0.07024510026020003
0.3155650127842162,0.6369405367261955,1.14559355048371,-0.6410025620610433
1.034420184195079,-0.397595779028897,-0.4899640790747015,0.6290112298177184
0.15179799530373295,-0.22438001387160955,-0.07383804446011877,-0.1979636618624554
0.07509618646064498,-0.15888423530761997,1.258749755880773,0.486332100726409
-0.4287400350617435,0.5150792963362305,0.6513308506033739,10.443303909271075
1.2454665072867455,1.3824772186606071,0.17726553271159218,0.6100448465402573
1.5649534830376384,-0.40195713353484797,0.698866520000367,2.488483518450133
0.6694141332951868,-0.18426614113210726,0.3835599820001303,-0.8122459227305827
2.9132715016844934,0.4494295041574923,-0.3575874936424621,1.1537584115319808
0.5672480644299136,0.37932060180804084,-0.08100690689538781,-0.848169359833983
0.18551932867345755,-0.04497630720051449,0.6282766353055982,-0.08245257807274942
0.0072505206592576865,0.2902510280319328,1.9514154906906138,-0.6171884521280143
0.23791275552231905,0.5180603344154922,0.13781264924770253,-0.453819580319486
1.2608047139742915,-0.10835818958317445,0.2707109088692701,0.20596163170302084
0.96570604347995,-0.2501067449029003,-0.20035995559497777,-0.18906095387287591
0.8982421575742772,-0.7865729305560696,0.19875059197435063,-0.21076361265616317
1.0261555256777481,0.6694150921975537,0.7619879191387127,-0.19985854467418662
1.472040592392069,0.8258030366836757,0.8601418783072128,0.764534683733763
0.009898260386314472,-0.7336915852234385,1.5839780150929408,-0.5859500917266556
0.10976510148764862,-0.026232140639953494,-0.6550535375427996,-0.4145296414454587
0.9075778931963687,0.810125042400422,-0.3441793074410594,0.3150344105181617
2.4985799450483053,-0.13571416709274864,0.5688389137546661,3.536055769284302
0.2655113213972453,-0.2837056853558795,0.22978308975890838,-0.16797174780518842
1.5130283852947626,-0.6718721757788979,2.373159238242466,0.28835043992903175
0.4635432301715825,-0.15418683237089648,4.717472975609901,1.4480051760329076
0.6228440355027118,-0.20779535920654735,0.01266479648652652,0.9196894744383999
1.0911446236304094,-0.2549409500845913,-0.15803938476687296,0.7190291346365101
0.24417535707437987,-0.23295650451405803,1.1073677985414072,0.21467169357811633
1.4716413057402011,-0.09825960219485153,-0.1585345801087047,5.354568878068346
-0.061096112555855564,-0.10805212379404727,0.19032487122750918,0.05155469199614249
0.9133743062935122,-0.3497152952531585,0.562832534588551,0.05520039136402377
1.4816098161376527,0.682413121723489,-0.2105022427237776,-0.8697479614179864
1.4285689452424246,-0.1524585423992303,2.6573919247575497,0.16604083428568517
0.5845838544633646,0.2598231310893293,3.9903468416782495,-0.3482654099442647
0.9948033505716227,-0.2155487350124099,-0.07992496606670108,-0.4053632774707324
2.295124580125977,-0.3694634291729041,-0.25215957420692237,0.6266230160188999
0.7866816712642708,1.4799641152791843,0.009215506127929318,-0.804125372045418
0.11809224014504793,0.05743771961919619,-0.12417586891353238,-0.04525642146206743
3.1750910417544445,0.22438567286507527,-0.22040524748933776,1.0410041736631732
1.255416687018657,-0.476753367401169,0.3983338602922475,-0.44346672347252436
0.3789626064999889,0.3980095203700136,-0.004634623895178547,1.0947183905606654
0.6533713582171683,-0.5479771003907552,-0.4532992915563495,-0.4814369085334722
3.4401952984126227,-0.7263025554871483,-0.15447240107307036,-0.35686307319519106
0.1703405007538119,-0.669408368863327,-0.14916892786837022,-0.41297658707529206
-0.9822432235473643,-0.006549312428239862,-0.07424382977958932,-0.39243479801693104
1.9940965244284294,-0.43854899733169006,-0.2326599012451318,-0.7406675741197449
3.602913811852652,-0.018091743063473498,0.6256987187361953,0.3987758842111919
0.6437366975177274,-0.5661628236304115,0.02209623091137991,0.1879924054964781
1.1631752854381308,-0.711791561640134,0.4721146827257894,5.789899262443199
1.7198127010771684,3.5104685559871562,2.87868990890893,-0.00014814507518423614
1.3801487623435804,0.6141782387869001,2.1020663361794094,-0.31207645063306055
5.938029263961208,0.36449944977485194,-0.18564003849425437,0.11804858441445254
0.2056249333089224,-0.48445760608890787,0.8606391256211177,-0.6026749493553092
0.44308835606244634,0.0323404771175646,1.318553711153041,0.5847592447793708
4.96089396065923,-0.03171780576831784,-0.12172971977056724,-0.36928115509443526
3.1731336370631427,0.11421946990283294,2.130382331866131,-0.11953266323890344
0.32680779859900144,-0.5140804620343588,-0.6904794113140289,0.5506286808317946
0.5262585317239483,-0.28891824686471923,0.3459212924152508,-0.24702318372322674
5.042572012559627,-0.31911050789084483,1.2865663524749729,-0.09617567832855412
0.9945438622620646,-0.37222450932649953,0.04620243171347127,0.44060931497370603
-0.027743030681708802,-0.6412103537882139,-0.9159582940514271,1.109112215756574
0.9598392449608575,-0.7876782194937247,0.11937579732735215,-0.32037778930649397
1.0743393274599717,0.9805123494030217,0.24197081845838686,1.6114323032275912
0.32516941687071466,-0.42002372826336354,1.9544521289177172,2.71274267199901
0.7187228694668018,0.8278959875346101,-0.36617417098430294,-0.3821014507542001
4.852640796277505,-0.5486203504839395,-0.8255758615958138,-0.5559566172818363
-0.3669502917070777,-0.7413835557539502,-0.0742740203189064,-0.22828114352341522
1.7433216625555823,0.04011315538409077,2.059727368307758,0.772223205716907
1.0836401476481106,-0.3081948924262419,-0.389017943972789,-0.2585615256285889
1.3051653918654909,-0.9322391995813185,0.12783583249130448,0.11824206654213176
29.844558978304885,-0.5841765244057817,0.33804363807530113,0.09189425368863602
0.9655382652903077,1.4310150115095603,-0.16965693908695945,-0.401818285229823
3.705449586147023,0.3105117466791174,3.121840344379736,-0.6425657395414877
4.229083780329055,0.4965930457298926,-0.20069994868816032,-0.062261600993510746
0.14785582218609572,-0.6378259489429976,0.23407661033323945,0.0767706341877814
0.2809382952800161,0.07856034612099871,0.9772634580743758,0.23159544391092846
5.028930187178884,-0.6910528072936691,0.41621225927156824,0.37367601835955355
2.4499658323152715,-0.2249112923582124,1.2150841937271109,1.0286501585297319
-0.2168730957828624,-0.5961454289908505,0.127529342600875,0.11075012581172383
-0.06897702577866249,-0.7864521191182277,-0.5947701443060054,2.0546885304684555
-0.2901127498706907,-0.5351159121179052,3.5664690622825947,0.23562618999680818
0.6489107703720143,0.6224201993544378,0.5960288946767094,-0.14121729832036134
0.347306801324349,0.7239622063838844,0.36051677952080285,-0.13675252364453316
1.4222379440289155,-0.4971553571519143,0.8940696524145635,0.28071461777878337
4.150039031802012,-0.5089408998860081,4.626548160504384,0.2571993404679216
1.5004666148738246,0.010093499635347225,-0.05293444501026123,0.4473690304425342
0.69971253731575,-0.39917282853033276,0.10039092467380817,-0.4324214197896369
2.321629792789959,0.054150209389454584,0.1122092475610279,-0.7259850443127966
0.01818975485483021,-0.4929422286333588,0.6280901641659022,28.164587047292226
0.7411239488169401,0.33037312544794784,0.19517100522256348,1.0373024585692452
0.030316505170415287,-0.3416341100852577,-0.038572436678530275,-0.09903442492652503
2.83500332149839,-0.22774923909482625,0.5096235778088394,0.8773227147751514
1.6788405326071487,0.8882748206579627,0.06942500197651102,-0.05900496294830737
0.5871822542495895,-0.23791004477543032,-0.47142805602832893,0.07024638965906882
0.9838077157298744,0.012370464637698753,0.07062497558445213,-0.07344814232055163
0.34116783286236196,-0.331109046377965,-0.044501411865351614,0.21001931795679418
0.3921081117244447,1.3657275288545474,-0.43192581231970395,0.5557202117493554
-0.1733229584408955,0.7123098428643837,-0.6744752499651203,-0.385699027801766
0.4611457027890955,-0.42641826915540926,0.314467294720985,1.1861657310505525
0.6053393484323073,0.25377856929201004,1.2209816307724606,0.3874281214435482
1.1132590474942705,0.6125361560196987,1.085197849147439,-0.20458626538486047
0.9755519546180487,1.0990990171511017,0.4845781164433467,-0.6217073964766489
4.014095086722346,0.020260751514134645,-0.24303584527102373,-0.10629089499135114
1.9204447620776435,0.2007154456790956,0.7739543453066466,2.3088485018969904
0.21081381684546452,-0.6338899644400876,-0.4511353914404289,-0.6987875716949399
0.5696131935341886,0.5629323222135325,0.19982184401494352,0.4162199906482238
2.4924198064996426,-0.1545366066605819,1.6619771845084648,-0.6143587297708335
0.711728414483829,0.8445913595889627,1.2900325545047249,1.4293263152974656
0.22491679009860155,0.20164064929759973,1.4804010650853132,-0.39400911576490494
0.03412972108822365,1.1112920772492942,0.8035677396394407,-0.7658733653366503
1.7577855272954137,-0.09998494213689568,-0.3250885649670886,0.0034880099518757035
0.663026765316516,-0.24176985993434286,0.009779029844662945,-0.21553475314221116
1.1955976640083419,0.07087098741299513,1.1193022218483337,-0.24861767418974234
-0.11154739457032048,0.21375145046084354,-0.022433743476037438,-0.030122965023536175
0.5229836698306163,0.46470423474244704,0.20444978710443662,0.05912338821892482
0.5802617483194239,-0.06115730082834547,-0.012518112977680795,0.017551959288134356
0.4524676771722591,-0.792273354187506,0.18072443833807972,0.17803606741760492
0.5047616672198059,4.0339997106664764,0.9139430406729965,0.5266283548267747
0.640430307750018,-0.11029124026565873,0.22332195663514653,-0.30760045889821974
2.9680051543812587,-0.0010710751965810061,0.4208354872495943,0.5410346656927683
0.05555298534341091,-0.6343185214158411,-0.11179387763749382,0.41901035910311957
1.203183483611073,-0.3250886429974926,1.726055428165553,0.6536155673977164
-0.1805224068630612,-0.3090656311409845,-0.5754074495219734,-0.9473490729536538
0.42004941287020436,-0.516105083914174,-0.06725632265216885,-0.12276839096247338
3.4827753914154806,-0.49499793710577733,0.013345768094994437,0.11610076145572279
0.09453227167924427,-0.11506005506735362,0.3175996328558768,-0.705425383096838
2.7072108200811855,-0.3223979842742828,3.934447437607618,-0.019114273273583282
1.9832303100388589,-0.8543551234359342,0.6467226809216033,-0.2335942040982657
0.8450063227681786,0.11036593827973262,-0.2896210887257674,4.0010094478951
1.081618105663125,-0.1170562660448472,1.2595593429216905,2.442898371381895
0.21978097567196042,-0.5421732822178625,0.00350766851520512,-0.19564237504147075
-0.23648841454382707,-0.4923814028005875,-0.4924018857240321,0.09937682341881082
0.6213522411649852,0.7796082524045103,1.1332917994755065,-0.18657059972338164
1.127615857001699,-0.8060854255635228,0.3529866406257218,1.3122078328216773
0.36738398558462637,-0.5506611479702506,-0.33820034923205444,0.09343761443545096
0.8448665932571984,-0.39637743371601897,-0.47223156927771137,-0.4744779461078784
13.043816888746516,0.8148605552157717,0.36995780567347203,3.4436367163010457
2.762483804200994,-0.7346530724567073,-0.545255898208595,-0.7911875332694277
0.7652437605562987,-0.06496138977866961,0.2744506584168096,-0.44960709354939377
2.6115788553148915,-0.4793456475158817,-0.0818324921118373,-0.5676204338359516
0.5473068947218689,-0.38907562042060106,1.5892691484019568,-0.6130394387242315
1.0899641333027876,0.5750462399334086,-0.027630118754949473,0.36312985708468437
0.6586972309031238,-0.47083167323932706,-0.15815181100867703,-0.2764013371081465
1.1799094477462564,-0.2745155769899609,-0.473563756341269,-0.10994154337602735
11.789819674349792,-0.4661265116070198,-0.5135985447424027,-0.11105407339387574
0.5620043852294627,-0.5062542788231882,-0.37989023022046475,-0.6316042857290807
1.4063067824548132,-0.36588783129218083,0.4568402026059213,1.1966153874669678
1.3975947346407147,0.3871113230741101,1.8515943377371222,2.0582784784302346
2.1291775037960625,1.2455188096446967,0.8375165422568014,-0.6239452634976743
1.4226868296296695,-0.48879947844833527,0.389872656251546,-0.21733279987369092
2.406673898919001,0.5269451281274151,0.9698669854352768,-0.0024786760723949364
0.9918991158584207,-0.2629729969242798,0.4512428741704475,0.17207981778335824
-0.276077538021716,-0.7817184179839339,3.9550399979425457,0.0001702933717231403
14.03405609693273,0.825903814174787,4.58485970636736,-0.38306838453697367
0.864825630939613,-0.812905565557281,-0.14353591238465424,-0.10078732997402529
1.2118043782131331,-0.7565184641765221,0.2821425364814041,-0.25136498573421007
0.6847098559225064,-0.4588304412780103,0.29692659535571253,3.8258705944243996
-0.02598295413974039,0.12307140753182977,-0.3255494936036605,205.75537728414687
0.7528468988662171,1.2093651067238667,1.1821644030826843,1.0760799852106642
0.7299128051738202,1.0714855952813402,-0.24622938103501357,1.4652827957252956
1.2267297567998656,-0.04693032769505989,-0.17175506505450433,-0.44986455950828197
0.8775886849132084,0.4092337234778931,-0.06544338896664093,0.14816210598874124
0.9854065647554082,2.503753135836299,0.8074170781258532,-0.12966073453664528
0.7512482403913432,1.6414077309082127,-0.30975889540568224,-0.5006705432602525
0.7028910481002544,-0.5820103643147401,-0.5787192414151958,0.6074238046753622
1.098975079396895,-0.7638985229703338,1.0139853745386929,0.3614700244374811
0.10089135497676915,-0.5660104588848505,-0.846970454238414,-0.29744757947066536
0.38368820364471157,-0.19365556931364747,0.15215075158047853,-0.35196493701763043
2.261405320708948,-0.43016378645296094,0.5788738231523276,-0.26085639233559854
0.5591635857384776,0.4933861380636677,-0.24976507902545475,-0.2630890249576435
0.41294103736501375,-0.5592053200285446,0.3295900510542271,-0.7336349871233828
0.6759887904772879,-0.6497181655411663,1.9781700883799775,0.11787955680680384
1.2992134546534801,-0.049384032376740605,-0.2771462985562413,0.43487672236525454
0.2678621630919218,0.1573735996320076,-0.017249234201421437,0.013751244593786183
0.5715113572100476,-0.6731330106390954,-0.09788081226325007,0.6915377759121082
0.20216950609786077,-0.8771187702421216,2.945623576920638,0.35995566583352634
0.8271155203283334,-0.4407735976269448,-0.6036153803032246,1.2908633479936613
0.5113787160216305,-0.6687038995357116,0.16367136580853003,3.650594316013507
0.7108291203002919,1.5415646090252206,-0.1413123695124363,3.6234927450172014
1.6544100253071616,-0.36829171385852955,0.41771126909572365,-0.14956843676278098
0.3988894083726522,-0.8150299357307658,0.34451407260441247,-0.23397453935033075
2.223046643957135,0.19325873606377741,-0.41725353019460054,3.2282158487968777
1.1038493312406152,-0.24781736851581238,0.039124202808346054,-0.6125789909135464
1.682640676842682,0.22548963239466535,5.463278368882979,3.5426513064349585
