x1,x2,x3,x4
2.02903042896374,-0.1934400776597599,0.4804351375742226,0.4228812985870163
0.8165475357976462,0.059717885265794024,1.5321286942703933,3.1482829249392044
1.0723153584820881,-0.3231946019984411,1.6623252699218432,-0.6201901878954188
0.5664659435386761,-0.5668868452268663,-0.32149375098158794,-0.04223877738221371
1.1280804666967148,0.3207729400663002,-0.5446431307293983,1.9854839079006235
1.0312934033511314,0.10567885737567662,1.2021529726027476,-0.02586319609826515
0.6936516244883959,-0.09914901285998057,0.3931725317401622,-0.5996320513839224
3.927044553218482,0.3048010033805437,0.158233258687847,-0.46753067999446785
2.2346327600074742,-0.26302620920361985,-0.07598834948650102,-0.5999316381836006
0.401194951684144,-0.7775480265946795,0.20028645110246868,-0.6205744770783994
1.3203960904643264,-0.3790484271689931,-0.7654793184402059,-0.7229665685629381
1.5120940424491063,-0.45554450204741936,0.6943272413133126,-0.7711113060517539
0.8965184326073545,-0.8131034207188352,1.8012625318031237,-0.5202687599926529
0.587045420800195,-0.10794319412089337,2.632315309685734,-0.46946070079636504
1.9494483370922637,-0.7610703413926649,0.030720420226436396,0.5965774499685852
4.310317769973885,0.2134714152248418,0.5801205372973395,-0.1704928600006077
1.6462050172474743,-0.5682074370711625,-0.04857664566654518,-0.3406241260947599
0.4080003057414374,-0.8969010162777006,-0.46081163151511473,-0.14548304756700314
4.05634613970965,-0.20057557582923136,0.06609497313511636,0.6873766256301408
2.606319404221833,0.47837440013239974,1.2575371179092025,-0.32707564907634823
1.101433177067109,-0.4811678662641278,0.1156445560848327,-0.8587380318756264
1.650258222788723,-0.6114077253697744,-0.2589847785399658,0.08351975872421047
1.5014305558860248,-0.35588316052638513,1.0061582005353222,-0.07276244202300552
5.741131545285754,-0.7967361961215625,1.5285766426936163,0.5684869034368873
1.113240350979034,-0.3833756854666325,-0.3191012778637843,0.26856148444780703
1.10676114765764,1.0187371286621656,1.6227699811963268,1.427595126727463
-0.04134507021121614,-0.7593142530728175,-0.0525219280000675,0.015301240101129654
1.029306816175342,0.42326848530430317,0.2696444975832766,-0.3384802958017883
3.275294312361188,-0.5036881164409731,-0.22267313436167813,1.353942594893641
0.571740937323524,-0.677228987258053,1.3637620252068463,0.13210970362542995
1.5518949711060364,0.08021277820696326,-0.047585817079804915,-0.30508489725155097
2.4768868699456834,-0.08661243537054697,0.3731517836975642,3.2886696753972258
3.8800226421376305,2.775273821996283,0.8583486384524923,0.45862795637888687
2.2897369391233697,-0.8664670164297728,3.6800157659866795,-0.17910645693981253
4.2886047316057185,-0.7011398912650215,1.5376123292397885,-0.34535695303569447
1.470200626676807,0.37992901471954155,-0.5043418477573196,4.121536638488013
0.9689410359480284,0.15646162111811157,1.637633011946368,1.4118714753682262
11.10334816201509,-0.8563037203497996,0.5780989656659907,-0.06466245415817129
11.549541874992395,-0.35487269332467586,-0.3633476329562646,1.9759452573649323
0.5052421327488377,-0.006499971414652306,0.3746531024719779,-0.5307147924693416
7.073516430814008,-0.5643072328904926,5.695117718325717,-0.6493285659508068
0.2709661692260732,-0.7049616946563977,-0.1382377318802508,-0.4231018322462492
2.371835126376149,-0.025785605389031074,0.5011906390604202,1.8539110292423202
1.468020374084396,-0.2617760290874894,0.13886302573505582,0.010462732784444873
1.7339475188693703,-0.04195991522674336,-0.21353822996686056,-0.591130823794585
0.9391922425703882,0.9067280223338126,0.20584881672529476,0.03527420283445548
0.5058780434090875,-0.4153581835484057,0.34649769910593786,-0.40294351608783485
0.46926467532910254,-0.42996632128017,0.1838529066393526,-0.6088531070841263
1.2214104084798043,-0.036043187162016044,-0.758341846332521,-0.32995879972130715
1.3474437066830345,-0.2015325884787602,0.550622424992105,-0.34969119043260355
1.7979982907789989,1.0688833762330496,0.8049425441903699,-0.23446961232134067
4.633184299368376,-0.9377813758944362,1.5191478201392319,0.07342743755464509
1.4765391565663593,-0.09042094749211582,0.8643191563575015,-0.4334335025349252
4.508422197595239,-0.384072075508045,1.887121029808255,-0.22627971322878548
1.049869397385125,-0.6828793628284255,0.024259061558893347,1.0052262856216991
3.004232127623112,-0.49873176428731747,0.28663563424327054,0.0980087335303832
0.41345130952970166,-0.8575516162811203,-0.4113785753020336,-0.43435028703858225
3.2938930635507493,-0.17948592294547305,2.9794596726012594,-0.5574223257261828
2.8793526597204977,-0.5036695871217829,1.4502426266867534,-0.21325076389302344
0.8611043955957889,-0.43193989149089407,1.1216184915935727,-0.08102140007557534
0.5568165819926141,-0.07271361696952028,0.5474836295804062,-0.6685905042243685
1.0962675220091946,-0.155405979719888,0.45003289064024954,-0.29228983560994615
1.4372249850001886,0.8752194165935796,1.946140475569441,0.05570729455836165
1.8541444320803135,-0.13862717480502817,-0.05159208262092918,-0.16877711518847316
1.2078413401286467,2.0166246187538395,-0.05052542339528987,0.19047600288144495
2.20511638373397,0.8362390094319625,0.4707495306804921,-0.19027021036204972
0.3733695381692377,-0.5519898050450194,-0.08272608399673076,0.6659434164274527
1.8867691326018656,0.4712322959708395,-0.12528548233037184,-0.05858071622917882
0.999621000021025,-0.08884934319238247,0.33568248061298456,0.4071782073542849
3.963759979617479,-0.4625255095801264,-0.11749395967390819,0.7316386533792192
1.1268746854014098,-0.6574813991379331,-0.8036606752698112,-0.3803116623379069
2.791031321307676,-0.1465978621546904,-0.4292525119690376,0.4353808886689856
0.7553314508372939,-0.39075308933206276,6.745986091739571,-0.34498395708496965
0.9923448904698511,-0.45279817917640763,1.7291215758617269,-0.8522342218529944
1.065968437992034,-0.7867888137185477,-0.59553915794012,0.353599714533094
5.146957167161724,-0.11983505300416852,-0.23097402575333048,0.20611305027201232
0.7560714350279387,-0.4377063242886712,-0.6425024021777714,-0.05692024994584888
3.5583159727955183,-0.18934122636959083,6.4619734537440765,2.916980192284482
2.7254647407437522,-0.6017338690295464,0.1738190164347675,0.05288531867543944
3.3071039000054174,-0.6096594282295336,0.16785511162239142,-0.321653288444986
1.4290224239333589,-0.01770479218121035,-0.20681001069189242,-0.3456461518560733
1.244244682750717,0.3928273161188627,0.39051054816690356,-0.6717053363796602
1.599057121152951,-0.4713441561427728,0.143808285066652,-0.31713776297764684
1.3357265350065677,-0.47167921531055723,1.7390326932813012,0.20675026993443368
4.0162485685181855,-0.3599384127219678,0.1301959117482816,-0.6535162328605105
3.2306077582778077,-0.18319744537682037,-0.394127200195981,-0.26168217514863057
1.9144661194777939,-0.19836905182562592,1.5082773564162335,1.987960592185075
1.283010379522969,-0.46774625221330435,0.17904540124570634,-0.5153737520556827
1.4922882405802698,-0.2975769170280571,0.6608053888012866,-0.4188485603407197
19.090141816608607,-0.7817683297007318,0.5520446831258501,0.15136428256304812
9.928100714594033,-0.03965389030985378,7.484929128180829,1.5427929584745956
5.16767588585804,-0.11551445081619294,1.4178579002962945,-0.15834026415708435
7.802520765903102,-0.4801869820419693,0.746780189776695,-0.7322054408866527
1.706242204140397,-0.055947393757775576,0.28167399491152234,0.15324558390973908
2.986355539953811,-0.4762681478832458,0.13475026144241542,0.20249125745012964
0.15245338304795575,-0.6659046461699821,9.267469339716358,0.9359333568348926
1.8268540045568544,-0.23296631402692447,0.3628904511167952,-0.47306869508213145
0.5250611472114202,-0.6530925467845983,-0.42947806166613045,-0.11825488865733158
1.9464473234620234,-0.3808540640567938,0.04649009217884137,-0.6018176645162576
24.26391970099547,-0.6704266743772684,0.12582946054949806,-0.6465514385693707
1.2872868366830326,0.1321999180927964,0.1749169334183749,-0.529277743034495
0.2904675643886119,-0.2643832223804611,-0.6611297752642591,0.06434715328275997
5.215390145727496,-0.15609718612733225,-0.38711191220918717,-0.708700707407258
1.073926570739693,-0.4877971649263414,0.5294781995258422,-0.45077285964689595
0.3784521136023882,-0.2136653066543689,-0.047414277623015755,-0.5839923058083274
2.0633659714457253,-0.6217593391603655,0.44476430440654857,-0.82892966608805
5.873810259441913,-0.5810133453769094,-0.4534930183874578,1.1262001973632794
0.8591427630819768,0.06306448475000348,-0.42780742761359636,-0.13546393195890227
2.392630225149343,0.2793678304030902,0.46026222686488527,0.006335105551124265
5.125353914868046,0.12446394678861394,1.3188422052050135,-0.11635752102401253
2.18596417011917,-0.447295080999472,0.2975325130737321,-0.4796253735146938
1.1666580382309286,-0.7233607180908762,1.7682059085930208,-0.31493980046411807
1.5987037408196034,-0.28013709449425517,6.302721768182668,0.33646642244532665
1.6485796925687182,-0.6269396177887309,0.06994733476081394,0.19434964774923147
0.40933683212722416,-0.5236230909196233,0.5885093325667439,0.34216795912937337
0.6666912646389953,-0.2512293936889678,-0.05764090938007349,-0.6364624176346365
4.375524295730326,-0.22509107752888702,-0.8753022038245806,-0.577528986486281
1.2252536423400624,-0.29962555240411404,3.442813707265149,3.8776567727580833
3.274489638248233,-0.1876573997297104,0.4965991030185244,0.7764126705277006
1.3175127201799919,0.04171815140204571,-0.15594850914017455,-0.16824299723885683
1.8068511702920622,-0.2068186625745243,-0.19649232764723867,0.025762129237997478
3.3982131471569597,0.5431686520415708,0.8974819798252358,0.9384022181044576
2.2585802053417416,-0.5628868315496567,0.9480714051557695,-0.11463940690990115
2.1182863888166237,-0.43672690692098237,1.7958469688301077,-0.042684894912650484
2.125743875003201,-0.2930394242559664,0.23274375024256821,-0.41000399125280906
0.23137966121835718,-0.783766575841141,0.9622229520404098,3.341844476248161
0.09313052653575538,-0.6259777160652702,1.2666018444516718,-0.03927808192499149
5.2210886296789685,0.8451498787420895,-0.22387063075901015,1.264426778842823
1.0258231450268207,-0.413389237036367,-0.582309062822101,0.04476569389080387
1.0479299805643572,-0.8074979612401864,3.0152469092543734,-0.5232590429341617
1.7188393240258955,0.3740340161022697,2.9459769051266,-0.1228008541250667
0.31568406156688034,0.04574972300083924,1.9752739022268946,0.28801809766932607
2.181793556495246,0.7696502312161846,-0.04997918035815274,3.9852125048555322
0.9395564412188098,-0.17839057349095433,0.24188834607414234,-0.3069956997289377
1.9547418126810197,1.8082357517036662,-0.18835060205669651,1.7607687012165187
4.142023843280012,-0.2760910789607244,-0.013714408269727252,-0.09307698369099138
2.419134413156451,-0.06526146600345539,0.645301470882883,-0.5050203914035116
0.05464848639113562,-0.34304914054797875,0.7314928068014372,-0.05429293911482602
1.302728404721647,0.1951593087778325,0.013988479762880424,-0.15354158076457614
1.1937201444104413,-0.24384235209798022,3.05336598658886,-0.4878462174158713
0.026546117747617393,-0.12025019516612545,-0.0999401837727083,11.358686689452528
-0.05998249513678422,-0.5250304008628838,-0.7394480539273433,-0.644926016149974
0.8637253498885282,-0.367483446344129,3.774612596586512,-0.7370767691416031
0.2516396303668684,-0.5126958974610331,7.781751384346027,-0.547361104657182
2.8125031718585745,-0.6763672785463584,-0.4505189141623811,-0.06353833297701394
17.963678278521826,-0.18775086883885173,0.09469819073522956,0.6001218531179506
1.091706810266862,-0.6924923121000465,0.013752359881211262,-0.9274636511844763
0.847364100853834,0.2269675871108865,0.17898211392855146,-0.07227458176683332
3.0218516932568606,-0.4892214107557983,-0.3611844886698564,-0.25957535100445694
2.788130743781171,-0.40903548732577166,-0.011971547401215976,1.391968643918005
0.9101714456968373,0.22596530987235908,-0.23231732138091876,0.8740228126996887
0.9199942920816351,2.9322976273247545,2.090074682616733,-0.044956695685291925
5.959971365566215,-0.6376739985463498,-0.7943637542040977,-0.12495865142456875
0.41380768961426684,-0.7163240818151486,-0.36136565375421936,-0.46848641810780745
0.9285694400461455,-0.6664439365215893,-0.5582554975379841,0.4338063928136062
0.8820501531443481,-0.04669108527037147,1.236796123695052,1.4397276878488139
3.533553127583306,-0.5290392436897899,0.4912654161051977,-0.33995027649854903
3.1051039120320443,-0.8599225219392599,2.617544056400756,-0.27106323066883053
2.129707663112116,0.42235935171297556,1.7192154116263056,-0.4557264970373549
0.7560189286412258,0.29283150493162413,-0.7857331223665704,0.22723101093490516
2.5930075111459154,-0.19541325218808459,1.834093603902768,-0.7101957641120386
2.049464299928842,0.15160370883709473,0.0572487141926572,0.12658932929246025
2.899511275679485,-0.316489767375987,-0.027324202335953673,-0.5118646826129285
2.817650798069175,-0.8514706450025897,-0.5912464199713663,0.051919714037286235
1.2696894325205923,-0.6780112695495855,0.526210202432341,-0.6024174858881115
2.223194364984628,-0.3739654756738936,0.3407997551653523,3.587339329698618
0.9227884559018846,-0.5506155845330961,0.141851714025226,-0.4328357082981972
1.0180101474260428,-0.38904620493313713,0.006766714780397587,-0.4127837599130637
0.3051896103929017,-0.6621864958946574,0.2062203811741159,-0.7551454600196137
1.1138299209754776,-0.6104749386735773,0.760044345480313,0.6138448242820991
3.679843087876198,-0.13075879920600675,-0.479988318972154,-0.2513392397914467
0.8044741306318395,-0.30960211822482997,1.012378635034679,-0.5971816445562221
0.7863563820416359,-0.7898623266041771,-0.6709808208937666,4.356991410975155
1.390190429096203,-0.2885985415068033,0.7602153644433454,31.679903527013806
2.1447168044045872,-0.03379642467893307,-0.6944427041274901,1.3678821741086722
1.0527601145339536,1.058971875316277,-0.857801733711097,0.2106558019034901
3.0400050112295185,-0.6457200567970311,-0.0422949404617422,0.518649026851044
1.3140801694979434,-0.37112970287964664,0.5186924626393197,-0.2926676195700647
1.7890835957669111,-0.06269749157115678,-0.06706232104737964,-0.7677292705930279
1.60966110855466,1.2856530680623393,0.6872388425051277,-0.34051692061015126
0.796016009276296,-0.6789160385547617,1.165809114410027,-0.2583933199370837
1.2166074380304792,-0.17890301764483918,0.2480266408051639,-0.2566564911179725
0.2528049415204734,-0.9090279437743716,1.3474089279240227,0.2889938868416986
0.8995440979724569,-0.8006297206202057,3.061416598244924,-0.408409160376323
1.4833129822853697,-0.9004396127682182,-0.11632441463723986,0.41934973367742123
1.0089576356522807,-0.8579036905234252,0.05826191396710789,1.6959809336078044
0.09137537761729275,-0.3004925338408284,0.5849432671314179,-0.7448731688129481
0.8137315055977987,-0.573019546136808,-0.022894354298086395,0.9268660132271191
1.2380711368533643,-0.8171615467751009,3.4694841474940024,-0.11909297718632494
2.0531436555757714,0.40519336828805574,11.635590244081474,-0.3830890134165368
0.5404364326006688,-0.6586186130535883,5.680693612838844,0.09860011013212411
2.6230507230083084,-0.6185334669039858,0.20866959011399522,-0.14709791723228827
1.7996744337234345,-0.7001318155914382,1.8439979108001965,-0.8583327423144858
1.0725341959902037,0.41505060798881255,0.30569016667888493,0.20215379540809275
1.887481945847791,0.04997446829146557,0.14230532209180202,-0.3530155917870851
6.200419709687647,-0.719653192928196,1.100702912819298,2.1180745763983517
0.367925988212944,-0.5919187025117296,-0.47970055880694984,-0.42866727970175544
2.0558049175928135,-0.09777079373652509,1.1366930573295853,-0.22103586494482164
2.291375809363919,-0.2741873947857292,7.219544610340964,-0.8312931975632539
4.684821493001172,-0.3334784461931837,0.27745158154144445,-0.4566919204597256
0.6841719261103127,-0.7878390142956333,-0.3013922265511576,1.096627616386126
1.3846798299149792,-0.38910733153629795,0.829804914926024,0.3443439249753133
1.864406922831054,-0.3682933376547386,1.318515919172346,-0.596094387995531
2.8228861656416906,-0.1762953287432223,4.544156006833379,0.01646859080027019
2.514077018906552,0.3280667864623288,2.015553081375249,0.4282951913467177
0.7579438313570015,-0.5237952237216489,-0.29808055306130354,-0.35224037208296277
2.44336302779651,-0.7200857225451268,-0.31615299164794797,0.18966110780319
2.6755840509494258,0.9506534686980554,-0.34608821982205196,-0.8289386428019854
2.7336524986298723,-0.16028068256369044,-0.24498663977192114,3.50843359459314
3.9703316589413804,-0.6768704282474333,1.3926906085500774,0.2705383515986446
0.40287441878136176,-0.03551620801382771,-0.6100312176147572,0.40419884961062236
1.7715485872622088,-0.016487853033931077,-0.13241842548716676,0.00034236533258424906
5.1749476981803415,-0.6444736410197134,0.32664713586038396,-0.7703305686602586
1.150955233664349,-0.5609301929288955,1.486885585753916,3.4228550577380297
1.035743192922137,0.06721676855247405,-0.21617524969470703,2.425329776713636
1.0356802502080158,-0.6652555898035403,2.418259677156517,-0.12196369244511163
7.266530406330487,1.4614584143977671,1.5764729037748229,-0.24065353802359846
11.9280394720842,-0.3910231203192611,0.06314334137846633,-0.23000130432003763
2.601812724710555,-0.4145274681992793,0.07739468372491376,-0.5472684072495984
1.3606280237402468,-0.5231375824725155,-0.4568876703717595,0.10156559961165379
2.811368386975492,-0.1286629673156201,1.0364594677561518,-0.06259234191623708
2.2300090091532194,1.370330365200061,0.24589779906226727,-0.2619631267343986
0.3516094520119035,0.21475574263113306,2.1711157928343257,-0.5562052912335269
2.2095196711158898,-0.611313799187219,-0.19406248950310412,-0.8497604701017856
1.3451076292736257,-0.1334576700874639,0.5779575987304839,-0.48969883596778196
0.529023074306016,-0.21838334833636464,2.181363777199931,-0.5547161228828528
3.2319714639576906,-0.05748119993074219,1.6640766416332755,0.5260444974757632
0.6338953833350516,0.18799653906190095,0.5191476971714823,1.0539568667807164
1.8458983023707498,-0.15755549223560972,1.3502473823132588,-0.012945836730888893
0.12903090987719357,-0.5757874827530296,-0.5481593944953911,6.854749742626936
0.20184479133018196,-0.42181291585960334,0.0922706155662576,-0.26825808196693723
1.9941257705506978,-0.020520326980914882,2.3782168449172367,0.15068443370358353
0.8312907177787652,-0.6204232534939504,0.09381944141251664,-0.346646049267456
0.7953270641720938,-0.7867163947544209,3.931236995052613,-0.06256969814698998
4.030763705880333,0.26521930185486897,-0.23456595681676373,-0.6129566685989934
55.098632985277305,0.19527297383088582,1.0992999705799633,-0.5485276783926787
3.4840211464668975,-0.5876950928557486,-0.6682584684393508,-0.3853098868095439
2.2034500996440034,-0.07952706034267387,1.2494654363168998,-0.3928955955691017
1.584970281653416,-0.061269434036256176,0.5109373082985378,-0.46893317499336407
2.2717598168007425,-0.21476501235119605,-0.5722987002818465,0.20472677691308094
24.67932461484145,-0.712408446669671,1.2169885866067043,-0.7317425161887042
2.726516641884799,-0.7619939466958704,-0.2765937887112073,-0.5397122571439537
0.6012281290998196,-0.4098550192304905,-0.6590669295806644,0.4733511290723209
1.2018747456473138,-0.3774509480241828,0.5531934762383246,-0.15331721703853618
1.4462889952486306,1.2867409361540387,0.5453042672300894,1.1535972460856998
1.6182724340867831,-0.7744059254536828,0.09159425474545801,-0.6934599087168243
4.873551691350243,0.5938241787704113,-0.21936525932090767,-0.23339753469666458
0.1725987240264124,0.16509238723193764,0.16986459675185395,-0.19385437394574534
5.441581904126536,-0.4983856484275919,1.3342186797775386,-0.374564903674788
2.609320455308897,-0.3502727846146071,0.4235246156803669,-0.7410473764959087
2.7563564822692124,-0.6180111004162604,1.318646343207944,-0.34797388076261493
5.669410263298151,-0.005394946697922065,-0.12608835484639824,-0.7446141816041907
1.6274430750728515,3.9328099237907335,0.7765098094526881,0.6396537035620686
3.9303271065374474,-0.6582969979551823,-0.4602298052578342,-0.6321113294768294
1.4611291330045297,1.2249690728352625,0.2790779930790521,-0.2016908619231822
1.122534383211884,-0.26740504407548016,0.24035738570410836,-0.0696079339754675
22.131471377001954,1.0864149671335182,0.37535456859627536,0.23735472523708756
1.4946702454919047,-0.5633956116876104,0.908006386987446,-0.00811210008152774
1.874522748390885,-0.5232847553535768,1.4769437598416904,-0.6591612781019172
1.9612345774066129,-0.37830645900260074,-0.1574717713625583,-0.30441458989361403
2.9329811065184273,1.3989167654437824,-0.13347992591643165,-0.3619503283235339
0.8265001224592643,-0.6013483030167628,0.07832586272365627,-0.512353313656849
1.3341915270770879,-0.6017663499163917,-0.04037032443893496,1.1986015747958016
2.962229335185388,-0.4252358912304791,0.41894703104606346,0.45855351782064013
1.6387888032301636,-0.5573201710901552,-0.6292511294340436,-0.2592435754587322
2.2206682937747804,-0.43381715645245944,-0.40141827230036986,0.3217384130959844
0.6963250865544974,-0.3829711484998798,-0.3682327247690632,-0.938156797985999
1.840530801156941,1.3215127862073142,-0.006482060544661716,-0.21102894211747714
1.683480684764501,-0.030340360907785136,0.6012051006913399,-0.33267006739562777
1.762293312051828,-0.5855027971454205,0.12354051723760695,-0.4499076249655296
1.2052312259371258,-0.8285881129622525,0.47526025081011025,0.45489659495360835
1.7207902092253562,-0.5196340642530062,2.4500439696252734,-0.2166557413918041
3.627481481104936,-0.5455475674611756,-0.13948875090923063,-0.7815656317478087
0.3969406837896856,-0.30637748011356936,-0.2929902876987177,-0.37728282657694956
2.8400568286507286,0.4540915242455361,1.350069655366386,0.356320361536832
0.8255736345814773,-0.653170012645087,0.05242017028792967,-0.35044543311670806
1.698045604931382,-0.7572742386090974,-0.15515728255294348,-0.4146360378954339
0.5669685504497903,-0.5131493834254499,-0.4663480280212552,-0.12734558869992874
2.404853261334022,0.6436075612942933,0.46501078127828244,-0.4997247341282136
2.233016086136827,-0.03020552695523193,0.14645529357178244,-0.7284090888846901
1.054747920823372,-0.7912563904027423,0.07403798567054887,0.07272553592860098
1.7202454905165259,-0.910439777535787,1.8671951723065385,-0.04132899082412045
5.139747036548356,-0.6169648664392431,1.5228625468921844,-0.33103695735461036
2.602783432474324,0.10238699193243517,0.32421352055777275,-0.8760684462633351
1.4360326959409537,-0.056159964297386455,0.5284809708204319,-0.49646526708724636
1.0072547324115826,-0.15710212868726192,-0.2547609025744949,-0.29228966980900917
2.6874177257996523,0.4305963061217535,0.838481476590583,-0.17383551711580536
6.1633143997073745,-0.48989085189998827,0.32076669673800984,-0.06565346183694976
0.9251001875372677,-0.4977059204208084,0.30751451611964375,0.21949718649308525
1.223357867057154,-0.24605016206827668,1.3665407976667598,0.38716007840029043
0.9295342278259624,-0.015165623221364943,1.5778483104315568,0.21751786741375279
2.4508872818254814,-0.7095730004076979,0.044104219620489715,-0.33973312122908306
1.2386031744202444,-0.3843539076582594,1.9804895701611205,0.4037498264178301
1.1814238268145494,-0.5954581221953803,-0.5116817231666368,-0.22728393255302182
0.8171776969596192,0.5628667003214172,-0.6944026242704087,0.46781164983943735
1.3489524933692034,-0.5968783113620428,0.8884233898536393,-0.43016260219647273
5.591411691968879,1.6284564496008356,-0.12098558857696928,-0.35154901772887714
1.8745973937255629,0.33969997395327445,0.6287168603169861,-0.37132685101661567
0.8379187364201961,-0.39657646307961747,-0.15054752436102092,-0.5196917006699087
1.112439900568397,3.8146132581527032,0.6419956693555902,0.050237590477169025
1.3753822682110712,0.8665771614652726,0.6648822708462414,2.091484922137009
-0.19154832462325333,-0.7561009915563046,0.6330589249160872,-0.687741437977218
1.7765731567327454,-0.7064240471546075,-0.18492884089357164,0.555254725672421
3.4769184926113637,-0.45818523212110607,-0.42183582977662737,-0.32772391404059575
1.3189931327651037,-0.7027750887416513,0.538413310371056,-0.6566416524769303
1.334877024689968,1.1873525746208253,0.1804729716309721,-0.8272924440333402
6.7247201476129135,-0.3134415149352735,-0.06456427534149389,0.08652000660835113
1.4192365111941685,0.06159658007985547,4.924131991194427,-0.2489145329853455
0.5327685046998694,-0.6577464330276079,0.1584606799015369,0.15428403883075625
2.5540964027174207,1.7265677023895019,4.258522100212778,0.7636760352880978
1.055926104459239,-0.7814738556634396,-0.06893913107483307,-0.3882908089587642
0.8720134083151372,-0.2283077571807851,-0.3904036232674709,-0.09593405414089728
2.0214437108340175,-0.8480396035110882,-0.7079544503461654,0.20100041933018575
1.493540534479501,-0.04188459277160672,0.6327916521073411,1.5946507544508726
1.4492896717746375,-0.6685986188398341,1.0450820931548348,-0.4628084114757369
1.662871091239594,-0.18689057260838815,-0.8337099497234947,0.5818923115242416
2.202019931305156,-0.32256326047512185,1.1433539530680412,-0.28146749534549975
2.7930378020485898,-0.20518585646182974,3.2845321818059823,-0.13315938920053272
4.476360281478925,-0.4791428872281257,0.2422425826116954,0.9752405117072289
2.3197635719473557,-0.5015729223654886,0.22758153490903532,-0.04557880899487399
1.4801679504305856,-0.5918346481658452,14.60155168523342,0.6102274272267529
0.3257568308549712,-0.39051735502567164,-0.5845845047601367,-0.33125053402966065
0.4937598947032218,1.163798437109779,0.055604513817822054,-0.468536870932721
2.225603459759894,-0.3869640853052463,1.0019957241361777,-0.19681816511179018
4.354913588826809,-0.22851980389139015,-0.4846361961189569,-0.058003902353625625
0.7728529675689495,-0.3586596744193493,0.32818921345355623,-0.21030335109223253
2.156670203702031,0.03276637452671549,-0.23750050262322864,1.0936723845990324
0.8042996980288797,-0.7181784444401726,0.28404085697324755,-0.3212341815456905
2.047337888121151,-0.9158800190921368,-0.6383222757710854,-0.6110887809658827
0.827713485300873,-0.783745284415212,2.1061737386902744,-0.6680098699133122
22.606802358597413,-0.487919639131038,0.359551981015241,-0.3717907864502702
0.5366865563870804,-0.5087759457242516,-0.7231459084260681,-0.7753057484330061
1.0268320432642346,-0.49097464772218324,-0.5558574899397393,-0.15792569091550912
6.13628522557676,-0.5071227852161693,-0.3933956707607691,-0.8114239944797565
1.6080109643371805,-0.6842306364934081,0.26839308149297336,4.671678092637498
3.484183332738291,0.9643692126912151,0.3563763793827326,0.9913839675026423
1.209280005130875,-0.1905116141546086,1.0989438994336438,5.0823696482129
0.6018428019439404,-0.35287548658007595,0.19517857403081118,0.8753632280684545
0.7893850915046574,-0.08089209550369869,1.3594270587211494,-0.5407521199674603
1.1008151806030066,-0.20067054383622807,-0.39274706913801805,-0.4547655910544173
1.6669301383712427,-0.22965802744056485,0.7249733112554801,0.03060669933961213
1.1296920122201728,0.07998654923533621,2.0544571602782864,0.08254687553453577
0.8594559673923632,-0.3976428551037725,0.9610934379143203,-0.32699313254543727
1.0235717474948829,-0.10937694866683412,0.17128772602036224,-0.6630132352105707
3.7512715637152168,0.1000790917052119,-0.4720907223062455,0.2626628590510285
0.7654431005746196,-0.8990710494786224,0.03351159886682886,1.9762972883426526
1.249582592157672,-0.38612260457273206,0.007663571743385722,-0.7609170725217524
0.6573344394384897,-0.7812653027479906,0.538838763497191,-0.7524066337345473
1.4696395395520532,-0.5682632359664912,0.4890207269860509,-0.4964332219457319
0.8435764223049236,-0.6967779612235916,-0.053223459962635444,-0.6325003528996509
3.5320133558753923,-0.34393484910813366,0.47295143254552685,-0.44823058951578054
0.1951833233964413,0.11702650725327413,-0.22242314567995836,0.08949883719330187
1.354805716136569,0.6414488885772869,0.07261359275872747,-0.31797446106449856
0.3756862772781775,-0.43907595899813323,6.843127960498868,0.0211616033868125
1.2425184746176603,-0.8431423181671516,-0.7146970435329187,0.18358147535154345
1.4168088315508047,-0.6685142338698311,1.3898402991978975,-0.13106115190738354
1.7183552896085348,0.618599806883948,9.926557292937007,0.028723644124500236
1.117837648963937,1.1488047111896664,1.0927153001372103,-0.5404793139886974
0.9579918690928015,0.06816865370224279,-0.17077844500213335,2.444439300825164
3.4108385822342386,-0.19522857193663778,0.4115882940002862,-0.5515583759317004
1.367115210356633,-0.22963343024724936,1.2555688976677355,-0.06919744588597343
0.9020816971216448,2.7786097739725046,-0.5895057453589687,1.2303222199126953
1.0892852877651569,-0.3524537839812023,-0.28299231228195254,-0.03777448443754816
0.6791793058990643,-0.4449613568942272,0.03975790896753062,-0.734185529530059
8.988294283301554,-0.4428514127792549,0.6928033444013173,-0.791617487854277
13.14474695950752,0.13410496506763003,-0.36274250705218025,0.06994570031620895
1.243334545751793,-0.4102966584403447,-0.06635406534376531,-0.11214869604225797
2.427803237650923,-0.07258599272506194,0.21008011487619016,-0.6001202605777802
1.049633203949187,-0.6943829069013941,0.4306900637176716,0.23152800626355674
3.0192374706119898,0.032037610367531055,-0.32367367225799304,-0.8694104903518932
1.3921446999411593,-0.10142672923333118,0.23871465363048916,-0.23230291623180532
2.547882937544616,-0.5761383270170443,1.930130280969372,0.13217628720841157
1.868419632310507,0.144708550157729,-0.10354236196892763,-0.2795067436217379
1.2880654151309225,0.10951700045670476,0.15696030134985195,-0.07750695319786693
0.9313921630311923,0.16098507035348297,0.31834063727116746,-0.6612824211831985
0.47346450343738455,-0.6456379375122271,-0.719480350971698,-0.12659524259712074
0.8749508350676551,-0.6187383637736308,-0.42597678145725903,-0.21937053089364156
1.7688247309522738,0.07062437758266271,-0.08663627581913724,0.18578611324474914
0.8718882558076839,-0.37647517108495243,0.6436076374810817,-0.4696949647715223
3.0755490728215973,1.6993022904739181,-0.014030196244394832,0.46177216315060265
0.39480163248337186,-0.6548015489452385,-0.09802687776792907,-0.203184463320907
0.5673914726123839,-0.5857672431592303,-0.2873757132806194,-0.6373968761170086
0.9456760204501926,0.9827697047617268,0.04635950487477425,0.3375670028388309
7.846801254373311,-0.7144989682545432,-0.15673435756089849,-0.6786723371417102
1.4725392741143049,-0.6449381356806643,-0.7103601181249357,-0.5094144175972029
3.0708018939935817,-0.1225806531013498,14.399217506611578,-0.4339774953105152
7.083220968882692,-0.9485438047751763,-0.33252705837779506,-0.4911307198522107
0.5589706243513166,-0.8309140287123045,0.0775970285994041,-0.29025964509420943
0.44497427917804844,-0.3400539504696818,1.1298672175909483,0.7608124146496089
0.6743946810202375,-0.24262656239009628,-0.04888544501381353,-0.5016896580608355
1.3682734845250923,-0.2763836513692345,1.5375984563550227,-0.2870909449268946
1.6377980660362574,-0.6674755950322133,-0.02152180577858165,-0.3153947866925362
3.6208645263030323,0.2920752844053649,0.038405011895565,-0.13255046893574618
3.6219785097063433,0.48171033348797354,0.5298722636031814,2.5754079104620127
2.2828901671053066,-0.1130703743776571,1.4392542783724398,0.4332577073523578
0.07621057140245235,-0.7002452110979919,-0.4981988683948039,-0.1313304122806368
1.0073664741577306,-0.7083199521722805,-0.08024562594311035,-0.7460708061211281
5.208734347402001,-0.35223360946479787,0.659772691244151,-0.12648142523351724
1.345960247556937,-0.742828382769082,-0.6420507635155996,5.535961723086833
1.1824116494604748,1.119729587445479,0.6807920473519182,-0.05667009943071577
3.543736901605815,10.322764348226023,-0.6125224123859647,-0.165336694781116
1.0800418222237256,0.7268983684621573,0.6707015796414135,-0.06864057068995433
1.1379302130448465,1.563474606641507,2.7098819817948816,1.4011266273359047
2.3544635061439787,-0.2587310290193541,-0.18580351355721758,-0.4948839142914615
1.0670723080949553,0.39485849481385094,0.022264680815331284,0.6840817930335235
1.243039019721849,-0.49435383003095235,0.8550745182204433,0.22595254621197958
1.5488251521255818,-0.6886908285208564,-0.18119384515380932,-0.9293716492843607
2.4718957111843536,-0.8571078727239487,0.4626052001023082,0.2992992938276995
0.6885529243469763,-0.1362080221328602,0.12903763826362646,-0.5539543803695818
1.5070339420992336,-0.19586184575297771,0.4213617802610252,0.5082700469076968
0.6783201696340317,-0.3939342123206918,-0.2438843125528819,0.511055629251953
0.7475279075749877,-0.5720263969097578,0.1775935463818228,-0.0914589973552139
2.840121735209496,0.652359311964386,1.8113110045885805,-0.00812347687290893
0.2723239689135455,-0.8152432873256554,-0.5583450359042879,-0.15829227568338078
3.2023893582398184,-0.14491724252087013,-0.17134835591294773,0.5416304862839529
0.5154039011813905,-0.15100346583938795,-0.42342811791671153,0.7882508557154699
0.7090265645546339,0.04320164561413686,-0.205012826933205,0.170452348312498
1.1122503916282875,2.4323488822540167,3.1165169342801704,0.8924024315654622
0.5021913128531497,0.30324850726461827,1.348296468317145,-0.7220961610643251
1.164146749334526,-0.146885101505146,0.34252466765875855,0.7011771589295812
0.28980494255264255,-0.6040203653142819,0.13384894750875787,6.25679966097918
2.105108101710522,-0.5261278392316961,-0.7140041907736695,-0.2609536486287113
1.9147821221859118,-0.3314558580887942,1.5566832168210936,0.44549924773860217
10.74790552195486,-0.7678803078038988,-0.4867553135503838,0.5242098608716901
1.3831228285467976,-0.3939072837607418,1.2595074382097926,0.8855073229885553
12.612252232263456,-0.25752431909255236,0.7205903737270181,-0.6095358522369023
6.035777029529941,-0.8457860074820027,-0.19424396149693302,1.116963735495335
0.10452791881441015,-0.2851151354146607,-0.49522980324347043,-0.03835839272159125
1.2543817257842997,2.1283488670555997,4.994186917873976,-0.6383099843787422
0.7287807859823718,0.8800314619298693,0.0763867609939981,25.84107207807132
15.761189194985324,-0.5280716674772697,0.08011100724648945,-0.6218013112056131
1.097291429660312,-0.23606381474046745,-0.4567891205550906,0.6635844140186538
1.23476942785608,-0.3657565946673915,-0.0689483461928323,0.006560477966148781
0.9068097076938897,-0.11725940028058301,3.063747816383543,-0.4844308300014366
0.9249179050109468,-0.5517020163852003,3.3822251807669783,-0.699843745442026
4.961295738528038,-0.44007744803500115,-0.4180885814203469,12.354658343316492
0.9104606197130247,2.0614494347670314,7.876959621260921,-0.9274793066572558
0.21399554889720163,-0.22925239910114725,-0.37572129253632724,0.6624829266223744
2.474342361251818,-0.7608334427299763,0.11631320137854684,0.24384667122395665
0.4508387211841238,0.4967639239849173,-0.38545386820900407,-0.5522956943217008
2.771626012621173,-0.3493509620382538,0.5219211260058525,-0.5511824061629674
1.6500429782441604,-0.6894394628801929,-0.35845906974126374,-0.5209696029538899
1.0354799844272402,-0.8104655695202513,-0.31389821375978433,-0.4213714470758563
0.811044526053198,-0.9244317155956802,2.2566232307809093,-0.33077956981434686
2.9902099526816683,-0.7561105121458201,0.5059157437365547,0.8992065047089168
2.780452613923196,0.15355718512520977,2.0333621916665066,0.3427363099188725
2.17975213173431,-0.7818836477516296,0.4567854168993206,-0.507683788254157
0.965470220333492,0.7078815357997474,1.1473600980062688,0.05339428168137861
4.5418642362765,1.2323820426919632,0.07000171978924308,-0.8014558197891097
0.6244500244113023,-0.9775290681620348,0.6442837736602192,0.3562915172268084
0.07904769452215388,-0.5169844518625379,0.70196892671144,0.5626537494374204
1.5117586434309946,-0.33925981527903204,-0.8080828711551384,1.8586164255513098
1.9459313281033843,-0.23847312497096484,2.3983193452704223,0.008737105879162987
1.049008297351365,-0.38414569844329227,1.9569804822438552,0.6873357497555954
1.4580292952741614,-0.4811189730138472,2.056788896854994,0.09245687573293138
0.9016303114577664,-0.6192248697077103,-0.06675133540499978,-0.1861089582184703
1.1415521831889395,0.45576033280222195,0.2978024564268964,-0.8936421964524809
3.3751703451026343,-0.14245566582701996,-0.44245731498762064,-0.11908943257034788
2.2115415027153054,-0.34722969612456667,3.9147953425614013,0.5873241867636625
4.080302947491453,-0.25154607011091057,-0.35609528483355934,0.2616374546108504
0.4790441223491426,-0.09588640438846507,0.3179712415516003,-0.3843317947455419
0.7368388149500893,0.3157029411103096,0.4892216577143762,-0.14978306784619477
1.5125322873798996,-0.49648733587002536,0.9038739091207004,-0.4288617770814701
0.31071664843862123,-0.3290681661713728,-0.029538702742675005,-0.5820165887147601
5.099985973209737,-0.5176338765677151,1.1385814026185668,-0.16140519417788712
4.929562999801628,-0.13639246289228268,0.06126651996546273,0.5459940522445912
10.237726616948304,-0.12685079445448144,0.2132913336109532,-0.206280566240146
1.1024281876762894,-0.44959533652830996,1.5231050493926097,-0.5214786403900538
1.6818789117643211,-0.8302663065803714,0.0599906291417287,0.2049122919322277
0.983058330886055,-0.6662385264313444,-0.15706112823995289,-0.29671309280665614
1.157564709781282,0.5790419733197707,1.096374605430909,-0.7536859833855024
5.199917430878924,-0.6582000422102054,-0.545299693535716,0.7131094137227119
1.5355558348419915,0.3038518461760409,0.6363740510152136,-0.08366002520206117
1.0900943696743823,-0.23288006930438132,0.7871175993503237,1.8317968014555048
1.1981339035316037,0.041726942750955454,0.6005275949546267,0.6589114619334808
0.17696518546169693,-0.9267621107239778,0.10432323734913584,-0.5687031655625969
3.580609237717754,1.1683141343769932,1.0484520396198906,-0.5853794288364006
0.9339879602152799,-0.8064446771456927,0.8188502044855881,0.5935213382958522
4.497191923582523,-0.5424090115348119,1.6321672014617663,2.8635658348272477
1.31585470027012,-0.5545558201489424,-0.09914938285749064,-0.49798846657522255
1.438460180322176,-0.18690793773986591,-0.5705504448250238,-0.30066795175957595
0.7551782741670352,0.26228028646113266,0.40428449272657163,0.8883576639797168
0.8574708334718213,-0.6085692968411544,0.9102430874051266,-0.2673116026864618
1.100783772829994,-0.5606068253545027,1.183656089840416,0.6899846508658489
0.8577766376079312,2.4494922437944604,1.2186266040167637,0.843369918392028
0.5677305009526712,-0.4025734165914536,-0.18719836715736615,0.3280813685859838
0.048858604107006265,-0.5437266257627977,1.4488402261563404,-0.3570000097931165
0.5958036615905693,0.957163677007876,-0.22147689439591223,0.0637993984911156
1.6414880150190405,-0.9330600934354875,0.43397528112978634,-0.2780821158385912
0.6605170478489524,-0.4640978414411846,0.5144463329180613,-0.4163209081391457
1.470803582841262,0.5030423987374137,2.8556045486485284,0.5777837553299894
1.1175581751169776,-0.27121428973325545,0.7232684008696326,-0.16315375554132105
0.6421466382456433,-0.7185539902285804,0.1453115964283429,0.8307746550001178
1.9269314930372263,-0.39041455233980593,1.115731734917758,3.135936554584198
6.730147252192927,-0.4815313488165517,-0.1925428293439413,0.1554662572280292
4.0246008210639745,0.2506882379935893,-0.5622819633228122,0.21536119711978952
0.9104397400161102,-0.3031602562278758,1.5443234455091202,-0.8232040176938831
1.6849357428911702,-0.22661392527730828,-0.033109089695027016,-0.8832404536631633
1.0271076153547587,-0.5787910760146986,1.3220515561784159,-0.6022620549484347
1.3253998243879814,-0.7279030566945454,-0.31302065312409433,-0.21198221918928972
1.5055776248981392,0.8427274198040458,2.6929103777890853,-0.3669578993191944
0.8112461082317144,-0.20656527766227195,0.10450289485099118,-0.11566222915526725
0.9718717822944751,-0.6095030584265797,0.5180190291378031,-0.38445492415169547
1.2967135369818132,-0.026408160251042867,1.150461091794194,0.0033493308613152806
-0.07341592685199794,-0.7242821852811878,-0.5855533432864373,0.21636014000027481
2.6419742780128646,8.491454399899949,-0.6749737297984548,-0.11025032584852745
3.109129155706187,-0.5336163619181146,7.310865930690614,0.6916457466448607
2.7265223066154745,-0.7509861773448425,2.1452022951533873,0.4568409898141421
2.3148616931239614,-0.8700593167232451,-0.07786253040131075,1.0311684602089297
1.2753570487840586,0.09670095877234797,-0.3742956854436489,-0.7413866168296288
0.30762442553095015,-0.21509005383121338,0.112467864972569,-0.8620707501950575
1.0886332317623442,-0.2896302036684081,-0.15798360543967171,0.00837739732591447
7.482157472206094,-0.5418232856229368,-0.5361715447382629,-0.3052804191166508
1.2403482534339076,-0.46634896998300834,1.2321653585755854,-0.575113078695231
0.03317125558736089,-0.3137780167427262,2.33698220933376,-0.06777487199257803
0.8537198113105764,-0.573701509729597,2.752263989941067,1.624691794851787
0.9079583454102391,-0.8447307720298314,-0.13658675349497018,-0.5103579056234131
1.1948967191038231,-0.34351392767507805,1.5832051666690772,-0.5327152383292952
1.6996888326092416,-0.8861702989845461,-0.3615247714767027,-0.6169270509798165
0.2853392503541381,-0.5698093102436648,-0.37023880690734035,0.4078385827364719
1.2526678325553053,7.0727502746845055,-0.26273309405826184,-0.13743917090878022
2.762397737564968,1.1069765742565032,0.6055395633430329,5.123284182326279
1.638986294086349,-0.6707451738628307,-0.2688997868987302,0.7171871781727706
0.9812176323638133,-0.2957994971049759,0.9171188691867305,-0.20478167532669134
2.2813641982351642,0.4169226826804566,-0.4014061934723323,-0.13369805267637613
5.07436478400425,-0.36975456364000725,-0.4911719762433192,2.00615183969878
3.6706326490142525,0.1781123294290936,-0.559152118221206,-0.37084172559467843
0.7717890235493106,-0.6195881695503376,-0.08526154274759234,0.9787508062023351
0.3958184113660008,-0.7494696080282537,-0.2522443289895113,0.06344254947213512
1.0784950338614023,-0.8065803990110296,0.7023100099618211,0.9605190727182831
1.4851566113092063,-0.5587128682603963,-0.6476797598568522,-0.3303749054363859
3.5035440660342907,-0.27038513768735584,4.128586448186269,-0.6462376040321453
0.7342916400823891,0.11242370562692972,-0.1236258834797419,-0.4197834977504621
1.7280929280773143,-0.340022918578481,-0.35684158729610593,-0.23337133774682461
1.5622264674796473,0.2564212228621612,0.2836579391617646,0.4586436749817151
4.159560166977784,-0.40798774048569963,-0.056669132476950046,-0.47332458761435203
1.2265165010790362,0.3273634938941028,1.6487605394794267,3.5036386467625142
1.445358655927448,-0.18813666961205666,0.24039167990640742,-0.43715385104046
1.0746095182120086,-0.3723953703722185,-0.8207697415899451,-0.024953566564911545
1.1396736617412473,0.20944036179695447,0.9543569281504674,-0.07984148881801667
0.5717363955022832,-0.31359645910146017,0.011952585902578639,5.824371801749311
0.6810792145184643,-0.8785655178658379,0.3323183993275456,1.5377855376384737
0.8281220689852125,0.3374194949677489,0.18430356672014803,-0.31915429765319814
1.8719362221498925,0.8345553860783379,-0.3781543641886952,0.6549594820365428
0.8081812739948875,-0.5522102915980037,-0.7462898893644881,0.3573905332173153
3.765293404871538,-0.2523252635034685,1.9703630283784337,-0.08452301583849742
1.5529701686783204,0.2367916285902647,-0.3273404700203729,-0.39886518661988957
1.3563904534585194,1.1714605242787601,0.8476396410630087,2.1605007738984296
1.1927217960381786,0.3789694816660141,0.2874932925245135,-0.6841118134081176
0.7705962589288218,-0.42413889220050105,-0.025833845566622826,0.14685321508829863
1.0381473012272946,-0.033147983401033976,0.685395316356554,0.7663807297604988
0.10963112939031472,0.2642901126247581,7.991521123110706,0.44644800157362874
1.0308050676935845,-0.26942677945211335,-0.3139609370138591,0.12968408599015158
1.0631382623016856,-0.5127739197872218,11.253345501679995,-0.3084171227164254
0.8532716134322045,-0.5220140930385324,-0.25029916619795145,-0.5439909010025934
1.8868633914581476,1.1079257978234818,0.5679160888274557,-0.90113649269687
1.5631098619915251,0.16839622991949743,0.39055487636608843,3.072860295778595
1.779579186951778,-0.24420281505682606,-0.6182359545216317,-0.16867586863606687
1.9413291188961073,-0.7042311964456717,1.3821009608472505,0.1993870033113767
1.3258355374299575,-0.64240718846272,0.49194000719571207,1.0678997763957878
1.3435618440522097,-0.31699930469954574,-0.1806593802321742,2.1259565055842677
40.96153936315736,-0.8088146516263863,-0.11607632608077334,0.17002466219873758
2.033769728356426,-0.5152009720517471,-0.279243970128749,-0.18208988467244025
0.19027848251642632,-0.8587672596703249,0.7807171632954195,0.410167055857231
0.006391908452478612,-0.5038491437613036,4.233460416614008,1.1838424864494694
2.1459916464522752,-0.47684885172584257,-0.18426141555357578,-0.6594876743244142
0.8437835433689405,0.34688678174957266,8.949316234177548,-0.8205990115457402
2.235857518131669,-0.07667758714992867,0.021015754190922165,-0.2948099111040128
0.16824379409844514,-0.5538449414090676,-0.18452356124847802,0.12277172389990532
0.4061378809288505,-0.8115061769258644,1.113838480422641,-0.07609970617201711
1.2927082851330134,-0.8791797222427111,0.20406707099361698,-0.45014439256717653
1.5361538292727799,-0.028377071476275773,2.385199183515485,0.016803601290678927
0.9232770944494142,0.011642909577991523,-0.43940747522057777,-0.39946725423645635
1.1943135230131876,-0.16098966465996123,-0.18111823437702823,1.2930573094753197
0.8149539309423872,-0.44055952461428827,-0.05329397865094998,-0.12083984841789885
1.3810235068502585,-0.017490448448191587,-0.8724797114297013,1.1623577499491788
1.0067928695888213,0.03197695296979264,0.5092138266067925,0.6643476049217012
1.503694473084726,0.7896154117591037,-0.37510338556888057,-0.1746828954495261
1.7186066567008575,-0.6876029019486949,-0.15450256216131586,1.6284088937388055
2.219111943948647,0.2256942963754669,5.251201500718031,0.3633343537114899
0.537848788344301,-0.1824853069656176,0.5874938563414731,1.4514953612372494
2.1072769255553503,0.5721926754690687,0.06744133380434536,-0.4974096106260876
1.5598002775924487,-0.5247730446889984,-0.0045922576969144036,-0.41350862802432187
1.9638454090143735,0.7802683562023194,2.5583729831438764,0.24585122672305526
1.97266064579106,-0.026071997374959244,-0.3264818975872106,0.18341224871627393
1.1915287829450447,-0.5367694430181313,-0.7007655097459431,-0.2557750849490945
3.8262264273674376,5.687223226231802,-0.20345056014424734,1.2654142070069287
1.994691120222945,1.1869881422181634,5.508544631562523,0.5226946008169868
1.727983079926772,0.01890114135043275,0.33690715789552295,-0.6360460532280636
2.476825650334848,0.7190195538210717,1.3888127535116932,-0.7324194680087428
2.006011294444066,-0.359292616434961,-0.13043907345960137,-0.10725472138079462
3.2169825951111175,-0.44525880140382,1.074647001914533,0.22793866949789887
1.0569755585887397,-0.3842755196549482,-0.5042713184868396,-0.0773808527028903
1.397412301763346,-0.33358331745257097,1.0534198065296572,-0.834358791805631
21.570285176820942,-0.7336976469010019,0.7423166454124235,0.045281418514114824
1.3825586247815664,-0.06046317479450658,-0.4398633553516169,0.72430499361406
2.317393542245369,0.2906041292808377,0.08290278448367161,-0.166693130993388
2.177754848937901,-0.7052427069699916,0.6079500053615952,0.25116178614690066
1.510042819230375,-0.6439186698839425,-0.23851183611363536,0.7244289141235885
0.07698937546366769,-0.7153622835572491,0.7769249934729612,0.5922306046489829
0.9574287181794374,1.1489004799671299,-0.09314625744525895,0.20260436573028962
1.5115591161789612,-0.8562671807831661,-0.834198689850031,-0.4323825995924
0.03433622470010267,-0.3435651654782962,4.808124251519891,-0.06331908083773119
-0.15320835363257213,-0.8011450926357726,-0.12047787191098125,-0.6855528210305997
0.6127136581031947,-0.5747327631013741,1.0967038395613216,-0.07596664962175237
3.5327490753824584,0.8568401525982117,-0.2041696509386417,0.1992057197496535
2.697943877692856,-0.07689489082044221,0.19607551261152656,-0.08491566063477973
2.8002915224134157,-0.34400009077103366,-0.1580569079493438,0.6028694613774612
1.1585441749725693,-0.056952722923894084,0.4810283315327095,-0.13165212423002604
0.9842469597501784,0.17668066420880324,2.2770243214682324,-0.8985810995472199
5.010004860323575,-0.3500466065648751,0.5015284343650148,0.9204264007590652
10.361992043348673,-0.7036064256091245,-0.6487330773977849,1.1439883609335086
3.4821387608960235,-0.24621259936533257,2.696788890876209,3.673915314102233
2.781617027377399,-0.5907231739760274,1.1210610087186446,-0.7108628539568876
2.7589445329653404,1.2875598006063482,-0.38781024431136335,1.2840838983975846
1.8626863017137638,-0.8496209469043108,-0.7787370311710187,-0.4532439878055168
1.9409803616819143,1.7018391479601802,4.000268101052733,-0.3545742215849548
1.815477981050559,0.7336959435140686,0.47391982925865195,-0.028200509093519677
-0.018569095777689393,-0.6224320286005902,-0.4312881848290874,-0.5307627389245624
1.6531264063521696,-0.5598473822125147,5.582567144918964,-0.567866993875815
3.5613541919005183,-0.35337324535806125,-0.8883623032989129,-0.17863982611260576
0.9365521005166444,-0.6809689863560606,-0.4654490709811082,-0.659412995296353
0.9891295325916443,-0.3856774109515254,0.5192632189503033,-0.21204103775379335
4.6127323110360745,-0.18635565101077256,0.482006046695727,-0.40982754713117975
1.651371840548562,-0.2781422549915282,-0.6483011892302374,3.9258607173908278
1.748658105076105,-0.5358650302186582,-0.583269648378941,-0.38285892101805596
1.157998803866659,-0.7484456870022491,-0.6055548452776808,-0.01175644089564809
2.2115025239814434,-0.5610683747802372,0.40029723890476365,-0.3707405478658736
1.1824020156505686,0.3437121856096288,0.2992500966351266,0.10982618371848663
2.221435884820376,0.4051970274159369,-0.47600968148980105,-0.29910409115550796
0.09417122125685662,-0.4051911003806874,-0.07845888293771752,-0.5117713625276441
1.0420572770225434,-0.6675384938063191,1.0633497684463826,0.35097121740258164
3.8037942680160954,1.1343388936112975,0.234242363135575,-0.429488968578961
0.7041054321863398,0.08710778798423324,1.754372980465265,-0.13160420031155629
1.779335692412801,0.054245676142305355,1.137327776237664,-0.3828218378768179
1.2612636605533907,-0.09543245507345155,-0.22791023441638336,-0.37163078773032177
4.101649441832885,-0.07366394127381803,-0.21026725695586324,-0.20196536992793412
2.1641483744163565,-0.32826705549860946,-0.012507994156845892,-0.293301110838182
1.1109988184079707,-0.09131041136692064,-0.7036886111384139,0.11452173313384906
1.7946195558550078,0.4269801677638878,2.027053485622242,-0.542940923958997
0.9418876772625471,-0.7349125022522393,-0.17541901282019745,4.315632260813157
22.47731664304905,0.041694576932532534,1.2349908853822331,-0.1822802417439623
1.0628040929221592,-0.4663509255127295,-0.5854251889871009,-0.4833431362518327
0.4981283777514909,-0.3307613510364127,0.9180606274036858,-0.2943942379688085
2.041065035812417,-0.49839016210568954,-0.16015355771866635,-0.6350584589454875
0.6416291473072582,-0.7736608485078881,0.07629183735377532,-0.6368450826301801
2.0472677123472405,2.1518274657569805,-0.8316684401335879,-0.058630081265680256
0.8703711727108341,-0.1390442603258195,1.0208487564668278,-0.6602422943799104
16.25813218092943,-0.8111741491231714,0.6087872414572686,-0.4678424858053246
0.9354086160202708,-0.6325645903452901,-0.09451926158653312,-0.3884045743015958
0.6942134246730334,-0.7502517087820835,-0.5380588304667586,0.31968328591955864
1.981899784926783,-0.01913686497431577,0.4629783351256105,-0.43826004801643037
5.6733428002125565,-0.8673563507009022,1.438085221916483,0.3444382211961623
2.602958822315434,-0.8027994844602698,1.8436892086350936,-0.3541016922862269
0.46978242317794683,-0.5561910815193365,1.7487281033921946,2.1121618730704093
1.4157488935631015,-0.29505046021224834,1.1081890038587234,0.5073881357334133
2.6631268875808867,-0.46924531912425205,0.2131425125145303,0.091091319356712
1.1493439735195152,-0.16449811536711245,0.8867801164947537,-0.8317252165591551
1.4832598044903746,-0.5966643808910159,2.0854301546500995,-0.6158185302049832
0.7685194764796484,0.5501380803013638,-0.381500416370966,-0.29058992953660767
1.0143915002493418,-0.12026211117040075,-0.6626639352871948,0.6047730921109078
1.6679483865683329,-0.4202811334490303,0.14995042495615407,0.3105392241407574
2.2046777495158096,-0.7682071151851309,1.318702480245899,0.2557436661183998
0.47248117172360327,0.8150328739310913,0.06719913602428318,-0.6062294408754467
1.7027663616666966,-0.3343103289780275,-0.18114570276525033,-0.36889005192097746
1.079486152525428,-0.6242832661641733,0.42578143005451596,-0.32590541946616247
0.23234459534998186,-0.5105662802773709,-0.12657856214812335,-0.5401053866251748
0.5189470909115488,-0.5350968915023946,0.11161298288722121,-0.08469070199158268
1.9074384239682303,-0.5005679957504541,1.4135421836551827,0.06114946125830345
0.28853564929996,-0.8625612415984167,-0.10243052026957733,-0.6741300412111049
2.7576590015069415,-0.25233560188608484,-0.15787440186538793,0.6683106681549906
0.8219130224173354,0.22414276555658974,1.2358043248350223,-0.39740106165330935
1.4631436409619551,-0.28099891348434736,2.3227992725762787,0.019322124553674103
8.72665065123043,-0.6018223502282098,1.472017646140519,-0.19211898480963396
1.4762343519540444,-0.5303443995463963,0.6300895724702944,1.0696897464199866
1.2444207690145679,-0.13516396662477026,0.08943326956815856,-0.6719517911386697
1.0153946138245087,-0.05746376772985895,-0.19350278154849354,0.12198474638347001
1.2887962571049223,-0.17242254084222508,3.2180217222706196,-0.03094381819851788
-0.03978477787650658,-0.7767321235716921,-0.9662653360830618,-0.33241797614300717
0.5942588968133984,-0.5877402228152682,-0.6547593129592999,0.6373878512414388
0.997258579377446,2.492152134824455,-0.15675025476469917,1.5126265260489498
0.8131371567007795,-0.5570194786831908,-0.4520240866833781,1.8184079205079433
1.3310802934410066,-0.4588931616530221,0.4641101667843117,-0.5030232776911163
0.8089219631852858,3.2455869503296997,-0.4908394104805387,-0.5807776318746245
-0.06299070735287848,-0.6133173015446243,1.5930829322539024,-0.34916636267073464
0.778013345770167,0.012620548655916997,-0.185265821395022,-0.45028641744018927
5.077562935175332,0.8749831922094224,-0.08377748319116418,0.341233973330499
1.7963097141082747,-0.8662771437942605,0.5511658543381723,-0.4755457216360175
0.9768263386937956,0.3920602998461584,0.40816974009853535,0.34840217341913804
0.6221228162353263,-0.8032368214670411,2.1646753039726265,-0.6201547081116228
3.325366186906056,-0.393514527735603,2.9038296671904402,-0.6346400545702313
1.9356563095844779,-0.5778205668120117,1.6372241513206487,-0.8245214723063604
1.5987677418149002,-0.6155323707083724,-0.5988978384040673,0.08318906192434694
1.7432518867045448,0.28938977148458545,0.8118888078573698,1.022286051466767
2.303145758964578,0.9947130074989496,0.4802232248698066,-0.25774512618477907
1.2531916878679175,-0.38657947368289314,-0.08305443582847805,0.013834694416867244
8.302716728594028,0.33984096064563607,0.4511676241592648,-0.3740167874484728
1.4238209254209968,-0.1997614871450738,0.5456950562814087,-0.6053248405883724
1.1241185798465438,-0.570498277739949,-0.25505444796683774,0.3814319767578398
0.7235497942308209,-0.09701473987248854,0.05589024358824091,-0.4243753438727009
2.054203156559021,0.5234859237881941,1.0685594513836802,-0.2639722603989978
4.674076533040779,-0.8032565438137365,0.08076985257031621,-0.7264964617022367
5.442070348562827,-0.7115580479107646,-0.7481195599861403,-0.4851532295739345
2.5843499478071155,0.10375048221587191,1.5246870749429746,-0.5815186711797637
0.9198654441812217,-0.45383253521541467,0.9019552638494659,0.6882211648032892
-0.015343367443383715,-0.29586528919841815,1.3438070771019488,0.07346907613503428
0.7164775646077572,-0.6519807927473832,-0.7346005592630763,0.006926975918532419
1.9974246277318009,-0.06815582655330399,1.8579773685489078,-0.5419907559244715
2.4259223575544793,-0.15112797166508118,1.4956328566896415,-0.379647588964777
1.316781204958318,-0.5296874593664773,0.4499578517822316,0.13613132362871183
1.451941750664282,-0.5584766156422557,0.3776134960405968,1.8408624066821146
1.6776260375034493,-0.6225602130815833,0.047224458909314926,-0.23720207442261865
10.125516577049872,-0.23164144623753913,0.8109530584576645,-0.6097186937052695
1.5472232645540838,-0.8103118418443646,-0.07893987542344783,6.50681036521424
0.38532964822775173,-0.4793037248724632,0.6892428329673663,-0.4246466952301683
0.47890226723242746,-0.4286702045754478,7.668623321849083,1.4342492428556763
0.9455826418277438,1.508956029090991,-0.1500372724834712,-0.33368911866687967
1.2733087753002414,-0.19933309587363435,0.9480089708888177,0.361020237208624
2.088679052449907,3.8522581871653596,-0.2565436775989868,-0.6031632782534933
1.1888069946170328,-0.1375827446054374,0.38375076740183345,-0.41533197612501915
20.261314536022876,-0.13111556413092096,1.1792624673839796,-0.43766486061554255
5.927901550869164,0.5834853820344925,-0.4245399571527003,-0.4552566612435812
0.9013844976856791,-0.4880069389959113,0.1678355843289736,-0.2321781461247766
0.15176462898175536,-0.5430899631269728,0.3411994286963467,-0.21402185678289354
6.874841463085224,0.004869294661915324,5.150836145559102,-0.5312154390416852
1.907757393519181,0.009998179344862468,0.9588937073617076,0.2242291174604274
0.3551141062822438,-0.6498648361490793,0.5849950742854417,0.12035418794400332
0.7580691241996953,-0.6131054527909445,0.6951395212593838,-0.13723581968768062
3.154328290449027,-0.509809806795978,1.6334106047432324,0.22549009985449175
1.0788197110816413,-0.3287728889502428,4.263670784200682,-0.5560362261718
5.568201554563833,-0.7704106629910543,-0.415405195350955,-0.5700085800372421
2.0087742006304623,-0.032960958777059735,-0.2744442290330358,0.34985344049835443
0.8390391457244646,-0.3589621152754813,2.831128106744948,0.31774933522446447
0.05986464293622329,-0.08149162797772813,0.3953353503050576,-0.05106685614896289
1.8844522573497935,-0.5108220918810082,0.049486154362997636,0.3076711116381683
8.724416872270687,11.319946500574366,1.4523595531573195,-0.6249338479545461
3.718570115474729,-0.6035838448244599,-0.8950599072923532,-0.6559302187414701
13.16820598057987,-0.7014088645957185,-0.2771856824491469,0.14599693509008982
1.3880718085664192,-0.2944151489318345,1.6111564029169156,-0.45840877032346383
1.7260353278648926,1.4458386773763556,-0.32807986464767247,-0.5418546457731137
1.711222804645256,-0.7291272909998612,-0.12631691868989903,-0.39929841465152505
1.4287627499725755,-0.9418153429340614,-0.4200789198441267,0.04433383701087745
0.3991787792493202,-0.4755127345774698,1.3898444755522297,-0.2896621473826231
5.5245511383522725,0.09276443458412942,-0.6609203190341255,1.3223671226330143
3.8912309806892598,-0.33462461782510156,0.20163109387303724,-0.8151002695144303
1.425466285995666,1.5118683512420015,0.31809292941024014,-0.3029621407075215
0.9797982370263856,-0.5025223036206052,1.2580284592907138,0.47661463140079885
1.5541532006863754,-0.40725210655208444,0.058567678511113996,-0.3367572999958137
2.6369388284673043,-0.0069066624573449475,5.66932886635234,-0.4498593887959298
1.0616358217690407,0.13509974285794857,0.1462589581558662,0.4372333748935333
0.37143099090006837,-0.3585063405559158,0.8423183695250109,-0.2234808512477242
0.30958025290182056,2.145707452289509,0.3447658209775253,-0.3013707779455844
0.2427338675166042,-0.7491631723629608,1.1793890694358131,2.374163092174597
2.195288762002738,0.12283829669257695,-0.3575130572234999,-0.18673684125341594
4.489206802807617,-0.03832818887331879,1.0859501146805552,-0.3845027617222294
2.029740739975074,-0.579592659379059,-0.36236336203283026,0.1895643652893333
0.7153927609765067,0.06932915722086697,-0.5628280342698825,-0.10175518988450172
0.5174374463900193,-0.638255164664673,0.16976854024016852,0.013242379458749287
4.081961214453377,0.8825297537491439,-0.13234445010144968,-0.15140292925674914
3.0333683523935697,-0.567898819214411,-0.06141320256941818,-0.7679930465382054
1.1362682392670629,-0.3779821087320919,0.033469226798443774,1.4853615392046695
1.8759339965219453,2.1195957399902356,0.1553916803672757,-0.19189359669511374
0.7834474480520037,0.8667170061133997,0.393110180325954,-0.6057061246959812
4.311455272279103,-0.5055401034982543,1.4956932142573822,0.19605302830119387
0.6179281929085292,0.09430918652758091,-0.024305767150579416,27.02257672295306
0.2981956488094888,-0.7163643660576862,5.822714903370854,-0.6773120068076399
0.7764243349028339,-0.4956898068156258,-0.589208289640996,-0.4787789976326997
1.4519080985598412,-0.009313183082957921,0.603096595866746,-0.48159986719557357
9.521109194115123,-0.7137920530148649,0.44387742920491946,0.44233342492517225
1.9629687619656662,0.16733625414705489,0.16263084973408115,-0.6207614139256252
1.513848340228142,1.178084904004959,0.16043129548738344,-0.4553866942557555
1.178647786405799,1.2618902025230776,0.4426367113024283,0.28071007226780664
0.9392868360800555,-0.002335993899087896,-0.5518074552669847,-0.1446067059981181
1.0977005277499563,-0.3826565810764192,0.5266665797693899,-0.580630036561913
2.4057666099139303,-0.24389398585394662,0.3123408994752137,1.870574527344202
0.17049644851530954,-0.7998141877511641,0.9365999767044693,-0.39273293007949994
0.4909436398998337,-0.30441444780318305,-0.012200288877166066,0.9151290241412104
2.082597624251279,-0.41413298794632225,1.3034543815460968,-0.7288573994251409
3.2532266689328013,-0.19709033084648842,-0.3558561523884354,0.6708121821265305
0.9983546609271348,0.6262517894092945,0.4383989872478038,3.613681421401104
1.56392755585932,-0.6231017432760342,0.04388134124726517,-0.34541756134845336
1.5141783693264514,-0.35053310421835515,1.1292338137271853,0.5487238932521605
2.342544280777035,-0.4719894173596224,1.1606729604263601,-0.0788506552371473
0.5550802569834632,0.559986267874165,0.854126092401831,0.2746118136440783
5.777393626989331,-0.5797734723995903,1.5076728798874068,-0.28972095910825546
1.5719863978739572,-0.033057508779288924,0.8018842796963987,-0.11806832013577828
1.7845276840404445,-0.7006776994743666,-0.07667439299957945,1.4040856098088739
2.0440266382835364,-0.747081136813327,0.9719616011681529,0.13221315110696885
1.6233916420098167,-0.6598010409127348,1.6607699736582582,0.714703096734965
-0.06533846899614859,-0.6397305037147827,-0.3363172223647388,0.40593345626523947
0.8486084124866657,-0.4485909841181601,0.5606765367375759,-0.8118744877147717
2.410938060156029,0.9925171722440793,0.26134997239718594,-0.008756602217425247
1.3312822481320397,-0.1517890896540689,-0.599781076921177,-0.50705267454399
2.903580876664722,-0.31541439445115216,-0.6937091955649419,-0.16049153038139907
2.4026785176462995,-0.741730523721975,-0.3471317047280067,0.016062098337984443
0.9842176257303079,0.1341748419897244,1.5278423154911382,0.25387509055516566
0.8263149996171746,-0.8071447651497079,0.16961015775454413,-0.1615167463661017
2.765616235933188,-0.5789519962009653,-0.1787722110856993,0.48471441312118957
0.9276405837335662,-0.1003302268872791,0.35722998851663945,-0.5058594680028188
0.5238547274885688,-0.06236580138970138,-0.5898391341089225,2.2796583173792166
0.8156686514312452,-0.08858777666066697,10.91665891152728,-0.6282155550274948
1.0566241613396885,0.3725306970628257,-0.296861531623411,-0.10806768589897109
3.8940375518334056,-0.17628835133598642,-0.020753831507700826,20.24602139716442
1.0986479581107225,-0.5921872842635264,2.4965410725347543,-0.13475286862398195
0.2646099197418017,0.07907621294531508,3.770135736577923,-0.39062148350435777
0.7605362586234281,-0.15466323465573584,0.3104098710259324,0.3485082193923632
3.033216350963249,-0.7375084098700799,-0.26045467488961194,-0.03280938524129662
0.13253812443840074,-0.41125282312835454,0.8713283644587964,-0.1457849940641306
3.1573792138575367,-0.5767686461482937,1.9129220732969197,4.245013849954746
0.6382908757120882,-0.5711015006453178,0.06727711682574511,-0.4318884600494125
0.8017529204984355,-0.5845373724007829,-0.5061081492290656,-0.4149924731016742
1.3928688981127215,0.05723575622994237,3.9625655539188838,0.08343409978173333
2.8927527610058514,0.2092286581820315,0.5530796666104509,-0.5569681990482569
1.2009576181054014,-0.5682606651583626,-0.48819930429432024,-0.6733790263814928
3.5049874439930226,0.7803205992495905,0.005028603467372328,-0.16984003256752045
2.158539710606849,-0.7924262700410832,1.0065025066003983,-0.4772167856179438
5.827075111461168,-0.6466447832880311,0.3637627197146198,-0.056498399554513856
0.7228355812355374,-0.2838418806153531,0.8652703579957544,1.0548323980130103
23.785174135806855,0.08551349251323037,0.41146905907415254,0.2185112805825684
0.9583154967966403,0.19476734495476866,6.039114879385765,-0.03519753622636734
1.988290356130531,-0.20155217387954083,-0.3264104466127331,-0.4007941414077931
0.5614024039598144,-0.3895042579201202,1.6727354759202346,-0.33288073851135946
3.8727914043441727,-0.15777936111743096,1.9655533242079026,3.543484386480533
0.5350052927842293,-0.1532117562629549,0.016952379980462506,-0.23876423925818457
0.5590836939979218,-0.17935512364048178,-0.11710445531929348,0.8744638386468568
1.6003052369811002,-0.8476633299425745,0.13648973660822428,-0.6377661905090717
0.5347234077702845,-0.4146423773257444,0.6398717161377852,0.164455809883697
1.1942148682569247,-0.5636855242569914,4.008215299390373,-0.289097777490381
0.7756643852289609,0.11782538595279335,0.011512714548174596,-0.14244741900415836
2.7001681435786393,5.18946089956692,2.4779711136079796,-0.4632699901000177
1.6165353058664214,-0.23480854540535356,0.42558571673389145,0.21098152041570595
1.3663995454910927,-0.14198039091382275,-0.34332811290160103,-0.6388046553833577
1.5841662468368356,-0.6856813886771591,3.7336503375889993,-0.5170345403190919
2.6560637012707735,-0.6053821542872331,-0.6532230779928749,1.3104671837168733
3.128237978171053,0.6966415697745578,3.4267608384609556,0.5350232986625345
3.369102399303568,-0.6300257377721291,0.16162049324712746,0.3871943503454449
3.5331824695161895,-0.27700891100962644,-0.9099904638350226,-0.49481091563082147
6.738361171366726,-0.03510751033580639,0.2896817120906994,0.1027456550054362
7.29227919343132,-0.453587971748766,5.944910342165299,-0.4180226592597185
1.396284048020056,-0.4350034281711409,1.2461769219725536,-0.14237838722470852
1.0157858841031828,-0.8994959345064606,-0.8357631905976035,-0.5825688143045059
0.3453908931937968,-0.9494919239940212,0.3431928413229739,0.2898763119935428
2.489055216989962,-0.6570108016620912,0.43949371983373076,-0.6485554913935073
-0.09890718858370129,-0.8304874037399828,0.17490334182817913,1.8414970406917774
2.2203389129641637,0.14726971550031442,0.06701159994896133,0.0525268392350946
1.1141347978574005,-0.4758829785959172,-0.8065614399274861,-0.058035836088443205
1.9758728392280238,0.36376047510519305,0.7960595348675885,-0.8230387411174558
0.07800977276929766,-0.6101678103358422,0.8920366736801926,-0.16752515664528234
1.4229796438906912,-0.4545310780015971,-0.6919174772966084,-0.3213061645535171
1.4967270112855542,-0.4854436894744675,-0.6169049209985842,0.41111615569519033
1.3955534092320407,0.03988119807935009,0.363998502770865,-0.10641732886757294
2.0869557900630036,4.764595457329887,0.9527649354550818,-0.34413825260088193
2.3254443214216787,1.566674659714379,3.8405518507325844,1.2491517559321905
3.4426930852637305,0.11686185638663193,-0.09988131502125663,0.6075095329134581
5.833078620724488,-0.5210750797649079,-0.3359147210970206,-0.6303164707097118
1.2217550186024813,-0.4018183156599767,-0.19393628013516861,-0.1968352003505931
1.5635113828192786,-0.3793381130844784,0.2322381588741711,-0.6080606619215538
4.240631176847152,-0.5611474657884139,-0.24756043189948096,2.053475958856053
0.22754257245450527,0.21654570749813318,-0.034918608728557565,-0.42881840907146573
0.22810239626377715,-0.08412816579288784,0.12464613859635976,-0.1428713414645587
1.183120386476571,-0.6923107296445286,0.7382371804432466,-0.4892093424541988
2.193361872752095,-0.7096341794127632,1.5563119268446406,2.221367915562224
2.1606715184234,-0.010118312685278963,-0.9403178625487837,0.016018961652146002
0.36548437547364365,-0.736523519519923,0.2881671613958927,-0.7753657871143109
7.231091706403708,-0.5207277852662759,0.7677159224633165,-0.22666950285687548
0.6288349417710504,1.480563633041097,1.348583864881617,-0.0637386177401229
7.064257334832533,1.0056073153078797,0.079524198446709,-0.6136575707719805
1.240305510568136,3.5049264547155374,1.141459567288437,-0.3466238541527181
0.7128197928028728,-0.5038212758025418,0.9941597265550564,3.8158889863262315
1.5055425817945638,-0.6978090440017923,-0.5496747754758429,0.0013366625239443763
0.9917231552241075,0.565095686355501,-0.47620768837629734,0.6646500442420362
1.8403312759549855,-0.19537155328800537,0.22676164141939226,1.0677366098182728
2.0125007294534485,0.13777464815397011,1.9823698737202102,-0.9564783845798621
3.3070240753208147,-0.43790315752512987,4.445053149091994,0.13509592937195514
1.1996554593070963,-0.017722265158752082,0.5277253420506496,2.398924075490548
0.5258064845850614,-0.5456057628213012,0.2782534846513631,-0.7652961558251167
0.8166367436440563,-0.08415314935650586,-0.3023481945835429,0.7884435516961905
1.086845895869018,-0.8519524311078633,1.1346556242153016,0.04594004795847595
0.4502712458498861,-0.6040537329523786,0.3193326097554776,4.55291810495176
1.8731069661025677,0.1125401067325753,0.6140572185470947,0.07278136730246199
1.1467563874433355,-0.4195107137356958,0.582060499368646,1.5496759009368457
3.6687585717627504,-0.39256916047646995,-0.21722860078052464,1.9530218328362916
14.774846098370764,-0.4017504693011902,4.396803457336663,-0.34840203449129614
1.3789983534790369,-0.43365970214362437,-0.5470721431283931,-0.4886479506655875
1.1092773906623976,0.6026821120675334,0.7652875716053356,0.8299458476056121
2.2956159512334025,-0.5804937918496937,17.48318494867527,3.6065285525615822
1.378049827791985,-0.8302416709304825,1.962726447155391,-0.18194464274896183
1.480317402058176,-0.27642437400726694,-0.17701790807069318,0.43446646718532
0.3663555095993498,-0.362079744817017,-0.37382390311899827,2.1132736512716046
3.25522408080991,-0.38640848475236633,1.0112274969524693,-0.27187543010384496
0.6119322294226384,-0.9505508284597081,0.755127012948954,0.0006053642837797746
0.9665452110944868,-0.4271663744186861,0.8931128773262318,0.12844453624524954
1.331046533470834,-0.2442664043237046,-0.7957732904120577,-0.21863720235738426
0.755422702575216,-0.2855387382170579,0.2874905450449923,-0.031214515979431146
1.101427366078426,-0.5706055609091136,0.3944018306350692,-0.09598009911340344
1.4054905234708088,-0.6207836951356431,-0.24950236700921935,-0.5455664889575991
0.988846702435338,-0.1104844688327219,-0.5829942543406164,-0.6388158128366312
1.048489894688048,0.10720443076030839,-0.43985715702335537,-0.4832948491601331
1.2845271477323337,0.03340429384437371,0.44044868923013225,1.104993237943039
3.1782797302219796,-0.3798775940865553,-0.2068497108264773,-0.28825170780004505
4.541595263959576,-0.34262476143953857,-0.2560600670777571,0.12358280120157827
0.15249407897010925,-0.5731227861280437,0.023965556434823343,-0.5533787785653007
2.5595834277898484,0.23068275291681517,1.1933054859183088,-0.37377523549404856
0.9733411619230055,-0.4043795307716268,0.49572274108616243,0.5711906361909376
0.6306370569407502,0.31995536338738617,0.309615739398134,-0.8082106400412972
0.29254425896543146,-0.04947015236959873,0.2892861719777833,-0.23213686460951455
11.120668945923171,-0.0693416687064573,1.5037087410184187,-0.8394999515794543
2.786579216275363,-0.04297339142334833,-0.12406047821673016,0.13300360412146417
0.7047728931140418,-0.021010732517971142,0.2563376224801974,-0.20002596041258158
1.4183046291016543,-0.1252707327013387,-0.4040696617610513,-0.10917441524033
0.7086784238668162,-0.6339508148518451,0.8848418285577726,-0.7620168946144337
0.1307326966810214,1.6026829875600503,-0.04805467322060597,1.753907620119815
4.598933639956518,-0.6345552053997083,0.22989094816140732,1.952721627361269
3.9215931968198507,-0.13045429066624215,-0.4035328444900381,-0.16949835901866428
1.5034033787461532,-0.19829334228144335,-0.15891929604130106,0.3141707498967128
2.5355237324131696,3.0226687930507508,-0.2883948687641634,-0.2116346151584202
0.855690108642938,-0.18717495923404326,1.021149218913846,0.13040413191294875
0.568274390177772,-0.4110606681845139,-0.4947907747933121,-0.8855032954858738
0.5606724229974713,-0.7439907838216553,2.903852281928816,-0.40451431567913865
2.975460655918042,-0.3526995782510277,-0.41173817861665807,-0.05180647770765523
1.9854816254337435,-0.28224636260091573,-0.3528533031606318,0.8976652431604863
1.3918458690426858,1.1579333526824107,0.6942609582275718,-0.5148265476613078
4.654015200398167,-0.926056030964729,-0.07306323241781532,2.9277777195766896
2.893711553644582,-0.5625782138195665,0.19375740350337112,-0.27647526166211933
0.29810694721848274,4.023230124019009,-0.6323072029527417,0.12876165877339973
0.4870016541576374,-0.4325704000282835,0.33946240934482375,-0.027847316203411965
4.523523442241365,-0.2721065725272386,1.115822547375907,-0.26688482158079163
0.5275601912022756,-0.6001051732728148,-0.46893267144466333,-0.6969440208970556
0.44993599386540506,-0.7269991871986141,1.4064229589633168,-0.10036702144945064
1.1190335155016498,1.350025803860698,0.11224952862036197,-0.6937577134431612
1.1692090886633024,-0.5361527310369714,4.164816231816934,0.4523615359755546
0.5695370956291532,-0.22854334827001543,-0.21306191717257572,-0.5905418330129568
2.3756945707291908,1.1949705343867048,2.9581296789256966,-0.37900912432876444
2.569826058382795,0.6692884957351009,0.6124579615679389,-0.19021916599064803
1.3645227037825283,-0.0975841555163176,-0.2834945715455158,-0.505659660609721
1.438676443106917,0.024174824678145024,3.4543549468781656,-0.07945434211383218
3.384683024250015,1.2419227677655615,-0.7639467915190051,-0.47672236070749097
2.4711545611194636,-0.49495442676212664,0.14231676828976325,-0.6311418522908057
1.4094251369734199,-0.546195258481518,0.15522968677731552,0.16135132498241278
0.4423936729171978,0.23637874303825046,0.32718163908606046,-0.08688254766477799
1.7289799104271846,-0.24668443987528155,-0.3885447603584862,0.9793088688283691
0.13496366671433058,-0.6193587590551436,-0.5521191411762438,10.735753551364542
3.1158514016451395,0.5154193976749981,0.48802298651001275,-0.336266094990165
5.153998986471717,-0.08869519769080847,0.860407057128574,-0.6384249130553605
1.658848542571095,0.8699971743825261,3.9519267274741994,0.9604183932425554
6.141121150057413,-0.7106685843336978,0.9353141490234333,-0.7546276298456781
0.6088801628062228,-0.5194932187014398,0.9953654535269221,-0.1946235184463151
2.751300606352268,-0.6507446382490705,-0.03953156755960241,0.19656870208287103
2.182007142786494,-0.7533328908382115,-0.020145076169146736,-0.5151284729849437
4.107689280852861,-0.23581050426300232,-0.04354850363931195,0.3451174241636752
4.143890871374248,-0.857569438356421,8.472649401245409,-0.6926283812175942
2.1218626395774924,-0.7385202142827765,0.12263224111212123,-0.44723212973127435
1.897766657499656,0.274328890420521,1.1401202120920306,-0.12946053959850778
19.73458536598489,0.5097211496645502,-0.19924243514547302,0.3134989688510832
0.37357708194210804,-0.7463702748087537,-0.5612017477629053,-0.8127206745236621
1.6311855198618934,-0.38465080959080356,4.270066611027312,-0.31045886574164183
32.27335414844714,0.019761305046164912,3.008779275758668,-0.3934386418815524
1.7839395269298515,4.708639174879634,0.9764816240194807,-0.5852771784763622
4.681132511509278,0.2651018697503571,1.9173977362788053,0.32339573718662074
1.3532990994440048,-0.33962395704690596,-0.18743842636532138,-0.5885854224083035
3.103366270575372,-0.4438078569558327,0.0179621583078855,0.040376921190290016
1.0643923212838167,1.0373005490637577,-0.8432039992257305,0.019334768085193854
0.9062145547916844,-0.13203383230040133,-0.026608417683225416,-0.35076534182679564
0.8838772320377213,0.00276954550030184,0.1443285138887156,0.46929271545053775
0.1259287324066325,-0.5921922962984165,2.0040282118181465,-0.7436846768829989
1.536104045890256,-0.2860786990680375,0.8980918224730872,-0.16500938890030614
0.8089485904704028,-0.5043552293243373,-0.8700291043840382,0.0022896788057442663
1.5221143071369054,0.20065974581108748,-0.3147937125106005,0.3942863692686287
3.7476004158148326,-0.750220747259523,-0.37126864053864606,0.456963452644509
0.12258652485888955,-0.4184679764528729,0.0509714219078401,-0.2852000435839003
6.228283932626021,-0.10348172748424422,0.6991268883794404,2.0083625852825895
1.2605505229957465,0.12205700212913628,0.8140094838845775,0.28958506990491983
1.2952824777530099,-0.37990714055207186,0.06179638464977111,3.864257444440332
0.8441534051517496,0.6093427978920662,0.8015774752056997,0.18320983371532407
1.037473701591114,-0.1941472555477065,0.48039690890919795,0.6779310500064522
1.4349892354976141,0.003921256631755687,0.06393797689166192,-0.505567749103399
1.316809951837317,0.01611456914780174,0.3620857675159366,-0.44511833272276957
0.1658132624869877,0.18796721605011313,0.3545267421670939,-0.48660074307166
1.3969728932395284,0.07786680756346209,0.5000090491469453,0.16410126707972505
1.5948639269513016,0.30507048392523983,0.5797511674719276,-0.7420004635603081
1.4662510092530265,0.020104165319980938,0.5732027269274409,-0.003465397535354353
1.26069412355071,-0.12011154367459453,2.0210953563464935,-0.1879283726210823
4.180762572976634,-0.29943462044462665,0.0670996442162437,-0.03367729968360422
3.197035595112487,-0.9065623041531852,-0.07744208704883526,-0.007516952288947332
2.087268197523695,-0.12203831510611007,1.5380582831295442,0.08017965910717084
0.8724929005270414,-0.18651311262559567,-0.18311353159895205,0.1521426524728573
42.771400714862054,-0.5258822249377391,0.9620375427353363,2.2617966965621816
1.6450388096845545,-0.42741917779213434,3.1868348843461005,-0.2062702156026598
1.4036049191657654,0.2100154466420161,0.008912035769670368,0.018507655858308825
1.9588411457159558,-0.14804198724097883,-0.22398304896580878,-0.17415893048764775
0.3172789783769083,-0.85277644428017,-0.16187171910487885,9.435751116435325
0.9542298300786973,1.2800218107911103,0.7034817831438469,0.22130921580350882
1.3860116233914774,2.8769657398778445,0.48770546773792955,2.6026031900914743
0.2764361343559547,-0.4383343984887179,0.20157033672045555,-0.18427579444053122
1.2084685567561069,-0.13390781000030372,0.23427794550297132,-0.13627122046985718
0.6097519851869171,0.39966248515737646,3.994820461333214,-0.18014377836910112
3.6098211318469113,-0.1628461634400431,-0.7600956671375618,1.3344745723069584
0.41401641562615366,-0.5970523147896825,-0.03649305375794587,-0.5863372550335169
3.620022355301484,-0.26276035652210517,-0.34924932625273186,-0.25617429211540477
0.6128495480354927,-0.266408463439043,0.15881344279316534,-0.16513866811509936
