x1,x2,x3,x4
1.5135698703777019,-0.6419024893010037,-0.03228974394061945,0.08338756626005872
1.6688151119359151,-0.5249975226253631,-0.40115199570602833,-0.42126298269828344
0.9941933403720504,0.12422186332125262,0.7935141387616711,-0.2540184353485361
0.8929949897691498,0.6215140119467235,5.24915129303215,0.781021914939064
0.13668659798754956,-0.7700231377974822,0.16929881577388173,-0.7123274019132149
0.7030130744747947,-0.3383557675181831,2.824240294578219,0.48446129786184167
1.5815760122477172,0.18544914716863103,0.4532273993238989,-0.12128037692076077
0.5687482446362029,-0.1691244609687882,-0.2609464101108161,0.27520168403181455
0.6071338471266248,-0.13251525955037036,1.3070608058245816,0.3517678189493858
1.0394172188483526,-0.18691993660125739,0.6943591717865714,0.2870051862822669
0.8855148055379025,-0.08835323165116371,1.738075214016039,-0.5997206421309228
1.5524778657555736,-0.08041261070235417,0.11956936790310357,1.4542713320636431
-0.11147410906124566,0.6589313872301821,1.0452824732644763,2.313979243271516
-0.2001368407087828,1.2590133861185788,-0.41298766863681236,0.09384069883541435
0.6778399561015385,-0.5002416580008505,0.2126818526370866,1.0615057049843832
0.08387679131499914,-0.5361743564215637,1.3282165966836423,0.46200741223181585
5.03187091986093,2.4357613988602163,-0.004760026169052467,0.46425755187625684
1.4676162921456917,0.05933288305769424,5.205224056363379,-0.6128557873230542
4.454306572094158,-0.15417660000902567,0.7230279381658296,1.1023007540480965
4.811346560032695,-0.6224938423033468,-0.29443973908121657,0.13935239727929538
1.3171868095289265,0.04265825248750721,-0.3325961947154119,2.3816377733548713
0.2301117531841823,-0.7499685725017597,3.069309238310132,1.3507235912676774
1.7580932764818606,-0.46939426280097996,-0.47778535329308813,-0.1122615407967874
0.9774818108726333,-0.1512787979404383,0.4027180381871409,-0.5361968559105852
0.4935192772358896,-0.43163663056183177,0.4053680249634266,0.40055998929711434
1.2715488542447924,-0.21274033410825088,0.20893666066688477,-0.2539422361790934
2.7878979190284587,0.9469625548639404,0.25507141204234207,-0.12085326643749328
0.46438862058381813,-0.38715432007812467,-0.259500668621206,-0.40098133725851026
1.7956301861060502,-0.7482955484825583,-0.05700387207870483,-0.1696923797455614
0.7648620530938306,-0.7350640063319681,0.27235112176233267,0.5178584419773393
1.5551428950896864,-0.19037936545219825,-0.10029382707290113,0.39320293587462274
1.562694534015411,-0.29079674123407395,0.42721547388447445,-0.1945420773372185
0.6938704340400119,0.20276633533064548,-0.8990929721810423,0.6328322022709785
0.4221276668098468,-0.5035823093114182,0.3481615710575201,-0.41004062121027796
2.606360561551845,2.2927930755015047,0.9935343707983362,0.2723134128540978
0.571727235393521,-0.3119185697380358,0.1284502882853964,0.3101419750740473
0.7067414146414581,-0.5167521735121274,-0.2334482956118198,-0.37593927339624367
0.18563618105635915,-0.5345153415723982,-0.37411342295006056,2.8989144346127773
0.6140554008194548,-0.7831663350794493,0.32396835523361056,-0.4906827378992109
1.6834582790929926,-0.05656333783432077,1.057973878322481,-0.2741852314117884
0.780409546228547,-0.237374486653669,1.386873747018008,-0.7871044215473526
1.5185360943965476,-0.4412561048362904,-0.34066369475384206,-0.15243271867835917
0.5371942071634925,0.2482078957848315,1.357252309692365,0.9241753832439383
0.7648819178605692,-0.0844944113947731,2.2617094173585968,-0.09331660733055591
1.1014795768821135,0.16814798097096983,0.12026560675271103,3.1984333951425707
0.5059284425688455,-0.6485588111188965,0.3087266715998649,0.7952530464238072
0.0009990270878501573,-0.8312520145028334,-0.40376789451950224,0.3850964752492292
1.0546043241956427,-0.04747687176904436,1.504943113751981,0.42223415663632125
2.0866489965229698,-0.0643940630570391,-0.07225053203056742,-0.40609123925879187
0.8380379077211368,1.1069964799816332,0.658569648515571,2.202229044690404
0.5315802646707182,-0.39673425973036247,-0.15539484336535336,-0.45976980174235105
2.2251479736769224,-0.8067353937401653,0.36183593696922434,-0.5667762265882874
0.8923194149097338,-0.5469510049017392,1.854135010780856,0.0342099861434384
0.3775169843875361,-0.37695708843465314,-0.34452546397378747,0.5983788066225377
1.236029362875788,-0.4001979571768509,0.2750130789507914,0.1573562778727875
1.41911157022184,-0.7022930147246568,0.16940954969489508,0.8899681944281612
1.1954618092643376,-0.12024603308704884,-0.4704251603116354,-0.8691713327963084
3.3975844757203895,0.5820361291993035,-0.01407330520249106,1.1138503035824328
1.511272994473957,-0.7776357664582062,-0.18213385149047745,0.26788646643119174
0.10858795946456246,-0.4714016667094998,-0.01143061524389033,-0.14970589960959457
0.15481067995463582,-0.19014664694253713,-0.33435730419980636,-0.2916424473658179
2.7389299628110884,-0.37952685653534224,-0.49721035872246433,1.258760050872016
2.874551539843032,-0.5392083756699257,-0.5008987893647188,2.4585657047379597
0.02502601591349274,-0.4433326498954515,-0.11898798655983123,-0.22036782627397955
0.03052169293765572,0.12494882959865805,0.24108957959920718,-0.8455785803470413
0.35985252964376846,-0.5362349157619789,2.9889584920239214,0.30892731814486885
0.9751838273266511,-0.42841515452350987,2.273153003229517,-0.47162595125788764
0.0019982867087839917,0.3563877580474786,-0.20445770785035122,-0.15967147102308066
0.5383183255602855,-0.33470145484464664,-0.14227874228921256,0.7585413743974019
1.502680032254474,0.4732190657200699,0.8914052469167837,0.10457548474541478
0.6831076992238063,-0.8352562614783754,-0.06468973440827641,2.1903359078315723
-0.24595830604504287,0.33143744400592734,-0.04858744546222027,0.309186224132608
1.1768020689002126,1.3779974244816455,-0.09048661267473679,0.23749241977813051
1.2315462649120952,-0.3478048900327497,1.0457919090761174,0.16570870802800375
0.14388769359328135,-0.5764433397766742,-0.06810334502053061,0.6150397588963952
0.7424151860696757,-0.3988999576897767,-0.016877001636575573,0.24901909432203118
0.5160691419403884,-0.5093933997578721,0.33991877726421404,0.328661679610009
15.622917988367035,-0.11395440753774921,3.2479201518197005,0.1975687152199812
1.4892627803934557,-0.6794896079033493,0.3046271464474646,0.7420564213502623
0.8599656999507963,-0.6522666406096262,-0.3776726007913558,2.9587902771441574
3.7203011322507704,1.5949604146193246,0.5848451132192192,1.2770225365114785
0.041523821453908205,-0.21517255745765085,-0.4881741296269003,0.11539383097278333
-0.22506084022770045,-0.31225152210016394,0.5669025898342224,0.6798221719155506
0.4036611059174211,-0.7004012420887856,0.6466767978256083,-0.40501186701467595
0.7087754777506063,-0.687607584661083,-0.18184207458970592,-0.08850431912025858
7.110396180973179,0.8010244159942073,1.5502643432093115,-0.8950352663855444
0.7327099531332091,-0.4057747335131502,0.3875060825625696,1.122002404633983
1.6087225997355663,0.24410792609409415,-0.4449869203556567,0.1732499335394322
0.16001465684504912,-0.5939221208238281,-0.44735019812938415,-0.4269215307680436
0.5383870904266701,1.0358945047013592,0.8749169700545194,0.44504137767683427
1.1858556634916955,-0.6135498897811481,0.8731128988779613,5.070012381641665
1.821600034204514,-0.062366176187849454,0.83990178012236,-0.1201872039034364
1.0908494791816885,0.4656620067728885,-0.06960146216139684,-0.20864734606820357
0.36155488651124634,-0.08768118107661815,-0.06456975457216507,0.38715361606767096
0.7169630686056048,-0.47590370151151906,0.672412499916035,1.3814521655108862
1.3852587531558878,-0.2879616392858836,2.189027899650713,0.9069459072675194
1.237279541104479,-0.05486373927936217,1.7544436156017498,0.5351257661146782
5.901237435065859,-0.6376001234670031,-0.284902742041409,-0.2378046463242769
2.5947027909961125,-0.03536317739784545,0.25278015520661334,-0.5100124022949636
0.6994833768870365,-0.4219591430055686,-0.8207144813311245,-0.17980318436352938
2.2089691178883837,2.4326735981575474,-0.6255199496050119,0.7568576192629235
5.121484803994138,-0.48564475837826815,-0.3293696935694055,-0.22791221043455523
0.177685942700607,0.04315480135041816,-0.24535503471525666,0.25492193145920883
-0.45474267236138954,1.0565899518309667,0.03626434719896565,0.032805779022463843
0.6345700775447132,-0.1885742289174368,0.43835372445466514,-0.6207648623082105
1.5670563874825532,-0.12788247526620855,6.660505097290156,-0.22088701788530607
0.8339074228410266,-0.5620570500876623,0.7453453322632151,-0.7253602890481263
-0.14431609012223823,-0.5524507108096586,0.8605542189415685,0.3004471389961516
0.5871510490260954,-0.3056066945849233,-0.23575303940877834,0.2476897239674809
0.20578497297267706,-0.9015851919972779,0.9572087651210219,1.0794158719223512
1.09382505330059,-0.3202515571004696,1.7239135557542289,-0.5427208652240834
1.8901197306822515,-0.23937208817877298,-0.2753198837931924,0.11425686766387777
1.2935206341399264,-0.27255480992775616,2.679657419915831,-0.27135380573378376
0.9043516801558353,2.646288777175587,3.1262688553045095,-0.7835614415928291
0.45473122304277,-0.8542131158442486,-0.9241434258618388,-0.4100563449822884
-0.2991641987811142,-0.6656985186895386,4.465619724675187,-0.32059694528119165
0.4446983743012378,-0.5826534938308665,0.13327813373272357,-0.5236048911153999
0.7427796898035408,0.14899287257979066,-0.5418567590768442,-0.2550946097128979
1.119485934721153,-0.1750703531975314,1.0316665260093547,-0.7789956305358209
0.6455183032009693,0.11357361802386934,1.5999097265641131,-0.7270837787316531
0.6846232421794567,6.125654098820915,-0.12299659425954934,-0.7583218638936713
0.6721714458856058,-0.3636886614382939,0.1755379239186876,-0.5093916630586576
0.37448051497766155,0.5665011757466778,-0.3443748459364485,0.10532933469240224
0.46750466463443185,-0.4504550239239896,0.49510837186226153,-0.7115160657448547
1.533901875875348,0.718692499540512,-0.3715628028653084,0.42254115429305417
0.9379333762647313,-0.5774719217964508,0.08817204060838058,-0.3000656757253124
0.07628732221434875,-0.5431922364610265,0.8487669483354268,0.034901210879994204
-0.39570779783381127,-0.4497887781113058,-0.6288538483377581,-0.3341993949448666
0.20415089992069935,-0.3224495389402955,0.6680424391659077,-0.3800739946609041
0.20635089764768555,-0.45034105653967627,1.5077094728828233,-0.19711472975244493
1.9423139113115973,0.16937271847987478,0.6773118454824296,-0.24738673554435375
-0.03997794839900948,-0.7585225915744854,-0.5323710548159062,1.5260151270451505
0.15097723142006014,-0.512875670096617,0.1545827217885467,-0.4054977108598973
-0.42888972763857636,-0.48999672853875076,-0.4705337100593998,-0.030996167712267875
1.8047045874810745,0.6718341095178664,-0.2850747776684277,3.818403271725378
-0.0663335200525137,-0.33762912982344784,0.7433637837874598,1.8767715840899828
0.1313603149886431,0.04424017690334603,-0.7147253743607163,-0.12939154928186336
0.606473274297114,-0.8772416010531661,-0.34200279117188404,0.7872221289257217
0.24861731910165763,-0.06518850853587443,1.269691906007416,-0.4048940719090769
2.2863390612078613,-0.5342331095537223,-0.7511045208994599,-0.6508843996360876
3.505892302247821,-0.72669864912976,0.7214478937369602,0.4324816713652675
1.3124864467189736,-0.4069291249653729,0.11038429782127523,-0.1398612444090126
0.20017567750883392,-0.4626896521002931,0.050222975176761775,0.6316305131841009
0.3730501794337284,-0.5231484676889276,0.38318207227086387,0.48647681553518374
0.6431127166464672,-0.5368283424617379,1.3239612999202328,0.8587895008562918
-0.26974962969763405,-0.12116118908136952,0.14094177277521558,-0.19832422574342023
1.6528042705185837,-0.42264109964121144,0.5784772845353043,1.5831066728037744
1.376007111514495,-0.5538097111627417,2.2871708827286117,0.6962359635921478
2.6449946740027195,-0.45440546336535437,-0.9597798246760756,0.60943973948017
1.05952427364713,0.34867152897619036,4.091320059307293,-0.4613276974674072
-0.22474952732279208,0.49131654333433183,-0.5427309665095743,-0.8964634552609456
1.2947066464540864,-0.35554055552467323,0.04226592143928576,-0.5756362786680367
0.2615910208913661,0.817966871666105,0.28349688889380764,0.29120977821172334
0.16302309371707846,-0.38620232380604735,0.14483963387235677,0.41342507681331453
2.2493187636739496,-0.29820096988711675,-0.12220965406539919,-0.2488176003165563
-0.3254137246261296,-0.7206832812034202,-0.002929539524244018,-0.15661419395654763
1.2221616919645988,-0.879599291822132,0.5620144356895886,-0.5239740981397856
0.4506194704108646,-0.5946388268223186,0.2564223591997432,-0.2785944936794601
0.663625136907882,0.2358271405518595,0.2944376536565172,0.9763877858733889
2.2347419561296094,0.009478921250128947,0.6818878032875055,0.30483682929253075
0.42640454662128535,-0.40926072225868637,-0.45981296182695774,-0.7004203277936352
0.6925891465780123,-0.06506913418745597,0.3549613457586356,0.08719838514848388
0.632974521532492,-0.9293094328162772,1.404878909419748,3.374132153183372
-0.34598226510166985,-0.9211880789914584,0.2298793993063577,-0.5489918295685589
0.5030263192426476,0.2454179060652235,0.6614428171724402,1.9384199257005599
0.8064295303100666,-0.5838005853297481,0.19447159688784765,-0.8140405171374634
0.00463069823075446,4.59786285583871,10.518436751895857,-0.25477507104404185
1.7292324249112712,-0.7937494547805222,-0.27845403238369115,-0.20671614075343814
3.7289112859218827,-0.947720199020791,0.10236186173051154,-0.33004643590521887
0.213892048839319,-0.35998313956617456,2.1372830337231963,-0.10052616036266782
0.49604434484632853,-0.15071401556430575,-0.048748114401495846,-0.6783807089425525
1.49556163815625,0.10684971840533652,1.5482977386872205,0.5185771717147674
44.055453790939374,-0.521069005195923,2.5480477656976164,1.5294300496817028
2.246851419820516,-0.08857732680980213,0.4011685202071855,0.8613059571835076
-0.06860237491573529,-0.49416451717997134,0.19821460849873396,-0.29621595366689213
0.7774992908123028,-0.37446534264936493,0.6111268162370675,-0.09974055926378245
0.6814812182486221,-0.7732770900780115,0.5642962711160351,0.048749865905380885
2.0729853715844047,-0.6368682281440587,1.416391419637809,0.4663836605275986
0.9519560950906518,-0.39858523060523887,-0.6865570159739569,-0.5947220356731878
0.5459989321098602,-0.19382457066908787,-0.4035719131510397,-0.15651808874988693
0.7236458584504704,-0.09090024316239809,0.17402878013192202,-0.3085879674577797
-0.5841552458836292,-0.23015458873808514,8.23520841250485,1.5297753326415173
1.0807098263729027,5.081602260906488,-0.7002369995071339,-0.2547988773741081
0.619126430490182,-0.5338255153599816,0.08864124597754208,0.819243339114184
7.978157232640758,0.2683359825969043,-0.35979165874313,0.24918335368590094
1.00540026723412,0.16884997175426086,-0.03912728676941146,0.3235890185532244
0.019721265554023093,-0.49414322701918245,0.4376975165340993,-0.3136637409619176
-0.05647131450771159,-0.48881903042548147,1.470505997929377,-0.08132009346210167
1.837653214410027,-0.3294079312235799,22.05250900129651,-0.7796675155683536
0.5363739729066226,0.1734164447061588,0.4544234091641539,-0.5012518432880568
1.363241783008387,0.5205463083964748,-0.948470688373323,-0.14490632474876708
3.94594833682435,0.12812840690005745,-0.15553906835618847,1.623806477844949
0.23704607321470306,-0.21710086131366768,-0.8160469772050745,-0.5596567691416627
0.13403579034400703,-0.3417643028648395,0.23656614212359606,-0.20094892242668538
0.8610924890157916,0.4531547497911237,1.2057327703396772,0.4264421580775215
-0.3031480521218307,-0.2046534441438892,1.1424170096002735,-0.7497496595479116
5.821115351847233,0.11324785163720752,-0.575786155572549,-0.3531870956956853
0.9423790815899933,-0.22940491533208884,0.2658165877852461,0.16546501939596747
0.6454715914481914,0.9046518798070151,0.5782800798541121,0.14095533048151299
2.5288322065631537,0.6635438982303545,-0.6128141912660019,0.2651131575259098
0.7329155256691189,-0.04042843441151078,-0.08488358924877615,-0.5858645469030275
2.5115083644366107,-0.2218712079106785,0.10027180558637738,-0.38496735063012877
0.3348821845444365,-0.5474087694868404,2.5491372016979597,-0.2306865498832399
-0.15004275325847494,1.268002235828833,1.3258205156569325,-0.46511451745020593
0.20309004749906157,-0.4249309124268854,0.01734882051602038,-0.6431385315860729
0.1629875207651199,7.369151864261534,1.028024954736491,2.11079943074973
0.13192581476598098,-0.760878929222779,0.18464374410900342,-0.3125766756182917
3.785526947360479,1.9611832222542773,0.6136161303696193,-0.42207196810963143
1.8142183805580734,-0.22666711184527244,-0.11297036145860984,0.37538535546010765
2.4628862197446586,-0.377765115033719,1.6689705639021315,-0.7157100721339594
0.8482941070122212,0.5679859452862233,-0.529972966965438,2.37751421392263
1.0523768848944637,0.052398010397806116,-0.7235240309720656,1.7353939013561153
0.7747365058909113,0.5798097240765252,0.5309724479534117,0.3696913299662399
4.046143151460348,-0.24510771653576924,-0.30688573778012296,-0.5252453535199009
-0.009108440940528317,-0.3973639133655914,2.1781081012869326,0.3339799845079594
1.2097255189707945,3.026148372114986,-0.2928664453299066,0.658982172347452
0.6038304101005785,-0.4361203884503483,2.346542530473485,1.0130919721251392
0.9930707558001595,0.10310017484784062,-0.6477673317082127,-0.0012460617291905063
0.04389133377913379,0.7495708019421199,1.3893345840129734,-0.4888773084620748
0.7463988930410992,-0.24235327462391176,-0.05124029985946166,0.42789729822351474
0.24665574054572703,0.40625585802881026,2.015687689575172,0.36190007521428535
0.4794737554257147,-0.5190164975992677,0.961236231227901,-0.15497759514903642
-0.11134270931414281,-0.25795315153251186,-0.0152007001925486,0.718670428729562
0.4853167470657602,-0.21445336076706623,-0.5387608934218758,0.11253550320358063
2.18112812274415,0.010096272237040571,1.003561788019685,-0.10555068300758286
0.939413659393628,-0.7435706247809453,-0.21453959334922645,14.986508956127897
1.410047816602384,-0.5606388726819642,-0.2179492173221197,-0.1713381863154949
0.8198116016267563,0.045330076149298515,-0.374632297224469,0.1509913727548109
0.35702543079897153,-0.7923296361717519,2.3055313130787543,-0.046345216225938124
0.3978459319900094,-0.6149159668178086,1.0114163040314872,-0.21217042572151723
0.5925182953389194,-0.30307878616103345,0.6237597740844489,0.31784988534273695
1.443282246046694,0.040185113750500046,1.3904810611999454,-0.8319298351388527
0.5627670965088525,-0.6403470372190422,2.345715153240553,0.8993884329022002
0.750801411039943,0.03434219217659762,-0.009236604868614107,-0.7084542656841395
0.3926704918896575,0.909603282755312,0.23707405890302913,-0.79234466466375
1.65443103426482,-0.4158235651710426,-0.2503695370793012,0.9377517995588218
1.675684920410303,-0.5256648255465042,-0.5913015296186965,0.2935560510396735
-0.44994873067523733,-0.6287632288997751,0.9831233821706646,0.036336094573809596
0.7471847138227035,-0.368454090840743,6.958078900776721,0.016948539152358277
1.2802404257339126,-0.5989620046383468,4.228483997841266,0.08633654889472897
2.2733200962027924,0.12074947727399188,0.18084296105455655,-0.06138529525237668
0.432281646282882,-0.22255261469092613,1.7820208750918187,-0.2863846927329231
0.8818554019160927,-0.2908702380493302,-0.24156825389604686,-0.2195889439041907
3.548227878238646,13.869616914287159,1.868758871931043,-0.2910579353665661
0.13257685541489517,0.5530089412957169,0.6788896318181088,0.6811423777157408
0.43151315155041026,-0.2840629671978513,-0.09714290485418242,0.04879592574678959
1.857688737029385,0.2831945472111348,3.827355781767851,-0.04791655824306906
1.9497105281263654,6.251714210552526,-0.5706599953565297,1.292155229892915
1.3634863137023525,0.685140085922654,0.7041839928730853,1.0984661805693023
1.4917139826145842,0.7661006125576115,-0.06955428406652198,0.893517855692427
0.8016590551821126,0.12160719731067515,4.727699717250861,-0.484677685134309
1.1746714236343112,0.5063005340174294,1.8558512418437934,-0.31830429518783854
0.7900527744528256,-0.7236378556258201,0.19179440453244978,0.08124998959227314
0.5330893678709241,-0.706725105145122,1.4166206701508184,-0.14684391549511233
-0.8121525595499807,-0.5097424724383488,-0.49493023970217154,-0.5843380743931272
0.5152459466656958,0.06083488130015091,2.285067519559932,-0.3216841419004317
1.9511491825705054,0.18069477594259165,-0.06259119628575271,-0.3966697550714309
2.057417215507353,-0.08751583644551975,1.6458699921961983,6.27530772542282
3.678580180735816,1.4701016199349848,1.9595913458386494,-0.08189123601869353
-0.17921637814945757,-0.21566082658631713,0.050812506003584,-0.1119940218099913
0.5356833143111701,0.15751128642254764,0.8455169816090562,-0.33087432253405946
0.7438671726147512,0.45607946407286537,0.06793042148724804,0.7031294730269111
0.44650792903263237,-0.04663390780855392,0.012450196120468604,0.36411198733989947
2.1677667095399284,-0.2536741913658279,1.5487308202140175,-0.17221995241762
3.054014087795913,-0.13809756496483083,0.24684812342469775,0.530959426815788
-0.39607688320889634,-0.9307254179223916,-0.47676104095224414,0.15066537283338044
1.338984045494251,0.028335672106630128,1.325126023826511,-0.6235486755158536
1.6635498755702933,0.7172145403618013,1.0995988705271822,3.1726602480037016
1.466031182985728,-0.11273074113816839,1.0327341445196048,0.10967705745361744
1.8560195585090966,-0.5667114979769899,1.944383827155788,-0.5015853860689048
0.6901872490072196,1.7670167557968464,-0.5584683707619091,-0.4234974328223311
2.212556920855875,0.06626753612093639,-0.046222616355670154,-0.4431939113037946
-0.03607004565794081,0.3029010733643449,-0.5323113931481598,1.1421745983238054
3.4641556669959623,-0.7313759358861067,-0.51300439632643,-0.3460148889524932
0.1730509181521851,0.11482969336688775,-0.17395516469253913,-0.34375155774662935
0.19362129064521372,1.5747341167572002,0.323913779895179,0.31734884802099717
0.8031802706875764,0.30867231085973934,-0.095958115528745,-0.38311619277867115
0.6594990055399255,-0.03137252321215411,-0.327268351289166,-0.4141748217980058
0.8270632464749963,-0.3674418803922984,1.3780257439109462,-0.6061908848006909
3.6514945354293564,0.3911763754857023,1.4182589977557782,-0.3002439351321081
1.0886372350832079,-0.8080617911071487,-0.11145717124536458,-0.547906322410176
0.03744358216707511,0.17594888158337163,0.3123389888973387,0.18639992521227167
1.229762021941311,0.4741921679629397,0.3321679122179466,0.2860110901642203
1.2497841966377687,0.7466277081521517,0.8148540159148558,1.4878801269586948
0.7956371949877481,1.0762346695079676,-0.8815199495195118,-0.5816536339634248
0.15737392863542854,-0.0059800154354247015,0.5743065403557284,-0.28607750155545
2.445315072439555,0.01880225139900249,-0.2689145146182955,0.3223833390801927
1.7086168126140753,2.610316549351437,-0.4498187337591719,-0.5371272624288103
1.0274526639428228,-0.11273990217907393,0.09026081327810465,1.325956463219712
0.45597206405350277,-0.15928331078107172,3.0276638258410866,5.65910745861559
-0.14350416678426747,0.06198480143258034,0.10724792241063708,-0.45429982742718156
-0.10467141747647313,-0.5575480042124844,-0.15485344676706103,-0.060021838791273874
0.774793379177015,-0.12819793338535335,0.007009190811848809,0.21715435051296184
1.1442715586537573,-0.5951128092323794,1.0580839232489154,7.273547471023548
1.2668361230417622,-0.07822489822964707,1.805546904638009,0.5006395695933294
5.563524913645825,0.4019662343680326,-0.3592003752978711,-0.034255559112597256
4.267915000260207,-0.19079290254339254,-0.09269655865332616,0.15683660099861396
1.4563014537947585,7.498315468472443,0.20789215356925683,-0.32084110436710767
0.789236710324533,1.401692363444322,-0.0027301063041960116,-0.3066464201404733
3.119758256787674,0.021428692605167,1.933116416091484,0.5454360451647526
1.4480262641775088,1.682336969403532,0.9633740605828731,0.22794336012623573
-0.03896038386114031,-0.15861452500310358,0.05262769070822371,-0.23462026723608387
0.8134294596785505,0.10529304839541576,-0.6549253313993337,-0.5189183850429359
0.29836847047823234,-0.05818960740728241,-0.43235148433641635,0.9577085022885485
1.1757010217920376,-0.17424662057153284,0.06956623827505348,-0.7802991132774896
0.532007674508604,-0.16276376216999966,-0.317651206453201,-0.15638104406564346
0.22794640497556773,-0.06384619509963563,2.63413478490183,-0.21101360282124926
0.1931827373209718,-0.44966020226676207,0.2232726761429793,0.38922220492488946
0.47019216232061267,-0.2297429242131147,-0.16251258934377455,0.8148093405642836
0.4380867984339476,-0.5216533745847541,4.426498711787592,0.6298922080353739
1.1879634035231046,0.25603398710696923,0.8323328864660051,0.20734857482702362
1.5607719053342297,-0.34471107729148287,-0.17554943404274181,0.01913623906580475
0.86324988641889,-0.12477998909445276,-0.2623337114658293,-0.2644511895669771
2.937158092203816,-0.014263919740781783,0.8091951477657595,0.17299421232109413
1.3459928556801057,-0.2833185948878819,-0.25806528783179816,-0.23121200232676076
0.12177463757692863,-0.360143388189353,1.073970880532483,3.0453184750287274
3.6146596609177575,-0.8713452246793719,-0.5302187234124984,0.5972460189895268
0.48836750737521273,-0.370157881854405,-0.39453639170834576,-0.19735670475984168
1.169083842671562,-0.6161585810280581,2.4125687256223154,0.9033366285620053
0.23724763234258428,-0.7869972467174999,0.48675036912104974,-0.24009272184969033
1.4516669546521026,-0.06822908899364544,0.7192731864494262,1.9845324038824388
0.7066939679507298,-0.6629294049786942,-0.3843212937190831,0.6571266966707392
0.0070802103395477545,-0.44688101591881557,-0.24200494638564196,-0.5208477776398763
3.611630535794948,-0.8081143986254278,0.029215931895524738,-0.32378662350603804
0.9278928677126761,0.8812001916512515,0.23036391500042375,0.22508280630844446
0.31827126619946733,0.10259566729976433,0.23546507707700326,0.9963348703409522
0.4870094677521952,0.3672594122358921,-0.16966123340785777,0.23342323926405784
2.368518065396902,6.231313600130138,0.6175430834070275,-0.35251472514713666
0.22875094420849718,-0.5453305979844689,-0.38352587480031675,-0.346462962032937
0.6625083988100595,0.08991463706462688,0.4646411887125059,-0.060640955323902124
-0.021645576648954057,0.9655323565781044,0.3716398275317223,-0.14246833967667882
1.0594255563023371,-0.4099051154614497,-0.5791762379212111,0.13953443542310118
1.8119008614991188,-0.08321619867107521,5.143802821059162,0.796883202188438
0.33489515700518413,-0.713716147159151,2.1541627399219023,0.7812356679212957
0.6755249123255926,-0.8318750736293382,-0.2887539522345961,0.023974066411853068
2.8575973923502604,-0.9741302140574947,0.5331318729691616,0.23015112971208618
1.1871789150102674,3.3632520795265215,1.58827801572779,-0.32313957444875374
0.19511866353525398,-0.3436943602241789,-0.2841732873155616,-0.5804485179434145
-0.0693420974717438,-0.26080925587870385,0.9018852021054171,1.3613042596378087
0.8283291825340169,-0.6109572591922521,-0.11737927268293158,-0.652282352224463
0.38640281045225255,-0.7400640584599318,-0.1867490405637945,1.0604882952634762
4.91708511533101,-0.6438410510422159,0.697017600559025,-0.2025465800807944
0.8528085291083631,0.6229171979975743,0.5031006813174046,0.4415915396043517
5.242463094273757,0.27492840176526645,1.6192729888602226,-0.3249314414955762
1.205024906312893,0.7831604776846259,6.12124979674645,-0.24403911644508391
2.419036608485919,0.858692748866976,0.35858117350218865,0.22769542377207697
0.678915516492588,-0.23365409445199747,0.5415451421201034,0.9620442080200573
1.689559640515479,-0.5551631615990481,2.1469249945966755,-0.05300015403198999
-0.33352405154086406,2.250201015650075,-0.29576349384842016,-0.4352622651038258
0.4378763995281745,0.3674410743016361,3.6894769091556014,2.661914575614094
0.5457361312061992,-0.05450582326469822,0.4904201421364369,-0.1920425169634794
0.23790650168936955,0.31211493251974654,-0.4770564271748028,-0.47157558008850664
1.9394529713884507,0.48414828127342613,0.9728069234551546,-0.11003781165554394
-0.41517757341947015,0.2860315316606563,0.7082151246677,0.0957080307719127
6.427497930071077,-0.2564177860088924,1.8377321971338318,1.5532076374425672
1.754584134286917,-0.44666277725798653,0.8943177012072885,0.11938118738115855
0.4279168568044649,27.73163378179543,1.0407696295864088,0.20447662907507058
1.160660151834529,-0.2782094743131506,-0.44223529329022215,0.23376088871681433
0.2626487930717054,0.42975943231048985,0.13840795258925342,1.436804913305917
-0.046523770472981396,-0.23656934163762322,-0.3137745259210344,0.16122305933041936
0.4349413087414966,0.3136936864837816,0.5886941477844938,0.11028634472835508
1.131424100071385,0.47360412007618935,4.014329949764964,-0.33187290791559154
6.4486755076023226,-0.43391996515880893,0.171412648901633,0.07422758991894596
0.34418606589112133,-0.5431371646511902,-0.15266996206455574,-0.6143371712925549
0.5293091426414784,-0.21136408091084502,0.022013378291128705,-0.14623821333901665
0.6398374601811334,0.11182875066904452,1.1513146812076847,-0.5232089426536278
0.9159357556626395,-0.19838160632055046,0.5250965928593805,-0.009378176638777491
2.8272243334672917,-0.011698422641483908,-0.45664300004829217,0.45543247438919043
1.343947233499343,0.05473228286325038,0.09503423605709438,0.23646790837612564
0.5655752419478122,-0.25220698922626095,-0.28803485654426153,1.5608394551449019
0.3311096586777811,-0.6929215030670532,0.715720336968924,-0.3479394926261804
1.8959591882758633,0.4829105638484732,-0.4263665272196717,0.3662630376799685
2.6834747795810263,-0.6842448407942121,-0.02661148948149561,0.9631966810737194
0.16062933438874372,-0.570568630206181,1.2010185101743858,2.755396726438474
2.003466037545101,-0.29580801800204315,0.9517212004700002,-0.775876456307161
4.711941853912174,-0.5943997690138259,-0.8515244870322675,-0.8147594524716383
0.41825819598186476,-0.7221863923492122,-0.34770292460716534,-0.21034808235900482
0.31609036758155384,-0.31196445728587596,0.6097864209047716,0.10597033901387021
3.024913151668734,-0.3278941445947616,0.15139519614375918,0.04517511335194091
-0.24671360081143678,-0.45830351967969796,1.319184350667555,0.20470644171061236
-0.30504846484413983,-0.37493541414143117,0.7145037063877162,0.7648230038573605
0.8466949077130739,-0.9045262034534886,-0.41242291721526714,1.7947269137911066
-0.10520801000200264,-0.5138063344830341,-0.06267722344053284,-0.32734528300127774
0.7320981078090603,-0.05252469160871276,-0.20135057240705034,-0.7752901701718471
-0.13647152847077437,-0.03251235074283221,0.1989322432531455,-0.35467709628188926
0.3081369247111194,-0.35794131968621257,-0.06998164426332065,-0.11022886574054802
0.2272137008415116,-0.1085582558588406,2.8720584347212132,3.629587258761841
0.5010165173089307,0.46084714091040224,0.16302532871672626,-0.2668653785956193
4.29510434336682,-0.3016549878778686,0.6420715456975723,0.526497853213387
0.019925933154419706,-0.3583331781433863,-0.32822175021314615,0.06339724902265953
1.5062227328841793,0.24832995216424747,-0.032231426235583505,-0.36450043219662276
1.980947488842431,-0.1001023067566914,-0.06973726173275263,-0.4755062793823541
-0.22721327904771893,0.24148201961616933,0.5211164420415095,-0.4118327289042888
0.4121570878977172,-0.5074657766237782,0.15808198785839833,-0.7953946764591712
0.5243150402140972,0.001755773778337577,-0.8422843510803452,2.668571506792133
0.7540955715773061,0.2793188669515405,-0.35568539356674767,0.18994758696109115
0.10502073350600405,0.3151652442254427,1.7506712682478756,0.18117271237610244
5.235062773389326,0.063090386660134,-0.04800145826097668,-0.24491069051278536
1.3993935185170105,-0.4439555069523462,7.330643521536942,-0.608318620051119
0.4361057328474136,-0.04079211797265114,1.8465013928254885,0.2176022263295423
-0.541856258275986,-0.779849899770801,-0.5546321169098445,-0.3551939188885619
-0.6858146175222815,0.6030173566298167,-0.3972793494446478,0.1842671424832103
0.7315638339695103,-0.2776587347960032,-0.4899936552401706,0.5278350170350261
0.2956640662471637,-0.7693630679460345,0.16832519346101105,-0.16764907292495568
0.1449487877550979,0.048978680376216666,0.32725002093049493,-0.04325897307076343
0.8955314726757464,-0.09614734807462266,1.4637727920190717,-0.3627412258290994
0.1593329074463794,0.15551891754112512,0.1447686885829751,-0.34217374631369035
3.4061713505616034,-0.4468687163659175,0.16981448550635014,0.3655374625757062
1.8329394884424604,-0.24128774587243684,-0.21392440747068642,0.5536076312293927
1.57913482411216,0.22666715075008104,0.03667439059918487,-0.4165858313907581
0.6136127423999054,-0.0874229559614409,0.9544174896167237,0.9143433834202657
0.006357335093392313,0.44793761076076466,0.1292995610424097,0.20679709226256837
0.33297043672875803,-0.4595904250674415,-0.45119451775481934,-0.6824833351245783
0.6518132404151828,0.3671035702408796,0.48780131271630767,1.1115467028056472
0.6624277310901112,0.2973825783695252,0.0810380486825728,-0.23657996404350856
0.6861086282609001,-0.27940415832977217,1.0561702161040594,-0.7206369669438832
0.14629100792321292,0.3226894516600243,1.2674783719501423,-0.053435457616396675
1.4096315447346224,-0.38675754856342504,1.298747893516933,-0.8885638921934343
1.88833975412006,0.05789186894256737,1.0641912467881842,3.327382126599699
0.04280870574538187,-0.2483145427222584,2.7336300530042177,0.7029656885478137
0.006611912522656249,1.2131150813307081,1.9658459489013418,0.5214159356196524
0.16875537386712924,-0.6955547072273163,-0.7329262704645538,-0.3317105591377755
-0.1389754793679976,-0.4277682797147725,0.3095901978385516,0.2210618597873959
5.11151686990008,-0.8369638520717156,2.308548048356296,-0.20269198968145208
0.3237197430701191,0.13032641506792575,-0.6716156515705536,-0.11565399644346974
0.5959975137214264,-0.4922865061090643,1.4511338234736093,-0.39115138307690966
1.1145127293698773,-0.37755958417388547,-0.17174127363081304,0.8700835495478414
0.47815768430483097,-0.8743270887587047,-0.14654000227602237,-0.6000639893436782
1.851207966797098,3.7210107733953297,-0.7239324668092849,-0.038147259008197154
0.9318515783487444,-0.6252864127708555,0.6944881594695962,0.6330640025942313
0.6427043154974623,0.07415987595172924,0.07104248553329384,-0.4988154315246831
0.876885013470605,0.398727349302225,-0.06358429925580544,0.3601633009333096
1.0058714831488351,0.1431568965580341,-0.12806659805532516,0.766732862794614
1.0981173597242848,0.2179200864803259,-0.7175246436401234,0.1974453668629268
0.35628534534383016,-0.6416799144415128,0.09194337826684307,-0.8926075319678002
0.7032113981988521,-0.4137496869058076,0.6437599707481667,0.304946559646859
0.38471581793861165,-0.5037095770759757,-0.11265080745909573,-0.38422073323767936
1.4907483676466047,-0.6322645182177773,0.052974192262039255,0.10816403696576149
0.7668637259193165,-0.39884117736052127,0.46438627279445743,-0.019122818277872766
1.056090927901721,-0.14182973476023697,0.6357440806483452,1.2640419565853342
0.9188697629347451,-0.11089846376072676,-0.2308855872932839,2.2552294872049554
3.24495717721312,-0.28968071494950687,0.11458057830177659,-0.1853989558497695
6.975929937267991,-0.5760177147355916,-0.45913800260006243,-0.5514667052359561
0.5637485776842031,-0.3849505507038211,-0.10514186714500262,0.8767797589104884
1.3953859765659873,0.005216717034162155,0.3776901898333611,1.8772929871123756
0.9024681098240415,-0.5181705628128368,-0.589730294876185,2.1585067094525323
1.2236249854947157,-0.328869373099107,1.450794380181705,1.187515048343438
3.0297671285212555,-0.4061217918333804,0.8757524877454315,0.9965434267675992
11.445266017630964,0.082917459594956,0.406125603314073,-0.11860896330444481
-0.7244272267507752,-0.40108195337428,0.6436299773049714,-0.12690736483859344
0.27411536701386363,-0.12062093413040975,0.06279129034853415,-0.3245126349087343
0.0696439199565897,-0.11126707634183208,1.3482538615783053,-0.18017575821972864
0.340468423365335,0.014276189814232065,0.76965379161319,1.4568784983103202
2.656186084838806,0.2206375666426783,0.9258848906433854,2.5304289083914617
1.065805960059698,11.04882515587438,-0.8354952988343125,0.4775858975442606
0.5381904069482015,-0.09985214246111584,0.3080870420063757,-0.4259543908806256
0.5875143245391778,0.8832497199945368,0.07910951224538887,-0.12424501633084428
1.2055994161238708,1.6200609120009117,0.7252080764256448,-0.7517974356391861
5.061461770930196,0.7269804622133234,-0.27011960690957293,0.969409168279435
0.49200863958813623,0.9123800258285215,0.9052159310290537,0.613698922651678
-0.13106269092156186,-0.39374826640687965,2.475912239803823,-0.6203873147948598
7.715207169373397,-0.46957261516338156,0.29335770425376206,-0.06346835405625839
1.1397404180406645,-0.7274255802330207,1.4206458124482588,0.7108484438415656
6.369018817620411,-0.5627388697725537,0.06581726407461286,1.236085015916501
0.14903957471619522,-0.701022508807233,-0.5805146589359741,-0.020389768419134424
0.3860281087838857,-0.7308204091771613,-0.7242301614995321,0.569322882165483
1.0600851024702678,4.001112330074411,0.7958610615958541,-0.020515182628372597
6.446137463340921,-0.3578505129270174,-0.25241356698908457,0.4107276983777779
-0.2605577993371122,-0.46513859552446346,-0.30249583852247486,-0.3659121844850213
1.4663314537372503,-0.588374500119428,1.0265213093108438,-0.5867470783627677
6.698023209062318,-0.7058124960307749,1.7199561885788608,-0.055998151635954674
-0.00034042345513485284,-0.4176894876258668,0.08245985982862658,5.4466818028019395
1.5078247144974668,0.034829996940658914,-0.14065567036326498,-0.10609508489190578
0.3740014286981359,0.5599518962311247,-0.3794972656098494,-0.43684589418267805
0.7883246210860431,0.7896645976527601,-0.19913601774920242,-0.1099817512948924
0.17461864639229052,-0.5434575029036641,0.4941915994011159,-0.6170847135098557
8.200211112500217,-0.189710420621378,-0.4410301500978894,-0.3282893659804118
0.07286428366947573,-0.33706640276619915,-0.17265789984372937,-0.4139973151610157
0.5604747283369909,-0.7284560854689323,0.9087025862889602,1.6761179591759578
1.2455985948819812,0.37658729174251837,-0.21551815185298884,0.36526211875084846
0.5245825313121142,0.41671792867455903,-0.06278660836927208,0.5311594093184748
0.21035309885967957,-0.5179590192185238,0.5862431794662271,0.10597077849490533
1.0008727528226151,0.8330813586426942,2.797339234924228,0.8463483334762669
-0.2968599113503966,-0.1031084174832978,-0.06435256862521088,-0.24553667094992138
6.3662463773821685,-0.5193317852221915,2.961682156821682,-0.9125735811289845
-0.07814670827982417,0.5885011431587841,-0.3301671540265023,0.4188432518156162
1.0397680630543387,0.4551827553458787,0.6026339176270041,-0.8351363751663413
0.983833420938578,-0.23208215597273185,-0.883754830893544,0.5614462266888594
0.7308983877037749,0.41478703162842434,0.22969227687989502,0.4426772048857355
1.1716309888495253,1.786870152927719,-0.6467845947097732,-0.43690779705018457
2.6728437541972405,3.0223471938121262,1.1845062024378321,0.5038390797992667
0.32271303055319933,0.9259487688693568,-0.3931400407216312,1.5846976138776934
0.7503181876632934,-0.4893500759561106,0.5737680835652297,-0.4557952064487829
0.16431774191873116,-0.3753219193686641,-0.7146345900156328,1.1486255780448116
2.009006820989676,0.4504300144004594,0.38837628086202813,0.19975031620469696
-0.4158988063671144,-0.4348452613893119,-0.565512443196722,-0.36787786658907773
0.9758941138763402,-0.9132722160244703,-0.16813359061097033,2.350496733216217
0.6312591797271392,-0.2500417685556017,-0.6308416125546084,0.05942498592195089
1.5500635731143073,1.6706940478838832,-0.13407524984437746,0.22028795016937508
0.4342206368071231,-0.35243730573003085,0.16558980537780954,1.374347562624171
0.5795796827447188,0.6394889643038528,-0.16882679742556583,0.7088720194085425
1.0531502016724366,-0.05441123751956345,-0.6623480687954553,0.3870434679557704
3.5172851159735554,-0.6900514936331656,1.0444588794317489,0.7395655751845482
0.3940884170364025,0.01402115164429163,-0.2653892014439345,-0.22346633476665523
1.1177876744583277,-0.2132187372948,-0.12487030377469333,-0.30861962314617475
0.5061417398959218,-0.6787609359439175,1.2759038944640526,-0.0291398153815966
1.2872051691839,1.868431045810068,1.0010891157493362,-0.34703093387336015
0.7379010178613346,0.9583510200268663,1.6002238752376092,6.950786678957349
2.466117226607065,0.8205183186085936,0.05703503447814029,3.017070945651203
0.26072054216840934,-0.38283224060304444,0.49401669532483816,0.2573062908648802
0.4870163556228797,-0.3461854775089921,0.5625388929833246,0.7303286056981091
0.7102568937769909,-0.27782676893195357,1.4454206702079495,-0.6257579498752566
1.9563624464850173,-0.48507298268667043,-0.6463631985880522,-0.3129975395649752
1.0103414245103206,-0.5583902961297864,0.39496101158474173,-0.1680223922030445
0.16754518719670886,0.06656293489091025,0.5650858040606079,-0.2567566130792759
-0.26945537478961057,-0.27580173149404097,-0.19144263897777425,-0.14944639001036808
0.8262503005699882,-0.3039423865210563,-0.2632960074751698,-0.0933658033547956
0.48816963742474395,-0.7633609509902659,0.7350092645380844,0.7295228316555227
0.5492528117565021,-0.39877894552583226,-0.04655579541126054,0.020664595567001953
0.8749526274279917,-0.17314806663933446,-0.12161967250559225,0.720531133275246
0.48022976191523825,-0.447058853513406,0.5309748662630991,0.9570624183333187
0.343505482173333,-0.4824236170984063,-0.48242995113946274,0.6118530264262194
0.5952417207555665,-0.19509314810741574,-0.5306663334971615,-0.29292027632783924
7.697437997372955,0.5093695486507026,0.6916122300759913,-0.2405970910644103
1.245722873372888,1.9364230762747514,1.0715328451519608,-0.829546304581664
3.379004154921991,0.13422578390605433,-0.32859740725345343,0.03638077258850059
0.5350008717148034,-0.5584523221351173,-0.44599908910673647,25.02647589105563
-0.05932507466474768,-0.1031493890948354,0.3244732674734583,-0.7953517216469181
1.33175717678164,-0.5061109103718899,1.4526588979620438,0.16695183705374328
0.826403606728128,0.38280661794366444,-0.16804867358707398,1.7470110451085663
0.33266559186399425,0.7151323579090569,0.07921490708568468,-0.2531780961154829
1.70987513378536,-0.7074625627541331,0.24181431669865394,0.6867110798112337
0.7838202452803282,-0.23862988605720037,-0.7760464781118024,-0.17881845458575518
0.44818442830403327,0.6619468304633962,-0.02558602015341671,0.05174390367348902
0.26775873318078647,4.440900685833319,1.6751633965661972,-0.4509434737237831
0.13289174280727734,-0.4374493424744085,0.7769533289973389,1.1639541017772306
0.11942131890338015,-0.16567820845654313,0.1699858966154968,1.500914632438593
10.05252161662007,-0.658582838851907,2.38385106685704,0.72179040114648
0.24079252890399894,0.60335249323875,-0.2077160437807093,-0.009087367301038873
0.6486205945689634,0.4064958160490111,0.415651426698179,-0.65773602753901
1.5303571108500216,-0.9225914766499608,-0.6724176692415045,0.5237806322458056
0.1848302518345062,-0.2442161501580168,-0.2892388312491818,1.8489170510687991
0.7873510288569279,-0.41967583652572227,-0.35786492629056854,0.11716941372945788
1.2471280509593021,0.5099339783628376,0.9422793393819227,0.8775849593100198
0.6384400826964698,-0.2999192249062539,0.6361057195885533,0.8123802770003721
0.46264537674030026,3.4627916525892246,0.5919256769184387,-0.572672852016586
1.3624521310897864,-0.7733643743424276,0.8353219528163411,0.08872433676170055
0.5260983708147924,0.10795834425851702,1.0711752984797576,0.23631830471186976
0.23018511092317584,29.116770243474026,0.18718110999948556,4.5866333526346175
0.38949293562249143,-0.5440063219474502,-0.6387675952130927,0.12637590142118493
3.339702654618372,1.2520896942686277,-0.34332731463172983,1.3197447216471048
2.3475636865988663,0.6936126964930047,-0.5117306349164418,2.7529495036165357
3.3615570976023053,0.03390961833895001,1.0165245244513295,-0.5622340430471666
2.5256913937877017,0.5492229156838759,0.8998145671821478,0.3895333286076801
1.3276816887782017,-0.6367390512186222,1.1980172108938492,10.023543329993387
0.4040551688709295,-0.16332669861676274,0.4185574903344049,0.41849248544129125
0.849859993690691,0.4328838120611498,0.33173297170199434,0.35188604713022986
0.545043178364595,-0.5049730728454193,-0.5817789630665087,0.2249445596045625
2.3138031881346977,-0.31966711300053996,0.9805611234211322,-0.3882878275783255
1.3644963410053643,-0.5553912604601596,-0.6760218768457127,-0.6053506064404207
5.678539947102697,-0.046195252603493,0.32892145204287737,-0.25216363623757787
0.751626353070632,-0.456357051023525,1.9015544735399077,0.9565430799154744
1.627644982849214,1.5157592386236667,0.02527936706961209,0.18757687733836925
-0.022434539483176863,-0.4528459132984417,-0.2411134963625271,-0.6383636645511037
0.39203938507690617,-0.1278778876245622,0.7137654159084934,-0.4387061790134624
1.9827808840168557,-0.8078501541337502,-0.16392344060570818,-0.6255885668697212
0.7136351798638576,-0.4648049868105343,-0.25876271587272315,0.7019885943199666
0.12656337127156947,-0.36526529382232076,0.30987948606791593,-0.14995774225178504
-0.0422703677794346,0.05030916060387636,-0.5408306815389359,0.18381713576909764
1.6702523460532417,1.5414895255547134,4.805038917002387,0.7883271505536937
5.09937015344194,1.0001806339001647,-0.08614670744415265,-0.5835321451169342
1.5839033286436082,-0.3547260694616273,0.15574555423422232,-0.5970320679023756
0.7832835208338513,0.9049781575303297,1.2471110485471248,0.4805564378194933
0.19534467861864546,-0.16893245846844152,-0.14308666787377344,-0.14410931417708317
3.4746047632757513,-0.7451799172387961,0.29890818865161295,-0.6822049500372495
5.5542071461777045,0.38490436475139567,1.4559638016299492,-0.5230361066921555
-0.008495619833216894,0.48489987358871534,-0.5157508904803032,-0.37588365690688663
0.9576578296399263,0.4771845148030389,-0.08790047861492112,1.1820502921652092
1.5202386049212677,-0.2316321052833794,-0.33554184359063666,-0.34886828674857884
1.7105444116235833,-0.7970411525294194,0.21505502336068938,0.6340996390677911
2.3502220442885595,-0.6367831046550458,-0.594529370235634,-0.20204662889768799
0.18471131755398917,-0.6533033023038695,-0.3295444730785839,-0.2998463874552172
0.7119356491277158,1.1266177578134409,-0.8045242127532015,0.7275658890494618
0.15017109632118975,-0.11522157674566669,3.248751911710354,1.2619765061823807
0.4742999221450124,-0.43964448818175705,-0.1499548448410174,0.19986248750259206
0.14158619249720972,0.5675717991761313,5.765302132737195,-0.22859768647052325
0.019645822130565094,-0.5682371622244218,0.6226505654204015,-0.2788890444828459
0.2526278171567353,0.34614985677299615,0.9113390949165099,-0.15385721298079014
0.6185886831864589,-0.6256251832654594,1.1103264720809407,0.2132040564061648
0.8597751012967947,-0.23003167892845455,2.451276089291084,-0.2086837033455191
-0.5602139285727921,-0.22450276101681976,1.660121729116471,-0.07694229478790748
0.6521295728202903,1.9602204352394401,0.1635798876163983,1.4311623357799421
0.6829932641332237,-0.7388038136759472,0.5007474806443135,0.20343554921319362
1.3992223630761624,-0.7837816373842077,0.20087231197164335,0.6395797503660705
0.7393684937972953,-0.5698797236725226,0.9311889568158573,-0.6268762061869725
1.0724121862386675,-0.3023280963983037,-0.2095241604590261,-0.5833032171330489
0.9155912167541342,-0.4675219883306988,0.6907631725316434,1.9270551420997353
1.412969320298112,0.19366065805111576,0.8037409284768331,0.06614344571602815
1.0924030834921044,1.6021829283613855,-0.22308376414330466,0.3864889721338125
0.5884281519082624,-0.5508744281866877,0.6485843531361057,-0.896367640747537
5.226019716276873,-0.42499631463250387,-0.13151597951528982,2.6349552660045332
-0.15614093566034293,-0.5404820831565589,3.9462626103422194,-0.3460598030216787
1.6188149136647896,-0.6065824293003235,-0.24709016993995736,-0.23191065239017739
-0.034367950000171454,0.0758568612018411,1.4344633054941704,-0.22976691523473403
0.6442767015794233,1.6560121085785333,0.8717133726961519,0.0876012105011057
0.5273867926475955,0.17634603812805505,-0.01290908352601583,-0.7016018651525198
3.333899270709777,1.3822906823029952,-0.30537479822028457,-0.6235879946216909
0.010113275486612894,-0.5037148331979183,-0.4445902139260194,-0.5369222780920104
0.3981723986200987,0.836220143732775,0.716251688312987,0.5979000534249734
1.86380177707847,-0.2866750125646699,0.5259620515966952,0.39978264181195877
0.26625812856424647,-0.46024028140179396,0.18417126052646582,0.21083895892667348
1.5091450596173788,0.02550204938031264,0.2544837895963161,3.5610249798901847
0.6283793753235056,-0.05465920416560166,4.8626074439944045,1.096162050257996
0.005250124533213496,2.1925551032563417,-0.20973112260107096,0.4009086269388358
6.879713137731243,-0.14234537403702874,2.165710346153816,0.5648803313059045
2.393145996139432,-0.18071811278203864,3.4270746680239155,0.9323483121220812
1.9245900737928552,-0.4368148569029837,0.16613939045568582,-0.6276783612359303
3.005226735552606,-0.23948766286845768,1.103962073829297,23.946096832606028
1.5023172035475167,-0.11943899901766153,-0.1085156033735103,-0.20859922578380297
0.18934651537449243,-0.06908068291659486,0.9935214438336986,0.4301796235057327
0.3714936927018988,-0.3010074057658868,0.2903169422894618,1.690976361457189
0.6302725568580969,-0.5508386276424275,1.0603695238079913,-0.7087090008226251
0.013413059455491094,-0.15008356864948802,1.0578484251451128,2.133056651891543
0.6105147894481604,-0.747815264956907,0.634363982464643,2.056169546924003
4.70971715662521,0.4144815824913619,2.8861928381076094,0.9445849742769477
0.0051937674915418786,-0.5555397434749141,-0.687891464299405,-0.6905282029549462
0.2966886979890886,-0.33050482084054145,-0.919618074240117,0.37975249294849167
0.5580534573741474,-0.1264894671952117,0.2393993250453117,4.946995225047019
0.6735514910032911,-0.1442174730806175,-0.019454182324739833,-0.1731297491107332
0.31950428823190435,0.493805115524693,0.5820124096029364,0.14118768246616153
53.32496487790591,0.1899092332125365,-0.42750588426673564,0.6141086404639984
0.9859577387142362,0.23287377600597137,-0.015398400504570198,-0.3371375402527832
-0.18303720974751714,3.23891049853889,0.0944486633647994,-0.05232311615740404
-0.1907894353747206,0.375620749130104,0.02898085590155519,0.5448084968933513
1.5100534747789318,-0.01554019499205761,0.8895250045418179,-0.11280961612279838
0.07455853360089626,1.8549703381715212,-0.297518416382608,-0.6740221858802659
0.15202069783448202,-0.25630662973001483,-0.1658997176410698,-0.6336358519415892
0.9177553017268512,-0.32190315055001706,1.2693255495711955,-0.002564097947608368
1.1456145099604669,1.3840125171513282,0.8644764318197611,-0.3473653764113501
0.48852331417980044,-0.5706595742918007,2.111006354173079,1.0322885587654236
1.2009843369449795,-0.20774799598492832,0.5347966431304785,0.03525998809489561
0.681442185230748,-0.7421304340464341,0.8155152954391145,-0.6222049786317956
1.340980531814922,-0.27637044642958486,0.5240636801444509,0.4057550088673447
0.9173554977387195,0.6412998795406735,-0.7972539455769254,-0.0956280073069854
0.7386796732609644,-0.5664908299359994,0.8309436007726783,-0.5761513322847258
0.7859767468041632,0.3710293650625138,1.7003831038913964,0.6026073536152909
0.9341298123602679,-0.06557866940990409,0.18116119497631988,1.9971327510675296
11.499669194104404,1.165428930480087,6.109831734691021,-0.31069248130170535
0.9061366906262653,-0.8367839065474623,0.47898218788186386,1.5511908663762735
0.4332685166371468,-0.13442647755305914,1.4822009086077341,-0.15094860456158865
3.3703432461496163,0.05405505413647993,-0.19927365899054805,0.6402812503338302
1.5375422223416662,-0.7431963102514048,3.386414722607375,0.5376520069318431
-0.1595503352974933,-0.2894841390343308,0.6367005082758108,2.2756814112354697
0.48100349458504277,-0.6502085216823118,-0.07137776793821982,0.3862063851405726
-0.13191246493155806,-0.974373614526805,0.9689594252468205,0.2621724027965615
-0.08450746838654621,-0.024889844542553163,0.9026261514458664,0.1170144519502676
1.4061061862699948,-0.6079367417483188,2.426834975300701,0.3545159902392223
0.15479971803262504,-0.16086916561236086,0.2547655289539037,-0.0610131627816386
0.016101138429906348,-0.5338166261591979,0.5161549843138469,0.28999946168660284
2.8894936812514427,-0.4549268567574475,-0.6463676667190285,-0.051197762735738284
0.49112182537306426,0.6511027057020298,-0.5632647365809806,-0.08683219155091237
1.7712111388394747,-0.4277187015382592,-0.6910439809324936,1.2587300047968237
2.414114813802581,-0.8592460510049444,0.9636819039121993,3.563540766226753
0.40426617393963893,-0.7811001455491114,-0.7878939822610712,0.22581972908444636
1.6853079564869495,-0.53107158463121,1.0373327478276595,-0.0037736721060671607
3.0896756528590066,3.3484262814622223,0.27204314457458434,0.2809327841273439
0.6876077477361071,-0.5996502956395352,-0.7960667085534323,0.6274416308645152
0.41674864550022894,-0.5963428374973776,0.04439928921895642,0.6854127285353839
0.28919118832508284,-0.8575280369952971,-0.46383680395458293,-0.15782565817848326
0.9503826649179858,0.810448968094442,-0.19981539252286362,0.4686998736832304
0.40055309665430205,0.5954934631257982,1.9929552449619634,-0.44952377883019035
0.06230154887625816,1.2133366175811724,0.3259191479161152,0.8578898239286388
2.2179167252483363,3.14590932775846,-0.184947268015498,0.19376000887865774
0.6147227788811622,0.02227782303230108,0.5910167805203916,0.9023600671241165
0.763364633018927,-0.7582071800434498,1.5095363816905478,0.27585340461631325
0.2934120998790408,2.0603270100403703,0.8873020399873752,3.5536722682393203
1.9472604005103809,0.1711059665384158,0.08515378684083985,-0.10261671699851294
0.07468811017908861,-0.4180073320328962,-0.20244151340924044,-0.1452276781724411
0.901827055822793,-0.3653539050768321,-0.45333026565491197,-0.8439438015499067
0.44780076604869334,-0.2743848720414276,3.920844516667926,-0.005072362870749081
0.340654126263757,-0.8445320717069469,0.16138349825842568,-0.3413800454173924
1.5946629077458963,-0.6988802867752039,-0.315989650695064,0.7140710422663752
0.36082512889633556,-0.2770090445393475,0.44716543309209666,0.26030144006348976
0.792749314945058,-0.7954229570324883,-0.1871872696696515,-0.44859213529209896
1.1007263661842197,-0.31174665098117105,0.2907199452564262,0.10246154763827864
0.054120049963755745,-0.7172720316155077,-0.48164784593588295,0.017658731861357024
0.6991963481719992,-0.5559637347166662,0.05053094918568779,1.6333882343674695
1.0063905865771625,-0.5918643089269063,-0.2263630060679096,0.9214485963075489
2.108895212129581,0.6660489411667518,-0.7189836591480475,1.0740559183625673
3.498294138540026,-0.5306282458392463,2.31781958088206,0.08478706947396586
0.10880896559939313,-0.43468423189604843,0.14178595273267636,-0.27199831716767964
1.788012255094222,0.23019606580623342,-0.1971272029913691,0.6195756911064347
1.4690581263390867,0.25723470434684503,-0.66360458680893,-0.32986510099023303
0.23134425213518228,-0.2601349061642999,0.30396102064804387,-0.01923283931714459
0.5391058518709664,-0.9896424963358744,1.7422668122432294,-0.05871504093773594
0.4153774988381689,0.7687985617276034,0.8183893632639512,0.5448738960851642
0.09423255178672973,-0.20644017545608206,-0.26273775943175337,2.0491270400464696
1.327789032855763,0.30439586441007704,3.030596222808377,2.4187820752750433
2.416496008670362,-0.442602423387747,0.21672841916996566,-0.0509861899668953
1.1109571154604558,0.10022599930905596,2.310240403321558,0.21802800740179906
1.4153614291631746,-0.2854490004981586,1.4999947321905895,3.7647439696907075
1.310812930990394,0.7359406517254623,-0.4208000535912494,-0.5015069907345875
0.24843035718365747,-0.1949715872660992,1.9354345847824166,1.576404940671662
0.32337322114192824,-0.6011114703147448,1.2206619698153953,-0.555278631930663
0.5218494615292995,-0.22695185317115119,0.28922419471613914,0.3519670221598834
6.828597919272041,-0.1267690444679972,-0.2132125611369322,-0.36804110993444095
-0.5188219502894166,1.2963946740026162,5.820298151338509,0.23200112900303616
0.8122071987678474,3.725908302071022,0.1393625798867475,1.3363728263196561
0.5923871925579878,-0.23477514190361626,-0.8437100350501614,-0.15990145718471294
2.071898388084228,2.3369424203163316,16.650006065523957,-0.5891330162411581
-0.00500158716507193,-0.3452960375486087,-0.48637031418159504,5.384134244229367
1.240230327695353,-0.4660700793515886,1.1740178653703182,0.3572199186916123
0.7080308551211227,-0.6984345542285437,0.7775332614844583,0.31189368058418054
1.5640198080437782,-0.3435829444891567,-0.7647346931653234,0.34257908528241754
0.0412459285070097,-0.3173331487812815,1.8438208034681285,0.3564894411974653
17.452508005175076,0.06087043892166055,0.7430444411835466,-0.2085753975520308
0.3938416915724414,-0.49735303817272214,-0.04255814724956952,0.7889734979248131
1.2256069077882166,1.5928653343356474,3.8540577187587886,2.4668664698263143
0.6165010031202032,-0.15853235318051973,1.0518060387517116,-0.4460950470705367
0.4981001177567299,-0.4965458446630301,-0.022100759248568358,-0.791904540499027
2.428422426986116,-0.27462321968471526,0.1642828102053051,-0.15402301910693017
0.36042192251694627,-0.40809776329989866,-0.6388154317004013,-0.36519489961668916
-0.01731735188195005,-0.6180789484396676,0.017346760928647065,-0.4740923642187693
1.406371754674002,-0.08004924600802266,0.06427604992412306,1.0645371864381925
0.4512593319897462,-0.2807504944946728,1.9472336597582531,0.3522256354496309
0.5741733097686021,-0.462210487668392,0.24971875880140249,0.4766131969720637
0.3037675170282861,-0.4993206224265193,-0.5383157574310682,0.48192414430384156
3.5819843907771984,-0.4092989093740538,0.1651986716180267,-0.25819971801399655
0.9140918667212834,-0.11889596237710753,-0.35275544034065687,-0.09201209866877369
3.228980209708883,-0.7465453487729458,3.865842431782541,0.807330316644268
0.4387350565493189,1.1559137581245258,-0.5192628939574359,0.09907155104393017
1.427779318068144,0.0469624754934066,0.1503251985551215,1.826358092295071
0.295480723478033,1.4695289945356604,-0.22390249147287733,-0.30311522771722466
0.4029690234495904,-0.3406770034601514,0.934123554270766,-0.2560822293372217
0.9955695097431259,-0.9577969056039716,-0.17918209638479565,-0.19197957002653387
2.95557236533468,-0.5497189569060235,0.1852397680811717,1.0614874275590926
0.9124726592348613,0.07986745940090345,-0.606087608100967,-0.6611027621277721
1.0658655950969296,-0.3184267405840876,0.48556878798627157,0.4049456512759706
0.33120732295523414,-0.4400846335125814,0.38575184707712906,-0.3062850785742831
0.8781032245574376,0.46456728996676544,11.045058271922116,0.4406267204960306
0.589803719636198,0.4899015150206045,0.7425293882896247,0.06551072046202511
0.926347981437911,-0.6597094734719615,-0.5387809213075954,-0.09674101284001779
-0.3184172431451282,-0.07998186083668113,0.12895004563392298,0.06696223972458593
3.162288588358148,0.05689813393345644,1.1422406505189815,-0.17371282618929795
0.6321838233712807,-0.3950895537505936,0.8367501610940555,-0.4523012534304863
0.9029301815322179,0.36709284352842575,0.571304365957491,1.0380887246220158
1.417422775979798,-0.03071612616556052,1.545305522454739,0.2730698870405275
-0.03490356486873458,-0.16751389883743362,-0.4750299531355653,1.7797912282647195
0.3551490127671284,-0.2653627657906634,-0.19323524517148205,-0.6467600578276915
0.3853396013115358,-0.0015620012731332178,2.003264970621092,2.1356638390217575
0.011921573930403273,-0.4374987815339597,0.20834694760386663,0.3420006307422321
0.6671586327697294,-0.596235297693302,-0.38776227489932324,0.970070918200105
0.011030294999623047,-0.7504275598718697,0.8191171970735056,0.7433812817822252
0.12537671869903289,-0.36812339592853893,1.2654715558250436,0.47422263316597046
0.38577400600440703,-0.11830381461831951,-0.30598740322328766,-0.484543580248358
0.23552741145377265,-0.7692596926715539,0.31191562523249483,0.3647751125435017
0.6939926906194152,-0.37012450745768877,-0.2515968156747158,0.9445577798561158
-0.3729313583653011,-0.6296420756619043,0.031447262582667834,-0.24761282402555884
3.927634556206641,-0.2012900622343371,0.8633049677892559,5.956410727297723
0.3222466173377352,0.30070232509366,1.7529171789377562,0.47070888541476474
1.1163093124083754,0.8529625228175712,0.5144226724079006,1.8037182397686808
0.7030253891142,-0.5403303950513061,-0.2473846326749667,0.20569621449651554
0.11080154742474058,-0.37236676154429127,2.011506790587207,-0.16321651888535726
0.9302477545006729,-0.19704566697192805,-0.3838738899284212,0.008317425022398073
0.47244489399101175,-0.0797800549405947,0.11980628701095641,0.10001147232448737
1.196687155463899,-0.09590950434987489,4.921104449701253,0.22036195187763408
0.4608357652110726,-0.3019250642076782,-0.16452685103585307,-0.28982488289203245
3.586806772244694,3.3483055397300596,0.20740239814245398,-0.0003412840143119933
0.06544196684749037,-0.8050150557681687,-0.3415095692191171,2.3275717321507527
1.7877040644050477,-0.47369580002371225,0.03560084797028362,-0.07202349544483022
1.891548170947388,-0.4613125039933448,0.9528394084092953,-0.5862931279558492
3.2773623590364016,-0.7803346516882987,0.12488179053477166,-0.2444633037240299
-0.23047143042860851,0.0902838683911158,0.9351834800002039,-0.2493321544354572
-0.4155534756574123,-0.22848114125360564,2.5865876742538316,0.7418208677941895
1.7861932689662394,1.4876991903212193,1.6527142369415118,-0.05555590242303099
0.9366559614172281,0.5134201126586009,1.3770188480079484,-0.3131332497285546
4.400580321967054,-0.5988628293479741,-0.285241481230762,-0.2125546723359264
0.9542066702283476,1.5330525281180063,0.7935746228481757,0.06708693496276674
14.642086995724311,-0.529942924693311,2.153118210648798,-0.14239637235021319
0.6128832982221548,0.9603537082466025,0.8454890105928534,-0.6029082704032342
0.27815371525770494,-0.3662550726339475,-0.06683818940204367,-0.33339701600363014
0.5356327511129086,0.44232675328119586,2.63327168911949,2.2015858830683066
1.3511240469125352,-0.2749147990952663,3.8562157082242443,1.9073936539749003
1.0578471438468044,-0.71838977324257,2.5769889922222897,0.38122059710464073
0.4381170434660109,-0.35875579845684014,0.4844263946839513,-0.30444116301398216
1.505039455381382,1.573664007511558,-0.3378889516239253,0.7009224591569947
-0.6584393623868052,-0.5718236399919256,0.5677501520018531,-0.16337981267155244
1.0915008814452336,0.6518780927767249,0.1941676719351959,0.8002064233343251
0.9429485066681325,-0.2934478506646959,3.8653532545220814,2.056448654570259
1.0788290988938956,-0.29828901852763523,-0.2331796331993935,-0.3856803238707698
1.4724629829885147,-0.2764421131492162,0.2845382574414823,-0.10093151112539867
-0.04420908356972986,1.4472845275953516,0.4070323971231411,-0.38344981879454787
0.27461713406615496,0.5942281992917218,2.724421226020977,0.0969526151659732
0.7471837256869542,0.3642220755651786,-0.6333598304107168,0.22119011713329217
0.17951686571590275,-0.03813213744306709,-0.027905249599878834,-0.08696123377617482
0.37036345747452004,0.013466925860745826,-0.11235615351481476,0.3125783347668347
41.54874631554045,-0.5801759118431523,1.0148342627895315,-0.10104547027147359
1.002936859330799,-0.06799176853189748,0.6718243978410314,-0.09979582131215348
0.3999036751083518,-0.07176183413206139,0.41605373512125543,1.4622822511532485
1.107698203146755,-0.7706940606795576,0.46492046726588265,1.1214053877520813
-0.8483783485711254,-0.49580936071934023,-0.9074295689132954,-0.18153571028455773
2.719761859464492,-0.07276752532910002,-0.7726285775685107,0.05752774674998551
0.6665844165354371,-0.4483105530068556,0.09917209032236673,-0.007456905658213331
1.8466569107073383,0.41847617247177493,0.7508863860675088,-0.23084279807774777
-0.06416071295647652,2.09866243407524,0.42187806258208593,-0.9492948065269995
0.8813495241990663,-0.651414890150765,-0.2836105790052943,1.4494855633776034
0.6472597773609239,-0.3525516420806102,1.69742196823817,-0.18621748865762588
0.3415076393811236,-0.682663170299731,0.8753514469192021,1.7299308040575436
1.0704424150521534,1.1339286461833695,0.14528382339667067,-0.2580079248693531
1.9306647724670922,0.24360824794886393,-0.48524705236652954,-0.24883441851797616
1.565345142687422,-0.9275139021198591,1.705321601855363,0.28984100433114013
1.3725597411341757,2.764560310326892,0.0042469433076568475,0.6268054572365127
0.44401745823251004,-0.5165464135010143,-0.6067148106740695,0.19705641317324485
1.4687776650517046,-0.34434382789457074,0.33022313839334205,0.33565189551317975
2.273053046144443,-0.2448260473397933,0.47627464932902974,0.5540856053105301
0.5713449466814033,-0.3197696540379884,0.579225385715725,-0.6867850372274054
0.8729124228062655,-0.41169794931032333,-0.7849671440780563,0.3618826260126504
1.0229360815616229,0.8690713307006261,9.957212301168644,-0.3536200561258114
0.03805568152492378,-0.10967283948905004,0.16152865758101242,-0.18257067790047998
0.9211909665165798,-0.03721325458446212,0.4039522870310883,-0.021625499770300483
-0.05909858690848857,-0.44181813278456605,-0.18065401458073904,0.3952187490606991
0.803732443561078,0.4840507382209691,-0.13037514924716231,0.2357665480230351
1.9034885331604263,-0.6668614262727541,-0.3735458500959834,1.3042793889636464
1.009585479084722,-0.6533241871577338,-0.12690151234698566,-0.17749962636308791
1.0299692772652764,9.279937454838414,1.8630683454413726,-0.35341914158943977
1.3046454715773534,-0.23914181173818017,16.893196563205137,-0.7604381671742346
0.37027358135396393,-0.20422766906273793,0.336146151782285,-0.04027027510064718
0.7755225063852345,-0.843850176753173,1.1347177773573653,0.6599823161052465
3.751507653207244,0.0161560811211392,6.267977564137192,0.05447460098810275
1.2027469452384092,-0.35881993792666234,-0.34050029230597256,-0.19461610814320895
1.2620860065254065,-0.1835727188622548,0.06722433739987221,0.37956416189343023
0.8340698824898534,-0.3048043309885171,-0.6122247058444645,-0.08493682032602567
0.9716699197515555,0.7889871169018259,-0.12334771002834766,6.450163637127671
0.7989834658815194,-0.21417099553964025,0.21651927903530832,0.38853800123319826
1.4594499531809477,-0.20436222546457394,-0.16042843794968298,-0.6875203209402132
0.6169098460909213,-0.5437979624130698,0.1381301883314645,-0.5987263179736072
0.033852031300911856,-0.12125666641305655,2.746156454678557,-0.5047112944204515
2.796144946643157,-0.11140225755707589,1.7647207894997328,1.6514119286636277
0.3723816624097669,-0.560845893256656,0.699942004319156,-0.748963195493237
1.267536949579938,1.9213506900794282,1.634802311105425,0.4649963556854202
-0.059609347902779275,0.1721250929117102,-0.10311222223662098,0.0029791680802353504
0.8904224112472967,2.092193329309995,-0.6723353864385413,-0.007548207037848753
1.8611775299864024,-0.9298018654236301,-0.2704611825624508,-0.3330936066196576
0.33016643204103246,-0.15844332312804832,-0.33250839975443525,-0.7142761773272304
2.0337889624668963,-0.6174688874521905,0.7590240529267192,0.25848046408489656
2.038235983757882,0.580347788863075,0.6960246649607302,-0.4232159302450509
0.374186285311052,-0.7172652674622769,0.185498103581746,-0.5387660380861186
3.0747131812633004,1.2935804261882695,3.922973813448089,-0.3042587856590314
1.1936487930536313,0.35738652656418246,0.048500735390720306,0.8629260959413432
0.948421751248625,-0.01544168415981717,-0.2490630342697877,-0.5764687935009934
0.9725480818863883,-0.6852216055616327,1.2495756241979814,-0.2229006203336611
0.4813944037637674,-0.21120673247068966,0.31430996013602,11.050902191053192
0.38201463475206054,2.7804150272707875,-0.03306810440221297,0.12466106382645958
-0.24427155163070247,0.16136591034238057,-0.23472754947187024,0.734569574334641
2.688433013759659,-0.34739053451158775,0.07668602230716126,0.4952563485812005
0.7377112496734648,-0.3060179849483303,0.1503371423582145,-0.49086301804057686
4.759583117746233,-0.13259265397094055,1.663308976353198,-0.6317621335842971
0.5938464852646554,-0.3068250656886996,0.060267007170987874,2.970178955494361
1.766986982881785,-0.3233706926299422,1.7237010579990328,0.01375764797997503
1.0256872077654702,-0.5558560261989238,0.041971834705873734,-0.362670029346693
1.0642856749614227,0.43088136028344426,-0.7876256839517536,-0.8490959020402974
2.2573243107486944,0.09467857554045467,0.14719591537152232,-0.029140872865857093
-0.026391440923177023,-0.2397847501718453,0.04020575207926069,0.7648598175177086
0.6113329732583419,-0.27802645115966074,1.0223263408509844,0.5281325464011466
1.2849257583253908,0.2270842215835711,1.5479380895058195,-0.39432898586032117
0.27548144235877636,0.009373239654902443,0.8927571040576934,-0.6963006218361749
1.0439685559669996,-0.9033964011033853,3.0095072559772724,1.7428087253943092
1.2183655801693627,0.36792653928074626,0.15025684616683033,-0.5341060194147895
0.23930314436247824,0.8423682823426553,1.4658064303548035,5.230775080220434
0.1503728480810569,1.1952299785175309,1.644756782125183,0.6059607829439315
1.4443467598987212,-0.6530388471098003,-0.09933438189151766,0.06557023810031604
0.38422858255071013,-0.5114473411159284,0.551185399238385,0.5982109683620751
0.9972954875035045,-0.09212561448244438,0.6351073926756197,0.46934905339073163
1.8796954404086939,-0.08738960098696702,-0.03551997332772594,0.05001593099858992
0.5929885166889877,-0.6726193828863729,0.32353560915452473,-0.0467289450391728
1.3302256346728152,-0.5393383410185548,0.6246511522220486,0.1346343822861109
3.269260866110928,-0.39699475034606935,-0.6022890152358231,0.2062764708564413
0.35271017615405587,-0.4075141703480779,0.5352416682082384,0.23495409096881703
0.3682911865115932,-0.7161228911623272,0.12636477277078306,0.7190789668718085
3.3560631562482097,-0.5726232651521483,1.7598871061926493,2.490343127677757
3.55664311333277,-0.6744992419353629,0.6099110856411949,1.7313284732761267
1.2047939401237069,-0.3721672479662774,0.8159930163348306,-0.6340273750917875
2.74195644405563,0.30190496950028844,0.41868457422561445,0.43442223861403906
1.2871588560419949,1.6376686803925598,2.8825464948135013,2.435485467480946
0.48955339227047245,-0.4565883069430424,0.07575550097095829,-0.3270860014998547
3.710955615834182,-0.17358178673749902,0.04470207483872324,0.7386190778966544
0.14266569120697836,-0.6996893518909958,0.6781900429220513,5.828747034205034
1.6087665208183397,-0.3430385418802575,1.337465090139034,-0.8741099740363304
1.0797600535245917,0.2273352718656978,-0.6709303732513303,0.29807534884684883
3.9266176321910846,-0.749272591791747,-0.08743135454553708,-0.41712830415547075
1.24827391853532,-0.679016891197909,-0.19852670449726695,-0.22036284964713881
0.6665514878095669,-0.15948224262033817,-0.40908001008966755,6.1191963101241305
0.2218818632227162,-0.07551825105109078,0.11009796854650733,1.7895376078426417
1.132888459669223,-0.49540626890528683,-0.4636638831583999,1.109719537654689
0.2738586074192131,0.2609944343519248,0.10531421235361171,1.8495175599332119
0.8623599748486104,0.07200988354938365,0.24727263641024821,-0.11077436722843936
0.4537705103749614,-0.45747620649072074,-0.07361536924925483,-0.31057997580674745
1.4785602939420648,-0.7726982377637094,-0.1400802418176208,0.5705739239819196
0.6608149290030767,-0.34170578080672176,1.0980800604305427,-0.2335099135221569
0.9064993543595807,-0.3903915106764515,1.3707303559823867,-0.2773868827824757
0.1980835084885666,-0.5729151288263444,1.4386614731387133,7.014811067856959
2.0175121633870643,-0.3756009920918273,-0.2940221559823637,0.19426517178100555
1.2990949382472445,-0.030115866253259793,0.05345338741969852,3.9875404043108933
-0.5583748712221459,-0.34868920531113445,0.5977833251510116,-0.8858453173141921
1.197313198292706,-0.09494942558597697,0.23750986766103432,-0.6683945393354512
0.6682348084355578,-0.15211251335224407,0.24961563266326214,-0.2418043138274083
-0.32908130635398203,-0.3679384954729823,-0.3320895743370367,1.9083932057240447
0.5495942589395013,-0.07856072736984221,0.049323766056589724,-0.18356360406044525
2.0313966781142976,5.865089246757016,0.3229547174954692,-0.008356538306130479
0.5036152341452751,0.08210203064782928,0.5461428278589602,0.9910773472874617
0.9206492572920373,0.5884050254532491,-0.27013829661518174,0.3567991316698349
0.28429600636040386,-0.25621462489965785,0.890353973664818,-0.6171662234345923
0.6887986885234827,-0.4815898648774447,-0.9267937802367714,1.773379791015337
1.260992781436582,-0.4735752847899476,0.13261327397977318,0.41597533119879593
0.784998760854962,-0.25816946820343223,1.9437119707881214,0.48715484542138987
1.0687202647198015,0.0240542593383386,0.7833116281679033,0.1940612787954803
1.206482419887735,0.10476952498628767,0.16880803286725032,-0.7073339173393052
1.2287950937709753,0.5115258365738113,3.436032889721605,3.3678078002748526
0.9173809531429502,3.408584008701804,0.5611988222635047,0.12535836589854354
0.37537251955853734,0.8258466088736187,0.18569894338517767,-0.4604412914842717
-0.07632160752817041,-0.49859799465514043,3.556110830226533,-0.17903169016892184
0.0731485528539837,0.467355219174892,0.3439003429703107,0.37941298387127276
1.473477897516525,-0.11420345829157863,0.3993844652800811,1.1165921484604722
0.530950434156648,0.13311167151058467,1.3422662663782865,0.5265297202244994
0.8016174758659345,-0.34954950617036895,-0.3287922194756844,-0.48789084301354013
0.3257510648443198,-0.27493565634561734,1.2993387712753468,1.8054856702158517
2.1350951351348235,0.42665472113076675,4.519683159282907,0.9568857046200929
0.0563609453748386,0.23808758838969268,1.1008765550200499,1.0667899606751718
0.5059047466355286,0.2734900879551394,0.6244534681983493,1.3901033007228891
0.2637160966607215,-0.3187552222426665,0.04064706688034758,-0.3788130620730288
0.6038654062049353,-0.8072284287553465,-0.1097030766378223,0.29285197839680865
-0.15037767602251473,-0.18947509605833268,-0.6027156257340855,0.0075372406237366185
0.5758175060373465,-0.5841507576886122,9.900033644782551,-0.06597424793292095
0.6651018510093429,-0.4667312958750447,0.04625431565826421,4.4250734438598345
0.6610264117855411,-0.5647595560499827,0.5684975592234898,5.332768168039484
1.282184961226338,-0.630689479263191,0.789811264964899,0.8804611896758245
0.24494856598585413,-0.5946895909577827,0.4447003331960919,0.6456996588496047
2.5327946066909854,-0.41051108381401924,0.3844379389669068,0.6019892765059198
0.7231927078060401,-0.4846918790658711,0.421835467415109,0.18012374417088473
0.7870803755848965,-0.2979208179064804,3.805254833722975,1.3678982684481102
2.058897641695425,1.5497301097748135,0.12481209223788126,-0.08780759822682127
0.8802115656362661,-0.25237491398412204,0.18156406966636052,-0.3315188556891523
1.0418165227655685,0.04662360452869363,-0.006129110201344989,0.8023149080354155
2.4867456883843055,-0.4227377820974748,0.24491482281642574,0.3906102704028578
0.4370908383822927,0.48352871677509857,-0.6506666616433965,-0.5971304344766089
0.6296604787309152,-0.20196688628456771,-0.3444437216246833,4.86753901134408
0.41699043807414804,-0.17751722021423433,-0.5498818731655448,-0.755593846152123
0.41042388746351377,-0.1731186403229238,-0.6606100124224255,2.1359435974259022
1.4716620388310648,0.923788196389352,0.7424417691217817,1.6347840425301978
-0.034593900984274506,-0.49915444782355545,1.2273057087665817,0.2014546574887517
0.34841768513138227,-0.5153670387630827,2.4987663686927917,-0.698181394851495
0.6290045423767152,-0.22139167750751232,0.34006063354861604,17.390102649737287
2.1408330736093903,0.42882089732803874,4.629538510404727,-0.007311674034068294
2.1175209322130035,-0.5426321019349326,1.4285877096298183,0.40950973307347227
0.08918848739833596,-0.1835004450876948,-0.3705747269447036,-0.3541214968571216
0.3458477104895814,-0.9283385801788809,-0.7777997015507954,-0.011315120641352427
0.8018146610366332,0.030352419749807735,5.335015684212174,0.12866217374194133
3.5805535128236556,0.017597039493445932,-0.7887117902853383,3.968444228408769
0.8461731534327817,-0.4432719315135428,-0.1425478834952879,-0.6641929484315635
2.2581603973307525,-0.8673456456981736,-0.06110108961244276,0.4942221145796053
2.90021010279129,-0.4830562506747911,-0.543060264027349,0.12602975045093
0.6638987890958952,-0.3884139477776498,0.40267508130834084,0.22850897266319548
0.7564707140139091,-0.1664517603307628,1.0528779901667198,-0.28255212329993795
0.8546682910548995,-0.6111183250782488,15.065746830464825,0.1184850965099411
0.5519064521078858,1.4272734009372239,0.9087815903955334,0.2633757129816747
1.7495115934624392,4.03867224253165,0.4435141595974861,0.3578582795348004
0.4410101407646281,-0.31558597415264356,0.38354989480733037,0.09523184644359084
1.1295268512665113,-0.15632573043339038,0.721541853314315,0.8824556098923857
0.2678055359652951,1.6498749757701132,-0.041306889964300875,-0.028777528131322838
0.7046784605650864,-0.6192219224746844,0.8027828789098843,0.03166823473414926
3.567071277969034,-0.1798844586079934,-0.26281489888525156,1.5984555528086348
1.5944028286291596,-0.5511183198612433,1.2420462810386192,1.1290012192666832
-0.1648585674604589,0.09708497933476123,0.3571694918938193,1.1765332722004094
0.40656522359714553,-0.40354215713610075,-0.35758006903944206,-0.5769012993343534
0.4762438625928036,-0.4763677944190524,-0.3506536298374956,0.3320931113797503
0.4260377810735174,-0.5639973355392258,-0.8679463310993492,-0.08264758334594224
0.7399420127246472,0.30137435084833686,0.5063379308521492,-0.1164996582772666
0.009555697033714727,-0.08531790057080224,1.4568835602472978,1.5845305429065855
0.9605434636614041,1.0210452549588704,1.00157736171752,0.4381723974569611
0.484561304186625,-0.204807835583385,0.24097636573888082,-0.11654909630115584
2.5529206174321257,0.4388240394534917,2.6812779097304547,0.47228631645412755
2.8780504459993472,0.7893271779507802,6.303354858143086,0.7168519820696426
0.46541396130390056,-0.3051812185476156,0.8898816968872441,0.5562694791499598
0.6282350930026823,0.7394198472402602,0.14641140319656576,-0.6782635598784791
-0.3461279861404132,-0.8044259909879756,4.684876668841021,1.4313035590154848
4.342784576022697,-0.6239094893568975,-0.24016006358720465,-0.11439712558872472
1.1718059115303459,-0.590984006302161,-0.7285994312862394,1.0026425518153785
0.6098602981622703,-0.38068206206731703,1.1450545973609731,0.09633878816405228
5.984478828576292,0.2483232887459006,1.246250838429416,10.34985163984368
-0.06756276845194409,-0.01798925624049741,-0.6899667338836346,-0.8998298799599634
0.1444515161831621,-0.30819734182688996,0.7926667683022295,-0.6738016370261004
0.38918661371611263,-0.24027154966662645,-0.5577164565750998,-0.20328078901599134
0.22533618242064812,-0.3578530553934284,0.5817894716446945,0.6114165388992849
0.5704899361392355,-0.44517692087446903,0.7071892767581327,-0.044143062374423
-0.005785305201712276,1.2574631023136447,-0.07919114294708363,-0.41674443940383143
1.4604678611931186,-0.3676658716895702,0.9836296030990113,-0.813001374103898
0.38726018378215055,-0.027110685962123515,0.19757369492835308,0.6220937571900627
17.200072675937115,-0.5956867934385436,1.8366127549389528,3.761186973701264
0.015499635219376362,-0.018687328246434487,1.6010498762226923,4.1772286165386845
2.5144138387024038,-0.1620828136586866,-0.5060909268545524,3.3475176163598803
