x1,x2,x3,x4
1.7045970106525674,-0.4402228931064158,-0.1023945652497843,2.119149146449593
0.8985438612724277,-0.16118239797190526,0.6944787372277661,-0.16292187440286343
0.40759157314363104,-0.6138840399090668,-0.15695568109358649,0.2900895267861452
8.199183559573726,-0.7965221012227648,-0.765918465430298,1.6240470018012987
1.3058705553929872,0.23969634841704002,0.9324530985956496,7.821438881508962
8.918712293368754,-0.05005385027613285,-0.4891339085407965,-0.2876815649068194
0.2896817904346092,-0.3939142058507842,0.03021322070780874,0.09088991334681107
0.6731282569063359,-0.4732582555439677,-0.6267691994712656,0.8396454343566551
2.2375785155819385,-0.8449640746866558,-0.08681234259599846,-0.06272172559043021
3.8837894450773245,-0.27358665066344756,-0.26738883415147197,0.07054911983827528
4.664796294602199,-0.7926822303177651,1.7334201181573707,0.09732443699835036
1.1042839753209575,-0.7678737379367991,-0.36112613996929255,0.8372848279079979
0.43388616103033484,-0.8520345436583576,1.3402966394011129,-0.12640475334272228
2.0749037549426173,0.4975198579263296,-0.7807898993216801,0.28945059696267217
3.0462629789587554,-0.10581040028177502,1.1345343840076723,0.118792007538705
1.18790464799529,-0.570338153512145,1.8995861081597862,-0.08022077317087006
5.520363969056834,-0.5107406594726808,-0.23431462723584684,9.970787544667786
0.9938374887129815,-0.4758012148067492,0.6697277229933636,-0.23908364595684706
10.172309147904562,-0.22550972354588827,1.0608510974367338,-0.10625962757509166
2.308638517768973,0.0749936024874549,1.2373824171402723,1.4019615810621056
5.1197194222706575,-0.6637568467640473,1.9902125573971645,0.4256635890206988
1.1135980293468526,1.3002716857498275,-0.08838986544321115,-0.4839470684493251
0.3554625896369996,0.08452927401774346,-0.13522114610669833,-0.25738191896691154
3.38161275867422,-0.40804078228307594,-0.6872627280697564,-0.2548841379009015
4.963034907281575,-0.2853019900315351,-0.0825408275010805,-0.43207894904112276
2.389056816920286,0.46236089659048063,-0.009204122798036396,-0.46056711155550945
0.642412213026595,2.086207891322638,3.1881645480098344,0.13707807361653512
2.150505397103866,-0.6733944660646155,-0.7460412164810164,-0.33751112988422827
1.1167209748351903,-0.6159898715177502,-0.08708211614807182,0.08766343086410333
1.4863014487033857,-0.32299930627186424,3.0294544741289506,-0.06152203911759846
0.39925090142456954,-0.3488439663652916,0.06746998260966786,-0.26080045018780884
0.9344348055022547,-0.3710904570670932,-0.8930175436867166,0.1312483538844711
3.9116333534949455,-0.5388141246036646,0.19675815171933286,0.3342505738768551
1.2851387864207662,-0.690208661423101,0.5712139857667589,-0.7016974329921538
3.498001425099451,-0.6660989709685079,-0.8048414739912436,-0.07584973155053398
1.5398971859747426,-0.9210559835016334,0.9903489576127429,0.0049392034857485
0.21407507510156476,-0.7746056263198904,-0.4591028264574254,-0.6198872042890403
0.8752065785751071,-0.17309311968814012,-0.34264138116725595,0.2445462364125175
1.6269334208040034,-0.6453704227353825,7.160711658823784,0.7406591500853823
0.055609864924375696,-0.4938403530034299,1.205138474029393,1.5209661955018259
1.9252028864867792,0.014687025036891121,0.22408926179773658,-0.4837642189713215
1.4408750605740823,0.7627945538972465,0.5747944952730353,-0.29187833540990094
0.975297103133737,-0.2885435134774378,2.3211094431431434,-0.48971661390636034
1.315171607352812,-0.4320177006398994,-0.19797090976071818,-0.5760252616019645
4.892194040093421,0.19307745540574395,1.5636954761394648,0.23503636033913833
0.18001042116794452,-0.8452710419547524,0.975510878241886,0.980047889220842
0.5323222201622488,-0.29022451424109974,9.618508415358137,-0.4851814226283728
1.3280271765960556,-0.9058654561086409,9.342913134788605,-0.283399915767628
1.6092109219737565,0.2771936474202241,0.8204749781309946,0.38128506411072083
2.2894454664529484,1.0405144280529464,2.4121095725538826,-0.477336988891911
2.0773795667345993,-0.4686154638004839,-0.39729524324330345,0.04615549936019514
2.3666716001822494,-0.4192842743046741,0.34973863305357655,0.5324831202253646
2.6383051750017854,-0.32052758320659036,-0.3421575833417454,-0.16219851647955208
2.9056757358082512,-0.6641385747249775,0.37050150838740303,-0.029356880251695583
2.072710462506534,-0.1885469017969167,-0.015002035033891747,-0.5493996934943655
1.645538750954322,-0.8741740510364718,-0.1959281209314302,1.0822000805878917
2.421665338501134,-0.4006563362921757,-0.10274327338822387,-0.6638011364503535
16.037140752517175,0.7357195998159134,1.427234567030172,-0.2870476366497756
0.7489887143295906,-0.5312014100895754,5.615957705775913,-0.17890704901578092
2.9494811625506157,0.14895007383827408,-0.20263734859260585,-0.650942297525122
1.0610486140239415,-0.20425527512541053,0.7306776410629607,-0.46504214894236784
4.122768908157568,-0.5443679649791333,1.884788410470573,4.1139592690989
1.6098568432578837,-0.5859928505047121,1.039579348985633,-0.12131094996791958
3.3096249170598417,-0.05073858079021387,1.9899062640360063,-0.06970053461473336
3.814188256427097,-0.6027549511268095,0.9932110854195464,-0.2684672921412522
3.2365528959626895,-0.12960345194586542,-0.23307730649191105,-0.6883486353017976
3.6246544770204467,-0.4969488322829244,1.4575986113379056,2.045579991912696
2.0226019950154095,0.3560660771721256,1.6488189236350088,0.4934246354860734
1.5724078935198667,-0.28606983521063456,0.29129505265081534,0.10192851842847994
2.0702375408446114,-0.17592819714252506,-0.18431922213756535,-0.36172547606572136
9.672664589445414,-0.6336743950166103,1.594313563342229,0.17235363662409542
1.1896649954817868,-0.517260213428305,0.23743219477059085,0.240489897002103
1.2428877599009551,-0.6090830923106497,0.8803145909028514,0.2799610089715636
1.5791496800595102,-0.6161106994860421,-0.387849609677013,0.29277504581874925
1.546197926620759,-0.5254905616223158,0.6162317360285496,-0.6815677124342014
1.7084142483110334,0.3077098611828817,-0.16076712279540306,0.5477042476463982
0.25939559912597776,-0.3622629574857378,0.3498234263941884,2.98445894144388
16.276829734511182,-0.5398450070213028,-0.10850839316893446,0.22148936172475953
1.551973696419617,-0.41072423778079514,0.3836035010537091,-0.4220567743183189
1.365099719189144,2.613994350214651,-0.5581417943607289,-0.7462106106148602
2.289829139112893,-0.08966167828306326,2.009714269306814,0.4028015334812458
6.313480232695503,-0.8964578024962667,1.6446533558777277,1.9025639554263645
1.1787937119647856,-0.5911465976366,0.5838747934716684,0.2338887209172713
3.026004944907175,-0.40619081469236373,-0.6029834565037109,0.20837337851978943
4.48105941861305,-0.43120401946941134,0.029791908277184254,-0.41849255751472514
1.4483319915015556,-0.5150653861342268,7.860686492787162,0.17699662685163386
2.173128729851563,0.5713145607680088,-0.27530152446173173,-0.2921035779693123
28.533866800179304,-0.22445644259283748,0.07535816318701571,-0.1659886385976045
2.264082253543423,-0.07536597231408892,3.223673585954937,-0.2743903075310459
1.3386444196386185,-0.7659574830680734,-0.12762305134537033,2.0409767123073332
1.2830850743815416,-0.8836871373628162,0.3259256078069821,0.006779779625132987
1.533006110227511,-0.15579742277227615,0.8528801480070678,-0.6675703500780048
1.872236599719626,1.6673085765031992,0.6312724223981321,-0.31537947869706284
5.283962454710529,-0.5485364582559364,0.5917706274338403,-0.2751809942086557
8.811213680364522,-0.4164346703661693,0.6781113607380438,0.5093434245174133
1.1419228161858501,0.1891363894754221,2.859939394002533,-0.17643655702412553
7.938939411055278,-0.7479531195228599,-0.17929000895476777,1.462890008112458
7.269247254155621,-0.38417778845475126,0.026776120227087086,0.9242522774321866
4.429597160593003,-0.6035264175704252,-0.06130441854680668,1.435340228710439
14.379155641041784,-0.19580414255908474,-0.020373600611621967,1.4513390396598034
2.3048954480544346,-0.6056395169301709,0.6079194175184437,-0.5413396999576917
2.9223655812661407,-0.39762087742565966,1.7659365699610983,-0.19254736727673494
2.059189348423952,-0.4127419922812492,1.026359630322418,-0.4461974728548026
3.580555778755122,-0.4336607527331341,0.4949458382060232,0.6017165113816376
1.5484073669457072,-0.27527567440326073,-0.7867110961013888,0.1272256621818486
1.7222637266661334,-0.4814261084211302,-0.2619004359971938,-0.40226915431567833
1.3043798139263374,-0.6999507174994533,-0.04184204072909903,0.13814091641849235
2.9520224366962076,-0.7452541919944615,-0.22943560642384864,0.6181413980463843
1.009055002828624,-0.7251774900838124,-0.2619381734635038,0.07255793172193536
2.873179709915246,-0.5476137966605774,0.6680568928856465,0.11149052715267671
1.8560921593816597,0.4764213088297129,1.7698373683443438,2.4899405318818926
3.1361604283819666,-0.1666783794712552,-0.710207126091181,-0.5153993035350986
0.973581753731747,-0.0718451860013396,7.7627878026190515,0.472973274932607
1.0957392416875948,0.0189130915948319,0.6671775378641538,-0.8017621290573926
1.5055404589244827,-0.05795550485733825,-0.5470967534310911,-0.9039541803077882
1.191268840055777,-0.6089237242949443,1.3591430520287133,0.6231682952133231
0.9175944999985026,-0.21064974097932232,-0.875216068597145,-0.011721329502229594
0.7820827308095364,-0.7412728710955534,2.1237111405174445,-0.2595236651495768
1.7707185388532882,-0.22006339971124178,-0.10549965344891543,0.30254477817022574
2.96950277572374,-0.6364589782355435,1.1879927036862585,-0.8109923209974305
19.502082818330425,-0.48045207265481116,-0.055748192046613854,-0.24013644732703854
2.421968979948994,-0.22623861988981142,0.6575061795178729,0.729354779754326
1.4777456124079666,-0.7686248032533727,-0.1867651500522014,0.4934978480196468
1.5705418422792392,3.386118890584261,2.425563370861738,-0.3001984158761656
0.7811930524039379,-0.6781610156408867,2.134785920587344,0.7298901118947154
4.840735349521612,0.21779188407227967,2.72065772524657,4.311812990728713
0.6478433540371333,0.004612467439184975,1.0541376060554897,-0.2975467200276597
2.654077609529929,-0.5370270069243173,1.357628059338623,0.23095354985055572
14.489428099388844,3.6400170227860595,-0.09763939015243694,-0.5207699391408496
1.9647868098361045,0.27985949666198784,3.9943645024231147,-0.5687123272505178
2.672798641001251,-0.6088134876826599,3.1326308147703426,0.1476590213948641
1.4205458691473067,0.10217808387903382,-0.6809040014484269,-0.2816211368214513
3.480607634024162,-0.20070188785709808,1.2659046231168531,-0.09592128549288059
2.164563235582607,-0.17644739929285957,-0.30735029996734897,0.26104640777114296
0.2663688477796402,-0.6024606523854728,0.9148111761703639,0.8646063199848604
1.2061576577653912,-0.6689750463262732,-0.017443141444801857,-0.7369066227726924
5.10803488965326,0.6062164707174247,-0.24328477700259854,0.4859392888113021
1.26226866386338,-0.5159930363626138,-0.37943975199748414,0.3032297435466804
2.290863324253422,-0.2560392331968874,0.14788345062581554,3.15554544950466
1.3495647037292824,0.8178264445043326,-0.15824214403028536,0.060289694036311126
1.5238387765638968,0.9719743277574042,0.3114867468803273,0.4952147010828365
0.524801432078748,-0.7202236226647187,-0.05163877000604711,0.17488466217304022
1.0762934728062117,-0.5713332088396438,4.9126269215151135,-0.7310845995885767
0.028790272322380073,-0.07738954635442474,0.4479979792161015,0.061136182341248846
0.4205274939450385,-0.6561953379999217,0.09975874904241389,-0.5996924947832692
1.227407965872155,-0.6844863576770283,0.6268902382208552,0.5015022058457173
3.431923753030075,-0.4077095994482913,0.1416863695812931,-0.20163135329227388
2.0400611782228992,-0.29451125053813954,-0.10805182003589842,-0.5095427430333446
1.2076360651185798,-0.8990092774055449,1.099122965152295,-0.5687776621113401
3.6851379670721096,-0.5909218156175267,1.926882441426578,-0.5933354478955164
0.9373701347278751,-0.017906605958513677,0.7493168024253904,-0.5546180787439344
1.4928086307063815,-0.46295710180603133,0.970142255553093,-0.6627234484642852
2.2166407716235,-0.07586394493184123,0.23146223840990188,0.7172994342642445
4.158535697892833,-0.44968148422248766,0.12883289549691312,4.349995795978986
6.3192781466055035,0.4072710221313047,0.43835085310282396,3.2461058454136635
5.791380791114761,-0.4801451149997491,1.0269479524615948,0.4681452085244988
0.8937842003082006,-0.41930580755407065,4.712578895074787,0.5304135895376301
2.9525963363822,1.1126332126312346,0.855957778763617,0.40069815533247377
7.97715093621151,-0.36385976553973876,0.23190785864761487,-0.06037034139350639
1.1820049912850101,-0.7006169765352105,0.6671448847821764,0.23469166690926624
1.373896897111091,-0.6560836021241414,0.8950050006180974,0.18490599111742112
4.261356809462763,-0.5251087564629215,-0.004171778913691249,0.7187072876802951
0.9437106889509737,-0.671507099113846,0.6374950947904674,-0.2319445807287488
4.7714247665064695,-0.5476798490901569,0.42334654387559256,5.059978120415873
11.896810194566617,-0.44137489360872506,0.17581153010853856,0.051292103627543106
6.9284554670432685,-0.7465372526559324,0.6521359737997048,1.94933012729925
1.7719685616984049,-0.2597809167041346,0.38144377568331733,-0.21362695336127524
1.1422413023840674,-0.45698662011068536,1.5192651447485575,0.3780888622334191
3.1192154241649908,0.0021174730615503012,0.22524410976497888,-0.5834154167354252
1.4728937422642971,-0.08752100533749585,-0.054626066578070454,-0.7561645520209017
0.7438130064791977,-0.5831111586682202,-0.5536324656255716,0.9253815819163385
0.777446342748435,-0.4019281968412468,0.4855012352873269,5.284234967693935
1.2118840670810722,-0.45642724783427047,-0.1767131055518666,-0.4897438326706347
0.9658759486952677,-0.3469431742474596,0.8323487620626664,-0.2619720733268933
2.7639108838209094,0.3162838891723949,6.254160766431488,-0.8994899372092136
4.490218639804583,-0.4332124959442525,0.02183159804035273,-0.3022641621649167
1.797439967615881,2.4155477238170584,-0.1791484422496561,-0.2011075367707189
1.9477634145910399,-0.5294629635207624,0.42676647965485004,0.650621442019238
3.4433296443706523,-0.6766756728308191,-0.7512882737689905,0.8999964563189002
3.337446985425733,-0.4450577973601131,-0.03334181030028471,-0.037886439134830474
5.252007963380633,-0.9178103093666096,0.2237262969748206,-0.3843339593545849
1.3821821883150687,0.3591234631739215,0.1109807956886355,2.24908850244944
0.4277872082005165,0.62704886799023,2.706446282189998,0.48156369182964087
0.5904992336614836,-0.6973190942962584,0.9024569719073166,-0.11993054916493173
7.370672929646611,-0.7698706490317513,2.9250625607956096,-0.6039885557269388
1.078360736676525,-0.48355958042624414,-0.3952135732701414,0.34499366892341876
0.5762930462344129,0.09895444565757816,-0.021086103262637046,-0.5874103780517425
1.304245949095555,-0.19074328748828817,-0.42572240292425445,-0.7741637631888452
0.8650618782072808,-0.4203656275422416,-0.3950529756715696,-0.8186045690892827
1.5427858934339507,0.361130023625849,-0.5121564976499394,-0.841243611446792
2.4508653961037683,-0.3858121275830172,-0.6384279626221326,0.3148148262370518
0.7701865629219296,-0.6597534378646495,2.24587471897691,-0.04651688038704005
5.314563291031631,-0.689431890542554,3.284154967289579,-0.48039954973433907
28.25300629165579,-0.4973334880791487,-0.32260960305732567,-0.7941689532178521
-0.04982489477055918,-0.6980954014697197,-0.6519869305781318,-0.1828305026614907
2.9111102838807614,0.4172395736874508,0.6294210899407422,-0.6759986311929613
0.63465509878965,-0.7788007073252377,0.42259553561185004,-0.5307899871041248
3.2932118994617126,1.0321296398919957,6.425719132261053,-0.9319617763284792
1.5946651066223727,-0.4560072516073753,0.5762450177266523,1.5887486184772666
1.4847100739965837,-0.47478888271187214,1.622218785996922,0.17502708762948438
0.4177204436000379,-0.8646679614837154,1.8544594224167446,-0.21617316208855109
1.7612129597958042,1.1299634656357207,0.2099984498306411,-0.18905448381645895
1.453881036822123,-0.4769867882559198,0.8970239092203443,-0.5531457125041671
1.6361083881603031,-0.7569855824557845,0.9292061298475867,0.4730590473668457
2.139648067456658,-0.27751639992302113,-0.08444621731136859,-0.24144446141634068
0.9542369699463746,-0.6710110652785339,1.1400050639917998,0.7132177695739237
2.717799456075098,-0.33478105885179754,0.1891933069223246,0.211803421418155
0.7945842080199921,0.21012942908050758,0.5972068815210589,-0.6969281861213172
1.6269012819733812,-0.683014198297617,1.5139236633488418,-0.512511137372393
7.52119884107139,-0.8199756130108545,-0.7723267270036746,-0.7609084351229108
1.2832543426631915,-0.27665653203791385,-0.33406256199942774,-0.4388379894401345
0.4537222392048974,-0.4450348665538828,0.4842817431772033,-0.44622922858170044
1.231874394998513,-0.49424327897678444,5.516019980867064,2.151368161286768
5.412247928094966,-0.5478222555738133,-0.5476936568210065,-0.6419930376239444
12.71323990805274,-0.19685129768341958,0.7707410434986468,1.2138669469997305
2.546527734513542,-0.6744481385760275,0.24837854447571095,3.591412044519398
1.3873929473903286,-0.22423313827465363,0.605339635075804,5.239540050369708
1.5090359135861657,-0.5899217328607153,0.13905154421427923,-0.9824754114507456
0.7488605837275015,-0.36375741310886356,-0.398873188493986,0.055973236935247916
0.46884591689278077,-0.3471480542558497,0.384292604445331,0.7501634798885755
0.7114915448691848,0.5068120394344318,1.4704373407851978,-0.365649065335113
2.010731609798726,0.6863675745326319,-0.09611011291538052,0.8329856423440223
2.5639334121080286,-0.2632340582264714,0.6923674213321658,0.8006707254195766
1.8701074533868316,-0.6087341941573969,1.8502239253778172,-0.39053359864853676
2.154032295398239,-0.3077482511504529,-0.5004566381874407,1.9285549701936393
2.4621516225816182,-0.5986011219064213,-0.04072332906012455,-0.8352433918705705
2.255969722127515,-0.6229787494895516,0.5997502867708682,-0.45303468578107664
1.485609931751096,1.0015403009371995,-0.15772977471028726,0.49099381923802854
2.5203120008826647,-0.9481635891862065,-0.7922901577260012,-0.6370454269818968
0.48659899752152636,-0.5524658501514604,-0.21102165596499667,0.5702830336109264
0.7031144815449719,-0.8157671948675178,0.810724935038732,-0.3478548537642949
2.3863211277290777,-0.0024380374324375342,0.5362606242940311,-0.43660901882934455
0.4813530988674224,-0.551686444787278,1.3909007260752415,-0.5867544210006591
1.2307849143313847,-0.41996847545058424,0.4268347167892781,-0.8421615255170266
1.5626222687777784,-0.46795334805278366,0.39929644542275367,-0.027711660575973518
2.1354577689064977,-0.5878167685269388,1.7779986215192993,1.092691199165062
4.907821788226052,-0.7024011713096392,0.3807496130526553,-0.3286072304656582
1.9414604288350543,0.5575807081650619,-0.11230948723134193,-0.28845210068328453
2.6431098677502836,-0.16739942097064664,1.0959917197263906,-0.13648772204295923
5.491812636493127,-0.0717445307670771,0.4118351001333249,-0.301578051727625
3.5636538301340064,-0.6856690257694688,0.5698557452288642,0.2851766992617837
1.4716605394472904,-0.6567450447636183,-0.1298606898303709,-0.5399559558622337
1.9843045990679204,-0.8410218124961861,-0.14641546902341085,0.614389979020362
0.4828239730202659,-0.6576513219560642,0.664896305439802,-0.5758728014811574
1.3043898637461244,-0.6378445655764672,0.5975918661359163,-0.78156683289684
2.0657245076008817,0.025885642871397607,0.5810047886957799,-0.4509684249427909
0.046305690953282186,-0.5328846416873796,1.1114955371759532,0.06530431614329757
1.4229529700214316,-0.010127110609851053,2.584485963453027,0.2692543285696236
1.0824908126411246,-0.7936984333430522,0.6212189020542729,0.5036379511566285
0.8650409015425895,-0.016992434391430167,0.7841032797263203,0.09702364047154188
1.4229225057933221,-0.39968751042097417,-0.33284977300722807,-0.2714613904965095
0.38124060402145665,-0.6305530142509376,0.6700398505361111,0.7738053076667257
2.8003639014693813,-0.6094174872719805,4.001863295638223,0.45852313086598695
0.8771363096592613,-0.3463833229238674,2.3247399248056904,0.2658112367472827
3.065770488759516,-0.18653630477155447,0.4050538434155353,1.5449160358713536
1.1935026178223467,-0.10780185461584257,0.2663228136335589,-0.06714310976517501
1.5578514552309892,-0.8831573205522826,1.383354683722759,0.03439682001377209
2.9457816144919184,-0.7699828161229735,0.5851206123007331,-0.5605519572982662
8.049035862205292,-0.46439535858962644,-0.1682793017830856,-0.3133340545066188
0.43203595786579996,-0.4690502468837485,0.032456959199468116,-0.19531634312894686
1.5425657964124322,-0.5827569698372091,-0.3803464959448287,0.28620891442413376
2.9130420552309024,-0.3481517093106502,-0.49546491248444,-0.011060902282994278
1.0747112631518316,-0.8496131364566564,-0.3213197877026652,0.047104878985110066
4.475583575971177,-0.6524244060236994,1.0050932082254325,-0.16434436226578708
21.598866727092453,-0.21793702287084482,1.7201766936929679,0.2047345693979492
-0.0318089940153965,-0.1424311451654472,-0.28569773187452774,-0.17425343001127147
4.25853596536964,-0.6516904794333753,0.39468914751009043,-0.14218102170754732
4.307903790540781,-0.1294832249634028,0.3470200798343652,0.2913304907474439
0.2911318196236301,-0.7669388266558719,0.311489268088311,-0.2138578077496568
1.0289081475929232,-0.5971385962524565,0.42161140847795764,-0.24232630319591375
1.671140058265511,0.7004664078141949,0.5066976341580791,0.3742253715594126
3.7520356863688207,1.6683602186697595,1.4721858665064658,-0.5120170493885574
0.815785345750937,-0.6920307204983098,0.2700508902266916,2.6144213269684515
2.166679350492126,-0.49933377699444137,-0.43025050139584464,-0.03923963143575471
2.851612239584428,0.4128625860021309,0.06217797855212104,2.5258574446758257
2.599366154172581,-0.3607187868017764,0.9730813735761332,-0.4473281350275504
2.956029908604817,-0.6436028963882434,0.9745718399812109,-0.16630104015656
1.6506269435277354,-0.30983212270683935,-0.19534583844162567,0.32109270724544725
7.948464745689185,0.763498933904998,-0.3419175805296327,-0.16171544149364625
1.604577320494442,-0.44986228984341714,0.6785093197892551,4.4477998272605275
4.72455777503732,0.028242357754480585,-0.3270284668687634,0.28455960617925746
2.058326689191283,-0.23114882756311128,0.3643522020345844,3.3011282571431417
1.7897736709539473,-0.4741560969848837,0.8963890912449353,-0.014858026790584455
1.9672569403812425,-0.8552107027179108,0.061237516040582696,0.9180200026896594
1.3814447506734568,-0.898157632042091,-0.3610620400372152,-0.2631398267084013
7.051499846381395,0.3222301975503137,1.639247522243756,0.8901781594578302
1.7970202016868657,-0.7559299977686669,0.9318578035220433,1.3679603187097849
4.77116608904053,-0.6840146427284587,-0.1158585406168049,0.30107911829100154
9.447789894717308,0.6924840867994242,0.47937099773752423,0.533101580716913
3.6716847236074965,-0.8092286048335985,0.2016587033340158,0.31964637997484635
1.578746564015915,-0.18578023192471582,0.2839108428425996,-0.3839073493117481
2.9761113572682776,-0.2775230132707185,0.38348973850100054,0.7029763801318476
1.7087612323408994,-0.7844900973566917,0.2282512528409164,-0.31396713874025994
1.5206683508963206,-0.11726495915568635,0.07970322432189425,0.9241243828337535
1.4914296490534387,-0.9186622587845735,-0.007450200711944133,-0.7632641350221108
0.3429961088188147,-0.8457169890166992,0.6099479875814258,0.1350760777563762
6.088851539569531,-0.3216152248996649,2.5809112420034914,0.3127232095639789
10.77093512754049,0.5535337104691906,0.7409448877202456,0.3217269523809745
0.6703472229718237,-0.3560048786698291,0.9204111665639494,-0.5101390142775567
2.1724656238986726,-0.8042137207809189,1.7310903579694896,0.482198510875506
5.772811162589768,-0.06031011084157689,3.542386777669174,0.6970654693130716
-0.03619699702631729,-0.8964023239162152,2.320299965709744,-0.6259654539992798
2.7623113047223407,0.5551133291217223,0.5495311850911895,1.2278661788425667
5.028926747498506,-0.7929461856073665,1.7352877830235762,1.459652717330699
0.874043643014025,0.6475190714641588,0.2248323318458867,-0.1629253500394756
5.386319166186868,-0.10754949747862697,0.31646591997793116,-0.1090190811527989
3.2391631376177044,-0.7024230133432761,0.8284480404560515,0.18809172848547684
1.7744169386677417,-0.11904349065255437,1.4737330366240307,1.166362586216831
5.61409903572452,0.7284124053093006,0.3974667749654637,-0.71801330351361
0.9761947387325536,0.6127590608211146,-0.8334277319462815,-0.7581262889376145
2.504257129929919,-0.6316358293068547,3.321024592190997,-0.11758787283512695
9.083581599293982,-0.46860877388121835,0.012469522368801167,1.6569485634834629
2.410674779180199,0.5055004611041143,4.406128530268489,0.753052573409883
1.8089481905435782,-0.8519901663029592,0.9352581535075177,-0.3233079093161815
1.792528071740116,-0.7607482325460402,-0.06322769180326193,0.09993561123974892
9.964496229253216,-0.7604834495167503,-0.7652278586398519,0.05592859506957981
2.805854571614293,-0.6635435940798206,5.159051895294855,1.426325419461524
3.774143087740569,-0.09620594053632392,0.08620214286268735,0.6574392980945352
1.827483813608608,0.0551328130742168,0.8200358559046483,-0.5868670508072504
2.1824670728483704,-0.06975179221766614,0.806119609676242,-0.2736445954553094
2.930384747810835,-0.58881643031255,-0.10486496442903859,0.2739018822163197
429.1358844843911,0.19426883701601838,-0.7698630009133153,0.34508989949123015
3.144248945879962,0.5272289899280433,1.9598593256151262,-0.47184350550859444
4.821540412576938,-0.4852998718339335,0.30818911207116506,3.057586415645651
3.464504578158558,-0.7942070267006398,1.5742448665048876,1.2962906873387277
1.399026748390999,0.40734500116969063,0.7203462681543433,-0.046737591629229525
0.9600735180613096,-0.558315768452772,-0.34995188479160266,-0.46894034716500266
0.7236482226786456,-0.5869678052356699,-0.6676076065351647,-0.66057597520066
1.03759903112151,-0.1134314688168826,0.12689066254901893,-0.44780821711376717
1.0536248450215426,-0.2506952113658787,-0.24934462766336407,0.20543353792203733
1.2034865863182476,-0.3597614283039584,2.6884651199283223,-0.29131659238995056
3.857816364224613,-0.7319024867237025,1.175591941185436,1.8167759412036903
0.6102975169952007,-0.45393078887303584,-0.15754325903631627,0.8489364236606372
0.0776579946704612,0.44235585677907463,-0.5021652748715355,-0.13555620716642824
0.4182505313540681,-0.42026706386881196,0.21274618047768912,0.5545261187491937
4.861158760649287,-0.20602047338684237,2.08485155360426,-0.5814193922327164
1.790457920950221,0.8208474432141668,0.2693894464145876,0.7052572858685526
6.550652253668985,-0.5109535024575759,0.9269033241403184,-0.15498028141295817
1.8173271582689488,-0.5432242365807264,0.0636159026724814,-0.18252832656103624
1.5166839598495985,-0.022939369561762457,0.2289945349449245,6.025499713043183
0.5273818111325004,-0.6899954707631167,-0.12873340500449804,-0.13512497788995725
0.8132533126366166,-0.3135420468960106,1.4742750119276886,0.0507914673905856
1.375705600632977,-0.8672683449081067,-0.033679923612640494,-0.2341316918878702
1.4954251932012164,16.447618765510704,1.5448457507811466,0.8844306158688597
2.4079754432905878,0.036047024690133656,3.4483114569524007,-0.6456946496452393
1.1618502277923244,-0.6953565152407787,2.865759289328306,0.0774622681049022
1.5785178227582208,0.8682675808848515,0.22648420653093315,-0.06169201359184706
1.5016015717369724,-0.43601798701953165,1.2501246920652953,0.10747226308853186
0.5869711864369056,-0.2064726585101213,1.3151086940589365,-0.6482833588601215
1.6688172472069245,-0.26392725387714344,2.8406504539505684,-0.37930670234556707
2.4557189589046557,-0.7641107233236578,0.5395092005794264,0.605691540911901
1.529055736712455,-0.5364879049890329,0.021795163849904986,0.019547695468418835
1.1329931190742886,-0.6461840456138532,0.4102248105653339,-0.294418928374115
2.184699046316107,-0.4992785830527965,0.9775753049555567,0.06688201626900203
1.6803349670222167,-0.7877915470662975,0.7316473966881452,0.4575372261327606
2.022021798791398,-0.4557871704762918,1.669740540090829,2.2938304441194415
2.92767086533995,0.05978103676022051,2.481309081768762,-0.01563924507988934
1.6885272757299212,0.16824417002259984,1.368174494371488,-0.3612606822658204
1.4790538966366356,0.854268919871009,-0.33763806356470893,-0.2565336662357136
3.32985712737198,-0.47079043826801936,1.1965191814290992,0.13501894477516396
2.315230349863283,-0.39104558559846836,2.645469110967381,-0.4848038630644852
5.573775280598717,-0.23670833433879734,-0.7697851828957182,2.0706498202779633
1.7617757906554594,-0.731605234617535,0.31770643918323516,1.0039947224147765
0.3389251598347671,-0.7974203009558424,4.525605950527021,-0.19267760682270474
2.4144066977371033,0.18514900321671224,-0.07619028859232435,-0.566157248004268
5.282411069943097,-0.48829467963831275,0.06618734789425296,-0.20123120591651056
5.556336570694495,-0.28040291953997576,0.08389880111460646,-0.5061233183674128
4.295557675160955,0.6607248088112121,0.6900925333793668,1.4130801687255632
3.9178590109949,-0.5940913447720043,0.15694223974461385,0.06791850237683805
0.986110651071088,-0.06773996732003573,1.2830441279841112,-0.7946883203488194
1.1111456836670581,0.3568352464612987,0.16024962153353717,-0.2874974236676986
2.6174465122853343,-0.5998941734708306,3.468813011658545,-0.4140314395478202
2.320358135175034,0.24180582947221052,1.8108572910693295,-0.5614925478553436
2.781237189425761,-0.6623263889897636,-0.1477744137038438,1.6649867108776046
5.8341745074632065,-0.05993962865898206,0.3926119834261417,-0.12264165731956478
0.6518481803776763,-0.4799527002257047,-0.056402923938119076,-0.5255979494378966
4.544579427302353,0.11003003224957397,1.5947566351293778,-0.7497079081176867
2.5613634685039783,-0.4323170622060195,2.2446621265706157,-0.7123113226171662
1.159859453131375,-0.6523932410910134,0.11558831412955839,-0.7132087211842673
0.6706916953815449,0.13574809406330957,1.9854928751044443,0.20320229698685588
1.0623833313280522,-0.46039782768990956,0.24514842141251236,0.3976211811403767
3.42052051144773,1.015597742402215,-0.7666659963393778,0.4895665434041494
0.9963119781037895,0.7082873685894839,0.6525720385812739,0.7555669101780724
0.8353139619131142,-0.322224364539465,1.6936984503296904,0.11894650568605813
0.8625297377369361,-0.09704606532757565,0.6109586018046207,-0.33309397728458046
1.0766615490143576,-0.36531088537384426,-0.09766078933073818,-0.5417299133130786
0.4876887829451857,-0.5219781172404503,0.15816786649362857,-0.6509350223270556
3.0720571269053147,-0.5339773983155945,-0.23156596625362302,-0.5998404888538837
2.0482717830168102,0.23511194042837236,0.4754364001032405,-0.2563597769588062
5.560976634254644,-0.7016542980237759,0.3757459892861885,0.10161516047741159
4.6423465991363,1.1142536265344667,0.6102537582145564,-0.07291637447074917
1.186761864828763,-0.35281037695855144,0.023342121855296716,-0.3120659077538316
1.7720874366314012,-0.27211420730804825,1.153950925709418,-0.3608087084929116
1.3888720939653867,1.8601313475185957,2.134810560892859,4.066462178860175
1.4635791839107788,1.5094872451694799,0.36566162898838006,0.25500355282954357
10.811167124692703,-0.6674741054865099,0.7940284903397254,0.13134404994647975
4.006320046274751,0.49229715385888806,0.4618018809424689,3.839042653969673
0.9748273914809258,-0.15442123318811907,1.445944957984881,-0.4070872581669902
2.288015247881471,-0.43128435931125053,1.1543121223299386,-0.7934054807289243
5.56652633898484,-0.43543870693991427,0.09820307595220279,0.35406980826824275
1.4255627157403707,-0.27325990572456427,-0.08967326697788658,-0.46289283656585234
2.851619024747629,-0.741095249055751,-0.579388880077561,-0.7436593965941468
2.0279679210966277,1.4364550461310275,0.9752776572958444,-0.6682886155566141
5.786422097011503,-0.9157604909852064,-0.2675646970949557,-0.797323416942092
1.0168270414447842,-0.32204668484934595,0.08105937601784197,0.5286866347653192
12.2063861778593,-0.6067883821684259,0.19212309260196792,-0.40667972382380047
2.191333758549293,1.326453673197404,-0.20572626937350547,-0.5792642671198783
0.7008023120598565,-0.5885457505668088,0.11191424282669993,-0.42607465872027794
2.784600378390447,-0.7541650977455826,0.44316495028617897,-0.3527373710704542
1.299582312739195,-0.4065957325135745,0.36781977951514366,-0.6348488599851827
4.182467424909984,0.4482356506703198,-0.1263699914626023,-0.497154990209173
1.2719574721989888,0.19790861660341896,0.054722576274624624,-0.17201772063878584
2.1249968314008076,1.0239007736126515,2.5362159406457763,2.03037740157881
0.5690315667835348,-0.11588830003724471,-0.23165767026644757,-0.373307328483917
1.8086505133245918,1.4577080510010556,-0.8349747121836885,0.08915189059681428
2.4284285535263197,-0.5938728120733803,6.0947077747824006,11.382549561223458
0.501352147778094,-0.6336592981525135,-0.5320796577336557,-0.5342214824510536
1.6965174134331713,-0.7111591071998018,0.307456055841002,0.0720675947870053
2.3063405703173943,-0.4371562300490034,-0.2190298931134611,-0.5084579061393852
3.170855004417624,0.3104796549371407,1.1004158782471412,1.4710915662880537
0.9996532931230493,-0.6304415509829246,0.3737396994621076,-0.34001547495276463
1.7885482361009508,-0.25321813020570727,0.2924442912622338,-0.5041324427056819
0.4663763571011206,-0.6098901569774428,0.5394352239990974,0.01812864955433624
0.5869367670001804,-0.5377394589380899,-0.14426387586171263,7.620118356488165
1.3931553456957975,2.5145421329757403,0.6266139344664219,-0.11756723532232283
1.016900664772875,1.6029230823159994,2.61774635190001,-0.5773921109062508
6.974709781306937,0.15759450606777547,1.018146639632234,0.434783810680502
-0.120557564319003,-0.6833852483174291,5.52864022414701,0.2584596035794071
2.7859756908229665,-0.6519508832805687,-0.48672661781830306,-0.07398903930356515
7.0741628481183145,-0.3043363653958906,-0.14676983734031124,-0.3832645574949325
3.4728152984957728,-0.814036769739767,1.0143059515538368,2.4927016810016625
1.1948271032720426,-0.4249689633546707,-0.4111628796074268,-0.6856962309847869
4.184482382777772,0.33768376036312464,0.5637161998117866,-0.8042992766007757
2.7886343362920787,-0.33914445373447477,-0.18471974260016166,-0.6742400252376647
5.558061090280849,-0.45410184469027237,3.1646722775424845,-0.45312809557099043
2.3569703923940146,-0.6208319987481977,-0.11930583182449761,-0.38938250988695955
1.465939953809814,-0.414739954583236,0.28659013184581195,-0.1887562376918146
2.065666190623383,6.739621745422668,0.38638049527729,-0.06368617008715904
1.6767964962814084,-0.6752796586065921,0.5676101871793404,-0.3864088488771228
1.6445053047142948,-0.15361015235331188,2.801154809474831,-0.5451449223786704
0.9961247438412184,2.6349097904533907,1.2593973542730872,0.451366098734991
0.7416508081373288,-0.30202133507893225,5.775422653112972,0.0185367823199043
1.363286526835585,-0.1673534606177115,0.9200604578294607,-0.10648254557186354
0.7246302155907232,-0.23797329425243208,0.38843468462158315,-0.08471180724001881
2.2995101193955323,-0.5167732582243647,0.23536240710476153,-0.36195602196627596
3.840194874593636,-0.4172572670620872,0.8327017256719838,0.9862497626868718
0.9435932658834967,1.0991178468620793,1.4211644474431724,0.18282167975692443
3.9192555416243353,0.6626734725773042,0.6257583152081414,-0.3856388076130637
1.0482509778903788,-0.20711926303758588,-0.3446839236590531,-0.22270919620477336
1.7876773550195,0.9895996566472054,2.172281534995436,2.2532238615548197
5.464257086130086,-0.5880794061623029,-0.15514100544511522,-0.5001411282371635
1.0386946567695476,-0.7415628092397204,0.40170642702334525,-0.6509294018293387
45.58000525622256,0.22454037676445737,1.5903897867541192,0.3601936169096578
6.078969509408446,-0.474403440712599,-0.5516993095814375,-0.6589131550177505
6.1259245153216595,-0.5310281492923652,0.2236329452390331,9.400058282306714
0.6316445712451659,0.7209726923493254,2.6605869805191116,-0.44464016345427815
2.21307863039637,-0.5604464913113425,2.4622118099932715,0.06871720460234232
2.076041731395834,-0.2728625233454667,-0.470054585584775,-0.21652790006318356
2.95924020686704,-0.7540188184248588,0.09148147127669914,-0.17323934416112519
2.331953764857122,-0.3065287201794945,0.7582233153909392,5.777340544664686
2.5578270162723578,-0.2753394308089153,0.4743891831895659,0.5933205343871037
2.1706515809212723,2.8595430387590834,4.6577194893750775,0.5700162998438245
1.3140198288985623,-0.6723757795099894,-0.5618725678071655,-0.5126875185209169
0.004643404884832947,-0.7151976454280469,-0.26834223478182384,-0.2634198638370605
4.565537132272988,-0.27199245418498275,0.6502873007982117,2.4692374518025058
2.1771479993561074,-0.6898917652441303,0.9353990514251596,0.7407197904878737
0.9940344251514357,-0.7333172951021982,1.024550464328828,-0.28218166575485615
5.290164639759963,-0.49366358505086694,0.5513606793726551,-0.4321304046415335
1.552109042057189,-0.08832402107581949,-0.05573144579843514,0.39588926658832646
1.4117734049961381,-0.31666402870680643,0.7314029459833882,0.569308469435708
2.042346807920221,0.13389916462605678,0.27021414214751327,0.3042361753608396
0.7778605943914918,-0.7757395601651859,0.41392776305795254,-0.33808684713093673
5.032475596006438,0.6108469504796232,0.16081302822405275,-0.19123731399332666
3.62344729780121,-0.6965258296729615,0.33145129484285496,0.5264029401458217
16.052516109676223,-0.5542374781308981,0.3658786968004124,-0.29712992460111376
1.3899630824739426,-0.8025206079707574,-0.8331849697215347,2.1977584050118524
1.6444941391173065,-0.705864046356236,0.7327861488757739,-0.3077468408851428
1.7625047051263203,0.7960034826900348,-0.6565154371451691,-0.7255804660780332
4.574395879032781,-0.16584525735189004,0.3894040129573164,-0.20514767536373468
14.36037017426496,0.5648368946672477,-0.08898567399142865,-0.17810490310691995
0.5692421470864455,-0.27055301485895034,0.21927963090938185,4.0022427224896155
5.397117516837479,0.0010601698662824344,2.010221242562802,11.764534044724686
3.3517820669467824,0.1391158678173774,0.37385838355610757,0.45747701441762856
1.6863934052993383,0.5417188499599723,0.4658407434229248,-0.8125323282181884
2.7283585642491763,0.6851644233094039,2.3351961594476913,-0.18498740058160446
0.9155642344485808,-0.3626646758085317,-0.5472153977007668,-0.775747890273893
0.5304239681489213,-0.4357152250561751,1.3270000003020268,0.8255263076751533
1.0725782337141627,-0.43228875350157614,-0.04079761415615679,1.6807768865928252
6.4307750529781105,-0.7258788391552526,0.5823470063670313,-0.6835005710365757
3.0789445852288093,0.8454894673078672,1.5920248969203863,-0.7337394468164153
1.02470993592862,-0.42772204708256145,-0.3585951958127169,-0.09494669900669228
3.3408126374889076,-0.2065746161773825,-0.7496871215453584,-0.09875462742012098
0.3035642092948434,0.19470511078325203,1.1429340187900348,0.07994625268984468
2.019690649165442,-0.6351010391160625,1.9625994667509374,0.3676123906135351
0.7622618698418571,-0.5926497356490172,0.6036134462559326,0.00493161728593261
3.0736603354533436,-0.535326353005865,1.1563433419785571,0.3640871109919215
3.571979822336604,-0.3420657919222031,0.9516012978160842,0.7094976025162916
1.1952807953462736,1.2806075644730415,0.3433427212149849,-0.15367902687357637
0.6230478687455185,-0.4475881600051569,1.1851025311051342,-0.5222886558219655
0.2121543800557102,-0.8750412639693987,2.1193240318933175,-0.8058222459895439
4.144808106581563,-0.4431295144294426,0.5586326793314902,0.4312581785728937
1.9716820936925146,0.8551057324564644,1.649883741451183,-0.1996154747429868
3.478184499886991,-0.9149785876875008,0.5485966062380436,0.5547970995122535
1.1517546914281134,-0.7633810130024092,-0.22027712847256453,-0.4426540231962086
1.28195539501854,-0.6936087518866791,0.9796497240753939,-0.4743329470763842
6.870583131022969,-0.692751218046554,0.7290169218723079,-0.7153389521342559
2.249315165023333,-0.028814848337752497,0.4016580984344029,0.3522279335546996
4.21049966972283,0.7270936895830515,1.8102319182647424,0.37536527268900044
4.8777600146780955,1.6625879610424938,0.3526603618596298,0.054614226538949096
1.943916704534498,-0.6781298188188416,1.645462336278254,0.24843573079661496
1.325497848415552,-0.04010291878269712,-0.7542902570042472,0.6603338269765568
1.2031879590223378,-0.4216027299068855,0.3184594970728516,-0.2728150016954538
2.6421202776400965,-0.937789830268977,5.175524705574916,0.06231308159593274
2.6455864390031265,-0.4889808869651382,0.23241820022719328,-0.3824600921187772
2.7652467399196863,5.1870931019399,-0.3434298853772768,0.6220690956797341
5.459557692990003,-0.8985236589513554,1.6862547608493403,-0.8116224029085226
22.44517443187883,0.052304040786345984,0.6094694993657717,-0.6136805284196432
0.2729725419898088,-0.47854429619733685,2.637229914394099,-0.09423760740854681
2.7081102595455646,0.11149506974114431,0.048171204739719586,-0.054481078578133335
1.8672695160939963,-0.8513559390554513,-0.5180705288416316,-0.6151289939759775
9.689878345062734,-0.8295832858861755,1.747417432689295,-0.3593664386113494
0.7756505505199769,0.5948311490025411,0.7162281871466407,0.005929355207460407
0.8818400678504033,-0.615903619221801,3.774044975609323,-0.17739915679968088
4.108060692435332,1.2176630183034898,1.7200478966353927,-0.33116581433672987
2.08923674262012,0.2452940533500101,2.163914441435212,-0.3986483747365842
0.195527658307582,-0.5757020835571038,0.07848685351075835,-0.42020932191607796
0.4522465513318368,-0.4297930452115055,-0.371720981493457,-0.7267919635258212
0.8313730303801063,-0.5677788698870071,12.615704540171222,4.335175769185035
0.9709681013061362,-0.6502715635058203,1.4458536636544514,-0.6188061768469486
1.0792030444616332,0.4840625773445426,9.4017588185508,-0.17692547225688937
1.8628471400292486,-0.7348308544232289,1.4985063777403398,-0.34143219526552626
4.171363711801925,0.36939044364854046,0.777820705659007,-0.457227248347463
2.890612779913841,-0.548757102823219,1.0095731496924816,-0.006559148847597118
0.39207205205968276,-0.6917356535061457,-0.06690220443137607,-0.20221882154147974
1.8009275873397925,0.2958402684215995,-0.6229618064002238,0.6650497077821722
15.090499307405217,-0.06360780146504097,-0.16910153668811223,0.2227972368291231
1.8306192568594155,-0.2732202133659687,1.1415474281246225,0.06424771332981805
1.9012383806424507,-0.3265890235140366,1.3727619174690884,0.26043966551228537
38.661221962186374,-0.8554800071200266,3.0097171721060114,1.4269052979667984
3.332173100723711,-0.7257680731211498,0.4056722067756102,-0.35159409557523824
9.779412436307151,0.1827906870503302,1.623656951956554,1.0118139272612638
3.338696451866425,-0.5071054816941176,-0.3091116512615324,-0.257277048999913
4.0565967688641384,-0.23375033072756546,0.043236472639201384,0.1388047419917453
34.22236322331625,1.1603835678585757,-0.5188587272149876,1.9332949354115394
1.1363111773935697,-0.5794488466008484,-0.3216997062865641,0.5937216501240346
2.3877649380837846,-0.031914337103764456,2.478680052419847,-0.8981944373440659
1.9422489410792343,0.3592123056644767,-0.06265083215834844,0.03091467839715878
2.1909103683777436,-0.8213820572234259,-0.687954885005831,0.5301486794997872
1.313180162003266,0.9394490775197006,0.27467777627852863,-0.4788318573585345
0.6104476099860057,-0.12209134405924282,0.2676439679610323,3.2763856724117684
0.6667420690611958,-0.5384161185428545,0.5676819777059474,0.32859255250800135
1.9393686369874108,1.0724227044090613,6.235243969380681,0.9881151698601298
1.1193094821084966,-0.5014132747163196,-0.49941126558127313,-0.02969834086204204
1.7338382903955027,1.00247852508135,0.9146030906399363,-0.1276823882397432
1.2886530814714159,-0.374197745833572,0.7756742926616322,-0.2940892533720322
2.6006625919136734,-0.1970946607207501,0.8242233685915032,-0.2613396255758581
3.683001981551052,0.7606596451469163,0.1973558065707568,-0.35702616528377784
1.2338807549059352,-0.42266959764760115,-0.29442683553478444,1.4586056549727622
1.505339251913548,-0.7463496900745767,0.14309326156900992,-0.6951891898968021
1.1481792643446425,-0.2707056263126085,-0.40908750296507135,-0.5401079479281532
1.5522674948587571,0.43999159419627887,0.3125917504638698,-0.27453037296765037
5.495695056279879,-0.08573830211020639,-0.030938898838585915,-0.7446704065791488
0.863425845007926,-0.4916328046913686,-0.10437397937968118,-0.06473614835890107
1.4066083594064063,-0.7276889793596106,-0.2591235546957936,0.1546559047803322
0.157653220897797,-0.7766671541785167,1.7221257157088203,-0.05454222176384471
7.995511382754337,-0.4373265813719116,-0.18311047390388913,-0.786437968374931
3.4572406441658963,0.8177237836319062,0.041677100585642,1.3151871454873767
1.2602139259448322,-0.9045805470944741,0.02033637621879647,-0.6298555054851425
0.4916519061398059,0.5696050768037109,1.3669959507100344,0.4475118813088823
1.7601080265274556,-0.25780488519243194,-0.4414419459002864,-0.44821899126155196
1.3035030746131757,-0.7311221980797054,0.10175884466903251,-0.3835758091006052
1.153572011867955,-0.015857935663439515,0.2876668199761059,-0.16059368279394837
0.6040818801374817,-0.055546138912591414,-0.5022168311020192,-0.3665870182477834
1.558011135576307,0.5744041298724554,2.647459719318942,1.843777515460728
0.9654465444389935,0.029473644523298814,1.0849577177907328,-0.5267740882014487
1.5335352432527687,1.6000060682511004,14.003358487176463,1.9782868771196807
1.4224084027387405,1.357290345517999,-0.08456756108259456,2.101290596601689
2.7354358983555707,-0.508034540858581,0.12315874903353574,-0.47703227988420593
0.9697222772437066,-0.44341291536259564,8.270269678178707,0.27505519624520125
1.9197315493698364,-0.7313323700569528,1.5907176647487034,-0.30397465710500005
47.11518630669018,0.16444547303546297,1.0393564436902794,-0.6213060956678704
1.2857529883909828,0.23642021606089125,2.609869724029825,2.7408647423023864
8.137342816914394,-0.8265848121139281,2.999581592776792,-0.5388767112769477
18.269709673122293,-0.6599564846552586,2.6035185311121007,0.4740516509577817
1.0570222007442935,0.2916880254033638,-0.6821790274755015,0.6825195137740541
1.6978345385742397,0.7071961223267786,2.730455875833193,0.3815114127510517
8.875379461943826,0.04513535300942584,0.5458209692858373,0.5742464789135939
12.717079999247638,-0.3149582686470134,0.3649157213404721,-0.13579414197594464
1.3946921593940727,-0.538028697311677,-0.8037832252301798,0.6773129291359712
2.18762464380549,0.1514550784332156,0.914015075868402,-0.2913446494407984
3.65965880370923,-0.2818187105722868,0.0360013983656875,0.512342501811099
1.4791635741303026,-0.4312965159842411,1.047389997919455,4.2852121762849285
1.765135791427943,0.33040952961350656,0.946626997207078,-0.0299020913999829
1.7524234323084356,1.4821075905031411,2.1769715972455437,0.815213935866085
2.3913441598699587,-0.5034805021867748,1.1182998915815618,-0.2511290169244058
2.2579110523090042,-0.7729964630551331,-0.3614082585417824,0.19834378023103127
2.0039993246604784,-0.12146803766802672,0.7552658548116604,-0.27559421347057633
3.7027052952114614,-0.3247721688374131,0.12654156611144685,-0.19986862760845858
3.39803985603291,-0.5012696507762664,0.5876923902776587,-0.2802335443067181
1.045289013900136,-0.1173113745016564,1.3951755824932865,3.711024510549426
15.151586249935203,0.1907528584104512,1.0803793300137428,-0.31538992449896064
0.3419267484676669,-0.7594709745919942,1.7399219558844092,-0.09614501812840204
0.6431694682728448,-0.1187629832209729,0.9732061097017077,0.6918089947074855
3.0866005185039187,-0.36379273179761484,10.709103345458246,0.0017387246282036806
3.757477888047047,0.6290442322634104,-0.290645799722711,2.1066799023868477
2.278747944580107,-0.6468849780084567,0.1206452779787286,-0.7793880803401602
0.5558652398235044,-0.6607923392311471,0.5564888112708317,1.0809492117047128
0.9217309516967924,-0.7937828549414236,2.46126600926727,-0.3604029188695136
0.6620751885347367,-0.44883715165678273,0.7594214885987642,0.7095825830540403
0.146605498714788,-0.8705074120355139,-0.21058725858246674,-0.17911224206205234
1.2000451965601697,-0.2783242230107691,0.4348064853645168,-0.6735287061363965
4.936606125457995,-0.7598686401459338,0.3407056650388438,0.1044083635132591
1.3690542986856982,-0.15912968403262473,-0.4614641776602538,0.15853373208389265
2.3273385375102955,0.31041066126892014,0.08361107027933001,-0.34689658226871223
5.769397362425859,-0.27309629722314455,-0.24409715711705537,-0.27780560100031226
2.5380533992333256,-0.04686885916160477,1.0008853950055236,-0.18972379643386605
0.9587773665837938,-0.3975902187301733,0.5816241845496717,-0.4450473947351786
2.0809968752765546,0.09753534433660183,0.006576417457072825,-0.4633324488585754
0.13808895273646793,-0.474686836665409,2.9635684846326336,0.5312461639200317
2.319390931038192,-0.42429665704318964,-0.12179329470931632,-0.7184802607322689
-0.013107527447433154,-0.7105116356963356,0.5338353725365785,-0.09513112167196525
4.279715359641266,-0.24458112552331412,1.3984679452926776,3.2242849866804244
3.071688317095762,-0.4091310627739979,1.593455290686701,-0.8517473044109051
6.681099497169499,0.5771881533703136,1.6615147780001664,0.439212028785261
2.9190538865768962,0.23190112653865835,-0.2187198177640305,-0.5441337203324503
6.2231689157569985,-0.6094594147569296,0.5699404431974275,0.9447139443697523
1.2892857452553952,-0.6233927677202362,0.8552570914699094,-0.050217186673284786
1.8866639547832902,-0.17659642469956394,3.220190674763203,-0.19879799617588279
1.7068928272941473,-0.7040062578530367,-0.5147115907177576,-0.4329049385013405
2.7039717428853343,0.18295914034038185,0.5658126940245571,1.18510075035694
0.38622580030968945,1.2778601767159183,2.888292687052314,0.03125221580730475
1.0964341662454657,-0.5159556627142565,0.5850818301070084,0.011206919181757646
0.8017596597544603,-0.5943872504178269,-0.265601342586801,-0.19567697115865823
0.5033990429573936,0.407145049009326,0.23802800801686352,0.23155648618480984
0.41235869528226154,-0.8929381142961333,-0.12911577262949225,2.886167031417471
3.4518998753276966,-0.4108818501537732,1.127174435479776,-0.7663232998437706
2.0322385238225085,-0.35758670121826674,1.2913102015278288,-0.14504771925128235
6.4619694450971945,0.35426192942330736,-0.09608428948960279,0.2665586166253546
1.8720154487582619,-0.16109207442034856,3.2909665921844766,-0.20874104119844428
2.7819732180315953,0.5113450385970595,-0.1240263632449995,-0.034350142597978195
0.789842838669589,-0.589411450153396,0.3096112343928874,-0.8185263407308939
4.363862102006547,0.12470863582113023,0.7447073658450505,-0.010072711142275259
6.387638710119772,-0.12948935905126657,3.2798928986344302,3.3038314135425813
0.41837535880236154,-0.6583704778946085,-0.6334662792429048,0.4127839209190731
1.8536045124568616,-0.35255785428230446,0.054836452005823766,0.018543839625522196
0.6956035832989713,-0.8171518714124975,0.3663218344379702,0.35708103725751705
1.074257384777877,0.6397684783220539,0.6731774970264506,0.10864283696646271
9.924613100488507,-0.8881944204750203,0.5349466586529492,1.3585870176631745
1.5882381873363514,-0.3247171784061357,0.17446513763589766,0.21837849581733226
0.6475813080618991,0.6936444437182303,-0.04790599916319771,-0.2368815333309794
3.1627628943592256,-0.10301860377558358,-0.13868071055658293,-0.40740089603355334
1.315856891241237,-0.40949249297554635,1.312037472134814,0.32845423269923923
2.5262834026664476,-0.3874017453810533,-0.32872000489557507,-0.745885336770026
0.9064300418624716,-0.06778184563420553,-0.4097292479431729,0.5527606198499202
1.5889338931659527,0.5454579386187941,0.3290657611358361,1.1356593216094053
0.8974575108406129,-0.5163367494135278,2.0690579332164454,0.8399555509988617
7.949011537442074,-0.64805507970325,2.7584937517926593,0.6098518142757876
0.8300736109740576,-0.36335270273547715,0.6753336138982489,-0.17984612376699094
1.5684870972250726,-0.6268306546365501,1.2275433594199945,0.5601007814639352
0.06731583360943372,-0.640216101210239,-0.2963628620766846,0.09885493788180288
6.253524221223869,-0.12366088666102026,-0.7090237131155304,-0.4134583197619741
1.882322137687296,-0.022393566303438583,-0.10207935208361951,-0.30672784338183734
0.6771803002147736,1.0971363687502986,-0.4428118711836463,-0.7837535927315799
3.644964904214153,-0.16933613780673695,-0.23920343604675842,-0.4898040747445199
1.8482663011862726,-0.4608640878166206,2.2727944430123372,1.049782639332891
3.75546156142952,-0.7516538049532456,0.38315516186847964,1.1536059986499523
0.8582370175216356,0.9019465567935707,0.656987875610183,0.27482900202529637
4.543900327712084,-0.603954725474277,1.441786030640746,-0.10211146219082523
1.6934888244676332,-0.4325334131006727,0.2934821892611077,-0.009604010237407978
0.939426466541226,0.09784184805185814,0.860949267315094,0.2919298114078239
1.5163429522665681,-0.5633017470255188,0.2762573615274386,0.39065528860827325
2.1354650967273168,-0.661459958628695,1.725455935535667,0.14207875866953246
1.4160261697254422,-0.18575996724681731,0.7176373768306505,-0.513965974543364
2.367066384782534,-0.4116548132297634,0.8020837158853955,0.34732112290040806
2.348782399772641,0.3196867495033602,0.29295395674410485,-0.011260050786404352
0.5762358549275948,-0.6265175980444131,1.3824947264704655,0.8912812095499627
3.2031522363858445,-0.9535224923992285,-0.46470308762763346,0.21955530463226203
1.8557024897979768,-0.023650182486829152,0.8312354546770857,-0.36344800502333485
2.418234272001864,-0.466820872593977,0.4216875072591053,-0.6724621366220414
0.3036220431220469,-0.24370451339726862,0.3138014015511459,-0.3892924807460981
1.6730501311328676,0.3850071095101184,1.3503267545657391,0.37436723742443645
0.7069301083717501,-0.7185768603750065,2.6551129257890587,0.7682649574386093
0.7623467534125725,-0.6028189543908081,3.3007698634711256,1.976837760800192
1.2269112237509816,0.10327694265895793,-0.2612240970929014,-0.4242439153148828
4.6515632903586726,-0.42137214155095093,-0.1670488425253147,-0.15412349711827122
3.416949954492993,-0.26513277750295483,-0.08434145234649815,0.720669522572474
2.4746227125087,-0.23713155556774312,-0.596370132667521,-0.2564785982553037
1.1957715309119017,-0.9040970745542629,0.4364888705287566,-0.026581510255991092
3.228000550926777,-0.42687635121347545,0.8456912516221762,-0.28763512929231105
3.085085421095144,-0.2380438691206802,2.8992522084074035,0.4728114304839133
1.3739985274595115,-0.6721030973709474,0.3966854431917113,-0.46499567377407947
2.6198958040514437,-0.024573492785332496,1.251848643422488,1.0497146027837045
2.1161293089246356,-0.43064204317875954,0.1088117662611896,-0.7930363296843242
5.975404811240365,-0.8861089466636632,0.697047497599558,0.1481492932215378
4.742704529283592,-0.3955417385078577,0.47135026134303315,0.011494286479824423
1.9674045068615236,-0.4828064218398288,0.5428044880736229,-0.7084326153134672
3.6095335013444165,-0.4508297897762056,-0.3649010456230205,-0.037340155593020063
2.661186436257167,-0.7743525511392961,0.6462713117044347,-0.1701686611812695
0.8181642404179263,-0.04564223431155845,1.061265838421777,-0.5883644382926342
1.7366558448128995,-0.5143502244356282,-0.08972179110394607,1.4201704800561377
7.0366715057381,-0.7037449865710619,2.4957068606442805,0.037651003037016295
1.6693506840248862,-0.7505417846445303,0.09442133496726446,-0.22294254202581598
2.26763953821905,-0.77840895687076,0.23307844345563433,0.3397754001960811
0.5646932012528842,-0.13906300500664093,0.08301916874394633,-0.39292472331737716
1.3599391575219766,-0.662126800797924,1.2299166555853218,2.4818791333355876
5.000735831535479,-0.025865872748639163,1.2346868844634598,0.4054793447692444
2.7889245762680592,-0.05259938193970093,-0.03492219522479534,-0.8143540870036422
36.27623668012819,-0.3313553696792473,0.18578809771720417,-0.41677058263344413
2.7367107007210647,-0.9058289574451228,0.029544124201134947,3.2487987451036533
2.0818418277761235,-0.3116413097041143,1.0185369575518344,-0.7670032320926246
1.5690387780308366,-0.7241722500553248,1.863818916158222,-0.6703895858209368
1.5678443257951202,-0.6098155152236336,0.03858330376334851,-0.37105031185981996
8.143294758431297,-0.6711182517141066,0.2808246779860144,-0.48207392023382767
1.371080659139802,-0.8746095189209739,0.7567832077031318,-0.2611400625720083
3.369101646100998,-0.6428607430839308,0.026329756621690015,-0.5935825364011971
1.664292398752639,2.154782035764757,-0.34573217713714843,-0.2785514653047657
3.553321292153038,0.23983646656025415,-0.48622556164158925,-0.828595470309765
1.4043216558049356,0.2985224637022956,0.15931023249448462,-0.35127773831151143
3.707343949085076,0.24922575053186669,-0.6824567922905012,0.010911467121516472
4.101206362037804,-0.6699356184727026,0.6913889477599324,-0.48640282993640616
1.573163700875162,-0.19744720759439927,0.9849108778834625,-0.23639209958681828
0.877238853374477,-0.38008663482896254,-0.3770717816079091,0.10691862386591788
0.24483341699856487,-0.6819803708990904,1.8976288280007,1.4630802006101926
0.27207896122446495,-0.4870469921302173,1.0603406957337982,-0.11843865914745888
1.8268195685320157,0.869911858253337,0.40882731289348384,0.28172063458212304
0.7366347137867093,-0.6018117023178327,-0.3929100141848819,0.2726853797771709
2.3989692043989437,-0.5827705607855651,-0.13964895564098379,-0.0807161777387444
1.8861697879743007,-0.7345852247928848,0.41032818925952896,-0.5069824828164775
1.622885254356874,-0.7383044247191533,-0.21034327146327403,0.33589470471048855
9.691482312531557,0.17245878972337114,0.295810577022517,-0.04891741165080421
1.8514527687802271,0.7623088260309723,0.14234588637564172,0.40010946636488365
3.8709589549993773,0.7761916920556433,0.4888499640055515,-0.8396971532702985
1.7930747620909742,-0.3391536805179869,0.18896867226614922,-0.45721051463284046
5.2374093771789365,-0.0735719590984979,0.38095561122163235,-0.06449682694306325
2.618329276428121,-0.8872094484818862,2.676837273631264,1.156451507625365
6.839013032812946,-0.4528535923933823,0.022024577264890377,-0.49667420605697576
0.6621894534415826,-0.24041751825646906,0.8510858331521565,0.6963915036307018
1.1274866825247938,-0.8261736802836809,0.3964164410524704,0.8960446596674869
3.6151221506006257,-0.4005768397158095,0.7400953540052349,-0.6351297235304777
1.3489829114738554,1.6805557436882714,2.553090387349969,0.8977602864451311
6.122779207716448,0.0437590169997244,1.3351579169736758,-0.560867552110575
2.621042097920462,-0.3439434103039054,-0.07555955887934562,0.7744233334654358
1.8347043639397076,-0.8487506494189232,-0.37786380912287176,0.6535098531428503
0.7905490102659998,-0.7808613040082796,0.6362980217222218,-0.6898488782525019
9.408418766358452,-0.811239150764975,-0.31685627388398296,0.030047522721991182
1.1849763528890551,-0.23521341342716862,1.1444082251017198,1.3518444992094416
0.9206065901754434,-0.49134677313877273,-0.05543719114092627,0.11116676191342112
16.309834141273807,2.891189802838757,-0.17228979172430803,0.3209379106637644
1.4825346014927194,-0.7268007138070178,-0.7398610087509776,-0.6941731900587925
1.9979246337008298,-0.03938507557714166,-0.1313176563074664,-0.4397300189728609
2.33844856522835,-0.23254414242339894,0.5330568296519391,-0.27935358864852977
0.07054757386452915,-0.8229317534461364,0.12133192598101283,3.5797976771941196
0.8267273340614227,-0.6108838639824938,-0.8494132185844192,-0.02807709487463872
0.5920828842037691,-0.298015953794297,-0.40866518131152696,-0.9300541521647963
4.1390940848784155,-0.5634194456215478,0.7265564177141399,-0.1870480611018529
2.5612282666009256,-0.779959889240674,-0.12795412438413978,0.48006314479000745
0.2769531505166314,-0.7902851430959537,-0.7274409459355605,0.026910462014901215
5.640837852837964,-0.7902478843067692,2.370617301534129,1.008458772132721
12.545838456783626,-0.15766467964908815,0.7174122618075458,0.36027098337742225
1.8953854130124594,-0.4387495377504347,2.4800787198398657,-0.6080065870238609
1.954364086508435,-0.4162879125906662,0.13569734163602076,-0.6457051441957902
1.0473953976826929,1.8458844444567277,1.7351801646065201,-0.25886277515174405
2.6625131633620134,0.22498005573503232,0.41001691455946476,-0.8227227612773222
0.5878923689248057,-0.755537855690751,-0.5892698511625452,-0.01977659943354626
1.9783316382735836,2.2496272438820126,0.8197774390134562,0.17489457613119774
4.541502090900438,-0.8152351351883458,-0.9150613568917345,-0.4489417982589996
3.0227681582288106,-0.39591357076725053,0.730819402718744,1.4361844805080994
5.068614792348365,-0.21315463795870415,0.26821800414318586,-0.45060033449188996
3.3988564884128927,-0.530714611624205,-0.5634986059420856,-0.34600848788210115
1.3623462817114547,3.9466184048460278,-0.5670473666206877,-0.3893803338791225
0.9028210553595797,-0.47058672968037396,2.0510215966349876,-0.10489850761380337
1.0181628289432325,-0.07502804168346888,0.43260173167421034,-0.669599741877351
1.8606369122599111,0.0012372933269277908,0.27498962274534144,-0.23348549941036867
0.594619573383735,-0.9405375420199484,-0.1455570548480417,-0.3931460721926776
2.2750696657477034,-0.5708219235610031,0.8335042578314584,1.1051138117998738
4.328366754297409,-0.8154262086699011,3.55182726385764,0.1456893569103408
103.77859053219375,1.5243335579718211,-0.7154879013606512,0.25242902084307484
1.352397440521897,-0.6639111142437516,-0.18005518530324727,-0.16625886581299842
1.0658250854408498,-0.6691255506377011,0.4688714810684298,-0.8513584015986103
2.2563627992110815,1.2616797792650223,2.732505198040547,0.15928449525580968
1.4268615820766373,-0.5770001275223959,0.15815439709089363,0.07328153975234719
0.8100804351152584,-0.5300754344857825,0.7381968228694344,-0.7602065493091974
1.965844665492119,-0.3028627024841778,-0.41654674882634346,-0.09553503046078049
3.91729943708627,-0.6889401955260541,1.4527323426324608,-0.4226862112895198
0.7831233133710782,-0.7214674545868196,0.2653372185336291,-0.21825908779442915
0.9522808677259431,0.8577890496976903,0.9219941428442735,0.2183281719760728
1.7025336504486286,-0.7033045876235421,0.5109624344525474,0.19137390910861707
4.7247248319567685,-0.5336966662750875,1.3381039689806573,0.1549940766436282
2.994992477858026,-0.46991083555126756,1.8238068477705158,-0.37157410724748374
3.113296842439957,3.3420002028296008,-0.6674010436452062,-0.48921840072237377
8.118732606926384,-0.4500143343548917,0.02581625280305322,-0.10148128128566858
4.843086478222356,-0.3659972243606736,0.8870908296362443,0.07818817579237547
2.269289464991057,0.45987018591540396,0.35689208835331354,-0.6605517550537752
2.342505328411815,-0.738414150828421,1.7751926151807433,0.2723866054144213
2.564588148889909,-0.12001623973803932,0.05348085709866379,-0.09709817913446361
1.6438121150871048,-0.7093628247711179,0.2321385385018231,0.4226912834960588
1.1481661529659104,-0.33976984810254285,0.7260594655823822,-0.3402845532957023
3.498546603006379,-0.6319408081184494,-0.37300495589971217,-0.6563540389239761
1.2847455708429432,-0.741639571131355,0.45988272026168553,-0.761891727857909
2.797817810225945,-0.7280393984234637,1.1444404769182657,-0.896469124504764
3.1431040370202092,0.7010744663556552,-0.29298363324202015,0.31533455833746227
1.0538948151383325,-0.6264872652079838,5.086951673449698,0.9866102661401985
3.04831469585221,-0.7692917552530008,0.06827512389577439,-0.21133125206369974
7.068393713561987,0.24340090572800888,3.4699934732444744,0.22996621672099882
1.8078178018016464,0.1172702475677081,2.3169928727659497,-0.6787808834720741
1.2653996929645381,1.237736504788887,0.28957772004011617,-0.07780396162772008
1.6975569022325425,-0.5499739656251776,1.2096941212919199,-0.7342797539892253
6.893111568454777,0.018506605011652022,-0.0006521131939979385,0.2279817399392181
1.5909834522740662,0.24853183012374758,1.3080103132384182,1.0277397113104185
6.624713370393092,-0.11739198395235306,0.19690950450495803,0.28662634764761497
4.480864765598419,-0.20673658746935641,0.16597325704228605,0.09048317843712561
0.6052571714725732,1.1547072197572499,0.8070678984680391,-0.7298116101814922
5.570919837725711,0.10571927822833427,-0.07851428536431093,0.40307891644062055
5.538050029317623,2.9181750655776617,1.4377462058767976,-0.4789270651038854
6.6175756980693246,-0.7699520390321967,2.0576488016480163,0.5924957535236697
1.6765522855360744,-0.8467897650881325,-0.16371479051414328,0.925781824935926
3.7774219989611524,-0.534566677519483,1.0093654947772253,0.15747808689694454
0.31996723993088017,-0.5861849787140828,1.0336747094654393,0.12282028423702251
4.531104155034555,-0.7785859989800761,0.7667814269848803,-0.10943884513527835
1.8755453328750207,-0.5109272998435986,0.11480291644252816,-0.3910742211028647
3.212987271892942,-0.7102136370483851,-0.08445007315956277,-0.5305965508712887
5.071620715189373,-0.08938742086597351,1.2855397301255658,-0.030754024732045693
1.8818160976669822,-0.3516242135605854,0.8831435825309066,0.5331895924769059
1.48475984594783,-0.8662356715457048,4.162028322280626,0.6775473977565192
0.22153680771132267,-0.8454371163601349,-0.10670865274788277,0.43365456646560707
3.0747649083372703,0.8021557903522691,0.17828011303885183,-0.0698352737268837
1.311010302757869,-0.5824318423711539,0.7329560022744428,-0.4466422706148062
1.2597474421631683,0.2738169832447477,-0.25951988959420924,-0.6224032954361658
2.696213085273608,-0.3637667974149008,0.29533412778131063,0.4128080709237616
6.0995265464303365,-0.15422044157249848,1.4519637172765418,0.15798589946518504
2.9697220055425286,-0.49236140497324676,1.2621126020682083,-0.13426513267544504
0.7711476318008927,-0.26738578613201414,5.089726751550457,-0.22533920133020424
1.7798932066524573,-0.8523629711201095,0.14696580545014504,-0.45889085526736806
7.685102261853871,-0.20842870134633096,0.7011010628611838,0.9016258063067875
5.801087632505608,1.1645476523083498,-0.6537718361034,0.2324219792299691
2.539494679581594,-0.20844704333041142,0.3013891252780734,-0.547436789062138
0.23735225825027473,-0.4647983612478992,3.3529772562341504,-0.456585027571366
0.3116355357289047,-0.8179313085771759,-0.38811848791424386,-0.7026063947915733
2.661843602331923,0.6624586515479243,0.21622380070738356,0.39080062489894685
0.8742254080010972,-0.6894627749804458,-0.8088292204078128,-0.7179304680451843
1.4259158142554402,-0.46972545175325464,0.6601355787939425,0.09921137848128625
7.080524765273605,-0.21642336105857396,0.2534384542053303,-0.6300305692443815
1.2329726972884547,-0.8897968182448703,-0.44992498238372525,-0.5478381030278323
0.13780493850343034,-0.7991547227026898,0.8180667310761693,-0.5626137884526428
0.9511271250628017,-0.21887022646408927,0.9745057252768003,2.378477314768615
1.0248607316447673,-0.6012451142233071,0.5034476885645209,0.02956002651197842
5.871076272868843,-0.5553930737391215,-0.015734333429893832,0.2498481758503377
1.239921834795572,-0.5151585253935856,0.3294141475807342,0.028859347712819616
0.974870556664682,-0.6087921438596409,0.24237694320710856,-0.508584290173382
1.6015367769490685,-0.0734209888987899,0.12928065759291818,-0.16533101609606948
1.7932231855887801,-0.11473104311752946,0.9918373651832573,0.5353323234659388
1.0119881789354301,2.5902404164429824,2.5802355166160273,-0.007502397309802067
0.6463121912859606,-0.5454042553563652,0.11444939146996647,-0.6464110743265248
1.056732198938016,-0.481988545267112,1.6227385006299055,-0.08433129127794814
6.081437850889502,-0.39034603106332766,0.22057393945596782,-0.39750858991708227
2.1444402624642613,-0.5991580207964461,0.28779124712877113,0.0554760913360528
4.1253128970296125,-0.29836049006538223,-0.425310238752724,0.599873534045017
0.7106176821783465,-0.41346884911441406,0.34627144619319195,-0.48328754798529805
1.851462137331378,-0.47244240575721463,0.5282510541806371,-0.03324816770840777
1.7605014734118907,-0.678569508495968,0.9959518284052093,-0.05655873813599743
10.606564185945142,-0.5857044767788174,1.0394078864011758,0.6675624082284692
0.5003157449037792,-0.15130671163200016,2.708242627865931,-0.32924289725397926
1.6375539122948752,-0.8082951643158014,1.0015903445907943,-0.046074454247999164
0.41717438367615745,-0.25699784511763246,1.072225794682212,-0.3767025780855574
1.1634799745540993,-0.27955410667869196,3.068164006315028,0.10159422448537248
1.591309931308042,-0.1693121234586038,-0.39627227807962684,-0.28157806408860275
0.8157656200515606,-0.4478214066553431,3.783946523679986,0.0455181533453799
2.749352604270809,-0.05890219736986568,-0.059417324288353224,0.066240896258563
1.3646681504507083,-0.17823755421170828,1.9275456283956962,-0.5153575048556327
1.6595616701668865,0.8631760149997967,-0.5092525081745759,0.27961825752063163
0.08447861155606273,0.4019274326412057,4.292130180124898,1.3371605143421204
2.481610870968473,-0.5726205926637528,0.7164939079753994,-0.39748540168441904
2.565214746698404,-0.08310352271227861,0.8861038338181453,0.09460241220076893
1.4123314510507634,0.778127983630363,4.5895623764577635,-0.10212136881663081
4.177235989669675,-0.5065758464744949,1.5219432366146326,0.11345901247711332
3.1413348110925776,-0.287360573329432,2.5733346931556462,0.3438068127501468
1.6538644758615413,-0.6538214031005716,-0.18989976387435237,3.396000481863412
3.7975637134575333,-0.2589422354055355,1.6879838560478095,-0.42560221850520086
3.984040548638016,-0.6871101000841531,-0.23059219512370266,1.0031657602070565
3.780054969159221,0.8881233390594121,0.0787720310470017,-0.4399363454745946
1.0989559690219721,-0.14868275959642707,1.7625039466416088,-0.5673306009439496
5.302411395561324,-0.6919730835416116,0.8242801110425586,0.07755233757189672
2.8310239682766585,-0.7800630501462877,6.6643536590403185,-0.21896020648414394
1.8509098020205084,-0.14256899400182965,0.6039087086267656,0.11209105432205169
0.9816826238951415,-0.45939232513180317,3.6309247435215273,-0.7280091066567094
1.1221562378794987,0.16909108195161582,21.009304661807708,0.002624624664988362
0.8206658730195648,-0.6729112911059596,-0.11477293250354115,-0.12887310236674265
8.966639008634772,0.81944002273254,1.2263368446009286,-0.35866836534199864
0.8029480364694905,-0.7973151070678126,0.19797058350254892,0.288459384157314
1.4423163777358115,-0.4688084534376209,3.997232241679238,-0.15442643269068734
5.298704102170048,-0.003132190057226092,0.4115398043970935,-0.4768182726886595
5.221709790923554,-0.12543428445764304,0.40737250256096336,0.4939329726854911
2.6636088711355663,-0.7582490917323969,0.0022602552009336474,-0.7296462429904811
1.273567035154259,-0.42719903943087123,18.992688092822604,1.0970331713033215
0.8865007777864049,0.029214706010411984,0.20626728114216442,-0.06099949272106853
4.083063350325763,-0.47028330946118235,-0.14826888515288483,-0.31985243795299023
0.9234962728762606,-0.3903785638236946,-0.6841591995278848,3.502600515089184
4.2385965508982375,-0.35844101909332404,-0.7094775772177351,1.4123762982843031
2.603304736417054,-0.7343575212675624,2.656753048402695,0.9351379899110968
2.819766874900808,2.007644483563319,0.9346333745100672,-0.27493978438829303
0.9764306244834693,-0.030888187039441406,0.43179288913201264,0.7975556062930935
0.4995011264296132,-0.6964686872095406,0.2614803734007396,-0.15138213498932418
1.3256287122543648,-0.40150280669965355,0.820896740538019,-0.7769490460801873
0.46213444068049014,-0.4832186690258291,10.563530909949634,-0.23192418517641733
0.47750037040777515,-0.48350021778684027,1.0174232970780626,0.028524205894099097
3.42735935802391,-0.0683680647758328,1.9246862576805945,-0.17563290996297787
9.51139292206174,-0.06231111098330133,5.381605951683188,-0.4765783814816381
5.1739725859291585,0.2224500253885262,-0.027413832188258103,-0.8334055418347037
2.2814220913583276,-0.1976783733234082,0.12368203472168338,0.6958944284496
7.488342991283336,-0.6271755759489301,1.005678889724166,-0.8252308236475406
2.0893090240622616,-0.258877082093694,-0.7846036498730128,-0.3658439660259655
11.725874975783393,-0.21242744096427146,0.16798352176422293,-0.24420841387081027
1.5098745918871144,-0.7483878377724364,1.1663942788137152,-0.1783313511845056
2.7311483218217623,-0.33883145387551494,6.394348665360099,0.6772294438625011
4.614430070835833,-0.12230702806828775,0.6167584864193614,0.020920825597943393
0.3290685198948591,0.16884982093843726,-0.266944611470186,-0.5536137432371422
3.2830672427043934,-0.3114420163912247,1.7498995788933236,-0.10714053211888919
3.7847590001701974,0.34927977079621275,0.13603125387982007,-0.2899496384347475
2.6497067074316885,0.44654530224996214,0.08275574679817321,-0.564911780883038
1.5611252552501083,-0.7637628636507199,-0.045602036992505424,-0.3991374776110781
1.4519573821243652,0.23554374385001564,0.03828371108142825,2.3608591750242542
5.938493464853099,1.1111817872294916,1.3181463732286915,3.736216851140524
1.9945486835653075,-0.49401052714921934,1.8745834400114423,0.013984974316738397
1.993198292284967,-0.10405852028634632,6.0044399244314794,0.23379662507978538
2.873492729827242,-0.9025659250778998,1.9163602654317446,-0.1044159503596942
1.0852200944391948,0.049448776381060267,-0.08436115463857996,0.398927450529186
2.478603980185861,1.1564567934893502,5.0331221698103565,0.6150802597729645
0.7957881795191923,-0.2934419604487555,0.9025254151242206,-0.1287571251915346
0.9400070748563056,-0.5124151892335639,0.6803570254245452,-0.8927316704962753
4.017954292660142,-0.7386024286840136,3.1358869162142655,1.5286940102964066
2.6216556031570817,-0.1633790213741385,0.8191288845703522,2.105590100015272
7.527538169672024,-0.3567060409324456,0.8288910407642849,-0.3321066430493723
3.3687420874587914,-0.08023521858463534,0.06478046842305085,0.7762914234493898
1.958962843718556,-0.3745186530010812,-0.1575401473286926,1.0295149560798982
1.7257141842416441,-0.23948762453857142,-0.3196792062123247,0.9891942970702154
2.731516661746388,0.09755328932874208,4.269949179068373,-0.5966422691985285
2.4133619247435094,1.4439918411699204,0.13130159410687092,0.029617437297880578
4.2541404536911225,-0.7077465773736862,-0.027507467590198398,-0.5473788554645626
1.825694114270005,-0.6267504512827046,1.1939270016491723,-0.5039424726363575
0.5899219188219538,-0.46044813377998706,0.7661386124344887,-0.31724810860135344
1.8761901869203341,-0.27421658856813647,0.533953793619687,-0.41450537237279117
0.3680004587377761,-0.35801071477727586,-0.8756204060021973,-0.21544808612431954
3.6606996942834815,-0.2776001332629213,-0.8382916404390752,-0.4741245187383534
0.9313419619243661,-0.6588434697898664,1.6649868141803075,-0.11944719519257385
2.9170842408685718,-0.6006143900855938,0.4536207860377497,0.05912168467130252
1.7383568465339767,-0.4629557022324329,0.9080263096609964,0.4744277025995134
1.7483818215401428,0.0796164775760988,3.795045482402096,0.5569316866994656
3.6080344888853144,-0.3864677568500997,-0.261001227510095,-0.8233554504611189
1.1658263616823428,-0.5489903449654302,-0.26140559212799475,0.44437104662223637
2.4189924034290846,-0.5556165731891627,0.15314113089730608,-0.7962852669893167
4.353204728195393,-0.6553049055820594,0.5222837146820263,0.5513996017051355
3.778781229118647,-0.6374317413417946,-0.06944878486400208,0.053813826040129076
1.7938347906452492,-0.21918265491964473,0.698199439770667,-0.5834061427119541
0.8623760760730872,0.24390328542420603,0.3098060853226181,-0.584145146406659
2.591749365864333,1.3077406039573836,0.3981102194543058,-0.7834121803379108
2.6269076171289085,-0.3661643314173687,0.31417253257388666,1.7809188959887123
0.8064573326456226,0.10337853926257035,0.9605454762021088,0.13614620333169447
1.0674153502124448,-0.471387704848918,0.32405385676371234,-0.6156890415242058
1.489680124563976,0.36305216892378445,0.8942296781052816,0.9153991180384573
3.699074036561237,-0.5186214604906536,1.4750719101730532,0.7711778561939382
3.286236292202056,-0.6435763012545291,3.969689207259422,-0.30963993068792817
10.157754285844488,-0.38153449305571707,3.67107268360434,0.445233808536061
5.606685926803109,-0.5403051332591035,0.10933703630417502,-0.49202296399886936
1.1758262453053212,-0.2469157157389973,-0.02431342084523158,0.17277518325969665
0.08707361536092906,-0.5733573863375387,1.8717998528621225,-0.04139487938212549
1.045816301692379,-0.14178680052371928,-0.544265634905836,1.179629871699683
2.4403652936514706,-0.006921576967846121,-0.23849092474101485,-0.40757906253791565
2.176335547883828,-0.3975957505755755,0.5887863846388774,-0.844755219791019
3.1120803864607236,-0.5778607510946878,0.978328752229422,-0.3483373537833456
0.18948715951318928,-0.5964400380654824,0.7533636955436409,0.5625637280442717
1.1243286448963805,-0.6378406717879073,1.427508222853866,3.6338165215830758
0.5441568767641316,-0.18643138460749398,0.6957745440035155,0.14099006744887865
0.11495752933785663,-0.5150951650019762,0.41498168957774184,-0.558373459331824
2.377284046076841,-0.6835185806278027,0.27855249317289177,0.3359052439518071
1.1785059913965563,-0.43289071168897364,0.21129956230438873,-0.557320877374642
2.057365077184091,-0.7432650132815375,-0.7327683312350295,0.04975588668714526
1.239489317261317,-0.2387886545344886,0.17410253731496184,0.4227092033642521
1.7067289719504228,-0.6878336458874027,0.2614254182940825,-0.6620474034446602
1.7406929296658409,0.010832977588220771,-0.28855058899144836,0.7987327030120384
4.636833614789515,-0.09579712996493261,2.179790814722663,-0.16350111460923256
2.652828319526654,-0.4511239180324944,-0.08429725719298653,0.2658186916123608
3.7406289069171654,-0.9046586020998041,8.04625351111667,-0.6150272389350635
4.508134650073709,1.2880545915228465,-0.22234179590338676,0.23507953621526312
1.8340407106515104,-0.420696912548264,-0.11325684822331916,6.005101514514763
3.589382655797749,-0.2815970573974629,2.1182770883096294,-0.2129828536131465
1.4509351478575825,-0.7670186474822978,-0.08505221249021755,-0.14206072104314793
0.9645163864539144,-0.08975408773817029,0.9890701541719931,0.31235868644208287
1.0787833541683,-0.37382280204823204,1.6489218655473747,-0.3718012677212935
2.243530895989891,-0.6031287123098044,0.36768297380245984,-0.47072490118591537
1.1503553276672749,0.13612321938972838,1.3702668091692636,-0.15320412681873896
1.3553977264935857,-0.4280791311680836,0.6646212705954782,-0.25564765724092264
4.180769921581714,-0.28547994527169407,0.14341968933210736,-0.1499838666486678
2.8025584841837725,2.676775867970933,0.012101164389542562,0.03557617406751268
1.5927020674718606,-0.1934229869138484,-0.6234593115560301,0.9467811071794059
1.6009797408533304,-0.28434331885140474,0.3978510680874314,-0.7114462692619177
0.8093674478789659,-0.721170460827227,1.117024231060883,0.13829511251755688
1.329820927983131,-0.3310796221512796,-0.2080064028824934,-0.554837102448897
0.7340878514545965,-0.7290528527304514,1.6952689030429422,-0.4027782992439902
4.2209250263232505,-0.21589583064323015,0.47112154777073845,-0.394925391640532
0.48681070052759634,-0.8931727259594076,1.0198821969484624,-0.2420528590587574
