x1,x2,x3,x4
5.112386473623379,0.05800909867979831,4.95200492056061,4.532829030757764
2.160002593114191,0.10598910789661709,0.29284691731003853,-0.058022429076202364
2.620278893597977,0.822840370446464,2.0164944640633373,0.06837323786779415
1.3492982485349718,-0.7333322677617434,2.305551028736392,0.1694305810468919
3.3078677151449547,-0.443005459262488,-0.17724968019653708,0.4463606779925513
1.658673392095988,-0.47131562659157133,0.8135916080423193,-0.3406198571763729
2.85153030147274,-0.20162806208040962,0.7436996340054147,-0.12362785164515677
2.9818180409912607,-0.0889001934429916,1.3208464518596674,0.8211692721398753
4.417755247447721,-0.544350085581363,-0.48307052441967413,-0.15621975422391032
7.567625031602388,0.27210222820817087,1.116827934707353,0.25749216319257084
2.8254866210197287,-0.34378397362300217,1.0481253459523838,1.9369729949953225
1.71676647637833,-0.8169741086421152,1.27933228715059,1.6794030563267484
1.049294494448259,-0.42552186058841024,2.09438642651286,-0.12473108727487792
3.47385203614298,-0.5990277954287655,0.5889774586953824,-0.6286871637545228
1.5301353431530074,-0.27952174454963286,0.7496506910140701,-0.04697931313485515
1.9476100310945341,-0.6557966311988279,-0.12143060870952604,-0.3948688169898583
4.436795680360923,-0.4084907718545835,-0.5296252797964676,0.5031708425516126
0.7691197958838396,1.6275771206720582,1.9421743444767867,0.46833064826541326
0.457962924045882,-0.8506403098989025,0.046411434785438965,1.5370648035203067
0.5332914192054046,-0.5145758299496666,-0.15929464221981648,-0.5062620479518025
20.826291159350507,-0.4855215851311512,1.205428337982045,0.16662519575129942
1.6852287704747968,0.2615033032967933,8.94092567488036,-0.1555510296459527
4.036326575264116,1.57768630646658,0.48824781990625143,0.02048771088769108
1.3830775617213078,1.7682004610471185,0.0632257383255721,2.865825713837775
0.3417611279834971,-0.14205256810265576,-0.13681876091648737,-0.3084295907392537
3.322564732628704,-0.6028797776448234,1.3830377470569069,-0.8304882130009155
2.7498755617136337,-0.05263916963136428,0.2645761009197718,0.31966764988774066
1.715820379786332,0.20586467926248053,2.3753833149714776,0.772683105192518
2.6858628465129866,-0.6874865938458229,2.3818595685910484,-0.22237896740772423
5.37000271202339,1.2030639903519935,-0.31852692844329966,-0.37550874518907984
0.721244123044094,-0.5566523228493367,0.08179655253121854,-0.634720424328763
5.0689159819317275,-0.0019433486142629297,0.6527077179005647,1.5233193764681863
6.93557568278556,-0.415276296144232,0.681769317426127,0.3592700560659363
1.6629759991030197,-0.6453663251959098,0.5417128503264288,-0.38678762307390624
1.4368925416724636,-0.5254120956362578,0.7727278282251406,-0.38982315173596294
1.6395192879303098,-0.2909811720358191,0.8371307618341,2.1762561398066915
1.6369776628718498,-0.8958346420624099,0.33352645396530245,-0.2883928930591828
1.0774116260808402,-0.4315025342761698,-0.16926799525885539,-0.24830982174628768
0.5338414545262373,-0.4342146822748133,6.369285282173935,-0.044187787662408606
1.2617276330340057,-0.6751124584230984,-0.061998090133004835,0.24722697448557107
1.8637084068767331,-0.23947161302729636,0.30957380231652043,0.6180800304243892
6.436671062809756,-0.4335674053442766,1.4787065841094238,-0.5537594716910458
10.483927426761195,-0.3229873311572695,-0.7893452208450024,-0.38303667139440467
0.9670772246203463,-0.22212683294514868,0.0004814785362494689,-0.725811372687773
0.8265159769072659,0.25970440400979267,-0.8338373889208642,0.09656215118012823
2.590092794494923,-0.11368297559121887,0.39910021040386123,1.018979239725744
1.9950012685165315,0.805493093751338,0.9600327683463861,-0.9596327427920395
2.7304610808416276,-0.4624308324668567,0.47814271946133036,-0.6866432581712223
1.4613553563443396,-0.6101883595608254,-0.06210254924554459,0.23918138092092955
3.1665790098379256,-0.5824133801478459,0.7061391009524411,0.10126004703624991
5.028154191953435,-0.4042410077254375,4.334006948417317,0.3720537030990376
0.9107305539808133,-0.14179261342995553,1.1534356968409676,-0.20362044202920804
1.6414632722667117,-0.7139446293750831,0.26738704631610366,0.5283567261846871
1.3321188076074764,4.625330541466978,-0.3203166926991111,0.5003855857209187
6.266930776317103,-0.6939865879837706,1.094739543652695,0.04654576079386907
0.2519649853946815,-0.5022804278349013,0.11894828821653314,0.06747507619989945
1.8204897533839213,0.5525359053436327,12.67885259816673,0.23943347171773555
0.8510594824664155,-0.2864009525849077,0.9405385632078578,-0.3908095231895127
6.834405671173441,-0.7549507557341364,0.8119061332403961,-0.5162895594100525
5.680275780221232,-0.7243612789576834,2.105542556164692,0.40549126107162636
3.9472639105902383,-0.8981214202349509,1.8232196865691508,1.5913757905344101
9.76615669297053,-0.36820103706933793,1.5451528367772003,-0.3421045989221675
0.8630804201108981,-0.6686833874673791,-0.8837464327380986,1.4493270328531165
0.9570188296527717,-0.04432627734267913,3.110428658037339,-0.3111377491123196
2.116806461210791,0.8882876663066595,1.0835462856572087,1.2447364811020218
2.3195774383513714,1.2588707976528832,1.8778826636885833,-0.1509346272163471
1.391889820040579,0.28550722023790875,-0.1691572318576462,-0.3071397250670449
2.288582687716819,-0.6119270809548784,-0.07951097324916745,0.23967647094692723
1.3155754570039497,-0.04986157221831322,0.5916762786172398,0.8223418233082334
2.2958882344186504,-0.8606475887891465,0.512022917811088,2.1975630311837993
1.1789828572927972,1.5752691768400506,1.1978596375886572,-0.09787698838415015
2.740325723955703,-0.4672574456593289,0.09408263214762602,0.06632426369746947
1.7664085473157622,-0.3255912138279584,1.5266611655660052,-0.14795091345341194
1.8055280956579072,-0.6564996815306299,1.748174510419799,1.18100893926625
0.8135368577278979,2.428435493527038,0.22695536613651512,0.8061835166402886
0.9140829574898117,-0.8247186818803727,-0.23531109881987888,0.6709784034746615
2.4664001725704283,-0.4639689425623168,-0.454705680584088,0.24229609041689604
0.5450000701702105,-0.4441008275198429,-0.6413109731252034,0.734521181091889
0.9340013235834603,-0.22504052443352007,0.5996901524344893,-0.8120004433793255
6.976572668293163,0.24041793065762795,-0.8348242476961705,1.5412313456259135
0.48363282924937745,0.014318519512531935,1.6990711918224566,1.9071277218527949
2.6570148452328026,-0.7349955140189645,9.457588757362203,0.0014869842729750005
2.7873178372148426,0.37677494710990533,0.6940406196048472,0.21297826555290666
6.062619418909947,-0.7071720592397834,0.1624598522998486,-0.5927857895190307
0.2473468180490188,-0.44883373393320436,-0.6535565358631901,0.04682867486542275
2.918628102734161,-0.5664054354909996,0.874213316022125,-0.382830980945985
1.3226952397451273,-0.33633675313001377,1.1635841603730146,-0.4391408220620615
3.107111644521038,-0.6647746889118467,1.4012336258094118,0.18350324402781926
0.969461466956159,0.4614084595435317,0.9843016771891866,-0.49244750887787603
0.759062928002165,1.6362720296777082,0.6930852769396356,5.03435481311961
1.0347642600170195,-0.17531136124803337,-0.42454545163902,0.7578614666117649
2.6341351881132105,0.738990114736251,0.15388775028195445,0.3656303215974974
1.4897969108271991,-0.04411328331810249,0.6597044996004204,0.739895334229917
1.9655784732169064,0.03900572487789522,-0.40199197121237207,0.14029477040053662
2.9346522904431716,-0.6199515092214769,1.3771916590875404,0.6560257667103329
2.4307385410790343,1.3258404831539603,0.4390252740753886,0.0125617897151995
2.6261723491784013,-0.5704957293725057,0.29255658606100865,-0.1588519112150737
10.698529566458028,-0.6686086123938866,0.33638749262297507,0.6395022518521356
1.1849675829001565,1.31780060388046,0.3274131519897725,0.08371607145893467
3.133835970122102,-0.5277666127695658,0.4290332348870509,-0.5241441801806124
0.9969596036835968,-0.7120417489248998,3.7246035765535837,0.031172147747961176
2.543190666536151,-0.7055566685041721,1.743389678571079,0.5470370552191988
1.3032460626981996,-0.34233461023057044,7.377303453089409,-0.72448132383057
1.1435453481829945,-0.33902935046097815,0.27585507823275424,-0.311521944944235
2.4655845667993868,0.4411685463665824,2.5516193883772753,3.4780338809304263
0.9176751203223408,0.19564117608003073,2.367796877158743,-0.38263146617165034
1.3469400015330333,0.4581020097430999,1.2858199775719452,0.06564767354245515
2.754987546133225,-0.8076266993910325,0.26216168703704823,0.278057633269311
1.8583008480870276,0.3522074776433255,1.534042887524191,-0.25462608004736886
3.804596051797021,-0.8393261496717426,-0.5858245011016154,0.7328709651811471
3.0680892729141744,-0.41482889145129165,0.6500873605827313,1.6032493781075443
2.645462246572114,-0.4966911071516854,-0.3830193547492451,-0.5933459934999378
1.3976328528090383,-0.3138725628095618,-0.2836386574079919,-0.18587263196241854
4.43671122678965,-0.15319119515493496,0.4549953886176237,0.04919072812222791
3.0577255179333758,0.06204281862816652,0.06365479100331117,4.8248514718564595
4.536010305966649,-0.36783872000693896,2.7582730924181553,-0.6428802404888416
1.9416898232710849,2.084310038737991,2.7826936281672774,-0.6531152649155374
0.5592146019434407,-0.6592517295795717,4.423425405940448,-0.2827703653817202
4.607434626615719,-0.5224528557752335,0.9025661996507941,-0.09924455470353122
1.5685885510627937,0.07789681294437933,-0.7730392987888668,0.19130248813588402
1.2872656166508327,-0.35532487300635873,0.4900246686445151,2.074423137688692
3.8981244081141364,-0.5367485358587903,-0.5719672171195113,-0.05942681752355061
2.7649940745059203,-0.4773932696100658,5.4788856815077045,-0.5258060745746624
1.857639830622618,9.660904166965606,-0.36991175957970746,-0.22408938496136632
1.0870073569968044,-0.6673359159708077,0.26323245295069686,1.4611263735501545
2.215469004877648,-0.5426775774761488,0.23591216904283296,-0.5335608179254365
5.092417208963949,-0.5082322472325707,-0.054597024915446934,15.615826733457212
1.2083943672246007,2.6860491595141247,8.16526573637143,-0.006578563481488886
0.29352001371531045,-0.30302815075928036,0.06812331505348901,-0.5415238755972054
4.197948723943138,0.38356136034368005,0.7114062251334887,0.7540807787384249
3.806467628081373,-0.2784734717210352,1.0145126023172906,-0.18944064251442183
1.2085109938260903,1.5655663438472156,1.1665356257564072,-0.14691483419811247
59.92873881557769,2.6057687553843034,-0.3674447467783575,1.4777518141591486
2.017552433124674,0.39764365186231876,0.1152556228225845,0.04501360741531557
1.615663412213392,-0.6430171965247848,4.957189064038266,-0.13891343470163686
0.5841191259929279,-0.4546461179074067,0.1853081198982831,0.24623059173957684
1.8789370782501575,-0.8416369936428655,-0.7974333455060145,1.307186615956757
1.3138088358664568,-0.5925217263670441,0.09082853933687196,0.007074353148149415
1.013628716101656,-0.6323344831363953,0.2544205464115963,1.3481921608604854
4.705258778448046,-0.9346299574375776,1.0603965790543781,0.07308807832728248
6.322034048415343,0.36756504193400485,0.7309079136442482,0.7360603456044057
5.059489718720413,0.8238530618470161,1.9311784672073555,1.4250852723365321
1.8274261363278002,-0.4233396993248084,2.2645867639422756,2.236608538711652
1.2959741659110904,-0.6637040647127709,-0.49620439258114013,0.7954737266472205
4.907132829266641,-0.12443548192065279,13.05461670437939,-0.44948180532377047
5.018514756605213,-0.39066022521992094,1.7215934617159387,-0.499535491045348
4.810020795360597,-0.9396313621932362,4.085111447516772,-0.1927507342222209
7.2559798209389665,0.35538964160202635,0.10763255768519242,0.3801782630128665
2.269135124029499,0.3010834239918869,0.02104028307288841,0.18095130286499939
1.2378703297132203,-0.22077187552311717,1.5300613581241684,0.8621162174339649
2.102963357313954,-0.506909368042707,-0.08005637761780604,-0.1521098228563651
0.5657559087969459,0.28037231261479567,-0.6205920900940404,-0.2883721830645035
2.2572593927506563,0.5110630560141016,-0.25100794358148726,0.02993499259544463
1.6011381880962015,0.12569345030596546,2.9402866337956652,-0.3077896802642506
1.6182720122936742,-0.37468712277172034,0.3836696927129435,4.096774144357528
1.9022419916235869,0.17190837126546743,-0.8129419777794755,0.1884988925602611
1.054954998633563,-0.3276406986261118,0.3445451630576142,0.05505827790408402
2.324403110587345,-0.2775058523428081,-0.35978437843756994,0.2858014482680271
3.0029549109342595,-0.19107955934893983,-0.9526038745023262,0.35459226585776493
1.9502233978409724,-0.5345756894148653,0.008237657079761762,-0.9616467698631305
4.671746687336914,-0.6667104002334316,0.8392476256718344,-0.24681480989811144
2.240246263503925,-0.09446729274197052,-0.1574940900620021,2.3994474510518717
1.6023640437254185,1.1209780312548796,0.5906497104844726,0.30333954047868317
1.8782497663739441,-0.7334884646853075,2.662831910127847,0.12484486654492932
1.4277690409256034,-0.8614955612005337,0.1356973893158644,-0.36950092342635343
4.692894090224005,-0.7387874089079651,0.3417554410543815,-0.3669920626219729
1.6502630927820943,-0.2502035423427663,-0.044860256175000446,0.05492703459068626
0.7693971832504194,-0.03306020800586118,1.1050612189259215,-0.8199833941020804
1.41363771551234,-0.09420545191720964,-0.10170530545149026,-0.5201585610477006
1.608246790798236,-0.6465639074130038,-0.7784591059984057,0.4408413831158642
0.871680886693661,-0.6043027145167055,-0.033831879150804434,0.6492904924125755
1.4811535094665826,2.1978539198615086,-0.22281050264440805,-0.9031658422647235
3.0292489464117898,0.10155221167143735,0.4440322787403601,2.975740385114401
2.233785552371946,-0.3250284884106024,0.6186156872892163,3.026523152209193
2.2551909767429876,-0.7715111539174531,1.162553925075891,-0.7531172695713366
2.509623012299969,-0.9582165693063943,0.8262644118069651,-0.004144953312459898
5.163817837076716,-0.5996318850069625,2.5099576938165247,0.8419475606108924
2.508265386240921,-0.03382449683682198,-0.21172413353326391,0.08229215773573051
3.153880629476463,0.22235662989059324,0.5837427220361593,-0.5866393021187584
3.5307468581300565,4.745212495347063,42.27782547705216,3.4115060684244867
2.0021638099251673,0.7550070364698971,0.07420863931836497,0.2514161697308406
2.2284750941485734,-0.6691872079695864,0.34078628656254906,-0.35208152916431357
1.2986635471964059,0.6916157541395864,4.1586372617443015,-0.1374178667010354
1.9049272399122898,-0.5616677873813282,1.0956751048136337,0.05325807088474721
2.1772494740560715,-0.5205887160100313,-0.04655787485120488,-0.704016820925017
5.7574453013551175,-0.7824697313682357,0.23017176609284018,-0.3279040592123549
0.2243244636090005,-0.7118011343086748,0.10546644176507702,-0.11130347064581281
0.8671210980190986,0.03702960388967269,-0.24745269904299538,-0.6575646139847009
1.7747123179700712,-0.1784386554641516,1.0648132363378493,0.0715954018020164
1.7917148309062823,-0.40899570099885396,-0.6330602895176175,-0.7779425252384021
1.2042818547560978,-0.9540462204078544,-0.1131365390957001,0.3571222010812345
0.9274273706460658,-0.23246586791428103,0.0726120492582718,2.992560868529084
0.9239354948057232,-0.26780215746111435,0.831263088189363,-0.014879295794810732
2.2259285861245326,-0.28025033483025286,-0.7860247252479453,0.331565406266078
2.318801902875223,-0.40431455299469177,3.6411940951606017,6.2014756877291175
3.1420615467084527,-0.6501251150780036,-0.6389386661695169,1.2407186002253354
4.5588369252802154,-0.4797890642150209,2.0330446540179206,0.1629510717660363
1.4834382507073332,-0.6610752139051288,1.3680113093664819,-0.013611421227374465
2.9717792859886467,-0.3994801843498694,0.008123805226807335,0.8175689959516654
1.0799092790090223,-0.8398622598982939,0.08757267643356115,-0.06748745160016756
4.528222042673608,-0.2972253933504164,6.863016634386494,-0.3281746916456535
1.7562398028793091,0.1611157649898789,3.9501537664177686,0.5361008305891901
1.9206056606249438,-0.1970245446594323,2.0781369244079504,0.27359251950139063
1.888171809734382,-0.07461151285560974,4.554623711801492,2.701315398902411
0.5972572754295811,-0.633128177886469,-0.15018173819277403,0.5051902492979679
1.7999041019389455,-0.2284098683831518,0.1909086089951577,-0.18740337294380582
1.7057628410622532,-0.4619733646515929,0.31779215729843213,0.020119680406459173
1.6080275082360438,-0.8470780705701967,0.7017333505485015,-0.5271053233584506
2.7584240241056133,-0.500883087804024,0.16775059778676682,1.5121731741260072
41.77390075392443,-0.7270878569378854,0.8567822750111327,0.16868499005931992
5.593315037627808,0.79838272326722,-0.23049354054144133,-0.5056361284537474
2.819934813438086,1.540256346505788,0.2597430280257724,-0.24512871693371896
1.744929527493638,-0.5926226713573648,-0.35390950255046605,0.6574604462400719
7.160752421998659,-0.1335849702138644,0.33813325457264787,0.6708328298280968
1.5193022144137114,0.013369815225275472,-0.8155692802265457,0.8829400791099882
2.946056823629831,0.5967596500107493,1.1908969188049094,-0.20035477406571112
1.2690993207178813,-0.5764029340550749,-0.1920053598822058,-0.7564991081147054
2.1673882737425365,-0.4810743869114733,0.03692263748637403,-0.09300775446484899
2.919159454554234,3.4118223121737143,0.15684492514073112,0.5611629789109265
1.311658076230072,-0.32070346992013565,2.1807374607406764,-0.16462123115990301
0.4539998677359949,-0.1179048873958859,1.4600651631991406,1.440490616081214
0.5535050607994099,-0.7946453588708337,0.8133485992253391,3.5311816982754074
1.0024328763117722,-0.02786861492158277,0.09243577529336511,0.5149636657474979
0.5170487593542268,-0.679764356270651,-0.023878121169691013,0.08551402312975576
4.154333728986602,-0.3911335379273375,1.6256306020964435,-0.6363850340788961
1.8128898982911,-0.24874294398814645,-0.5121356425546705,2.02147679029957
1.741451817147786,-0.31253177888291084,0.2064911625628172,0.5170814181100463
8.761238258655318,-0.555238196695209,0.17947113197839304,-0.29976848878730555
1.8924570652520294,-0.5508538246968846,-0.20785969000919513,0.120376648975562
1.2273829383769201,-0.050634856754055435,-0.16142402937229428,1.1927737130091374
2.5993763561284835,-0.6697279638060436,0.0019504123186253608,-0.28945816559625703
3.1708405038081615,-0.7566725490797005,-0.10391471405989827,0.8999145013476046
0.17937549559050536,-0.7703700895089052,0.6312525313455213,-0.04816240966363583
1.6039795095678389,-0.17615201418004067,0.5986467323705935,0.8468656957350646
1.5486109638683643,1.1660111926760366,-0.19828934564637057,-0.43450807684226245
1.4149358408699455,-0.8603015377760539,0.10892618938647147,-0.34400893803661803
3.5643940527801927,6.1957699771717305,0.7435230598286628,0.6824663364511803
1.6944365168050832,-0.2762683598595924,1.249510823943368,-0.6287149069306468
0.821036587000253,-0.42087099627159485,11.535717021044011,1.8870549819094555
0.4412597043303865,-0.5124491156408576,1.0793359660840522,-0.13537970842648073
1.3721304948542716,-0.5387051981341633,1.3463514586585927,-0.9337962247165045
0.9304595611386828,0.04144858763533943,0.9425120719536642,0.3612292829419652
1.3380016026599857,-0.6162465691051404,0.7688403430959552,0.23134838771877408
0.8734747116786581,0.6458692809234445,-0.41928570084244954,-0.3744619314388682
3.857785491544779,0.13781355906804116,2.292403678749282,1.4695432520170337
0.8861497891255548,-0.46759648951332833,0.7760018190521787,-0.2170898469532372
2.140953896835753,-0.5597993675257105,2.9421505576235596,0.0046435807753979486
2.2550571573638862,0.2486911236885052,1.5500224215808296,0.4835573200933825
3.2007046897976004,-0.8022916878997672,0.18376623983325624,0.7410982092910934
1.6168892600343803,0.1659520777275698,0.8980806731914641,0.3012785345392077
4.362734015720184,-0.8386885150478122,3.8671301322523375,0.3237009356462137
1.004793358706915,-0.40263339260692244,-0.7694003928944254,-0.7528730770753858
3.061559207771822,0.7161868566828395,-0.4629677169729982,0.5355619330142156
1.6310392121583108,-0.7168823289672186,0.0720956807879678,1.8582133810023804
3.503997291286245,-0.425958943261631,0.7235698138872872,-0.1509616576854682
1.8737942450311995,0.03670535781861872,-0.8909830054811747,0.6578500580176856
0.8269317766000095,-0.7208941897207848,3.2325784354876594,0.6301074702564573
2.705545948190529,-0.48583978382413007,0.3923644627124183,2.798193756857598
4.143519454547238,0.6865107328931725,2.9930982504266903,0.28961260357557395
2.6694296028303794,-0.6830839372694597,0.5319643332880708,-0.6759133134083453
1.533506087817484,-0.5040769890761889,0.6310408985133589,1.2819048244414226
1.0389875773442427,-0.6825394136292021,0.027052480405826085,-0.7044158861618127
2.728143853322592,-0.4703732219001686,1.0570773145740588,0.8053692005378528
1.4975910444737006,-0.4297143648685908,1.0465812639999892,1.3499083410947548
0.9068009517367452,-0.18563827678721,3.3227554569224074,0.5924806918948038
1.8272944647317275,-0.5574976548086198,0.6556266974440301,-0.17531549054725037
1.2639387626579914,-0.6306798792280175,-0.6235302475923279,-0.5341875442878434
1.1306839931951775,-0.26572239106612006,1.7709530821084472,-0.07719199639689678
1.6576814475604977,-0.2825709643062073,1.2020745433045525,-0.32919510327149804
1.1862875652625808,-0.5277352156758055,-0.09022360167871823,0.4242196790256727
3.8588644284131064,-0.4070394825779936,0.7574192631855876,0.2214211201587697
1.2158611523770069,0.7201247493514074,-0.26473058911523994,0.7536603573130212
3.5468444893079685,-0.7023694623911638,-0.45349987360468647,0.10506198197251093
1.284755174082131,-0.9025173579551805,2.4586782978966366,0.1564283426564328
2.233973939478404,-0.7175508363836691,0.31470329520625806,0.9772846018991017
1.6748505369998443,1.2544292454286117,0.06091922341443312,0.27434927126019404
1.670163676053805,-0.3670026623816105,-0.6001500795727501,2.9151540598277728
2.7000236899582646,0.15366869145541262,2.6282497335239157,-0.505660368553388
0.16343458454078474,-0.19553630711201364,1.382803641551122,1.1902656213256808
1.907625426953345,-0.5329380134391468,1.1451470987072159,1.1274983516137556
1.9176136614669996,-0.29577238365661807,1.479305625009025,-0.6620312959914562
1.681113764122836,0.5791097685260223,1.7822317499647649,0.9830336741589771
3.286112346470037,-0.471735397094143,-0.4644045565977618,-0.41431490167667906
1.739695127321129,0.13106468121945247,0.027713643450168135,-0.6456002044444396
1.8212850262708304,-0.018683004869574638,1.981180780110706,1.052737677933942
1.1472575042345938,-0.41101129605103137,0.8445612798456918,2.046918629260367
6.896720711380492,-0.6077932253208984,-0.4079184571019284,-0.6031915753484693
1.0457566968313552,-0.4698947051877067,0.979315447968055,1.8151265537202659
2.4804901442985035,-0.29744389099672375,1.3309597961318795,0.9295455058512083
1.2390494401965713,1.5964550362135919,-0.03438452814398896,-0.5661010917960257
0.6727810287739482,0.5566992061126257,0.7083445027038209,0.8779255180545238
10.513993933993143,-0.6447677213488848,0.5398192097042573,-0.3446600503306625
2.064747172431103,-0.4927096096408884,1.0865071658105423,-0.5188538945897838
6.30432208980431,1.0189089383957124,0.37110817733557755,1.148035441533306
3.735139977328936,-0.6171086666387702,0.6608014300615563,1.3292611404531733
1.9384053941057768,-0.4365388491118116,4.307579281018159,-0.1644804935981492
2.4214882119391796,-0.21763550706665102,13.514321292301243,-0.30490226550629307
0.6395573852525853,-0.2690687491083601,0.6160215728263196,-0.8778106442196733
6.673431266005192,-0.5441046079265084,3.2413533537800765,0.6550589969881915
1.521694107119989,-0.6559230844120332,-0.303945359868094,0.3908394256136971
1.4578755892495385,-0.6295356366020715,-0.4408897886384351,-0.15105798578577778
0.9516193910200008,-0.6185455492728177,2.7566191716618134,0.14064694163773295
3.2429699508348566,-0.4302538488020574,1.2938898905287974,0.35199478145017493
2.7676615165027414,-0.3357235669044927,4.655120852151605,0.06952291415890088
0.7479169675439878,-0.224528650884529,0.724398533777304,2.842819799761853
1.1050759203699423,0.0959474611848099,1.162548300654851,-0.3039236813913052
2.1113579562741465,2.4780848801855138,1.065728667261654,1.0072783044901117
1.4740348684008735,0.09719783435698215,-0.06266596404568281,-0.2840473927164665
0.3365175738030697,-0.77869882649448,1.3829668018558219,6.298317645587909
8.163101219841508,-0.23107701233638245,-0.9555110731198537,0.6003818641095553
1.6838167227008545,2.4066217785156483,0.33989978945742516,0.4837545953639466
1.3618510445716638,-0.7894446422811008,-0.5103584290991132,-0.283116401100868
1.0345731085991972,0.216858715421117,-0.07865472974835308,0.11994639982710797
5.968134718657392,-0.6672138542572857,0.04378264489799277,-0.1271649802284568
1.6224291074852313,-0.9695187139233973,0.73021923436114,-0.6815200472924381
1.6354967880264715,-0.35512125988848486,-0.637517493519578,-0.40948669364017176
2.9323101647769967,-0.23983481155554398,0.16537589204505143,0.67333098378437
1.801739156194282,-0.07699534814330822,1.2193757229502595,0.23696956937729152
2.982636865080107,-0.592309825780653,6.293515473600643,-0.17243054305839278
0.7689667988775424,0.04188834964274535,-0.5974654804036348,-0.022629442091371854
1.5512460923619247,-0.17098419958045263,0.7012643405507886,-0.18903517388415803
0.6074848482415316,-0.3602032920679832,0.4752674773284433,1.7861614925755571
1.22811475802426,-0.3472776925570694,0.45606445904265436,-0.3470189040871833
2.5780086992842337,-0.4533810774699626,-0.44215375816281355,1.5067161064319126
0.9200130087778766,0.216936316033145,2.5977513562446553,1.2898268816362335
1.9753419919606396,-0.8264640631769281,-0.4656362991940054,0.875535707900075
0.8590898059005314,-0.5179870347194236,-0.5207272508761485,0.5890580082199044
1.2468852974075513,-0.08914076660125159,3.37889056989522,-0.006487442380033515
3.685148091818056,0.4156442786449124,5.159042488500128,0.20612790211728593
4.096032987443832,-0.6320428866862471,0.7397950310472288,-0.17527969224567086
3.02769602054635,0.0075876899898483785,3.1542147065849635,0.06505697060127291
1.0270974981683567,-0.23688645206425607,-0.8439969687059187,8.35133257839832
2.2905104369073186,-0.7311109660553771,1.7328711152438063,-0.12134342043777502
0.6131104032988746,2.0806527413349714,2.2305093004337393,-0.2088842603436909
0.04304581946007624,-0.8129835954593116,-0.28349623197491824,-0.6902185247487982
10.118289531025654,-0.5727951305541098,0.9160619580352982,-0.13398675478577193
1.406784707283542,-0.24095647284192068,0.8058366474365093,0.49653497228219745
4.645426378046886,-0.8556928850824401,0.16450046700280296,0.43381021761712724
0.6077044531241054,-0.5515147836433203,1.371297902048655,-0.3123665899309154
12.669841811299179,0.46549940948118707,-0.34371561811825246,-0.17663090021239902
1.1783804962057522,-0.12804913326611844,1.4151288862579463,0.1235617765053183
4.336685927576345,-0.566627891782102,-0.2710522580211525,-0.5841220132173308
0.9580494329569382,1.7464027898656984,0.07772019382851658,0.18253081176604002
1.532233685343559,-0.489385851215705,1.278927241887426,-0.3853397987540792
4.013158593517551,-0.5649435143225638,0.5338868910424894,-0.31133611426820584
0.970864690339662,-0.522131921513219,0.3002802291292579,-0.2691022771599826
1.0606629294289922,-0.5788594463055713,-0.0873825905798119,0.05430457658477583
1.233374187206739,-0.5709776358844418,-0.12734362603483262,0.9166511874429546
1.055985419494876,-0.37099157493645174,-0.3301574589643246,0.9549971299238922
2.115789047472537,-0.6234549622691427,1.6676053131957622,-0.4573869737035152
2.5392198234910532,-0.4386704460588434,0.04564522233793289,-0.003489045816716718
1.868651973990902,0.1652254484811,0.5308774019802371,0.33596570753236277
0.8941030562143089,2.44493039279686,1.158362582764756,-0.2708183918752004
2.217011174207033,-0.8889794489696674,-0.06982883860611833,0.27742664476529266
2.61812461805298,-0.39830115036205194,3.3981358090121656,0.6817954722079194
0.40787443453512706,-0.5709526024297776,0.5965584953171001,1.0707799710879584
5.648370564965489,-0.14931927078173912,0.05976229605485983,-0.5706568790281981
0.7349551668010221,-0.5708745620561393,-0.42828438777158984,-0.28867880852107974
1.5946844653842884,-0.815309384887889,1.89779849306109,-0.12302111304649832
1.2849203664444393,-0.14184310345930629,0.6011534798440086,0.2990965737428084
5.684847478528828,-0.3695076810753706,-0.7452771925245164,0.004016238578355091
0.1720349296277075,-0.4102215949131792,2.823435001852704,-0.10219969996886247
2.4457432811455226,-0.819426004124245,0.3096807275887443,1.8647615927449936
0.9429999354127501,3.497733743944673,-0.06642441783684616,-0.5291677410724969
1.376503313514188,-0.8173520029276954,-0.005969552669378708,-0.23592734862793252
10.611011771035454,-0.7808228882428213,13.557522045871051,0.1730536459803118
1.7231572382886462,-0.5276261760778138,0.9075922222060886,0.8059303185786117
1.178155265075962,-0.45753340452480984,1.6653008464748837,-0.10328727530287318
0.8191335411159046,0.905657590591388,0.5395335321426602,0.1367804763727707
1.7246669653253646,-0.4573407802350262,0.5344609802924092,0.019883803446791193
1.0154623979641815,-0.38226923412670144,-0.7291471492491761,-0.0699812435185374
3.0634455372548626,4.4082441264313035,1.1096265842666377,1.0955495301606453
1.139424317562988,-0.777412193262009,-0.3537788232124761,0.3463705163597428
0.9993027792047893,-0.5345484319915477,0.7613240720180949,-0.05728798498281085
0.7880165690600263,0.22271386096358614,0.42529675832228864,3.356806221916755
2.040307997742809,-0.5235042692961098,0.5923009485877011,-0.29633479517896355
1.465508358049254,-0.8630020064477354,0.6265817286709139,0.8360883720362431
2.506026618340033,-0.6014484151633626,-0.5647478466564924,-0.583535439492121
2.2934200287803312,-0.6647617195871587,0.1194936178697843,0.2473343107183652
0.6542258720756993,0.751955062980002,0.4599739667108529,-0.3654614268775611
1.809997870978263,0.23748090139127553,0.09113273863040061,-0.27814993791734854
2.9657592126881682,-0.7689752011101914,0.2192627175284363,1.3350853983924975
2.3354129721151846,0.036197996658305254,-0.68385006816856,0.7446745133142609
1.458005308674145,-0.5270864152575665,-0.14146121305124604,0.06236822602265524
2.7192548937352954,-0.5384699234130487,-0.19851126979879763,0.8524088992439336
5.36389933642286,0.6314544612024913,0.1326086246458864,-0.5147046898397041
24.873301121229634,-0.4790578295433665,1.3129560059199532,1.5882712688786658
1.0321935626115875,0.036617212829972434,2.795442443918806,0.33563750231135003
0.7446082531313671,-0.7726077951092025,-0.05241255619978247,-0.7944748865246511
2.545115734082942,-0.06679690272420225,0.22456780616238659,-0.1790440817453488
6.17750464480018,-0.6181636677524054,0.6519756313006562,-0.5101284737709147
2.725909497414237,-0.7788957353916793,1.5241862869176126,0.4840889704126088
0.4351012039743398,0.7209417793324695,-0.3634953759062399,0.10954120479577134
1.4993279078731847,1.0625185509909953,0.5403115090379635,0.014471399747585156
0.7538606774155332,-0.6411055318914427,0.4502934807089569,-0.7127480054011961
4.944514721944977,9.973611713406134,2.1045762362248768,-0.27103924191080997
4.638556533395723,1.2223048868313389,-0.02758177142016527,-0.3485289611039194
5.079203709124936,-0.2921578653433513,1.5961110832184962,-0.79322688139155
21.172330317510696,0.2914351751432891,-0.3012578866072173,-0.44639019338565367
-0.007203996891039233,2.3392211509846854,-0.21066251471337627,-0.39541207830803915
2.0316114673940104,-0.6465307476347825,1.5267991264590468,0.3931727881028726
2.429652987083748,-0.6647336013309425,1.307514487091494,-0.0773945110544616
3.002376413479495,-0.10961879694776178,0.5067810969210422,2.9420401686605238
1.404217601361312,-0.14292599024878183,0.971329277464797,-0.07884010599117663
1.6421340297109785,-0.5166304814924326,0.1189042297233105,0.3433126997220133
1.238692708128847,-0.872676290882502,-0.35007810994739885,2.139633713907297
0.6291352106917592,-0.592410235382604,0.17791744303791646,3.6755093173127236
2.0576564110499507,-0.2991910871348489,0.9997958229591937,-0.17793538093002825
3.8023245167601916,-0.18804919408709286,0.8365326671874462,-0.6705933571246716
4.528905405014092,-0.2952150107067534,0.9320739955558233,-0.15442526469061257
25.905763645598718,0.15469137550018885,0.5315741044053348,-0.27387068932715264
1.2656328383698106,-0.28657415030767563,0.924671863886704,0.9265082995481291
5.902086148965431,-0.38900988632200784,-0.9051185989660333,0.0989260244364667
1.531111329260828,-0.3015736935634925,0.6339783141248307,4.629829076340718
3.861490685481189,-0.09998936874745057,-0.2794189448702422,-0.1803410014508221
1.7178723076097282,0.8583832985174307,0.264193585623014,-0.008329012204168262
1.1805117103938092,-0.9435223219234755,-0.3705487859992347,0.1478220500031877
2.931707278982455,-0.764283887010932,0.4177211885524912,0.6868319548222137
1.9099345182168501,3.1809178606506805,3.2083330934665373,0.9423863626676723
7.1733198555549595,0.25819859949505597,1.9622322807437715,0.7159165761375279
2.1842180283229027,-0.3510594334600172,-0.2944702685106072,2.144992116835508
0.46149521435049934,-0.6331046917130865,0.3230725775142016,-0.16460621938156073
1.0369020681057788,0.28652452319667665,2.2657931507205515,0.17430371154882418
0.8169596122460876,1.6196736835365542,2.7011029570011327,-0.6085824294092985
2.3298082360434584,-0.6117749862852413,1.202943292594901,0.6525919883183164
1.0941842489826734,-0.7152175986427908,0.9872731151528777,-0.22931931638044822
0.44965134491951697,-0.8008055955183356,-0.623436235898583,1.2508938724234553
1.9738930899870124,-0.3469293451439346,0.4237575396547917,0.07002885641944712
1.0113020612417096,1.4658683251874138,1.5141851977721763,-0.386010523470792
0.4381669927390712,-0.7937301377505619,2.4628099462436617,0.7201074382429029
0.6570246338439114,-0.5216161630455298,-0.28687267195948174,1.0564950177672983
1.1596869750685306,-0.6856799756822639,-0.614158018960624,0.40068387183294973
3.8707497534535857,0.08052341078597092,15.947490920675577,-0.4360931547566881
1.1000361060871224,-0.6287267969159784,-0.2903932474759655,-0.10504790026180266
3.93876491286104,0.10621532061730199,3.4281529346720507,-0.30249358096485546
1.3606960062905982,-0.49995584902130386,-0.2712830640456362,-0.1538090109649839
1.6221683719577302,-0.13778307966574677,0.858902189359168,-0.4454251156136554
5.45867118103985,0.5473029641565861,0.02871280181109359,0.623109622684551
0.5949378248608281,0.5430519083740037,0.1275310245944885,0.06468439980595742
0.9044421444130426,-0.22812516805545646,1.4301230929690338,0.5546971145036286
0.7905299520124831,-0.5516622493108851,2.9328540446537867,0.5423798499931383
0.8401858158591808,-0.291159347041834,0.6527632912131518,0.037733729477543054
1.1431566485568991,1.5588833380972282,-0.4678491942132177,-0.1560464634743315
1.3227988181666732,-0.05682090225087044,1.6869703086297205,-0.4969691454684342
5.426524678140639,-0.3222724965376157,-0.2359960196415547,0.009297599217418906
0.6967852982657272,-0.5611293365021295,-0.0821886077513001,-0.37824666844219024
9.817517549448356,-0.4745942511121143,1.0754440725103644,0.39476354577800277
0.4148638177026256,-0.6106955539759422,0.4631587349556816,0.8040297313025413
7.94426072860619,-0.8643160727632437,0.378707746692563,0.16414582821338053
5.207673319266146,-0.7315215112628175,-0.5917999605832579,0.5876027117882192
2.1980489741683766,0.7368945081300207,2.039500748460108,0.245705101710596
1.4723488770889208,1.39261320679159,-0.5390286485997665,0.008367287182692085
1.1048241196644728,-0.5974110140375193,0.341694392854744,4.088049125011045
0.7840833010026447,0.2798984871518302,2.114546572407688,1.5171372001137158
1.2006293600408204,0.00676968992940119,-0.6008429879395636,0.10188381210447117
6.5099500077316135,-0.0808119297375155,-0.10985373022260014,-0.6565204686850546
0.5192731623336233,-0.6119002607574161,-0.06928777621922455,-0.12864162750442643
24.812353754927305,-0.6593317900629563,-0.703753045369585,-0.4312828041891932
0.08489583780156007,-0.19477716505726272,-0.6150929424703767,-0.46178891019443424
3.8736872562503386,-0.3805672229554897,0.3466900272372406,0.21516699201911949
0.9813498975105488,0.022114396040498585,0.11498553494972619,0.5667395066894301
3.4413016036980144,-0.8026765950001044,0.8326756311408923,-0.050273682948565934
1.8967275119705613,-0.13941532798489875,0.573748897734196,5.035721664087201
1.71854110579332,0.46000622253128487,0.6445376261128843,-0.41743430982802743
2.5967627242913016,-0.16825302350885307,0.1547176694306951,0.5910976829299721
2.56062431740477,1.2645709520179098,2.004217672418246,2.973211420503108
2.3531230474065628,-0.4611513025248407,-0.424004437623998,0.2374395782310461
2.5175258813430212,-0.43440065921865645,2.3559461654383487,-0.2992784239039453
13.2650972345482,-0.5331298052153056,0.5363319865178084,0.14550001932471357
1.2212880042994012,-0.6696219961277414,1.2281851242742028,0.7764140076821413
3.4794740131582973,-0.62433950321621,0.892012021032405,-0.3467527098250077
3.1538902946659926,-0.4582995389389707,-0.02011561115088145,0.5464485910232266
2.829503464817089,3.81856757164146,-0.19833289718288283,-0.33001364645619
1.604405458731704,2.03363240309891,-0.17032522311865972,0.046937475816860585
1.4158831594441135,-0.10149090828462504,-0.01834570810958902,-0.11828386375799826
2.338460092145351,-0.1580931932120545,-0.1952590108578851,0.22577297209868097
2.1099515547055328,-0.0433007773169215,0.6133934023556795,-0.822590407665458
0.9172219495441389,0.6441428146424018,2.171615427679441,-0.5331536446822789
2.21638280221963,1.396613786578151,2.545750769122189,1.882527078087938
0.3631233702353782,-0.9558240828680499,1.7576934174041203,1.7824878065400132
5.777615856724053,-0.21891718249831726,1.3133247938267418,1.5792328924493444
1.0047693764098304,-0.32324106271924735,1.1140569105025255,0.12533622342500594
1.724292984721107,0.01637245649606278,-0.026711041080879294,0.4724000522307614
1.5805857867613775,-0.5714412169402552,0.5471105122756663,-0.03850095199611292
2.305147414496707,-0.5395346585108967,0.28003429058248464,-0.554342189699222
0.5192773815616167,-0.17257527933933714,-0.183989613364004,-0.4255600609366702
1.9119791668231114,-0.37498791689748456,1.053265075650132,-0.23481287003564244
4.419520623295128,-0.43364617118827276,0.34118310844962085,0.8319325701119489
1.554234984793308,-0.75796133202059,-0.2474882679306667,-0.6873811013698907
6.8187372451423185,-0.1438024374322111,3.5259913698658973,1.1437592864172745
2.3555129120658296,-0.24305938550931872,0.6461534733747267,2.902813928393174
4.4680342232150965,-0.4616685968860109,0.5313207495176837,0.13582189792288424
2.6452011750915836,-0.2655344921728786,-0.10303521927179782,-0.6202060671893175
0.21756744521850768,-0.02628134310246577,3.4703331263428385,-0.6123342843962253
1.389913093854009,7.78117621909221,-0.5359085321385505,-0.4639268156064713
0.9863147458179211,-0.5139952727957131,1.2220701181344356,2.33331650602545
2.2968873732027295,-0.6661128057971175,0.538536399091256,-0.5343829362698438
0.3289381281640773,-0.6076621446012069,0.05584714656444878,0.5676633102235598
1.2829740257025244,-0.6992011460867003,1.676329185404382,1.0649521490300349
3.7344890684358942,-0.6059562500135376,2.4033040402420465,0.18767287120420306
20.43199767475214,-0.1623710412441568,0.42512210811586604,-0.31049391553590244
5.1800976866150945,-0.6953975414575672,6.567212802906779,5.70425349534904
1.540565377432042,2.3684128736449876,1.4888687261016695,-0.2560997020702893
2.8966434333819358,2.2174629894457887,0.6759405046812792,-0.07555690383611169
2.643823807365771,-0.9393854754894065,0.12815067666252378,0.4936180750902752
10.955518618385078,0.07938033227927699,1.4757739077377265,-0.12428197867229118
1.3670684478030082,0.3110622311364122,0.781291277913353,-0.1231816603668009
4.320936690058905,-0.6153892307915272,-0.3008839010202635,0.5820211210408481
3.552360319580006,-0.7196210682045836,0.19642981206874444,0.3305693164597545
0.7904592792088585,-0.7060414502316434,-0.4527513235726818,1.168307727192166
1.7035340571771735,0.6206730744536624,0.35453291682501376,0.0048608611052003425
0.34215166505745254,-0.48143705678272875,5.263630538537443,0.18413571451492539
1.0448936757715686,-0.081706946552074,0.006662022060710315,-0.8636402506375214
3.0949852376104134,-0.5902373073667811,-0.013174080857221049,1.1436902233758324
3.4858287138022304,0.25723358241619,0.9119086760631672,-0.6875631210531776
1.6693080407392733,-0.44568391945527086,-0.09477882700128193,7.139297345096082
2.3946532903259876,-0.7805528649193636,-0.28646216533947155,-0.11350101450729833
0.6954749630310808,-0.6816872301056759,-0.6262744331405946,-0.3146784552594152
7.157498733246197,1.1716682449287648,1.457996763569624,1.2134812840503497
1.6328057819233273,-0.2625008475463453,0.3139556174665312,1.76181492219578
1.7848549115560108,-0.22731946732490937,-0.11348839975706626,-0.009984778750711687
2.2555249527709877,-0.5913183141065044,1.6544459643624276,2.623110009979252
3.637518495887698,-0.6184995028082103,0.3231010399721195,0.189076611019795
5.142732026248992,-0.030759686514804985,-0.12376909402163239,1.254580459147269
2.491211976712347,-0.2375446243043654,9.126619697960507,-0.5619134802759073
6.776892597636875,-0.48210098189438755,-0.21466177829382238,-0.5728983283745214
1.9776579677031458,1.2364247726744755,2.8763112959584998,-0.5572809386866571
5.554487623457896,3.2465136057680377,0.6444014031930285,-0.4615963299227229
1.0271673158126133,-0.32209592136663223,0.5757741531186109,-0.16506141133916774
1.8741641336573953,0.6549375385681131,0.4882726413859939,0.3256518091598515
1.2755824939731206,-0.6200613625400748,-0.6148861460679448,0.8225958042476436
2.800181911752934,-0.28057677585066887,0.922329952762089,0.015633125422425787
4.227077614376589,-0.02641289745857489,0.7781903658239699,-0.37973586142799
1.829954523383888,-0.619615568628944,0.5701444131867792,0.8097677381168336
8.105698507799664,0.12290873566293592,1.2603718582170145,-0.2894044777221497
1.5484835954197074,-0.9347961878071096,-0.14144472872353908,0.4186375406028011
2.390311225696572,-0.40035194769158466,-0.15033694871700687,4.170327853954818
2.3893621172874338,0.5415546643228952,-0.02996685018830758,-0.23292710221424162
1.4035331908504638,-0.36420070276337224,-0.1471397839997034,0.4985528221800677
0.342146369281213,-0.6733042127277105,-0.7820299406298072,0.05646062470013846
68.31337019804944,0.1869669478332152,0.20881677585916703,1.0843186031721217
1.7283229099133428,-0.3600947850609957,0.18371393627346055,-0.5449631614885522
2.680007047381849,-0.8647644413924995,1.5684977569583576,0.7290991613706046
4.316314119601015,-0.44467694993294926,0.6337521191832498,-0.3676082497242249
1.0643551145802088,-0.6840156531371107,2.5317310131781574,-0.2086685827603204
0.5936322538896202,-0.29032533954009676,0.210038076149893,-0.5386127306592838
0.8371662508735238,-0.6657374125439663,1.9789163515521886,2.2780332656896465
2.6579006446727207,1.73594026487417,1.3595372890134212,-0.07695836326109806
0.9682239205604848,0.07154770137331345,-0.02393413965553015,2.5635256668326365
0.8553301451288555,-0.7983013382662604,1.1269397021140026,-0.33162969186162694
0.4098427026169129,-0.6992927172452561,1.0882930197824772,1.7464248985985864
3.996308064549509,-0.17136459661345882,-0.016162680967907295,-0.7063853122623296
0.9785011815069675,0.050402695325145075,-0.2906835817833755,-0.603497419383109
5.735798616471958,-0.7994159563445742,2.3859461850909143,0.17780252633837024
1.1660327122909675,-0.5162338990773998,0.38961182482266743,0.7261693152649529
2.3348609542691605,0.2896292436201773,2.3418089061184686,0.39937486167608705
6.506501101210568,0.5217918235149208,7.864104078360526,0.358587880857107
0.8925865446147769,0.6531464589637863,0.49496362887406553,3.238026330549734
0.7508101264873817,-0.7695695529957856,-0.6243929149007315,0.2867543108829531
7.048551907190289,-0.07939252873994518,0.2527134955628798,-0.6614253627095745
0.6482136903585964,-0.7168218411329128,0.031049776899655823,-0.47120723404757925
3.921676104928623,24.96620100834783,1.3520926102972113,-0.018586287887522923
2.262468019276948,3.001810698100333,-0.5997777428303303,-0.2646440142422062
15.0979925241712,-0.6901363483505927,0.23425693687808602,0.28369216680278186
1.0692539954938263,-0.39638285095756065,0.3562967917825899,0.9029113044345505
1.2575674648983557,0.24982199374230762,3.273515101691518,-0.30462298481332484
1.9708359548193495,-0.49209922844966425,0.42214353546933747,-0.15871528245107913
1.8350863435118119,-0.8000108087062747,16.66730610599268,-0.4484549563352912
1.2791494540692034,-0.5491181758797432,0.9647131331744452,-0.5654455914992971
1.0688583475770872,-0.751547555791118,-0.1508612667152004,-0.03216747090025385
3.6800543064413693,0.281441035924906,-0.7268190530909695,0.7491629853219544
1.7563571318290747,-0.7548415372003221,0.6959955388274948,10.6624143336478
1.3726178540101315,0.4196968085789847,0.5228254706070308,-0.4339787063441205
1.3827479305932462,-0.6847429338415915,-0.15137317863391586,-0.14365574451067198
0.522895783340334,3.1600452944219404,2.840459156424404,1.1141630068825683
4.091542581850639,-0.4851569607173445,-0.41501950051056946,-0.014583303759200139
4.464617151292969,-0.8333332713270956,-0.4496456988178157,0.16407259310770472
1.0412808408126937,-0.7001266167803069,-0.10356541375330519,-0.5159216947520152
2.801714780484419,-0.029105977491212243,0.4272146003829844,0.009353405375443602
1.44985546736606,1.4432614605346057,-0.577452816446389,0.07305731704842988
1.602730733050438,-0.3748246250315076,-0.2694483891902816,-0.4209298995156371
2.1723354657026146,-0.08599859023439627,-0.2486865787724265,0.9731124198874774
5.067479035312998,-0.3316057340268065,0.3853426458627349,0.17052126296268133
2.0340814955894873,-0.7452427182869903,2.403512802353728,1.2646746527955708
0.708876132215374,-0.6396329407257907,-0.2285218940776389,0.38854886321769255
0.8574868035585039,-0.5540495803575283,-0.035801712992306944,-0.4252161048289461
2.0049837389081056,-0.2970371332353111,-0.6217779125313759,2.563534179426616
2.56236149001616,-0.5899387057630768,1.580058506968622,-0.3953984128332164
0.4397493166080342,-0.37003664373739875,3.9744407783807008,-0.008482920381663095
2.1269097725108987,-0.10951425909619694,0.7099991597278679,3.8292362214617386
0.9815721292824537,-0.5745442205396307,-0.38822422404271517,-0.05027776942603923
2.9543850145656076,-0.3972017707879212,0.03642576413301879,0.2276547285442192
1.0353243307755475,-0.1123066232118054,0.11419494213026815,1.2745610161261518
1.8577864022121977,-0.8148238781177088,1.7534893625963708,-0.017436583764459446
10.480449944366056,-0.18341852656424074,-0.45113884994124365,-0.3595774644720664
2.849954165723659,0.25822183417986233,-0.5208610541022771,0.3331246958189926
0.35110224132807777,-6.163468836750674e-6,0.9326287017368984,-0.5650783260548824
3.975648512332648,-0.43603101711892944,-0.2198848824465357,4.29748456683619
0.2743467748308974,-0.8230563887708525,-0.20549617931772224,-0.4580117448180091
2.0857259263288355,-0.6148831080560098,-0.4512710738817741,-0.6566948137660584
0.2530837626798996,0.1420804415280843,0.547250062576008,5.372166271525012
1.5412020729419624,-0.15688829502231472,1.7303181743029663,1.1500587376922429
4.596240408397595,-0.28690163121297163,0.9815967807145864,-0.039337401582923315
1.2382562858759933,0.7481499226349726,0.37262356216004333,0.268370272112437
0.4312283769477361,-0.07388645019501994,-0.2550185739509977,-0.20962382168933702
1.9977135350689914,0.2272853149244627,2.218731279251173,-0.2750466544645741
1.1202285684476059,-0.7253293984841942,-0.16340185205673607,1.3665768129679536
1.970172960799324,1.0868245244805075,1.697170067671284,-0.5253378641863566
10.796535265858129,0.10662506590199383,-0.4077084231945832,5.820115418175299
0.9196170304529065,-0.18571801432314772,-0.378093831099793,0.6266915188704061
5.933880643468033,0.7259820062586506,-0.3396808623499835,-0.7660826090279584
4.2771075508340894,-0.5668960211120078,0.5654083349240775,-0.2904058649148151
0.5396768652847266,0.14138443255984412,0.7132532411130412,0.8743209005760126
1.4805999195105333,-0.5426068653066057,0.9011033962118902,0.6838805720645189
0.9207269795124771,2.3967834855000336,0.40285798812234974,-0.11805590942483657
1.5534618059097887,-0.848967962955492,1.5780407053629482,0.5314043478364248
0.927289787106264,-0.5825678021700207,0.9483377681746916,-0.29207480742377256
6.868120570647758,-0.6202134526856268,-0.4743593870206404,0.14021891049813173
1.8189310520978146,-0.29866524918290216,0.483766813648854,-0.4670861783386411
1.014819976280167,-0.10897357248832884,0.09403280486954291,-0.6033248455756193
3.421467277610456,-0.6768614984314552,0.3298850153145352,0.7579316944256778
1.9885553456596643,-0.821635736770747,0.5288196245064434,0.17881554000866262
1.521047714867056,-0.6689643918703609,1.0687266718879376,0.07432590736991829
2.1281936113205746,-0.7795449695045993,-0.1949044845464123,-0.6979045549997547
7.454589004813014,0.8541426658547808,9.958885026695683,-0.10168796338517339
0.30818998326602687,-0.7295768684664585,-0.12629915661135405,1.5508414703831255
5.747255221542554,-0.7701418025864335,-0.19143982715344776,1.230947554374751
4.67292794176214,3.097201234846943,0.11906794837499679,2.314970798371084
2.0337686165682483,-0.08023896400978281,0.12858494270348797,-0.4913369856871216
2.831461728105249,-0.8094033239357081,0.6729552893335478,-0.03589801535319981
0.725733291946109,-0.4575096762591503,19.685108935875274,0.3300673052679719
2.0282425751762108,-0.56773180515084,-0.3182155231284589,-0.31784701158956064
0.8782949261893329,0.2842175333864785,-0.25086134882169386,-0.49297694327678554
2.2901741796011565,-0.8210892252483301,6.854308389442046,0.667204067320188
2.7136243836047056,-0.7910142895243992,1.3924281982244127,-0.06902544227614016
4.418403736664826,0.22783665644062734,0.42795242058470784,-0.04068473335167022
2.4079960111318566,-0.20754261647519623,-0.5900231417927277,12.823937649185533
1.6449170166339315,0.18355152369646266,-0.7299535650004612,-0.11012223901505735
1.8972651308108857,-0.41380266058591786,0.5191824861204501,5.015490800613569
0.8255714720846841,-0.3149280317450963,0.1400177221633887,0.3434009448622184
1.1226109414161596,-0.05860272869361416,-0.6178297757041614,-0.37134822890180785
8.046283104487376,0.2094980255249994,0.18937807039712795,-0.594446356549322
0.12694068336861264,-0.8497082642443969,3.2067854523346364,-0.6457491166256738
2.627388272168118,-0.12201550771369873,2.686412661803449,-0.10332170497197823
1.463818793882381,-0.5916151530186388,0.3447817089534915,0.2392946005047405
0.6772240295704073,-0.6697385473318028,-0.6778370314851516,-0.8929196759423875
0.5703764081330751,-0.7119123914784107,1.8076803808342765,-0.37993684940084704
8.76209866425,-0.5251449148673384,0.32407936099671963,3.278820062656658
14.643305982627762,-0.48825249786562996,0.4629012629292668,0.4404604790273994
18.30891379253259,-0.1946712961738314,-0.7989556522793784,-0.4622300346679068
1.3731527093545477,-0.627133172206447,3.5073401422675268,3.3330080608524835
6.161269681343883,0.1389209119862047,-0.13356764650187924,1.6794744968263853
0.1493582969650049,-0.4650521117683202,0.32047057932798584,0.8163328441330833
0.859628958527614,-0.24884274265465667,0.5970728623301169,-0.08192342144535958
1.007549849928505,1.6086189121104395,0.5996739045884745,0.2991957787904447
0.8437700447693637,0.423849074599139,0.7719285355640273,-0.49965499923675916
14.779730391816335,-0.49242868755516167,0.21613951393033193,-0.5978269098233708
1.1583363368744015,-0.26510154448604073,0.01415314998888384,-0.6506705918427196
5.242251377606237,0.20827499548130768,33.612170958995264,-0.09620568346756075
2.148103794335287,-0.48225799062169383,0.8388360087200026,-0.317508680214335
2.087993341176548,-0.7330704675634373,0.43359559194399466,-0.759546317670641
2.73156038436962,-0.35776129679322055,0.45324306957382343,-0.6897270869941174
0.6396380735584204,4.295583477564303,-0.15010272720988382,-0.010980782511752496
1.2488976310151338,-0.325671326815821,-0.4873227855173534,-0.42096624874217614
0.7051321322111352,0.2863294471599591,0.30983156593888306,1.369591036999858
1.3372424953274553,0.20676195300257083,-0.04040991909511904,0.44201645669137446
1.8213702723625702,0.6155240455069724,1.2444314329951838,-0.3976908656820892
4.91474885479981,-0.14920354769998967,2.506866568376103,-0.838067085590383
1.8175823169761305,0.24862144570597655,1.6074740162211474,-0.3350772536229142
0.872517715851026,-0.6928113584112254,-0.2559547138747176,1.3966618742041326
0.9921618341539702,-0.5807440502508076,1.875076026362505,-0.6349130446223019
0.9772660536380846,1.7020321659091682,2.533220174572882,0.896336474145141
2.408132436470126,0.7904453787422885,0.0317477925139642,5.111030843579295
14.924824349556953,-0.5414926232641156,-0.1898964412177585,0.06095940857883253
5.512754508388631,-0.19782271412470875,1.8991085156686682,-0.1080628093720688
1.6413318431297403,-0.30135018887038,-0.028816311166493747,0.931248678497363
0.926553047685301,-0.4162204402960499,-0.4288053132786731,-0.22583148908991013
2.312089537368955,0.39077012620387386,1.135031222682355,1.5454653047657598
2.0185923124296585,0.757344957247992,4.084654332041097,0.4672427806952386
0.30463869322431214,-0.2635069036358322,0.3682394622641214,-0.6266320060913833
0.9381978134661095,-0.6983605025975651,0.7160536751091415,2.036670723622244
6.9521047719069,-0.6291140722926996,1.880435844775774,0.1498588153185143
0.27719572272466175,-0.337925229825738,0.8461756205378894,0.7795009759595812
4.172338132722192,-0.21505849355505358,2.800835203233678,2.5222627960960686
3.422900585075026,-0.8125980040280988,-0.4729449139693438,0.11925440663853348
0.4686153712719998,-0.2564525161198503,0.25655958553864866,0.26498602008015215
2.8507231855296737,-0.5680215723331259,2.1451635274371994,-0.726731502912265
0.8214137903972318,-0.3880084956913803,-0.025829774457404198,0.8694501692045933
19.425824982088336,-0.209855343764912,0.22714221597686368,-0.35603419640241407
1.7281952984276514,-0.309961743428836,0.34963908208601935,0.19634464341019986
1.6190647855065454,-0.41325389226729436,-0.36002769635104415,-0.21917884492071626
1.793984628937935,-0.880827279839402,0.7600983376839769,1.841030449069582
1.1572864964844767,-0.4735198212117687,0.6694825054277116,0.5357540382756718
3.645066247327617,-0.3103523059951181,0.9536159712569281,0.04852329722886384
1.766827424659395,-0.36167818818593767,1.77394671152441,0.8921355199174741
2.222635532024058,-0.626284838616731,1.566368998754387,0.7000779052469481
2.7105817754144153,0.7659472020096438,-0.3199396583072466,-0.4653852669003995
1.3189515737473045,-0.627767312078394,-0.493388330813305,0.14530645701467004
3.213107809031709,-0.3378678980536066,-0.15979481407753093,-0.7427175700320637
7.119605959346812,-0.35557451435115106,1.2061801446205274,1.427479169633998
2.250766053646519,-0.021298903170859917,0.4618854008376072,-0.13918471518454767
1.0691287583051645,-0.40634029624062384,0.5856027837382294,-0.10242409210535486
9.79387117201488,-0.5440040179162138,0.28034047504869664,1.458185674103266
3.6465499772541046,0.5726295758289766,-0.25270896764673667,-0.34769832507253784
3.4296016181008735,-0.2848569047181958,1.147290985298406,1.7194375662428807
0.939825825046154,-0.019571394719012924,0.6346786083188387,-0.2630851650150642
1.8182920878026434,-0.9006677668806367,0.28356972453351537,-0.5672069764413691
1.737835407976147,-0.473446291766071,0.05407759975451687,0.5229313872477142
0.8290492675209424,-0.6449959598169535,-0.24324048950538768,1.6542515357987453
14.65869187755424,-0.3751284319564686,0.557350765639322,0.11918772942882616
2.7539550508613844,-0.28578522859109823,0.21614207114316564,0.7197290029288037
2.889847663495852,-0.0817019729699433,0.6327346237872327,-0.2607433625111901
1.4377173434543815,-0.6361570608910931,-0.5172558825194125,0.2894228852083838
6.038792944855971,2.41285588454571,0.36861202492142997,2.814072373180777
1.7044925023550959,-0.6944635099325334,1.5298966046518525,2.139357125990929
2.0366325401639966,-0.13185059317356485,1.3039086561978674,-0.3921346006696682
3.6424784483971644,-0.6996467437326516,0.7215090903735739,1.2982480594747825
1.40810377978132,-0.2578447868646855,3.542995868706183,-0.2405487742386595
2.4098755787883235,0.07003992960877059,-0.33783557689659327,0.008044281046485802
1.364445370418855,-0.2673172652465938,-0.08371410422553782,0.978785469911978
0.9501202996140201,-0.3327372530334759,0.036138003116448436,-0.27898527967153575
1.5747813246587423,-0.32514888078044857,2.4328228332928763,-0.3134753188005207
3.933099139919962,-0.6766768406566948,1.0675818646399704,0.8157429052760894
1.5320691795857204,-0.4733675537491575,1.039793454237214,-0.410389457624719
2.3863622339733093,0.2559952915153738,16.812988665434954,-0.8389528041445284
1.3435599006368664,-0.07030788267792831,0.2447534728308367,0.7227720027416207
1.243492547151762,-0.7760040524160786,-0.07926113213837249,-0.2537494618098748
3.836815726994849,-0.11344381058950415,1.6129930975099493,-0.741470430370072
1.9850926387187369,1.2853058349382764,-0.14178555862551268,-0.2385348823826624
9.264413673217561,-0.23664949023721338,0.8100312179087288,-0.002426100952573562
1.6272631272117004,-0.05015551225757742,0.46426230796504053,-0.5468798417407609
1.1014300320729493,-0.486209586783357,0.7206301686182921,-0.253607092935753
1.816998786117991,0.03486678951163724,-0.612652635829247,1.7146549247449419
1.1038631054319668,0.03999840304822677,1.4663171259273873,-0.236901837973989
6.86811575104958,-0.05080087877556594,0.6606266684073905,9.01905043117751
2.320263730315458,0.1962130543381273,0.8997862766928197,-0.3086284940370452
2.0645408117277997,-0.1971843796029049,-0.7264217772488326,1.1885516497020143
1.5076446845864502,-0.32323704212264126,0.5864444730942875,-0.37675576174927405
1.3995449233076735,-0.3947127840845658,1.2939796388413316,0.9231703374360911
6.6440304200611475,0.6423866611560936,0.020440870267869116,-0.3490143202896153
1.5183326483625317,-0.46825035195890485,-0.19211342938504372,-0.7942161197987355
2.573559272491798,-0.5734724587453273,0.5526341589260533,2.540895406967546
2.7605735800141855,-0.2678578734664132,-0.10416130475160756,1.1958651407228236
1.8295362982915107,-0.03986068957438482,-0.2786355338319384,0.04161360105697054
0.014692200523815258,0.6324732129160695,3.498279044031281,0.3348799551728845
1.8453631623951816,-0.6535876885354329,0.8112955805044977,-0.28305742999538763
6.427096544036845,-0.22325541521145054,8.183119592477638,0.6413143476519425
1.643547086831874,-0.46283484642731,3.3606493239114448,-0.288800393031862
1.7812073502316053,-0.557692986745439,1.7762239894827028,0.4438979074038272
1.5027646634056877,0.12975453119528146,1.7835877092537311,-0.11449163549373353
0.6445828914066174,0.038039483117439765,-0.711849357196746,0.07945275762442261
0.6008429477946424,-0.7436774393457097,1.9692938504810846,0.06172687180119896
1.979030842275034,1.6418267766846864,0.14926337806294487,0.15918043496865808
2.4630338372907388,-0.3559490236655394,-0.5150064978405164,0.05011653764882773
1.796451517239785,0.14379290159745106,1.3465602001460049,0.425851590690147
3.780135153569499,-0.5070682373759069,0.32769576422948554,0.7617616093197086
0.31443790948155526,-0.5178425006940033,0.576312257805659,-0.6564787957114885
6.71752590402653,0.23642045145291646,0.32220986904303195,3.387674247770219
0.5572486964199663,-0.6441991547055597,-0.2599602118340082,-0.12445823547117729
2.330913607909557,-0.43513180315722566,-0.3939520449936149,-0.18945662827882925
3.1069898671085525,-0.2881618855482031,1.2256047813367776,0.3170279478790716
0.7318840743440762,-0.25141819869263715,-0.28304524775374307,5.328002666169719
1.3453704822068357,3.48544918111826,3.9531027735685154,0.9532096653210855
1.4357892669531602,-0.46083328389996026,3.294234944916785,-0.6307531099640542
2.692895121149796,-0.34922778486909867,-0.2981125777040544,1.3236449288815502
1.8324632634810136,-0.46622635018912184,-0.7155542908970673,1.4188341293122386
1.3715831522498823,0.2742996985085471,0.5250544520121969,-0.18658420648931995
0.9468179956777938,-0.44260417455041456,0.17374648191158215,-0.5417504293235795
4.054580116857987,0.4164257404766971,-0.6462672313988753,-0.11069839586410168
1.68475264141779,17.41756152702376,0.4404976823684956,-0.1816768797723024
3.5253040483201232,-0.25998896620427125,2.7839247972434933,-0.4369075132362267
1.2020837461734604,-0.47690716906038677,1.0735512167177377,-0.4714523214727814
1.7531364727026206,-0.7656923099162466,0.3620944918847242,0.627246678830105
4.575447109341669,-0.7410184987211524,1.5921335053702608,0.3466984442246803
7.1377295034933415,0.2704531348728778,3.9542414075477295,0.12327451695898017
0.9283041345201708,1.5086091180052885,0.08572464671967817,7.170963294352783
1.0281730207418067,0.3021327593151326,-0.0649020371711605,-0.39212514388316355
10.81769513680166,-0.15238372622619145,-0.4606377199476924,-0.5976204615350706
1.0168549436756722,-0.5503476487156622,-0.24735385016656297,-0.4945241677322797
2.254470774500977,0.7025024455790259,1.0506507586632723,-0.2337126846627552
1.3431330111345554,-0.6373736618929943,0.8947383863378311,-0.8522949925711754
2.547858410695778,-0.15064023788957126,-0.6772406035426441,0.03710845286895581
0.34323285299106954,-0.31938262216986213,1.0464799524277049,-0.5718683767750383
1.8219798603320538,-0.7279702243133602,1.8143641006573592,4.117451971263193
4.122185003583303,-0.7345593964188722,-0.43298428208226447,0.6180270118758273
4.2470014848255095,-0.25137844838840173,0.5068021157876292,0.7902378437415576
1.7682625127579823,3.450699952858143,-0.39973109919402405,1.7848895624978232
3.588297395380647,-0.36546029361259325,-0.591382251671587,0.18406230045031924
1.854459619020263,-0.7533746958271286,0.719309642567193,-0.6437983403165564
2.3502573549833077,0.18185865525803324,0.14270658114079193,-0.7615285075801255
4.774991758402673,-0.8378726619719385,0.6754094384360481,0.4736763917471336
5.4063229175484215,-0.36192885424109866,-0.2680560056757255,-0.23944173324527163
1.2017522274606538,-0.547619124925491,0.47048316115279265,0.3635506032187854
12.228471929506917,-0.181639647188914,2.8523817543530274,-0.12844401442467135
3.9381369039538194,2.4532542238125226,0.8263377869799409,-0.3273898207545879
1.2521055674153327,0.5961035728220789,-0.3304684463761922,0.23828096382180064
2.958257611746718,-0.3060175073116407,3.108816065561671,0.8862418553895468
5.871572271398936,-0.2802554492845689,-0.11231522666769633,-0.09609071613628317
6.300401429593985,-0.9235510557998233,8.246427839613677,-0.31130672389938585
6.811925277141127,-0.266106069209735,0.5069610026797138,-0.5753636751598998
1.8814683667705379,0.6126324476102092,-0.4301598885837855,-0.7991552404147568
1.0232474397062705,-0.35700317088069544,0.6640015704263902,0.6222723366120886
0.7771022476017744,0.32792050687900964,-0.19636202606039466,-0.6341741676093129
3.042496708722269,-0.13270514407367195,0.4474377560836158,0.31475709639084437
2.573359610050531,-0.8482080027720977,-0.013179283800779262,-0.44639871628385
2.4241684635348983,-0.5369750081399578,0.6506661012882162,0.23094933018297303
1.656925689377152,-0.6529914989624738,-0.2595672442144452,0.4274556414415005
4.935377618469976,-0.7927431926106361,-0.6280967382321297,0.3963092490554938
1.4758830449230436,-0.7713981605463963,0.34351576166893394,-0.4619035330780811
1.0226648379348915,-0.5787501755487872,0.7062381231050143,0.06596106159479875
2.0771965400396044,-0.031218902099398038,-0.6724225761361549,1.0663017175356417
6.379902222585422,1.7447891879211004,0.054070685286139675,-0.4069444267926312
0.9733717954302052,-0.7275535154413697,6.836364393861799,-0.13805418636539302
1.9907464412211047,0.03440055880177484,0.7979695368316073,-0.12353483983655045
2.9323800704856184,-0.6669359412837381,1.5399800450126206,-0.03195978456712267
0.918484056976441,-0.35555427223811886,0.8701752691685913,-0.10315033765468506
3.239966724096085,-0.1488924063646585,1.960646740879421,2.432803526382559
2.3008379109628616,-0.6080093343618025,0.1286843589515394,0.09167639488330992
1.831146628323686,0.024153875529068003,-0.7451813569199922,2.072003431816734
1.0574221305818017,-0.5891301640506938,-0.10773619705621362,-0.4248901537572628
0.7317490423117483,0.44920371576427187,-0.06251236659037573,-0.09625321830303124
1.3864166244574982,-0.13031231388171183,1.6143828985728597,-0.498297013502613
1.1709138537757369,-0.274037255639089,0.7017864942515422,0.8335356004232566
1.0742778452183694,-0.2599215724862538,1.0168064613215382,-0.36475304928081365
2.7829579680075414,-0.7388916653284934,0.9823487258705761,-0.48710632528280084
1.4649989265861878,0.8195330034087192,7.65587848280075,-0.1713687561590126
0.8077166202418913,-0.08215278369699186,-0.08039751755939906,0.9514832927384751
6.816278188988283,-0.328275988573807,-0.3400426796262508,-0.4962465983063279
4.338774815873384,-0.011908119779865944,0.4997642631607928,8.644566287178641
2.085976057682222,5.615059939526232,0.1609197784977685,-0.4624047208782235
3.1333134470072137,0.5069460298053792,1.774473179467794,1.8332370783234673
2.1628040515729428,-0.7960620019696645,0.34997486702606273,-0.24036715226322303
1.4854245759912885,-0.27388118035961506,0.13749695230164205,-0.13324807693487573
0.3047190650343057,-0.3301759227561041,-0.11034468812409859,0.5037245225673199
1.1264170479958429,-0.7903073659216516,-0.12126669539882307,1.0889287891389032
3.544245649097526,-0.8347401737229226,0.733040947974495,2.7594912237467866
2.6603881552929196,-0.7459610732688345,2.2760499314302436,-0.25421103069873874
2.393456773576841,-0.804561633757117,0.14258322014728364,-0.20310240161138826
2.0057038258831947,1.111577780407659,-0.7949387671550315,0.3283901079952265
1.9391455631212189,-0.36094908961349825,0.4014745838959386,1.0119096756368884
2.1425770307054743,-0.5907279781796428,1.8150475795446295,1.256360659928443
0.33921636035993297,3.4204167160183383,-0.43496511734969023,0.6906344795122306
1.3893039044733824,0.4965777677291725,0.17969707464701035,0.2277825548859458
2.6226870116097376,-0.4600785012283882,4.292193048422344,1.67533411376639
1.225488232592968,3.260575274430793,2.018799837300732,0.039235880274626656
1.2554763198158785,-0.4663421620474183,1.5887175825198043,-0.4006294224210418
3.509732786812494,-0.804844377029557,0.08150221732386664,-0.7629969302788397
2.2165933657374652,0.6953989544530259,0.6198849794086065,0.9894496162872066
0.293489984705698,-0.5294694075573605,0.26056140833571373,-0.09959973909206166
5.878286950375669,0.5948353566612761,-0.16837100787959736,-0.18356415685656802
1.6259001915871245,-0.33340052054256186,2.3840199635439565,-0.10239836262905122
4.450396445795842,-0.42789754755919185,-0.5154824820597738,14.177748714496792
0.9177445849434573,-0.4668154445326005,6.049825122359988,0.02083592144568769
2.2899942368050827,1.0739210764022693,-0.7998728237683496,0.09187212267067335
4.960367402518398,0.41544488070210894,2.6234759248825537,0.6571630034418208
1.5273614652138896,-0.7859645274040328,0.48251105877982736,-0.17410873720404396
3.4634803730666652,0.11403619059948356,-0.5362402553417243,0.22701401968744905
2.5159217106281715,0.33907331894810433,0.8170883914017515,0.3247214217553711
1.2377091276108496,-0.8777526841439608,0.10210792678473068,1.4184760557063498
3.5936182261251135,1.4522062026192866,1.0653058231363128,0.5242426580666839
2.1732318289548576,-0.09021432264677143,0.2394661038211945,-0.3172547913760314
4.736307613223085,-0.5592424434023266,0.1584449850219447,0.5632129741125598
1.2272923161172136,-0.2923932671767274,-0.5323305191122907,-0.44337119969318683
1.0183774987862142,1.0079168070809361,7.809221232023919,0.5872968785493298
2.247227295330723,6.98665753145666,0.32358373114933126,-0.005273973416321964
0.750361863215194,-0.8966760253289997,1.2334402618103888,0.5507301443716821
1.461950857180733,0.17655427036922378,-0.6139541845367755,1.0147351505473305
2.165675207832274,5.442727168654806,4.022785978141428,-0.4275907085713231
0.9674147237235671,0.4961835685475682,-0.12096135430053157,-0.49451018179517814
0.29261061153083223,-0.6022254859556686,0.4311402711190244,1.8321288132163018
1.715508189130921,-0.34714355192342583,0.49226657701281984,0.10450623854965957
1.8684304432801686,-0.828222843513868,-0.18259489133971862,-0.174859748653591
2.6831415167040964,-0.7551197370633215,0.7707042805512088,2.740736928042315
0.9504060299056676,-0.8750233557110983,1.0418604202492499,0.01901670537236777
2.989764169504789,-0.11925194790157334,1.84692567188182,0.2729962039635925
0.3728160386818109,-0.25127969724235333,0.5433264494904002,0.1563660578258439
2.2669462889186165,-0.49036664267209484,0.6581228866068765,-0.5219490681379791
0.8490046874365218,-0.26816972904128156,0.4959842280341329,-0.2681598875514415
8.23337926205958,-0.68637913213167,0.43145243878742945,0.12254956735329858
7.528743166238954,-0.8361872335653432,-0.002912211879127713,0.8733870615225989
2.2941929896128443,-0.5619815964478923,0.48941343884498933,0.19507299057443683
1.376973427182247,3.605477172184001,0.21327500544341782,0.7004197840237394
10.692246259709025,-0.28275661376936867,1.6388647164191332,-0.20587695809573037
3.150029964880389,-0.7923452905572502,0.3516348191533647,-0.05550205076156245
3.688707367641366,3.321710075199851,0.946137216798256,-0.2643841256089362
1.4778258946482867,-0.2904802761724048,-0.406491690422651,1.0252840328148882
3.3989266235036126,-0.2657486349984972,-0.4174864259302319,-0.5823547903594357
-0.13230891348997975,-0.7135637606411497,0.35454077533283646,-0.2111226040608697
1.7301640518312955,1.730584007753854,0.6680986569132166,2.676381420892276
1.0675652600349936,-0.10698102694909095,2.198899996589838,-0.4416838106742441
3.169725697128194,-0.08117968916059859,4.619009317724158,0.12138791465585985
4.340692831173836,-0.1799232996256961,-0.6432702329298485,-0.5381226544779628
0.11366777727074395,-0.5974188055250665,5.090944910446344,-0.4319279479300966
0.631197240694868,-0.23531441252137153,2.276389546484497,0.09891712343914172
0.27820049447583806,-0.20706424757564967,0.9884185987447729,0.6208721764743155
14.722552894984087,-0.5863369018639266,1.8368494383692546,-0.6650126349708309
5.95880126108067,0.4079222897424897,-0.6547152936759557,-0.07224627929054828
2.0072967497909717,-0.36696818616612437,0.44386320013432945,0.7669099968922917
1.0448082366013751,-0.3927760153102188,1.2846567655256793,-0.037993093360526364
3.701344917644546,-0.6830794030894811,0.4661668425770573,0.5613009356494436
1.3919114112865154,-0.2788166030384812,4.775116637972919,-0.5930353284793604
2.1231891620904357,-0.7339299432679111,1.7799695933821256,-0.7010698904827604
2.1356682735174717,-0.6454300724373142,-0.035081706737016716,-0.6434762888304932
2.25970515691183,-0.22070198283503406,1.628884453309563,0.0687787935800439
1.5511662089429001,-0.786874740159184,0.22832809500240847,2.048502443816854
1.7878466184014314,0.5088052774509255,-0.4087474914632475,1.1949175300286399
1.6191065619500717,-0.5355312085033654,-0.5178319552784725,0.822825418304618
3.747707424594652,-0.6374764399412527,1.194048750514157,-0.07304896324074117
2.7880688015159727,4.730643358920898,-0.4047875285064396,0.09455586942046335
7.286596537463154,2.620337596771899,1.8454051192583592,-0.5135726600398416
1.7159617168549333,-0.5072333944838815,0.2968638515475486,-0.04261735506118314
0.6528839664910007,-0.7437082175383902,-0.7424914094520885,0.18363374239914854
4.775718968603477,-0.14157694074955363,1.3136631240271206,0.1480644470267174
6.361693780334194,-0.5540370289643799,0.24581245666342255,-0.29056562772805417
0.4284937797101638,-0.7498396024942777,2.1010655808494474,0.16388116069201408
6.1812165070634935,-0.5466872666789799,0.07821114597935352,1.7652036856016564
2.889866330524074,-0.5521213615718532,-0.023336747100241362,-0.2955031565859133
4.918366965976019,-0.029504481417863215,0.06931184091858289,0.18035982089215485
2.074385059259747,-0.34052490503593313,-0.013049971861587073,-0.0817187172937055
1.8421895868772467,-0.38640860019819245,-0.23992585196064076,-0.25200124350694386
1.1608762709565927,-0.1921654692228295,0.5743168610786673,0.035711329087033894
0.7963278909560481,6.272014005021244,0.19687575705000193,0.34101585972636195
1.4507452285366829,-0.7831153838736481,0.6754068774365332,0.5854397100385871
1.5786969860133682,-0.5320348432644176,0.4345362077370536,0.016784568529760513
4.4292331012805715,0.3843319799883995,-0.8808438972813575,1.3076750217233841
1.5533745230666338,1.6255321241477114,-0.5804841509254584,-0.34172037205691175
2.3142086056545685,0.4764199692796163,0.5598305669055577,2.6899234696442837
2.940831257430825,2.4636364364435543,3.3067016696077474,2.6892173539138144
2.5950772288376807,-0.6951608971045513,-0.5315102021665388,-0.44313919450945893
0.7044824068797626,-0.44051762341402,106.40550907647942,-0.6693717973703917
2.43900218349895,-0.2593504492106402,0.6424203456352353,0.6693770767316216
18.423811199258264,0.7989631879065298,3.8178808839481677,1.1839220128574457
2.2011346598834938,-0.5722453639481526,-0.6447256914053252,-0.06630371388338097
1.7161273448089043,-0.3175756458538932,0.8991658682360946,-0.107784001115517
1.4721368362681106,-0.7347100188387414,0.23961872235279125,2.252315167204706
2.7166124016454902,-0.3131951804299543,-0.22759089375900543,-0.2737413234420182
1.5441484252411803,-0.028129048358982334,-0.036895875410270174,0.05419984859297755
1.6576564748730203,-0.4389643015700323,0.385038041731123,-0.12202775196398552
0.008964330349077398,1.863369089965568,0.9284617517253761,0.48289694482529133
2.8230011964114863,-0.6306417725279134,0.3566439149305649,0.48345161642160384
0.9341668952545727,-0.6520370135665337,-0.26138808759527044,-0.3092243838561858
1.0382005620701427,-0.5823465468142888,0.900193163474156,0.4488596147365287
1.2622631733318213,1.023015482892312,0.1687521182298366,-0.15297444687705541
2.749609179729091,-0.33546860566845804,1.426908904955814,1.517371190693789
3.031263989263218,0.007001898173066845,1.7989305995313667,-0.5410020865202478
3.1308182241723435,-0.39691517529276377,0.76086077027932,-0.38530535815902467
4.459547009242893,-0.7710565515132944,4.9151435544429125,5.224591329749821
1.0753968698378942,0.10833301166356701,0.6152253914644847,1.596261165397542
2.4835310338030734,-0.7453070800800357,-0.1860235592647963,-0.3607006697250965
2.5928413088559803,0.3668985124909778,-0.5671766507404981,1.0023307045874361
3.6211185970647097,-0.35647840228069194,-0.03944631481616556,-0.24650070945247105
2.789178647084608,-0.1408743566317836,-0.5446954137948401,-0.28743571281101543
1.2107751804200202,-0.29227425679813157,0.2781317720314831,-0.435055586970306
1.3561038533819079,-0.5636180003003097,0.29742290896661716,0.18167218595591028
1.3194300047208882,6.428162933781234,-0.1912190963671847,1.2708801493115454
3.6620535963868273,-0.20397544368252452,-0.00824749811582981,4.893484267278231
1.436127307745659,-0.5569729312561331,0.5353089255452865,-0.8054028574376788
1.3711317881874172,-0.6023908491613377,-0.4541692188535207,0.9325380980305655
1.758697448253426,-0.6936099384474513,-0.3433433831337672,-0.4033845321608165
4.608457544348018,-0.10175434138374306,0.32547551899023186,5.447591940923067
1.496726334863384,-0.22074533529386164,-0.060637706280059045,-0.23832831313001113
2.9813475912217977,-0.5804078935814689,-0.16126984753365248,-0.3646404816662765
0.5077475680723553,-0.8324753305093624,0.703586996249824,-0.4380583835575549
2.855090190803475,-0.7383735295729241,1.7551271533540636,-0.448422119267871
1.3689790570451206,-0.5533951454749746,0.7387248709018712,1.3591257331477822
0.7108189057449126,-0.6094787457361815,0.35948985158770785,5.377258728790604
1.4800871071283916,-0.24589405951829135,0.17144067484733294,0.3451677939707092
2.317848223236575,-0.49552766803935433,0.044563408676576266,0.22422733789960803
0.990974698730327,-0.48818822873594436,-0.7631135433702876,-0.33650046758086083
2.1400007116683595,0.409315311850327,0.7304972128565654,-0.016627261534346793
1.978885746496466,-0.06003922378660942,11.574134516324815,0.25307636296751146
0.602356343714959,-0.8459530645093718,0.4193025439695697,-0.2778178977139407
2.572143763510548,1.2484300063591296,0.5365230807546744,-0.5102277269648852
7.110178668872878,-0.6757006865109731,1.8552328701583463,-0.21823015955104952
8.354952607120033,-0.7023443877568283,1.5459061508607324,-0.6756994978491511
2.0982491999263226,0.15116882960420464,1.1078320343041295,-0.10826575538922845
2.350244499770753,-0.6754053070366627,0.6009383675986566,-0.030051376265731622
3.9396403747510167,0.9969798830894252,0.6805010424436007,-0.2581920770981019
1.1322658346927699,0.08768266326236862,-0.1952757731255268,0.435606848300091
7.962919022661406,-0.3751323598918602,15.368716745257444,1.1568716291077945
55.51372167778689,0.050401565727028474,0.08783251171518747,-0.599521431819959
5.513350471746379,-0.2642755689630225,1.1205785620516338,0.7795847677437229
3.166247346593347,-0.1885936876775357,0.01006198898702726,0.42874474384720074
0.8217053694975325,-0.588236871168071,-0.19737249493940967,0.19814025254978107
1.723165811245801,-0.8555616542240083,1.74406202930352,0.24487781032908607
3.0399760521981625,-0.6781952694014637,0.319389779974246,2.495207197435043
1.8346612089472711,-0.6661481002089058,0.9050966373486873,0.17915727022251282
1.784407952455886,-0.5100876554842617,0.3298072405324326,-0.740854246482891
0.1535577715973533,-0.5397917926957918,-0.33573052904763123,0.16992998513486213
1.1982771392039822,-0.01968576214652995,0.4377626718133154,-0.2745705271730161
2.065833124440759,-0.5939297008755606,0.9397846814769801,0.2014682691489822
3.9530610823045027,0.4233555634340578,0.24926662519319764,1.2141858566520334
1.622036517654665,-0.5806931682237881,0.35243545428211775,0.2573399627078845
4.2582798153716395,0.11271403321043527,1.296098675545164,-0.8493678265651572
3.6496060588781063,2.5400547306595516,0.04927184011985797,-0.35804480629664115
1.9491504434643443,0.10827589979003838,0.08609432076973889,-0.333511512848509
1.054241125182768,0.24137078135400736,1.0278874333996981,0.47838929612035486
2.680902572863281,-0.33947899371980494,1.6063172971538595,-0.6304449881602221
1.4607317148945045,0.45891175947957175,0.6285563442404838,0.5512277324402799
3.241334112425612,-0.546858685412705,0.1074501848852123,-0.9062133841437281
